{"learner":{"attributes":{"scikit_learn":"{\"_estimator_type\": \"regressor\"}"},"feature_names":["L","DS","APC","DV","IV","GBC","DN5","DN10","COf1","COfi","COh","COt","MD","SB","SBT","PD","COE","IN","FCm","DNOp","DNOn","SPa","SBb","SBm","FCr","FCd","SPc","FCs","ID","model_DTW-KNN","model_KERNEL","model_NN","model_RF","model_SHAPELET","model_TS-RF"],"feature_types":["float","float","float","float","float","float","float","float","float","float","float","float","float","float","float","float","float","float","float","float","float","float","float","float","float","float","float","float","float","c","c","c","c","c","c"],"gradient_booster":{"model":{"gbtree_model_param":{"num_parallel_tree":"1","num_trees":"100"},"iteration_indptr":[0,1,2,3,4,5,6,7,8,9,10,11,12,13,14,15,16,17,18,19,20,21,22,23,24,25,26,27,28,29,30,31,32,33,34,35,36,37,38,39,40,41,42,43,44,45,46,47,48,49,50,51,52,53,54,55,56,57,58,59,60,61,62,63,64,65,66,67,68,69,70,71,72,73,74,75,76,77,78,79,80,81,82,83,84,85,86,87,88,89,90,91,92,93,94,95,96,97,98,99,100],"tree_info":[0,0,0,0,0,0,0,0,0,0,0,0,0,0,0,0,0,0,0,0,0,0,0,0,0,0,0,0,0,0,0,0,0,0,0,0,0,0,0,0,0,0,0,0,0,0,0,0,0,0,0,0,0,0,0,0,0,0,0,0,0,0,0,0,0,0,0,0,0,0,0,0,0,0,0,0,0,0,0,0,0,0,0,0,0,0,0,0,0,0,0,0,0,0,0,0,0,0,0,0],"trees":[{"base_weights":[-3.939044E-10,3.1033564E-2,-6.598875E-3,9.539658E-2,8.737258E-3,-1.2361044E-2,8.248533E-3,1.19687825E-1,1.2732774E-2,3.263177E-3,4.5156308E-2,-5.220662E-2,-1.023329E-2,5.3311646E-2,-3.3047558E-3,8.70953E-2,2.1404575E-1,-4.8723277E-3,4.1645583E-2,1.171604E-1,1.4762488E-3,8.609773E-2,1.4344866E-2,-1.703358E-1,-2.2440573E-2,-6.719615E-3,-2.9579697E-2,3.899329E-2,3.0427903E-1,-1.9825067E-2,7.0460252E-3,4.591678E-2,1.2096639E-1,2.5868574E-1,1.069286E-1,1.4264052E-2,-8.717174E-3,8.695043E-3,6.6307664E-2,2.0309903E-2,4.816245E-2,-8.737591E-3,1.1023348E-2,-1.2018653E-2,1.1786288E-1,-3.0464549E-3,5.5178486E-2,-1.7676659E-2,-2.2024015E-1,-2.504022E-2,3.0401006E-2,2.7667037E-3,-1.2471228E-2,-1.5601182E-2,-6.976933E-2,-8.1735894E-2,5.3840734E-2,1.2125824E-1,-6.358752E-2,-3.4931112E-2,-1.8789008E-2,-6.881399E-4,4.0447515E-2,-1.9184917E-3,2.1442153E-2,7.6169446E-2,1.4345695E-2,4.438191E-4,8.460027E-2,1.7693837E-3,4.198505E-2,-5.7703312E-3,5.014536E-4,-5.1405653E-4,5.8595967E-3,3.7950906E-3,2.1430066E-2,-2.3455499E-2,-2.2196039E-3,1.0430956E-2,4.717483E-4,2.5828E-3,-6.0988613E-3,4.129774E-2,1.2638912E-2,7.509089E-3,-2.9816125E-3,3.7360613E-3,1.7379131E-2,1.0231279E-3,-8.038074E-3,-2.3246892E-2,-6.9972254E-2,-5.0153364E-3,-9.301763E-3,2.0265436E-2,1.2676604E-3,-3.1210985E-3,6.7812316E-3,4.5995587E-3,-4.7705933E-3,-7.6958216E-3,-2.2772956E-3,-4.614002E-2,-1.29550835E-2,-5.634777E-2,-3.0487103E-3,1.1636018E-2,4.0074274E-2,-2.5734348E-2,-2.8800366E-3,-3.8111194E-3,-1.2237929E-2,-7.193375E-3,-4.956207E-3,1.5089371E-2,-1.5594448E-3,5.440729E-3,2.251676E-2],"categories":[0,0,0,0,0,0],"categories_nodes":[0,6,11,50,54,59],"categories_segments":[0,1,2,3,4,5],"categories_sizes":[1,1,1,1,1,1],"default_left":[1,0,0,0,0,0,1,0,0,0,0,1,0,0,0,0,0,0,0,0,0,0,0,0,0,0,0,0,0,0,0,0,0,0,0,0,0,0,0,0,0,0,0,0,0,0,0,0,0,0,1,0,0,0,1,0,0,0,0,1,0,0,0,0,0,0,0,0,0,0,0,0,0,0,0,0,0,0,0,0,0,0,0,0,0,0,0,0,0,0,0,0,0,0,0,0,0,0,0,0,0,0,0,0,0,0,0,0,0,0,0,0,0,0,0,0,0,0,0],"id":0,"left_children":[1,3,5,7,9,11,13,15,17,19,21,23,25,27,29,31,33,35,37,39,41,43,45,47,49,51,53,55,57,59,61,63,65,67,69,-1,71,73,75,-1,-1,77,79,81,83,85,87,89,91,93,95,97,99,101,103,105,107,-1,109,111,113,115,117,-1,-1,-1,-1,-1,-1,-1,-1,-1,-1,-1,-1,-1,-1,-1,-1,-1,-1,-1,-1,-1,-1,-1,-1,-1,-1,-1,-1,-1,-1,-1,-1,-1,-1,-1,-1,-1,-1,-1,-1,-1,-1,-1,-1,-1,-1,-1,-1,-1,-1,-1,-1,-1,-1,-1,-1],"loss_changes":[8.1750816E-1,1.0037067E0,2.817433E-1,3.5991728E-1,1.0371962E-1,2.0056772E-1,4.796738E-1,4.0883327E-1,2.1581454E-2,9.222791E-2,8.454451E-2,4.181262E-1,1.5295337E-1,6.6370195E-1,1.2565231E-1,1.4089549E-1,1.3969886E-1,5.8561517E-3,1.2425518E-2,4.151009E-3,4.3781936E-2,9.180033E-2,2.857412E-2,1.7894739E-1,1.4086094E-2,1.041381E-1,1.9329134E-1,3.252617E-1,3.9325577E-1,3.77284E-3,1.16794184E-1,6.596686E-2,5.4210484E-1,1.4350617E-1,3.920886E-2,0E0,2.8729246E-3,9.358448E-4,1.5717186E-3,0E0,0E0,1.9599054E-2,5.2011866E-2,1.5465181E-3,2.7183563E-2,5.8606183E-3,6.894879E-4,1.4371222E-3,1.5331745E-2,4.0989853E-3,4.576711E-3,1.8860781E-1,1.1356172E-1,2.0578124E-2,1.9218594E-1,1.4995596E-1,1.8688434E-1,0E0,2.77102E-3,1.6968176E-3,2.7464926E-3,8.488213E-2,6.427349E-2,0E0,0E0,0E0,0E0,0E0,0E0,0E0,0E0,0E0,0E0,0E0,0E0,0E0,0E0,0E0,0E0,0E0,0E0,0E0,0E0,0E0,0E0,0E0,0E0,0E0,0E0,0E0,0E0,0E0,0E0,0E0,0E0,0E0,0E0,0E0,0E0,0E0,0E0,0E0,0E0,0E0,0E0,0E0,0E0,0E0,0E0,0E0,0E0,0E0,0E0,0E0,0E0,0E0,0E0,0E0,0E0],"parents":[2147483647,0,0,1,1,2,2,3,3,4,4,5,5,6,6,7,7,8,8,9,9,10,10,11,11,12,12,13,13,14,14,15,15,16,16,17,17,18,18,19,19,20,20,21,21,22,22,23,23,24,24,25,25,26,26,27,27,28,28,29,29,30,30,31,31,32,32,33,33,34,34,36,36,37,37,38,38,41,41,42,42,43,43,44,44,45,45,46,46,47,47,48,48,49,49,50,50,51,51,52,52,53,53,54,54,55,55,56,56,58,58,59,59,60,60,61,61,62,62],"right_children":[2,4,6,8,10,12,14,16,18,20,22,24,26,28,30,32,34,36,38,40,42,44,46,48,50,52,54,56,58,60,62,64,66,68,70,-1,72,74,76,-1,-1,78,80,82,84,86,88,90,92,94,96,98,100,102,104,106,108,-1,110,112,114,116,118,-1,-1,-1,-1,-1,-1,-1,-1,-1,-1,-1,-1,-1,-1,-1,-1,-1,-1,-1,-1,-1,-1,-1,-1,-1,-1,-1,-1,-1,-1,-1,-1,-1,-1,-1,-1,-1,-1,-1,-1,-1,-1,-1,-1,-1,-1,-1,-1,-1,-1,-1,-1,-1,-1,-1,-1],"split_conditions":[NaN,4.198527E-2,1.08803704E-1,5E2,7.613808E-1,-2.4151303E-1,NaN,8.956065E-1,1.7637795E-2,1.2078026E-33,4E1,NaN,2.216787E0,6.7716646E-1,2.0593297E-1,3.995942E-1,1.0815809E0,2.4194693E-2,1.7201322E-1,2.0776398E0,4.5382294E-1,5.0045215E-2,3.9333332E1,1.8031035E-1,1.5E3,1.74E2,1.2965065E-1,3.7368422E0,2.77E2,1.484375E-1,7.300338E-2,7.015969E-1,3.46E2,1.1400767E-4,2.841194E-2,1.4264052E-2,1.9889244E-1,6.1087785E0,3.4326348E-3,2.0309903E-2,4.816245E-2,5.8333335E0,7.8576937E0,3.6173912E1,7.808333E-1,-4.995276E-1,-2.274341E-2,1.50876045E-2,3.5262157E-3,4.57575E-2,NaN,2.9781622E-1,4.8604652E-1,6.741629E-1,NaN,1.8219979E-1,5.9700485E-2,1.2125824E-1,2.69E2,NaN,2.7E1,1.3655927E-2,4.8327303E-1,-1.9184917E-3,2.1442153E-2,7.6169446E-2,1.4345695E-2,4.438191E-4,8.460027E-2,1.7693837E-3,4.198505E-2,-5.7703312E-3,5.014536E-4,-5.1405653E-4,5.8595967E-3,3.7950906E-3,2.1430066E-2,-2.3455499E-2,-2.2196039E-3,1.0430956E-2,4.717483E-4,2.5828E-3,-6.0988613E-3,4.129774E-2,1.2638912E-2,7.509089E-3,-2.9816125E-3,3.7360613E-3,1.7379131E-2,1.0231279E-3,-8.038074E-3,-2.3246892E-2,-6.9972254E-2,-5.0153364E-3,-9.301763E-3,2.0265436E-2,1.2676604E-3,-3.1210985E-3,6.7812316E-3,4.5995587E-3,-4.7705933E-3,-7.6958216E-3,-2.2772956E-3,-4.614002E-2,-1.29550835E-2,-5.634777E-2,-3.0487103E-3,1.1636018E-2,4.0074274E-2,-2.5734348E-2,-2.8800366E-3,-3.8111194E-3,-1.2237929E-2,-7.193375E-3,-4.956207E-3,1.5089371E-2,-1.5594448E-3,5.440729E-3,2.251676E-2],"split_indices":[31,3,19,0,25,11,33,10,3,21,1,33,28,7,28,28,10,14,16,9,28,14,17,28,0,1,26,17,0,15,4,25,1,4,28,0,5,9,4,0,0,13,8,13,24,19,11,14,4,5,29,28,25,12,33,16,11,0,1,34,1,14,28,0,0,0,0,0,0,0,0,0,0,0,0,0,0,0,0,0,0,0,0,0,0,0,0,0,0,0,0,0,0,0,0,0,0,0,0,0,0,0,0,0,0,0,0,0,0,0,0,0,0,0,0,0,0,0,0],"split_type":[1,0,0,0,0,0,1,0,0,0,0,1,0,0,0,0,0,0,0,0,0,0,0,0,0,0,0,0,0,0,0,0,0,0,0,0,0,0,0,0,0,0,0,0,0,0,0,0,0,0,1,0,0,0,1,0,0,0,0,1,0,0,0,0,0,0,0,0,0,0,0,0,0,0,0,0,0,0,0,0,0,0,0,0,0,0,0,0,0,0,0,0,0,0,0,0,0,0,0,0,0,0,0,0,0,0,0,0,0,0,0,0,0,0,0,0,0,0,0],"sum_hessian":[3.99E3,6.99E2,3.291E3,1.79E2,5.2E2,2.371E3,9.2E2,1.38E2,4.1E1,4.53E2,6.7E1,1.19E2,2.252E3,1.87E2,7.33E2,1.04E2,3.4E1,2.6E1,1.5E1,6E0,4.47E2,2.8E1,3.9E1,2.3E1,9.6E1,1.907E3,3.45E2,1.78E2,9E0,2.82E2,4.51E2,4.8E1,5.6E1,2.3E1,1.1E1,1E0,2.5E1,7E0,8E0,4E0,2E0,2.16E2,2.31E2,7E0,2.1E1,2.8E1,1.1E1,6E0,1.7E1,9.2E1,4E0,7.2E2,1.187E3,2.57E2,8.8E1,1.9E1,1.59E2,7E0,2E0,1.6E1,2.66E2,3.67E2,8.4E1,1.6E1,3.2E1,1.9E1,3.7E1,2E0,2.1E1,3E0,8E0,1.2E1,1.3E1,4E0,3E0,1E0,7E0,3E0,2.13E2,6.5E1,1.66E2,2E0,5E0,1.6E1,5E0,5E0,2.3E1,1E0,1E1,2E0,4E0,2E0,1.5E1,4E1,5.2E1,1E0,3E0,4.33E2,2.87E2,1.3E2,1.057E3,1.13E2,1.44E2,2E1,6.8E1,7E0,1.2E1,1.35E2,2.4E1,1E0,1E0,4E0,1.2E1,7.8E1,1.88E2,2.9E1,3.38E2,5.2E1,3.2E1],"tree_param":{"num_deleted":"0","num_feature":"35","num_nodes":"119","size_leaf_vector":"1"}},{"base_weights":[8.714973E-5,2.230659E-2,-4.637545E-3,6.593776E-2,4.7222474E-3,-1.2640496E-2,2.011174E-3,1.5575336E-1,5.5152863E-2,9.1794044E-2,3.4788775E-3,-1.4992615E-2,7.4854726E-3,-1.4257788E-2,9.452431E-3,5.531997E-2,2.8351787E-1,4.4988435E-2,1.7318653E-1,1.5435525E-2,3.8529955E-2,-4.5007849E-4,3.1905826E-2,-1.2353172E-2,-2.5785321E-2,1.1031692E-1,-4.1538836E-3,-1.1971716E-2,-3.0517496E-2,-1.269145E-2,1.8975662E-2,6.472171E-2,6.5402277E-3,-2.6140944E-3,3.2113603E-1,4.2547323E-3,5.8105182E-2,1.9692379E-1,-2.0309696E-2,-1.3444524E-2,3.6218266E-3,6.882946E-2,7.093041E-3,-1.7972257E-2,-8.38343E-3,-6.872963E-3,-5.6854427E-2,-3.4063794E-3,1.3926838E-1,-9.8511735E-3,2.4268258E-2,-1.5166311E-2,-2.54521E-3,-7.275722E-2,-1.8442709E-2,3.2616876E-2,-2.1858333E-2,6.453114E-2,6.977178E-3,1.2444324E-2,-3.5243183E-3,1.0301291E-1,2.4818039E-2,2.2446342E-2,-2.87541E-3,3.518208E-2,1.4368456E-2,-2.204562E-3,7.0419684E-2,-3.3216845E-2,-2.8376416E-3,3.0034983E-3,-4.9893893E-3,1.4982293E-2,5.5320557E-2,-8.248131E-4,1.0182753E-2,-8.916489E-3,-3.5142363E-3,3.0517268E-3,-3.932052E-3,-6.0242116E-3,3.084748E-3,-4.3544926E-2,-9.799153E-3,2.1665463E-2,4.831327E-2,2.7980285E-3,-4.5939106E-3,2.2493059E-2,-3.0664762E-4,-4.242573E-3,-2.2538118E-2,1.0667959E-2,-3.9567538E-3,-1.0444553E-2,-4.2503484E-2,-1.6021324E-2,-4.396041E-3,6.568776E-3,2.4392173E-2,-1.4414925E-2,-4.3730536E-3,2.8362045E-2,-4.6149236E-3,4.4385246E-3,-1.2141695E-3],"categories":[0,0,0,0,0,0,0,0,0],"categories_nodes":[0,25,28,30,44,46,49,52,56],"categories_segments":[0,1,2,3,4,5,6,7,8],"categories_sizes":[1,1,1,1,1,1,1,1,1],"default_left":[1,0,0,0,0,0,0,0,0,0,0,0,0,0,0,0,0,0,0,0,0,0,0,0,0,1,0,0,1,0,1,0,0,0,0,0,0,0,0,0,0,0,0,0,1,0,1,0,0,1,0,0,1,0,0,0,1,0,0,0,0,0,0,0,0,0,0,0,0,0,0,0,0,0,0,0,0,0,0,0,0,0,0,0,0,0,0,0,0,0,0,0,0,0,0,0,0,0,0,0,0,0,0,0,0,0,0],"id":1,"left_children":[1,3,5,7,9,11,13,15,17,19,21,23,25,27,29,31,33,35,37,-1,-1,39,41,43,45,47,49,51,53,55,57,-1,59,-1,61,63,65,67,-1,69,71,73,75,77,79,81,83,-1,85,87,89,91,93,95,97,99,101,103,105,-1,-1,-1,-1,-1,-1,-1,-1,-1,-1,-1,-1,-1,-1,-1,-1,-1,-1,-1,-1,-1,-1,-1,-1,-1,-1,-1,-1,-1,-1,-1,-1,-1,-1,-1,-1,-1,-1,-1,-1,-1,-1,-1,-1,-1,-1,-1,-1],"loss_changes":[4.1907892E-1,5.367464E-1,1.7519069E-1,1.8610871E-1,5.3811893E-2,7.083623E-2,2.1792446E-1,2.5378412E-1,2.0936239E-1,3.738638E-3,5.5188347E-2,3.7796736E-2,1.8837026E-1,2.0636186E-2,2.6067924E-1,1.0031662E-1,1.017372E-1,8.951414E-2,9.3383014E-2,0E0,0E0,2.306548E-2,5.4482482E-2,2.3873225E-2,1.5355784E-1,5.7942435E-2,2.3233017E-2,1.4927983E-2,3.3850625E-2,1.5521798E-1,4.718093E-1,0E0,7.516272E-3,0E0,1.4011979E-2,4.173429E-2,7.1107626E-2,1.0212684E-1,0E0,3.927599E-2,4.3131985E-2,4.318247E-2,9.871078E-3,3.2372326E-2,5.5613797E-2,3.7366394E-2,2.0671454E-1,0E0,7.3506236E-3,1.2607741E-2,3.0855242E-2,2.1725819E-2,5.197883E-2,3.4292534E-2,6.503744E-3,3.1106167E-2,5.8420464E-2,4.3312067E-1,5.909851E-2,0E0,0E0,0E0,0E0,0E0,0E0,0E0,0E0,0E0,0E0,0E0,0E0,0E0,0E0,0E0,0E0,0E0,0E0,0E0,0E0,0E0,0E0,0E0,0E0,0E0,0E0,0E0,0E0,0E0,0E0,0E0,0E0,0E0,0E0,0E0,0E0,0E0,0E0,0E0,0E0,0E0,0E0,0E0,0E0,0E0,0E0,0E0,0E0],"parents":[2147483647,0,0,1,1,2,2,3,3,4,4,5,5,6,6,7,7,8,8,9,9,10,10,11,11,12,12,13,13,14,14,15,15,16,16,17,17,18,18,21,21,22,22,23,23,24,24,25,25,26,26,27,27,28,28,29,29,30,30,32,32,34,34,35,35,36,36,37,37,39,39,40,40,41,41,42,42,43,43,44,44,45,45,46,46,48,48,49,49,50,50,51,51,52,52,53,53,54,54,55,55,56,56,57,57,58,58],"right_children":[2,4,6,8,10,12,14,16,18,20,22,24,26,28,30,32,34,36,38,-1,-1,40,42,44,46,48,50,52,54,56,58,-1,60,-1,62,64,66,68,-1,70,72,74,76,78,80,82,84,-1,86,88,90,92,94,96,98,100,102,104,106,-1,-1,-1,-1,-1,-1,-1,-1,-1,-1,-1,-1,-1,-1,-1,-1,-1,-1,-1,-1,-1,-1,-1,-1,-1,-1,-1,-1,-1,-1,-1,-1,-1,-1,-1,-1,-1,-1,-1,-1,-1,-1,-1,-1,-1,-1,-1,-1],"split_conditions":[NaN,4.8333805E-2,1.9850979E-2,2.1300378E-1,1.2078026E-33,1.5274705E-1,1.05094135E-1,2.1353997E-1,1.299408E-1,2.0776398E0,7.613808E-1,1.2965065E-1,1.7974929E-9,9.939142E-1,-2.2063492E-1,2.3100042E-4,1.6E1,-5.8613026E-1,6.5747625E-3,1.5435525E-2,3.8529955E-2,-1.9473077E-1,3.5E1,1.2918501E0,1.1764383E1,NaN,2.1243839E-1,1.63305E1,NaN,3.056448E-2,NaN,6.472171E-2,-7.364966E-1,-2.6140944E-3,8.119581E-1,2.142647E-1,1.3470362E-2,-5.4365796E-1,-2.0309696E-2,1.9E1,7.36E2,9.251507E-3,1.3525684E0,1.4248648E0,NaN,5.0810546E-2,NaN,-3.4063794E-3,4.6E1,NaN,1.8835409E-1,8.5368824E-1,NaN,-1.2633309E-2,5.010577E1,8.2344776E-1,NaN,2.990487E-1,5.219024E-1,1.2444324E-2,-3.5243183E-3,1.0301291E-1,2.4818039E-2,2.2446342E-2,-2.87541E-3,3.518208E-2,1.4368456E-2,-2.204562E-3,7.0419684E-2,-3.3216845E-2,-2.8376416E-3,3.0034983E-3,-4.9893893E-3,1.4982293E-2,5.5320557E-2,-8.248131E-4,1.0182753E-2,-8.916489E-3,-3.5142363E-3,3.0517268E-3,-3.932052E-3,-6.0242116E-3,3.084748E-3,-4.3544926E-2,-9.799153E-3,2.1665463E-2,4.831327E-2,2.7980285E-3,-4.5939106E-3,2.2493059E-2,-3.0664762E-4,-4.242573E-3,-2.2538118E-2,1.0667959E-2,-3.9567538E-3,-1.0444553E-2,-4.2503484E-2,-1.6021324E-2,-4.396041E-3,6.568776E-3,2.4392173E-2,-1.4414925E-2,-4.3730536E-3,2.8362045E-2,-4.6149236E-3,4.4385246E-3,-1.2141695E-3],"split_indices":[31,3,4,24,21,7,28,28,14,9,25,26,5,21,19,5,1,7,3,0,0,6,1,16,22,30,5,22,33,4,33,0,6,0,25,24,5,6,0,1,0,11,16,23,33,11,33,0,0,33,3,18,33,6,15,12,33,26,24,0,0,0,0,0,0,0,0,0,0,0,0,0,0,0,0,0,0,0,0,0,0,0,0,0,0,0,0,0,0,0,0,0,0,0,0,0,0,0,0,0,0,0,0,0,0,0,0],"split_type":[1,0,0,0,0,0,0,0,0,0,0,0,0,0,0,0,0,0,0,0,0,0,0,0,0,1,0,0,1,0,1,0,0,0,0,0,0,0,0,0,0,0,0,0,1,0,1,0,0,1,0,0,1,0,0,0,1,0,0,0,0,0,0,0,0,0,0,0,0,0,0,0,0,0,0,0,0,0,0,0,0,0,0,0,0,0,0,0,0,0,0,0,0,0,0,0,0,0,0,0,0,0,0,0,0,0,0],"sum_hessian":[3.99E3,6.99E2,3.291E3,2E2,4.99E2,1.493E3,1.798E3,2E1,1.8E2,6E0,4.93E2,1.337E3,1.56E2,5.64E2,1.234E3,1.2E1,8E0,1.67E2,1.3E1,4E0,2E0,4.34E2,5.9E1,1.076E3,2.61E2,1.5E1,1.41E2,4.96E2,6.8E1,3.71E2,8.63E2,2E0,1E1,1E0,7E0,4.1E1,1.26E2,1.2E1,1E0,1.03E2,3.31E2,2.3E1,3.6E1,4.44E2,6.32E2,1.63E2,9.8E1,3E0,1.2E1,1.18E2,2.3E1,3.7E2,1.26E2,1.4E1,5.4E1,6.2E1,3.09E2,1.79E2,6.84E2,3E0,7E0,6E0,1E0,6E0,3.5E1,1.7E1,1.09E2,2E0,1E1,3E0,1E2,2.52E2,7.9E1,2.1E1,2E0,2.7E1,9E0,1.53E2,2.91E2,1.28E2,5.04E2,9.2E1,7.1E1,2E1,7.8E1,4E0,8E0,2.6E1,9.2E1,7E0,1.6E1,3.65E2,5E0,2.7E1,9.9E1,1E1,4E0,4E0,5E1,5.2E1,1E1,6.6E1,2.43E2,1.3E2,4.9E1,4E2,2.84E2],"tree_param":{"num_deleted":"0","num_feature":"35","num_nodes":"107","size_leaf_vector":"1"}},{"base_weights":[1.5485306E-4,1.6202427E-2,-3.2574972E-3,5.6741733E-2,5.8754445E-3,-2.7624512E-2,-1.8060317E-3,7.0745215E-2,-5.5229305E-3,5.253489E-3,5.2938975E-2,-9.397045E-2,-1.0963948E-2,-7.7667846E-3,4.159719E-3,1.466777E-2,9.102443E-2,-1.1598098E-2,3.230881E-2,4.0453266E-2,3.1061526E-3,2.9297816E-3,-1.2522158E-1,-1.700123E-2,1.7039966E-3,1.326908E-2,-9.299222E-3,-1.0274759E-2,1.1200316E-2,-1.5608882E-2,1.250285E-1,1.9390208E-1,6.245352E-2,-1.9430693E-2,-2.1462778E-3,1.2401647E-2,7.8281556E-4,1.5455458E-2,1.7235035E-1,7.196518E-2,2.1750215E-3,-2.1348659E-2,3.3215363E-2,1.2944439E-2,-1.4231928E-1,-8.15722E-3,-1.995839E-2,-1.3762888E-3,2.9085767E-2,5.0985396E-2,9.987922E-4,-7.061587E-3,-2.6105762E-2,-8.436557E-3,-2.4183098E-2,3.809445E-2,3.899475E-3,9.25434E-3,-9.326483E-3,1.6000453E-2,4.963952E-2,2.0455334E-2,7.5323656E-2,2.3208851E-2,1.3849264E-3,-1.3141563E-3,-6.5306583E-3,-3.2994256E-3,5.4920577E-3,1.3758287E-2,9.4093144E-4,5.9130944E-2,1.1000867E-2,1.1731E-2,3.0823965E-2,-1.3610489E-4,6.4929696E-3,-2.3775618E-3,-1.3666148E-2,7.969869E-3,-4.18814E-3,-3.39805E-2,-5.237067E-2,-1.3676736E-3,-1.0627213E-2,-6.4237057E-3,1.403864E-3,1.8721209E-3,-1.2072162E-3,1.7881578E-2,1.966374E-3,3.6624834E-2,8.473195E-3,9.01619E-3,-2.1565745E-3,5.694616E-3,-2.2469112E-3,5.1961793E-3,-1.2283667E-2,-2.854432E-3,6.46185E-3,-1.6908575E-2,-4.4304123E-3,2.0694658E-3,2.6313169E-2,7.842827E-3,4.50745E-4],"categories":[0,0,0,0,0,0,0,0,0,0],"categories_nodes":[0,5,23,28,47,48,49,50,52,54],"categories_segments":[0,1,2,3,4,5,6,7,8,9],"categories_sizes":[1,1,1,1,1,1,1,1,1,1],"default_left":[1,0,0,0,0,1,0,0,0,0,0,0,0,0,0,0,0,0,0,0,0,0,0,1,0,0,0,0,1,0,0,0,0,0,0,0,0,0,0,0,0,0,0,0,0,0,0,1,1,1,1,0,1,0,1,0,0,0,0,0,0,0,0,0,0,0,0,0,0,0,0,0,0,0,0,0,0,0,0,0,0,0,0,0,0,0,0,0,0,0,0,0,0,0,0,0,0,0,0,0,0,0,0,0,0,0,0],"id":2,"left_children":[1,3,5,7,9,11,13,15,17,19,-1,21,23,25,27,29,31,33,35,37,39,41,43,45,47,49,51,53,55,57,59,61,63,65,67,-1,-1,69,71,73,75,77,-1,79,81,83,85,87,89,91,93,95,97,99,101,103,105,-1,-1,-1,-1,-1,-1,-1,-1,-1,-1,-1,-1,-1,-1,-1,-1,-1,-1,-1,-1,-1,-1,-1,-1,-1,-1,-1,-1,-1,-1,-1,-1,-1,-1,-1,-1,-1,-1,-1,-1,-1,-1,-1,-1,-1,-1,-1,-1,-1,-1],"loss_changes":[2.1859974E-1,2.927208E-1,1.163812E-1,1.2420368E-1,5.838173E-2,2.0346141E-1,1.1055393E-1,1.3058072E-1,6.5802424E-3,4.2051204E-2,0E0,1.1241183E-1,1.142448E-2,5.0250612E-2,1.5804398E-1,1.0887487E-1,2.3773134E-1,1.7350714E-3,9.6487626E-4,1.0284464E-1,3.3633024E-2,2.8532945E-2,6.798729E-2,2.4786629E-3,4.17287E-3,4.9004816E-2,5.4345652E-2,1.2834802E-2,2.0503698E-1,1.9656159E-2,1.1468254E-2,1.1226672E-1,5.828005E-2,3.6210846E-4,2.373907E-3,0E0,0E0,1.0344006E-2,9.564728E-3,3.062997E-3,2.6672602E-2,2.5632293E-3,0E0,1.8368488E-3,3.6489367E-3,2.4875945E-3,2.7868934E-3,9.326362E-4,3.0475142E-3,3.8590133E-2,1.9484773E-2,1.442495E-2,1.1026371E-1,1.4813881E-2,1.70426E-2,3.445623E-1,4.3840576E-2,0E0,0E0,0E0,0E0,0E0,0E0,0E0,0E0,0E0,0E0,0E0,0E0,0E0,0E0,0E0,0E0,0E0,0E0,0E0,0E0,0E0,0E0,0E0,0E0,0E0,0E0,0E0,0E0,0E0,0E0,0E0,0E0,0E0,0E0,0E0,0E0,0E0,0E0,0E0,0E0,0E0,0E0,0E0,0E0,0E0,0E0,0E0,0E0,0E0,0E0],"parents":[2147483647,0,0,1,1,2,2,3,3,4,4,5,5,6,6,7,7,8,8,9,9,11,11,12,12,13,13,14,14,15,15,16,16,17,17,18,18,19,19,20,20,21,21,22,22,23,23,24,24,25,25,26,26,27,27,28,28,29,29,30,30,31,31,32,32,33,33,34,34,37,37,38,38,39,39,40,40,41,41,43,43,44,44,45,45,46,46,47,47,48,48,49,49,50,50,51,51,52,52,53,53,54,54,55,55,56,56],"right_children":[2,4,6,8,10,12,14,16,18,20,-1,22,24,26,28,30,32,34,36,38,40,42,44,46,48,50,52,54,56,58,60,62,64,66,68,-1,-1,70,72,74,76,78,-1,80,82,84,86,88,90,92,94,96,98,100,102,104,106,-1,-1,-1,-1,-1,-1,-1,-1,-1,-1,-1,-1,-1,-1,-1,-1,-1,-1,-1,-1,-1,-1,-1,-1,-1,-1,-1,-1,-1,-1,-1,-1,-1,-1,-1,-1,-1,-1,-1,-1,-1,-1,-1,-1,-1,-1,-1,-1,-1,-1],"split_conditions":[NaN,3.2273397E-2,-1.4307922E-1,9.951342E-1,8.575388E-1,NaN,2.1368127E-2,8.383998E-1,7.0800394E-1,4.2576613E-7,5.2938975E-2,1.8031035E-1,7.2E2,3.2302637E0,1.0561438E-1,-7.216694E-2,1.4868418E-3,1.9889244E-1,7.004372E-3,7.3550725E-1,1.2078026E-33,4.220349E-1,4.816159E-1,NaN,1.5E3,8.9710146E-1,1.2965065E-1,9.939142E-1,NaN,-6.50083E-1,1.8983403E-2,8.6687356E-2,6.3215905E-1,-6.190284E-1,1.24E2,1.2401647E-2,7.8281556E-4,2.8177778E1,7.4E1,2.0776398E0,7.613808E-1,2.8506854E-1,3.3215363E-2,2.75E2,1.38E2,3.374286E1,3.374286E1,NaN,NaN,NaN,NaN,2.0180107E1,NaN,8.606822E-1,NaN,2.044981E1,3.6777306E-1,9.25434E-3,-9.326483E-3,1.6000453E-2,4.963952E-2,2.0455334E-2,7.5323656E-2,2.3208851E-2,1.3849264E-3,-1.3141563E-3,-6.5306583E-3,-3.2994256E-3,5.4920577E-3,1.3758287E-2,9.4093144E-4,5.9130944E-2,1.1000867E-2,1.1731E-2,3.0823965E-2,-1.3610489E-4,6.4929696E-3,-2.3775618E-3,-1.3666148E-2,7.969869E-3,-4.18814E-3,-3.39805E-2,-5.237067E-2,-1.3676736E-3,-1.0627213E-2,-6.4237057E-3,1.403864E-3,1.8721209E-3,-1.2072162E-3,1.7881578E-2,1.966374E-3,3.6624834E-2,8.473195E-3,9.01619E-3,-2.1565745E-3,5.694616E-3,-2.2469112E-3,5.1961793E-3,-1.2283667E-2,-2.854432E-3,6.46185E-3,-1.6908575E-2,-4.4304123E-3,2.0694658E-3,2.6313169E-2,7.842827E-3,4.50745E-4],"split_indices":[31,3,11,21,24,33,4,10,24,5,0,28,0,8,28,7,4,5,3,12,21,3,24,29,0,12,26,21,33,7,3,28,5,6,2,0,0,17,1,9,25,3,0,0,1,15,15,34,29,33,29,13,32,18,33,8,25,0,0,0,0,0,0,0,0,0,0,0,0,0,0,0,0,0,0,0,0,0,0,0,0,0,0,0,0,0,0,0,0,0,0,0,0,0,0,0,0,0,0,0,0,0,0,0,0,0,0],"split_type":[1,0,0,0,0,1,0,0,0,0,0,0,0,0,0,0,0,0,0,0,0,0,0,1,0,0,0,0,1,0,0,0,0,0,0,0,0,0,0,0,0,0,0,0,0,0,0,1,1,1,1,0,1,0,1,0,0,0,0,0,0,0,0,0,0,0,0,0,0,0,0,0,0,0,0,0,0,0,0,0,0,0,0,0,0,0,0,0,0,0,0,0,0,0,0,0,0,0,0,0,0,0,0,0,0,0,0],"sum_hessian":[3.99E3,6.99E2,3.291E3,1.41E2,5.58E2,1.84E2,3.107E3,1.15E2,2.6E1,5.57E2,1E0,3.6E1,1.48E2,1.554E3,1.553E3,3.1E1,8.4E1,2.3E1,3E0,3.1E1,5.26E2,9E0,2.7E1,1E2,4.8E1,1.05E2,1.449E3,5.09E2,1.044E3,2.5E1,6E0,1.7E1,6.7E1,1.2E1,1.1E1,2E0,1E0,2.7E1,4E0,6E0,5.2E2,8E0,1E0,3E0,2.4E1,2.6E1,7.4E1,4.4E1,4E0,2.5E1,8E1,1.28E3,1.69E2,4.51E2,5.8E1,2.22E2,8.22E2,6E0,1.9E1,3E0,3E0,6E0,1.1E1,5.3E1,1.4E1,2E0,1E1,8E0,3E0,7E0,2E1,3E0,1E0,4E0,2E0,4.59E2,6.1E1,6E0,2E0,2E0,1E0,1.5E1,9E0,2.4E1,2E0,7E1,4E0,1.1E1,3.3E1,1E0,3E0,5E0,2E1,1.7E1,6.3E1,2E1,1.26E3,4.3E1,1.26E2,4.36E2,1.5E1,1.2E1,4.6E1,1.37E2,8.5E1,7.9E1,7.43E2],"tree_param":{"num_deleted":"0","num_feature":"35","num_nodes":"107","size_leaf_vector":"1"}},{"base_weights":[2.0499379E-4,1.1884778E-2,-2.2786192E-3,6.059665E-3,4.9839444E-2,-5.3653866E-3,5.673705E-3,5.3692028E-2,3.9250143E-3,-2.2213714E-2,6.078823E-2,-1.6317558E-3,-1.1470133E-2,2.7894182E-2,-2.537319E-5,6.1048504E-2,3.2729488E-2,3.416316E-3,4.499813E-2,-4.195559E-2,1.7764406E-2,1.08100794E-1,3.0837687E-2,-5.7857744E-3,1.1864528E-2,-2.6910754E-2,-7.217021E-3,1.759173E-2,1.6522785E-1,-6.461709E-3,7.7021597E-3,-5.239428E-3,7.113502E-2,-1.3233066E-3,1.2271686E-2,-1.4643033E-2,-2.173066E-2,-1.3891322E-3,3.0996477E-2,1.6172758E-1,6.571927E-2,7.9963945E-2,1.0088186E-2,-7.391652E-3,1.3738765E-2,2.6139602E-2,-9.944387E-3,-2.1740865E-2,-5.558314E-2,-3.064324E-2,-5.914507E-3,-4.5714304E-2,2.740711E-2,-1.3266602E-2,2.32485E-1,-2.243314E-3,-1.8969385E-2,-5.435183E-5,3.192996E-2,-2.994739E-3,2.378405E-3,2.602346E-2,5.468732E-3,-6.971185E-3,4.846618E-4,-4.918763E-4,7.0767715E-3,-5.4346174E-3,4.07812E-4,2.4223533E-4,-8.6734485E-4,2.869273E-3,1.1079142E-2,5.9821572E-2,8.13046E-3,9.147554E-3,4.7477305E-2,3.3124637E-2,-9.414472E-3,8.831856E-3,-1.1341018E-4,1.2766603E-4,-2.9194488E-3,-6.136498E-3,1.1281844E-2,2.0637931E-2,4.4235094E-3,-3.9303815E-3,1.5301814E-2,-3.296463E-3,-2.35091E-2,-4.4236947E-2,1.1632387E-2,-5.514581E-3,-1.0151031E-3,-2.5632301E-2,2.7008392E-3,5.979269E-4,1.6569236E-2,7.7544086E-2,2.5700774E-2,-1.8607232E-3,2.0883665E-3,-1.6700821E-2,-4.5641395E-3,7.1552247E-3,-2.469638E-3,1.8468275E-3,1.5133171E-2],"categories":[0,0,0,0,0,0],"categories_nodes":[0,6,12,45,49,57],"categories_segments":[0,1,2,3,4,5],"categories_sizes":[1,1,1,1,1,1],"default_left":[1,0,0,0,0,0,1,0,0,0,0,0,1,0,0,0,0,0,0,0,0,0,0,0,0,0,0,0,0,0,0,0,0,0,0,0,0,0,0,0,0,0,0,0,0,1,0,0,0,1,0,0,0,0,0,0,0,1,0,0,0,0,0,0,0,0,0,0,0,0,0,0,0,0,0,0,0,0,0,0,0,0,0,0,0,0,0,0,0,0,0,0,0,0,0,0,0,0,0,0,0,0,0,0,0,0,0,0,0],"id":3,"left_children":[1,3,5,7,9,11,13,15,17,19,21,23,25,27,29,-1,31,33,-1,35,37,39,41,43,45,47,49,51,53,55,57,59,61,63,65,67,-1,69,71,73,75,77,79,81,83,85,87,89,-1,91,93,95,97,-1,99,101,103,105,107,-1,-1,-1,-1,-1,-1,-1,-1,-1,-1,-1,-1,-1,-1,-1,-1,-1,-1,-1,-1,-1,-1,-1,-1,-1,-1,-1,-1,-1,-1,-1,-1,-1,-1,-1,-1,-1,-1,-1,-1,-1,-1,-1,-1,-1,-1,-1,-1,-1,-1],"loss_changes":[1.15798265E-1,1.5446115E-1,8.083908E-2,6.1609752E-2,7.471754E-2,5.4045975E-2,1.16632685E-1,7.498624E-2,4.280736E-2,1.1005478E-2,1.1144638E-1,8.265064E-2,5.890941E-2,2.630896E-1,3.6556724E-2,0E0,3.53699E-2,2.4443427E-2,0E0,6.4316895E-3,1.3102631E-3,5.9827745E-2,5.1179923E-2,3.5437535E-2,1.0828933E-1,1.5480684E-1,2.1391436E-2,1.1061451E-1,1.9341195E-1,2.1115134E-2,6.2768094E-2,8.910386E-4,8.328959E-3,2.4510222E-2,3.1999305E-2,3.5802205E-4,0E0,1.223238E-5,2.8324313E-5,6.053692E-2,5.7112336E-2,5.4324597E-2,7.5049344E-3,1.9063402E-2,7.095516E-2,1.0104951E-1,2.7221296E-2,1.1421073E-1,0E0,3.057478E-1,2.110983E-2,5.293872E-2,1.0807795E-1,0E0,1.602137E-2,1.1012111E-2,1.3073895E-2,4.9850937E-2,3.834071E-2,0E0,0E0,0E0,0E0,0E0,0E0,0E0,0E0,0E0,0E0,0E0,0E0,0E0,0E0,0E0,0E0,0E0,0E0,0E0,0E0,0E0,0E0,0E0,0E0,0E0,0E0,0E0,0E0,0E0,0E0,0E0,0E0,0E0,0E0,0E0,0E0,0E0,0E0,0E0,0E0,0E0,0E0,0E0,0E0,0E0,0E0,0E0,0E0,0E0,0E0],"parents":[2147483647,0,0,1,1,2,2,3,3,4,4,5,5,6,6,7,7,8,8,9,9,10,10,11,11,12,12,13,13,14,14,16,16,17,17,19,19,20,20,21,21,22,22,23,23,24,24,25,25,26,26,27,27,28,28,29,29,30,30,31,31,32,32,33,33,34,34,35,35,37,37,38,38,39,39,40,40,41,41,42,42,43,43,44,44,45,45,46,46,47,47,49,49,50,50,51,51,52,52,54,54,55,55,56,56,57,57,58,58],"right_children":[2,4,6,8,10,12,14,16,18,20,22,24,26,28,30,-1,32,34,-1,36,38,40,42,44,46,48,50,52,54,56,58,60,62,64,66,68,-1,70,72,74,76,78,80,82,84,86,88,90,-1,92,94,96,98,-1,100,102,104,106,108,-1,-1,-1,-1,-1,-1,-1,-1,-1,-1,-1,-1,-1,-1,-1,-1,-1,-1,-1,-1,-1,-1,-1,-1,-1,-1,-1,-1,-1,-1,-1,-1,-1,-1,-1,-1,-1,-1,-1,-1,-1,-1,-1,-1,-1,-1,-1,-1,-1,-1],"split_conditions":[NaN,5.518353E-1,1.08803704E-1,1.6875E0,8.3231133E-1,8.2570803E-1,NaN,6.998119E-9,8.575388E-1,-4.164859E-1,1.6466194E-3,4.3895984E-1,NaN,7.7882236E-1,2.5328872E-1,6.1048504E-2,4.3312393E-2,3.7615743E-2,4.499813E-2,2.3527117E-1,8.2E1,3.7828892E-1,-3.632525E-1,8.9202935E-1,1.24E2,7.233221E-2,-7.565193E-1,3.98E0,2.3E1,5.1815087E-1,4.6941184E-2,2.8916666E-1,1.64E2,6.125E0,4.7674417E-1,4.1840615E-4,-2.173066E-2,4.15E2,2.1E1,1.4102372E0,3.876308E-3,3.5262157E-3,9.6645385E-2,9.9E1,9.999261E0,NaN,5.7E2,1.0522378E2,-5.558314E-2,NaN,8.853837E-2,6.1157376E-1,1.2965065E-1,-1.3266602E-2,-1.2131158E-2,2.0593297E-1,1.9E1,NaN,-1.22219466E-1,-2.994739E-3,2.378405E-3,2.602346E-2,5.468732E-3,-6.971185E-3,4.846618E-4,-4.918763E-4,7.0767715E-3,-5.4346174E-3,4.07812E-4,2.4223533E-4,-8.6734485E-4,2.869273E-3,1.1079142E-2,5.9821572E-2,8.13046E-3,9.147554E-3,4.7477305E-2,3.3124637E-2,-9.414472E-3,8.831856E-3,-1.1341018E-4,1.2766603E-4,-2.9194488E-3,-6.136498E-3,1.1281844E-2,2.0637931E-2,4.4235094E-3,-3.9303815E-3,1.5301814E-2,-3.296463E-3,-2.35091E-2,-4.4236947E-2,1.1632387E-2,-5.514581E-3,-1.0151031E-3,-2.5632301E-2,2.7008392E-3,5.979269E-4,1.6569236E-2,7.7544086E-2,2.5700774E-2,-1.8607232E-3,2.0883665E-3,-1.6700821E-2,-4.5641395E-3,7.1552247E-3,-2.469638E-3,1.8468275E-3,1.5133171E-2],"split_indices":[31,20,19,15,10,28,33,5,24,7,4,28,33,25,28,0,5,19,0,28,0,18,7,5,2,19,19,17,1,18,4,19,1,22,24,3,0,1,1,28,3,4,14,0,9,33,0,15,0,29,18,18,26,0,11,28,1,29,20,0,0,0,0,0,0,0,0,0,0,0,0,0,0,0,0,0,0,0,0,0,0,0,0,0,0,0,0,0,0,0,0,0,0,0,0,0,0,0,0,0,0,0,0,0,0,0,0,0,0],"split_type":[1,0,0,0,0,0,1,0,0,0,0,0,1,0,0,0,0,0,0,0,0,0,0,0,0,0,0,0,0,0,0,0,0,0,0,0,0,0,0,0,0,0,0,0,0,1,0,0,0,1,0,0,0,0,0,0,0,1,0,0,0,0,0,0,0,0,0,0,0,0,0,0,0,0,0,0,0,0,0,0,0,0,0,0,0,0,0,0,0,0,0,0,0,0,0,0,0,0,0,0,0,0,0,0,0,0,0,0,0],"sum_hessian":[3.99E3,6.99E2,3.291E3,6.07E2,9.2E1,2.371E3,9.2E2,2.5E1,5.82E2,1.2E1,8E1,1.472E3,8.99E2,1.87E2,7.33E2,2E0,2.3E1,5.81E2,1E0,8E0,4E0,3E1,5E1,1.126E3,3.46E2,1.93E2,7.06E2,1.75E2,1.2E1,4E2,3.33E2,1.2E1,1.1E1,3.79E2,2.02E2,5E0,3E0,2E0,2E0,1.2E1,1.8E1,1.4E1,3.6E1,1.041E3,8.5E1,2.09E2,1.37E2,1.88E2,5E0,3.6E1,6.7E2,2.3E1,1.52E2,3E0,9E0,3E2,1E2,2.53E2,8E1,9E0,3E0,8E0,3E0,4.4E1,3.35E2,9.1E1,1.11E2,4E0,1E0,1E0,1E0,1E0,1E0,9E0,3E0,1.4E1,4E0,1.1E1,3E0,1.2E1,2.4E1,2.4E2,8.01E2,3.5E1,5E1,4.3E1,1.66E2,1.31E2,6E0,1.59E2,2.9E1,1.3E1,2.3E1,1.12E2,5.58E2,1.3E1,1E1,8E1,7.2E1,7E0,2E0,2.1E2,9E1,8E0,9.2E1,6.4E1,1.89E2,3.4E1,4.6E1],"tree_param":{"num_deleted":"0","num_feature":"35","num_nodes":"109","size_leaf_vector":"1"}},{"base_weights":[2.1432948E-4,-8.137899E-4,1.521761E-2,-9.187599E-3,9.4638346E-4,4.6536338E-2,8.67657E-3,-2.5434982E-2,-5.6779967E-3,5.6502182E-2,4.3788666E-4,1.8888168E-1,1.4501225E-2,2.2092607E-2,5.1135323E-3,-1.20078605E-2,-8.4965535E-2,-3.4974795E-3,-1.7510483E-2,1.20850086E-1,3.345957E-2,9.353113E-3,-1.4497605E-3,7.3745266E-2,3.1667E-2,5.5254824E-2,-3.669447E-2,1.259806E-2,-1.171872E-2,-8.572238E-2,-6.0751694E-3,-3.0863063E-2,-3.444618E-2,-1.6005161E-3,-1.841863E-2,-2.586602E-2,-8.320274E-3,3.9071325E-2,5.17249E-2,3.2962944E-2,1.5610771E-2,2.640488E-2,1.5431959E-3,6.5920623E-3,-3.456518E-3,3.8527526E-2,4.2832833E-2,-1.2823609E-2,-2.7425947E-2,4.9392816E-2,6.108077E-3,6.684976E-3,-1.6637381E-2,-7.4410294E-3,-3.756322E-2,2.99368E-2,-2.5236437E-3,-5.4746256E-3,-1.4987951E-2,5.0285375E-3,-9.5273013E-4,-1.4889365E-2,-2.8785865E-3,-2.2203869E-3,-8.96252E-3,-3.9462824E-3,1.6497996E-5,2.4099568E-2,-4.3784868E-4,-1.9364272E-3,2.360556E-2,1.0439269E-2,-2.3086884E-3,3.2759003E-2,1.07761174E-4,6.6368934E-3,6.933907E-4,-1.1476857E-3,1.9320924E-2,3.5880033E-2,8.213714E-3,-8.605812E-3,3.13907E-3,4.86132E-2,4.0063956E-3,-4.055201E-5,1.0753283E-2,6.8329293E-3,-5.569911E-3,-2.4367205E-3,-6.121661E-3],"categories":[0,0,0,0,0,0,0,0,0],"categories_nodes":[2,3,9,10,20,28,34,35,49],"categories_segments":[0,1,2,3,4,5,6,7,8],"categories_sizes":[1,1,1,1,1,1,1,1,1],"default_left":[0,0,1,1,0,0,0,0,0,1,1,0,0,0,0,0,0,0,0,0,1,0,0,0,0,0,0,0,1,0,0,0,0,0,1,1,0,0,0,0,0,0,0,0,0,0,0,0,0,1,0,0,0,0,0,0,0,0,0,0,0,0,0,0,0,0,0,0,0,0,0,0,0,0,0,0,0,0,0,0,0,0,0,0,0,0,0,0,0,0,0],"id":4,"left_children":[1,3,5,7,9,11,13,15,17,19,21,23,25,-1,27,29,31,33,35,37,39,41,43,-1,-1,45,47,49,51,53,55,-1,57,59,61,63,65,67,-1,-1,69,71,73,75,77,79,-1,81,-1,83,85,87,89,-1,-1,-1,-1,-1,-1,-1,-1,-1,-1,-1,-1,-1,-1,-1,-1,-1,-1,-1,-1,-1,-1,-1,-1,-1,-1,-1,-1,-1,-1,-1,-1,-1,-1,-1,-1,-1,-1],"loss_changes":[6.1574213E-2,5.5074926E-2,5.203963E-2,3.6862753E-2,8.7211095E-2,1.9790316E-1,4.8927456E-2,9.0902016E-2,1.3742264E-2,3.7473224E-2,5.1526524E-2,1.2005776E-2,7.9224676E-2,0E0,2.572187E-2,4.1025136E-2,1.5458524E-2,1.2792629E-2,6.158285E-3,2.2782631E-2,2.8291643E-2,7.120674E-2,4.0803485E-2,0E0,0E0,2.5243074E-2,2.1035466E-2,3.336873E-2,5.8140773E-3,1.37334615E-2,2.2858284E-2,0E0,8.472642E-4,1.1710102E-2,1.3569139E-2,2.9619988E-3,1.6606513E-3,6.8065426E-3,0E0,0E0,2.6951537E-2,4.834853E-2,4.6866376E-2,3.3523347E-2,5.0916474E-2,1.3898352E-2,0E0,5.1022433E-3,0E0,8.3090544E-2,2.246856E-2,6.1115082E-3,1.4385469E-3,0E0,0E0,0E0,0E0,0E0,0E0,0E0,0E0,0E0,0E0,0E0,0E0,0E0,0E0,0E0,0E0,0E0,0E0,0E0,0E0,0E0,0E0,0E0,0E0,0E0,0E0,0E0,0E0,0E0,0E0,0E0,0E0,0E0,0E0,0E0,0E0,0E0,0E0],"parents":[2147483647,0,0,1,1,2,2,3,3,4,4,5,5,6,6,7,7,8,8,9,9,10,10,11,11,12,12,14,14,15,15,16,16,17,17,18,18,19,19,20,20,21,21,22,22,25,25,26,26,27,27,28,28,29,29,30,30,32,32,33,33,34,34,35,35,36,36,37,37,40,40,41,41,42,42,43,43,44,44,45,45,47,47,49,49,50,50,51,51,52,52],"right_children":[2,4,6,8,10,12,14,16,18,20,22,24,26,-1,28,30,32,34,36,38,40,42,44,-1,-1,46,48,50,52,54,56,-1,58,60,62,64,66,68,-1,-1,70,72,74,76,78,80,-1,82,-1,84,86,88,90,-1,-1,-1,-1,-1,-1,-1,-1,-1,-1,-1,-1,-1,-1,-1,-1,-1,-1,-1,-1,-1,-1,-1,-1,-1,-1,-1,-1,-1,-1,-1,-1,-1,-1,-1,-1,-1,-1],"split_conditions":[3.846737E-1,2.1084441E-1,NaN,NaN,3.4986556E0,-4.5728174E-1,2.755764E1,1.3746575E1,1.841919E-1,NaN,NaN,-2.153206E-2,3.885E1,2.2092607E-2,6.2261105E-1,3.9928572E0,1.688242E-1,8.9202935E-1,9.507924E-1,2.0848443E-1,NaN,4.8333805E-2,4.5962557E-1,7.3745266E-2,3.1667E-2,1.179551E1,9.97205E1,1.7135599E-4,NaN,3.5262157E-3,5.563885E-2,-3.0863063E-2,1.1138486E2,2.7685978E-2,NaN,NaN,4.0461594E-1,2.1E1,5.17249E-2,3.2962944E-2,3.6E2,6.655067E-1,1.6482264E-1,1.5030849E-1,3.89972E-1,2.8E1,4.2832833E-2,1.9628534E-2,-2.7425947E-2,NaN,4.6074554E-1,1.2282628E0,1.8598832E-2,-7.4410294E-3,-3.756322E-2,2.99368E-2,-2.5236437E-3,-5.4746256E-3,-1.4987951E-2,5.0285375E-3,-9.5273013E-4,-1.4889365E-2,-2.8785865E-3,-2.2203869E-3,-8.96252E-3,-3.9462824E-3,1.6497996E-5,2.4099568E-2,-4.3784868E-4,-1.9364272E-3,2.360556E-2,1.0439269E-2,-2.3086884E-3,3.2759003E-2,1.07761174E-4,6.6368934E-3,6.933907E-4,-1.1476857E-3,1.9320924E-2,3.5880033E-2,8.213714E-3,-8.605812E-3,3.13907E-3,4.86132E-2,4.0063956E-3,-4.055201E-5,1.0753283E-2,6.8329293E-3,-5.569911E-3,-2.4367205E-3,-6.121661E-3],"split_indices":[7,16,33,33,22,20,9,22,16,29,31,11,15,0,28,13,16,5,12,26,33,3,10,0,0,16,3,5,31,4,12,0,8,10,31,34,10,1,0,0,0,5,10,3,26,1,0,3,0,31,28,28,3,0,0,0,0,0,0,0,0,0,0,0,0,0,0,0,0,0,0,0,0,0,0,0,0,0,0,0,0,0,0,0,0,0,0,0,0,0,0],"split_type":[0,0,1,1,0,0,0,0,0,1,1,0,0,0,0,0,0,0,0,0,1,0,0,0,0,0,0,0,1,0,0,0,0,0,1,1,0,0,0,0,0,0,0,0,0,0,0,0,0,1,0,0,0,0,0,0,0,0,0,0,0,0,0,0,0,0,0,0,0,0,0,0,0,0,0,0,0,0,0,0,0,0,0,0,0,0,0,0,0,0,0],"sum_hessian":[3.99E3,3.735E3,2.55E2,6.48E2,3.087E3,4.3E1,2.12E2,1.14E2,5.34E2,2.7E1,3.06E3,7E0,3.6E1,1E1,2.02E2,9.4E1,2E1,4.52E2,8.2E1,6E0,2.1E1,5.34E2,2.526E3,3E0,4E0,2E1,1.6E1,1.4E2,6.2E1,6E0,8.8E1,1.4E1,6E0,4.02E2,5E1,4.2E1,4E1,3E0,3E0,3E0,1.8E1,1.67E2,3.67E2,5.04E2,2.022E3,1.8E1,2E0,1.2E1,4E0,2E1,1.2E2,1.3E1,4.9E1,3E0,3E0,1E0,8.7E1,4E0,2E0,3.1E1,3.71E2,1E1,4E1,8E0,3.4E1,2.5E1,1.5E1,1E0,2E0,1.4E1,4E0,1.34E2,3.3E1,3E0,3.64E2,1.08E2,3.96E2,2.012E3,1E1,1E0,1.7E1,7E0,5E0,4E0,1.6E1,1E2,2E1,8E0,5E0,1.6E1,3.3E1],"tree_param":{"num_deleted":"0","num_feature":"35","num_nodes":"91","size_leaf_vector":"1"}},{"base_weights":[2.3431377E-4,-2.2869103E-3,4.953732E-3,-8.997367E-4,-1.4314332E-2,-4.8978534E-3,8.198324E-3,-2.4849486E-3,9.535731E-3,-1.2840639E-1,-1.1223234E-2,1.9654825E-2,-1.0135802E-2,7.403495E-3,1.2511595E-1,5.5037183E-3,-4.213457E-3,2.1544104E-2,-9.982364E-3,-1.251223E-3,-4.452516E-2,-2.0789351E-2,-1.659511E-4,9.4422676E-2,3.1430381E-3,-2.4077537E-2,-6.9943243E-3,1.0743587E-2,-2.5052333E-3,9.292491E-3,1.3564362E-1,3.792171E-2,-7.446099E-5,3.462221E-3,-6.3302945E-3,6.9573924E-2,1.1440155E-2,9.920922E-3,-1.41454935E-2,-7.174017E-2,-9.724737E-3,-3.1036079E-2,4.083754E-3,1.490255E-1,-1.151659E-2,3.1643335E-2,-4.580043E-3,-3.087814E-2,-1.886501E-2,6.1112787E-3,-8.951576E-3,-1.4421914E-3,1.4738658E-2,6.845685E-2,-4.4283047E-3,1.0904731E-2,1.482327E-1,1.407324E-3,2.2485714E-2,-2.60609E-4,3.6682516E-2,7.8561725E-3,-8.0690085E-4,-1.7796484E-3,-1.8927252E-2,-3.265409E-3,2.749635E-2,-3.6546283E-3,5.4617906E-3,2.7959756E-4,1.1549731E-2,-3.3513317E-3,-1.7367277E-2,-5.4893573E-3,-4.502216E-2,-5.7405E-3,-7.2496705E-4,-4.313112E-2,-3.8142945E-3,-2.555259E-6,1.2162886E-2,9.6868295E-3,5.4766785E-2,3.2409266E-2,7.994677E-4,5.025842E-3,-3.077791E-3,-7.029285E-3,1.1850309E-2,5.247124E-3,-1.6949433E-3,-2.922173E-3,5.6126546E-3,4.4804066E-3,-1.4369956E-3,1.0388978E-2,3.245854E-3,-3.4994807E-3,2.5126392E-2,-1.5992831E-3,8.571111E-3,1.1792911E-2,4.969081E-2],"categories":[0,0,0,0,0,0,0,0,0,0,0,0,0,0,0,0,0],"categories_nodes":[7,9,11,12,14,17,18,21,22,30,33,45,46,51,52,53,56],"categories_segments":[0,1,2,3,4,5,6,7,8,9,10,11,12,13,14,15,16],"categories_sizes":[1,1,1,1,1,1,1,1,1,1,1,1,1,1,1,1,1],"default_left":[0,0,0,0,0,0,0,1,0,1,0,1,1,0,1,0,0,1,1,0,0,1,1,0,0,0,0,0,0,0,1,0,0,1,0,0,0,0,0,0,0,0,0,0,0,1,1,0,0,0,0,1,1,1,0,0,1,0,0,0,0,0,0,0,0,0,0,0,0,0,0,0,0,0,0,0,0,0,0,0,0,0,0,0,0,0,0,0,0,0,0,0,0,0,0,0,0,0,0,0,0,0,0],"id":5,"left_children":[1,3,5,7,9,11,13,15,17,19,21,23,25,27,29,31,33,35,37,-1,-1,39,41,43,45,47,49,51,53,-1,55,57,59,61,63,65,67,69,71,73,75,77,79,81,-1,83,85,-1,87,89,91,93,95,97,99,-1,101,-1,-1,-1,-1,-1,-1,-1,-1,-1,-1,-1,-1,-1,-1,-1,-1,-1,-1,-1,-1,-1,-1,-1,-1,-1,-1,-1,-1,-1,-1,-1,-1,-1,-1,-1,-1,-1,-1,-1,-1,-1,-1,-1,-1,-1,-1],"loss_changes":[4.749908E-2,4.3399207E-2,4.447063E-2,3.8633723E-2,9.3427E-2,4.456818E-2,9.6277915E-2,2.8012976E-2,7.240428E-2,1.6783379E-2,2.7815446E-2,7.501082E-2,1.2313923E-2,3.4446828E-2,2.7360395E-3,6.528368E-2,2.7107604E-2,9.189463E-2,9.917812E-3,0E0,0E0,7.879127E-2,1.6262984E-2,8.549148E-2,1.1370542E-2,1.943057E-2,6.0570333E-3,3.789667E-2,3.6193486E-2,0E0,2.1120384E-3,6.486767E-2,3.013309E-2,5.053889E-2,2.9161666E-2,5.9624538E-2,2.5633756E-2,5.358751E-3,1.2104647E-2,1.01912305E-1,8.000073E-3,2.9154439E-2,1.6263247E-2,2.5419086E-2,0E0,2.4061626E-2,5.1392196E-3,0E0,1.4250334E-2,4.247579E-3,4.634343E-3,1.0653035E-2,4.5307994E-2,9.556789E-3,7.8072813E-3,0E0,2.967E-3,0E0,0E0,0E0,0E0,0E0,0E0,0E0,0E0,0E0,0E0,0E0,0E0,0E0,0E0,0E0,0E0,0E0,0E0,0E0,0E0,0E0,0E0,0E0,0E0,0E0,0E0,0E0,0E0,0E0,0E0,0E0,0E0,0E0,0E0,0E0,0E0,0E0,0E0,0E0,0E0,0E0,0E0,0E0,0E0,0E0,0E0],"parents":[2147483647,0,0,1,1,2,2,3,3,4,4,5,5,6,6,7,7,8,8,9,9,10,10,11,11,12,12,13,13,14,14,15,15,16,16,17,17,18,18,21,21,22,22,23,23,24,24,25,25,26,26,27,27,28,28,30,30,31,31,32,32,33,33,34,34,35,35,36,36,37,37,38,38,39,39,40,40,41,41,42,42,43,43,45,45,46,46,48,48,49,49,50,50,51,51,52,52,53,53,54,54,56,56],"right_children":[2,4,6,8,10,12,14,16,18,20,22,24,26,28,30,32,34,36,38,-1,-1,40,42,44,46,48,50,52,54,-1,56,58,60,62,64,66,68,70,72,74,76,78,80,82,-1,84,86,-1,88,90,92,94,96,98,100,-1,102,-1,-1,-1,-1,-1,-1,-1,-1,-1,-1,-1,-1,-1,-1,-1,-1,-1,-1,-1,-1,-1,-1,-1,-1,-1,-1,-1,-1,-1,-1,-1,-1,-1,-1,-1,-1,-1,-1,-1,-1,-1,-1,-1,-1,-1,-1],"split_conditions":[3.7615743E-2,4.1015623E-3,-4.6426642E-1,-1.1258604E-2,1.6E1,4.7607702E-1,1.21558136E2,NaN,2.990487E-1,NaN,3.2279932E0,NaN,NaN,3.01E2,NaN,9.1235675E-3,8.7E1,NaN,NaN,-1.251223E-3,-4.452516E-2,NaN,NaN,2.6269484E-1,6.5E1,2.2099342E-2,2.459358E-2,8.10559E-2,1.0269178E-1,9.292491E-3,NaN,4.6336306E-3,8.575388E-1,NaN,-1.3344988E-2,1.31E2,1.9885764E-1,1.1157142E3,7.076638E-1,3.845543E1,2.75E2,5.2492823E-3,6.300362E-2,-3.7819022E-1,-1.151659E-2,NaN,NaN,-3.087814E-2,7.0800394E-1,1.1381623E1,1.2736137E-1,NaN,NaN,NaN,3.0328774E-1,1.0904731E-2,NaN,1.407324E-3,2.2485714E-2,-2.60609E-4,3.6682516E-2,7.8561725E-3,-8.0690085E-4,-1.7796484E-3,-1.8927252E-2,-3.265409E-3,2.749635E-2,-3.6546283E-3,5.4617906E-3,2.7959756E-4,1.1549731E-2,-3.3513317E-3,-1.7367277E-2,-5.4893573E-3,-4.502216E-2,-5.7405E-3,-7.2496705E-4,-4.313112E-2,-3.8142945E-3,-2.555259E-6,1.2162886E-2,9.6868295E-3,5.4766785E-2,3.2409266E-2,7.994677E-4,5.025842E-3,-3.077791E-3,-7.029285E-3,1.1850309E-2,5.247124E-3,-1.6949433E-3,-2.922173E-3,5.6126546E-3,4.4804066E-3,-1.4369956E-3,1.0388978E-2,3.245854E-3,-3.4994807E-3,2.5126392E-2,-1.5992831E-3,8.571111E-3,1.1792911E-2,4.969081E-2],"split_indices":[19,19,7,19,1,10,15,31,26,29,16,33,33,1,31,3,1,33,32,0,0,33,30,18,1,14,14,28,3,0,32,3,24,33,19,0,28,2,16,8,1,26,4,6,0,31,29,0,24,8,14,31,33,29,19,0,30,0,0,0,0,0,0,0,0,0,0,0,0,0,0,0,0,0,0,0,0,0,0,0,0,0,0,0,0,0,0,0,0,0,0,0,0,0,0,0,0,0,0,0,0,0,0],"split_type":[0,0,0,0,0,0,0,1,0,1,0,1,1,0,1,0,0,1,1,0,0,1,1,0,0,0,0,0,0,0,1,0,0,1,0,0,0,0,0,0,0,0,0,0,0,1,1,0,0,0,0,1,1,1,0,0,1,0,0,0,0,0,0,0,0,0,0,0,0,0,0,0,0,0,0,0,0,0,0,0,0,0,0,0,0,0,0,0,0,0,0,0,0,0,0,0,0,0,0,0,0,0,0],"sum_hessian":[3.99E3,2.601E3,1.389E3,2.333E3,2.68E2,3.44E2,1.045E3,2.026E3,3.07E2,6E0,2.62E2,6E1,2.84E2,1.039E3,6E0,3.6E2,1.666E3,1.9E2,1.17E2,1E0,5E0,1.4E2,1.22E2,1E1,5E1,5.1E1,2.33E2,7.77E2,2.62E2,1E0,5E0,5.2E1,3.08E2,3.6E2,1.306E3,3.2E1,1.58E2,2E1,9.7E1,2.4E1,1.16E2,1.4E1,1.08E2,7E0,3E0,1E1,4E1,2E0,4.9E1,3E1,2.03E2,1.92E2,5.85E2,6E0,2.56E2,1E0,4E0,2.8E1,2.4E1,3.07E2,1E0,7.6E1,2.84E2,1.298E3,8E0,7E0,2.5E1,3.5E1,1.23E2,1.6E1,4E0,9.2E1,5E0,1.5E1,9E0,5E1,6.6E1,1E0,1.3E1,9.8E1,1E1,2E0,5E0,2E0,8E0,8E0,3.2E1,4.6E1,3E0,1.5E1,1.5E1,1.98E2,5E0,3.2E1,1.6E2,9.5E1,4.9E2,1E0,5E0,2.5E2,6E0,1E0,3E0],"tree_param":{"num_deleted":"0","num_feature":"35","num_nodes":"103","size_leaf_vector":"1"}},{"base_weights":[1.9446439E-4,-1.2090422E-2,8.5942534E-4,-5.5362534E-2,-3.4663393E-3,3.082102E-3,-2.7090663E-3,-4.2164188E-2,-4.314272E-2,-8.678637E-3,3.2318088E-3,1.2340034E-2,1.2012636E-3,-3.5870061E-3,1.1298013E-2,-2.7578697E-3,-5.8159597E-2,-5.520183E-3,-1.8055595E-2,2.508993E-2,-2.5544497E-3,2.0333448E-2,-3.7298158E-2,8.216105E-3,-1.3647836E-3,-9.577392E-3,-2.2466637E-3,2.2015087E-3,2.9101435E-2,-1.448774E-2,1.5421645E-2,4.690437E-3,-6.467912E-2,-1.2982336E-3,-9.275824E-3,-5.613653E-3,-2.0263301E-2,-5.0916704E-3,3.2311115E-2,1.1402576E-3,-7.920438E-3,-1.095014E-2,2.7212476E-2,-1.6371213E-2,-4.2731725E-2,6.28548E-2,5.9048487E-3,1.8235376E-2,-1.6269794E-3,5.3383404E-4,-3.4582004E-2,-1.3888191E-3,-3.2337118E-2,3.0980956E-2,-5.1932763E-3,8.320433E-2,1.4363152E-2,2.199356E-3,-6.53071E-3,2.2029146E-3,-9.2217706E-5,-2.1476083E-2,-5.745339E-3,-2.4491143E-3,1.9213761E-4,-5.6796987E-3,-1.8519307E-3,-2.3059377E-3,4.0163533E-4,-2.5796946E-3,-7.073443E-3,1.3566517E-2,6.034175E-3,-1.7616685E-3,1.081198E-3,1.3511218E-4,-3.176267E-3,5.468574E-3,-4.320583E-3,1.1863285E-2,5.1507424E-4,-1.186844E-3,-1.6992806E-2,3.6895737E-2,1.2441562E-2,-5.345859E-4,5.411573E-3,-7.752776E-5,-3.1390784E-3,-1.0597341E-2,4.4118706E-3,-3.692054E-2,-7.842508E-3,-2.089264E-3,-4.7604957E-5,-2.9333556E-2,-3.8160125E-3,2.641174E-2,-2.5659068E-3,-5.582622E-4,-8.296364E-3,-6.2823948E-3,4.2153746E-2,-1.1868364E-2,7.1851504E-3],"categories":[0,0,0,0,0,0,0,0,0,0,0,0,0,0,0,0],"categories_nodes":[1,5,10,13,18,27,28,33,34,36,39,40,45,51,52,56],"categories_segments":[0,1,2,3,4,5,6,7,8,9,10,11,12,13,14,15],"categories_sizes":[1,1,1,1,1,1,1,1,1,1,1,1,1,1,1,1],"default_left":[0,1,0,0,0,1,0,0,0,0,1,0,0,1,0,0,0,0,1,0,0,0,0,0,0,0,0,1,1,0,0,0,0,1,1,0,1,0,0,1,1,0,0,0,0,1,0,0,0,0,0,1,1,0,0,0,1,0,0,0,0,0,0,0,0,0,0,0,0,0,0,0,0,0,0,0,0,0,0,0,0,0,0,0,0,0,0,0,0,0,0,0,0,0,0,0,0,0,0,0,0,0,0,0,0],"id":6,"left_children":[1,3,5,7,9,11,13,15,-1,17,19,21,23,25,27,29,31,33,35,37,39,41,43,45,47,49,51,53,55,57,-1,59,61,63,65,67,69,-1,71,73,75,77,79,81,-1,83,85,-1,87,89,91,93,95,97,99,101,103,-1,-1,-1,-1,-1,-1,-1,-1,-1,-1,-1,-1,-1,-1,-1,-1,-1,-1,-1,-1,-1,-1,-1,-1,-1,-1,-1,-1,-1,-1,-1,-1,-1,-1,-1,-1,-1,-1,-1,-1,-1,-1,-1,-1,-1,-1,-1,-1],"loss_changes":[3.261275E-2,7.6310456E-2,3.004533E-2,3.3626236E-2,6.0330397E-3,4.0626355E-2,1.7920908E-2,1.9379526E-2,0E0,2.7731499E-3,9.676323E-3,1.5708917E-1,3.495002E-2,1.0970412E-2,1.386354E-2,7.09804E-3,9.317927E-3,1.1613106E-3,5.4548495E-4,5.4082107E-3,1.2184024E-3,7.34662E-2,1.1868344E-1,6.529657E-2,2.3270812E-2,6.322528E-2,2.8865576E-2,1.2504327E-2,2.1929054E-2,1.5894226E-3,0E0,4.202909E-5,4.9190074E-3,4.8439048E-4,1.0516255E-3,8.234577E-5,5.7055894E-4,0E0,1.2950385E-3,6.6040916E-4,5.62917E-4,6.507114E-3,8.765146E-2,2.3274641E-2,0E0,2.1900855E-2,4.666692E-2,0E0,1.7133616E-2,9.1486976E-2,5.0556213E-2,7.4746516E-3,3.8553085E-2,2.7821835E-2,3.4664876E-3,3.8752876E-2,1.3355309E-2,0E0,0E0,0E0,0E0,0E0,0E0,0E0,0E0,0E0,0E0,0E0,0E0,0E0,0E0,0E0,0E0,0E0,0E0,0E0,0E0,0E0,0E0,0E0,0E0,0E0,0E0,0E0,0E0,0E0,0E0,0E0,0E0,0E0,0E0,0E0,0E0,0E0,0E0,0E0,0E0,0E0,0E0,0E0,0E0,0E0,0E0,0E0,0E0],"parents":[2147483647,0,0,1,1,2,2,3,3,4,4,5,5,6,6,7,7,9,9,10,10,11,11,12,12,13,13,14,14,15,15,16,16,17,17,18,18,19,19,20,20,21,21,22,22,23,23,24,24,25,25,26,26,27,27,28,28,29,29,31,31,32,32,33,33,34,34,35,35,36,36,38,38,39,39,40,40,41,41,42,42,43,43,45,45,46,46,48,48,49,49,50,50,51,51,52,52,53,53,54,54,55,55,56,56],"right_children":[2,4,6,8,10,12,14,16,-1,18,20,22,24,26,28,30,32,34,36,38,40,42,44,46,48,50,52,54,56,58,-1,60,62,64,66,68,70,-1,72,74,76,78,80,82,-1,84,86,-1,88,90,92,94,96,98,100,102,104,-1,-1,-1,-1,-1,-1,-1,-1,-1,-1,-1,-1,-1,-1,-1,-1,-1,-1,-1,-1,-1,-1,-1,-1,-1,-1,-1,-1,-1,-1,-1,-1,-1,-1,-1,-1,-1,-1,-1,-1,-1,-1,-1,-1,-1,-1,-1,-1],"split_conditions":[-1.7363419E-1,NaN,3.47E2,1.53E2,6.20031E-1,NaN,8.648068E-1,1.8031035E-1,-4.314272E-2,7.250497E-1,NaN,9.0101236E-1,9.6686325E0,NaN,1.4989607E-1,4.220349E-1,2.5033712E-1,4.8305E-2,NaN,9.5E1,5.7059024E-2,5.66844E-2,1.3217391E1,6.998119E-9,3.4986556E0,-1.7774798E-2,7.0668445E0,NaN,NaN,1.9791046E-2,1.5421645E-2,7E1,2.765033E-1,NaN,NaN,1.7161383E1,NaN,-5.0916704E-3,1.0741611E1,NaN,NaN,1.5998598E-2,1.64E2,7.757206E-2,-4.2731725E-2,NaN,5.254105E-1,1.8235376E-2,9.951342E-1,3.3279364E-3,-1.1214098E-2,NaN,NaN,1.31E2,3.28E3,2.403E3,NaN,2.199356E-3,-6.53071E-3,2.2029146E-3,-9.2217706E-5,-2.1476083E-2,-5.745339E-3,-2.4491143E-3,1.9213761E-4,-5.6796987E-3,-1.8519307E-3,-2.3059377E-3,4.0163533E-4,-2.5796946E-3,-7.073443E-3,1.3566517E-2,6.034175E-3,-1.7616685E-3,1.081198E-3,1.3511218E-4,-3.176267E-3,5.468574E-3,-4.320583E-3,1.1863285E-2,5.1507424E-4,-1.186844E-3,-1.6992806E-2,3.6895737E-2,1.2441562E-2,-5.345859E-4,5.411573E-3,-7.752776E-5,-3.1390784E-3,-1.0597341E-2,4.4118706E-3,-3.692054E-2,-7.842508E-3,-2.089264E-3,-4.7604957E-5,-2.9333556E-2,-3.8160125E-3,2.641174E-2,-2.5659068E-3,-5.582622E-4,-8.296364E-3,-6.2823948E-3,4.2153746E-2,-1.1868364E-2,7.1851504E-3],"split_indices":[11,33,1,1,28,33,18,28,0,25,31,12,8,33,3,3,10,4,30,1,5,28,22,5,22,7,28,29,33,5,0,0,19,30,31,9,29,0,8,30,30,14,1,11,0,31,28,0,21,4,7,29,29,0,1,1,29,0,0,0,0,0,0,0,0,0,0,0,0,0,0,0,0,0,0,0,0,0,0,0,0,0,0,0,0,0,0,0,0,0,0,0,0,0,0,0,0,0,0,0,0,0,0,0,0],"split_type":[0,1,0,0,0,1,0,0,0,0,1,0,0,1,0,0,0,0,1,0,0,0,0,0,0,0,0,1,1,0,0,0,0,1,1,0,1,0,0,1,1,0,0,0,0,1,0,0,0,0,0,1,1,0,0,0,1,0,0,0,0,0,0,0,0,0,0,0,0,0,0,0,0,0,0,0,0,0,0,0,0,0,0,0,0,0,0,0,0,0,0,0,0,0,0,0,0,0,0,0,0,0,0,0,0],"sum_hessian":[3.99E3,2.04E2,3.786E3,3.3E1,1.71E2,2.333E3,1.453E3,3E1,3E0,9.6E1,7.5E1,3.93E2,1.94E3,1.368E3,8.5E1,9E0,2.1E1,7.3E1,2.3E1,1.5E1,6E1,3.39E2,5.4E1,5.19E2,1.421E3,2.49E2,1.119E3,5.7E1,2.8E1,8E0,1E0,2E0,1.9E1,3.5E1,3.8E1,4E0,1.9E1,2E0,1.3E1,3.6E1,2.4E1,6.1E1,2.78E2,4.6E1,8E0,2E1,4.99E2,5E0,1.416E3,1.78E2,7.1E1,1.089E3,3E1,1.1E1,4.6E1,5E0,2.3E1,2E0,6E0,1E0,1E0,1.6E1,3E0,7E0,2.8E1,8E0,3E1,3E0,1E0,5E0,1.4E1,5E0,8E0,9E0,2.7E1,6E0,1.8E1,6E0,5.5E1,1.87E2,9.1E1,3.6E1,1E1,4E0,1.6E1,3.06E2,1.93E2,1.227E3,1.89E2,5E1,1.28E2,5E0,6.6E1,1.96E2,8.93E2,6E0,2.4E1,4E0,7E0,4.1E1,5E0,2E0,3E0,3E0,2E1],"tree_param":{"num_deleted":"0","num_feature":"35","num_nodes":"105","size_leaf_vector":"1"}},{"base_weights":[1.1459425E-4,-5.7085995E-3,1.1244619E-3,-6.5220213E-3,3.7699874E-2,3.2889824E-3,-2.637798E-3,-6.0706036E-3,-5.722097E-2,2.022085E-2,1.7136076E-3,2.6596303E-4,1.4460432E-2,-8.6799206E-4,-1.7914508E-2,-5.628584E-3,-3.0526042E-2,-3.2251853E-2,1.2137898E-2,-6.816052E-5,1.1190453E-3,-6.061908E-3,2.1971185E-3,9.420092E-3,3.864967E-2,1.9461176E-3,-9.682321E-3,-8.4422134E-2,-1.1616202E-2,-5.9934705E-3,1.529493E-2,-1.3814185E-2,-5.7953466E-3,6.0963915E-3,-6.3433714E-4,6.0099186E-3,-8.567648E-3,5.862968E-3,-1.6388042E-3,-6.276296E-3,1.45650115E-2,6.3352E-2,2.6040222E-2,-1.0664466E-2,3.9846674E-3,-2.1346403E-2,1.1404663E-3,-6.1921198E-2,-3.4381278E-2,1.5350673E-2,-1.5954267E-2,-3.1374842E-3,-1.1727022E-3,1.1298992E-2,-1.768361E-3,3.8080623E-3,-4.077286E-3,-3.8194703E-4,9.064404E-3,-6.2346323E-3,-1.5597626E-3,1.45287085E-2,1.5424112E-3,-1.0116934E-2,1.3482217E-4,4.323932E-3,-4.161381E-3,-3.6175998E-3,6.4431136E-3,3.178562E-2,1.4449139E-2,-1.0128063E-3,1.0093146E-2,-1.1078919E-2,-1.0696718E-3,4.843386E-3,2.8915537E-4,-1.8034216E-2,-3.6005129E-3,7.2512953E-3,-1.434034E-3,-5.926903E-4,-1.3007341E-2,-2.5461481E-3,1.814037E-2,-1.5092184E-3,-7.849373E-3],"categories":[0,0,0,0,0,0,0,0,0,0,0],"categories_nodes":[0,27,28,36,41,42,43,44,45,46,48],"categories_segments":[0,1,2,3,4,5,6,7,8,9,10],"categories_sizes":[1,1,1,1,1,1,1,1,1,1,1],"default_left":[1,0,0,0,0,0,0,0,0,0,0,0,0,0,0,0,0,0,0,0,0,0,0,0,0,0,0,1,1,0,0,0,0,0,0,0,1,0,0,0,0,1,1,1,1,1,1,0,1,0,0,0,0,0,0,0,0,0,0,0,0,0,0,0,0,0,0,0,0,0,0,0,0,0,0,0,0,0,0,0,0,0,0,0,0,0,0],"id":7,"left_children":[1,3,5,7,9,11,13,15,17,-1,19,21,23,25,27,29,31,-1,33,-1,-1,35,37,39,41,43,45,47,49,51,53,-1,55,-1,-1,57,59,61,63,65,67,69,71,73,75,77,79,-1,81,83,85,-1,-1,-1,-1,-1,-1,-1,-1,-1,-1,-1,-1,-1,-1,-1,-1,-1,-1,-1,-1,-1,-1,-1,-1,-1,-1,-1,-1,-1,-1,-1,-1,-1,-1,-1,-1],"loss_changes":[2.3476114E-2,2.1078428E-2,2.7712824E-2,1.2926757E-2,1.1642382E-2,7.2942615E-2,3.3591207E-2,6.0546137E-3,1.8743528E-2,0E0,2.4329853E-5,2.0799713E-2,5.572003E-2,2.7675848E-2,5.305554E-2,4.420545E-3,3.571651E-3,0E0,3.9286693E-4,0E0,0E0,1.2090535E-2,1.8346347E-2,3.0940458E-2,2.2957437E-2,2.1790873E-2,3.410857E-2,6.004841E-2,1.4166011E-2,5.152276E-3,4.9617467E-3,0E0,8.9317776E-4,0E0,0E0,1.220214E-2,1.3469361E-2,2.0238291E-2,4.2760406E-2,1.5127798E-2,5.3257823E-2,1.1719435E-2,1.2191724E-2,2.1869931E-2,2.6762776E-2,4.637387E-2,1.9341454E-2,0E0,2.5323508E-3,1.8796645E-2,1.135624E-2,0E0,0E0,0E0,0E0,0E0,0E0,0E0,0E0,0E0,0E0,0E0,0E0,0E0,0E0,0E0,0E0,0E0,0E0,0E0,0E0,0E0,0E0,0E0,0E0,0E0,0E0,0E0,0E0,0E0,0E0,0E0,0E0,0E0,0E0,0E0,0E0],"parents":[2147483647,0,0,1,1,2,2,3,3,4,4,5,5,6,6,7,7,8,8,10,10,11,11,12,12,13,13,14,14,15,15,16,16,18,18,21,21,22,22,23,23,24,24,25,25,26,26,27,27,28,28,29,29,30,30,32,32,35,35,36,36,37,37,38,38,39,39,40,40,41,41,42,42,43,43,44,44,45,45,46,46,48,48,49,49,50,50],"right_children":[2,4,6,8,10,12,14,16,18,-1,20,22,24,26,28,30,32,-1,34,-1,-1,36,38,40,42,44,46,48,50,52,54,-1,56,-1,-1,58,60,62,64,66,68,70,72,74,76,78,80,-1,82,84,86,-1,-1,-1,-1,-1,-1,-1,-1,-1,-1,-1,-1,-1,-1,-1,-1,-1,-1,-1,-1,-1,-1,-1,-1,-1,-1,-1,-1,-1,-1,-1,-1,-1,-1,-1,-1],"split_conditions":[NaN,9.9902076E-1,7.134463E-1,1.3769788E0,1.092E3,4.3895984E-1,1.1117576E2,1.3525E3,8.999882E-3,2.022085E-2,5.4625E2,2.397582E-1,1.5540983E-1,8.570267E-2,1.1217127E2,8.375E-1,1.6315E3,-3.2251853E-2,8.34E2,-6.816052E-5,1.1190453E-3,2.1492229E0,3.8687828E-1,1.7608559E-2,8.3E1,2.1084441E-1,2.6521376E-1,NaN,NaN,8.6E1,5.5378687E-2,-1.3814185E-2,3.28E3,6.0963915E-3,-6.3433714E-4,5.5743434E-2,NaN,7.3329697E0,1.9E1,5.0628805E-1,-2.9505977E-1,NaN,NaN,NaN,NaN,NaN,NaN,-6.1921198E-2,NaN,4.0489525E1,2.6016314E-2,-3.1374842E-3,-1.1727022E-3,1.1298992E-2,-1.768361E-3,3.8080623E-3,-4.077286E-3,-3.8194703E-4,9.064404E-3,-6.2346323E-3,-1.5597626E-3,1.45287085E-2,1.5424112E-3,-1.0116934E-2,1.3482217E-4,4.323932E-3,-4.161381E-3,-3.6175998E-3,6.4431136E-3,3.178562E-2,1.4449139E-2,-1.0128063E-3,1.0093146E-2,-1.1078919E-2,-1.0696718E-3,4.843386E-3,2.8915537E-4,-1.8034216E-2,-3.6005129E-3,7.2512953E-3,-1.434034E-3,-5.926903E-4,-1.3007341E-2,-2.5461481E-3,1.814037E-2,-1.5092184E-3,-7.849373E-3],"split_indices":[30,21,28,10,0,28,15,2,19,0,13,16,7,14,15,25,2,0,1,0,0,17,18,4,1,16,5,33,29,1,14,0,1,0,0,14,33,8,1,28,19,33,33,33,33,33,31,0,29,8,26,0,0,0,0,0,0,0,0,0,0,0,0,0,0,0,0,0,0,0,0,0,0,0,0,0,0,0,0,0,0,0,0,0,0,0,0],"split_type":[1,0,0,0,0,0,0,0,0,0,0,0,0,0,0,0,0,0,0,0,0,0,0,0,0,0,0,1,1,0,0,0,0,0,0,0,1,0,0,0,0,1,1,1,1,1,1,0,1,0,0,0,0,0,0,0,0,0,0,0,0,0,0,0,0,0,0,0,0,0,0,0,0,0,0,0,0,0,0,0,0,0,0,0,0,0,0],"sum_hessian":[3.99E3,5.89E2,3.401E3,5.79E2,1E1,2.159E3,1.242E3,5.75E2,4E0,5E0,5E0,1.7E3,4.59E2,1.114E3,1.28E2,5.66E2,9E0,2E0,2E0,3E0,2E0,3.97E2,1.303E3,3.81E2,7.8E1,8.45E2,2.69E2,1E1,1.18E2,5.57E2,9E0,5E0,4E0,1E0,1E0,6.8E1,3.29E2,6.66E2,6.37E2,9.4E1,2.87E2,2.5E1,5.3E1,1.17E2,7.28E2,1.29E2,1.4E2,2E0,8E0,1.6E1,1.02E2,1.76E2,3.81E2,4E0,5E0,1E0,3E0,5.3E1,1.5E1,7E1,2.59E2,1E1,6.56E2,3.8E1,5.99E2,2.5E1,6.9E1,5.9E1,2.28E2,5E0,2E1,1.1E1,4.2E1,2.4E1,9.3E1,1.44E2,5.84E2,2.4E1,1.05E2,2.8E1,1.12E2,2E0,6E0,1.1E1,5E0,5E1,5.2E1],"tree_param":{"num_deleted":"0","num_feature":"35","num_nodes":"87","size_leaf_vector":"1"}},{"base_weights":[6.988774E-5,4.3770857E-3,-8.460019E-4,2.6415113E-2,2.1560327E-3,3.1492654E-2,-9.937242E-4,-2.4880538E-2,4.5498233E-2,5.336962E-3,-7.5211953E-3,8.651967E-2,3.6174066E-3,-2.8232196E-3,1.8936901E-3,-3.4581374E-2,2.8469972E-4,6.613528E-2,-7.870177E-3,7.06421E-2,4.221152E-3,-5.18474E-3,-3.5516012E-2,-2.1395956E-3,4.5399435E-2,2.3638282E-2,-2.1843482E-2,-3.0518337E-3,3.893729E-2,2.7125215E-4,1.9556018E-2,-1.825738E-2,-1.7114488E-2,-1.3143241E-2,5.428117E-3,-2.3396885E-2,7.8852795E-2,-1.3782823E-2,5.529153E-3,3.5315E-2,3.533114E-2,3.8031843E-3,3.0225301E-2,3.7126886E-3,-8.661224E-3,-1.671843E-2,-1.5458156E-2,-1.0301639E-2,-1.2447988E-2,-5.247963E-3,1.5292056E-4,4.687541E-2,-4.493765E-3,1.2002096E-3,-2.2372935E-2,4.7078505E-3,8.807869E-2,-6.4022047E-3,-1.493165E-3,-5.6167017E-3,5.3910725E-4,-1.3023358E-2,8.499051E-3,-7.4442937E-3,2.7387125E-2,-6.204911E-3,-2.3612615E-3,-1.1621015E-3,2.654483E-3,-2.1331843E-3,1.3572485E-2,6.0114753E-4,7.863665E-3,-2.0047857E-3,4.9944595E-3,-3.7668368E-3,-2.2170805E-4,-1.2168613E-3,-6.2916237E-3,5.4045627E-3,-7.5694267E-3,-1.3514678E-3,-9.829216E-3,-1.5979033E-4,1.1794972E-2,1.9419442E-3,-4.3685776E-3,-4.4902175E-5,5.1143114E-3,-1.8434526E-2,-4.4497065E-4,-2.271459E-4,3.8323747E-3,4.4635693E-3,3.0262142E-2],"categories":[0,0,0,0,0,0],"categories_nodes":[0,5,12,28,47,56],"categories_segments":[0,1,2,3,4,5],"categories_sizes":[1,1,1,1,1,1],"default_left":[1,0,0,0,0,1,0,0,0,0,0,0,1,0,0,0,0,0,0,0,0,0,0,0,0,0,0,0,1,0,0,0,0,0,0,0,0,0,0,0,0,0,0,0,0,0,0,1,0,0,0,0,0,0,0,0,1,0,0,0,0,0,0,0,0,0,0,0,0,0,0,0,0,0,0,0,0,0,0,0,0,0,0,0,0,0,0,0,0,0,0,0,0,0,0],"id":8,"left_children":[1,3,5,7,9,11,13,15,17,19,21,23,25,27,29,31,33,35,37,39,41,43,45,-1,-1,-1,47,49,51,53,55,57,-1,59,-1,61,63,65,67,-1,69,71,-1,73,75,77,-1,79,-1,81,83,-1,85,87,89,91,93,-1,-1,-1,-1,-1,-1,-1,-1,-1,-1,-1,-1,-1,-1,-1,-1,-1,-1,-1,-1,-1,-1,-1,-1,-1,-1,-1,-1,-1,-1,-1,-1,-1,-1,-1,-1,-1,-1],"loss_changes":[1.5747871E-2,3.420639E-2,1.5757648E-2,6.378041E-2,1.9648641E-2,2.26954E-2,1.7321417E-2,4.4040745E-3,5.2284718E-2,3.467851E-2,1.0150425E-2,3.1427942E-2,2.2775909E-2,1.9279743E-2,3.6445167E-2,3.7261983E-3,1.6726411E-3,4.0558234E-2,1.1853647E-3,9.138916E-3,1.870066E-2,4.5791254E-3,2.750203E-3,0E0,0E0,0E0,1.6137059E-3,1.4055798E-2,5.6747966E-2,2.4554228E-2,1.08451E-1,2.6230374E-4,0E0,3.6705728E-4,0E0,6.4062523E-3,4.0946454E-2,2.4514366E-4,1.90321E-4,0E0,2.8454037E-3,1.8979408E-2,0E0,5.758935E-3,3.261474E-3,2.9195775E-4,0E0,3.4138996E-3,0E0,2.4081383E-2,2.1849044E-2,0E0,1.0880108E-3,2.3983285E-2,3.745751E-2,3.9332113E-3,1.6294613E-2,0E0,0E0,0E0,0E0,0E0,0E0,0E0,0E0,0E0,0E0,0E0,0E0,0E0,0E0,0E0,0E0,0E0,0E0,0E0,0E0,0E0,0E0,0E0,0E0,0E0,0E0,0E0,0E0,0E0,0E0,0E0,0E0,0E0,0E0,0E0,0E0,0E0,0E0],"parents":[2147483647,0,0,1,1,2,2,3,3,4,4,5,5,6,6,7,7,8,8,9,9,10,10,11,11,12,12,13,13,14,14,15,15,16,16,17,17,18,18,19,19,20,20,21,21,22,22,26,26,27,27,28,28,29,29,30,30,31,31,33,33,35,35,36,36,37,37,38,38,40,40,41,41,43,43,44,44,45,45,47,47,49,49,50,50,52,52,53,53,54,54,55,55,56,56],"right_children":[2,4,6,8,10,12,14,16,18,20,22,24,26,28,30,32,34,36,38,40,42,44,46,-1,-1,-1,48,50,52,54,56,58,-1,60,-1,62,64,66,68,-1,70,72,-1,74,76,78,-1,80,-1,82,84,-1,86,88,90,92,94,-1,-1,-1,-1,-1,-1,-1,-1,-1,-1,-1,-1,-1,-1,-1,-1,-1,-1,-1,-1,-1,-1,-1,-1,-1,-1,-1,-1,-1,-1,-1,-1,-1,-1,-1,-1,-1,-1],"split_conditions":[NaN,1.8254628E-3,2.6842105E0,8.3458453E-1,6.37E2,NaN,2.5321504E-1,1.2921027E-3,9.951342E-1,1.6315628E-2,1.0510547E-1,2.643565E-2,NaN,7.3399603E-1,9.94605E-1,4.9379677E-1,7.78131E-2,2.841194E-2,3.1430323E-3,-1.061834E-1,8.575388E-1,1.4E2,7.5E1,-2.1395956E-3,4.5399435E-2,2.3638282E-2,2.643565E-2,1.6228652E0,NaN,1.5242857E2,-1.9364528E-2,7.742874E-2,-1.7114488E-2,1.4122142E-1,5.428117E-3,2.88E2,1.2008671E1,1.2424742E-4,4.49E2,3.5315E-2,1.5E1,3.2868126E-1,3.0225301E-2,4.3617728E-1,3.1585667E-1,2.0314258E-2,-1.5458156E-2,NaN,-1.2447988E-2,8.8130075E-1,4.1836226E-1,4.687541E-2,8.3E1,9.13498E-1,3.476744E1,1.2136254E0,NaN,-6.4022047E-3,-1.493165E-3,-5.6167017E-3,5.3910725E-4,-1.3023358E-2,8.499051E-3,-7.4442937E-3,2.7387125E-2,-6.204911E-3,-2.3612615E-3,-1.1621015E-3,2.654483E-3,-2.1331843E-3,1.3572485E-2,6.0114753E-4,7.863665E-3,-2.0047857E-3,4.9944595E-3,-3.7668368E-3,-2.2170805E-4,-1.2168613E-3,-6.2916237E-3,5.4045627E-3,-7.5694267E-3,-1.3514678E-3,-9.829216E-3,-1.5979033E-4,1.1794972E-2,1.9419442E-3,-4.3685776E-3,-4.4902175E-5,5.1143114E-3,-1.8434526E-2,-4.4497065E-4,-2.271459E-4,3.8323747E-3,4.4635693E-3,3.0262142E-2],"split_indices":[31,4,22,10,0,29,5,4,21,18,20,6,33,6,21,28,14,28,3,6,24,1,2,0,0,0,6,23,33,9,6,14,0,5,0,0,22,4,1,0,1,6,0,28,18,7,0,32,0,12,6,0,1,10,17,23,30,0,0,0,0,0,0,0,0,0,0,0,0,0,0,0,0,0,0,0,0,0,0,0,0,0,0,0,0,0,0,0,0,0,0,0,0,0,0],"split_type":[1,0,0,0,0,1,0,0,0,0,0,0,1,0,0,0,0,0,0,0,0,0,0,0,0,0,0,0,1,0,0,0,0,0,0,0,0,0,0,0,0,0,0,0,0,0,0,1,0,0,0,0,0,0,0,0,1,0,0,0,0,0,0,0,0,0,0,0,0,0,0,0,0,0,0,0,0,0,0,0,0,0,0,0,0,0,0,0,0,0,0,0,0,0,0],"sum_hessian":[3.99E3,6.99E2,3.291E3,6.3E1,6.36E2,1.4E1,3.277E3,1.7E1,4.6E1,4.79E2,1.57E2,4E0,1E1,2.006E3,1.271E3,1.2E1,5E0,3.3E1,1.3E1,7E0,4.72E2,1.46E2,1.1E1,2E0,2E0,2E0,8E0,1.996E3,1E1,1.165E3,1.06E2,8E0,4E0,3E0,2E0,4E0,2.9E1,9E0,4E0,2E0,5E0,4.71E2,1E0,4.1E1,1.05E2,6E0,5E0,6E0,2E0,1.184E3,8.12E2,2E0,8E0,1.12E3,4.5E1,8.8E1,1.8E1,6E0,2E0,2E0,1E0,3E0,1E0,3E0,2.6E1,3E0,6E0,1E0,3E0,1E0,4E0,4.37E2,3.4E1,2.3E1,1.8E1,7E1,3.5E1,2E0,4E0,2E0,4E0,1.154E3,3E1,7.99E2,1.3E1,4E0,4E0,1.033E3,8.7E1,1.5E1,3E1,5.3E1,3.5E1,3E0,1.5E1],"tree_param":{"num_deleted":"0","num_feature":"35","num_nodes":"95","size_leaf_vector":"1"}},{"base_weights":[9.073396E-5,1.594787E-5,4.2652424E-2,-1.2984611E-3,2.4707606E-3,2.8231641E-2,1.8392673E-2,-1.0097134E-3,-2.1241585E-2,-1.5536898E-3,5.1395395E-3,2.5691504E-2,-1.218413E-2,-4.714946E-3,-1.2813584E-4,-1.6840721E-3,-5.721822E-2,-1.1290484E-2,5.073619E-4,2.1956146E-2,1.81217E-3,-6.190569E-4,-4.2595207E-3,4.1033253E-3,-6.753406E-3,3.174349E-2,-6.1263423E-4,1.2883327E-2,-6.9623734E-3,-6.1447424E-4,-6.745395E-2,-1.5638521E-2,3.9048254E-2,5.2327076E-3,-3.2601298E-3,1.3747324E-2,1.15480974E-1,1.1117263E-2,-6.0104125E-4,-2.1865722E-3,4.353065E-2,-1.2686809E-3,-1.2042529E-2,1.2033237E-2,-8.023547E-4,-9.681317E-5,-6.6616093E-3,1.47704845E-2,-4.1432996E-4,-8.303001E-3,-4.0459546E-4,-2.6757582E-3,2.3992448E-3,-1.0586252E-2,-2.651342E-2,-1.7483555E-2,-2.2647474E-3,6.6523213E-4,9.420905E-3,9.071509E-3,-1.2143706E-3,9.266338E-3,-1.4991511E-3,4.6094228E-2,3.0833483E-3,1.2864434E-2,7.1463425E-4,2.27888E-3,-1.0373181E-3],"categories":[0,0,0,0,0,0,0,0,0,0,0],"categories_nodes":[2,6,9,10,12,13,16,20,27,28,38],"categories_segments":[0,1,2,3,4,5,6,7,8,9,10],"categories_sizes":[1,1,1,1,1,1,1,1,1,1,1],"default_left":[0,0,1,0,0,0,1,0,0,1,1,0,1,1,0,0,1,0,0,0,1,0,0,0,0,0,0,1,1,0,0,0,0,0,0,0,0,0,1,0,0,0,0,0,0,0,0,0,0,0,0,0,0,0,0,0,0,0,0,0,0,0,0,0,0,0,0,0,0],"id":9,"left_children":[1,3,5,7,9,-1,11,13,15,17,19,-1,21,23,25,27,29,31,33,35,37,-1,-1,39,41,43,45,47,49,51,53,55,-1,57,59,61,63,65,67,-1,-1,-1,-1,-1,-1,-1,-1,-1,-1,-1,-1,-1,-1,-1,-1,-1,-1,-1,-1,-1,-1,-1,-1,-1,-1,-1,-1,-1,-1],"loss_changes":[1.2702763E-2,1.2861321E-2,7.0068156E-3,1.4927698E-2,1.4937096E-2,0E0,1.3380375E-2,8.361507E-3,2.5937337E-2,1.1143489E-2,4.673864E-2,0E0,7.262948E-5,8.871755E-3,3.196843E-2,2.0119767E-3,7.490497E-3,6.1693974E-2,8.188498E-3,1.04359016E-1,1.5702832E-2,0E0,0E0,1.5043832E-1,3.35454E-2,9.034835E-3,1.2757472E-2,3.6977436E-3,2.1720752E-3,2.858907E-4,4.284963E-3,3.2328434E-2,0E0,1.60281E-2,6.8780323E-3,4.127939E-2,4.2588383E-2,3.985279E-2,1.3046191E-2,0E0,0E0,0E0,0E0,0E0,0E0,0E0,0E0,0E0,0E0,0E0,0E0,0E0,0E0,0E0,0E0,0E0,0E0,0E0,0E0,0E0,0E0,0E0,0E0,0E0,0E0,0E0,0E0,0E0,0E0],"parents":[2147483647,0,0,1,1,2,2,3,3,4,4,6,6,7,7,8,8,9,9,10,10,12,12,13,13,14,14,15,15,16,16,17,17,18,18,19,19,20,20,23,23,24,24,25,25,26,26,27,27,28,28,29,29,30,30,31,31,33,33,34,34,35,35,36,36,37,37,38,38],"right_children":[2,4,6,8,10,-1,12,14,16,18,20,-1,22,24,26,28,30,32,34,36,38,-1,-1,40,42,44,46,48,50,52,54,56,-1,58,60,62,64,66,68,-1,-1,-1,-1,-1,-1,-1,-1,-1,-1,-1,-1,-1,-1,-1,-1,-1,-1,-1,-1,-1,-1,-1,-1,-1,-1,-1,-1,-1,-1],"split_conditions":[8.575388E-1,3.7615743E-2,NaN,2.7358236E-2,-2.7369985E-1,2.8231641E-2,NaN,8.853837E-2,-9.3143266E-5,NaN,NaN,2.5691504E-2,NaN,NaN,7.0781497E-12,1.4737232E-1,NaN,8.494502E-2,2.3660873E-1,1.2834962E2,NaN,-6.190569E-4,-4.2595207E-3,2.997614E-1,5.8574444E-1,1.52E2,4.2751184E-1,NaN,NaN,6.5E1,6.5E1,9.426552E-4,3.9048254E-2,1.688492E-1,1.4672097E-2,-1.998286E-2,1.4861111E-1,1.1510825E-2,NaN,-2.1865722E-3,4.353065E-2,-1.2686809E-3,-1.2042529E-2,1.2033237E-2,-8.023547E-4,-9.681317E-5,-6.6616093E-3,1.47704845E-2,-4.1432996E-4,-8.303001E-3,-4.0459546E-4,-2.6757582E-3,2.3992448E-3,-1.0586252E-2,-2.651342E-2,-1.7483555E-2,-2.2647474E-3,6.6523213E-4,9.420905E-3,9.071509E-3,-1.2143706E-3,9.266338E-3,-1.4991511E-3,4.6094228E-2,3.0833483E-3,1.2864434E-2,7.1463425E-4,2.27888E-3,-1.0373181E-3],"split_indices":[24,19,33,19,7,0,31,18,11,33,33,0,34,32,5,3,29,4,19,9,31,0,0,11,5,0,6,33,33,0,0,5,0,19,14,7,19,4,29,0,0,0,0,0,0,0,0,0,0,0,0,0,0,0,0,0,0,0,0,0,0,0,0,0,0,0,0,0,0],"split_type":[0,0,1,0,0,0,1,0,0,1,1,0,1,1,0,0,1,0,0,0,1,0,0,0,0,0,0,1,1,0,0,0,0,0,0,0,0,0,1,0,0,0,0,0,0,0,0,0,0,0,0,0,0,0,0,0,0,0,0,0,0,0,0,0,0,0,0,0,0],"sum_hessian":[3.99E3,3.984E3,6E0,2.595E3,1.389E3,1E0,5E0,2.559E3,3.6E1,5.54E2,8.35E2,1E0,4E0,4.91E2,2.068E3,2.4E1,1.2E1,9.6E1,4.58E2,1.37E2,6.98E2,1E0,3E0,9.2E1,3.99E2,3E1,2.038E3,6E0,1.8E1,2E0,1E1,9.4E1,2E0,2.03E2,2.55E2,1.27E2,1E1,1.43E2,5.55E2,8.6E1,6E0,3.72E2,2.7E1,2.4E1,6E0,2.012E3,2.6E1,1E0,5E0,3E0,1.5E1,1E0,1E0,5E0,5E0,1.4E1,8E1,1.83E2,2E1,5E0,2.5E2,6.6E1,6.1E1,7E0,3E0,3E1,1.13E2,1.43E2,4.12E2],"tree_param":{"num_deleted":"0","num_feature":"35","num_nodes":"69","size_leaf_vector":"1"}},{"base_weights":[1.0331097E-4,3.8713337E-5,3.6863063E-2,1.1085587E-3,-1.8714849E-3,2.3996895E-2,1.6343692E-2,-6.025225E-4,7.6473174E-3,-1.127452E-3,-1.6107501E-2,2.1837778E-2,-9.504606E-3,-5.517964E-3,3.398857E-4,-3.742057E-4,1.191418E-2,-4.7670063E-4,-1.3305628E-2,4.400855E-2,-3.0340558E-2,-5.261983E-4,-1.1003761E-2,-3.9082705E-3,-2.9950855E-2,-3.0357451E-3,2.1964805E-3,7.5995335E-3,-1.6707702E-2,-4.1393895E-4,1.8461915E-2,-8.8829757E-4,2.2289228E-2,-5.1555526E-4,-2.3726067E-2,-7.7035525E-3,1.1424195E-1,-4.0125437E-2,-1.3705942E-2,-8.715721E-4,-3.8204563E-3,-1.9209374E-3,6.823993E-4,-3.0614574E-2,-6.2355786E-3,-1.6456858E-3,5.7104486E-4,-1.8586808E-4,2.281658E-3,7.53017E-3,9.5770555E-4,-2.9935831E-2,-6.8544224E-4,-2.1404726E-3,4.1700834E-3,1.0891761E-2,3.6686142E-3,-2.1582134E-3,1.579941E-4,1.6084345E-2,3.8617875E-3,-1.7065216E-3,4.7142133E-3,-1.5079863E-2,-4.8334925E-3,2.9536075E-4,-5.6429394E-3,1.0128655E-2,3.707564E-2,-2.4144283E-2,-7.716292E-3,-8.784617E-3,-2.325739E-3],"categories":[0,0,0,0,0,0,0,0,0,0,0,0],"categories_nodes":[2,6,7,10,12,22,28,31,32,34,37,38],"categories_segments":[0,1,2,3,4,5,6,7,8,9,10,11],"categories_sizes":[1,1,1,1,1,1,1,1,1,1,1,1],"default_left":[0,0,1,0,0,0,1,1,0,0,1,0,1,0,0,0,0,0,0,0,0,0,1,0,0,0,0,0,1,0,0,1,1,0,1,0,0,1,1,0,0,0,0,0,0,0,0,0,0,0,0,0,0,0,0,0,0,0,0,0,0,0,0,0,0,0,0,0,0,0,0,0,0],"id":10,"left_children":[1,3,5,7,9,-1,11,13,15,17,19,-1,21,23,25,27,29,31,33,35,37,-1,39,41,43,45,47,49,51,53,55,57,59,61,63,65,67,69,71,-1,-1,-1,-1,-1,-1,-1,-1,-1,-1,-1,-1,-1,-1,-1,-1,-1,-1,-1,-1,-1,-1,-1,-1,-1,-1,-1,-1,-1,-1,-1,-1,-1,-1],"loss_changes":[9.475575E-3,8.1458865E-3,4.887186E-3,2.8590836E-2,1.5139083E-2,0E0,9.446513E-3,9.387022E-3,1.8144626E-2,1.07795345E-2,6.208534E-2,0E0,3.879628E-5,1.2704349E-2,1.0667139E-2,2.4221191E-2,2.7937207E-2,1.213571E-2,9.183962E-3,5.1726904E-2,8.8905655E-3,0E0,1.9079336E-5,4.750198E-3,1.1095263E-2,7.3191356E-3,1.6729549E-2,9.561149E-3,7.286409E-2,1.1740033E-2,2.4692863E-2,1.1344008E-2,6.0943235E-3,2.7758928E-3,6.8694707E-3,8.869472E-4,3.392622E-4,1.8856734E-2,1.9058296E-3,0E0,0E0,0E0,0E0,0E0,0E0,0E0,0E0,0E0,0E0,0E0,0E0,0E0,0E0,0E0,0E0,0E0,0E0,0E0,0E0,0E0,0E0,0E0,0E0,0E0,0E0,0E0,0E0,0E0,0E0,0E0,0E0,0E0,0E0],"parents":[2147483647,0,0,1,1,2,2,3,3,4,4,6,6,7,7,8,8,9,9,10,10,12,12,13,13,14,14,15,15,16,16,17,17,18,18,19,19,20,20,22,22,23,23,24,24,25,25,26,26,27,27,28,28,29,29,30,30,31,31,32,32,33,33,34,34,35,35,36,36,37,37,38,38],"right_children":[2,4,6,8,10,-1,12,14,16,18,20,-1,22,24,26,28,30,32,34,36,38,-1,40,42,44,46,48,50,52,54,56,58,60,62,64,66,68,70,72,-1,-1,-1,-1,-1,-1,-1,-1,-1,-1,-1,-1,-1,-1,-1,-1,-1,-1,-1,-1,-1,-1,-1,-1,-1,-1,-1,-1,-1,-1,-1,-1,-1,-1],"split_conditions":[8.575388E-1,7.134463E-1,NaN,4.3895984E-1,5.8574444E-1,2.3996895E-2,NaN,NaN,-6.2672935E-2,8.5915856E-2,NaN,2.1837778E-2,NaN,4.36E2,3.2599223E-1,5.753E1,-2.1460007E-1,6.5612584E-2,3.2532327E-2,2.997614E-1,6.8581325E-1,-5.261983E-4,NaN,6.560325E-1,9.44E2,2.2420509E-1,3.1730476E-1,-4.369554E-1,NaN,5.091981E-1,6.1141163E-1,NaN,NaN,1.751E3,NaN,1.5030849E-1,4.11E2,NaN,NaN,-8.715721E-4,-3.8204563E-3,-1.9209374E-3,6.823993E-4,-3.0614574E-2,-6.2355786E-3,-1.6456858E-3,5.7104486E-4,-1.8586808E-4,2.281658E-3,7.53017E-3,9.5770555E-4,-2.9935831E-2,-6.8544224E-4,-2.1404726E-3,4.1700834E-3,1.0891761E-2,3.6686142E-3,-2.1582134E-3,1.579941E-4,1.6084345E-2,3.8617875E-3,-1.7065216E-3,4.7142133E-3,-1.5079863E-2,-4.8334925E-3,2.9536075E-4,-5.6429394E-3,1.0128655E-2,3.707564E-2,-2.4144283E-2,-7.716292E-3,-8.784617E-3,-2.325739E-3],"split_indices":[24,28,33,28,5,0,31,30,19,4,32,0,34,2,12,13,7,4,14,11,5,0,30,24,1,28,5,19,33,12,28,32,33,0,33,3,1,33,29,0,0,0,0,0,0,0,0,0,0,0,0,0,0,0,0,0,0,0,0,0,0,0,0,0,0,0,0,0,0,0,0,0,0],"split_type":[0,0,1,0,0,0,1,1,0,0,1,0,1,0,0,0,0,0,0,0,0,0,1,0,0,0,0,0,1,0,0,1,1,0,1,0,0,1,1,0,0,0,0,0,0,0,0,0,0,0,0,0,0,0,0,0,0,0,0,0,0,0,0,0,0,0,0,0,0,0,0,0,0],"sum_hessian":[3.99E3,3.984E3,6E0,2.554E3,1.43E3,1E0,5E0,2.025E3,5.29E2,1.36E3,7E1,1E0,4E0,3.25E2,1.7E3,1.84E2,3.45E2,1.292E3,6.8E1,1.3E1,5.7E1,1E0,3E0,3.06E2,1.9E1,6.03E2,1.097E3,1.24E2,6E1,1.2E2,2.25E2,1.27E3,2.2E1,3.1E1,3.7E1,8E0,5E0,3.5E1,2.2E1,1E0,2E0,2.18E2,8.8E1,1E0,1.8E1,4.03E2,2E2,7.22E2,3.75E2,2.4E1,1E2,8E0,5.2E1,8.2E1,3.8E1,5.7E1,1.68E2,2.32E2,1.038E3,4E0,1.8E1,2.4E1,7E0,7E0,3E1,5E0,3E0,1E0,4E0,8E0,2.7E1,5E0,1.7E1],"tree_param":{"num_deleted":"0","num_feature":"35","num_nodes":"73","size_leaf_vector":"1"}},{"base_weights":[7.1799455E-5,2.0383123E-2,-2.5353065E-5,6.726623E-2,3.3965455E-3,-8.116289E-5,3.1606495E-2,-2.1990512E-3,3.583217E-2,5.6752533E-2,-9.1776475E-3,-2.5993614E-3,5.0866127E-4,2.0397361E-2,1.4210511E-2,2.048714E-2,5.0515006E-3,3.3235885E-3,-1.510304E-2,5.6213015E-3,-4.4042333E-3,2.4813963E-3,-1.0356904E-3,1.8562112E-2,-7.696869E-3,-4.545522E-3,2.0691054E-2,-6.1049336E-3,-9.319282E-3,7.393634E-2,1.3411337E-3,-1.7695226E-2,-3.2030977E-3,1.2389282E-2,4.5209192E-4,-7.7146763E-4,-2.5818126E-2,-3.4139415E-3,-1.1793552E-3,1.1662927E-3,8.144681E-3,4.9627568E-3,-5.541726E-3,-1.0151146E-3,2.5639636E-2,7.8005837E-3,-9.4645267E-4,-1.1909698E-2,-3.195515E-3,-5.4136437E-4,-4.787286E-3,5.354283E-3,-1.2752711E-2,3.6984538E-3,-8.3547646E-5,-3.329188E-4,4.5744735E-3,-1.4406478E-2,-5.5960882E-3],"categories":[0,0,0,0,0,0,0,0,0,0,0],"categories_nodes":[1,4,6,10,11,14,21,24,27,31,36],"categories_segments":[0,1,2,3,4,5,6,7,8,9,10],"categories_sizes":[1,1,1,1,1,1,1,1,1,1,1],"default_left":[0,1,0,0,1,0,1,0,0,0,1,1,0,0,1,0,0,0,0,0,0,1,0,0,1,0,0,1,0,0,0,1,0,0,0,0,1,0,0,0,0,0,0,0,0,0,0,0,0,0,0,0,0,0,0,0,0,0,0],"id":11,"left_children":[1,3,5,7,9,11,13,-1,-1,15,17,19,21,-1,23,-1,-1,25,27,29,31,33,35,-1,37,-1,39,41,-1,43,45,47,49,51,53,55,57,-1,-1,-1,-1,-1,-1,-1,-1,-1,-1,-1,-1,-1,-1,-1,-1,-1,-1,-1,-1,-1,-1],"loss_changes":[7.875943E-3,1.4902815E-2,7.016373E-3,2.0335605E-2,1.0584482E-2,5.893484E-3,3.464446E-3,0E0,0E0,2.3168419E-4,1.0131677E-3,1.1197202E-2,9.797378E-3,0E0,6.7412877E-3,0E0,0E0,1.9178535E-3,1.102943E-3,3.9667223E-2,9.809246E-3,2.8384235E-2,1.17928265E-2,0E0,2.4607783E-5,0E0,2.1999795E-4,2.266225E-3,0E0,7.420644E-3,1.4384832E-2,7.4813105E-3,1.0103093E-2,7.26754E-2,1.0180945E-2,9.6949935E-3,2.1266807E-3,0E0,0E0,0E0,0E0,0E0,0E0,0E0,0E0,0E0,0E0,0E0,0E0,0E0,0E0,0E0,0E0,0E0,0E0,0E0,0E0,0E0,0E0],"parents":[2147483647,0,0,1,1,2,2,3,3,4,4,5,5,6,6,9,9,10,10,11,11,12,12,14,14,17,17,18,18,19,19,20,20,21,21,22,22,24,24,26,26,27,27,29,29,30,30,31,31,32,32,33,33,34,34,35,35,36,36],"right_children":[2,4,6,8,10,12,14,-1,-1,16,18,20,22,-1,24,-1,-1,26,28,30,32,34,36,-1,38,-1,40,42,-1,44,46,48,50,52,54,56,58,-1,-1,-1,-1,-1,-1,-1,-1,-1,-1,-1,-1,-1,-1,-1,-1,-1,-1,-1,-1,-1,-1],"split_conditions":[2.6842105E0,NaN,8.575388E-1,2.643565E-2,NaN,2.1449903E-1,NaN,-2.1990512E-3,3.583217E-2,2.3E1,NaN,NaN,1.64E2,2.0397361E-2,NaN,2.048714E-2,5.0515006E-3,2.643565E-2,2.643565E-2,-4.1639823E-1,9.505243E-3,NaN,1.1999571E0,1.8562112E-2,NaN,-4.545522E-3,2.1E1,NaN,-9.319282E-3,3.69E2,2.7685978E-2,NaN,8.7677985E-1,9.0101236E-1,5.05E0,6.0877085E-1,NaN,-3.4139415E-3,-1.1793552E-3,1.1662927E-3,8.144681E-3,4.9627568E-3,-5.541726E-3,-1.0151146E-3,2.5639636E-2,7.8005837E-3,-9.4645267E-4,-1.1909698E-2,-3.195515E-3,-5.4136437E-4,-4.787286E-3,5.354283E-3,-1.2752711E-2,3.6984538E-3,-8.3547646E-5,-3.329188E-4,4.5744735E-3,-1.4406478E-2,-5.5960882E-3],"split_indices":[22,29,24,6,33,16,33,0,0,1,31,32,1,0,31,0,0,6,6,6,5,33,18,0,32,0,1,32,0,1,10,33,5,12,22,20,33,0,0,0,0,0,0,0,0,0,0,0,0,0,0,0,0,0,0,0,0,0,0],"split_type":[0,1,0,0,1,0,1,0,0,0,1,1,0,0,1,0,0,0,0,0,0,1,0,0,1,0,0,1,0,0,0,1,0,0,0,0,1,0,0,0,0,0,0,0,0,0,0,0,0,0,0,0,0,0,0,0,0,0,0],"sum_hessian":[3.99E3,1.8E1,3.972E3,4E0,1.4E1,3.966E3,6E0,2E0,2E0,2E0,1.2E1,7.52E2,3.214E3,1E0,5E0,1E0,1E0,4E0,8E0,1.35E2,6.17E2,1.411E3,1.803E3,1E0,4E0,2E0,2E0,6E0,2E0,7E0,1.28E2,5E1,5.67E2,2.39E2,1.172E3,1.785E3,1.8E1,1E0,3E0,1E0,1E0,2E0,4E0,1E0,6E0,1.9E1,1.09E2,1.1E1,3.9E1,5.12E2,5.5E1,2.18E2,2.1E1,6.7E1,1.105E3,1.749E3,3.6E1,3E0,1.5E1],"tree_param":{"num_deleted":"0","num_feature":"35","num_nodes":"59","size_leaf_vector":"1"}},{"base_weights":[7.0281E-5,-1.6011767E-3,9.930647E-4,-1.1186285E-3,-2.5550768E-2,3.0337486E-3,-1.1375562E-3,-1.454281E-4,-5.633374E-3,8.159176E-3,-3.323376E-2,2.1054102E-3,1.7920101E-2,-8.055544E-3,3.2695822E-4,-7.0505426E-3,1.1218459E-3,-2.610421E-2,-1.1904815E-3,-5.9977067E-3,1.7787954E-2,-9.464845E-3,-4.527953E-2,9.420106E-3,8.6820644E-4,7.6567486E-2,4.810985E-3,-4.5090526E-2,4.249552E-4,1.8781481E-2,-5.330839E-5,-6.721805E-2,-1.101275E-3,4.411627E-3,-2.8840334E-3,-9.506111E-2,5.8796853E-3,5.4003084E-3,-5.6646215E-3,-8.628474E-4,7.1019065E-3,-1.8180368E-2,1.3802867E-2,-9.2148045E-3,-5.352781E-2,1.637507E-2,-6.1483877E-3,-1.6415394E-3,4.563524E-3,-1.3925702E-2,1.00933485E-1,-2.083329E-2,2.1783808E-2,-5.3070556E-2,7.368003E-2,-3.7345726E-3,4.052717E-2,-1.5371093E-2,2.7721563E-2,3.1786248E-2,-2.4147E-4,3.757922E-3,-2.2010831E-2,-1.1510118E-3,1.5713185E-2,-8.9534395E-4,2.1238725E-3,-1.0861492E-3,4.35038E-3,-4.9689088E-2,-6.4291307E-3,5.636153E-5,2.6495114E-2,2.1199947E-3,-1.2417294E-2,-5.4027676E-3,-1.1297277E-3,1.3197137E-2,-2.1210774E-3,8.152532E-4,-4.229424E-3,-7.599483E-3,-1.8033577E-2,-4.1034753E-3,6.583068E-3,-3.3748052E-3,3.4768085E-3,-1.5801181E-3,4.4629027E-4,3.5708884E-3,5.6086783E-4,4.3053538E-2,3.7864516E-3,-1.6444144E-3,-7.2682463E-3,4.6523128E-4,8.086564E-3,-2.6666118E-2,-5.4413956E-3,3.6797049E-3,2.947631E-2,-1.0953736E-2,1.6698628E-4,-1.2610513E-2,1.630134E-2,-1.2930804E-2,7.0124207E-4,-1.1297764E-3,1.1309912E-2,1.983176E-2,3.510346E-3,7.418802E-5,-3.309963E-3],"categories":[0,0,0,0,0,0,0,0,0,0,0,0,0],"categories_nodes":[4,6,7,8,12,21,22,29,44,45,52,58,59],"categories_segments":[0,1,2,3,4,5,6,7,8,9,10,11,12],"categories_sizes":[1,1,1,1,1,1,1,1,1,1,1,1,1],"default_left":[0,0,0,0,1,0,1,1,1,0,0,0,1,0,0,0,0,0,0,0,0,1,1,0,0,0,0,0,0,1,0,0,0,0,0,0,0,0,0,0,0,0,0,0,1,1,0,0,0,0,0,0,1,0,0,0,0,0,1,1,0,0,0,0,0,0,0,0,0,0,0,0,0,0,0,0,0,0,0,0,0,0,0,0,0,0,0,0,0,0,0,0,0,0,0,0,0,0,0,0,0,0,0,0,0,0,0,0,0,0,0,0,0],"id":12,"left_children":[1,3,5,7,9,11,13,15,17,19,21,23,25,27,29,31,33,35,37,-1,39,41,43,45,47,49,51,53,55,57,59,61,63,65,67,69,71,73,75,-1,-1,-1,77,79,81,83,85,87,89,-1,91,93,95,97,99,101,103,105,107,109,111,-1,-1,-1,-1,-1,-1,-1,-1,-1,-1,-1,-1,-1,-1,-1,-1,-1,-1,-1,-1,-1,-1,-1,-1,-1,-1,-1,-1,-1,-1,-1,-1,-1,-1,-1,-1,-1,-1,-1,-1,-1,-1,-1,-1,-1,-1,-1,-1,-1,-1,-1,-1],"loss_changes":[6.157284E-3,1.638212E-2,1.118631E-2,6.119678E-3,7.522974E-3,1.812119E-2,1.2758183E-2,1.00449305E-2,2.2433508E-2,1.9820123E-3,6.1566755E-3,1.1195434E-2,5.883042E-2,6.9115706E-2,7.299347E-3,6.364153E-2,1.2795835E-2,9.7601384E-2,6.0461657E-3,0E0,6.7613577E-4,1.1544911E-2,3.968831E-3,1.9482497E-2,9.838257E-3,4.6638876E-2,2.8310195E-2,4.276973E-2,3.017648E-2,6.837974E-3,6.118477E-3,8.767687E-3,2.4045719E-2,1.0538512E-2,5.6604994E-3,6.919524E-2,1.4529168E-2,6.764022E-3,2.7919477E-3,0E0,0E0,0E0,4.7217887E-3,2.713868E-4,7.0503354E-4,2.1051746E-2,5.19723E-3,7.1778013E-3,8.460011E-3,0E0,4.3310754E-2,1.2219939E-3,4.0388964E-3,4.718312E-2,3.3224914E-3,2.3087943E-2,2.1668104E-2,2.5561843E-3,5.4831468E-3,3.3623618E-3,5.3564548E-3,0E0,0E0,0E0,0E0,0E0,0E0,0E0,0E0,0E0,0E0,0E0,0E0,0E0,0E0,0E0,0E0,0E0,0E0,0E0,0E0,0E0,0E0,0E0,0E0,0E0,0E0,0E0,0E0,0E0,0E0,0E0,0E0,0E0,0E0,0E0,0E0,0E0,0E0,0E0,0E0,0E0,0E0,0E0,0E0,0E0,0E0,0E0,0E0,0E0,0E0,0E0,0E0],"parents":[2147483647,0,0,1,1,2,2,3,3,4,4,5,5,6,6,7,7,8,8,9,9,10,10,11,11,12,12,13,13,14,14,15,15,16,16,17,17,18,18,20,20,21,21,22,22,23,23,24,24,25,25,26,26,27,27,28,28,29,29,30,30,31,31,32,32,33,33,34,34,35,35,36,36,37,37,38,38,42,42,43,43,44,44,45,45,46,46,47,47,48,48,50,50,51,51,52,52,53,53,54,54,55,55,56,56,57,57,58,58,59,59,60,60],"right_children":[2,4,6,8,10,12,14,16,18,20,22,24,26,28,30,32,34,36,38,-1,40,42,44,46,48,50,52,54,56,58,60,62,64,66,68,70,72,74,76,-1,-1,-1,78,80,82,84,86,88,90,-1,92,94,96,98,100,102,104,106,108,110,112,-1,-1,-1,-1,-1,-1,-1,-1,-1,-1,-1,-1,-1,-1,-1,-1,-1,-1,-1,-1,-1,-1,-1,-1,-1,-1,-1,-1,-1,-1,-1,-1,-1,-1,-1,-1,-1,-1,-1,-1,-1,-1,-1,-1,-1,-1,-1,-1,-1,-1,-1,-1],"split_conditions":[-1.9473077E-1,8.780192E-1,1.5049465E-1,-2.4317858E-1,NaN,1.4938654E-1,NaN,NaN,NaN,1.6E1,3.5613153E0,1.7135599E-4,NaN,1.7703642E-1,1.9928571E0,-7.55E-1,2.040625E1,1.277514E0,1.2930412E0,-5.9977067E-3,3.739724E-2,NaN,NaN,6.635211E1,1.7126437E-2,4.103515E-1,1.8252832E-1,9.94605E-1,3.0328774E-1,NaN,-1.8211402E-1,1.4747331E1,8.528554E-1,6.4E0,1.2007354E0,2.7615183E-3,9.768155E-1,3.5386512E0,1.2052341E1,-8.628474E-4,7.1019065E-3,-1.8180368E-2,1.76E2,1.76E2,NaN,NaN,6.8135297E2,6.1207797E-2,8.3231133E-1,-1.3925702E-2,5.626954E-1,1.32E2,NaN,1.6431272E0,1.21E2,-2.4151303E-1,-2.0253402E-1,8.6E1,NaN,NaN,1.1368598E0,3.757922E-3,-2.2010831E-2,-1.1510118E-3,1.5713185E-2,-8.9534395E-4,2.1238725E-3,-1.0861492E-3,4.35038E-3,-4.9689088E-2,-6.4291307E-3,5.636153E-5,2.6495114E-2,2.1199947E-3,-1.2417294E-2,-5.4027676E-3,-1.1297277E-3,1.3197137E-2,-2.1210774E-3,8.152532E-4,-4.229424E-3,-7.599483E-3,-1.8033577E-2,-4.1034753E-3,6.583068E-3,-3.3748052E-3,3.4768085E-3,-1.5801181E-3,4.4629027E-4,3.5708884E-3,5.6086783E-4,4.3053538E-2,3.7864516E-3,-1.6444144E-3,-7.2682463E-3,4.6523128E-4,8.086564E-3,-2.6666118E-2,-5.4413956E-3,3.6797049E-3,2.947631E-2,-1.0953736E-2,1.6698628E-4,-1.2610513E-2,1.630134E-2,-1.2930804E-2,7.0124207E-4,-1.1297764E-3,1.1309912E-2,1.983176E-2,3.510346E-3,7.418802E-5,-3.309963E-3],"split_indices":[6,12,3,7,32,3,33,29,33,1,8,5,33,3,17,19,22,16,16,0,3,29,30,9,20,10,28,21,19,30,6,13,12,22,18,4,10,28,22,0,0,0,0,0,29,30,9,5,10,0,28,1,30,23,1,11,7,1,29,32,27,0,0,0,0,0,0,0,0,0,0,0,0,0,0,0,0,0,0,0,0,0,0,0,0,0,0,0,0,0,0,0,0,0,0,0,0,0,0,0,0,0,0,0,0,0,0,0,0,0,0,0,0],"split_type":[0,0,0,0,1,0,1,1,1,0,0,0,1,0,0,0,0,0,0,0,0,1,1,0,0,0,0,0,0,1,0,0,0,0,0,0,0,0,0,0,0,0,0,0,1,1,0,0,0,0,0,0,1,0,0,0,0,0,1,1,0,0,0,0,0,0,0,0,0,0,0,0,0,0,0,0,0,0,0,0,0,0,0,0,0,0,0,0,0,0,0,0,0,0,0,0,0,0,0,0,0,0,0,0,0,0,0,0,0,0,0,0,0],"sum_hessian":[3.99E3,1.419E3,2.571E3,1.392E3,2.7E1,1.313E3,1.258E3,1.146E3,2.46E2,5E0,2.2E1,1.237E3,7.6E1,2.19E2,1.039E3,1.77E2,9.69E2,4.3E1,2.03E2,1E0,4E0,8E0,1.4E1,1.78E2,1.059E3,1.3E1,6.3E1,4E1,1.79E2,2E1,1.019E3,1.5E1,1.62E2,5.32E2,4.37E2,1.3E1,3E1,8.2E1,1.21E2,1E0,3E0,2E0,6E0,3E0,1.1E1,1.23E2,5.5E1,6.31E2,4.28E2,2E0,1.1E1,2.5E1,3.8E1,3.8E1,2E0,1.63E2,1.6E1,4E0,1.6E1,5E0,1.014E3,1E0,1.4E1,1.55E2,7E0,1.41E2,3.91E2,4.2E2,1.7E1,6E0,7E0,2.9E1,1E0,8E1,2E0,1.5E1,1.06E2,2E0,4E0,1E0,2E0,3E0,8E0,1.9E1,1.04E2,4.3E1,1.2E1,2.92E2,3.39E2,1.14E2,3.14E2,7E0,4E0,5E0,2E1,8E0,3E1,1.8E1,2E1,1E0,1E0,1.8E1,1.45E2,2E0,1.4E1,1E0,3E0,4E0,1.2E1,1E0,4E0,9.71E2,4.3E1],"tree_param":{"num_deleted":"0","num_feature":"35","num_nodes":"113","size_leaf_vector":"1"}},{"base_weights":[4.133851E-5,1.5000199E-4,-1.0431118E-2,2.5676615E-3,-3.6413976E-4,8.5462E-3,-1.392855E-2,1.4037372E-3,3.3611562E-2,-1.1777873E-3,2.4914453E-3,1.7986742E-3,3.2656428E-3,-9.005405E-3,-2.5335873E-2,1.583389E-2,3.625203E-4,4.7857206E-2,-1.5942711E-2,2.4084466E-2,-1.2872876E-3,-1.2250307E-3,6.635312E-3,9.255244E-5,7.16851E-4,1.0437156E-2,-1.41315935E-2,-1.7658977E-2,-1.5070247E-2,3.049973E-2,7.2824284E-3,-3.981314E-2,8.8200695E-4,7.83686E-2,-1.5333795E-2,3.280641E-2,-7.015E-3,-1.3847959E-3,2.1141429E-2,-5.2120024E-3,4.106505E-3,7.429838E-4,1.5029744E-2,4.361034E-3,-1.5091444E-3,1.0914471E-3,-1.895701E-2,-8.07122E-3,-2.2238195E-4,7.2937612E-3,-1.2398208E-3,-1.4619539E-3,-1.7940743E-2,4.483153E-4,-9.913782E-3,3.267956E-2,4.3105115E-3,-1.1628665E-3,-9.941303E-3,-3.0870917E-3,-7.0100854E-4,-3.3883244E-4,-2.8714554E-3,2.6941344E-2,-1.2285912E-3,-8.919133E-3,4.981967E-4,9.504243E-3,6.3307397E-4,-1.4404145E-3,2.0027382E-3,5.4632435E-3,-3.288156E-3,2.4926043E-3,-2.6686043E-3,-6.3141845E-3,-2.2273115E-3,1.7394057E-3,-9.53096E-4],"categories":[0,0,0,0,0,0,0,0,0],"categories_nodes":[1,2,13,14,19,26,38,39,48],"categories_segments":[0,1,2,3,4,5,6,7,8],"categories_sizes":[1,1,1,1,1,1,1,1,1],"default_left":[0,1,1,0,0,0,0,0,0,0,0,0,0,1,1,0,0,0,0,1,0,0,0,0,0,0,1,0,0,0,0,0,0,0,0,0,0,0,1,1,0,0,0,0,0,0,0,0,1,0,0,0,0,0,0,0,0,0,0,0,0,0,0,0,0,0,0,0,0,0,0,0,0,0,0,0,0,0,0],"id":13,"left_children":[1,3,5,7,9,11,13,15,17,19,21,23,-1,25,27,29,31,33,-1,35,37,39,41,-1,-1,43,45,-1,47,-1,49,51,53,55,57,-1,59,61,63,65,67,69,71,-1,-1,73,75,-1,77,-1,-1,-1,-1,-1,-1,-1,-1,-1,-1,-1,-1,-1,-1,-1,-1,-1,-1,-1,-1,-1,-1,-1,-1,-1,-1,-1,-1,-1,-1],"loss_changes":[4.5432174E-3,4.9121054E-3,2.8402833E-3,2.499281E-2,7.5750253E-3,9.091076E-5,1.7374372E-3,1.0045931E-2,3.3439882E-2,7.0489086E-3,1.1142749E-2,1.904119E-6,0E0,2.7388155E-3,2.5547114E-3,3.2289088E-2,1.30793145E-2,4.3618686E-2,0E0,2.9937569E-2,5.5557936E-3,8.141457E-3,1.6905092E-2,0E0,0E0,4.5359595E-4,1.563298E-3,0E0,1.5753792E-3,0E0,8.265341E-3,5.2959835E-3,1.2889385E-2,2.7775675E-2,1.5034653E-3,0E0,1.1386062E-4,5.2510183E-3,1.9428916E-2,3.6952376E-2,8.960596E-3,6.676573E-3,1.1857029E-2,0E0,0E0,5.063708E-4,2.2943877E-4,0E0,1.0735975E-4,0E0,0E0,0E0,0E0,0E0,0E0,0E0,0E0,0E0,0E0,0E0,0E0,0E0,0E0,0E0,0E0,0E0,0E0,0E0,0E0,0E0,0E0,0E0,0E0,0E0,0E0,0E0,0E0,0E0,0E0],"parents":[2147483647,0,0,1,1,2,2,3,3,4,4,5,5,6,6,7,7,8,8,9,9,10,10,11,11,13,13,14,14,15,15,16,16,17,17,19,19,20,20,21,21,22,22,25,25,26,26,28,28,30,30,31,31,32,32,33,33,34,34,36,36,37,37,38,38,39,39,40,40,41,41,42,42,45,45,46,46,48,48],"right_children":[2,4,6,8,10,12,14,16,18,20,22,24,-1,26,28,30,32,34,-1,36,38,40,42,-1,-1,44,46,-1,48,-1,50,52,54,56,58,-1,60,62,64,66,68,70,72,-1,-1,74,76,-1,78,-1,-1,-1,-1,-1,-1,-1,-1,-1,-1,-1,-1,-1,-1,-1,-1,-1,-1,-1,-1,-1,-1,-1,-1,-1,-1,-1,-1,-1,-1],"split_conditions":[6.3293654E-1,NaN,NaN,6.0877085E-1,6.37E2,3.9798953E-4,4.1840615E-4,1.067555E-6,8.3237004E-1,1.1400767E-4,1.9188437E-3,3.3E1,3.2656428E-3,NaN,NaN,9.735484E0,2.5743035E-5,1.0815809E0,-1.5942711E-2,NaN,7.3399603E-1,9.94605E-1,3.753058E-1,9.255244E-5,7.16851E-4,5.2E1,NaN,-1.7658977E-2,9.6E1,3.049973E-2,-3.764231E-1,5.990629E-1,8.294314E-1,1.6466194E-3,2.3100042E-4,3.280641E-2,5.1E1,2.2267165E2,NaN,NaN,9.45E2,1.2744027E0,3.0212219E0,4.361034E-3,-1.5091444E-3,3.232558E1,5.2E1,-8.07122E-3,NaN,7.2937612E-3,-1.2398208E-3,-1.4619539E-3,-1.7940743E-2,4.483153E-4,-9.913782E-3,3.267956E-2,4.3105115E-3,-1.1628665E-3,-9.941303E-3,-3.0870917E-3,-7.0100854E-4,-3.3883244E-4,-2.8714554E-3,2.6941344E-2,-1.2285912E-3,-8.919133E-3,4.981967E-4,9.504243E-3,6.3307397E-4,-1.4404145E-3,2.0027382E-3,5.4632435E-3,-3.288156E-3,2.4926043E-3,-2.6686043E-3,-6.3141845E-3,-2.2273115E-3,1.7394057E-3,-9.53096E-4],"split_indices":[19,31,29,20,0,3,3,5,20,4,6,1,0,30,30,9,5,10,0,33,6,21,28,0,0,1,34,0,0,0,19,12,25,4,5,0,1,13,33,33,0,23,28,0,0,9,1,0,34,0,0,0,0,0,0,0,0,0,0,0,0,0,0,0,0,0,0,0,0,0,0,0,0,0,0,0,0,0,0],"split_type":[0,1,1,0,0,0,0,0,0,0,0,0,0,1,1,0,0,0,0,1,0,0,0,0,0,0,1,0,0,0,0,0,0,0,0,0,0,0,1,1,0,0,0,0,0,0,0,0,1,0,0,0,0,0,0,0,0,0,0,0,0,0,0,0,0,0,0,0,0,0,0,0,0,0,0,0,0,0,0],"sum_hessian":[3.99E3,3.95E3,4E1,6.92E2,3.258E3,6E0,3.4E1,6.68E2,2.4E1,2.536E3,7.22E2,2E0,4E0,2.5E1,9E0,4.4E1,6.24E2,2.1E1,3E0,1E1,2.526E3,3.81E2,3.41E2,1E0,1E0,5E0,2E1,1E0,8E0,3E0,4.1E1,7E0,6.17E2,1.4E1,7E0,2E0,8E0,2.516E3,1E1,2.18E2,1.63E2,2.01E2,1.4E2,4E0,1E0,5E0,1.5E1,4E0,4E0,1.6E1,2.5E1,3E0,4E0,6.07E2,1E1,9E0,5E0,5E0,2E0,4E0,4E0,2.441E3,7.5E1,2E0,8E0,4.7E1,1.71E2,1E1,1.53E2,1.04E2,9.7E1,1.25E2,1.5E1,3E0,2E0,1.2E1,3E0,1E0,3E0],"tree_param":{"num_deleted":"0","num_feature":"35","num_nodes":"79","size_leaf_vector":"1"}},{"base_weights":[4.0680625E-5,-1.681849E-6,2.4151219E-2,-2.528554E-3,3.6490022E-4,1.685295E-2,9.450924E-3,-3.5575146E-3,5.019249E-3,1.1112846E-3,-1.5063139E-3,1.5174915E-2,-8.8921115E-3,-7.6682637E-3,-6.301348E-4,4.5366284E-2,-3.781469E-3,2.0886231E-3,-1.3746548E-3,-2.9276582E-4,-7.6388665E-3,-7.551732E-4,-2.9569557E-3,-1.9621877E-2,-5.134602E-3,1.2976718E-3,-4.307386E-3,-3.4177864E-3,3.947786E-2,8.567615E-4,-2.0725649E-2,8.187433E-4,7.137564E-3,-2.25028E-3,1.5401572E-2,6.416018E-3,-1.6985476E-3,3.120975E-2,-8.805143E-3,6.402689E-3,-7.870838E-3,1.1569607E-3,-2.07209E-3,3.4164814E-3,1.4091005E-4,5.9610815E-4,-2.246313E-3,6.141534E-3,-6.553765E-3,4.507453E-3,-4.5851534E-4,-2.042124E-2,-7.923248E-4,5.9246103E-4,-9.4383606E-4,7.407886E-3,9.7356975E-4,-7.8639213E-4,9.963819E-3,2.0123303E-2,7.190824E-4,7.2152074E-4,1.797667E-2,-5.915094E-4,1.363043E-2,2.8040497E-2,-2.3165916E-3,-3.3482318E-3,3.927922E-3],"categories":[0,0,0,0,0,0,0,0,0,0],"categories_nodes":[2,6,8,12,13,19,30,32,34,37],"categories_segments":[0,1,2,3,4,5,6,7,8,9],"categories_sizes":[1,1,1,1,1,1,1,1,1,1],"default_left":[0,0,1,0,0,0,1,0,1,0,0,0,1,1,0,0,0,0,0,1,0,0,0,0,0,0,0,0,0,0,1,0,1,0,1,0,0,1,0,0,0,0,0,0,0,0,0,0,0,0,0,0,0,0,0,0,0,0,0,0,0,0,0,0,0,0,0,0,0],"id":14,"left_children":[1,3,5,7,9,-1,11,13,15,17,19,-1,21,23,25,27,29,31,33,35,37,-1,-1,39,41,43,45,47,-1,49,51,53,55,57,59,61,63,65,67,-1,-1,-1,-1,-1,-1,-1,-1,-1,-1,-1,-1,-1,-1,-1,-1,-1,-1,-1,-1,-1,-1,-1,-1,-1,-1,-1,-1,-1,-1],"loss_changes":[4.076376E-3,3.6922523E-3,2.7645477E-3,3.939884E-3,4.8633954E-3,0E0,4.976718E-3,5.3501744E-3,2.183161E-2,6.0501574E-3,7.3878164E-3,0E0,5.9285667E-6,5.502237E-3,1.8558262E-3,4.672107E-2,4.025899E-3,1.1451593E-2,1.0361509E-2,7.8387E-3,7.705354E-3,0E0,0E0,9.2302505E-3,2.4807146E-3,1.4316645E-3,1.8165224E-3,3.9691376E-3,0E0,1.4084743E-3,9.238602E-3,6.5565836E-3,2.4450835E-2,8.889581E-3,2.336022E-2,3.0759823E-2,8.934346E-3,1.2840926E-2,8.399582E-3,0E0,0E0,0E0,0E0,0E0,0E0,0E0,0E0,0E0,0E0,0E0,0E0,0E0,0E0,0E0,0E0,0E0,0E0,0E0,0E0,0E0,0E0,0E0,0E0,0E0,0E0,0E0,0E0,0E0,0E0],"parents":[2147483647,0,0,1,1,2,2,3,3,4,4,6,6,7,7,8,8,9,9,10,10,12,12,13,13,14,14,15,15,16,16,17,17,18,18,19,19,20,20,23,23,24,24,25,25,26,26,27,27,29,29,30,30,31,31,32,32,33,33,34,34,35,35,36,36,37,37,38,38],"right_children":[2,4,6,8,10,-1,12,14,16,18,20,-1,22,24,26,28,30,32,34,36,38,-1,-1,40,42,44,46,48,-1,50,52,54,56,58,60,62,64,66,68,-1,-1,-1,-1,-1,-1,-1,-1,-1,-1,-1,-1,-1,-1,-1,-1,-1,-1,-1,-1,-1,-1,-1,-1,-1,-1,-1,-1,-1,-1],"split_conditions":[8.575388E-1,5.0299007E-2,NaN,9.5099896E-2,1.19807586E-1,1.685295E-2,NaN,4.8405796E-1,NaN,9.45E1,3.250485E0,1.5174915E-2,NaN,NaN,5.267361E-2,3.77E2,4.09E2,4.2E1,8.648068E-1,NaN,8.110627E-1,-7.551732E-4,-2.9569557E-3,-9.397536E-3,2.803346E-1,1.31E2,-2.6913932E-2,1.15095176E-1,3.947786E-2,4.6E1,NaN,3.642857E1,NaN,1.171224E-1,NaN,3.052276E-1,7.770455E-1,NaN,1.179551E1,6.402689E-3,-7.870838E-3,1.1569607E-3,-2.07209E-3,3.4164814E-3,1.4091005E-4,5.9610815E-4,-2.246313E-3,6.141534E-3,-6.553765E-3,4.507453E-3,-4.5851534E-4,-2.042124E-2,-7.923248E-4,5.9246103E-4,-9.4383606E-4,7.407886E-3,9.7356975E-4,-7.8639213E-4,9.963819E-3,2.0123303E-2,7.190824E-4,7.2152074E-4,1.797667E-2,-5.915094E-4,1.363043E-2,2.8040497E-2,-2.3165916E-3,-3.3482318E-3,3.927922E-3],"split_indices":[24,28,33,14,20,0,31,24,33,2,16,0,34,33,14,1,1,2,18,31,10,0,0,11,12,0,11,19,0,0,31,22,33,20,33,6,18,34,16,0,0,0,0,0,0,0,0,0,0,0,0,0,0,0,0,0,0,0,0,0,0,0,0,0,0,0,0,0,0],"split_type":[0,0,1,0,0,0,1,0,1,0,0,0,1,1,0,0,0,0,0,1,0,0,0,0,0,0,0,0,0,0,1,0,1,0,1,0,0,1,0,0,0,0,0,0,0,0,0,0,0,0,0,0,0,0,0,0,0,0,0,0,0,0,0,0,0,0,0,0,0],"sum_hessian":[3.99E3,3.984E3,6E0,5.04E2,3.48E3,1E0,5E0,4.44E2,6E1,2.488E3,9.92E2,1E0,4E0,1.84E2,2.6E2,1E1,5E1,1.786E3,7.02E2,8.29E2,1.63E2,1E0,3E0,3.1E1,1.53E2,1.71E2,8.9E1,7E0,3E0,4E1,1E1,1.428E3,3.58E2,6.68E2,3.4E1,1.43E2,6.86E2,4E0,1.59E2,4E0,2.7E1,2.5E1,1.28E2,1.2E1,1.59E2,3E1,5.9E1,3E0,4E0,5E0,3.5E1,2E0,8E0,1.106E3,3.22E2,6.4E1,2.94E2,6.62E2,6E0,6E0,2.8E1,1.34E2,9E0,6.83E2,3E0,1E0,3E0,1.44E2,1.5E1],"tree_param":{"num_deleted":"0","num_feature":"35","num_nodes":"69","size_leaf_vector":"1"}},{"base_weights":[6.5016495E-5,-3.3413784E-3,3.5882933E-4,-1.6124E-2,-5.3696893E-4,1.5571706E-2,2.4196548E-4,-2.0307537E-2,3.144628E-2,-9.890833E-3,3.5544002E-4,5.356838E-2,2.7740493E-3,-4.4097312E-4,1.6997494E-3,-8.760373E-3,-7.578697E-2,1.7157739E-2,-4.7819903E-3,-2.6892906E-3,7.839028E-3,3.3490673E-2,8.014398E-3,2.906388E-2,-2.9066547E-3,4.950009E-4,-2.758692E-3,-5.445833E-3,2.9611404E-3,-3.2362295E-3,-1.9372137E-2,-1.9959558E-2,-3.0112226E-2,-2.782334E-3,6.304382E-4,1.9149607E-2,-4.070329E-3,-5.8876364E-3,1.1140044E-2,-2.8897873E-3,6.896986E-3,1.6566161E-2,1.9381493E-3,-1.1219753E-2,2.2613972E-2,1.6882164E-4,1.4976376E-2,8.046831E-3,-3.851624E-3,-1.2575163E-3,-1.15631195E-2,2.7187787E-2,2.5605378E-3,-6.7677572E-3,5.921566E-4,-1.3124468E-4,-7.896327E-3,-4.301104E-3,8.455224E-3,-1.5411043E-3,1.2879994E-3,-4.393395E-3,4.3665958E-3,1.0973372E-2,1.956932E-3,3.4458698E-3,-2.5737025E-3,1.573331E-3,-5.992888E-3,6.674789E-4,8.1465E-3,-2.7123287E-3,1.3434292E-4,1.4149315E-2,1.9384092E-3,1.0681366E-2,5.663792E-4,-5.577941E-4,-2.7011242E-3,-1.4959889E-3,4.452164E-3,-3.984462E-3,9.54447E-3,-1.4439103E-2,1.44813685E-2,2.6042892E-3,2.9988185E-4],"categories":[0,0,0,0,0,0,0,0,0,0,0,0],"categories_nodes":[1,5,12,14,20,35,43,44,46,47,51,52],"categories_segments":[0,1,2,3,4,5,6,7,8,9,10,11],"categories_sizes":[1,1,1,1,1,1,1,1,1,1,1,1],"default_left":[0,1,0,0,0,1,0,0,0,0,0,0,1,0,1,0,0,0,0,0,1,0,0,0,0,0,0,0,0,0,0,0,0,0,0,1,0,0,0,0,0,0,0,1,1,0,1,1,0,0,0,1,1,0,0,0,0,0,0,0,0,0,0,0,0,0,0,0,0,0,0,0,0,0,0,0,0,0,0,0,0,0,0,0,0,0,0],"id":15,"left_children":[1,3,5,7,9,11,13,15,17,-1,19,21,23,25,27,29,31,-1,33,35,37,-1,39,41,43,45,47,49,51,53,-1,55,-1,-1,-1,57,59,61,63,-1,-1,-1,65,67,69,71,73,75,77,79,81,83,85,-1,-1,-1,-1,-1,-1,-1,-1,-1,-1,-1,-1,-1,-1,-1,-1,-1,-1,-1,-1,-1,-1,-1,-1,-1,-1,-1,-1,-1,-1,-1,-1,-1,-1],"loss_changes":[3.995562E-3,1.1355066E-2,6.5297782E-3,1.198228E-2,7.56585E-3,1.3466915E-2,3.6326142E-3,3.328947E-2,4.937192E-3,0E0,5.831386E-3,1.762165E-2,3.3700631E-3,5.3921374E-3,1.05076935E-2,1.3665482E-2,1.0350294E-2,0E0,1.1226069E-4,5.5671297E-3,3.418672E-3,0E0,1.5428234E-3,2.7310483E-3,4.2846776E-3,8.362833E-3,8.474929E-3,4.469158E-3,9.538589E-3,4.272848E-3,0E0,4.852462E-4,0E0,0E0,0E0,3.7319483E-3,1.5565346E-3,2.898446E-3,6.8080975E-3,0E0,0E0,0E0,3.9979655E-4,2.2673043E-3,4.0251832E-4,4.4569178E-3,1.0384422E-2,1.1134649E-2,6.6552674E-3,6.377311E-3,5.715006E-3,2.7730756E-2,9.306051E-3,0E0,0E0,0E0,0E0,0E0,0E0,0E0,0E0,0E0,0E0,0E0,0E0,0E0,0E0,0E0,0E0,0E0,0E0,0E0,0E0,0E0,0E0,0E0,0E0,0E0,0E0,0E0,0E0,0E0,0E0,0E0,0E0,0E0,0E0],"parents":[2147483647,0,0,1,1,2,2,3,3,4,4,5,5,6,6,7,7,8,8,10,10,11,11,12,12,13,13,14,14,15,15,16,16,18,18,19,19,20,20,22,22,23,23,24,24,25,25,26,26,27,27,28,28,29,29,31,31,35,35,36,36,37,37,38,38,42,42,43,43,44,44,45,45,46,46,47,47,48,48,49,49,50,50,51,51,52,52],"right_children":[2,4,6,8,10,12,14,16,18,-1,20,22,24,26,28,30,32,-1,34,36,38,-1,40,42,44,46,48,50,52,54,-1,56,-1,-1,-1,58,60,62,64,-1,-1,-1,66,68,70,72,74,76,78,80,82,84,86,-1,-1,-1,-1,-1,-1,-1,-1,-1,-1,-1,-1,-1,-1,-1,-1,-1,-1,-1,-1,-1,-1,-1,-1,-1,-1,-1,-1,-1,-1,-1,-1,-1,-1],"split_conditions":[4.9266413E-1,NaN,3.4986556E0,1.840298E-1,9.316514E-1,NaN,3.0750403E-1,9.489647E-1,-7.040822E-3,-9.890833E-3,6.4749944E-1,1.6666666E1,NaN,1.171224E-1,NaN,1.2392823E0,8.10559E-2,1.7157739E-2,1.05E2,7.68866E-3,NaN,3.3490673E-2,2.8543536E-2,2.3E1,3.6E2,1.0510547E-1,2.148718E-1,-6.520874E-2,3E1,3.6613926E-2,-1.9372137E-2,1.3334139E-1,-3.0112226E-2,-2.782334E-3,6.304382E-4,NaN,1.1348249E1,4.1217144E1,5.7E2,-2.8897873E-3,6.896986E-3,1.6566161E-2,3.6E2,NaN,NaN,4.766667E0,NaN,NaN,4.9196157E-1,-2.1794106E-1,8.7992066E-1,NaN,NaN,-6.7677572E-3,5.921566E-4,-1.3124468E-4,-7.896327E-3,-4.301104E-3,8.455224E-3,-1.5411043E-3,1.2879994E-3,-4.393395E-3,4.3665958E-3,1.0973372E-2,1.956932E-3,3.4458698E-3,-2.5737025E-3,1.573331E-3,-5.992888E-3,6.674789E-4,8.1465E-3,-2.7123287E-3,1.3434292E-4,1.4149315E-2,1.9384092E-3,1.0681366E-2,5.663792E-4,-5.577941E-4,-2.7011242E-3,-1.4959889E-3,4.452164E-3,-3.984462E-3,9.54447E-3,-1.4439103E-2,1.44813685E-2,2.6042892E-3,2.9988185E-4],"split_indices":[21,33,22,16,27,29,5,12,20,0,25,9,33,20,30,11,28,0,1,5,29,0,4,1,0,20,24,7,1,4,0,3,0,0,0,29,8,15,0,0,0,0,0,31,31,22,33,31,12,6,18,33,33,0,0,0,0,0,0,0,0,0,0,0,0,0,0,0,0,0,0,0,0,0,0,0,0,0,0,0,0,0,0,0,0,0,0],"split_type":[0,1,0,0,0,1,0,0,0,0,0,0,1,0,1,0,0,0,0,0,1,0,0,0,0,0,0,0,0,0,0,0,0,0,0,1,0,0,0,0,0,0,0,1,1,0,1,1,0,0,0,1,1,0,0,0,0,0,0,0,0,0,0,0,0,0,0,0,0,0,0,0,0,0,0,0,0,0,0,0,0,0,0,0,0,0,0],"sum_hessian":[3.99E3,3.16E2,3.674E3,5.6E1,2.6E2,2.7E1,3.647E3,5.2E1,4E0,6E0,2.54E2,6E0,2.1E1,2.484E3,1.163E3,4.4E1,8E0,2E0,2E0,1.81E2,7.3E1,2E0,4E0,3E0,1.8E1,1.77E3,7.14E2,1.74E2,9.89E2,4.1E1,3E0,3E0,5E0,1E0,1E0,1E1,1.71E2,1.4E1,5.9E1,2E0,2E0,1E0,2E0,1.4E1,4E0,1.732E3,3.8E1,6.5E1,6.49E2,1.04E2,7E1,1.5E1,9.74E2,8E0,3.3E1,1E0,2E0,2E0,8E0,1.52E2,1.9E1,1E1,4E0,8E0,5.1E1,1E0,1E0,5E0,9E0,1E0,3E0,5E1,1.682E3,7E0,3.1E1,1.1E1,5.4E1,4.69E2,1.8E2,8.5E1,1.9E1,6.8E1,2E0,3E0,1.2E1,1.97E2,7.77E2],"tree_param":{"num_deleted":"0","num_feature":"35","num_nodes":"87","size_leaf_vector":"1"}},{"base_weights":[5.8171E-5,6.476271E-4,-1.1807855E-3,-6.255284E-4,2.1278777E-3,-1.3394186E-2,-8.8858925E-4,4.3961024E-4,-2.5358528E-3,3.728091E-4,6.7357603E-3,-4.8826333E-2,-4.8760578E-4,3.2451786E-3,-1.8067876E-3,1.1743653E-3,-4.560387E-3,-1.890946E-3,-2.7591374E-2,1.1582373E-3,-1.5435754E-2,3.7058475E-4,1.4721009E-2,-7.9412796E-2,2.8622035E-2,1.8842615E-2,-6.9039236E-3,6.1497413E-2,1.4020808E-3,2.5481448E-4,-4.912351E-3,-7.3219714E-4,4.147073E-3,-1.567208E-2,-1.7640883E-3,1.608625E-2,-2.3573698E-3,9.901724E-3,-4.160955E-2,9.6294405E-3,-5.048415E-4,-9.4934635E-2,2.6594347E-3,6.387121E-3,-7.3490986E-3,-1.0494474E-2,2.0207616E-2,-2.5935484E-2,-6.6328035E-3,1.2090006E-2,7.8991044E-4,1.3678873E-2,-5.9332587E-3,-1.358056E-2,-2.0455886E-4,2.0259863E-2,3.792695E-3,-6.642344E-4,3.4832112E-2,-4.0397316E-4,2.5149297E-2,-1.6177021E-2,-3.4134043E-3,-9.249331E-5,-9.126222E-3,-7.4242125E-3,1.4340077E-3,-6.8316692E-3,1.2485916E-2,-3.3787987E-3,4.0211075E-4,2.0938046E-2,-7.0688525E-6,-7.0633916E-3,-6.1515294E-4,-8.89954E-4,-1.4960186E-2,6.635562E-3,-8.755043E-3,2.5264712E-3,-7.807574E-4,-3.3236936E-2,2.4077115E-3,7.743095E-3,-1.145616E-3,-1.5355252E-3,4.2762696E-3,-8.288811E-3,-7.825863E-4,3.914361E-3,-7.948583E-3,8.274552E-3,3.0176935E-4,1.6386977E-4,-2.4825502E-3,-6.3152105E-4,-4.9675643E-3,-7.1908755E-4,1.1049841E-3,-1.1815014E-3,2.6783552E-3,2.9463718E-2,-1.2748167E-3,-4.1676765E-5,-9.654678E-3,3.266597E-2,-7.6517364E-4,-1.7184507E-2,-2.6529183E-4,-3.7819275E-3,-1.9594966E-4],"categories":[0,0,0,0,0,0,0,0,0,0,0,0,0,0,0,0,0],"categories_nodes":[5,6,12,16,18,19,20,22,34,35,38,42,44,53,60,61,62],"categories_segments":[0,1,2,3,4,5,6,7,8,9,10,11,12,13,14,15,16],"categories_sizes":[1,1,1,1,1,1,1,1,1,1,1,1,1,1,1,1,1],"default_left":[0,0,0,0,0,1,1,0,0,0,0,0,1,0,0,0,1,0,1,1,1,0,1,0,0,0,0,0,0,0,0,0,0,0,1,1,0,0,1,0,0,0,1,0,1,0,0,0,0,0,0,0,0,1,0,0,0,0,0,0,1,1,1,0,0,0,0,0,0,0,0,0,0,0,0,0,0,0,0,0,0,0,0,0,0,0,0,0,0,0,0,0,0,0,0,0,0,0,0,0,0,0,0,0,0,0,0,0,0,0,0],"id":16,"left_children":[1,3,5,7,9,11,13,15,17,19,21,23,25,27,29,31,33,35,37,39,41,43,45,47,49,51,53,55,57,59,61,63,65,67,69,71,73,-1,75,77,79,81,83,85,87,89,91,-1,-1,-1,-1,-1,93,95,97,-1,-1,99,101,103,105,107,109,-1,-1,-1,-1,-1,-1,-1,-1,-1,-1,-1,-1,-1,-1,-1,-1,-1,-1,-1,-1,-1,-1,-1,-1,-1,-1,-1,-1,-1,-1,-1,-1,-1,-1,-1,-1,-1,-1,-1,-1,-1,-1,-1,-1,-1,-1,-1,-1],"loss_changes":[2.9154336E-3,5.099145E-3,4.581027E-3,2.9616912E-3,1.01145115E-2,1.3695427E-2,4.780751E-3,3.4403338E-3,8.366393E-3,1.1279635E-2,1.7530035E-2,2.1223929E-2,2.9827512E-3,2.4500262E-2,6.5957597E-3,4.6278406E-3,3.7009467E-3,4.3058824E-3,1.2416352E-2,1.2191222E-2,6.2110007E-2,9.010971E-3,2.1379232E-2,5.087033E-4,8.043861E-4,4.247601E-3,8.0234784E-4,1.2102686E-3,1.54273035E-2,1.017827E-2,6.884573E-3,6.257732E-3,5.952422E-3,1.0710506E-2,2.875424E-3,1.124942E-2,3.1829793E-3,0E0,3.3622105E-3,6.947835E-2,1.3578661E-2,1.3948776E-2,5.497662E-3,9.93913E-3,8.09967E-3,1.0893206E-2,1.7813567E-2,0E0,0E0,0E0,0E0,0E0,6.521765E-5,2.7270778E-4,9.406563E-5,0E0,0E0,6.661716E-3,3.2618295E-2,5.091356E-3,3.738992E-2,3.012224E-2,9.22824E-3,0E0,0E0,0E0,0E0,0E0,0E0,0E0,0E0,0E0,0E0,0E0,0E0,0E0,0E0,0E0,0E0,0E0,0E0,0E0,0E0,0E0,0E0,0E0,0E0,0E0,0E0,0E0,0E0,0E0,0E0,0E0,0E0,0E0,0E0,0E0,0E0,0E0,0E0,0E0,0E0,0E0,0E0,0E0,0E0,0E0,0E0,0E0,0E0],"parents":[2147483647,0,0,1,1,2,2,3,3,4,4,5,5,6,6,7,7,8,8,9,9,10,10,11,11,12,12,13,13,14,14,15,15,16,16,17,17,18,18,19,19,20,20,21,21,22,22,23,23,24,24,25,25,26,26,27,27,28,28,29,29,30,30,31,31,32,32,33,33,34,34,35,35,36,36,38,38,39,39,40,40,41,41,42,42,43,43,44,44,45,45,46,46,52,52,53,53,54,54,57,57,58,58,59,59,60,60,61,61,62,62],"right_children":[2,4,6,8,10,12,14,16,18,20,22,24,26,28,30,32,34,36,38,40,42,44,46,48,50,52,54,56,58,60,62,64,66,68,70,72,74,-1,76,78,80,82,84,86,88,90,92,-1,-1,-1,-1,-1,94,96,98,-1,-1,100,102,104,106,108,110,-1,-1,-1,-1,-1,-1,-1,-1,-1,-1,-1,-1,-1,-1,-1,-1,-1,-1,-1,-1,-1,-1,-1,-1,-1,-1,-1,-1,-1,-1,-1,-1,-1,-1,-1,-1,-1,-1,-1,-1,-1,-1,-1,-1,-1,-1,-1,-1],"split_conditions":[3.73E2,3.0704108E-1,3.75E2,4.165333E1,3.7E1,NaN,NaN,1.5286076E-1,8.780192E-1,4.685077E-1,2.1272728E1,1.9474962E-1,NaN,-9.0408045E-1,-1.5842929E-8,4.3091372E-1,NaN,1.8308735E-1,NaN,NaN,NaN,7.8988943E0,NaN,1.28E2,2.134258E-1,1.28E2,1.28E2,2.0134296E-1,1.2542858E3,-1.9422968E-7,8.853837E-2,4.686589E-1,3.7301588E-1,2.2780371E-3,NaN,NaN,2.019192E1,9.901724E-3,NaN,7.695147E-1,9.368969E0,6.414774E-1,NaN,1.7472586E1,NaN,1.290743E0,1.5712775E-1,-2.5935484E-2,-6.6328035E-3,1.2090006E-2,7.8991044E-4,1.3678873E-2,1.9474962E-1,NaN,2.134258E-1,2.0259863E-2,3.792695E-3,6.536021E-1,3.231E3,4.102473E0,NaN,NaN,NaN,-9.249331E-5,-9.126222E-3,-7.4242125E-3,1.4340077E-3,-6.8316692E-3,1.2485916E-2,-3.3787987E-3,4.0211075E-4,2.0938046E-2,-7.0688525E-6,-7.0633916E-3,-6.1515294E-4,-8.89954E-4,-1.4960186E-2,6.635562E-3,-8.755043E-3,2.5264712E-3,-7.807574E-4,-3.3236936E-2,2.4077115E-3,7.743095E-3,-1.145616E-3,-1.5355252E-3,4.2762696E-3,-8.288811E-3,-7.825863E-4,3.914361E-3,-7.948583E-3,8.274552E-3,3.0176935E-4,1.6386977E-4,-2.4825502E-3,-6.3152105E-4,-4.9675643E-3,-7.1908755E-4,1.1049841E-3,-1.1815014E-3,2.6783552E-3,2.9463718E-2,-1.2748167E-3,-4.1676765E-5,-9.654678E-3,3.266597E-2,-7.6517364E-4,-1.7184507E-2,-2.6529183E-4,-3.7819275E-3,-1.9594966E-4],"split_indices":[1,28,1,15,2,29,32,20,12,5,9,3,33,19,11,16,33,25,29,33,33,8,32,0,3,0,0,10,2,11,18,19,24,11,31,33,9,0,32,12,8,5,29,13,33,23,26,0,0,0,0,0,3,34,3,0,0,24,1,28,33,29,33,0,0,0,0,0,0,0,0,0,0,0,0,0,0,0,0,0,0,0,0,0,0,0,0,0,0,0,0,0,0,0,0,0,0,0,0,0,0,0,0,0,0,0,0,0,0,0,0],"split_type":[0,0,0,0,0,1,1,0,0,0,0,0,1,0,0,0,1,0,1,1,1,0,1,0,0,0,0,0,0,0,0,0,0,0,1,1,0,0,1,0,0,0,1,0,1,0,0,0,0,0,0,0,0,1,0,0,0,0,0,0,1,1,1,0,0,0,0,0,0,0,0,0,0,0,0,0,0,0,0,0,0,0,0,0,0,0,0,0,0,0,0,0,0,0,0,0,0,0,0,0,0,0,0,0,0,0,0,0,0,0,0],"sum_hessian":[3.99E3,2.704E3,1.286E3,1.454E3,1.25E3,2.9E1,1.257E3,9.34E2,5.2E2,9.06E2,3.44E2,7E0,2.2E1,2.28E2,1.029E3,8.15E2,1.19E2,5.08E2,1.2E1,8.64E2,4.2E1,1.92E2,1.52E2,5E0,2E0,5E0,1.7E1,6E0,2.22E2,6.19E2,4.1E2,4.97E2,3.18E2,2.3E1,9.6E1,1.2E1,4.96E2,2E0,1E1,1.41E2,7.23E2,7E0,3.5E1,1.08E2,8.4E1,2.7E1,1.25E2,4E0,1E0,1E0,1E0,2E0,3E0,8E0,9E0,5E0,1E0,2.1E2,1.2E1,6.04E2,1.5E1,4.7E1,3.63E2,4.91E2,6E0,6E0,3.12E2,2.1E1,2E0,2.3E1,7.3E1,2E0,1E1,6E0,4.9E2,2E0,8E0,1.07E2,3.4E1,1.37E2,5.86E2,6E0,1E0,7E0,2.8E1,4.4E1,6.4E1,1.5E1,6.9E1,1.1E1,1.6E1,9E1,3.5E1,1E0,2E0,2E0,6E0,6E0,3E0,1.57E2,5.3E1,4E0,8E0,6E2,4E0,3E0,1.2E1,1.2E1,3.5E1,8.3E1,2.8E2],"tree_param":{"num_deleted":"0","num_feature":"35","num_nodes":"111","size_leaf_vector":"1"}},{"base_weights":[4.3063006E-5,1.0624585E-4,-9.984513E-3,-4.11986E-4,1.1969637E-3,-5.4936428E-2,1.1937768E-3,3.1442249E-3,-1.0455087E-3,4.927905E-4,9.960586E-3,-4.172623E-2,1.4258019E-2,1.819076E-2,-5.2547026E-3,5.07771E-2,1.8165023E-3,-2.0709755E-2,-9.2382444E-4,5.5212737E-3,-5.595889E-4,6.106629E-4,2.9243954E-2,-8.076894E-4,6.871749E-3,1.4562998E-3,-6.9154184E-3,-2.2239838E-2,8.093843E-2,-4.456713E-2,2.8849759E-3,-4.393765E-2,-2.9234074E-3,-6.8807486E-4,-1.0068763E-2,1.998798E-2,-1.8541713E-4,6.810209E-3,-1.6549106E-3,1.3218513E-2,-1.92201E-3,9.1888286E-2,1.3662802E-2,5.735342E-3,-3.2410414E-3,7.86009E-4,-9.304448E-3,-1.1583753E-2,-1.1734338E-3,2.705091E-2,2.4479348E-3,-1.6780194E-2,-9.566335E-4,1.30267E-2,6.409655E-4,8.496502E-3,-1.9216156E-2,3.14775E-3,-2.4766356E-3,-7.452024E-5,-1.5276988E-3,1.8127959E-3,-6.110576E-3,-6.533677E-4,1.0078287E-2,1.9738958E-3,-1.1430422E-3,8.642141E-3,2.587243E-4,-2.5010768E-3,-2.1211478E-4,9.627367E-3,1.6376659E-3,-3.7519254E-3,1.2621933E-4,3.3496145E-2,-1.0408983E-3,7.3871356E-3,1.5819602E-3,-4.4678466E-4,6.122601E-4,-1.1168186E-3,-3.3494385E-3],"categories":[0,0,0,0,0,0,0,0,0,0,0,0],"categories_nodes":[2,3,9,13,14,22,26,31,32,37,39,40],"categories_segments":[0,1,2,3,4,5,6,7,8,9,10,11],"categories_sizes":[1,1,1,1,1,1,1,1,1,1,1,1],"default_left":[0,0,1,1,0,0,0,0,0,1,0,0,0,1,1,0,0,0,0,0,0,0,1,0,0,0,1,0,0,0,0,1,1,0,0,0,0,1,0,1,1,0,0,0,0,0,0,0,0,0,0,0,0,0,0,0,0,0,0,0,0,0,0,0,0,0,0,0,0,0,0,0,0,0,0,0,0,0,0,0,0,0,0],"id":17,"left_children":[1,3,5,7,9,11,13,15,17,19,21,-1,-1,23,25,27,29,31,33,35,37,39,41,-1,-1,43,45,47,49,51,53,55,57,59,61,63,65,67,69,71,73,75,77,-1,-1,79,81,-1,-1,-1,-1,-1,-1,-1,-1,-1,-1,-1,-1,-1,-1,-1,-1,-1,-1,-1,-1,-1,-1,-1,-1,-1,-1,-1,-1,-1,-1,-1,-1,-1,-1,-1,-1],"loss_changes":[2.5296418E-3,2.242819E-3,1.2627719E-2,6.0636965E-3,7.881768E-3,4.9722254E-2,2.3972855E-3,2.5647763E-2,5.4460894E-3,6.2686657E-3,1.7110452E-2,0E0,0E0,6.524599E-4,1.88392E-4,2.6025224E-2,1.9803766E-2,5.655504E-3,4.8891557E-3,1.6927896E-2,7.922123E-3,2.1009576E-3,2.9002745E-2,0E0,0E0,1.0726427E-3,2.464996E-4,1.0493079E-3,4.6389513E-3,4.054712E-3,1.1709152E-2,1.053561E-2,7.3042826E-4,4.2879423E-3,9.581929E-3,1.7565716E-2,3.6542523E-3,1.6590975E-2,5.4030167E-3,1.4357147E-3,1.3690707E-3,1.1696201E-2,2.2610691E-3,0E0,0E0,1.44600945E-5,6.227585E-5,0E0,0E0,0E0,0E0,0E0,0E0,0E0,0E0,0E0,0E0,0E0,0E0,0E0,0E0,0E0,0E0,0E0,0E0,0E0,0E0,0E0,0E0,0E0,0E0,0E0,0E0,0E0,0E0,0E0,0E0,0E0,0E0,0E0,0E0,0E0,0E0],"parents":[2147483647,0,0,1,1,2,2,3,3,4,4,5,5,6,6,7,7,8,8,9,9,10,10,13,13,14,14,15,15,16,16,17,17,18,18,19,19,20,20,21,21,22,22,25,25,26,26,27,27,28,28,29,29,30,30,31,31,32,32,33,33,34,34,35,35,36,36,37,37,38,38,39,39,40,40,41,41,42,42,45,45,46,46],"right_children":[2,4,6,8,10,12,14,16,18,20,22,-1,-1,24,26,28,30,32,34,36,38,40,42,-1,-1,44,46,48,50,52,54,56,58,60,62,64,66,68,70,72,74,76,78,-1,-1,80,82,-1,-1,-1,-1,-1,-1,-1,-1,-1,-1,-1,-1,-1,-1,-1,-1,-1,-1,-1,-1,-1,-1,-1,-1,-1,-1,-1,-1,-1,-1,-1,-1,-1,-1,-1,-1],"split_conditions":[1.6315E3,3.105933E-1,NaN,NaN,9.94605E-1,7.628806E-3,3.28E3,1.841872E-1,4.779319E-3,NaN,1.2136254E0,-4.172623E-2,1.4258019E-2,NaN,NaN,6.75853E-3,-7.55E-1,1.65E2,2.4560569E-1,3.6940396E-2,3.6440685E-1,1.1416032E0,NaN,-8.076894E-4,6.871749E-3,9.9254675E0,NaN,1.6E1,2.03E2,2.9779717E-1,3E0,NaN,NaN,9.2789955E-2,-4.8522496E-1,1.9431002E-1,3.068182E-1,NaN,9.9254675E0,NaN,NaN,7.259215E1,6.4625704E-1,5.735342E-3,-3.2410414E-3,9.9254675E0,1.4989607E-1,-1.1583753E-2,-1.1734338E-3,2.705091E-2,2.4479348E-3,-1.6780194E-2,-9.566335E-4,1.30267E-2,6.409655E-4,8.496502E-3,-1.9216156E-2,3.14775E-3,-2.4766356E-3,-7.452024E-5,-1.5276988E-3,1.8127959E-3,-6.110576E-3,-6.533677E-4,1.0078287E-2,1.9738958E-3,-1.1430422E-3,8.642141E-3,2.587243E-4,-2.5010768E-3,-2.1211478E-4,9.627367E-3,1.6376659E-3,-3.7519254E-3,1.2621933E-4,3.3496145E-2,-1.0408983E-3,7.3871356E-3,1.5819602E-3,-4.4678466E-4,6.122601E-4,-1.1168186E-3,-3.3494385E-3],"split_indices":[2,5,33,29,21,7,1,10,18,32,23,0,0,31,32,20,19,1,11,14,5,23,33,0,0,9,30,1,1,18,22,34,33,14,20,28,12,31,9,33,33,8,5,0,0,9,3,0,0,0,0,0,0,0,0,0,0,0,0,0,0,0,0,0,0,0,0,0,0,0,0,0,0,0,0,0,0,0,0,0,0,0,0],"split_type":[0,0,1,1,0,0,0,0,0,1,0,0,0,1,1,0,0,0,0,0,0,0,1,0,0,0,1,0,0,0,0,1,1,0,0,0,0,1,0,1,1,0,0,0,0,0,0,0,0,0,0,0,0,0,0,0,0,0,0,0,0,0,0,0,0,0,0,0,0,0,0,0,0,0,0,0,0,0,0,0,0,0,0],"sum_hessian":[3.99E3,3.966E3,2.4E1,2.689E3,1.277E3,4E0,2E1,4.06E2,2.283E3,1.183E3,9.4E1,2E0,2E0,5E0,1.5E1,1E1,3.96E2,1.3E1,2.27E3,2.04E2,9.79E2,6.4E1,3E1,1E0,4E0,3E0,1.2E1,3E0,7E0,8E0,3.88E2,5E0,8E0,2.214E3,5.6E1,5.7E1,1.47E2,1.26E2,8.53E2,1E1,5.4E1,5E0,2.5E1,1E0,2E0,3E0,9E0,1E0,2E0,6E0,1E0,6E0,2E0,6E0,3.82E2,1E0,4E0,2E0,6E0,2.014E3,2E2,2.2E1,3.4E1,2.2E1,3.5E1,5.1E1,9.6E1,2.6E1,1E2,1.05E2,7.48E2,2E0,8E0,9E0,4.5E1,4E0,1E0,1E1,1.5E1,1E0,2E0,3E0,6E0],"tree_param":{"num_deleted":"0","num_feature":"35","num_nodes":"83","size_leaf_vector":"1"}},{"base_weights":[3.9921302E-5,-2.3572013E-5,9.362553E-3,3.084615E-5,-2.3946805E-2,2.7328147E-2,4.0372754E-3,6.941574E-5,-1.3811428E-2,-2.568495E-2,-5.5360305E-3,1.9686744E-2,6.5447846E-3,-1.568617E-2,7.977092E-3,1.4663603E-3,-2.2697914E-4,-7.974191E-2,9.700003E-3,-5.92507E-3,2.493742E-3,4.3301703E-3,9.640311E-4,4.771728E-4,-6.5925834E-3,-9.307583E-3,1.3206844E-2,6.710026E-4,1.6815744E-2,1.587446E-2,-3.0637335E-4,-7.234171E-3,-2.864969E-2,-8.287366E-3,2.0074915E-2,-4.2722556E-3,6.9448045E-3,-4.563058E-4,6.898163E-4,-4.4444483E-3,-6.9781113E-4,2.5030824E-3,1.6871568E-2,4.365537E-4,-5.7727657E-3,1.1363137E-2,-1.2029291E-3,1.9795751E-2,-2.2966089E-4,-1.0506933E-3,5.1367983E-6,-3.4519802E-3,-1.0136263E-3,-1.3049087E-4,7.2791656E-3,-2.2119512E-3,2.894362E-4,3.5335307E-4,2.5423532E-3,6.0923444E-4,-9.2324946E-4,-7.0884507E-3,4.482881E-3,9.240766E-3,2.3391389E-3],"categories":[0,0,0,0,0,0,0,0,0,0,0,0,0],"categories_nodes":[2,4,7,8,10,13,14,26,29,33,34,35,36],"categories_segments":[0,1,2,3,4,5,6,7,8,9,10,11,12],"categories_sizes":[1,1,1,1,1,1,1,1,1,1,1,1,1],"default_left":[0,0,1,0,1,0,0,1,1,0,1,0,0,1,1,0,0,0,0,0,0,0,0,0,0,0,1,0,0,1,0,0,0,1,1,1,1,0,0,0,0,0,0,0,0,0,0,0,0,0,0,0,0,0,0,0,0,0,0,0,0,0,0,0,0],"id":18,"left_children":[1,3,5,7,9,11,13,15,17,-1,19,-1,21,23,25,27,29,31,33,-1,35,-1,37,-1,-1,39,41,43,45,47,49,-1,-1,51,53,55,57,-1,-1,-1,59,61,63,-1,-1,-1,-1,-1,-1,-1,-1,-1,-1,-1,-1,-1,-1,-1,-1,-1,-1,-1,-1,-1,-1],