{"learner":{"attributes":{"scikit_learn":"{\"_estimator_type\": \"regressor\"}"},"feature_names":["L","DS","APC","DV","IV","GBC","DN5","DN10","COf1","COfi","COh","COt","MD","SB","SBT","PD","COE","IN","FCm","DNOp","DNOn","SPa","SBb","SBm","FCr","FCd","SPc","FCs","ID","model_DTW-KNN","model_KERNEL","model_NN","model_RF","model_SHAPELET","model_TS-RF"],"feature_types":["float","float","float","float","float","float","float","float","float","float","float","float","float","float","float","float","float","float","float","float","float","float","float","float","float","float","float","float","float","c","c","c","c","c","c"],"gradient_booster":{"model":{"gbtree_model_param":{"num_parallel_tree":"1","num_trees":"100"},"iteration_indptr":[0,1,2,3,4,5,6,7,8,9,10,11,12,13,14,15,16,17,18,19,20,21,22,23,24,25,26,27,28,29,30,31,32,33,34,35,36,37,38,39,40,41,42,43,44,45,46,47,48,49,50,51,52,53,54,55,56,57,58,59,60,61,62,63,64,65,66,67,68,69,70,71,72,73,74,75,76,77,78,79,80,81,82,83,84,85,86,87,88,89,90,91,92,93,94,95,96,97,98,99,100],"tree_info":[0,0,0,0,0,0,0,0,0,0,0,0,0,0,0,0,0,0,0,0,0,0,0,0,0,0,0,0,0,0,0,0,0,0,0,0,0,0,0,0,0,0,0,0,0,0,0,0,0,0,0,0,0,0,0,0,0,0,0,0,0,0,0,0,0,0,0,0,0,0,0,0,0,0,0,0,0,0,0,0,0,0,0,0,0,0,0,0,0,0,0,0,0,0,0,0,0,0,0,0],"trees":[{"base_weights":[-4.1148396E-10,2.9896056E-2,-5.729849E-3,1.1214231E-1,6.1422065E-3,-7.594569E-2,-3.9400933E-3,9.52713E-2,2.6963055E-1,-7.1574174E-2,1.2841054E-2,-2.8503317E-1,-2.0092877E-2,-4.5833874E-2,-1.4268284E-3,2.637399E-1,7.556989E-2,2.6987758E-3,2.9060045E-1,1.7137112E-2,-1.5398523E-1,-3.732345E-1,1.2969275E-3,-1.2677564E-2,-3.5026025E-2,-1.8107612E-1,-9.574858E-3,-5.0091024E-2,4.2401443E-4,4.892605E-2,3.5377648E-1,9.3263745E-2,1.0734866E-2,9.3277164E-2,1.00563895E-2,6.0759574E-2,8.548337E-3,-7.731984E-2,-7.2822305E-3,-3.342402E-2,-1.2321296E-1,5.0397143E-3,-4.3912507E-3,-1.6446523E-2,4.2256643E-3,-3.4804603E-3,-4.1621085E-2,-3.4103152E-1,-4.924348E-2,-1.1481971E-2,3.5884544E-2,-1.8815108E-1,-1.1429735E-2,1.3060562E-2,-9.293102E-3,-2.249338E-3,2.6712364E-2,1.19579285E-1,-7.1886764E-4,1.716884E-2,3.964714E-2,-7.2186384E-3,1.1357041E-2,6.0826637E-2,1.4371247E-2,2.3950795E-2,1.8769678E-3,-2.4587796E-3,-4.0705863E-4,-3.468005E-3,-6.454607E-3,-2.784368E-3,2.8231996E-3,-4.937955E-3,-1.5468498E-2,-1.0838178E-1,-2.5762077E-3,-4.1913304E-2,7.2404654E-3,-4.547711E-3,-3.0106695E-3,2.0086758E-2,4.8837336E-3,-1.6011892E-1,-2.0735485E-2,1.2558219E-2,-4.3506892E-3,1.8981544E-2,-6.151515E-6,-2.6286025E-2,-2.2578123E-3],"categories":[0,0,0,0,0,0,0,0,0],"categories_nodes":[0,5,13,24,27,44,46,50,53],"categories_segments":[0,1,2,3,4,5,6,7,8],"categories_sizes":[1,1,1,1,1,1,1,1,1],"default_left":[1,0,0,0,0,1,0,0,0,0,0,0,0,1,0,0,0,0,0,0,0,0,0,0,1,0,0,1,0,0,0,0,0,0,0,0,0,0,0,0,0,0,0,0,1,0,1,0,0,0,1,0,0,1,0,0,0,0,0,0,0,0,0,0,0,0,0,0,0,0,0,0,0,0,0,0,0,0,0,0,0,0,0,0,0,0,0,0,0,0,0],"id":0,"left_children":[1,3,5,7,9,11,13,15,17,-1,19,21,23,25,27,29,31,-1,33,35,37,39,41,43,45,47,49,51,53,55,57,59,61,-1,-1,63,65,-1,67,-1,-1,-1,-1,69,71,-1,73,75,77,79,81,83,85,87,89,-1,-1,-1,-1,-1,-1,-1,-1,-1,-1,-1,-1,-1,-1,-1,-1,-1,-1,-1,-1,-1,-1,-1,-1,-1,-1,-1,-1,-1,-1,-1,-1,-1,-1,-1,-1],"loss_changes":[6.6567135E-1,1.2203519E0,4.0950808E-1,3.4628987E-1,7.997929E-1,9.4020087E-1,3.348626E-1,4.049101E-1,6.84371E-2,0E0,3.423524E-1,4.2981398E-1,6.7536607E-3,8.809414E-1,2.7041075E-1,2.3412555E-1,1.3207185E-1,0E0,5.2274108E-2,1.7294982E-1,1.8076405E-1,8.1795335E-2,1.4809833E-3,2.9363385E-3,2.761336E-3,7.845255E-1,1.2809584E-2,5.849832E-1,3.5535514E-1,1.1984871E-2,1.4463162E-1,1.19972825E-1,2.5448726E-2,0E0,0E0,1.2901881E-1,6.289016E-2,0E0,2.1363376E-5,0E0,0E0,0E0,0E0,6.677313E-4,7.1764167E-4,0E0,3.153175E-3,1.1129117E-1,1.494158E-1,5.81827E-4,2.565018E-3,9.503541E-1,1.4852301E-2,8.262769E-1,2.2577691E-1,0E0,0E0,0E0,0E0,0E0,0E0,0E0,0E0,0E0,0E0,0E0,0E0,0E0,0E0,0E0,0E0,0E0,0E0,0E0,0E0,0E0,0E0,0E0,0E0,0E0,0E0,0E0,0E0,0E0,0E0,0E0,0E0,0E0,0E0,0E0,0E0],"parents":[2147483647,0,0,1,1,2,2,3,3,4,4,5,5,6,6,7,7,8,8,10,10,11,11,12,12,13,13,14,14,15,15,16,16,18,18,19,19,20,20,21,21,22,22,23,23,24,24,25,25,26,26,27,27,28,28,29,29,30,30,31,31,32,32,35,35,36,36,38,38,43,43,44,44,46,46,47,47,48,48,49,49,50,50,51,51,52,52,53,53,54,54],"right_children":[2,4,6,8,10,12,14,16,18,-1,20,22,24,26,28,30,32,-1,34,36,38,40,42,44,46,48,50,52,54,56,58,60,62,-1,-1,64,66,-1,68,-1,-1,-1,-1,70,72,-1,74,76,78,80,82,84,86,88,90,-1,-1,-1,-1,-1,-1,-1,-1,-1,-1,-1,-1,-1,-1,-1,-1,-1,-1,-1,-1,-1,-1,-1,-1,-1,-1,-1,-1,-1,-1,-1,-1,-1,-1,-1,-1],"split_conditions":[NaN,3.405949E-2,1.1313211E-3,1.3029088E-1,-7.6169E-1,NaN,-1.6465388E-1,2.1289816E-1,3.7812937E-2,-7.1574174E-2,7.506858E0,-2.201911E-2,-1.1818397E-4,NaN,-6.367852E-1,7.9110354E-2,1.0573723E2,2.6987758E-3,6.6388985E-3,6.603588E-2,1.36E2,4.0373832E-2,5.6E1,9.769091E1,NaN,-3.3489054E-1,3.4020382E1,NaN,1.88E2,5.172932E-1,1.1529785E-2,8.5928077E-1,1.4739812E-3,9.3277164E-2,1.00563895E-2,4.057244E-7,3.0673077E0,-7.731984E-2,3.9E2,-3.342402E-2,-1.2321296E-1,5.0397143E-3,-4.3912507E-3,3.9798953E-4,NaN,-3.4804603E-3,NaN,3.4020382E1,4.9597424E-1,1.335399E-1,NaN,1.9E1,1.2821561E-1,NaN,7.5925297E-1,-2.249338E-3,2.6712364E-2,1.19579285E-1,-7.1886764E-4,1.716884E-2,3.964714E-2,-7.2186384E-3,1.1357041E-2,6.0826637E-2,1.4371247E-2,2.3950795E-2,1.8769678E-3,-2.4587796E-3,-4.0705863E-4,-3.468005E-3,-6.454607E-3,-2.784368E-3,2.8231996E-3,-4.937955E-3,-1.5468498E-2,-1.0838178E-1,-2.5762077E-3,-4.1913304E-2,7.2404654E-3,-4.547711E-3,-3.0106695E-3,2.0086758E-2,4.8837336E-3,-1.6011892E-1,-2.0735485E-2,1.2558219E-2,-4.3506892E-3,1.8981544E-2,-6.151515E-6,-2.6286025E-2,-2.2578123E-3],"split_indices":[31,3,3,14,19,30,11,24,28,0,28,6,11,33,20,28,13,0,3,3,0,28,1,9,29,19,15,33,1,12,4,10,4,0,0,5,22,0,1,0,0,0,0,3,29,0,34,15,12,16,32,1,12,33,8,0,0,0,0,0,0,0,0,0,0,0,0,0,0,0,0,0,0,0,0,0,0,0,0,0,0,0,0,0,0,0,0,0,0,0,0],"split_type":[1,0,0,0,0,1,0,0,0,0,0,0,0,1,0,0,0,0,0,0,0,0,0,0,1,0,0,1,0,0,0,0,0,0,0,0,0,0,0,0,0,0,0,0,1,0,1,0,0,0,1,0,0,1,0,0,0,0,0,0,0,0,0,0,0,0,0,0,0,0,0,0,0,0,0,0,0,0,0,0,0,0,0,0,0,0,0,0,0,0,0],"sum_hessian":[3.884E3,6.24E2,3.26E3,1.39E2,4.85E2,8E1,3.18E3,1.27E2,1.2E1,1.2E1,4.73E2,1.6E1,6.4E1,1.79E2,3.001E3,1.2E1,1.15E2,1E0,1.1E1,4.62E2,1.1E1,1.2E1,4E0,4.4E1,2E1,3.7E1,1.42E2,1.09E2,2.892E3,4E0,8E0,9E1,2.5E1,1E1,1E0,7.5E1,3.87E2,6E0,5E0,2E0,1E1,2E0,2E0,3.6E1,8E0,5E0,1.5E1,1.6E1,2.1E1,1.37E2,5E0,2.3E1,8.6E1,1.257E3,1.635E3,2E0,2E0,7E0,1E0,4.8E1,4.2E1,1.1E1,1.4E1,5E0,7E1,1.1E1,3.76E2,4E0,1E0,2E1,1.6E1,2E0,6E0,5E0,1E1,1.5E1,1E0,9E0,1.2E1,3.6E1,1.01E2,1E0,4E0,5E0,1.8E1,4E0,8.2E1,2.59E2,9.98E2,3.5E1,1.6E3],"tree_param":{"num_deleted":"0","num_feature":"35","num_nodes":"91","size_leaf_vector":"1"}},{"base_weights":[-6.193491E-5,2.134256E-2,-4.1642804E-3,8.071612E-2,4.1951537E-3,-3.7629325E-2,-1.4692917E-3,6.828583E-2,1.9689772E-1,-1.4743185E-1,1.0005582E-2,-1.058573E-1,-2.0728447E-2,-3.2796036E-2,5.1672355E-4,1.9564281E-1,5.3424392E-2,1.3713074E-1,8.912721E-2,9.33297E-4,-4.981075E-2,1.26060285E-2,-1.4142092E-1,-2.8098983E-1,-4.619655E-2,-6.555729E-2,-5.339531E-3,-1.3058569E-1,-6.580637E-3,-1.1469698E-2,6.247735E-3,1.1332177E-2,2.4980278E-1,-1.5732843E-2,6.230572E-2,2.2939597E-3,1.5066825E-1,8.4627914E-4,-4.262955E-4,4.9891476E-2,5.9327786E-3,-5.7884883E-2,8.776754E-3,-2.6739214E-2,-9.313458E-2,-5.226857E-2,-3.3902477E-2,-1.8442342E-1,1.2653581E-3,-1.2204068E-2,9.997909E-3,-2.5532836E-2,-2.3429468E-1,-8.09215E-3,2.9280929E-2,-4.4632487E-2,-9.790894E-3,1.1990665E-2,-1.3706781E-2,9.498511E-3,-1.7994705E-3,8.340338E-2,-6.1103754E-4,-7.9576075E-3,-3.452973E-4,1.7175559E-2,6.350509E-2,4.8713554E-2,8.547932E-3,8.698817E-3,6.246195E-2,-3.460328E-3,3.4619668E-3,5.1433616E-3,-1.1938221E-3,-3.6188208E-3,-1.5497688E-2,-2.9037736E-2,-6.6051856E-2,-3.7522228E-3,4.294865E-2,-6.321915E-3,-2.7614948E-3,1.0823711E-2,-2.41712E-3,2.023854E-4,-5.227999E-2,-2.744499E-2,-8.362928E-2,-3.4192125E-3,-2.0706018E-3,1.7073745E-2,3.7116373E-3,-4.8723605E-2,-2.9117947E-3,-3.5691161E-3,8.5205806E-4,-5.089913E-3,5.39066E-3,-6.2143495E-3,5.606557E-3],"categories":[0,0,0,0,0,0,0,0],"categories_nodes":[0,5,12,13,53,54,55,57],"categories_segments":[0,1,2,3,4,5,6,7],"categories_sizes":[1,1,1,1,1,1,1,1],"default_left":[1,0,0,0,0,1,0,0,0,0,0,0,1,1,0,0,0,0,0,0,0,0,0,0,0,0,0,0,0,0,0,0,0,0,0,0,0,0,0,0,0,0,0,0,0,0,0,0,0,0,0,0,0,1,1,1,0,1,0,0,0,0,0,0,0,0,0,0,0,0,0,0,0,0,0,0,0,0,0,0,0,0,0,0,0,0,0,0,0,0,0,0,0,0,0,0,0,0,0,0,0],"id":1,"left_children":[1,3,5,7,9,11,13,15,17,19,21,23,25,27,29,31,33,35,-1,37,-1,39,41,43,45,47,49,51,53,55,57,59,61,63,65,-1,67,-1,-1,69,71,-1,73,-1,-1,-1,75,77,79,81,83,85,87,89,91,93,95,97,99,-1,-1,-1,-1,-1,-1,-1,-1,-1,-1,-1,-1,-1,-1,-1,-1,-1,-1,-1,-1,-1,-1,-1,-1,-1,-1,-1,-1,-1,-1,-1,-1,-1,-1,-1,-1,-1,-1,-1,-1,-1,-1],"loss_changes":[3.4122545E-1,6.359755E-1,2.9404747E-1,1.8873852E-1,4.296498E-1,2.7801213E-1,1.8784525E-1,2.318145E-1,3.7106812E-2,4.9838215E-2,1.8646398E-1,4.885491E-1,1.3486394E-1,4.6058774E-1,1.9516353E-1,1.2693855E-1,7.22284E-2,1.6376868E-2,0E0,1.7340564E-5,0E0,1.1465659E-1,6.360938E-2,4.015267E-2,5.233249E-2,3.9738077E-1,1.5598824E-2,4.0802497E-1,7.988293E-3,5.072725E-2,2.2042052E-1,1.5991908E-3,7.16064E-2,2.1727176E-3,6.563893E-2,0E0,8.249655E-3,0E0,0E0,2.2552696E-1,3.8623743E-2,0E0,3.8844754E-4,0E0,0E0,0E0,1.2949746E-2,3.5078585E-2,6.628287E-2,2.5191018E-3,2.1951817E-2,7.807624E-2,9.5162034E-2,4.6418514E-4,2.0991708E-3,1.7942321E-1,2.3338094E-2,2.587596E-1,9.800448E-2,0E0,0E0,0E0,0E0,0E0,0E0,0E0,0E0,0E0,0E0,0E0,0E0,0E0,0E0,0E0,0E0,0E0,0E0,0E0,0E0,0E0,0E0,0E0,0E0,0E0,0E0,0E0,0E0,0E0,0E0,0E0,0E0,0E0,0E0,0E0,0E0,0E0,0E0,0E0,0E0,0E0,0E0],"parents":[2147483647,0,0,1,1,2,2,3,3,4,4,5,5,6,6,7,7,8,8,9,9,10,10,11,11,12,12,13,13,14,14,15,15,16,16,17,17,19,19,21,21,22,22,23,23,24,24,25,25,26,26,27,27,28,28,29,29,30,30,31,31,32,32,33,33,34,34,36,36,39,39,40,40,42,42,46,46,47,47,48,48,49,49,50,50,51,51,52,52,53,53,54,54,55,55,56,56,57,57,58,58],"right_children":[2,4,6,8,10,12,14,16,18,20,22,24,26,28,30,32,34,36,-1,38,-1,40,42,44,46,48,50,52,54,56,58,60,62,64,66,-1,68,-1,-1,70,72,-1,74,-1,-1,-1,76,78,80,82,84,86,88,90,92,94,96,98,100,-1,-1,-1,-1,-1,-1,-1,-1,-1,-1,-1,-1,-1,-1,-1,-1,-1,-1,-1,-1,-1,-1,-1,-1,-1,-1,-1,-1,-1,-1,-1,-1,-1,-1,-1,-1,-1,-1,-1,-1,-1,-1],"split_conditions":[NaN,3.405949E-2,4.5252517E-3,1.3029088E-1,-7.551655E-1,NaN,-1.6465388E-1,2.1289816E-1,3.027486E-1,2.6534772E-1,4.1858143E-1,1.2581544E0,NaN,NaN,2.0593297E-1,2.841194E-2,1.8308735E-1,-5.854159E-1,8.912721E-2,2.89E2,-4.981075E-2,4.771143E-3,1.36E2,4.0373832E-2,6.133005E-1,1.2635451E1,1.2809071E-3,2.1166666E1,3.4020382E1,-6.451172E-1,2.0911198E0,4.6E1,1.1529785E-2,2.35E2,1.0814286E2,2.2939597E-3,6.6388985E-3,8.4627914E-4,-4.262955E-4,1.0523424E-2,1.1904817E-1,-5.7884883E-2,1E2,-2.6739214E-2,-9.313458E-2,-5.226857E-2,2.3586363E-1,1.1363636E0,9.5099896E-2,1.2403183E0,7.03547E-1,4.6520987E-1,-2.3769449E-1,NaN,NaN,NaN,8.3167297E-1,NaN,2.9496402E-1,9.498511E-3,-1.7994705E-3,8.340338E-2,-6.1103754E-4,-7.9576075E-3,-3.452973E-4,1.7175559E-2,6.350509E-2,4.8713554E-2,8.547932E-3,8.698817E-3,6.246195E-2,-3.460328E-3,3.4619668E-3,5.1433616E-3,-1.1938221E-3,-3.6188208E-3,-1.5497688E-2,-2.9037736E-2,-6.6051856E-2,-3.7522228E-3,4.294865E-2,-6.321915E-3,-2.7614948E-3,1.0823711E-2,-2.41712E-3,2.023854E-4,-5.227999E-2,-2.744499E-2,-8.362928E-2,-3.4192125E-3,-2.0706018E-3,1.7073745E-2,3.7116373E-3,-4.8723605E-2,-2.9117947E-3,-3.5691161E-3,8.5205806E-4,-5.089913E-3,5.39066E-3,-6.2143495E-3,5.606557E-3],"split_indices":[31,3,3,14,19,30,11,24,5,28,19,16,33,33,28,28,25,7,0,1,0,5,0,28,15,22,4,2,15,20,28,0,4,0,22,0,3,0,0,11,18,0,1,0,0,0,28,15,14,16,12,10,6,30,32,33,5,30,19,0,0,0,0,0,0,0,0,0,0,0,0,0,0,0,0,0,0,0,0,0,0,0,0,0,0,0,0,0,0,0,0,0,0,0,0,0,0,0,0,0,0],"split_type":[1,0,0,0,0,1,0,0,0,0,0,0,1,1,0,0,0,0,0,0,0,0,0,0,0,0,0,0,0,0,0,0,0,0,0,0,0,0,0,0,0,0,0,0,0,0,0,0,0,0,0,0,0,1,1,1,0,1,0,0,0,0,0,0,0,0,0,0,0,0,0,0,0,0,0,0,0,0,0,0,0,0,0,0,0,0,0,0,0,0,0,0,0,0,0,0,0,0,0,0,0],"sum_hessian":[3.884E3,6.24E2,3.26E3,1.39E2,4.85E2,2.42E2,3.018E3,1.27E2,1.2E1,1.7E1,4.68E2,4.7E1,1.95E2,1.79E2,2.839E3,1.2E1,1.15E2,9E0,3E0,2E0,1.5E1,4.61E2,7E0,1.1E1,3.6E1,4.9E1,1.46E2,3.7E1,1.42E2,9.18E2,1.921E3,3E0,9E0,1.3E1,1.02E2,1E0,8E0,1E0,1E0,6.9E1,3.92E2,5E0,2E0,2E0,9E0,2E0,3.4E1,1.7E1,3.2E1,1.01E2,4.5E1,1.9E1,1.8E1,1.37E2,5E0,4.3E1,8.75E2,1.492E3,4.29E2,1E0,2E0,8E0,1E0,7E0,6E0,1E2,2E0,7E0,1E0,6.2E1,7E0,9.5E1,2.97E2,1E0,1E0,1.6E1,1.8E1,6E0,1.1E1,3E1,2E0,2.4E1,7.7E1,1.8E1,2.7E1,1.7E1,2E0,5E0,1.3E1,3.4E1,1.03E2,1E0,4E0,9E0,3.4E1,7.5E2,1.25E2,2.55E2,1.237E3,3.53E2,7.6E1],"tree_param":{"num_deleted":"0","num_feature":"35","num_nodes":"101","size_leaf_vector":"1"}},{"base_weights":[-8.735879E-5,-2.7733576E-3,1.765302E-2,-6.991874E-2,-2.0284783E-3,4.4354066E-2,-2.047931E-3,-1.2024311E-1,7.0541725E-3,-1.4195729E-2,1.9443211E-3,1.4485395E-1,2.3564843E-2,3.8672376E-2,-9.149699E-3,-1.7091142E-2,1.35326935E-2,-2.4364127E-2,-1.143109E-3,-3.4856655E-2,3.7039584E-3,2.7782043E-2,1.5179724E-1,1.1630511E-1,7.957074E-3,1.3840328E-1,1.9283198E-2,-5.8924716E-2,-5.750754E-3,-1.4086693E-3,-5.5123437E-3,1.7931921E-3,1.5604011E-2,-5.7774965E-2,-1.6237212E-2,-3.0920058E-3,3.616598E-2,-1.8639477E-1,-2.9231242E-3,-1.6456284E-2,7.2976006E-3,1.2264365E-1,-2.1037865E-2,-1.7932894E-2,1.491205E-1,3.1282199E-3,5.001403E-2,4.7110724E-3,1.5623598E-1,-3.6706124E-3,5.8894772E-2,-1.9826007E-1,-1.1519628E-2,-7.2795423E-3,6.664094E-2,2.475092E-3,5.5090166E-3,-8.68768E-3,-4.917954E-2,-2.441738E-2,-3.6945583E-3,-6.0935775E-3,-2.8308092E-5,-3.6019166E-3,1.5236135E-2,-3.1482477E-2,-1.4579163E-1,5.3886585E-3,-2.492976E-3,-3.3718135E-2,-3.6032551E-3,-2.012752E-4,4.7725523E-3,7.0652273E-3,5.543414E-2,-5.1973157E-2,1.6495707E-3,1.3299444E-3,-6.98782E-3,5.5056375E-2,2.4858475E-2,9.545887E-3,-1.2788234E-3,3.5695771E-3,1.7368387E-2,5.926995E-2,2.5853729E-2,5.8651376E-3,-2.7073945E-3,2.9403456E-2,7.881923E-3,-7.7598564E-2,-2.5582034E-3,-1.6167002E-3,-3.8459746E-3,-3.853046E-3,1.6789646E-3,-2.5582034E-3,2.6269456E-2],"categories":[0,0,0,0,0,0,0,0,0,0,0,0,0,0,0,0,0,0],"categories_nodes":[3,5,6,8,16,17,19,20,23,27,32,35,36,38,45,46,52,54],"categories_segments":[0,1,2,3,4,5,6,7,8,9,10,11,12,13,14,15,16,17],"categories_sizes":[1,1,1,1,1,1,1,1,1,1,1,1,1,1,1,1,1,1],"default_left":[0,0,0,1,0,1,1,0,1,0,0,0,0,0,0,0,1,1,0,1,1,0,0,1,0,0,0,1,0,0,0,0,1,0,0,1,1,0,1,0,0,0,0,0,0,1,1,0,0,0,0,0,1,0,1,0,0,0,0,0,0,0,0,0,0,0,0,0,0,0,0,0,0,0,0,0,0,0,0,0,0,0,0,0,0,0,0,0,0,0,0,0,0,0,0,0,0,0,0],"id":2,"left_children":[1,3,5,7,9,11,13,-1,15,17,19,21,23,25,27,29,31,33,35,37,39,41,-1,43,45,47,49,51,53,-1,-1,-1,55,57,59,61,63,65,67,69,71,73,75,77,79,81,83,-1,85,87,89,91,93,95,97,-1,-1,-1,-1,-1,-1,-1,-1,-1,-1,-1,-1,-1,-1,-1,-1,-1,-1,-1,-1,-1,-1,-1,-1,-1,-1,-1,-1,-1,-1,-1,-1,-1,-1,-1,-1,-1,-1,-1,-1,-1,-1,-1,-1],"loss_changes":[1.8517166E-1,1.686595E-1,2.6889527E-1,9.4520587E-1,1.6142833E-1,4.4996783E-1,8.566376E-2,0E0,5.080493E-3,1.0907148E-1,1.6318564E-1,1.5502648E0,2.610664E-1,8.2413964E-2,4.2295136E-2,2.5075395E-5,2.9797014E-4,1.245074E-1,2.6360698E-2,5.55957E-1,1.7428677E-1,1.3688308E-1,0E0,1.1720601E-1,3.1525098E-2,1.286298E-2,3.4767166E-2,1.03399396E-1,2.6714282E-2,0E0,0E0,0E0,2.340381E-4,2.7056438E-1,9.4312325E-2,1.7755091E-2,1.3287792E-2,4.3703192E-1,1.0949738E-2,1.5389013E-1,1.4005628E-1,5.7221442E-2,8.1732675E-2,8.225301E-4,3.265962E-2,3.0035697E-2,4.1170977E-3,0E0,3.4682453E-4,3.2845966E-3,1.5289698E-2,4.3635085E-2,3.454415E-5,1.6764428E-2,8.610768E-3,0E0,0E0,0E0,0E0,0E0,0E0,0E0,0E0,0E0,0E0,0E0,0E0,0E0,0E0,0E0,0E0,0E0,0E0,0E0,0E0,0E0,0E0,0E0,0E0,0E0,0E0,0E0,0E0,0E0,0E0,0E0,0E0,0E0,0E0,0E0,0E0,0E0,0E0,0E0,0E0,0E0,0E0,0E0,0E0],"parents":[2147483647,0,0,1,1,2,2,3,3,4,4,5,5,6,6,8,8,9,9,10,10,11,11,12,12,13,13,14,14,15,15,16,16,17,17,18,18,19,19,20,20,21,21,23,23,24,24,25,25,26,26,27,27,28,28,32,32,33,33,34,34,35,35,36,36,37,37,38,38,39,39,40,40,41,41,42,42,43,43,44,44,45,45,46,46,48,48,49,49,50,50,51,51,52,52,53,53,54,54],"right_children":[2,4,6,8,10,12,14,-1,16,18,20,22,24,26,28,30,32,34,36,38,40,42,-1,44,46,48,50,52,54,-1,-1,-1,56,58,60,62,64,66,68,70,72,74,76,78,80,82,84,-1,86,88,90,92,94,96,98,-1,-1,-1,-1,-1,-1,-1,-1,-1,-1,-1,-1,-1,-1,-1,-1,-1,-1,-1,-1,-1,-1,-1,-1,-1,-1,-1,-1,-1,-1,-1,-1,-1,-1,-1,-1,-1,-1,-1,-1,-1,-1,-1,-1],"split_conditions":[1.5599412E-1,1.0022246E-2,2.77E2,NaN,-2.1199389E-1,NaN,NaN,-1.2024311E-1,NaN,1.7890437E0,-6.367852E-1,2.0402554E1,1.4020131E-5,2.2E1,2.8161291E1,4.3982142E-1,NaN,NaN,3.200384E-1,NaN,NaN,-1.5410306E-1,1.5179724E-1,NaN,3.1712335E-1,1.5E1,5.007253E-1,NaN,1.6478876E2,-1.4086693E-3,-5.5123437E-3,1.7931921E-3,NaN,4.7428986E-1,1.1313211E-3,NaN,NaN,2.6503624E-2,NaN,6.133005E-1,4.3633276E-1,3.402305E-1,1.8357362E-1,4.6E1,3.405949E-2,NaN,NaN,4.7110724E-3,2.88E2,3.46858E-1,1.149468E1,5.94E2,NaN,1.1476024E-1,NaN,2.475092E-3,5.5090166E-3,-8.68768E-3,-4.917954E-2,-2.441738E-2,-3.6945583E-3,-6.0935775E-3,-2.8308092E-5,-3.6019166E-3,1.5236135E-2,-3.1482477E-2,-1.4579163E-1,5.3886585E-3,-2.492976E-3,-3.3718135E-2,-3.6032551E-3,-2.012752E-4,4.7725523E-3,7.0652273E-3,5.543414E-2,-5.1973157E-2,1.6495707E-3,1.3299444E-3,-6.98782E-3,5.5056375E-2,2.4858475E-2,9.545887E-3,-1.2788234E-3,3.5695771E-3,1.7368387E-2,5.926995E-2,2.5853729E-2,5.8651376E-3,-2.7073945E-3,2.9403456E-2,7.881923E-3,-7.7598564E-2,-2.5582034E-3,-1.6167002E-3,-3.8459746E-3,-3.853046E-3,1.6789646E-3,-2.5582034E-3,2.6269456E-2],"split_indices":[7,10,0,33,19,33,31,0,31,23,20,8,5,1,9,18,29,33,6,33,30,20,0,30,19,1,24,33,8,0,0,0,34,27,3,31,29,4,31,15,28,28,16,0,3,31,30,0,0,24,22,1,30,19,29,0,0,0,0,0,0,0,0,0,0,0,0,0,0,0,0,0,0,0,0,0,0,0,0,0,0,0,0,0,0,0,0,0,0,0,0,0,0,0,0,0,0,0,0],"split_type":[0,0,0,1,0,1,1,0,1,0,0,0,0,0,0,0,1,1,0,1,1,0,0,1,0,0,0,1,0,0,0,0,1,0,0,1,1,0,1,0,0,0,0,0,0,1,1,0,0,0,0,0,1,0,1,0,0,0,0,0,0,0,0,0,0,0,0,0,0,0,0,0,0,0,0,0,0,0,0,0,0,0,0,0,0,0,0,0,0,0,0,0,0,0,0,0,0,0,0],"sum_hessian":[3.884E3,3.374E3,5.1E2,3.6E1,3.338E3,2.16E2,2.94E2,6E0,3E1,8.21E2,2.517E3,3.6E1,1.8E2,4.3E1,2.51E2,6E0,2.4E1,4.61E2,3.6E2,1.14E2,2.403E3,2.8E1,8E0,2.5E1,1.55E2,6E0,3.7E1,1.5E1,2.36E2,1E0,5E0,6E0,1.8E1,8.9E1,3.72E2,3.43E2,1.7E1,1.9E1,9.5E1,3.63E2,2.04E3,9E0,1.9E1,5E0,2E1,1.4E2,1.5E1,1E0,5E0,2.4E1,1.3E1,3E0,1.2E1,2.32E2,4E0,6E0,1.2E1,7.1E1,1.8E1,2E1,3.52E2,5E1,2.93E2,4E0,1.3E1,1.6E1,3E0,1.9E1,7.6E1,1.5E1,3.48E2,1.06E3,9.8E2,4E0,5E0,2E0,1.7E1,1E0,4E0,1.2E1,8E0,2.8E1,1.12E2,3E0,1.2E1,2E0,3E0,4E0,2E1,5E0,8E0,2E0,1E0,3E0,9E0,1.62E2,7E1,1E0,3E0],"tree_param":{"num_deleted":"0","num_feature":"35","num_nodes":"99","size_leaf_vector":"1"}},{"base_weights":[-7.9516845E-5,1.3472971E-2,-2.6769487E-3,3.7207804E-3,6.65187E-2,1.3599605E-3,-1.5200695E-2,-3.6549244E-2,6.870587E-3,9.7086735E-2,1.2026006E-2,1.1497806E-2,-3.1346867E-3,-4.747109E-2,-1.1013735E-2,9.185495E-3,-9.1313936E-2,1.18721E-1,-8.185063E-3,-4.5199716E-3,6.2166158E-2,6.693611E-3,8.571288E-2,-1.1396014E-2,2.643972E-3,-1.1504216E-1,-2.9233815E-2,3.270544E-2,-1.2272291E-2,3.4698512E-2,3.1270848E-3,-4.376329E-2,-3.7311905E-3,1.9586761E-1,6.60301E-2,1.3362511E-2,-7.2316155E-2,8.01159E-2,1.9700013E-2,7.537231E-2,3.6716014E-3,1.1299246E-1,4.766954E-3,-4.3598693E-2,-8.052082E-3,-5.4604366E-2,4.6396595E-3,-1.1365905E-2,-1.8940979E-1,-9.804852E-2,-4.9299374E-3,5.6606583E-2,-1.976905E-2,2.1180639E-3,-1.6303394E-2,9.033366E-3,7.126184E-2,-3.9080807E-4,7.747305E-3,6.7970656E-2,2.623571E-3,3.0565944E-2,3.0270794E-3,1.1267662E-3,1.4158553E-2,-3.5886414E-2,-5.6274626E-3,6.6734552E-3,2.6172342E-2,7.6914006E-3,2.8290658E-4,-1.7604904E-3,2.755655E-2,1.9359052E-4,9.190737E-3,2.9270325E-2,-2.8314674E-3,-5.264632E-2,-2.381239E-3,1.5696251E-3,-4.4686315E-3,-7.753205E-2,2.3441415E-3,7.4408716E-3,-2.8051753E-4,3.1081352E-2,-1.1606331E-2,-1.4218777E-2,-5.966148E-2,-7.713655E-2,-6.861238E-3,3.2481553E-3,-3.8664571E-3,3.903924E-2,7.417335E-3,-9.573172E-3,-2.5590982E-3,-8.492234E-3,5.953265E-3,-1.1439117E-2,-3.8828512E-3],"categories":[0,0,0,0,0,0,0,0,0,0],"categories_nodes":[0,13,22,26,39,43,45,46,51,52],"categories_segments":[0,1,2,3,4,5,6,7,8,9],"categories_sizes":[1,1,1,1,1,1,1,1,1,1],"default_left":[1,0,0,0,0,0,0,0,0,0,0,0,0,1,0,0,0,0,0,0,0,0,1,0,0,0,1,0,0,0,0,0,0,0,0,0,0,0,0,1,0,0,0,1,0,1,1,0,0,0,0,1,1,0,0,0,0,0,0,0,0,0,0,0,0,0,0,0,0,0,0,0,0,0,0,0,0,0,0,0,0,0,0,0,0,0,0,0,0,0,0,0,0,0,0,0,0,0,0,0,0],"id":3,"left_children":[1,3,5,7,9,11,13,-1,15,17,19,21,23,25,27,29,31,33,-1,35,37,39,41,43,45,47,49,51,53,55,57,-1,-1,59,61,63,65,67,69,71,73,-1,75,77,79,81,83,85,87,89,91,93,95,97,99,-1,-1,-1,-1,-1,-1,-1,-1,-1,-1,-1,-1,-1,-1,-1,-1,-1,-1,-1,-1,-1,-1,-1,-1,-1,-1,-1,-1,-1,-1,-1,-1,-1,-1,-1,-1,-1,-1,-1,-1,-1,-1,-1,-1,-1,-1],"loss_changes":[1.3679452E-1,3.2307255E-1,1.6488779E-1,2.1003711E-1,1.6040865E-1,1.1244746E-1,1.0689351E-1,0E0,1.1834676E-1,1.7006004E-1,3.014723E-2,2.696864E-1,8.1664495E-2,1.0877727E-1,3.9192624E-2,7.8103065E-2,4.9831286E-2,2.0250785E-1,0E0,3.491252E-2,5.282026E-3,1.4770475E-1,1.0814811E0,7.545817E-2,1.1530288E-1,1.4434022E-1,1.216065E-1,2.6203062E-2,3.9828725E-2,8.310506E-2,4.1256618E-2,0E0,0E0,1.18661165E-1,6.5163314E-2,7.298147E-3,1.2957539E-2,5.334057E-4,4.2133813E-4,4.071136E-2,5.5795804E-2,0E0,4.969618E-2,3.0902648E-1,5.8168314E-2,4.3460333E-1,1.0950507E-1,3.2279078E-2,5.35506E-3,2.2133602E-1,7.036497E-3,2.9600117E-2,6.829789E-4,8.2000144E-2,3.882256E-2,0E0,0E0,0E0,0E0,0E0,0E0,0E0,0E0,0E0,0E0,0E0,0E0,0E0,0E0,0E0,0E0,0E0,0E0,0E0,0E0,0E0,0E0,0E0,0E0,0E0,0E0,0E0,0E0,0E0,0E0,0E0,0E0,0E0,0E0,0E0,0E0,0E0,0E0,0E0,0E0,0E0,0E0,0E0,0E0,0E0,0E0],"parents":[2147483647,0,0,1,1,2,2,3,3,4,4,5,5,6,6,8,8,9,9,10,10,11,11,12,12,13,13,14,14,15,15,16,16,17,17,19,19,20,20,21,21,22,22,23,23,24,24,25,25,26,26,27,27,28,28,29,29,30,30,33,33,34,34,35,35,36,36,37,37,38,38,39,39,40,40,42,42,43,43,44,44,45,45,46,46,47,47,48,48,49,49,50,50,51,51,52,52,53,53,54,54],"right_children":[2,4,6,8,10,12,14,-1,16,18,20,22,24,26,28,30,32,34,-1,36,38,40,42,44,46,48,50,52,54,56,58,-1,-1,60,62,64,66,68,70,72,74,-1,76,78,80,82,84,86,88,90,92,94,96,98,100,-1,-1,-1,-1,-1,-1,-1,-1,-1,-1,-1,-1,-1,-1,-1,-1,-1,-1,-1,-1,-1,-1,-1,-1,-1,-1,-1,-1,-1,-1,-1,-1,-1,-1,-1,-1,-1,-1,-1,-1,-1,-1,-1,-1,-1,-1],"split_conditions":[NaN,5.518353E-1,1.7783839E-1,-7.6169E-1,9.191636E-3,2.77E2,-6.47884E-1,-3.6549244E-2,7.506858E0,8.3237004E-1,3.5974586E-1,6.424324E1,1.4729722E-1,NaN,3E0,4.735174E-2,1.36E2,3.55E2,-8.185063E-3,-2.553484E-4,3.87E2,2.1641052E-8,NaN,3E2,2.1904762E0,-7.135912E-1,NaN,2.5393197E-2,-5.4094934E-1,1.5635371E-1,7.530303E-1,-4.376329E-2,-3.7311905E-3,1.0815809E0,6.364786E-1,3.1712335E-1,8.2E1,2.1E1,3.97E2,NaN,5.6772405E-1,1.1299246E-1,2.9E1,NaN,7.6853933E0,NaN,NaN,-8.1836224E-1,7.6672416E0,2.5E2,2.84E2,NaN,NaN,2.1118616E1,9.9206346E-1,9.033366E-3,7.126184E-2,-3.9080807E-4,7.747305E-3,6.7970656E-2,2.623571E-3,3.0565944E-2,3.0270794E-3,1.1267662E-3,1.4158553E-2,-3.5886414E-2,-5.6274626E-3,6.6734552E-3,2.6172342E-2,7.6914006E-3,2.8290658E-4,-1.7604904E-3,2.755655E-2,1.9359052E-4,9.190737E-3,2.9270325E-2,-2.8314674E-3,-5.264632E-2,-2.381239E-3,1.5696251E-3,-4.4686315E-3,-7.753205E-2,2.3441415E-3,7.4408716E-3,-2.8051753E-4,3.1081352E-2,-1.1606331E-2,-1.4218777E-2,-5.966148E-2,-7.713655E-2,-6.861238E-3,3.2481553E-3,-3.8664571E-3,3.903924E-2,7.417335E-3,-9.573172E-3,-2.5590982E-3,-8.492234E-3,5.953265E-3,-1.1439117E-2,-3.8828512E-3],"split_indices":[31,20,20,19,3,0,7,0,28,20,18,9,5,33,22,3,0,1,0,11,1,5,33,0,9,7,30,6,6,11,25,0,0,10,5,19,0,1,1,30,5,0,1,33,22,33,33,7,8,1,1,33,34,13,15,0,0,0,0,0,0,0,0,0,0,0,0,0,0,0,0,0,0,0,0,0,0,0,0,0,0,0,0,0,0,0,0,0,0,0,0,0,0,0,0,0,0,0,0,0,0],"split_type":[1,0,0,0,0,0,0,0,0,0,0,0,0,1,0,0,0,0,0,0,0,0,1,0,0,0,1,0,0,0,0,0,0,0,0,0,0,0,0,1,0,0,0,1,0,1,1,0,0,0,0,1,1,0,0,0,0,0,0,0,0,0,0,0,0,0,0,0,0,0,0,0,0,0,0,0,0,0,0,0,0,0,0,0,0,0,0,0,0,0,0,0,0,0,0,0,0,0,0,0,0],"sum_hessian":[3.884E3,6.24E2,3.26E3,5.28E2,9.6E1,2.466E3,7.94E2,1.2E1,5.16E2,6.1E1,3.5E1,7.57E2,1.709E3,9E1,7.04E2,5.05E2,1.1E1,5.2E1,9E0,2.7E1,8E0,7.12E2,4.5E1,7.03E2,1.006E3,1.8E1,7.2E1,1.9E1,6.85E2,9.6E1,4.09E2,6E0,5E0,2E1,3.2E1,2.2E1,5E0,5E0,3E0,2.9E1,6.83E2,9E0,3.6E1,6.5E1,6.38E2,3.3E1,9.73E2,8E0,1E1,1.8E1,5.4E1,1.3E1,6E0,1.5E2,5.35E2,9.5E1,1E0,3.43E2,6.6E1,1.7E1,3E0,1.9E1,1.3E1,1.8E1,4E0,2E0,3E0,1E0,4E0,2E0,1E0,5E0,2.4E1,6.15E2,6.8E1,4E0,3.2E1,1.3E1,5.2E1,2.17E2,4.21E2,7E0,2.6E1,2.1E2,7.63E2,1E0,7E0,1E0,9E0,5E0,1.3E1,1.8E1,3.6E1,3E0,1E1,2E0,4E0,5.5E1,9.5E1,7E1,4.65E2],"tree_param":{"num_deleted":"0","num_feature":"35","num_nodes":"101","size_leaf_vector":"1"}},{"base_weights":[-4.528832E-5,1.7202599E-3,-1.2784761E-2,-3.1116665E-3,8.586544E-3,1.6879285E-2,-1.5267107E-2,8.17959E-3,-5.112164E-3,3.1045293E-2,1.7767041E-3,1.358706E-1,-1.0534217E-2,-3.8490638E-2,-8.8767605E-3,3.1493302E-2,1.7780317E-3,-2.6319853E-3,-1.660918E-2,-2.4173029E-2,4.0597625E-2,-1.1259928E-2,8.6413855E-3,-9.822433E-3,5.082886E-2,1.0375011E-3,-1.335293E-2,-9.601387E-3,-8.9189276E-2,2.7240647E-3,-1.7967168E-2,6.669869E-2,7.82247E-3,-4.328367E-3,2.668549E-2,-1.1768117E-2,4.886942E-4,-4.3155078E-2,-9.711027E-3,-2.6901236E-3,-1.3393666E-1,6.675661E-2,6.664952E-3,-3.9365165E-2,-4.997987E-3,3.713276E-3,3.4106705E-2,4.086736E-3,-6.72097E-3,-1.700985E-2,-8.6688595E-3,1.7299652E-2,-3.452107E-2,-7.13065E-2,-6.715104E-2,1.7406553E-2,-4.013873E-3,-1.0344073E-2,-4.7803387E-2,2.8153664E-2,-1.833724E-3,-4.4429167E-3,1.089204E-2,1.853058E-2,-1.9277936E-3,1.0652869E-3,2.1386012E-2,-8.518872E-3,-2.173514E-3,1.4223689E-3,-2.2987118E-3,-4.3868333E-2,-3.0137391E-3,-1.3841854E-2,-2.4786722E-3,-2.4975494E-3,9.752294E-3,-4.314741E-2,-9.708054E-3,2.503986E-3,2.44574E-2,-8.374825E-3,1.0513631E-2,-5.380991E-2,-5.31267E-3,-1.4959924E-2,-3.0500535E-4,-9.946343E-4,4.7223223E-3,2.906955E-2,6.2009417E-3,-2.2735167E-3,-4.936943E-4,-7.544027E-5,-6.603666E-3,1.6824754E-3,-4.0538455E-3,2.3791404E-2,-4.5179023E-4,-2.331291E-2,-3.407285E-3,-5.4699816E-5,-3.2831244E-2,1.6821211E-2,-5.6015135E-4,-1.842391E-4,-2.1565773E-2,-7.5664883E-4,-6.427934E-3,-2.9535955E-2,-6.4937863E-3],"categories":[0,0,0,0,0,0,0,0,0,0,0,0,0,0],"categories_nodes":[3,5,6,9,12,18,21,35,41,46,49,50,55,58],"categories_segments":[0,1,2,3,4,5,6,7,8,9,10,11,12,13],"categories_sizes":[1,1,1,1,1,1,1,1,1,1,1,1,1,1],"default_left":[0,0,0,1,0,1,1,0,0,1,0,0,1,0,0,0,0,0,1,0,0,1,0,0,0,0,0,0,0,0,0,0,0,0,0,1,0,0,0,0,0,1,0,0,0,0,1,0,0,1,1,0,0,0,0,1,0,0,1,0,0,0,0,0,0,0,0,0,0,0,0,0,0,0,0,0,0,0,0,0,0,0,0,0,0,0,0,0,0,0,0,0,0,0,0,0,0,0,0,0,0,0,0,0,0,0,0,0,0,0,0],"id":4,"left_children":[1,3,5,7,9,11,13,15,17,19,21,23,25,27,29,31,33,35,37,39,41,43,45,-1,-1,47,49,51,53,55,57,59,61,63,65,67,69,71,73,75,77,79,81,83,85,87,89,-1,91,93,95,97,99,-1,101,103,105,107,109,-1,-1,-1,-1,-1,-1,-1,-1,-1,-1,-1,-1,-1,-1,-1,-1,-1,-1,-1,-1,-1,-1,-1,-1,-1,-1,-1,-1,-1,-1,-1,-1,-1,-1,-1,-1,-1,-1,-1,-1,-1,-1,-1,-1,-1,-1,-1,-1,-1,-1,-1,-1],"loss_changes":[8.740402E-2,1.132611E-1,3.508772E-2,4.530844E-2,2.1559092E-1,1.2212415E-1,6.451193E-2,4.5015723E-2,4.8516735E-2,1.7398944E-1,9.70175E-2,4.5156434E-2,1.0249915E-3,1.3682036E-1,3.6325883E-2,5.364541E-2,3.631408E-2,3.9978083E-2,5.4882467E-2,1.15183726E-1,2.4809557E-1,6.562477E-2,8.8975444E-2,0E0,0E0,7.75036E-4,2.807756E-4,4.148949E-2,9.530929E-2,1.5107182E-2,4.3402273E-2,5.1965013E-2,2.6324205E-2,2.701691E-2,4.8242796E-2,2.6644293E-2,3.6293514E-2,2.1011613E-1,1.233807E-2,8.600948E-3,3.3809394E-3,1.3561046E-1,1.2169379E-1,2.0299307E-1,5.4790173E-2,5.0438073E-2,9.502573E-2,0E0,9.287047E-6,1.0842755E-3,9.748336E-4,3.510072E-2,3.1130131E-2,0E0,8.7767944E-2,3.587439E-2,2.4184337E-2,1.3382183E-2,4.9538746E-2,0E0,0E0,0E0,0E0,0E0,0E0,0E0,0E0,0E0,0E0,0E0,0E0,0E0,0E0,0E0,0E0,0E0,0E0,0E0,0E0,0E0,0E0,0E0,0E0,0E0,0E0,0E0,0E0,0E0,0E0,0E0,0E0,0E0,0E0,0E0,0E0,0E0,0E0,0E0,0E0,0E0,0E0,0E0,0E0,0E0,0E0,0E0,0E0,0E0,0E0,0E0,0E0],"parents":[2147483647,0,0,1,1,2,2,3,3,4,4,5,5,6,6,7,7,8,8,9,9,10,10,11,11,12,12,13,13,14,14,15,15,16,16,17,17,18,18,19,19,20,20,21,21,22,22,25,25,26,26,27,27,28,28,29,29,30,30,31,31,32,32,33,33,34,34,35,35,36,36,37,37,38,38,39,39,40,40,41,41,42,42,43,43,44,44,45,45,46,46,48,48,49,49,50,50,51,51,52,52,54,54,55,55,56,56,57,57,58,58],"right_children":[2,4,6,8,10,12,14,16,18,20,22,24,26,28,30,32,34,36,38,40,42,44,46,-1,-1,48,50,52,54,56,58,60,62,64,66,68,70,72,74,76,78,80,82,84,86,88,90,-1,92,94,96,98,100,-1,102,104,106,108,110,-1,-1,-1,-1,-1,-1,-1,-1,-1,-1,-1,-1,-1,-1,-1,-1,-1,-1,-1,-1,-1,-1,-1,-1,-1,-1,-1,-1,-1,-1,-1,-1,-1,-1,-1,-1,-1,-1,-1,-1,-1,-1,-1,-1,-1,-1,-1,-1,-1,-1,-1,-1],"split_conditions":[2.2645345E0,4.3895984E-1,3.2244872E-2,NaN,6.221395E-1,NaN,NaN,2.2719426E-2,2.8598633E-1,NaN,-2.1199389E-1,3E2,NaN,6.789131E-1,9.65252E0,2.0280755E-1,7.611385E-1,1.884131E-1,NaN,5.4994404E-1,1.498329E-1,NaN,8.0985785E-1,-9.822433E-3,5.082886E-2,6.7E1,5.661228E-1,4.7945648E-1,3.9732225E-2,6.05E1,9.27027E-2,1.0815809E0,1.4188937E0,2.4E1,1.2863773E0,NaN,1.7317235E0,1.9696047E1,1.9E1,1.1117703E0,2.35E2,NaN,6.072221E-1,-1.7414795E-1,3.8844287E-2,2.1203136E-2,NaN,4.086736E-3,5.910294E1,NaN,NaN,4.465847E-2,3.6952808E-1,-7.13065E-2,6.994259E-1,NaN,2.1320988E1,2.9615024E-1,NaN,2.8153664E-2,-1.833724E-3,-4.4429167E-3,1.089204E-2,1.853058E-2,-1.9277936E-3,1.0652869E-3,2.1386012E-2,-8.518872E-3,-2.173514E-3,1.4223689E-3,-2.2987118E-3,-4.3868333E-2,-3.0137391E-3,-1.3841854E-2,-2.4786722E-3,-2.4975494E-3,9.752294E-3,-4.314741E-2,-9.708054E-3,2.503986E-3,2.44574E-2,-8.374825E-3,1.0513631E-2,-5.380991E-2,-5.31267E-3,-1.4959924E-2,-3.0500535E-4,-9.946343E-4,4.7223223E-3,2.906955E-2,6.2009417E-3,-2.2735167E-3,-4.936943E-4,-7.544027E-5,-6.603666E-3,1.6824754E-3,-4.0538455E-3,2.3791404E-2,-4.5179023E-4,-2.331291E-2,-3.407285E-3,-5.4699816E-5,-3.2831244E-2,1.6821211E-2,-5.6015135E-4,-1.842391E-4,-2.1565773E-2,-7.5664883E-4,-6.427934E-3,-2.9535955E-2,-6.4937863E-3],"split_indices":[28,28,18,31,28,33,33,3,20,30,19,0,31,25,15,5,25,12,33,20,3,33,25,0,0,1,12,18,14,2,20,10,23,0,16,33,23,9,1,10,0,29,28,11,3,4,33,0,13,30,32,14,12,0,12,31,9,5,31,0,0,0,0,0,0,0,0,0,0,0,0,0,0,0,0,0,0,0,0,0,0,0,0,0,0,0,0,0,0,0,0,0,0,0,0,0,0,0,0,0,0,0,0,0,0,0,0,0,0,0,0],"split_type":[0,0,0,1,0,1,1,0,0,1,0,0,1,0,0,0,0,0,1,0,0,1,0,0,0,0,0,0,0,0,0,0,0,0,0,1,0,0,0,0,0,1,0,0,0,0,1,0,0,1,1,0,0,0,0,1,0,0,1,0,0,0,0,0,0,0,0,0,0,0,0,0,0,0,0,0,0,0,0,0,0,0,0,0,0,0,0,0,0,0,0,0,0,0,0,0,0,0,0,0,0,0,0,0,0,0,0,0,0,0,0],"sum_hessian":[3.884E3,3.412E3,4.72E2,2.003E3,1.409E3,3.6E1,4.36E2,3.01E2,1.702E3,3.27E2,1.082E3,6E0,3E1,9.3E1,3.43E2,6.4E1,2.37E2,1.401E3,3.01E2,4.8E1,2.79E2,3.73E2,7.09E2,1E0,5E0,6E0,2.4E1,6E1,3.3E1,1.51E2,1.92E2,2.5E1,3.9E1,1.91E2,4.6E1,3.56E2,1.045E3,6.1E1,2.4E2,4.1E1,7E0,1.57E2,1.22E2,6.7E1,3.06E2,5.95E2,1.14E2,2E0,4E0,1.2E1,1.2E1,2.9E1,3.1E1,3E0,3E1,4.7E1,1.04E2,1.54E2,3.8E1,1.8E1,7E0,2.2E1,1.7E1,5E0,1.86E2,3.1E1,1.5E1,7.5E1,2.81E2,6.87E2,3.58E2,1.4E1,4.7E1,8E0,2.32E2,3.6E1,5E0,6E0,1E0,3.2E1,1.25E2,5.5E1,6.7E1,8E0,5.9E1,2.4E1,2.82E2,3.76E2,2.19E2,1.9E1,9.5E1,3E0,1E0,3E0,9E0,3E0,9E0,6E0,2.3E1,1E1,2.1E1,1.2E1,1.8E1,1.5E1,3.2E1,1E2,4E0,9.1E1,6.3E1,1.2E1,2.6E1],"tree_param":{"num_deleted":"0","num_feature":"35","num_nodes":"111","size_leaf_vector":"1"}},{"base_weights":[-7.7477605E-5,-9.085417E-3,1.4964844E-3,-1.0023638E-1,-6.312015E-3,7.6654786E-3,-1.6648223E-3,-1.3565697E-1,1.1904421E-2,-7.6443427E-3,6.112042E-2,-2.2392303E-3,1.7451227E-2,-2.3909898E-3,5.8810752E-2,-4.6885777E-2,-5.0170355E-2,6.7484914E-3,-2.6542686E-3,-2.79473E-2,-4.8296466E-3,2.2648793E-2,6.687551E-2,4.7025317E-3,-1.1942128E-2,1.2414155E-2,8.140184E-2,-6.7065395E-3,3.6152739E-3,1.402356E-1,3.2746E-2,-1.7332692E-2,-4.1031763E-3,-1.8023724E-3,6.0795154E-4,-2.2444328E-2,-5.86715E-2,1.1551048E-2,-5.4843547E-3,2.297401E-3,3.0871699E-2,-2.203899E-4,1.7417993E-2,-3.4224E-2,-5.351624E-3,3.0233547E-2,3.0021651E-3,1.7691916E-1,5.2884933E-2,-1.9510621E-2,-3.0749294E-3,-2.9052027E-2,6.6021406E-3,1.2964942E-2,5.3382315E-2,3.619187E-2,-2.2607122E-3,-1.7528111E-2,-4.9421503E-3,-2.06227E-3,5.076822E-3,-1.5769893E-3,-1.6774725E-2,6.4020692E-3,-8.2514447E-4,5.41441E-3,-8.9053554E-4,1.3137727E-2,3.094444E-3,-4.056012E-2,-1.367623E-3,5.054267E-3,-3.236622E-3,3.2698773E-2,2.9781177E-3,7.4643553E-3,-1.5971613E-3,9.2781514E-2,1.7759284E-2,3.704969E-2,7.604547E-3,-1.5764333E-3,-1.9843526E-2,3.8904536E-3,-1.4847624E-3,-4.20888E-2,1.8089505E-4,-2.5268104E-3,3.2864078E-3,5.7935906E-3,-2.6173678E-3],"categories":[0,0,0,0,0,0,0,0,0,0],"categories_nodes":[0,14,26,27,30,42,43,45,48,51],"categories_segments":[0,1,2,3,4,5,6,7,8,9],"categories_sizes":[1,1,1,1,1,1,1,1,1,1],"default_left":[1,0,0,0,0,0,0,0,0,0,0,0,0,0,1,0,0,0,0,0,0,0,0,0,0,0,1,1,0,0,1,0,0,0,0,0,0,0,0,0,0,0,1,1,0,1,0,0,1,0,0,1,0,0,0,0,0,0,0,0,0,0,0,0,0,0,0,0,0,0,0,0,0,0,0,0,0,0,0,0,0,0,0,0,0,0,0,0,0,0,0],"id":5,"left_children":[1,3,5,7,9,11,13,15,17,19,21,23,25,27,29,-1,31,-1,33,35,37,39,-1,41,43,45,47,49,51,53,55,-1,-1,-1,-1,57,-1,59,61,63,-1,65,67,69,71,73,75,77,79,81,83,85,87,-1,-1,-1,89,-1,-1,-1,-1,-1,-1,-1,-1,-1,-1,-1,-1,-1,-1,-1,-1,-1,-1,-1,-1,-1,-1,-1,-1,-1,-1,-1,-1,-1,-1,-1,-1,-1,-1],"loss_changes":[5.509573E-2,1.4548469E-1,6.452566E-2,6.914051E-2,5.095848E-2,1.08692E-1,9.622749E-2,1.5084565E-2,8.306304E-4,3.1409975E-2,6.34221E-2,3.7640363E-2,1.8066734E-1,5.6089923E-2,5.0588116E-2,0E0,3.1994935E-4,0E0,5.9267928E-5,5.741346E-2,5.2754954E-3,1.6096976E-2,0E0,2.0410534E-2,3.403261E-2,8.779238E-2,1.0232183E-1,5.848279E-2,8.849526E-2,1.4258914E-2,6.488688E-2,0E0,0E0,0E0,0E0,1.3216563E-2,0E0,1.9968536E-3,5.080792E-3,9.238296E-4,0E0,1.1901425E-2,1.6596444E-2,1.5814465E-1,2.2028375E-2,2.88407E-1,6.279739E-2,1.2191856E-1,6.1036624E-2,1.8447062E-1,2.9592188E-2,2.5080413E-1,5.437128E-2,0E0,0E0,0E0,2.3995684E-3,0E0,0E0,0E0,0E0,0E0,0E0,0E0,0E0,0E0,0E0,0E0,0E0,0E0,0E0,0E0,0E0,0E0,0E0,0E0,0E0,0E0,0E0,0E0,0E0,0E0,0E0,0E0,0E0,0E0,0E0,0E0,0E0,0E0,0E0],"parents":[2147483647,0,0,1,1,2,2,3,3,4,4,5,5,6,6,7,7,8,8,9,9,10,10,11,11,12,12,13,13,14,14,16,16,18,18,19,19,20,20,21,21,23,23,24,24,25,25,26,26,27,27,28,28,29,29,30,30,35,35,37,37,38,38,39,39,41,41,42,42,43,43,44,44,45,45,46,46,47,47,48,48,49,49,50,50,51,51,52,52,56,56],"right_children":[2,4,6,8,10,12,14,16,18,20,22,24,26,28,30,-1,32,-1,34,36,38,40,-1,42,44,46,48,50,52,54,56,-1,-1,-1,-1,58,-1,60,62,64,-1,66,68,70,72,74,76,78,80,82,84,86,88,-1,-1,-1,90,-1,-1,-1,-1,-1,-1,-1,-1,-1,-1,-1,-1,-1,-1,-1,-1,-1,-1,-1,-1,-1,-1,-1,-1,-1,-1,-1,-1,-1,-1,-1,-1,-1,-1],"split_conditions":[NaN,1.1313211E-3,9.9E1,-2.201911E-2,2.134099E0,2.309731E-1,6.087963E-1,5.1E1,5.6E1,8.843888E-3,4.1858885E-2,-4.9150017E-6,1.0523424E-2,3.105933E-1,NaN,-4.6885777E-2,4.1840615E-4,6.7484914E-3,5.7E1,7.1918404E-1,1.1100386E0,1.6043177E-1,6.687551E-2,-7.2392204E-4,2E1,-1.5794458E-3,NaN,NaN,4.132935E-1,-5.617599E-1,NaN,-1.7332692E-2,-4.1031763E-3,-1.8023724E-3,6.0795154E-4,6.133005E-1,-5.86715E-2,8.10559E-2,8.575388E-1,-2.0084713E-1,3.0871699E-2,1.9E1,NaN,NaN,1.0625E1,NaN,1.9844723E1,-3.4466464E-2,NaN,7.090909E-1,1.3125E0,NaN,-9.551906E-2,1.2964942E-2,5.3382315E-2,3.619187E-2,1.04E2,-1.7528111E-2,-4.9421503E-3,-2.06227E-3,5.076822E-3,-1.5769893E-3,-1.6774725E-2,6.4020692E-3,-8.2514447E-4,5.41441E-3,-8.9053554E-4,1.3137727E-2,3.094444E-3,-4.056012E-2,-1.367623E-3,5.054267E-3,-3.236622E-3,3.2698773E-2,2.9781177E-3,7.4643553E-3,-1.5971613E-3,9.2781514E-2,1.7759284E-2,3.704969E-2,7.604547E-3,-1.5764333E-3,-1.9843526E-2,3.8904536E-3,-1.4847624E-3,-4.20888E-2,1.8089505E-4,-2.5268104E-3,3.2864078E-3,5.7935906E-3,-2.6173678E-3],"split_indices":[30,3,1,6,23,28,20,1,1,3,14,11,11,5,31,0,3,0,1,24,15,4,0,11,1,11,33,33,21,6,33,0,0,0,0,15,0,28,24,6,0,1,31,33,9,33,8,6,31,25,15,33,20,0,0,0,2,0,0,0,0,0,0,0,0,0,0,0,0,0,0,0,0,0,0,0,0,0,0,0,0,0,0,0,0,0,0,0,0,0,0],"split_type":[1,0,0,0,0,0,0,0,0,0,0,0,0,0,1,0,0,0,0,0,0,0,0,0,0,0,1,1,0,0,1,0,0,0,0,0,0,0,0,0,0,0,1,1,0,1,0,0,1,0,0,1,0,0,0,0,0,0,0,0,0,0,0,0,0,0,0,0,0,0,0,0,0,0,0,0,0,0,0,0,0,0,0,0,0,0,0,0,0,0,0],"sum_hessian":[3.884E3,5.77E2,3.307E3,1.6E1,5.61E2,1.12E3,2.187E3,1.2E1,4E0,5.51E2,1E1,5.57E2,5.63E2,2.162E3,2.5E1,9E0,3E0,2E0,2E0,6.6E1,4.85E2,9E0,1E0,3.25E2,2.32E2,5.23E2,4E1,1.258E3,9.04E2,5E0,2E1,2E0,1E0,1E0,1E0,6.5E1,1E0,1.8E1,4.67E2,8E0,1E0,2.35E2,9E1,5.2E1,1.8E2,1.8E2,3.43E2,8E0,3.2E1,2.77E2,9.81E2,7.5E1,8.29E2,2E0,3E0,5E0,1.5E1,8E0,5.7E1,4E0,1.4E1,4.66E2,1E0,1E0,7E0,3E1,2.05E2,1.8E1,7.2E1,1.1E1,4.1E1,3.5E1,1.45E2,3.6E1,1.44E2,9.4E1,2.49E2,3E0,5E0,8E0,2.4E1,2.13E2,6.4E1,1.02E2,8.79E2,1.5E1,6E1,1.86E2,6.43E2,3E0,1.2E1],"tree_param":{"num_deleted":"0","num_feature":"35","num_nodes":"91","size_leaf_vector":"1"}},{"base_weights":[-1.1244477E-5,7.498019E-3,-1.6381696E-3,6.358955E-3,6.650304E-2,-3.0128988E-3,1.018199E-2,-5.275354E-3,1.12520065E-2,1.3402186E-1,7.5510396E-3,-4.099876E-2,-2.5960293E-3,4.6633717E-2,1.2585965E-4,-2.4213742E-3,-8.800068E-3,2.3016334E-2,-8.5762865E-4,2.0839828E-3,4.7414277E-2,5.9425953E-4,8.437276E-3,-1.9270447E-1,3.1187874E-3,-1.566136E-2,-1.532857E-3,1.1134739E-1,-7.920907E-3,2.2747848E-2,-6.4173914E-3,-3.8811855E-3,3.1538086E-3,-8.019282E-3,-8.630942E-3,1.0692807E-2,3.9384384E-2,3.638794E-3,-9.09086E-3,3.07583E-3,-5.3196964E-3,-1.9363599E-2,-6.931772E-2,-9.307199E-3,7.5326357E-3,-4.136559E-2,-9.106138E-3,3.1207932E-2,-2.1819805E-3,3.4516864E-2,2.429244E-1,-1.1451653E-1,3.8170228E-3,4.412884E-3,6.426566E-2,-8.586348E-3,2.611008E-2,-1.4224639E-3,8.1864506E-4,2.7297055E-3,5.1163468E-5,-2.8920248E-3,-3.695108E-5,1.0829508E-2,5.08807E-5,6.0023493E-3,1.847206E-2,2.9247932E-4,1.7832192E-2,-3.5717927E-3,1.7505431E-3,1.0449719E-5,-2.670298E-3,-4.2998074E-3,-5.8647216E-4,4.5525274E-4,3.8383496E-3,-3.4401417E-2,-6.4000958E-3,-1.2021118E-2,4.8269008E-4,2.815599E-2,4.091841E-3,7.8265613E-4,-1.5078062E-3,1.3514266E-3,4.0697124E-2,1.50855845E-2,7.67597E-2,-4.4270366E-2,-2.304367E-3,-5.14583E-4,3.044697E-2,-1.440658E-3,2.7947E-2,3.1429194E-2,8.691005E-3,4.070624E-3,-3.3293997E-3,1.4916413E-2,-3.693679E-4],"categories":[0,0,0,0,0,0,0,0],"categories_nodes":[0,6,11,14,24,25,46,47],"categories_segments":[0,1,2,3,4,5,6,7],"categories_sizes":[1,1,1,1,1,1,1,1],"default_left":[1,0,0,0,0,0,1,0,0,0,0,1,0,0,1,0,0,0,0,0,0,0,0,0,1,1,0,0,0,0,0,0,0,0,0,0,0,0,0,0,0,0,0,0,0,0,1,1,0,0,0,0,0,0,0,0,0,0,0,0,0,0,0,0,0,0,0,0,0,0,0,0,0,0,0,0,0,0,0,0,0,0,0,0,0,0,0,0,0,0,0,0,0,0,0,0,0,0,0,0,0],"id":6,"left_children":[1,3,5,7,9,11,13,15,17,19,21,23,25,27,29,31,33,35,37,-1,-1,39,-1,41,43,45,47,49,51,53,55,57,59,61,-1,63,65,67,69,-1,71,-1,-1,73,75,77,79,81,83,85,87,89,91,93,95,97,99,-1,-1,-1,-1,-1,-1,-1,-1,-1,-1,-1,-1,-1,-1,-1,-1,-1,-1,-1,-1,-1,-1,-1,-1,-1,-1,-1,-1,-1,-1,-1,-1,-1,-1,-1,-1,-1,-1,-1,-1,-1,-1,-1,-1],"loss_changes":[4.7475368E-2,4.6086755E-2,5.1931642E-2,3.8769905E-2,5.0732803E-2,4.5213766E-2,1.2205972E-1,2.010703E-3,6.82589E-2,1.722055E-2,1.1282733E-3,2.0808041E-1,3.9314453E-2,2.5507295E-1,3.8927577E-2,9.319154E-4,1.172577E-3,4.8594907E-2,8.8068405E-3,0E0,0E0,4.5438152E-4,0E0,1.9494653E-2,1.4412683E-3,3.5513163E-2,5.575047E-2,3.2521635E-1,5.048559E-2,4.462884E-2,1.461653E-2,5.2476744E-4,4.2411534E-4,1.1250391E-3,0E0,3.7422583E-2,4.348275E-2,2.2833912E-2,3.5990202E-3,0E0,9.619084E-5,0E0,0E0,2.3062312E-4,5.819489E-4,6.0697302E-2,5.6799755E-2,5.4849613E-2,3.5030197E-2,6.6168375E-2,1.7049551E-2,1.2990706E-2,2.016724E-2,3.4794148E-2,2.2694439E-2,1.083459E-2,8.453546E-3,0E0,0E0,0E0,0E0,0E0,0E0,0E0,0E0,0E0,0E0,0E0,0E0,0E0,0E0,0E0,0E0,0E0,0E0,0E0,0E0,0E0,0E0,0E0,0E0,0E0,0E0,0E0,0E0,0E0,0E0,0E0,0E0,0E0,0E0,0E0,0E0,0E0,0E0,0E0,0E0,0E0,0E0,0E0,0E0],"parents":[2147483647,0,0,1,1,2,2,3,3,4,4,5,5,6,6,7,7,8,8,9,9,10,10,11,11,12,12,13,13,14,14,15,15,16,16,17,17,18,18,21,21,23,23,24,24,25,25,26,26,27,27,28,28,29,29,30,30,31,31,32,32,33,33,35,35,36,36,37,37,38,38,40,40,43,43,44,44,45,45,46,46,47,47,48,48,49,49,50,50,51,51,52,52,53,53,54,54,55,55,56,56],"right_children":[2,4,6,8,10,12,14,16,18,20,22,24,26,28,30,32,34,36,38,-1,-1,40,-1,42,44,46,48,50,52,54,56,58,60,62,-1,64,66,68,70,-1,72,-1,-1,74,76,78,80,82,84,86,88,90,92,94,96,98,100,-1,-1,-1,-1,-1,-1,-1,-1,-1,-1,-1,-1,-1,-1,-1,-1,-1,-1,-1,-1,-1,-1,-1,-1,-1,-1,-1,-1,-1,-1,-1,-1,-1,-1,-1,-1,-1,-1,-1,-1,-1,-1,-1,-1],"split_conditions":[NaN,1.2542858E3,3.200384E-1,1.9484456E-1,3.249E3,1.0022246E-2,NaN,1.8229166E-2,1.0323138E0,8.9489156E-1,9.505267E-3,NaN,4.5252517E-3,-2.3584401E-2,NaN,1.2969643E2,1.8031035E-1,4.3895984E-1,9.118301E1,2.0839828E-3,4.7414277E-2,3.28E3,8.437276E-3,9.0747267E-1,NaN,NaN,5.3825486E-3,7.2884895E-2,-4.8911476E-1,6.75853E-3,1.9947314E0,9.480315E-1,6.4253456E1,9.057856E-2,-8.630942E-3,5E1,4.4140625E-1,3.7568364E0,1.0510358E1,3.07583E-3,9.9E1,-1.9363599E-2,-6.931772E-2,2.73E2,2.73E2,4.4E1,NaN,NaN,4.7061634E-1,9.091408E-2,3.5716945E-1,2.75E2,8.0275816E-1,1.7220807E0,1.1739286E2,-5.895903E-1,3.2465094E-1,-1.4224639E-3,8.1864506E-4,2.7297055E-3,5.1163468E-5,-2.8920248E-3,-3.695108E-5,1.0829508E-2,5.08807E-5,6.0023493E-3,1.847206E-2,2.9247932E-4,1.7832192E-2,-3.5717927E-3,1.7505431E-3,1.0449719E-5,-2.670298E-3,-4.2998074E-3,-5.8647216E-4,4.5525274E-4,3.8383496E-3,-3.4401417E-2,-6.4000958E-3,-1.2021118E-2,4.8269008E-4,2.815599E-2,4.091841E-3,7.8265613E-4,-1.5078062E-3,1.3514266E-3,4.0697124E-2,1.50855845E-2,7.67597E-2,-4.4270366E-2,-2.304367E-3,-5.14583E-4,3.044697E-2,-1.440658E-3,2.7947E-2,3.1429194E-2,8.691005E-3,4.070624E-3,-3.3293997E-3,1.4916413E-2,-3.693679E-4],"split_indices":[32,2,6,28,1,10,33,19,28,5,7,33,3,20,31,9,28,28,9,0,0,1,0,5,31,30,3,3,19,20,23,12,8,28,0,1,12,16,16,0,0,0,0,1,1,1,33,33,24,14,6,0,5,23,13,20,3,0,0,0,0,0,0,0,0,0,0,0,0,0,0,0,0,0,0,0,0,0,0,0,0,0,0,0,0,0,0,0,0,0,0,0,0,0,0,0,0,0,0,0,0],"split_type":[1,0,0,0,0,0,1,0,0,0,0,1,0,0,1,0,0,0,0,0,0,0,0,0,1,1,0,0,0,0,0,0,0,0,0,0,0,0,0,0,0,0,0,0,0,0,1,1,0,0,0,0,0,0,0,0,0,0,0,0,0,0,0,0,0,0,0,0,0,0,0,0,0,0,0,0,0,0,0,0,0,0,0,0,0,0,0,0,0,0,0,0,0,0,0,0,0,0,0,0,0],"sum_hessian":[3.884E3,6.91E2,3.193E3,6.79E2,1.2E1,2.861E3,3.32E2,2.01E2,4.78E2,5E0,7E0,3E1,2.831E3,7.1E1,2.61E2,1.12E2,8.9E1,2.42E2,2.36E2,1E0,4E0,6E0,1E0,6E0,2.4E1,2.12E2,2.619E3,3.2E1,3.9E1,5.8E1,2.03E2,8.9E1,2.3E1,8.7E1,2E0,1.39E2,1.03E2,1.53E2,8.3E1,2E0,4E0,2E0,4E0,6E0,1.8E1,4.2E1,1.7E2,5E1,2.569E3,2.1E1,1.1E1,3E0,3.6E1,4.1E1,1.7E1,1.91E2,1.2E1,7.9E1,1E1,7E0,1.6E1,7.2E1,1.5E1,4E1,9.9E1,5.6E1,4.7E1,1.47E2,6E0,7E1,1.3E1,2E0,2E0,3E0,3E0,9E0,9E0,8E0,3.4E1,4.3E1,1.27E2,1E1,4E1,9.57E2,1.612E3,1.7E1,4E0,1E0,1E1,2E0,1E0,3.5E1,1E0,3.8E1,3E0,7E0,1E1,1.9E1,1.72E2,6E0,6E0],"tree_param":{"num_deleted":"0","num_feature":"35","num_nodes":"101","size_leaf_vector":"1"}},{"base_weights":[4.0958283E-5,1.1963367E-3,-7.83755E-3,9.43423E-3,-3.1024107E-4,-8.693587E-3,5.3327E-2,3.696307E-2,3.4860428E-3,-8.412469E-3,1.1904238E-3,-5.0946134E-3,-1.7416302E-2,-7.1477075E-4,6.300902E-2,2.3461487E-2,9.191626E-2,-2.392114E-2,5.044394E-3,-2.9844899E-2,-2.6370648E-3,1.0193011E-2,-1.1723782E-3,7.7977697E-3,-8.185349E-3,-4.886829E-2,-7.5364485E-3,3.0601977E-3,7.1530566E-2,3.3250425E-2,-4.4470564E-2,-2.2733524E-2,1.1636179E-1,4.3659937E-3,4.3902926E-2,-1.06175885E-1,-9.365101E-3,1.8113184E-3,-9.136869E-3,1.4576359E-1,6.8656937E-3,4.9032915E-2,-1.7543108E-3,4.575161E-2,1.1020045E-3,1.5773531E-2,-1.099397E-2,-2.474878E-3,-5.872135E-2,-4.1284515E-3,-6.592032E-2,4.689229E-3,2.447935E-2,1.4887957E-2,-7.505639E-4,-3.2322549E-3,-1.4105243E-2,-2.0755837E-2,4.743815E-3,-1.0530755E-3,3.7552442E-2,5.91347E-4,9.533463E-3,-9.116061E-2,-1.6024288E-2,2.0649692E-3,-2.277016E-2,6.1536967E-3,-7.628885E-5,-2.3647763E-3,-1.272881E-2,7.642779E-3,5.4908648E-2,4.5429985E-3,-7.7202185E-3,3.4060627E-2,3.4088155E-3,2.1874548E-3,-1.4762135E-3,5.075468E-3,-4.0170085E-3,2.5641095E-2,-1.5635781E-3,-7.941933E-3,-1.7814713E-3,-5.5567194E-3,7.5287838E-3,-2.105567E-2,-8.016214E-3,-2.9827256E-4,-6.450107E-3,-5.9636217E-2,1.2316956E-4],"categories":[0,0,0,0,0,0,0,0,0,0,0,0,0],"categories_nodes":[1,6,9,10,11,12,14,28,41,42,45,46,50],"categories_segments":[0,1,2,3,4,5,6,7,8,9,10,11,12],"categories_sizes":[1,1,1,1,1,1,1,1,1,1,1,1,1],"default_left":[0,1,0,0,0,0,1,0,0,1,1,1,1,0,1,0,0,0,0,0,0,0,0,0,0,0,0,0,1,0,0,0,0,0,0,0,0,0,0,0,0,1,1,0,0,1,1,0,0,0,1,0,0,0,0,0,0,0,0,0,0,0,0,0,0,0,0,0,0,0,0,0,0,0,0,0,0,0,0,0,0,0,0,0,0,0,0,0,0,0,0,0,0],"id":7,"left_children":[1,3,5,7,9,11,13,15,17,19,21,23,25,-1,27,29,31,-1,33,35,37,39,41,43,45,47,49,-1,51,53,55,57,59,61,-1,63,65,67,69,71,73,75,77,-1,79,81,83,85,87,89,91,-1,-1,-1,-1,-1,-1,-1,-1,-1,-1,-1,-1,-1,-1,-1,-1,-1,-1,-1,-1,-1,-1,-1,-1,-1,-1,-1,-1,-1,-1,-1,-1,-1,-1,-1,-1,-1,-1,-1,-1,-1,-1],"loss_changes":[3.5373203E-2,4.2063896E-2,2.6486097E-2,8.5674405E-2,3.4856934E-2,1.5325148E-2,3.925793E-3,6.684534E-2,5.6428704E-2,5.537516E-2,5.1467303E-2,1.3970413E-2,4.4067677E-2,0E0,1.9703917E-3,5.2017353E-2,5.3093463E-2,0E0,4.010033E-2,1.4751375E-1,1.0251971E-2,2.2589561E-1,5.6093268E-2,6.5719046E-2,1.914959E-2,1.5396655E-2,2.1614777E-2,0E0,1.538353E-3,3.935153E-2,3.5163946E-4,8.256312E-3,1.6285911E-2,2.7772024E-2,0E0,1.9238082E-1,8.268526E-2,8.155949E-3,5.678718E-3,4.9127728E-2,1.3315532E-1,5.216601E-2,5.4342452E-2,0E0,1.5354341E-2,4.4324033E-2,1.9642169E-2,3.56194E-3,8.396737E-3,5.695578E-3,5.2960746E-2,0E0,0E0,0E0,0E0,0E0,0E0,0E0,0E0,0E0,0E0,0E0,0E0,0E0,0E0,0E0,0E0,0E0,0E0,0E0,0E0,0E0,0E0,0E0,0E0,0E0,0E0,0E0,0E0,0E0,0E0,0E0,0E0,0E0,0E0,0E0,0E0,0E0,0E0,0E0,0E0,0E0,0E0],"parents":[2147483647,0,0,1,1,2,2,3,3,4,4,5,5,6,6,7,7,8,8,9,9,10,10,11,11,12,12,14,14,15,15,16,16,18,18,19,19,20,20,21,21,22,22,23,23,24,24,25,25,26,26,28,28,29,29,30,30,31,31,32,32,33,33,35,35,36,36,37,37,38,38,39,39,40,40,41,41,42,42,44,44,45,45,46,46,47,47,48,48,49,49,50,50],"right_children":[2,4,6,8,10,12,14,16,18,20,22,24,26,-1,28,30,32,-1,34,36,38,40,42,44,46,48,50,-1,52,54,56,58,60,62,-1,64,66,68,70,72,74,76,78,-1,80,82,84,86,88,90,92,-1,-1,-1,-1,-1,-1,-1,-1,-1,-1,-1,-1,-1,-1,-1,-1,-1,-1,-1,-1,-1,-1,-1,-1,-1,-1,-1,-1,-1,-1,-1,-1,-1,-1,-1,-1,-1,-1,-1,-1,-1,-1],"split_conditions":[2.216787E0,NaN,1.8392594E-1,3.9343066E0,6.0120624E-2,1.1506412E-3,NaN,1.2129103E0,-9.0408045E-1,NaN,NaN,NaN,NaN,-7.1477075E-4,NaN,8.1166047E-1,2.0794943E-1,-2.392114E-2,8.575388E-1,3.01E2,1.3809091E1,7.88352E-2,-9.0408045E-1,2.1362522E-1,3.1931478E-1,1.2514137E-1,3.3402626E1,3.0601977E-3,NaN,6.3211113E-1,3.45E2,1.53E2,-7.135912E-1,3.2150537E-1,4.3902926E-2,1.6315628E-2,1.3746575E1,1.2234406E-2,8.575388E-1,1.7607509E-1,1.335E2,NaN,NaN,4.575161E-2,8.538726E-1,NaN,NaN,1.2353659E-1,1.7986549E-2,9.2443323E-1,NaN,4.689229E-3,2.447935E-2,1.4887957E-2,-7.505639E-4,-3.2322549E-3,-1.4105243E-2,-2.0755837E-2,4.743815E-3,-1.0530755E-3,3.7552442E-2,5.91347E-4,9.533463E-3,-9.116061E-2,-1.6024288E-2,2.0649692E-3,-2.277016E-2,6.1536967E-3,-7.628885E-5,-2.3647763E-3,-1.272881E-2,7.642779E-3,5.4908648E-2,4.5429985E-3,-7.7202185E-3,3.4060627E-2,3.4088155E-3,2.1874548E-3,-1.4762135E-3,5.075468E-3,-4.0170085E-3,2.5641095E-2,-1.5635781E-3,-7.941933E-3,-1.7814713E-3,-5.5567194E-3,7.5287838E-3,-2.105567E-2,-8.016214E-3,-2.9827256E-4,-6.450107E-3,-5.9636217E-2,1.2316956E-4],"split_indices":[28,31,6,15,18,11,29,28,19,33,33,31,31,0,31,25,12,0,24,0,17,18,19,24,10,26,8,0,30,18,1,1,7,19,0,18,22,28,24,6,2,34,32,0,10,33,33,26,4,26,33,0,0,0,0,0,0,0,0,0,0,0,0,0,0,0,0,0,0,0,0,0,0,0,0,0,0,0,0,0,0,0,0,0,0,0,0,0,0,0,0,0,0],"split_type":[0,1,0,0,0,0,1,0,0,1,1,1,1,0,1,0,0,0,0,0,0,0,0,0,0,0,0,0,1,0,0,0,0,0,0,0,0,0,0,0,0,1,1,0,0,1,1,0,0,0,1,0,0,0,0,0,0,0,0,0,0,0,0,0,0,0,0,0,0,0,0,0,0,0,0,0,0,0,0,0,0,0,0,0,0,0,0,0,0,0,0,0,0],"sum_hessian":[3.884E3,3.388E3,4.96E2,5.23E2,2.865E3,4.9E2,6E0,9.2E1,4.31E2,4.47E2,2.418E3,3.48E2,1.42E2,1E0,5E0,7.5E1,1.7E1,7E0,4.24E2,9.4E1,3.53E2,5.02E2,1.916E3,6.7E1,2.81E2,3.3E1,1.09E2,1E0,4E0,6.6E1,9E0,3E0,1.4E1,4.23E2,1E0,1.9E1,7.5E1,2.1E2,1.43E2,1.1E1,4.91E2,2.1E1,1.895E3,2E0,6.5E1,2.9E1,2.52E2,6E0,2.7E1,1.04E2,5E0,1E0,3E0,4.5E1,2.1E1,1E0,8E0,1E0,2E0,1E0,1.3E1,3.9E2,3.3E1,3E0,1.6E1,6.1E1,1.4E1,2E1,1.9E2,1.39E2,4E0,3E0,8E0,3.92E2,9.9E1,7E0,1.4E1,4.91E2,1.404E3,3.1E1,3.4E1,6E0,2.3E1,6.1E1,1.91E2,4E0,2E0,1.9E1,8E0,8.9E1,1.5E1,1E0,4E0],"tree_param":{"num_deleted":"0","num_feature":"35","num_nodes":"93","size_leaf_vector":"1"}},{"base_weights":[3.0565177E-5,-5.790336E-3,1.4388079E-3,-6.887422E-3,3.2987893E-2,4.1896356E-3,-2.5964393E-3,-2.4088979E-2,-2.919585E-3,1.477979E-1,-2.7202202E-3,3.5679635E-2,2.9572195E-3,4.04549E-2,-3.2482212E-3,-5.3601034E-2,-4.478836E-3,-1.6750697E-2,-1.5305639E-4,6.9124766E-2,1.591394E-2,1.9640353E-2,-1.1111192E-2,6.634561E-2,1.2584359E-3,1.4874396E-2,4.835174E-4,9.779954E-2,2.3590308E-2,-1.1475533E-2,-9.7212556E-4,-2.007818E-2,-8.520956E-2,-3.5457876E-2,7.783062E-3,-7.777773E-2,-6.737719E-3,5.4069195E-2,-6.982439E-4,-4.674939E-3,1.1836212E-2,1.9552603E-2,-8.03723E-3,-2.9047783E-2,-5.2092867E-3,-1.9589714E-3,7.962905E-2,-2.9128142E-2,1.0215258E-2,-1.042753E-1,1.9222625E-2,-7.5063286E-3,2.5978652E-3,5.911116E-2,-9.587395E-4,-1.1401353E-2,3.2542333E-2,-4.5720834E-2,-3.710936E-3,-1.3397976E-2,4.850243E-4,1.4689372E-2,-7.3346472E-3,-2.7235959E-2,9.805248E-3,-7.3194844E-3,-4.347428E-2,3.9353203E-3,-2.1454636E-2,-3.5288185E-2,-1.2770818E-2,-8.0175954E-4,-1.5844563E-2,3.7721246E-2,1.4153254E-3,-6.8342395E-4,4.4521624E-3,-5.6634523E-4,-2.8373285E-3,-1.0543408E-2,-2.5280956E-3,1.228494E-3,-2.7630776E-3,-3.0670126E-3,7.1441177E-3,2.9086253E-2,1.179444E-2,-1.3782281E-2,4.2620483E-3,7.4470285E-3,-3.9868993E-3,-7.064947E-2,-7.6888283E-3,4.779748E-3,4.094951E-2,-1.0871192E-3,-4.5598047E-3,-1.3035194E-3,1.4416446E-3,-7.096727E-3,6.665294E-3,-7.5461804E-3,4.478458E-3,1.5620003E-2,5.423899E-3,-3.587777E-2,-5.7737245E-3,-8.849935E-3,-5.099005E-4,-2.0606395E-2,-2.644232E-4,2.615057E-3,-4.41693E-4],"categories":[0,0,0,0,0,0,0,0,0,0,0,0,0,0,0,0],"categories_nodes":[3,4,8,10,12,13,22,23,24,26,28,29,37,52,59,60],"categories_segments":[0,1,2,3,4,5,6,7,8,9,10,11,12,13,14,15],"categories_sizes":[1,1,1,1,1,1,1,1,1,1,1,1,1,1,1,1],"default_left":[0,0,0,1,1,0,0,0,1,0,1,0,1,1,0,0,0,0,0,0,0,0,1,1,1,0,1,0,1,1,0,0,0,0,0,0,0,1,0,0,0,0,0,0,0,0,0,0,0,0,0,0,1,0,0,0,0,0,0,1,1,0,0,0,0,0,0,0,0,0,0,0,0,0,0,0,0,0,0,0,0,0,0,0,0,0,0,0,0,0,0,0,0,0,0,0,0,0,0,0,0,0,0,0,0,0,0,0,0,0,0,0,0],"id":8,"left_children":[1,3,5,7,9,11,13,15,17,19,21,23,25,27,29,31,33,35,37,-1,39,41,43,45,47,49,51,53,55,57,59,61,63,65,67,69,71,73,75,-1,-1,-1,77,79,81,83,85,87,89,91,93,95,97,-1,99,101,103,105,107,109,111,-1,-1,-1,-1,-1,-1,-1,-1,-1,-1,-1,-1,-1,-1,-1,-1,-1,-1,-1,-1,-1,-1,-1,-1,-1,-1,-1,-1,-1,-1,-1,-1,-1,-1,-1,-1,-1,-1,-1,-1,-1,-1,-1,-1,-1,-1,-1,-1,-1,-1,-1,-1],"loss_changes":[3.185462E-2,3.243229E-2,3.4743622E-2,5.0232112E-2,8.649466E-2,7.211764E-2,3.5739645E-2,7.9625435E-2,2.2955937E-2,5.0813124E-2,3.4078858E-3,7.3805675E-2,5.2820146E-2,1.6067663E-2,2.3415256E-2,5.656761E-2,3.2184362E-2,6.0582183E-2,1.4847962E-2,0E0,2.83915E-3,6.8253204E-3,1.2248625E-3,3.372681E-2,9.5512355E-3,1.6157623E-1,2.510607E-2,3.9391063E-2,5.382967E-3,7.1889505E-2,1.7768804E-2,9.646438E-3,2.1376967E-2,2.5517372E-2,2.6743045E-2,1.4635183E-2,1.6155135E-2,1.709147E-2,1.2234526E-2,0E0,0E0,0E0,1.7087208E-5,8.1005506E-5,4.4720306E-4,1.7344285E-3,1.7840192E-2,6.48133E-3,9.600719E-3,1.0748585E-1,1.1280933E-1,9.234151E-3,1.8030487E-2,0E0,2.1036793E-3,1.8238993E-3,2.7295146E-3,9.548639E-2,1.1464617E-2,7.1219675E-2,1.4175676E-2,0E0,0E0,0E0,0E0,0E0,0E0,0E0,0E0,0E0,0E0,0E0,0E0,0E0,0E0,0E0,0E0,0E0,0E0,0E0,0E0,0E0,0E0,0E0,0E0,0E0,0E0,0E0,0E0,0E0,0E0,0E0,0E0,0E0,0E0,0E0,0E0,0E0,0E0,0E0,0E0,0E0,0E0,0E0,0E0,0E0,0E0,0E0,0E0,0E0,0E0,0E0,0E0],"parents":[2147483647,0,0,1,1,2,2,3,3,4,4,5,5,6,6,7,7,8,8,9,9,10,10,11,11,12,12,13,13,14,14,15,15,16,16,17,17,18,18,20,20,21,21,22,22,23,23,24,24,25,25,26,26,27,27,28,28,29,29,30,30,31,31,32,32,33,33,34,34,35,35,36,36,37,37,38,38,42,42,43,43,44,44,45,45,46,46,47,47,48,48,49,49,50,50,51,51,52,52,54,54,55,55,56,56,57,57,58,58,59,59,60,60],"right_children":[2,4,6,8,10,12,14,16,18,20,22,24,26,28,30,32,34,36,38,-1,40,42,44,46,48,50,52,54,56,58,60,62,64,66,68,70,72,74,76,-1,-1,-1,78,80,82,84,86,88,90,92,94,96,98,-1,100,102,104,106,108,110,112,-1,-1,-1,-1,-1,-1,-1,-1,-1,-1,-1,-1,-1,-1,-1,-1,-1,-1,-1,-1,-1,-1,-1,-1,-1,-1,-1,-1,-1,-1,-1,-1,-1,-1,-1,-1,-1,-1,-1,-1,-1,-1,-1,-1,-1,-1,-1,-1,-1,-1,-1,-1],"split_conditions":[-4.6426642E-1,8.33268E-2,1.6046546E-1,NaN,NaN,2.1641052E-8,1.9928057E0,1.2568703E1,NaN,1.5E2,NaN,5.8934015E-1,NaN,NaN,1.8519634E-1,6.850557E-1,1.3739661E-2,2.8775397E-3,1.50876045E-2,6.9124766E-2,1.52E2,8.147741E0,NaN,NaN,NaN,1.6315628E-2,NaN,8.7E1,NaN,NaN,-2.5625435E-1,1.87E0,-4.904269E-1,2.0833334E1,5.23E2,-7.4367476E-1,1.2980852E-1,NaN,9.5099896E-2,-4.674939E-3,1.1836212E-2,1.9552603E-2,1.5E2,9.9E1,8.147741E0,2.3993125E-9,2.857639E-1,2.6E1,4.26E2,3E2,6.7716646E-1,9.75E1,NaN,5.911116E-2,2.4E1,5.7E2,2.4E1,2.331465E-1,1.2330777E-2,NaN,NaN,1.4689372E-2,-7.3346472E-3,-2.7235959E-2,9.805248E-3,-7.3194844E-3,-4.347428E-2,3.9353203E-3,-2.1454636E-2,-3.5288185E-2,-1.2770818E-2,-8.0175954E-4,-1.5844563E-2,3.7721246E-2,1.4153254E-3,-6.8342395E-4,4.4521624E-3,-5.6634523E-4,-2.8373285E-3,-1.0543408E-2,-2.5280956E-3,1.228494E-3,-2.7630776E-3,-3.0670126E-3,7.1441177E-3,2.9086253E-2,1.179444E-2,-1.3782281E-2,4.2620483E-3,7.4470285E-3,-3.9868993E-3,-7.064947E-2,-7.6888283E-3,4.779748E-3,4.094951E-2,-1.0871192E-3,-4.5598047E-3,-1.3035194E-3,1.4416446E-3,-7.096727E-3,6.665294E-3,-7.5461804E-3,4.478458E-3,1.5620003E-2,5.423899E-3,-3.587777E-2,-5.7737245E-3,-8.849935E-3,-5.099005E-4,-2.0606395E-2,-2.644232E-4,2.615057E-3,-4.41693E-4],"split_indices":[7,4,3,33,33,5,17,22,30,0,29,28,33,33,3,25,5,3,14,0,0,8,31,30,33,18,29,1,31,33,11,17,7,2,1,7,14,31,14,0,0,0,0,1,8,5,19,1,0,0,7,2,30,0,0,0,0,16,4,33,33,0,0,0,0,0,0,0,0,0,0,0,0,0,0,0,0,0,0,0,0,0,0,0,0,0,0,0,0,0,0,0,0,0,0,0,0,0,0,0,0,0,0,0,0,0,0,0,0,0,0,0,0],"split_type":[0,0,0,1,1,0,0,0,1,0,1,0,1,1,0,0,0,0,0,0,0,0,1,1,1,0,1,0,1,1,0,0,0,0,0,0,0,1,0,0,0,0,0,0,0,0,0,0,0,0,0,0,1,0,0,0,0,0,0,1,1,0,0,0,0,0,0,0,0,0,0,0,0,0,0,0,0,0,0,0,0,0,0,0,0,0,0,0,0,0,0,0,0,0,0,0,0,0,0,0,0,0,0,0,0,0,0,0,0,0,0,0,0],"sum_hessian":[3.884E3,7.56E2,3.128E3,7.36E2,2E1,1.86E3,1.268E3,1.37E2,5.99E2,4E0,1.6E1,6.9E1,1.791E3,1.8E1,1.25E3,5.4E1,8.3E1,9.9E1,5E2,2E0,2E0,4E0,1.2E1,3.6E1,3.3E1,3.07E2,1.484E3,3E0,1.5E1,2.7E2,9.8E2,2.7E1,2.7E1,2.3E1,6E1,1.3E1,8.6E1,4E0,4.96E2,1E0,1E0,1E0,3E0,2E0,1E1,6E0,3E1,7E0,2.6E1,1E1,2.97E2,3.1E2,1.174E3,1E0,2E0,3E0,1.2E1,4.9E1,2.21E2,1.02E2,8.78E2,1E0,2.6E1,2.6E1,1E0,2.2E1,1E0,5.7E1,3E0,5E0,8E0,8E1,6E0,1E0,3E0,4.51E2,4.5E1,1E0,2E0,1E0,1E0,3E0,7E0,5E0,1E0,2E1,1E1,5E0,2E0,1.6E1,1E1,3E0,7E0,2.9E2,7E0,2.07E2,1.03E2,2.83E2,8.91E2,1E0,1E0,2E0,1E0,4E0,8E0,1.2E1,3.7E1,1.5E1,2.06E2,1.8E1,8.4E1,1.68E2,7.1E2],"tree_param":{"num_deleted":"0","num_feature":"35","num_nodes":"113","size_leaf_vector":"1"}},{"base_weights":[1.7628838E-5,-2.4753266E-3,1.7979894E-3,5.924654E-4,-5.4431944E-3,4.904787E-3,-1.549439E-3,3.0739013E-2,-3.8328645E-4,-1.7577823E-2,-2.6681698E-3,1.9535203E-2,1.7775696E-3,-3.493763E-4,-2.1826738E-2,1.07672244E-1,1.0957816E-2,-1.373532E-3,2.9299801E-2,-1.4283283E-2,-4.1018587E-2,-2.6363594E-2,-1.5567509E-3,1.4085874E-2,1.06912956E-1,3.5589308E-2,5.578486E-5,3.235295E-2,-9.6179725E-4,-4.1508444E-2,-1.715369E-2,1.30643435E-2,4.077178E-2,6.40012E-2,-5.287757E-3,-2.231051E-3,3.568147E-2,9.749397E-2,1.1667865E-2,-2.0492349E-2,5.8828667E-2,-5.2905522E-2,-2.0245394E-2,-6.218188E-3,1.2977538E-3,-4.6309255E-2,1.6618164E-2,1.2680878E-2,5.9709467E-2,9.166437E-2,1.795647E-2,1.0550638E-2,-1.3461695E-3,8.312961E-2,1.7636728E-2,3.797591E-2,-1.4660172E-3,8.816742E-3,-1.03662014E-1,-1.194345E-2,-3.5014246E-2,-3.4642185E-3,3.546482E-2,2.2789026E-3,-1.13186585E-2,8.20745E-3,-9.042653E-4,4.650525E-2,-2.889644E-4,3.3421695E-2,6.2770937E-3,2.1009542E-2,-1.8553038E-3,-2.719561E-3,-2.0942347E-2,4.654796E-3,4.247251E-2,-2.3740482E-2,-2.7122826E-3,-3.6562437E-3,-6.475077E-3,-2.1954447E-3,5.3238827E-3,5.2568074E-3,-7.167564E-4,3.880081E-3,3.0200258E-2,3.4786303E-2,-7.1571264E-3,-3.8205518E-3,3.488379E-2,-6.444014E-3,7.884675E-3,1.1351147E-2,9.647066E-4,2.1078312E-3,-9.96012E-4,5.0244484E-2,-2.4447852E-4,-2.6243636E-3,7.3195198E-3,2.7350819E-2,6.0048723E-3,5.5335327E-3,-6.298604E-4,-1.3133154E-2,7.463578E-3,-3.4876686E-2,-7.993139E-3,-4.8342724E-3,-2.1611773E-3,-4.024934E-3,-1.1496913E-2],"categories":[0,0,0,0,0,0,0,0,0,0,0,0,0,0,0,0,0,0,0],"categories_nodes":[4,5,7,14,16,18,27,36,38,41,42,44,49,50,51,52,54,55,60],"categories_segments":[0,1,2,3,4,5,6,7,8,9,10,11,12,13,14,15,16,17,18],"categories_sizes":[1,1,1,1,1,1,1,1,1,1,1,1,1,1,1,1,1,1,1],"default_left":[0,0,0,0,1,1,0,1,0,0,0,0,0,0,1,0,1,0,1,0,0,0,0,0,0,0,0,1,0,0,0,0,0,0,0,0,1,0,1,0,0,1,1,0,1,0,0,0,0,1,1,1,1,0,1,1,0,0,0,0,1,0,0,0,0,0,0,0,0,0,0,0,0,0,0,0,0,0,0,0,0,0,0,0,0,0,0,0,0,0,0,0,0,0,0,0,0,0,0,0,0,0,0,0,0,0,0,0,0,0,0,0,0],"id":9,"left_children":[1,3,5,7,9,11,13,15,17,19,21,23,25,27,29,31,33,35,37,39,-1,41,43,45,47,49,51,53,55,57,59,-1,-1,61,63,65,67,69,71,73,75,77,79,81,83,-1,85,87,-1,89,91,93,95,97,99,101,103,105,107,109,111,-1,-1,-1,-1,-1,-1,-1,-1,-1,-1,-1,-1,-1,-1,-1,-1,-1,-1,-1,-1,-1,-1,-1,-1,-1,-1,-1,-1,-1,-1,-1,-1,-1,-1,-1,-1,-1,-1,-1,-1,-1,-1,-1,-1,-1,-1,-1,-1,-1,-1,-1,-1],"loss_changes":[1.7247478E-2,1.4743898E-2,2.3583906E-2,2.3455974E-2,2.7666712E-2,5.3770196E-2,2.6565135E-2,3.6865935E-2,2.2761455E-2,5.8106765E-2,1.7630108E-2,9.705708E-2,5.646806E-2,2.0699589E-2,4.8983656E-3,3.1339377E-3,1.8434547E-2,2.3879359E-2,2.8922332E-2,6.929907E-2,0E0,3.8005728E-3,8.550581E-3,8.617188E-2,1.0164243E-1,4.4825863E-2,1.3609297E-2,1.2731437E-2,1.9963708E-2,3.532075E-2,4.3277554E-3,0E0,0E0,2.184437E-2,7.3921653E-3,1.706848E-2,7.4490845E-2,2.9950961E-3,2.2313535E-2,7.769854E-2,4.0810928E-2,5.0372547E-3,1.7310493E-5,6.561704E-3,2.3910204E-2,0E0,5.8776896E-2,2.9180147E-2,0E0,2.9748484E-2,1.2713111E-2,2.1694157E-2,1.3508365E-2,2.8460043E-2,3.0678986E-3,1.0594517E-2,1.2677999E-2,7.002404E-3,1.752194E-3,6.9438433E-4,2.7193036E-4,0E0,0E0,0E0,0E0,0E0,0E0,0E0,0E0,0E0,0E0,0E0,0E0,0E0,0E0,0E0,0E0,0E0,0E0,0E0,0E0,0E0,0E0,0E0,0E0,0E0,0E0,0E0,0E0,0E0,0E0,0E0,0E0,0E0,0E0,0E0,0E0,0E0,0E0,0E0,0E0,0E0,0E0,0E0,0E0,0E0,0E0,0E0,0E0,0E0,0E0,0E0,0E0],"parents":[2147483647,0,0,1,1,2,2,3,3,4,4,5,5,6,6,7,7,8,8,9,9,10,10,11,11,12,12,13,13,14,14,15,15,16,16,17,17,18,18,19,19,21,21,22,22,23,23,24,24,25,25,26,26,27,27,28,28,29,29,30,30,33,33,34,34,35,35,36,36,37,37,38,38,39,39,40,40,41,41,42,42,43,43,44,44,46,46,47,47,49,49,50,50,51,51,52,52,53,53,54,54,55,55,56,56,57,57,58,58,59,59,60,60],"right_children":[2,4,6,8,10,12,14,16,18,20,22,24,26,28,30,32,34,36,38,40,-1,42,44,46,48,50,52,54,56,58,60,-1,-1,62,64,66,68,70,72,74,76,78,80,82,84,-1,86,88,-1,90,92,94,96,98,100,102,104,106,108,110,112,-1,-1,-1,-1,-1,-1,-1,-1,-1,-1,-1,-1,-1,-1,-1,-1,-1,-1,-1,-1,-1,-1,-1,-1,-1,-1,-1,-1,-1,-1,-1,-1,-1,-1,-1,-1,-1,-1,-1,-1,-1,-1,-1,-1,-1,-1,-1,-1,-1,-1,-1,-1],"split_conditions":[-1.3386647E-1,3.5699213E-1,1.504156E-1,-5.6636524E-1,NaN,NaN,1.10166664E2,NaN,6.087963E-1,7.825E2,3.5974586E-1,1.4951456E-1,2.1641052E-8,1.9928057E0,NaN,3.1E2,NaN,8.33268E-2,NaN,9.528679E-2,-4.1018587E-2,6.3666668E1,5.6251466E-1,1.6315628E-2,5.12E2,3.1410549E0,4.4878572E-1,NaN,1.5082502E-1,4.7674417E-1,4.467452E-2,1.30643435E-2,4.077178E-2,3.362042E-1,-1.9207712E-3,1.8308735E-1,NaN,3.82E2,NaN,8.066454E-1,8.110759E0,NaN,NaN,6.2947065E-2,NaN,-4.6309255E-2,6.7716646E-1,-3.0450388E-5,5.9709467E-2,NaN,NaN,NaN,NaN,8.7E1,NaN,NaN,2.9354482E-3,1.5053178E-1,1.5855494E-1,9.45E2,NaN,-3.4642185E-3,3.546482E-2,2.2789026E-3,-1.13186585E-2,8.20745E-3,-9.042653E-4,4.650525E-2,-2.889644E-4,3.3421695E-2,6.2770937E-3,2.1009542E-2,-1.8553038E-3,-2.719561E-3,-2.0942347E-2,4.654796E-3,4.247251E-2,-2.3740482E-2,-2.7122826E-3,-3.6562437E-3,-6.475077E-3,-2.1954447E-3,5.3238827E-3,5.2568074E-3,-7.167564E-4,3.880081E-3,3.0200258E-2,3.4786303E-2,-7.1571264E-3,-3.8205518E-3,3.488379E-2,-6.444014E-3,7.884675E-3,1.1351147E-2,9.647066E-4,2.1078312E-3,-9.96012E-4,5.0244484E-2,-2.4447852E-4,-2.6243636E-3,7.3195198E-3,2.7350819E-2,6.0048723E-3,5.5335327E-3,-6.298604E-4,-1.3133154E-2,7.463578E-3,-3.4876686E-2,-7.993139E-3,-4.8342724E-3,-2.1611773E-3,-4.024934E-3,-1.1496913E-2],"split_indices":[6,18,3,6,33,33,15,33,20,2,18,3,5,17,33,1,31,4,31,14,0,2,25,18,0,8,10,33,3,24,14,0,0,5,11,25,33,1,33,25,8,31,29,4,31,0,7,11,0,29,34,32,31,1,31,33,14,3,4,0,30,0,0,0,0,0,0,0,0,0,0,0,0,0,0,0,0,0,0,0,0,0,0,0,0,0,0,0,0,0,0,0,0,0,0,0,0,0,0,0,0,0,0,0,0,0,0,0,0,0,0,0,0],"split_type":[0,0,0,0,1,1,0,1,0,0,0,0,0,0,1,0,1,0,1,0,0,0,0,0,0,0,0,1,0,0,0,0,0,0,0,0,1,0,1,0,0,1,1,0,1,0,0,0,0,1,1,1,1,0,1,1,0,0,0,0,1,0,0,0,0,0,0,0,0,0,0,0,0,0,0,0,0,0,0,0,0,0,0,0,0,0,0,0,0,0,0,0,0,0,0,0,0,0,0,0,0,0,0,0,0,0,0,0,0,0,0,0,0],"sum_hessian":[3.884E3,1.618E3,2.266E3,7.96E2,8.22E2,1.175E3,1.091E3,2.4E1,7.72E2,1.52E2,6.7E2,2.06E2,9.69E2,1.031E3,6E1,4E0,2E1,7.48E2,2.4E1,1.49E2,3E0,2.9E1,6.41E2,1.95E2,1.1E1,4.6E1,9.23E2,1.8E1,1.013E3,1E1,5E1,2E0,2E0,4E0,1.6E1,7.32E2,1.6E1,4E0,2E1,1.38E2,1.1E1,4E0,2.5E1,2.43E2,3.98E2,2E0,1.93E2,6E0,5E0,1E1,3.6E1,1.08E2,8.15E2,3E0,1.5E1,1.2E1,1.001E3,6E0,4E0,4E1,1E1,2E0,2E0,1.2E1,4E0,1.8E1,7.14E2,3E0,1.3E1,3E0,1E0,4E0,1.6E1,1.13E2,2.5E1,8E0,3E0,2E0,2E0,5E0,2E1,2.33E2,1E1,7.3E1,3.25E2,1.86E2,7E0,1E0,5E0,2E0,8E0,6E0,3E1,2.2E1,8.6E1,1.55E2,6.6E2,1E0,2E0,3E0,1.2E1,2E0,1E1,3E1,9.71E2,1E0,5E0,3E0,1E0,2E1,2E1,2E0,8E0],"tree_param":{"num_deleted":"0","num_feature":"35","num_nodes":"113","size_leaf_vector":"1"}},{"base_weights":[8.586394E-5,-2.8177086E-2,2.2470806E-4,-8.914702E-4,-3.3237424E-2,-1.0403577E-2,5.415726E-4,-7.1226107E-4,5.335095E-4,-1.1551489E-2,-3.7353292E-2,-3.8075536E-2,-4.3407516E-3,2.2829762E-3,-2.0103275E-3,-5.0496045E-3,6.435129E-4,-1.5719894E-2,-4.2271324E-2,-5.0377123E-2,2.934819E-2,-6.615963E-4,-1.1449488E-1,-2.45023E-3,4.0634484E-3,6.1913477E-3,-3.5405934E-3,-6.78561E-3,7.4647815E-4,-2.6003689E-2,-1.8051555E-2,5.015363E-3,-7.632868E-2,7.88636E-3,-4.9947943E-3,9.063395E-3,-6.058609E-2,3.3580706E-2,-3.1056213E-3,7.310994E-3,-1.4858027E-3,2.8976116E-2,-7.3913E-4,3.4863893E-2,-3.8691494E-3,-2.8879282E-3,-9.188793E-3,1.0066533E-2,-3.9334674E-3,-2.6404317E-2,9.584973E-3,9.468979E-3,2.8241205E-4,-3.6375977E-3,-9.003259E-4,3.7228197E-2,-9.647372E-5,-4.6166874E-4,-3.2539356E-3,-1.8925659E-3,2.9021848E-3,1.1195408E-2,-7.023551E-4,2.8001362E-2,2.790478E-3,1.0856406E-2,-2.101539E-3,3.2273322E-2,2.0256543E-3,-2.2382278E-3,-1.3098602E-4],"categories":[0,0,0,0,0,0,0,0,0,0,0,0],"categories_nodes":[1,4,5,10,14,22,29,33,34,37,39,43],"categories_segments":[0,1,2,3,4,5,6,7,8,9,10,11],"categories_sizes":[1,1,1,1,1,1,1,1,1,1,1,1],"default_left":[0,1,0,0,1,1,0,0,0,0,1,0,0,0,1,0,0,0,0,0,0,0,1,0,0,0,0,0,0,1,0,0,0,1,1,0,0,1,0,1,0,0,0,1,0,0,0,0,0,0,0,0,0,0,0,0,0,0,0,0,0,0,0,0,0,0,0,0,0,0,0],"id":10,"left_children":[1,3,5,7,9,11,13,-1,-1,15,17,19,21,23,25,-1,-1,27,29,31,-1,33,35,37,39,41,43,-1,-1,45,-1,47,49,51,53,-1,-1,55,57,59,61,63,65,67,69,-1,-1,-1,-1,-1,-1,-1,-1,-1,-1,-1,-1,-1,-1,-1,-1,-1,-1,-1,-1,-1,-1,-1,-1,-1,-1],"loss_changes":[1.5251633E-2,2.5937827E-3,1.3028633E-2,2.0056812E-5,9.966195E-4,1.8624991E-2,1.6695833E-2,0E0,0E0,3.2540486E-4,7.186178E-4,3.836467E-2,3.7614744E-2,1.882821E-2,1.9149255E-2,0E0,0E0,5.587393E-4,1.3473015E-3,2.7695723E-2,0E0,3.41003E-3,4.4068757E-2,1.4532659E-2,2.925967E-2,3.7919655E-2,1.6349047E-2,0E0,0E0,2.3543462E-4,0E0,4.0613236E-3,1.9261107E-2,5.067797E-3,8.3079876E-4,0E0,0E0,3.3794582E-2,7.27209E-3,3.301579E-2,2.0002598E-2,7.004388E-2,4.305982E-2,2.1758828E-2,1.5715325E-2,0E0,0E0,0E0,0E0,0E0,0E0,0E0,0E0,0E0,0E0,0E0,0E0,0E0,0E0,0E0,0E0,0E0,0E0,0E0,0E0,0E0,0E0,0E0,0E0,0E0,0E0],"parents":[2147483647,0,0,1,1,2,2,3,3,4,4,5,5,6,6,9,9,10,10,11,11,12,12,13,13,14,14,17,17,18,18,19,19,21,21,22,22,23,23,24,24,25,25,26,26,29,29,31,31,32,32,33,33,34,34,37,37,38,38,39,39,40,40,41,41,42,42,43,43,44,44],"right_children":[2,4,6,8,10,12,14,-1,-1,16,18,20,22,24,26,-1,-1,28,30,32,-1,34,36,38,40,42,44,-1,-1,46,-1,48,50,52,54,-1,-1,56,58,60,62,64,66,68,70,-1,-1,-1,-1,-1,-1,-1,-1,-1,-1,-1,-1,-1,-1,-1,-1,-1,-1,-1,-1,-1,-1,-1,-1,-1,-1],"split_conditions":[3.3236048E-4,NaN,-3.1358027E-1,2.35E2,NaN,NaN,5.8953166E-2,-7.1226107E-4,5.335095E-4,2.35E2,NaN,4.3093905E-1,3.4020382E1,8.9344844E-2,NaN,-5.0496045E-3,6.435129E-4,2.35E2,2.35E2,6.850557E-1,2.934819E-2,2.0236224E-1,NaN,4.828345E-3,1.6755204E-1,9.191636E-3,1.9928057E0,-6.78561E-3,7.4647815E-4,NaN,-1.8051555E-2,9.714286E0,3.4020382E1,NaN,NaN,9.063395E-3,-6.058609E-2,NaN,5.258408E-1,NaN,-5.516438E-1,3.49E2,3.9E1,NaN,1.4303763E1,-2.8879282E-3,-9.188793E-3,1.0066533E-2,-3.9334674E-3,-2.6404317E-2,9.584973E-3,9.468979E-3,2.8241205E-4,-3.6375977E-3,-9.003259E-4,3.7228197E-2,-9.647372E-5,-4.6166874E-4,-3.2539356E-3,-1.8925659E-3,2.9021848E-3,1.1195408E-2,-7.023551E-4,2.8001362E-2,2.790478E-3,1.0856406E-2,-2.101539E-3,3.2273322E-2,2.0256543E-3,-2.2382278E-3,-1.3098602E-4],"split_indices":[3,29,11,0,34,33,14,0,0,0,32,3,15,28,31,0,0,0,0,25,0,18,29,18,3,3,17,0,0,33,0,2,15,31,31,0,0,30,5,30,7,1,1,33,17,0,0,0,0,0,0,0,0,0,0,0,0,0,0,0,0,0,0,0,0,0,0,0,0,0,0],"split_type":[0,1,0,0,1,1,0,0,0,0,1,0,0,0,1,0,0,0,0,0,0,0,1,0,0,0,0,0,0,1,0,0,0,1,1,0,0,1,0,1,0,0,0,1,0,0,0,0,0,0,0,0,0,0,0,0,0,0,0,0,0,0,0,0,0,0,0,0,0,0,0],"sum_hessian":[3.884E3,1.8E1,3.866E3,3E0,1.5E1,1.11E2,3.755E3,2E0,1E0,3E0,1.2E1,1.9E1,9.2E1,2.232E3,1.523E3,2E0,1E0,3E0,9E0,1.8E1,1E0,9E1,2E0,6.1E2,1.622E3,2.39E2,1.284E3,2E0,1E0,6E0,3E0,6E0,1.2E1,3E1,6E1,1E0,1E0,1E1,6E2,1.023E3,5.99E2,5.5E1,1.84E2,1E1,1.274E3,2E0,4E0,2E0,4E0,1.1E1,1E0,6E0,2.4E1,1.2E1,4.8E1,2E0,8E0,5E2,1E2,1.51E2,8.72E2,1.2E1,5.87E2,1.2E1,4.3E1,2.6E1,1.58E2,2E0,8E0,6.22E2,6.52E2],"tree_param":{"num_deleted":"0","num_feature":"35","num_nodes":"71","size_leaf_vector":"1"}},{"base_weights":[7.245897E-5,-3.6468427E-3,9.722477E-4,-1.529685E-3,-1.1292848E-2,-4.1841874E-3,2.0469592E-3,1.4428099E-2,-3.1196862E-3,1.2341464E-3,-1.3449148E-2,-4.4218213E-3,1.8585065E-2,3.0104255E-3,-5.207957E-3,-3.7221193E-2,2.701251E-2,-5.412559E-3,4.170954E-3,1.5816912E-2,-2.2967097E-3,-2.7485529E-2,-9.852087E-3,-1.4764257E-3,-8.7856045E-3,1.1431081E-5,7.5984765E-3,-6.78419E-3,3.739391E-2,-1.8343428E-2,1.408697E-2,6.1407737E-2,1.5090158E-2,-1.1921371E-2,-2.7596296E-3,2.6029518E-2,-1.5439701E-3,-2.716506E-2,1.6057976E-2,5.820817E-3,-4.549117E-3,-1.5145549E-2,-2.106236E-2,-5.186438E-3,-2.5264591E-2,-3.0499848E-3,2.3861047E-2,1.2351756E-2,-9.441831E-3,-9.054829E-3,1.6317742E-3,2.2684172E-2,4.073609E-3,1.339534E-2,-8.709408E-3,2.0637523E-2,2.2773089E-2,-1.966691E-3,3.0354142E-2,1.0148004E-3,1.4170534E-2,-1.0735926E-2,-1.6546823E-3,3.0929456E-4,-4.6119E-3,-8.080587E-3,1.6202498E-2,-9.1455237E-4,7.061469E-3,-1.1038466E-2,-1.1858119E-3,-4.2365487E-3,7.146957E-3,-3.897918E-4,-2.188041E-3,-9.1171535E-3,-3.2427715E-4,-4.8798905E-4,-2.612783E-3,-3.25684E-2,-4.139942E-3,-5.8752374E-4,-4.264982E-3,1.6770093E-2,-3.169296E-3,-3.8048776E-3,-1.3298145E-3,1.2562328E-2,-3.1503814E-3,5.88353E-4,-1.8862104E-2,-6.028587E-3,9.803176E-3,1.3014079E-4,4.282241E-3,2.309709E-2,-1.6237566E-3,-6.9788205E-3,-1.1874859E-3,1.2216773E-2,8.069549E-5],"categories":[0,0,0,0,0,0,0,0,0,0,0,0,0],"categories_nodes":[2,7,9,10,16,18,20,28,33,44,51,53,54],"categories_segments":[0,1,2,3,4,5,6,7,8,9,10,11,12],"categories_sizes":[1,1,1,1,1,1,1,1,1,1,1,1,1],"default_left":[0,0,1,0,0,0,0,1,0,1,1,0,0,0,0,0,1,0,1,0,1,0,0,0,0,0,0,0,1,0,0,0,0,1,0,0,0,0,0,0,0,0,0,0,1,0,0,0,0,0,0,1,0,1,1,0,0,0,0,0,0,0,0,0,0,0,0,0,0,0,0,0,0,0,0,0,0,0,0,0,0,0,0,0,0,0,0,0,0,0,0,0,0,0,0,0,0,0,0,0,0],"id":11,"left_children":[1,3,5,7,9,11,13,15,17,19,21,23,-1,25,27,29,31,33,35,37,39,41,43,45,47,49,51,53,55,-1,-1,57,59,61,63,65,67,69,-1,71,73,75,-1,77,79,81,83,-1,85,87,89,91,93,95,97,-1,99,-1,-1,-1,-1,-1,-1,-1,-1,-1,-1,-1,-1,-1,-1,-1,-1,-1,-1,-1,-1,-1,-1,-1,-1,-1,-1,-1,-1,-1,-1,-1,-1,-1,-1,-1,-1,-1,-1,-1,-1,-1,-1,-1,-1],"loss_changes":[1.3005031E-2,1.22368885E-2,1.7348483E-2,1.5116511E-2,4.4465605E-3,8.760448E-3,1.8119436E-2,3.610414E-2,9.066209E-3,1.323568E-3,6.797772E-3,6.9148326E-3,0E0,3.146798E-2,2.0667432E-2,2.50233E-2,1.7116513E-2,7.0812777E-3,1.6279794E-2,9.558233E-3,4.1044306E-4,1.3698062E-2,7.994722E-3,1.2950789E-2,7.5028446E-3,2.034636E-2,4.7977854E-2,1.1538563E-2,3.4830822E-3,0E0,0E0,3.0397285E-2,1.2635669E-2,1.7994607E-2,1.407269E-2,4.1465815E-2,3.9964155E-3,5.2515324E-4,0E0,2.1315017E-3,1.4214023E-4,4.898687E-3,0E0,1.0894085E-3,2.3331326E-2,3.6898572E-3,2.154685E-2,0E0,3.434306E-3,1.5909648E-2,2.509001E-2,7.375891E-2,2.7245717E-2,3.1514928E-2,1.8507821E-2,0E0,3.6244793E-3,0E0,0E0,0E0,0E0,0E0,0E0,0E0,0E0,0E0,0E0,0E0,0E0,0E0,0E0,0E0,0E0,0E0,0E0,0E0,0E0,0E0,0E0,0E0,0E0,0E0,0E0,0E0,0E0,0E0,0E0,0E0,0E0,0E0,0E0,0E0,0E0,0E0,0E0,0E0,0E0,0E0,0E0,0E0,0E0],"parents":[2147483647,0,0,1,1,2,2,3,3,4,4,5,5,6,6,7,7,8,8,9,9,10,10,11,11,13,13,14,14,15,15,16,16,17,17,18,18,19,19,20,20,21,21,22,22,23,23,24,24,25,25,26,26,27,27,28,28,31,31,32,32,33,33,34,34,35,35,36,36,37,37,39,39,40,40,41,41,43,43,44,44,45,45,46,46,48,48,49,49,50,50,51,51,52,52,53,53,54,54,56,56],"right_children":[2,4,6,8,10,12,14,16,18,20,22,24,-1,26,28,30,32,34,36,38,40,42,44,46,48,50,52,54,56,-1,-1,58,60,62,64,66,68,70,-1,72,74,76,-1,78,80,82,84,-1,86,88,90,92,94,96,98,-1,100,-1,-1,-1,-1,-1,-1,-1,-1,-1,-1,-1,-1,-1,-1,-1,-1,-1,-1,-1,-1,-1,-1,-1,-1,-1,-1,-1,-1,-1,-1,-1,-1,-1,-1,-1,-1,-1,-1,-1,-1,-1,-1,-1,-1],"split_conditions":[-4.6426642E-1,-5.2566063E-1,NaN,4.441632E-1,-3.355914E-1,4.767E3,2.3242567E0,NaN,1.5014169E0,NaN,NaN,6.1141163E-1,1.8585065E-2,4.3895984E-1,1.7607509E-1,1.76E2,NaN,7.8576937E0,NaN,3.4899354E-2,NaN,1.6022108E0,3.65E2,5.442946E-1,2.4E1,1.2021909E-1,4.4350408E-2,3.2244872E-2,NaN,-1.8343428E-2,1.408697E-2,3.7E2,4.3485828E-2,NaN,6.2146366E-1,-8.64075E-1,1.4729722E-1,9.8E1,1.6057976E-2,1.5708913E0,1.5708913E0,-2.3584401E-2,-2.106236E-2,-9.149797E-2,NaN,8.4236646E-1,2.011121E-3,1.2351756E-2,1.27791245E2,2.4899237E-2,4.3633276E-1,NaN,3.0713317E-1,NaN,NaN,2.0637523E-2,6.93E3,-1.966691E-3,3.0354142E-2,1.0148004E-3,1.4170534E-2,-1.0735926E-2,-1.6546823E-3,3.0929456E-4,-4.6119E-3,-8.080587E-3,1.6202498E-2,-9.1455237E-4,7.061469E-3,-1.1038466E-2,-1.1858119E-3,-4.2365487E-3,7.146957E-3,-3.897918E-4,-2.188041E-3,-9.1171535E-3,-3.2427715E-4,-4.8798905E-4,-2.612783E-3,-3.25684E-2,-4.139942E-3,-5.8752374E-4,-4.264982E-3,1.6770093E-2,-3.169296E-3,-3.8048776E-3,-1.3298145E-3,1.2562328E-2,-3.1503814E-3,5.88353E-4,-1.8862104E-2,-6.028587E-3,9.803176E-3,1.3014079E-4,4.282241E-3,2.309709E-2,-1.6237566E-3,-6.9788205E-3,-1.1874859E-3,1.2216773E-2,8.069549E-5],"split_indices":[7,7,29,10,11,0,28,31,28,33,33,28,0,28,6,0,34,8,31,3,31,23,1,28,0,12,3,18,33,0,0,1,3,33,28,6,5,1,0,26,26,20,0,19,30,18,11,0,13,14,28,30,5,33,33,0,1,0,0,0,0,0,0,0,0,0,0,0,0,0,0,0,0,0,0,0,0,0,0,0,0,0,0,0,0,0,0,0,0,0,0,0,0,0,0,0,0,0,0,0,0],"split_type":[0,0,1,0,0,0,0,1,0,1,1,0,0,0,0,0,1,0,1,0,1,0,0,0,0,0,0,0,1,0,0,0,0,1,0,0,0,0,0,0,0,0,0,0,1,0,0,0,0,0,0,1,0,1,1,0,0,0,0,0,0,0,0,0,0,0,0,0,0,0,0,0,0,0,0,0,0,0,0,0,0,0,0,0,0,0,0,0,0,0,0,0,0,0,0,0,0,0,0,0,0],"sum_hessian":[3.884E3,7.56E2,3.128E3,5.93E2,1.63E2,5.39E2,2.589E3,5.3E1,5.4E2,2.4E1,1.39E2,5.38E2,1E0,2.286E3,3.03E2,1E1,4.3E1,4.11E2,1.29E2,4E0,2E1,2.7E1,1.12E2,3.22E2,2.16E2,1.383E3,9.03E2,2.93E2,1E1,8E0,2E0,1E1,3.3E1,1.18E2,2.93E2,2.6E1,1.03E2,2E0,2E0,4E0,1.6E1,2.2E1,5E0,8.7E1,2.5E1,3.04E2,1.8E1,2E0,2.14E2,2.09E2,1.174E3,1.7E2,7.33E2,2.5E1,2.68E2,2E0,8E0,4E0,6E0,2.5E1,8E0,2.4E1,9.4E1,2.26E2,6.7E1,9E0,1.7E1,9.8E1,5E0,1E0,1E0,2E0,2E0,8E0,8E0,1E1,1.2E1,4.4E1,4.3E1,2E0,2.3E1,2.78E2,2.6E1,9E0,9E0,1.29E2,8.5E1,5E0,2.04E2,1.169E3,5E0,3.2E1,1.38E2,5.41E2,1.92E2,5E0,2E1,6.5E1,2.03E2,4E0,4E0],"tree_param":{"num_deleted":"0","num_feature":"35","num_nodes":"101","size_leaf_vector":"1"}},{"base_weights":[6.381349E-5,-2.2188066E-2,1.7312869E-4,-6.764834E-4,-2.6179207E-2,3.044002E-4,-1.7836003E-2,-6.3166773E-4,5.416116E-4,-1.19537795E-2,-1.9960277E-2,2.3889611E-4,3.6138434E-2,-4.9528435E-2,-8.792933E-3,-2.9900473E-2,-1.3988172E-2,3.488384E-3,-4.653041E-4,3.4879263E-2,3.4067717E-3,-1.9628761E-2,-3.5453783E-3,-2.0318106E-2,-4.4627124E-3,-1.3567195E-3,-1.105571E-2,-5.127467E-3,-5.0602034E-3,2.6877772E-3,4.4543665E-2,-4.9105576E-5,-8.299475E-3,2.9310493E-2,-3.499253E-2,-1.7355287E-3,-2.2067688E-2,-5.7105613E-3,-2.792006E-4,-4.0411083E-3,6.6999096E-4,-1.4307175E-3,1.8933793E-3,2.7199548E-2,1.3153779E-3,-6.1977224E-4,6.01327E-4,-8.689677E-3,-4.7097122E-4,-1.8105493E-3,-1.2216924E-2,-1.999162E-3,-7.275803E-3,2.1318258E-3,-8.153087E-4],"categories":[0,0,0,0,0,0,0,0,0,0,0,0,0],"categories_nodes":[1,4,6,10,11,12,20,23,24,28,34,36,38],"categories_segments":[0,1,2,3,4,5,6,7,8,9,10,11,12],"categories_sizes":[1,1,1,1,1,1,1,1,1,1,1,1,1],"default_left":[0,1,0,0,1,0,1,0,0,0,1,1,1,0,0,0,0,0,0,0,1,0,0,1,1,0,0,0,1,0,0,0,0,0,1,0,1,0,1,0,0,0,0,0,0,0,0,0,0,0,0,0,0,0,0],"id":12,"left_children":[1,3,5,7,9,11,13,-1,-1,-1,15,17,19,21,23,25,27,29,31,-1,33,-1,-1,35,37,-1,-1,-1,39,41,43,45,47,-1,49,-1,51,-1,53,-1,-1,-1,-1,-1,-1,-1,-1,-1,-1,-1,-1,-1,-1,-1,-1],"loss_changes":[9.453982E-3,1.6135508E-3,9.147348E-3,1.7988354E-5,5.645426E-4,9.004904E-3,7.5892117E-3,0E0,0E0,0E0,3.5347743E-4,8.774927E-3,1.7962461E-2,2.8245188E-3,1.0571766E-3,5.390416E-4,1.9058259E-4,2.2329891E-2,1.0276908E-2,0E0,2.514397E-2,0E0,0E0,2.489658E-5,1.0920408E-3,0E0,0E0,0E0,2.7544156E-4,1.8160349E-2,2.3681026E-2,1.2403973E-2,2.2067305E-2,0E0,5.839374E-4,0E0,6.6687353E-6,0E0,2.8944694E-4,0E0,0E0,0E0,0E0,0E0,0E0,0E0,0E0,0E0,0E0,0E0,0E0,0E0,0E0,0E0,0E0],"parents":[2147483647,0,0,1,1,2,2,3,3,4,4,5,5,6,6,10,10,11,11,12,12,13,13,14,14,15,15,16,16,17,17,18,18,20,20,23,23,24,24,28,28,29,29,30,30,31,31,32,32,34,34,36,36,38,38],"right_children":[2,4,6,8,10,12,14,-1,-1,-1,16,18,20,22,24,26,28,30,32,-1,34,-1,-1,36,38,-1,-1,-1,40,42,44,46,48,-1,50,-1,52,-1,54,-1,-1,-1,-1,-1,-1,-1,-1,-1,-1,-1,-1,-1,-1,-1,-1],"split_conditions":[3.3236048E-4,NaN,2.6104572E2,2.35E2,NaN,8.575388E-1,NaN,-6.3166773E-4,5.416116E-4,-1.19537795E-2,NaN,NaN,NaN,4.7168716E2,1.8E1,3.2E1,2.35E2,1.2542858E3,9.0747267E-1,3.4879263E-2,NaN,-1.9628761E-2,-3.5453783E-3,NaN,NaN,-1.3567195E-3,-1.105571E-2,-5.127467E-3,NaN,2.2174218E-1,3.249E3,-2.063063E-2,-4.9899193E-3,2.9310493E-2,NaN,-1.7355287E-3,NaN,-5.7105613E-3,NaN,-4.0411083E-3,6.6999096E-4,-1.4307175E-3,1.8933793E-3,2.7199548E-2,1.3153779E-3,-6.1977224E-4,6.01327E-4,-8.689677E-3,-4.7097122E-4,-1.8105493E-3,-1.2216924E-2,-1.999162E-3,-7.275803E-3,2.1318258E-3,-8.153087E-4],"split_indices":[3,29,8,0,31,24,33,0,0,0,30,32,31,15,1,1,0,2,5,0,33,0,0,29,31,0,0,0,33,28,1,19,19,0,29,0,30,0,30,0,0,0,0,0,0,0,0,0,0,0,0,0,0,0,0],"split_type":[0,1,0,0,1,0,1,0,0,0,1,1,1,0,0,0,0,0,0,0,1,0,0,1,1,0,0,0,1,0,0,0,0,0,1,0,1,0,1,0,0,0,0,0,0,0,0,0,0,0,0,0,0,0,0],"sum_hessian":[3.884E3,1.8E1,3.866E3,3E0,1.5E1,3.839E3,2.7E1,2E0,1E0,3E0,1.2E1,3.833E3,6E0,5E0,2.2E1,3E0,9E0,6.82E2,3.151E3,1E0,5E0,3E0,2E0,5E0,1.7E1,1E0,2E0,6E0,3E0,6.7E2,1.2E1,2.993E3,1.58E2,1E0,4E0,1E0,4E0,3E0,1.4E1,1E0,2E0,2.19E2,4.51E2,5E0,7E0,1.51E3,1.483E3,3.8E1,1.2E2,1E0,3E0,1E0,3E0,3E0,1.1E1],"tree_param":{"num_deleted":"0","num_feature":"35","num_nodes":"55","size_leaf_vector":"1"}},{"base_weights":[4.4264572E-5,1.0450609E-3,-1.9721142E-3,-7.50431E-4,7.1008196E-3,-1.5705028E-3,-3.0243091E-2,-5.8104657E-4,-2.6647612E-2,-9.421566E-3,9.916463E-3,-4.670339E-4,-1.0012241E-2,-2.3884168E-3,-3.2530718E-2,-5.4420545E-3,2.6045865E-4,-1.3344042E-1,4.900211E-3,2.3929102E-3,-7.685726E-2,2.4594467E-2,2.720137E-3,6.3356286E-4,-1.164273E-2,-1.7685818E-2,-5.366445E-3,-1.3347653E-2,-3.5930835E-2,-2.1045236E-2,-2.0807069E-3,6.719495E-5,2.5320105E-2,-5.1444776E-2,-8.603418E-3,-5.5411546E-3,7.836198E-3,-1.1799933E-2,7.4190525E-3,-3.0393174E-3,-9.586202E-2,-1.6008925E-2,3.471328E-2,-3.4394957E-2,4.647243E-3,-1.2994774E-3,4.35465E-3,-2.6832737E-2,-8.025225E-3,-7.614114E-3,-3.6368303E-2,-3.178412E-2,-2.1575973E-3,-8.153849E-3,4.222182E-3,-5.3208726E-3,-1.1884677E-2,8.162754E-3,-1.35781495E-2,3.7446413E-3,-1.0328296E-3,1.0210228E-2,-2.228687E-5,2.7608866E-2,1.4474376E-3,2.4516787E-3,-4.9451985E-3,-1.4626794E-5,3.0288023E-3,-5.5692187E-3,2.1231135E-3,3.1685156E-3,-3.8271474E-3,-3.4800977E-2,-1.0994807E-2,-6.8446468E-3,5.8672857E-3,-6.476211E-4,1.3211284E-2,-3.0808337E-2,-1.6440463E-3,-6.9321566E-3,2.049083E-3,3.1255532E-4,-3.01006E-3,1.7917316E-4,3.7102066E-3,-1.8873394E-2,-1.6025271E-3,1.396593E-3,-3.4085878E-3,1.0880989E-2,-5.183342E-3,-3.5525452E-2,-4.074846E-3,-2.1594837E-2,2.1036363E-3,2.9730997E-3,-2.2317297E-3],"categories":[0,0,0,0,0,0,0,0,0,0,0,0,0,0,0],"categories_nodes":[4,6,8,14,15,18,24,26,28,32,36,42,43,49,50],"categories_segments":[0,1,2,3,4,5,6,7,8,9,10,11,12,13,14],"categories_sizes":[1,1,1,1,1,1,1,1,1,1,1,1,1,1,1],"default_left":[0,0,0,0,1,0,1,0,1,0,0,0,0,0,1,1,0,0,1,0,0,0,0,0,1,0,1,0,1,0,0,0,1,0,0,0,1,0,0,0,0,0,1,1,0,0,0,0,0,1,1,0,0,0,0,0,0,0,0,0,0,0,0,0,0,0,0,0,0,0,0,0,0,0,0,0,0,0,0,0,0,0,0,0,0,0,0,0,0,0,0,0,0,0,0,0,0,0,0],"id":13,"left_children":[1,3,5,7,9,11,13,15,17,19,21,23,25,-1,27,29,31,33,35,37,39,41,43,45,47,49,51,53,55,57,59,61,63,-1,-1,65,67,69,71,-1,73,75,77,79,81,83,85,87,89,91,93,95,97,-1,-1,-1,-1,-1,-1,-1,-1,-1,-1,-1,-1,-1,-1,-1,-1,-1,-1,-1,-1,-1,-1,-1,-1,-1,-1,-1,-1,-1,-1,-1,-1,-1,-1,-1,-1,-1,-1,-1,-1,-1,-1,-1,-1,-1,-1],"loss_changes":[7.841931E-3,2.824268E-2,1.45877395E-2,8.775221E-3,2.7726984E-2,1.1844252E-2,6.585121E-4,8.149819E-3,4.4451937E-2,6.949833E-2,5.359197E-2,1.3857103E-2,5.1456206E-3,0E0,5.640015E-4,1.5375838E-2,8.22676E-3,7.03837E-3,3.8063445E-4,5.437688E-3,1.5514314E-2,6.9169015E-2,2.462129E-2,7.385689E-3,5.3346027E-3,1.0072133E-2,7.81506E-3,1.8996873E-3,1.6892329E-4,6.1993152E-2,4.862986E-3,8.1098955E-3,1.732998E-2,0E0,0E0,5.849027E-4,1.6085873E-4,2.6851054E-3,3.6855345E-3,0E0,7.674724E-3,8.677138E-3,4.6165198E-2,3.3009946E-2,1.9909794E-2,1.3834174E-2,1.0560164E-2,1.4395857E-2,3.564754E-3,1.6317705E-2,3.391292E-2,1.6100325E-2,5.427614E-3,0E0,0E0,0E0,0E0,0E0,0E0,0E0,0E0,0E0,0E0,0E0,0E0,0E0,0E0,0E0,0E0,0E0,0E0,0E0,0E0,0E0,0E0,0E0,0E0,0E0,0E0,0E0,0E0,0E0,0E0,0E0,0E0,0E0,0E0,0E0,0E0,0E0,0E0,0E0,0E0,0E0,0E0,0E0,0E0,0E0,0E0],"parents":[2147483647,0,0,1,1,2,2,3,3,4,4,5,5,6,6,7,7,8,8,9,9,10,10,11,11,12,12,14,14,15,15,16,16,17,17,18,18,19,19,20,20,21,21,22,22,23,23,24,24,25,25,26,26,27,27,28,28,29,29,30,30,31,31,32,32,35,35,36,36,37,37,38,38,40,40,41,41,42,42,43,43,44,44,45,45,46,46,47,47,48,48,49,49,50,50,51,51,52,52],"right_children":[2,4,6,8,10,12,14,16,18,20,22,24,26,-1,28,30,32,34,36,38,40,42,44,46,48,50,52,54,56,58,60,62,64,-1,-1,66,68,70,72,-1,74,76,78,80,82,84,86,88,90,92,94,96,98,-1,-1,-1,-1,-1,-1,-1,-1,-1,-1,-1,-1,-1,-1,-1,-1,-1,-1,-1,-1,-1,-1,-1,-1,-1,-1,-1,-1,-1,-1,-1,-1,-1,-1,-1,-1,-1,-1,-1,-1,-1,-1,-1,-1,-1,-1],"split_conditions":[1.0323138E0,4.3895984E-1,6.990817E-1,4.3633276E-1,NaN,1.0522378E2,NaN,-4.3974128E-1,NaN,5.5097854E-1,1.0294125E-1,9.0207255E-1,3.7969868E1,-2.3884168E-3,NaN,NaN,4.1201985E-1,3.01E2,NaN,9.9E1,1.155848E-3,1.2470533E-3,-2.5625435E-1,2.6026836E-1,NaN,1.1117703E0,NaN,1.31E2,NaN,8.968425E-2,1.661567E-1,-4.328677E-1,NaN,-5.1444776E-2,-8.603418E-3,3.01E2,NaN,5.817023E-2,1.4783981E-1,-3.0393174E-3,4.21E2,1.24E2,NaN,NaN,7.690791E-3,8.138578E-2,8.9080113E-1,1.4430357E1,9.098839E-1,NaN,NaN,1.1313211E-3,3.8368862E1,-8.153849E-3,4.222182E-3,-5.3208726E-3,-1.1884677E-2,8.162754E-3,-1.35781495E-2,3.7446413E-3,-1.0328296E-3,1.0210228E-2,-2.228687E-5,2.7608866E-2,1.4474376E-3,2.4516787E-3,-4.9451985E-3,-1.4626794E-5,3.0288023E-3,-5.5692187E-3,2.1231135E-3,3.1685156E-3,-3.8271474E-3,-3.4800977E-2,-1.0994807E-2,-6.8446468E-3,5.8672857E-3,-6.476211E-4,1.3211284E-2,-3.0808337E-2,-1.6440463E-3,-6.9321566E-3,2.049083E-3,3.1255532E-4,-3.01006E-3,1.7917316E-4,3.7102066E-3,-1.8873394E-2,-1.6025271E-3,1.396593E-3,-3.4085878E-3,1.0880989E-2,-5.183342E-3,-3.5525452E-2,-4.074846E-3,-2.1594837E-2,2.1036363E-3,2.9730997E-3,-2.2317297E-3],"split_indices":[28,28,5,28,30,15,30,6,33,20,3,12,17,0,32,33,28,0,31,1,4,4,11,5,31,10,30,0,29,28,18,6,33,0,0,0,29,14,7,0,1,2,29,31,5,14,10,15,12,33,33,3,8,0,0,0,0,0,0,0,0,0,0,0,0,0,0,0,0,0,0,0,0,0,0,0,0,0,0,0,0,0,0,0,0,0,0,0,0,0,0,0,0,0,0,0,0,0,0],"split_type":[0,0,0,0,1,0,1,0,1,0,0,0,0,0,1,1,0,0,1,0,0,0,0,0,1,0,1,0,1,0,0,0,1,0,0,0,1,0,0,0,0,0,1,1,0,0,0,0,0,1,1,0,0,0,0,0,0,0,0,0,0,0,0,0,0,0,0,0,0,0,0,0,0,0,0,0,0,0,0,0,0,0,0,0,0,0,0,0,0,0,0,0,0,0,0,0,0,0,0],"sum_hessian":[3.884E3,2.596E3,1.288E3,2.003E3,5.93E2,1.271E3,1.7E1,1.991E3,1.2E1,8.6E1,5.07E2,1.125E3,1.46E2,2E0,1.5E1,2.93E2,1.698E3,2E0,1E1,7.4E1,1.2E1,1.66E2,3.41E2,1.025E3,1E2,5.4E1,9.2E1,3E0,1.2E1,5.1E1,2.42E2,1.686E3,1.2E1,1E0,1E0,2E0,8E0,1.9E1,5.5E1,3E0,9E0,3.3E1,1.33E2,1.6E1,3.25E2,6.75E2,3.5E2,1.8E1,8.2E1,3.6E1,1.8E1,9E0,8.3E1,2E0,1E0,3E0,9E0,1.7E1,3.4E1,2E1,2.22E2,6E0,1.68E3,2E0,1E1,1E0,1E0,2E0,6E0,1.4E1,5E0,4.8E1,7E0,6E0,3E0,2.8E1,5E0,2.7E1,1.06E2,4E0,1.2E1,2.3E1,3.02E2,5.33E2,1.42E2,2.39E2,1.11E2,6E0,1.2E1,1.7E1,6.5E1,6E0,3E1,3E0,1.5E1,4E0,5E0,2.5E1,5.8E1],"tree_param":{"num_deleted":"0","num_feature":"35","num_nodes":"99","size_leaf_vector":"1"}},{"base_weights":[-2.027604E-5,-2.4466086E-3,5.8904773E-4,-1.2218664E-2,-7.727541E-4,1.0550351E-2,1.433711E-4,-3.22001E-2,-7.0904936E-3,-2.2247046E-5,-1.3195035E-2,2.5384782E-2,7.136198E-4,5.5042594E-5,3.7574176E-2,-4.769366E-2,-1.0962254E-2,-1.8935276E-2,-1.0537396E-3,-3.5870084E-4,2.9973384E-2,-4.27037E-2,-3.9026008E-3,7.7892547E-3,3.7620664E-2,-3.7028246E-2,2.137822E-3,-3.235631E-5,3.70294E-2,2.1592624E-2,1.9844733E-2,-7.072094E-2,-2.4461491E-2,2.0200694E-2,-2.0131875E-2,-1.4055772E-2,-1.0361021E-2,4.5051198E-3,-3.0437734E-3,-6.5443636E-4,2.5801761E-2,1.8231064E-2,1.4712213E-2,-1.3098586E-2,-2.9264322E-2,-9.230979E-3,-1.5454189E-3,2.0182896E-3,2.0691704E-2,7.499023E-2,2.754997E-2,1.5463847E-3,-1.8209096E-2,1.573367E-2,-7.7853724E-4,-1.1287083E-4,3.3972397E-2,2.8218413E-2,1.18471775E-2,2.0943202E-2,-4.1105887E-3,-8.48209E-3,-2.5462857E-2,-1.2688776E-3,-8.02426E-3,4.5831857E-4,8.631994E-3,-6.4492757E-3,-1.3809303E-3,-9.673851E-3,-1.3970673E-3,-3.7292575E-3,-1.4187339E-4,-3.36849E-4,3.8144381E-3,2.7665682E-2,-1.9127708E-4,9.777325E-3,1.3854667E-3,-4.4326074E-3,-4.5569357E-4,-8.0036564E-4,-3.6203638E-3,-1.1322048E-3,1.1307874E-3,-5.820759E-3,1.8503704E-3,-1.2763436E-3,7.6675448E-3,4.160373E-3,3.0625325E-2,1.3353172E-2,4.2503057E-3,8.3332925E-5,2.1693807E-2,4.2310273E-3,-1.3040444E-3,5.3803814E-3,-7.629264E-5,3.4256867E-4,1.177615E-2,8.337046E-3,9.301657E-4,8.828741E-4,-1.9829078E-3],"categories":[0,0,0,0,0,0,0,0,0,0,0,0,0,0,0,0,0,0,0,0],"categories_nodes":[3,10,14,17,20,22,24,25,26,28,30,38,40,42,47,48,54,56,58,60],"categories_segments":[0,1,2,3,4,5,6,7,8,9,10,11,12,13,14,15,16,17,18,19],"categories_sizes":[1,1,1,1,1,1,1,1,1,1,1,1,1,1,1,1,1,1,1,1],"default_left":[0,0,0,1,0,0,0,0,0,0,1,0,0,0,1,0,0,1,0,0,1,0,1,0,1,1,1,0,1,0,1,0,0,0,0,0,0,0,1,0,1,0,1,0,0,0,0,1,1,0,0,0,0,0,1,0,1,0,1,0,1,0,0,0,0,0,0,0,0,0,0,0,0,0,0,0,0,0,0,0,0,0,0,0,0,0,0,0,0,0,0,0,0,0,0,0,0,0,0,0,0,0,0,0,0],"id":14,"left_children":[1,3,5,7,9,11,13,15,17,19,21,23,25,27,29,31,33,35,37,39,41,43,45,47,49,51,53,55,57,-1,59,61,63,65,67,-1,69,-1,71,73,75,-1,77,79,-1,81,83,85,87,89,91,-1,-1,93,95,97,99,-1,101,-1,103,-1,-1,-1,-1,-1,-1,-1,-1,-1,-1,-1,-1,-1,-1,-1,-1,-1,-1,-1,-1,-1,-1,-1,-1,-1,-1,-1,-1,-1,-1,-1,-1,-1,-1,-1,-1,-1,-1,-1,-1,-1,-1,-1,-1],"loss_changes":[5.745111E-3,1.2749018E-2,1.37876365E-2,1.1453066E-2,6.2181535E-3,1.9389555E-2,9.830591E-3,7.0453156E-3,6.5584187E-3,6.3688024E-3,1.0253223E-2,1.1117693E-2,4.4330754E-3,9.592345E-3,2.8410694E-3,5.2247196E-3,3.5499549E-3,6.9350274E-3,2.0285582E-3,4.8445095E-3,2.3959056E-3,1.3335239E-2,3.6253294E-4,1.6708085E-3,9.600483E-3,3.3081146E-3,3.1446295E-3,8.113424E-3,8.938982E-3,0E0,7.468664E-3,1.2053549E-3,2.5687693E-4,4.3627073E-4,9.191432E-5,0E0,2.970727E-3,0E0,1.3455637E-3,3.8842303E-3,1.2350986E-2,0E0,9.323021E-4,1.1347106E-4,0E0,1.353739E-4,2.74801E-4,1.63077E-3,9.585903E-4,8.520659E-3,5.2706487E-3,0E0,0E0,1.2222624E-2,3.5661E-3,7.5500417E-3,1.1689207E-3,0E0,7.5051846E-4,0E0,1.0758892E-4,0E0,0E0,0E0,0E0,0E0,0E0,0E0,0E0,0E0,0E0,0E0,0E0,0E0,0E0,0E0,0E0,0E0,0E0,0E0,0E0,0E0,0E0,0E0,0E0,0E0,0E0,0E0,0E0,0E0,0E0,0E0,0E0,0E0,0E0,0E0,0E0,0E0,0E0,0E0,0E0,0E0,0E0,0E0,0E0],"parents":[2147483647,0,0,1,1,2,2,3,3,4,4,5,5,6,6,7,7,8,8,9,9,10,10,11,11,12,12,13,13,14,14,15,15,16,16,17,17,18,18,19,19,20,20,21,21,22,22,23,23,24,24,25,25,26,26,27,27,28,28,30,30,31,31,32,32,33,33,34,34,36,36,38,38,39,39,40,40,42,42,43,43,45,45,46,46,47,47,48,48,49,49,50,50,53,53,54,54,55,55,56,56,58,58,60,60],"right_children":[2,4,6,8,10,12,14,16,18,20,22,24,26,28,30,32,34,36,38,40,42,44,46,48,50,52,54,56,58,-1,60,62,64,66,68,-1,70,-1,72,74,76,-1,78,80,-1,82,84,86,88,90,92,-1,-1,94,96,98,100,-1,102,-1,104,-1,-1,-1,-1,-1,-1,-1,-1,-1,-1,-1,-1,-1,-1,-1,-1,-1,-1,-1,-1,-1,-1,-1,-1,-1,-1,-1,-1,-1,-1,-1,-1,-1,-1,-1,-1,-1,-1,-1,-1,-1,-1,-1,-1],"split_conditions":[1.9149888E-1,5.1E1,2.4040967E-1,NaN,9.27E2,4.966844E-1,8.858909E1,7.690791E-3,4.2819247E-2,4.56E2,NaN,3.478261E-1,6.112611E-1,8.914268E0,NaN,5.95045E1,1.0285714E1,NaN,9.833576E-2,8.575388E-1,NaN,1.7352453E-1,NaN,9.769091E1,NaN,NaN,NaN,1.7809631E-1,NaN,2.1592624E-2,NaN,3.6300543E-1,1.8E1,3.15E2,1.8333334E1,-1.4055772E-2,2.1E1,4.5051198E-3,NaN,2.371E3,NaN,1.8231064E-2,NaN,4.825E2,-2.9264322E-2,-6.29069E-2,1.8658118E-1,NaN,NaN,-9.667528E-2,4.735174E-2,1.5463847E-3,-1.8209096E-2,2.0911198E0,NaN,6.689344E-2,NaN,2.8218413E-2,NaN,2.0943202E-2,NaN,-8.48209E-3,-2.5462857E-2,-1.2688776E-3,-8.02426E-3,4.5831857E-4,8.631994E-3,-6.4492757E-3,-1.3809303E-3,-9.673851E-3,-1.3970673E-3,-3.7292575E-3,-1.4187339E-4,-3.36849E-4,3.8144381E-3,2.7665682E-2,-1.9127708E-4,9.777325E-3,1.3854667E-3,-4.4326074E-3,-4.5569357E-4,-8.0036564E-4,-3.6203638E-3,-1.1322048E-3,1.1307874E-3,-5.820759E-3,1.8503704E-3,-1.2763436E-3,7.6675448E-3,4.160373E-3,3.0625325E-2,1.3353172E-2,4.2503057E-3,8.3332925E-5,2.1693807E-2,4.2310273E-3,-1.3040444E-3,5.3803814E-3,-7.629264E-5,3.4256867E-4,1.177615E-2,8.337046E-3,9.301657E-4,8.828741E-4,-1.9829078E-3],"split_indices":[12,1,12,33,1,24,8,5,3,2,33,24,25,16,33,8,2,31,3,24,33,3,32,9,33,29,31,14,33,0,31,28,1,0,2,0,1,0,34,0,31,0,32,2,0,20,5,30,34,7,3,0,0,28,30,16,29,0,31,0,30,0,0,0,0,0,0,0,0,0,0,0,0,0,0,0,0,0,0,0,0,0,0,0,0,0,0,0,0,0,0,0,0,0,0,0,0,0,0,0,0,0,0,0,0],"split_type":[0,0,0,1,0,0,0,0,0,0,1,0,0,0,1,0,0,1,0,0,1,0,1,0,1,1,1,0,1,0,1,0,0,0,0,0,0,0,1,0,1,0,1,0,0,0,0,1,1,0,0,0,0,0,1,0,1,0,1,0,1,0,0,0,0,0,0,0,0,0,0,0,0,0,0,0,0,0,0,0,0,0,0,0,0,0,0,0,0,0,0,0,0,0,0,0,0,0,0,0,0,0,0,0,0],"sum_hessian":[3.884E3,7.79E2,3.105E3,1.13E2,6.66E2,1.32E2,2.973E3,2.2E1,9.1E1,6.29E2,3.7E1,5.2E1,8E1,2.967E3,6E0,1.2E1,1E1,3E1,6.1E1,6.23E2,6E0,8E0,2.9E1,2.2E1,3E1,2E0,7.8E1,2.961E3,6E0,1E0,5E0,5E0,7E0,2E0,8E0,6E0,2.4E1,6E0,5.5E1,6.17E2,6E0,1E0,5E0,6E0,2E0,8E0,2.1E1,1.6E1,6E0,5E0,2.5E1,1E0,1E0,1.3E1,6.5E1,2.955E3,6E0,1E0,5E0,1E0,4E0,2E0,3E0,1E0,6E0,1E0,1E0,7E0,1E0,4E0,2E1,1.1E1,4.4E1,5.97E2,2E1,1E0,5E0,1E0,4E0,5E0,1E0,3E0,5E0,1.5E1,6E0,2E0,1.4E1,1E0,5E0,2E0,3E0,1E1,1.5E1,1.1E1,2E0,1.2E1,5.3E1,2.2E1,2.933E3,1E0,5E0,1E0,4E0,1E0,3E0],"tree_param":{"num_deleted":"0","num_feature":"35","num_nodes":"105","size_leaf_vector":"1"}},{"base_weights":[1.5278283E-5,-4.1305576E-3,3.6963876E-4,-2.416774E-2,3.5634622E-4,2.1500044E-4,2.427544E-2,9.600049E-3,-4.629984E-2,-4.6991715E-3,5.5720713E-3,-4.270264E-4,3.0934028E-3,1.2108158E-1,3.7004412E-3,6.114275E-2,-2.1965576E-2,-1.2948358E-1,-1.572471E-2,-1.896961E-2,-3.4604862E-3,1.2274696E-2,1.5987451E-3,-4.4885734E-3,3.5120978E-4,1.0322775E-2,-2.2024145E-4,-1.4242564E-3,4.938214E-2,-1.3215712E-2,3.0726636E-2,-7.797995E-3,3.5356484E-2,-2.893915E-2,1.5575107E-2,-1.4908667E-1,-1.2174544E-2,-2.8541572E-2,4.381443E-2,-8.728558E-3,-1.0473619E-2,2.1975532E-3,-4.766408E-3,2.3618722E-2,8.876994E-3,2.855744E-4,1.7528059E-2,-5.665178E-3,6.9783702E-3,1.08811415E-4,1.9207858E-2,-1.2630413E-2,1.4987709E-2,-4.1531855E-3,5.199188E-3,-6.5026768E-3,-2.1142107E-3,5.852021E-4,4.0676247E-2,-7.4054613E-3,8.962426E-3,-1.368412E-2,-3.8447462E-3,1.3001371E-3,5.7086614E-3,-8.192325E-3,-4.9449567E-2,5.854983E-3,-1.4334955E-2,1.5597589E-2,1.6656452E-3,-3.5461741E-3,-3.5877817E-4,2.6279942E-3,-7.940587E-4,7.82689E-5,-1.8226769E-3,1.4037979E-2,2.1006074E-3,-4.2218654E-3,3.6255748E-3,2.0639605E-3,-4.1032763E-4,1.194247E-2,1.5331134E-3,-5.440359E-4,-2.913847E-3,-8.767489E-4,6.8625566E-3,-2.156297E-3,1.8905124E-4,1.9810919E-2,1.5982657E-3,2.5414463E-2,-7.3211626E-3,6.856498E-3,-3.029396E-4,-8.3870767E-4,-1.5787069E-2,8.370456E-3,1.0903307E-4,4.3265675E-3,-4.0632263E-3,2.049987E-3,1.6766822E-2],"categories":[0,0,0,0,0,0,0,0,0,0,0,0],"categories_nodes":[1,6,11,19,20,21,25,30,45,46,50,54],"categories_segments":[0,1,2,3,4,5,6,7,8,9,10,11],"categories_sizes":[1,1,1,1,1,1,1,1,1,1,1,1],"default_left":[0,1,0,0,0,0,1,0,0,0,0,1,0,0,0,0,0,0,0,1,1,1,0,0,0,1,0,0,0,0,1,0,0,0,0,0,0,0,0,0,0,0,0,0,0,1,1,0,0,0,1,0,0,0,1,0,0,0,0,0,0,0,0,0,0,0,0,0,0,0,0,0,0,0,0,0,0,0,0,0,0,0,0,0,0,0,0,0,0,0,0,0,0,0,0,0,0,0,0,0,0,0,0,0,0],"id":15,"left_children":[1,3,5,7,9,11,13,15,17,19,21,23,25,27,29,31,33,35,37,39,41,43,45,47,49,51,53,-1,-1,55,57,59,-1,61,63,65,-1,67,69,-1,71,73,75,77,79,81,83,85,87,89,91,93,95,97,99,-1,-1,101,103,-1,-1,-1,-1,-1,-1,-1,-1,-1,-1,-1,-1,-1,-1,-1,-1,-1,-1,-1,-1,-1,-1,-1,-1,-1,-1,-1,-1,-1,-1,-1,-1,-1,-1,-1,-1,-1,-1,-1,-1,-1,-1,-1,-1,-1,-1],"loss_changes":[5.7090595E-3,2.7519515E-2,1.3229156E-2,4.2296205E-2,6.6446E-3,6.5765455E-3,4.536303E-2,3.876352E-2,8.443794E-2,2.1969585E-3,3.2827086E-3,9.199629E-3,1.5549436E-2,2.268859E-2,9.54966E-3,3.610706E-2,4.3776217E-3,9.6345395E-3,2.1091262E-2,5.555367E-4,8.897602E-4,1.5633432E-3,1.647509E-3,6.353817E-3,1.1164426E-2,2.2032624E-2,9.527775E-3,0E0,0E0,5.2562845E-4,2.3753606E-3,3.9183293E-3,0E0,2.9104706E-3,3.400736E-5,8.9208335E-3,0E0,2.1276334E-2,1.2757871E-3,0E0,7.3340256E-5,7.543822E-4,6.400056E-4,3.5231956E-3,2.8943492E-3,8.161998E-4,1.4565736E-3,6.608312E-3,6.992113E-3,9.183778E-3,1.9798014E-2,4.218055E-2,2.1418754E-2,1.689462E-2,2.0629004E-2,0E0,0E0,7.8183913E-4,2.7072402E-3,0E0,0E0,0E0,0E0,0E0,0E0,0E0,0E0,0E0,0E0,0E0,0E0,0E0,0E0,0E0,0E0,0E0,0E0,0E0,0E0,0E0,0E0,0E0,0E0,0E0,0E0,0E0,0E0,0E0,0E0,0E0,0E0,0E0,0E0,0E0,0E0,0E0,0E0,0E0,0E0,0E0,0E0,0E0,0E0,0E0,0E0],"parents":[2147483647,0,0,1,1,2,2,3,3,4,4,5,5,6,6,7,7,8,8,9,9,10,10,11,11,12,12,13,13,14,14,15,15,16,16,17,17,18,18,19,19,20,20,21,21,22,22,23,23,24,24,25,25,26,26,29,29,30,30,31,31,33,33,34,34,35,35,37,37,38,38,40,40,41,41,42,42,43,43,44,44,45,45,46,46,47,47,48,48,49,49,50,50,51,51,52,52,53,53,54,54,57,57,58,58],"right_children":[2,4,6,8,10,12,14,16,18,20,22,24,26,28,30,32,34,36,38,40,42,44,46,48,50,52,54,-1,-1,56,58,60,-1,62,64,66,-1,68,70,-1,72,74,76,78,80,82,84,86,88,90,92,94,96,98,100,-1,-1,102,104,-1,-1,-1,-1,-1,-1,-1,-1,-1,-1,-1,-1,-1,-1,-1,-1,-1,-1,-1,-1,-1,-1,-1,-1,-1,-1,-1,-1,-1,-1,-1,-1,-1,-1,-1,-1,-1,-1,-1,-1,-1,-1,-1,-1,-1,-1],"split_conditions":[4.917156E-1,NaN,2.134099E0,2.4117951E-1,5.5714287E-2,2.0182467E-1,NaN,4.421756E0,3.2519862E-1,6.9117945E-1,3.2519862E-1,NaN,1.413207E-1,7.65E1,3.2465094E-1,8.10559E-2,1.16666664E2,1.9717936E-1,5.995122E0,NaN,NaN,NaN,2.9155724E0,2E2,1.6580866E-1,NaN,2.1687294E1,-1.4242564E-3,4.938214E-2,3.1E2,NaN,1.5E3,3.5356484E-2,1.4055196E0,3.55E2,3.3909522E-2,-1.2174544E-2,2.7855774E-2,8.479E3,-8.728558E-3,3.92E2,1.5378423E-2,-3.4525192E-1,1.09E2,8.7E1,NaN,NaN,5.7735026E-1,3.995942E-1,1.541799E1,NaN,2.1641052E-8,4.9531326E-1,1.374E3,NaN,-6.5026768E-3,-2.1142107E-3,1.46E3,1.46E3,-7.4054613E-3,8.962426E-3,-1.368412E-2,-3.8447462E-3,1.3001371E-3,5.7086614E-3,-8.192325E-3,-4.9449567E-2,5.854983E-3,-1.4334955E-2,1.5597589E-2,1.6656452E-3,-3.5461741E-3,-3.5877817E-4,2.6279942E-3,-7.940587E-4,7.82689E-5,-1.8226769E-3,1.4037979E-2,2.1006074E-3,-4.2218654E-3,3.6255748E-3,2.0639605E-3,-4.1032763E-4,1.194247E-2,1.5331134E-3,-5.440359E-4,-2.913847E-3,-8.767489E-4,6.8625566E-3,-2.156297E-3,1.8905124E-4,1.9810919E-2,1.5982657E-3,2.5414463E-2,-7.3211626E-3,6.856498E-3,-3.029396E-4,-8.3870767E-4,-1.5787069E-2,8.370456E-3,1.0903307E-4,4.3265675E-3,-4.0632263E-3,2.049987E-3,1.6766822E-2],"split_indices":[21,33,23,28,14,26,30,15,24,12,24,34,3,2,3,28,2,6,17,32,30,34,8,2,14,31,15,0,0,1,29,0,0,8,1,11,0,14,1,0,1,14,11,1,1,30,32,28,28,9,33,5,18,2,33,0,0,0,0,0,0,0,0,0,0,0,0,0,0,0,0,0,0,0,0,0,0,0,0,0,0,0,0,0,0,0,0,0,0,0,0,0,0,0,0,0,0,0,0,0,0,0,0,0,0],"split_type":[0,1,0,0,0,0,1,0,0,0,0,1,0,0,0,0,0,0,0,1,1,1,0,0,0,1,0,0,0,0,1,0,0,0,0,0,0,0,0,0,0,0,0,0,0,1,1,0,0,0,1,0,0,0,1,0,0,0,0,0,0,0,0,0,0,0,0,0,0,0,0,0,0,0,0,0,0,0,0,0,0,0,0,0,0,0,0,0,0,0,0,0,0,0,0,0,0,0,0,0,0,0,0,0,0],"sum_hessian":[3.884E3,3.05E2,3.579E3,5.5E1,2.5E2,3.557E3,2.2E1,2.2E1,3.3E1,1.27E2,1.23E2,2.909E3,6.48E2,3E0,1.9E1,8E0,1.4E1,8E0,2.5E1,9E0,1.18E2,4.5E1,7.8E1,4.67E2,2.442E3,2.03E2,4.45E2,1E0,2E0,1.2E1,7E0,4E0,4E0,1.2E1,2E0,6E0,2E0,2.1E1,4E0,3E0,6E0,2.2E1,9.6E1,9E0,3.6E1,7.3E1,5E0,4.24E2,4.3E1,2.412E3,3E1,3.4E1,1.69E2,2.58E2,1.87E2,4E0,8E0,2E0,5E0,3E0,1E0,5E0,7E0,1E0,1E0,1E0,5E0,6E0,1.5E1,3E0,1E0,5E0,1E0,9E0,1.3E1,2E1,7.6E1,3E0,6E0,4E0,3.2E1,1.4E1,5.9E1,1E0,4E0,2.18E2,2.06E2,2.7E1,1.6E1,1.6E2,2.252E3,6E0,2.4E1,3E0,3.1E1,1.13E2,5.6E1,2.52E2,6E0,3.2E1,1.55E2,1E0,1E0,2E0,3E0],"tree_param":{"num_deleted":"0","num_feature":"35","num_nodes":"105","size_leaf_vector":"1"}},{"base_weights":[3.1384447E-5,7.0278894E-4,-1.8108038E-3,8.960724E-5,7.2463774E-3,-7.073244E-4,-1.1714096E-2,3.137592E-4,-1.547623E-2,2.1731107E-2,3.495183E-3,-4.6292334E-5,-1.4761024E-2,-4.7046527E-2,-3.7718834E-3,6.794886E-4,-6.9647254E-3,-3.912117E-2,-9.637817E-3,8.12587E-3,1.2014854E-1,2.19671E-3,2.7297264E-2,7.3911976E-3,-1.4841453E-3,-2.1030527E-2,1.9590855E-2,-5.19903E-2,-2.1998886E-2,-1.3464699E-2,5.786365E-3,-2.9533401E-2,7.6585106E-4,-1.8527498E-2,-4.1200127E-3,-2.1301374E-2,-1.2166891E-2,-2.4942756E-2,-5.7352223E-3,1.8695626E-2,-5.192361E-2,-3.0782323E-3,1.4828256E-1,3.182179E-2,1.2025267E-3,9.422111E-2,-1.2113362E-3,1.9195931E-2,-2.1057144E-2,-3.057044E-3,8.3153695E-3,-2.6153803E-2,-9.9544395E-3,2.0700919E-2,-1.4502292E-4,2.6665648E-2,-3.4484502E-2,-3.9026868E-2,-9.074233E-3,2.1250168E-2,1.7596815E-3,-3.8458116E-2,2.4826818E-3,2.4085864E-5,1.2222124E-3,-1.2105573E-2,9.1299065E-4,-2.806831E-3,-7.56965E-4,3.612131E-4,-4.7431905E-3,-3.135663E-5,-8.96685E-3,-6.7076352E-3,-2.1375838E-4,4.634764E-4,1.586346E-2,-7.3881814E-4,-2.6521077E-2,1.3461357E-2,4.8875283E-2,2.7696349E-2,3.773058E-4,3.857904E-3,-2.7742927E-4,-9.364787E-4,4.3335978E-2,5.874909E-3,-2.0938609E-3,3.2481976E-2,3.7709323E-3,5.4117423E-3,-1.00353435E-2,-7.0005434E-4,-6.775577E-3,-1.0697655E-2,3.4114604E-3,-2.8739793E-3,-8.696875E-3,1.6211969E-3,-3.9714463E-3,8.078909E-3,-3.283772E-3,-1.409142E-2,1.0584756E-2,-2.331557E-2,-4.7234446E-3,-9.879401E-3,-7.8745314E-4,1.5155611E-2,-3.680519E-3,-3.010506E-3,1.0642841E-3],"categories":[0,0,0,0,0,0,0,0,0,0,0,0,0,0,0,0,0,0,0,0],"categories_nodes":[4,6,8,11,16,22,26,30,31,34,37,38,43,44,46,51,52,54,57,58],"categories_segments":[0,1,2,3,4,5,6,7,8,9,10,11,12,13,14,15,16,17,18,19],"categories_sizes":[1,1,1,1,1,1,1,1,1,1,1,1,1,1,1,1,1,1,1,1],"default_left":[0,0,0,0,1,0,1,0,1,0,0,1,0,0,0,0,1,0,0,0,0,0,1,0,0,0,1,0,0,0,1,1,0,0,1,0,0,1,1,0,0,0,0,1,1,0,1,0,0,0,0,1,1,0,1,0,0,1,1,0,0,0,0,0,0,0,0,0,0,0,0,0,0,0,0,0,0,0,0,0,0,0,0,0,0,0,0,0,0,0,0,0,0,0,0,0,0,0,0,0,0,0,0,0,0,0,0,0,0,0,0,0,0],"id":16,"left_children":[1,3,5,7,9,11,13,15,17,19,21,23,25,27,29,31,33,35,37,39,41,43,45,47,49,51,53,-1,55,57,59,61,63,65,67,-1,69,71,73,75,77,-1,79,81,83,85,87,89,91,93,95,97,99,-1,101,-1,103,105,107,109,111,-1,-1,-1,-1,-1,-1,-1,-1,-1,-1,-1,-1,-1,-1,-1,-1,-1,-1,-1,-1,-1,-1,-1,-1,-1,-1,-1,-1,-1,-1,-1,-1,-1,-1,-1,-1,-1,-1,-1,-1,-1,-1,-1,-1,-1,-1,-1,-1,-1,-1,-1,-1],"loss_changes":[4.8064482E-3,1.1426691E-2,1.133506E-2,9.093994E-3,1.31817935E-2,8.685417E-3,2.9006787E-2,6.8432973E-3,4.7307685E-3,6.597332E-2,5.966776E-3,9.57142E-3,9.457513E-3,5.627272E-2,8.045496E-3,6.407475E-3,3.969477E-3,5.151855E-3,1.7085455E-3,2.953262E-2,2.3535118E-2,5.439948E-3,1.9193184E-2,4.909885E-2,1.1585653E-2,1.7825048E-3,6.8363594E-3,0E0,2.660099E-2,4.4717435E-3,2.7023912E-3,2.7172621E-2,5.5358093E-3,1.1421282E-2,8.124893E-4,0E0,2.626381E-4,7.3408615E-4,2.1549405E-3,2.2782259E-2,1.2412608E-2,0E0,2.5684386E-4,1.0978542E-2,4.5003584E-3,1.5120124E-2,1.0962487E-3,5.943377E-2,2.1439482E-2,9.088915E-3,1.4382313E-2,8.502789E-4,7.2716374E-4,0E0,2.049355E-3,0E0,1.5596047E-2,4.1812686E-3,5.760382E-3,9.449135E-3,7.9477276E-4,0E0,0E0,0E0,0E0,0E0,0E0,0E0,0E0,0E0,0E0,0E0,0E0,0E0,0E0,0E0,0E0,0E0,0E0,0E0,0E0,0E0,0E0,0E0,0E0,0E0,0E0,0E0,0E0,0E0,0E0,0E0,0E0,0E0,0E0,0E0,0E0,0E0,0E0,0E0,0E0,0E0,0E0,0E0,0E0,0E0,0E0,0E0,0E0,0E0,0E0,0E0,0E0],"parents":[2147483647,0,0,1,1,2,2,3,3,4,4,5,5,6,6,7,7,8,8,9,9,10,10,11,11,12,12,13,13,14,14,15,15,16,16,17,17,18,18,19,19,20,20,21,21,22,22,23,23,24,24,25,25,26,26,28,28,29,29,30,30,31,31,32,32,33,33,34,34,36,36,37,37,38,38,39,39,40,40,42,42,43,43,44,44,45,45,46,46,47,47,48,48,49,49,50,50,51,51,52,52,54,54,56,56,57,57,58,58,59,59,60,60],"right_children":[2,4,6,8,10,12,14,16,18,20,22,24,26,28,30,32,34,36,38,40,42,44,46,48,50,52,54,-1,56,58,60,62,64,66,68,-1,70,72,74,76,78,-1,80,82,84,86,88,90,92,94,96,98,100,-1,102,-1,104,106,108,110,112,-1,-1,-1,-1,-1,-1,-1,-1,-1,-1,-1,-1,-1,-1,-1,-1,-1,-1,-1,-1,-1,-1,-1,-1,-1,-1,-1,-1,-1,-1,-1,-1,-1,-1,-1,-1,-1,-1,-1,-1,-1,-1,-1,-1,-1,-1,-1,-1,-1,-1,-1,-1],"split_conditions":[1.375557E-1,7.4635416E-2,3.7751045E0,8.333333E-1,NaN,8.5886836E-1,NaN,8.829224E-1,NaN,6.8581325E-1,9.480315E-1,NaN,3.1074764E-2,5.8625E1,4.0841397E-2,3.9928572E0,NaN,1.9E1,-8.2516894E-2,6.422111E-2,2.9649289E0,3.786143E-1,NaN,1.4412993E0,1.8857699E-3,1.02820754E-1,NaN,-5.19903E-2,1.6E1,1.6E1,NaN,NaN,4.7333334E-3,3.4899354E-2,NaN,-2.1301374E-2,2.1E1,NaN,NaN,-2.0437191E-1,5.7694624E-15,-3.0782323E-3,7.4910223E-1,NaN,NaN,1.65E2,NaN,1.5561461E1,6.3856654E0,3.5868773E-1,2.1E1,NaN,NaN,2.0700919E-2,NaN,2.6665648E-2,1.179551E1,NaN,NaN,9.935596E-1,1.9E1,-3.8458116E-2,2.4826818E-3,2.4085864E-5,1.2222124E-3,-1.2105573E-2,9.1299065E-4,-2.806831E-3,-7.56965E-4,3.612131E-4,-4.7431905E-3,-3.135663E-5,-8.96685E-3,-6.7076352E-3,-2.1375838E-4,4.634764E-4,1.586346E-2,-7.3881814E-4,-2.6521077E-2,1.3461357E-2,4.8875283E-2,2.7696349E-2,3.773058E-4,3.857904E-3,-2.7742927E-4,-9.364787E-4,4.3335978E-2,5.874909E-3,-2.0938609E-3,3.2481976E-2,3.7709323E-3,5.4117423E-3,-1.00353435E-2,-7.0005434E-4,-6.775577E-3,-1.0697655E-2,3.4114604E-3,-2.8739793E-3,-8.696875E-3,1.6211969E-3,-3.9714463E-3,8.078909E-3,-3.283772E-3,-1.409142E-2,1.0584756E-2,-2.331557E-2,-4.7234446E-3,-9.879401E-3,-7.8745314E-4,1.5155611E-2,-3.680519E-3,-3.010506E-3,1.0642841E-3],"split_indices":[20,20,16,25,33,5,33,18,33,5,12,31,7,9,5,13,33,1,7,4,15,25,30,23,11,3,33,0,1,1,31,33,20,3,31,0,1,29,31,19,5,0,5,32,31,1,31,9,22,3,1,32,32,0,32,0,16,29,31,21,1,0,0,0,0,0,0,0,0,0,0,0,0,0,0,0,0,0,0,0,0,0,0,0,0,0,0,0,0,0,0,0,0,0,0,0,0,0,0,0,0,0,0,0,0,0,0,0,0,0,0,0,0],"split_type":[0,0,0,0,1,0,1,0,1,0,0,1,0,0,0,0,1,0,0,0,0,0,1,0,0,0,1,0,0,0,1,1,0,0,1,0,0,1,1,0,0,0,0,1,1,0,1,0,0,0,0,1,1,0,1,0,0,1,1,0,0,0,0,0,0,0,0,0,0,0,0,0,0,0,0,0,0,0,0,0,0,0,0,0,0,0,0,0,0,0,0,0,0,0,0,0,0,0,0,0,0,0,0,0,0,0,0,0,0,0,0,0,0],"sum_hessian":[3.884E3,2.847E3,1.037E3,2.604E3,2.43E2,9.34E2,1.03E2,2.568E3,3.6E1,4.9E1,1.94E2,8.93E2,4.1E1,1.8E1,8.5E1,2.446E3,1.22E2,6E0,3E1,4.4E1,5E0,1.85E2,9E0,1.44E2,7.49E2,3.5E1,6E0,2E0,1.6E1,4.2E1,4.3E1,6E0,2.44E3,2.3E1,9.9E1,2E0,4E0,5E0,2.5E1,3.8E1,6E0,1E0,4E0,5E0,1.8E2,2E0,7E0,1.02E2,4.2E1,6.46E2,1.03E2,2.3E1,1.2E1,1E0,5E0,1E0,1.5E1,5E0,3.7E1,8E0,3.5E1,1E0,5E0,2.022E3,4.18E2,1.1E1,1.2E1,2.2E1,7.7E1,1E0,3E0,1E0,4E0,5E0,2E1,2.6E1,1.2E1,3E0,3E0,1E0,3E0,1E0,4E0,2.7E1,1.53E2,1E0,1E0,1E0,6E0,6E0,9.6E1,1E1,3.2E1,6.24E2,2.2E1,6E0,9.7E1,4E0,1.9E1,2E0,1E1,1E0,4E0,1.3E1,2E0,1E0,4E0,7E0,3E1,4E0,4E0,4E0,3.1E1],"tree_param":{"num_deleted":"0","num_feature":"35","num_nodes":"113","size_leaf_vector":"1"}},{"base_weights":[2.3386385E-5,9.712312E-3,-9.268496E-5,3.7339874E-2,1.9829087E-3,5.0845917E-4,-2.5176245E-3,1.7090695E-2,-6.3460357E-3,-5.837454E-3,5.516041E-3,-2.7616878E-4,4.139482E-3,-1.2355696E-2,-3.6398263E-4,2.777733E-3,-7.974221E-3,5.410331E-3,-1.21376375E-2,-2.6805536E-4,6.9059716E-3,-1.9855816E-3,1.1386743E-3,2.0405829E-2,2.9535831E-3,-1.17349446E-1,-7.4896496E-3,-8.5545314E-4,2.7236134E-2,3.1757057E-3,-4.705401E-4,4.5353093E-4,-1.430352E-2,-3.136245E-3,5.8503024E-4,1.0179531E-2,5.2467636E-3,-1.5016502E-2,-1.4027784E-3,7.996433E-3,-3.4817224E-4,8.620172E-2,4.89044E-3,1.3445316E-2,6.787583E-4,-4.700129E-2,-7.741285E-3,3.1831935E-2,-1.095395E-2,-2.787314E-3,3.3083255E-3,5.5023823E-3,4.443053E-2,-3.7370654E-4,-4.8816637E-3,-1.238693E-3,-1.7261726E-4,-1.3931636E-3,5.625662E-3,3.0923435E-3,3.538062E-4,-1.0569817E-2,-2.6788353E-3,-9.966621E-5,-2.3050613E-3,-7.1139736E-3,6.1264825E-3,5.7051156E-4,-1.2805187E-3,3.0698823E-2,-1.5846577E-3,1.479266E-2,-2.3227013E-3,8.238345E-3,-6.7951414E-3,-1.4918667E-3,1.9973768E-3,-1.5420832E-3,-1.8730318E-2,-3.0310382E-3,-2.8987238E-4,1.4128736E-2,6.452389E-4,-4.662435E-3,3.8458316E-3,1.6356731E-3,1.5340723E-2],"categories":[0,0,0,0,0,0,0,0,0,0,0,0,0,0],"categories_nodes":[1,6,9,10,18,20,22,23,24,37,42,49,51,52],"categories_segments":[0,1,2,3,4,5,6,7,8,9,10,11,12,13],"categories_sizes":[1,1,1,1,1,1,1,1,1,1,1,1,1,1],"default_left":[0,1,0,0,0,0,1,0,0,1,1,0,0,0,0,0,0,0,1,0,1,0,1,1,1,0,0,0,0,0,0,0,0,0,0,0,0,1,0,0,0,0,1,0,0,0,0,0,0,1,0,1,1,0,0,0,0,0,0,0,0,0,0,0,0,0,0,0,0,0,0,0,0,0,0,0,0,0,0,0,0,0,0,0,0,0,0],"id":17,"left_children":[1,3,5,7,9,11,13,-1,15,17,19,21,23,25,27,-1,-1,29,31,33,35,37,39,41,43,45,47,49,51,-1,-1,-1,53,55,-1,57,59,61,63,65,67,69,71,73,75,-1,-1,-1,77,79,81,83,85,-1,-1,-1,-1,-1,-1,-1,-1,-1,-1,-1,-1,-1,-1,-1,-1,-1,-1,-1,-1,-1,-1,-1,-1,-1,-1,-1,-1,-1,-1,-1,-1,-1,-1],"loss_changes":[4.369997E-3,9.749007E-3,5.5989944E-3,8.936681E-3,1.0545236E-3,8.770372E-3,1.6161704E-2,0E0,1.5091758E-3,9.1602595E-4,2.1087786E-4,