{"learner":{"attributes":{"scikit_learn":"{\"_estimator_type\": \"regressor\"}"},"feature_names":["L","DS","APC","DV","IV","GBC","DN5","DN10","COf1","COfi","COh","COt","MD","SB","SBT","PD","COE","IN","FCm","DNOp","DNOn","SPa","SBb","SBm","FCr","FCd","SPc","FCs","ID","model_DTW-KNN","model_KERNEL","model_NN","model_RF","model_SHAPELET","model_TS-RF"],"feature_types":["float","float","float","float","float","float","float","float","float","float","float","float","float","float","float","float","float","float","float","float","float","float","float","float","float","float","float","float","float","c","c","c","c","c","c"],"gradient_booster":{"model":{"gbtree_model_param":{"num_parallel_tree":"1","num_trees":"100"},"iteration_indptr":[0,1,2,3,4,5,6,7,8,9,10,11,12,13,14,15,16,17,18,19,20,21,22,23,24,25,26,27,28,29,30,31,32,33,34,35,36,37,38,39,40,41,42,43,44,45,46,47,48,49,50,51,52,53,54,55,56,57,58,59,60,61,62,63,64,65,66,67,68,69,70,71,72,73,74,75,76,77,78,79,80,81,82,83,84,85,86,87,88,89,90,91,92,93,94,95,96,97,98,99,100],"tree_info":[0,0,0,0,0,0,0,0,0,0,0,0,0,0,0,0,0,0,0,0,0,0,0,0,0,0,0,0,0,0,0,0,0,0,0,0,0,0,0,0,0,0,0,0,0,0,0,0,0,0,0,0,0,0,0,0,0,0,0,0,0,0,0,0,0,0,0,0,0,0,0,0,0,0,0,0,0,0,0,0,0,0,0,0,0,0,0,0,0,0,0,0,0,0,0,0,0,0,0,0],"trees":[{"base_weights":[-6.7650663E-10,2.6249958E-2,-5.609936E-3,9.227495E-3,1.429811E-1,1.5146969E-2,-1.1477192E-2,4.923653E-2,-2.0419115E-3,1.9182861E-1,4.2148296E-2,1.1438971E-2,1.8717705E-1,-2.6146626E-2,-4.482998E-3,2.0116796E-1,3.7903573E-2,1.2538141E-1,-3.947525E-3,2.278625E-1,-7.523759E-3,5.4864276E-2,-9.721339E-3,1.6846562E-2,-5.1049154E-2,1.3046075E-1,1.9844098E-2,1.350202E-2,-2.6556404E-2,8.026138E-3,-1.8053226E-2,9.0103835E-2,2.1087457E-3,1.2818582E-2,1.0466579E-1,1.4483702E-1,1.5348486E-2,-9.829979E-3,3.9401025E-2,3.3419535E-1,1.3237971E-1,-6.6253436E-3,1.1453858E-2,6.636234E-2,2.0698357E-2,-1.2825191E-3,3.383622E-2,-1.22469194E-1,-2.878757E-2,-6.259423E-3,3.821637E-2,4.423687E-2,-1.9933231E-2,-2.9079543E-2,-2.3942096E-2,-1.0187047E-2,3.232116E-2,3.752787E-2,-2.2093028E-2,1.1129824E-2,-6.5763844E-3,4.7596958E-2,2.841747E-3,3.8933493E-2,-1.0246712E-2,1.230375E-2,4.8162006E-2,-5.9463824E-3,-3.5687585E-4,2.772606E-2,2.2136099E-3,1.1056569E-1,-5.3104903E-3,1.4819739E-2,5.7458315E-2,8.455941E-4,3.8723997E-3,2.9342746E-2,1.3297391E-2,-1.4039206E-3,8.981303E-3,-1.6868319E-3,3.5516504E-2,1.6895127E-2,2.5737972E-4,-1.6731593E-3,-3.952363E-2,-1.0939576E-2,2.6488742E-2,2.3246404E-2,-1.8314345E-2,-3.3914696E-3,1.8284561E-2,-1.6787327E-3,-6.6355956E-3,-8.577793E-3,-2.1259494E-2,-6.6669025E-3,-9.027553E-3,1.8333006E-3,-4.856873E-3,1.9711487E-2,2.9919446E-3,3.235981E-2,1.2305581E-3,8.742472E-3,-6.988441E-3],"categories":[0,0,0,0,0],"categories_nodes":[0,2,51,52,57],"categories_segments":[0,1,2,3,4],"categories_sizes":[1,1,1,1,1],"default_left":[1,0,1,0,0,0,0,0,0,0,0,0,0,0,0,0,0,0,0,0,0,0,0,0,0,0,0,0,0,0,0,0,0,0,0,0,0,0,0,0,0,0,0,0,0,0,0,0,0,0,0,1,1,0,0,0,0,1,0,0,0,0,0,0,0,0,0,0,0,0,0,0,0,0,0,0,0,0,0,0,0,0,0,0,0,0,0,0,0,0,0,0,0,0,0,0,0,0,0,0,0,0,0,0,0,0,0],"id":0,"left_children":[1,3,5,7,9,11,13,15,17,19,21,23,25,27,29,31,33,35,37,39,41,43,-1,45,47,-1,49,51,53,55,57,-1,59,61,63,65,-1,67,69,71,73,-1,75,77,79,81,83,85,87,89,-1,91,93,95,97,99,101,103,105,-1,-1,-1,-1,-1,-1,-1,-1,-1,-1,-1,-1,-1,-1,-1,-1,-1,-1,-1,-1,-1,-1,-1,-1,-1,-1,-1,-1,-1,-1,-1,-1,-1,-1,-1,-1,-1,-1,-1,-1,-1,-1,-1,-1,-1,-1,-1,-1],"loss_changes":[5.7873404E-1,1.3737202E0,3.9451715E-1,2.7288175E-1,4.253527E-1,4.5331028E-1,2.5895E-1,2.2137868E-1,1.15348615E-1,4.255376E-1,3.0218191E-2,2.3739713E-1,6.1307615E-1,1.3599932E-2,2.9059026E-1,1.7704755E-1,2.0799956E-1,2.6978403E-3,1.1947037E-1,4.6340704E-1,3.01623E-3,8.840293E-3,0E0,1.9870785E-1,8.551012E-2,0E0,2.8870095E-2,1.0130431E-2,4.6269894E-3,3.9458758E-1,1.8517366E-1,0E0,4.1765734E-3,4.339196E-2,1.2296203E-1,1.5676245E-3,0E0,3.5543848E-2,9.439469E-2,2.845962E-1,1.2796652E-1,0E0,2.6400958E-5,8.831941E-3,2.0159108E-3,1.632385E-1,2.4683133E-1,1.336135E-2,4.277259E-2,4.6025954E-2,0E0,5.3299936E-3,3.2895943E-5,6.23405E-3,3.581196E-3,4.999199E-2,2.8434017E-1,1.3122049E-1,4.7843367E-2,0E0,0E0,0E0,0E0,0E0,0E0,0E0,0E0,0E0,0E0,0E0,0E0,0E0,0E0,0E0,0E0,0E0,0E0,0E0,0E0,0E0,0E0,0E0,0E0,0E0,0E0,0E0,0E0,0E0,0E0,0E0,0E0,0E0,0E0,0E0,0E0,0E0,0E0,0E0,0E0,0E0,0E0,0E0,0E0,0E0,0E0,0E0,0E0],"parents":[2147483647,0,0,1,1,2,2,3,3,4,4,5,5,6,6,7,7,8,8,9,9,10,10,11,11,12,12,13,13,14,14,15,15,16,16,17,17,18,18,19,19,20,20,21,21,23,23,24,24,26,26,27,27,28,28,29,29,30,30,32,32,33,33,34,34,35,35,37,37,38,38,39,39,40,40,42,42,43,43,44,44,45,45,46,46,47,47,48,48,49,49,51,51,52,52,53,53,54,54,55,55,56,56,57,57,58,58],"right_children":[2,4,6,8,10,12,14,16,18,20,22,24,26,28,30,32,34,36,38,40,42,44,-1,46,48,-1,50,52,54,56,58,-1,60,62,64,66,-1,68,70,72,74,-1,76,78,80,82,84,86,88,90,-1,92,94,96,98,100,102,104,106,-1,-1,-1,-1,-1,-1,-1,-1,-1,-1,-1,-1,-1,-1,-1,-1,-1,-1,-1,-1,-1,-1,-1,-1,-1,-1,-1,-1,-1,-1,-1,-1,-1,-1,-1,-1,-1,-1,-1,-1,-1,-1,-1,-1,-1,-1,-1,-1],"split_conditions":[NaN,5.537681E-1,NaN,5.6071322E-2,9.077536E-3,6.7716646E-1,2.0593297E-1,6.998119E-9,1.2078026E-33,8.3237004E-1,5E2,3.455972E0,6.854289E-1,1.8E1,8.167531E-1,5.7896297E1,7.406015E-1,1.4E2,7.651515E-1,3.82E2,5.1E1,7.257017E-1,-9.721339E-3,2.6950645E-1,3.5630572E0,1.3046075E-1,2.5418447E-3,8E1,7.272763E-2,4.3868098E-1,-6.874394E-1,9.0103835E-2,1.52E2,1.4672097E-2,8.294314E-1,1.05E2,1.5348486E-2,-1.2557581E-1,3.5E1,1.0825098E0,4.833196E-3,-6.6253436E-3,-1.3389103E-3,8.094067E-1,3.83E2,1.0577324E-1,3.49E2,7.6672416E0,9.7584106E-2,3.8236668E1,3.821637E-2,NaN,NaN,7.055668E-2,2.5498268E-1,5E1,2.54E2,NaN,3E0,1.1129824E-2,-6.5763844E-3,4.7596958E-2,2.841747E-3,3.8933493E-2,-1.0246712E-2,1.230375E-2,4.8162006E-2,-5.9463824E-3,-3.5687585E-4,2.772606E-2,2.2136099E-3,1.1056569E-1,-5.3104903E-3,1.4819739E-2,5.7458315E-2,8.455941E-4,3.8723997E-3,2.9342746E-2,1.3297391E-2,-1.4039206E-3,8.981303E-3,-1.6868319E-3,3.5516504E-2,1.6895127E-2,2.5737972E-4,-1.6731593E-3,-3.952363E-2,-1.0939576E-2,2.6488742E-2,2.3246404E-2,-1.8314345E-2,-3.3914696E-3,1.8284561E-2,-1.6787327E-3,-6.6355956E-3,-8.577793E-3,-2.1259494E-2,-6.6669025E-3,-9.027553E-3,1.8333006E-3,-4.856873E-3,1.9711487E-2,2.9919446E-3,3.235981E-2,1.2305581E-3,8.742472E-3,-6.988441E-3],"split_indices":[31,20,33,3,3,7,28,5,21,20,0,28,7,1,28,9,24,1,25,1,1,12,0,28,28,0,20,0,28,28,7,0,0,14,25,1,0,7,1,10,3,0,11,25,1,11,1,8,14,15,0,30,32,28,20,1,1,34,22,0,0,0,0,0,0,0,0,0,0,0,0,0,0,0,0,0,0,0,0,0,0,0,0,0,0,0,0,0,0,0,0,0,0,0,0,0,0,0,0,0,0,0,0,0,0,0,0],"split_type":[1,0,1,0,0,0,0,0,0,0,0,0,0,0,0,0,0,0,0,0,0,0,0,0,0,0,0,0,0,0,0,0,0,0,0,0,0,0,0,0,0,0,0,0,0,0,0,0,0,0,0,1,1,0,0,0,0,1,0,0,0,0,0,0,0,0,0,0,0,0,0,0,0,0,0,0,0,0,0,0,0,0,0,0,0,0,0,0,0,0,0,0,0,0,0,0,0,0,0,0,0,0,0,0,0,0,0],"sum_hessian":[3.928E3,6.91E2,3.237E3,6.04E2,8.7E1,7.13E2,2.524E3,1.32E2,4.72E2,5.8E1,2.9E1,6.99E2,1.4E1,8.14E2,1.71E3,8E0,1.24E2,6E0,4.66E2,4.9E1,9E0,2.5E1,4E0,6.44E2,5.5E1,5E0,9E0,8E0,8.06E2,8.9E2,8.2E2,5E0,3E0,9.1E1,3.3E1,4E0,2E0,4.11E2,5.5E1,2.2E1,2.7E1,5E0,4E0,1.8E1,7E0,3.12E2,3.32E2,1.2E1,4.3E1,8E0,1E0,4E0,4E0,4.05E2,4.01E2,5.09E2,3.81E2,5.5E1,7.65E2,1E0,2E0,1E0,9E1,2.8E1,5E0,1E0,3E0,1.9E2,2.21E2,2E1,3.5E1,2E1,2E0,1.2E1,1.5E1,1E0,3E0,6E0,1.2E1,2E0,5E0,3.02E2,1E1,1.97E2,1.35E2,1E0,1.1E1,4.1E1,2E0,3E0,5E0,1E0,3E0,1E0,3E0,4.02E2,3E0,3.17E2,8.4E1,1.37E2,3.72E2,1.52E2,2.29E2,1.7E1,3.8E1,1.7E1,7.48E2],"tree_param":{"num_deleted":"0","num_feature":"35","num_nodes":"107","size_leaf_vector":"1"}},{"base_weights":[1.792743E-4,9.138297E-3,-8.369977E-3,4.4072513E-2,1.9350554E-3,-1.1738225E-2,5.057034E-3,2.2155536E-2,1.0178457E-1,-1.1866667E-2,1.3402538E-2,-1.3069031E-2,3.273958E-2,4.1384183E-2,-2.9457938E-3,1.2577862E-1,1.5638374E-2,1.3500002E-1,3.085368E-2,5.13161E-3,-1.6213678E-2,2.6024979E-2,-2.0031707E-2,-1.0614464E-2,-2.647927E-2,5.8306787E-2,-8.007187E-3,8.103141E-2,-4.2938545E-2,1.9318871E-2,-7.3400773E-3,8.9978136E-2,5.101747E-2,1.489783E-3,5.659481E-2,1.5941489E-1,-5.4573664E-3,4.0336434E-2,-7.3882164E-3,-8.940165E-5,1.2871046E-1,-1.6638493E-2,3.5628002E-2,6.168757E-2,1.6030105E-2,-6.012815E-3,-3.7865218E-2,-2.0572664E-2,-7.049266E-3,-4.8797626E-2,-2.1385903E-2,-1.2574513E-2,7.359766E-2,5.29731E-3,-1.455521E-2,9.7898785E-3,1.05797626E-1,-1.2637307E-1,-1.9932989E-2,6.988402E-2,5.0893123E-3,-1.0929054E-2,2.7865734E-2,-7.7744313E-3,2.4931923E-2,3.2931764E-3,-7.235258E-3,2.9393226E-2,6.682603E-3,7.3362E-2,3.0897954E-2,-4.9690083E-3,2.6883897E-3,1.460584E-2,3.215344E-3,1.6999943E-2,-3.6036463E-3,4.6375077E-2,-9.827279E-5,-2.97265E-3,-5.741489E-3,3.565508E-2,-4.467039E-3,1.4054649E-2,8.075125E-2,2.110238E-2,3.172646E-3,-3.7060017E-3,8.698628E-3,-1.6672973E-2,-9.112701E-3,-9.182501E-3,-5.487024E-3,2.2537725E-3,-3.4818833E-3,-5.651437E-2,-1.2351162E-2,-5.581991E-3,-1.496473E-2,-5.999761E-3,4.5497235E-4,-4.810521E-3,2.6149776E-2,1.328325E-2,-2.5736913E-3,1.85645E-4,-5.2111144E-3,-8.003421E-3,1.8858047E-2,3.4427907E-2,-1.0207692E-2,-5.1832344E-2,-1.1354191E-2,-1.0290937E-2,1.3836994E-2,4.4428473E-3,2.8671028E-2,-5.9556477E-3,8.010314E-3,9.9663455E-3,-3.5859407E-3,-4.1295676E-3,1.1530006E-2],"categories":[0,0,0,0,0,0,0,0,0,0,0,0,0,0],"categories_nodes":[1,6,9,21,24,25,29,42,46,47,52,53,54,62],"categories_segments":[0,1,2,3,4,5,6,7,8,9,10,11,12,13],"categories_sizes":[1,1,1,1,1,1,1,1,1,1,1,1,1,1],"default_left":[0,1,0,0,0,0,1,0,0,1,0,0,0,0,0,0,0,0,0,0,0,1,0,0,1,1,0,0,0,1,0,0,0,0,0,0,0,0,0,0,0,0,1,0,0,0,1,1,0,0,0,0,1,1,1,0,0,0,0,0,0,0,1,0,0,0,0,0,0,0,0,0,0,0,0,0,0,0,0,0,0,0,0,0,0,0,0,0,0,0,0,0,0,0,0,0,0,0,0,0,0,0,0,0,0,0,0,0,0,0,0,0,0,0,0,0,0,0,0,0,0,0,0],"id":1,"left_children":[1,3,5,7,9,11,13,15,17,19,21,23,25,27,29,31,33,35,37,39,41,43,45,47,49,51,53,55,57,59,61,-1,63,65,67,69,71,73,-1,75,77,79,81,83,85,87,89,91,93,95,97,99,101,103,105,107,109,111,113,115,117,119,121,-1,-1,-1,-1,-1,-1,-1,-1,-1,-1,-1,-1,-1,-1,-1,-1,-1,-1,-1,-1,-1,-1,-1,-1,-1,-1,-1,-1,-1,-1,-1,-1,-1,-1,-1,-1,-1,-1,-1,-1,-1,-1,-1,-1,-1,-1,-1,-1,-1,-1,-1,-1,-1,-1,-1,-1,-1,-1,-1,-1],"loss_changes":[3.0101016E-1,4.828111E-1,9.100784E-2,4.1262364E-1,2.521265E-1,9.560749E-2,1.1757274E-1,1.5943652E-1,2.0787477E-1,5.3506903E-2,3.676802E-1,5.113426E-2,4.9430575E-2,2.4753022E-1,3.2623768E-2,1.6697209E-1,1.3087724E-1,2.1005428E-1,1.6776783E-2,9.5502086E-2,1.32781565E-2,2.2428322E-1,5.952377E-2,4.67899E-2,2.6352227E-2,3.235673E-2,1.7323481E-3,8.7183446E-2,4.3547995E-2,3.9217927E-2,3.5430633E-2,0E0,2.9309094E-2,4.132306E-2,8.019078E-2,2.2456491E-1,1.749765E-3,5.9081577E-3,0E0,9.744683E-2,2.008234E-2,9.433016E-3,2.279086E-2,4.1226292E-1,1.458982E-1,3.0324217E-2,1.2240082E-2,7.411912E-3,6.47867E-2,3.9087355E-2,1.4753349E-2,6.580618E-4,3.0585542E-2,4.1661556E-3,5.6607625E-4,2.877208E-2,5.0269604E-2,1.3999552E-2,2.0566927E-2,1.5560437E-2,2.4247319E-2,1.1836091E-2,1.19674895E-2,0E0,0E0,0E0,0E0,0E0,0E0,0E0,0E0,0E0,0E0,0E0,0E0,0E0,0E0,0E0,0E0,0E0,0E0,0E0,0E0,0E0,0E0,0E0,0E0,0E0,0E0,0E0,0E0,0E0,0E0,0E0,0E0,0E0,0E0,0E0,0E0,0E0,0E0,0E0,0E0,0E0,0E0,0E0,0E0,0E0,0E0,0E0,0E0,0E0,0E0,0E0,0E0,0E0,0E0,0E0,0E0,0E0,0E0,0E0,0E0],"parents":[2147483647,0,0,1,1,2,2,3,3,4,4,5,5,6,6,7,7,8,8,9,9,10,10,11,11,12,12,13,13,14,14,15,15,16,16,17,17,18,18,19,19,20,20,21,21,22,22,23,23,24,24,25,25,26,26,27,27,28,28,29,29,30,30,32,32,33,33,34,34,35,35,36,36,37,37,39,39,40,40,41,41,42,42,43,43,44,44,45,45,46,46,47,47,48,48,49,49,50,50,51,51,52,52,53,53,54,54,55,55,56,56,57,57,58,58,59,59,60,60,61,61,62,62],"right_children":[2,4,6,8,10,12,14,16,18,20,22,24,26,28,30,32,34,36,38,40,42,44,46,48,50,52,54,56,58,60,62,-1,64,66,68,70,72,74,-1,76,78,80,82,84,86,88,90,92,94,96,98,100,102,104,106,108,110,112,114,116,118,120,122,-1,-1,-1,-1,-1,-1,-1,-1,-1,-1,-1,-1,-1,-1,-1,-1,-1,-1,-1,-1,-1,-1,-1,-1,-1,-1,-1,-1,-1,-1,-1,-1,-1,-1,-1,-1,-1,-1,-1,-1,-1,-1,-1,-1,-1,-1,-1,-1,-1,-1,-1,-1,-1,-1,-1,-1,-1,-1,-1,-1],"split_conditions":[1.3305043E-1,NaN,1.6753075E-1,5.5199933E-1,2.678211E-1,8.629284E-1,NaN,4.057244E-7,9.077536E-3,NaN,2.0640664E0,6.5446806E-1,1.374E3,5.868889E-1,3.4778864E0,9.845927E0,7.4298245E-1,8.3237004E-1,5E2,5.9971362E-2,7.1775347E-1,NaN,3.35E2,1.0355607E-1,NaN,NaN,3.249E3,8.6687356E-2,1.840298E-1,NaN,8.9216E-1,8.9978136E-2,-7.4164486E-1,7.157143E1,4.1056972E-2,3.49E2,5.1E1,1.4355211E0,-7.3882164E-3,2.5053049E-2,6.2E1,6.6859734E-1,NaN,4.303862E-1,2.1641052E-8,1.060145E-1,NaN,NaN,5.463433E-1,3.4266667E0,1.5855494E-1,1.3525E3,NaN,NaN,NaN,7.04433E1,4.128665E-1,1.27E2,8.900186E-2,1.8327105E-1,5.596967E-2,3.090274E-2,NaN,-7.7744313E-3,2.4931923E-2,3.2931764E-3,-7.235258E-3,2.9393226E-2,6.682603E-3,7.3362E-2,3.0897954E-2,-4.9690083E-3,2.6883897E-3,1.460584E-2,3.215344E-3,1.6999943E-2,-3.6036463E-3,4.6375077E-2,-9.827279E-5,-2.97265E-3,-5.741489E-3,3.565508E-2,-4.467039E-3,1.4054649E-2,8.075125E-2,2.110238E-2,3.172646E-3,-3.7060017E-3,8.698628E-3,-1.6672973E-2,-9.112701E-3,-9.182501E-3,-5.487024E-3,2.2537725E-3,-3.4818833E-3,-5.651437E-2,-1.2351162E-2,-5.581991E-3,-1.496473E-2,-5.999761E-3,4.5497235E-4,-4.810521E-3,2.6149776E-2,1.328325E-2,-2.5736913E-3,1.85645E-4,-5.2111144E-3,-8.003421E-3,1.8858047E-2,3.4427907E-2,-1.0207692E-2,-5.1832344E-2,-1.1354191E-2,-1.0290937E-2,1.3836994E-2,4.4428473E-3,2.8671028E-2,-5.9556477E-3,8.010314E-3,9.9663455E-3,-3.5859407E-3,-4.1295676E-3,1.1530006E-2],"split_indices":[3,31,19,20,28,18,33,5,3,33,28,24,2,12,22,9,24,20,0,11,6,33,1,28,33,29,1,28,16,31,21,0,7,15,3,1,1,23,0,14,1,10,29,6,5,3,33,33,25,9,4,2,30,33,32,15,19,1,5,16,14,26,30,0,0,0,0,0,0,0,0,0,0,0,0,0,0,0,0,0,0,0,0,0,0,0,0,0,0,0,0,0,0,0,0,0,0,0,0,0,0,0,0,0,0,0,0,0,0,0,0,0,0,0,0,0,0,0,0,0,0,0,0],"split_type":[0,1,0,0,0,0,1,0,0,1,0,0,0,0,0,0,0,0,0,0,0,1,0,0,1,1,0,0,0,1,0,0,0,0,0,0,0,0,0,0,0,0,1,0,0,0,1,1,0,0,0,0,1,1,1,0,0,0,0,0,0,0,1,0,0,0,0,0,0,0,0,0,0,0,0,0,0,0,0,0,0,0,0,0,0,0,0,0,0,0,0,0,0,0,0,0,0,0,0,0,0,0,0,0,0,0,0,0,0,0,0,0,0,0,0,0,0,0,0,0,0,0,0],"sum_hessian":[3.928E3,1.918E3,2.01E3,3.27E2,1.591E3,1.607E3,4.03E2,2.38E2,8.9E1,7.22E2,8.69E2,1.561E3,4.6E1,7.2E1,3.31E2,1.3E1,2.25E2,6E1,2.9E1,1.47E2,5.75E2,6.31E2,2.38E2,1.321E3,2.4E2,2.8E1,1.8E1,4.9E1,2.3E1,5.4E1,2.77E2,3E0,1E1,1.68E2,5.7E1,5.1E1,9E0,2.5E1,4E0,1.42E2,5E0,5.71E2,4E0,1.37E2,4.94E2,1.34E2,1.04E2,3.47E2,9.74E2,4.3E1,1.97E2,5E0,2.3E1,6E0,1.2E1,1.3E1,3.6E1,4E0,1.9E1,1.1E1,4.3E1,2.52E2,2.5E1,3E0,7E0,1.23E2,4.5E1,2.5E1,3.2E1,1.9E1,3.2E1,5E0,4E0,1.9E1,6E0,2.4E1,1.18E2,4E0,1E0,1.56E2,4.15E2,1E0,3E0,1.29E2,8E0,4.4E1,4.5E2,1.14E2,2E1,2.9E1,7.5E1,6.2E1,2.85E2,2.32E2,7.42E2,1E0,4.2E1,1.81E2,1.6E1,3E0,2E0,3E0,2E1,1E0,5E0,2E0,1E1,8E0,5E0,3.4E1,2E0,2E0,2E0,1.6E1,3E0,4E0,7E0,2E1,2.3E1,5E0,2.47E2,5E0,2E1],"tree_param":{"num_deleted":"0","num_feature":"35","num_nodes":"123","size_leaf_vector":"1"}},{"base_weights":[2.203429E-4,-1.8653775E-2,3.3305353E-3,1.6764965E-2,-2.0075379E-2,1.5089516E-2,-1.5869085E-3,-2.0321196E-2,3.9408572E-2,-8.9871496E-2,-1.9380359E-2,4.8618328E-2,6.646234E-3,-6.5887673E-3,9.840216E-3,-1.3748346E-2,-1.0935599E-2,5.6819096E-2,-3.294193E-3,-3.33578E-2,-6.880252E-4,1.4002329E-3,-2.1030447E-2,3.981262E-2,1.7222255E-1,6.540996E-2,2.110858E-3,-6.9721937E-3,1.00015625E-1,3.5016384E-2,3.211621E-3,-4.4626826E-3,-8.786269E-4,2.1513857E-2,4.9650753E-3,-7.3214616E-3,8.084694E-3,8.034551E-2,-1.48943905E-2,-3.092293E-2,-1.9091953E-2,5.271908E-2,-4.935187E-3,-1.3021454E-3,2.0389089E-1,-2.7457483E-2,9.078477E-2,6.919467E-2,-1.1182233E-3,-1.442997E-2,-2.332602E-3,-2.7359403E-3,1.2366667E-1,1.79167E-2,1.4612348E-1,-1.0233226E-2,8.975261E-3,7.697993E-4,3.6961178E-3,2.8764019E-2,-1.9292638E-3,-5.849093E-3,2.054865E-2,-5.011885E-3,-1.1274576E-2,-6.066599E-3,-1.0177065E-3,3.232439E-2,1.1267584E-2,6.361686E-3,-5.4858346E-3,6.926519E-3,-7.512484E-3,2.1744873E-2,6.751171E-2,7.1857125E-3,-1.3582705E-2,1.0893478E-2,3.284786E-2,4.005062E-2,1.1051202E-2,6.5399474E-4,-8.682051E-3,-8.1393495E-3,-3.2894574E-3,-1.8600709E-3,5.4951827E-3,1.0179665E-3,4.5866016E-2,1.545768E-2,-5.2557066E-3,2.5945246E-2,8.1260376E-2,5.627145E-3,-3.99214E-3,6.502555E-3,-1.0931254E-3],"categories":[0,0,0,0,0,0,0,0],"categories_nodes":[0,5,14,28,45,47,49,52],"categories_segments":[0,1,2,3,4,5,6,7],"categories_sizes":[1,1,1,1,1,1,1,1],"default_left":[1,0,0,0,0,1,0,0,0,0,0,0,0,0,1,0,0,0,0,0,0,0,0,0,0,0,0,0,1,0,0,0,0,0,0,0,0,0,0,0,0,0,0,0,0,1,0,1,0,1,0,0,1,0,0,0,0,0,0,0,0,0,0,0,0,0,0,0,0,0,0,0,0,0,0,0,0,0,0,0,0,0,0,0,0,0,0,0,0,0,0,0,0,0,0,0,0],"id":2,"left_children":[1,3,5,7,9,11,13,15,17,19,21,23,25,27,29,31,-1,33,35,-1,-1,37,39,41,43,45,47,49,51,53,55,-1,-1,-1,-1,-1,57,59,61,63,65,67,69,71,73,75,77,79,81,83,85,-1,87,89,91,93,95,-1,-1,-1,-1,-1,-1,-1,-1,-1,-1,-1,-1,-1,-1,-1,-1,-1,-1,-1,-1,-1,-1,-1,-1,-1,-1,-1,-1,-1,-1,-1,-1,-1,-1,-1,-1,-1,-1,-1,-1],"loss_changes":[2.3070285E-1,2.8331965E-2,1.9512254E-1,1.9275645E-2,2.421096E-2,2.8135464E-1,1.3609816E-1,4.5307307E-4,1.0595858E-2,9.081323E-3,1.8237352E-2,2.1082798E-1,2.1200836E-1,6.838629E-2,1.20877445E-1,5.4005068E-5,0E0,4.810676E-3,1.3983861E-3,0E0,0E0,5.2652046E-2,8.844465E-3,1.0883689E-1,7.170352E-2,1.3681293E-1,1.6037549E-1,5.709265E-2,1.661482E-2,2.842663E-1,4.464932E-2,0E0,0E0,0E0,0E0,0E0,6.1888044E-5,1.0052815E-2,1.4384969E-2,6.8509653E-3,7.2762817E-3,1.1775559E-1,1.5394939E-2,2.3152262E-3,1.4257938E-2,1.299286E-2,4.188311E-2,6.582986E-2,6.493918E-2,2.75615E-2,8.14972E-2,0E0,1.7053202E-2,1.5810882E-1,1.253677E-1,1.5666269E-2,6.4663954E-2,0E0,0E0,0E0,0E0,0E0,0E0,0E0,0E0,0E0,0E0,0E0,0E0,0E0,0E0,0E0,0E0,0E0,0E0,0E0,0E0,0E0,0E0,0E0,0E0,0E0,0E0,0E0,0E0,0E0,0E0,0E0,0E0,0E0,0E0,0E0,0E0,0E0,0E0,0E0,0E0],"parents":[2147483647,0,0,1,1,2,2,3,3,4,4,5,5,6,6,7,7,8,8,9,9,10,10,11,11,12,12,13,13,14,14,15,15,17,17,18,18,21,21,22,22,23,23,24,24,25,25,26,26,27,27,28,28,29,29,30,30,36,36,37,37,38,38,39,39,40,40,41,41,42,42,43,43,44,44,45,45,46,46,47,47,48,48,49,49,50,50,52,52,53,53,54,54,55,55,56,56],"right_children":[2,4,6,8,10,12,14,16,18,20,22,24,26,28,30,32,-1,34,36,-1,-1,38,40,42,44,46,48,50,52,54,56,-1,-1,-1,-1,-1,58,60,62,64,66,68,70,72,74,76,78,80,82,84,86,-1,88,90,92,94,96,-1,-1,-1,-1,-1,-1,-1,-1,-1,-1,-1,-1,-1,-1,-1,-1,-1,-1,-1,-1,-1,-1,-1,-1,-1,-1,-1,-1,-1,-1,-1,-1,-1,-1,-1,-1,-1,-1,-1,-1],"split_conditions":[NaN,-7.2508687E-1,4.827643E-2,1.5168937E-1,-9.0408045E-1,NaN,5.6726545E-2,8.971019E-2,3.7511757E1,4.5E2,-5.5335647E-1,1.3029088E-1,5.5044213E-5,6.3675493E-1,NaN,-6.664844E-1,-1.0935599E-2,5.2E1,5.7E2,-3.33578E-2,-6.880252E-4,-2.007837E-3,3.5262156E-2,5E2,-5.4365796E-1,-7.4164486E-1,-6.300059E-1,4.3997464E-1,NaN,3.9124184E1,2.0593297E-1,-4.4626826E-3,-8.786269E-4,2.1513857E-2,4.9650753E-3,-7.3214616E-3,8.5886836E-1,7.214818E-1,3.501238E0,2.004462E-1,6.748276E1,2.2640373E-1,9.935596E-1,8.2E1,8.403888E0,NaN,1.2982571E-3,NaN,2.1628487E0,NaN,3.9215755E-1,-2.7359403E-3,NaN,4.9905768E-1,6.855267E-1,4.2904112E-3,6.610262E-1,7.697993E-4,3.6961178E-3,2.8764019E-2,-1.9292638E-3,-5.849093E-3,2.054865E-2,-5.011885E-3,-1.1274576E-2,-6.066599E-3,-1.0177065E-3,3.232439E-2,1.1267584E-2,6.361686E-3,-5.4858346E-3,6.926519E-3,-7.512484E-3,2.1744873E-2,6.751171E-2,7.1857125E-3,-1.3582705E-2,1.0893478E-2,3.284786E-2,4.005062E-2,1.1051202E-2,6.5399474E-4,-8.682051E-3,-8.1393495E-3,-3.2894574E-3,-1.8600709E-3,5.4951827E-3,1.0179665E-3,4.5866016E-2,1.545768E-2,-5.2557066E-3,2.5945246E-2,8.1260376E-2,5.627145E-3,-3.99214E-3,6.502555E-3,-1.0931254E-3],"split_indices":[30,7,3,28,19,31,19,28,8,1,6,14,5,6,33,6,0,1,0,0,0,11,3,0,6,7,19,16,31,17,28,0,0,0,0,0,5,5,28,28,22,27,21,0,8,29,3,34,28,33,5,0,29,10,6,5,28,0,0,0,0,0,0,0,0,0,0,0,0,0,0,0,0,0,0,0,0,0,0,0,0,0,0,0,0,0,0,0,0,0,0,0,0,0,0,0,0],"split_type":[1,0,0,0,0,1,0,0,0,0,0,0,0,0,1,0,0,0,0,0,0,0,0,0,0,0,0,0,1,0,0,0,0,0,0,0,0,0,0,0,0,0,0,0,0,1,0,1,0,1,0,0,1,0,0,0,0,0,0,0,0,0,0,0,0,0,0,0,0,0,0,0,0,0,0,0,0,0,0,0,0,0,0,0,0,0,0,0,0,0,0,0,0,0,0,0,0],"sum_hessian":[3.928E3,5.55E2,3.373E3,2.1E1,5.34E2,9.94E2,2.379E3,8E0,1.3E1,4E0,5.3E2,1.99E2,7.95E2,1.655E3,7.24E2,7E0,1E0,9E0,4E0,3E0,1E0,3.9E1,4.91E2,1.87E2,1.2E1,5.6E1,7.39E2,1.65E3,5E0,1.5E2,5.74E2,6E0,1E0,6E0,3E0,1E0,3E0,6E0,3.3E1,7.8E1,4.13E2,1.45E2,4.2E1,2E0,1E1,1.2E1,4.4E1,3.3E1,7.06E2,6.32E2,1.018E3,1E0,4E0,1.31E2,1.9E1,1.72E2,4.02E2,2E0,1E0,5E0,1E0,3.2E1,1E0,2.6E1,5.2E1,3.85E2,2.8E1,3E1,1.15E2,1.4E1,2.8E1,1E0,1E0,2E0,8E0,3E0,9E0,1.2E1,3.2E1,1E1,2.3E1,6.32E2,7.4E1,1.34E2,4.98E2,8.58E2,1.6E2,1E0,3E0,6.7E1,6.4E1,1.4E1,5E0,1.6E1,1.56E2,2E2,2.02E2],"tree_param":{"num_deleted":"0","num_feature":"35","num_nodes":"97","size_leaf_vector":"1"}},{"base_weights":[2.473496E-4,-9.1346735E-3,3.4065181E-3,-5.1461044E-4,-1.1023659E-2,-1.3920793E-2,6.212046E-3,2.9174184E-2,-6.68802E-3,2.5781471E-2,-1.1607963E-2,2.3190599E-2,-1.5291375E-2,3.7894372E-3,2.7000926E-2,1.0370373E-1,7.138945E-3,1.8244524E-2,-1.3126851E-2,5.9544757E-2,-3.499464E-3,-7.978937E-3,-1.4680886E-2,-9.29526E-3,2.9273383E-2,-6.971921E-2,-1.4558134E-2,3.4095037E-3,1.464561E-1,3.4895778E-2,-1.2196138E-2,4.5622844E-2,-3.4454593E-3,-1.5980793E-2,5.8265988E-2,-3.700037E-3,9.401159E-2,-1.0499293E-2,-1.385685E-2,4.3715615E-2,2.089598E-2,-1.1919693E-2,-1.3725075E-3,-2.634128E-2,-1.2236456E-2,4.242126E-2,-2.8770436E-3,-2.5852295E-2,-5.848216E-4,3.3175196E-3,-1.6319942E-2,-8.6109864E-4,1.21472925E-2,-5.788271E-3,1.83465E-1,8.093568E-2,2.2925941E-2,-2.5738966E-2,3.2003418E-2,-6.746505E-3,7.2159306E-3,2.6910791E-2,-7.208792E-3,-5.4173935E-3,1.0740028E-2,3.2687094E-2,6.508934E-4,-7.8536797E-4,-3.2042384E-3,-4.2315633E-3,-1.4972375E-3,-2.8083026E-3,8.645874E-3,-3.3940705E-3,-9.829145E-3,5.129975E-3,-1.6720431E-3,-2.8402343E-2,-6.005252E-3,-5.805445E-3,-3.1338404E-3,1.5981723E-2,3.8479331E-3,-6.2232423E-3,2.0327296E-3,1.4905816E-2,-4.92826E-3,-5.491817E-3,-1.2132948E-3,6.273932E-3,-1.162002E-3,3.3500683E-4,8.265286E-3,-5.286644E-3,7.144269E-2,5.2592855E-2,1.1135367E-2,4.555782E-3,2.0720437E-2,-1.5960243E-2,-5.0920434E-3,-2.2529995E-3,1.2485587E-2],"categories":[0,0,0,0,0,0,0,0,0,0,0,0,0],"categories_nodes":[2,3,8,18,19,22,28,29,40,42,54,57,58],"categories_segments":[0,1,2,3,4,5,6,7,8,9,10,11,12],"categories_sizes":[1,1,1,1,1,1,1,1,1,1,1,1,1],"default_left":[0,0,1,1,0,0,0,0,1,0,0,0,0,0,0,0,0,0,1,1,0,0,1,0,0,0,0,0,1,1,0,0,0,0,0,0,0,0,0,0,1,0,1,0,0,0,0,0,0,0,0,0,0,0,1,0,0,1,1,0,0,0,0,0,0,0,0,0,0,0,0,0,0,0,0,0,0,0,0,0,0,0,0,0,0,0,0,0,0,0,0,0,0,0,0,0,0,0,0,0,0,0,0],"id":3,"left_children":[1,3,5,7,9,11,13,15,17,19,21,23,25,27,29,31,33,35,37,39,-1,41,43,-1,45,47,49,51,53,55,57,-1,-1,59,61,63,65,67,69,-1,71,73,75,77,79,81,83,-1,-1,85,87,89,91,-1,93,95,97,99,101,-1,-1,-1,-1,-1,-1,-1,-1,-1,-1,-1,-1,-1,-1,-1,-1,-1,-1,-1,-1,-1,-1,-1,-1,-1,-1,-1,-1,-1,-1,-1,-1,-1,-1,-1,-1,-1,-1,-1,-1,-1,-1,-1,-1],"loss_changes":[1.16484284E-1,1.6114667E-2,1.4300652E-1,3.3002432E-2,1.7761633E-2,2.1208912E-2,1.2736727E-1,5.017024E-2,2.415942E-2,1.7130636E-2,8.804239E-3,5.850017E-3,1.4788881E-2,1.2243494E-1,8.2121715E-2,4.0750228E-2,3.0482233E-2,5.1890776E-2,8.27685E-5,2.026869E-2,0E0,9.590305E-3,1.1990972E-2,0E0,6.0399845E-3,5.4078065E-3,1.2399577E-2,8.445571E-2,4.034525E-2,1.1938429E-1,2.7760148E-2,0E0,0E0,5.2303243E-3,2.2852195E-2,1.482499E-2,9.371892E-3,1.495285E-5,1.2778305E-4,0E0,1.7082461E-3,2.5478154E-3,1.0881995E-2,3.008201E-2,4.3708608E-3,2.5280807E-3,1.0028956E-3,0E0,0E0,3.377599E-2,8.629911E-3,9.984211E-2,1.2621358E-1,0E0,5.917111E-2,1.7957923E-1,6.180787E-2,7.5220726E-3,4.491782E-3,0E0,0E0,0E0,0E0,0E0,0E0,0E0,0E0,0E0,0E0,0E0,0E0,0E0,0E0,0E0,0E0,0E0,0E0,0E0,0E0,0E0,0E0,0E0,0E0,0E0,0E0,0E0,0E0,0E0,0E0,0E0,0E0,0E0,0E0,0E0,0E0,0E0,0E0,0E0,0E0,0E0,0E0,0E0,0E0],"parents":[2147483647,0,0,1,1,2,2,3,3,4,4,5,5,6,6,7,7,8,8,9,9,10,10,11,11,12,12,13,13,14,14,15,15,16,16,17,17,18,18,19,19,21,21,22,22,24,24,25,25,26,26,27,27,28,28,29,29,30,30,33,33,34,34,35,35,36,36,37,37,38,38,40,40,41,41,42,42,43,43,44,44,45,45,46,46,49,49,50,50,51,51,52,52,54,54,55,55,56,56,57,57,58,58],"right_children":[2,4,6,8,10,12,14,16,18,20,22,24,26,28,30,32,34,36,38,40,-1,42,44,-1,46,48,50,52,54,56,58,-1,-1,60,62,64,66,68,70,-1,72,74,76,78,80,82,84,-1,-1,86,88,90,92,-1,94,96,98,100,102,-1,-1,-1,-1,-1,-1,-1,-1,-1,-1,-1,-1,-1,-1,-1,-1,-1,-1,-1,-1,-1,-1,-1,-1,-1,-1,-1,-1,-1,-1,-1,-1,-1,-1,-1,-1,-1,-1,-1,-1,-1,-1,-1,-1],"split_conditions":[1.0561438E-1,1.31E2,NaN,NaN,-6.994694E-1,-7.2508687E-1,3.2752517E-1,-1.8982476E-1,NaN,5.7E2,-2.3478316E-1,1.5168937E-1,-9.0408045E-1,8.575388E-1,4.32E2,1.1316702E-2,7.321971E-2,2.2785954E1,NaN,NaN,-3.499464E-3,7.272763E-2,NaN,-9.29526E-3,3.7511757E1,4.5E2,-5.5335647E-1,3.1730476E-1,NaN,NaN,2.048089E-1,4.5622844E-2,-3.4454593E-3,4.5592594E1,1.8835409E-1,1.4235258E-1,3.2E1,4.0933332E0,3.3920264E-1,4.3715615E-2,NaN,7.055668E-2,NaN,3.0046483E-3,2.9E1,5.2E1,5.7E2,-2.5852295E-2,-5.848216E-4,-1.874375E-1,4.386385E0,2.3544855E-5,1.26081085E1,-5.788271E-3,NaN,-1.2591796E-2,2.4810977E-1,NaN,NaN,-6.746505E-3,7.2159306E-3,2.6910791E-2,-7.208792E-3,-5.4173935E-3,1.0740028E-2,3.2687094E-2,6.508934E-4,-7.8536797E-4,-3.2042384E-3,-4.2315633E-3,-1.4972375E-3,-2.8083026E-3,8.645874E-3,-3.3940705E-3,-9.829145E-3,5.129975E-3,-1.6720431E-3,-2.8402343E-2,-6.005252E-3,-5.805445E-3,-3.1338404E-3,1.5981723E-2,3.8479331E-3,-6.2232423E-3,2.0327296E-3,1.4905816E-2,-4.92826E-3,-5.491817E-3,-1.2132948E-3,6.273932E-3,-1.162002E-3,3.3500683E-4,8.265286E-3,-5.286644E-3,7.144269E-2,5.2592855E-2,1.1135367E-2,4.555782E-3,2.0720437E-2,-1.5960243E-2,-5.0920434E-3,-2.2529995E-3,1.2485587E-2],"split_indices":[28,0,30,33,6,7,6,19,31,0,7,28,19,24,1,6,6,9,30,33,0,28,33,0,8,1,6,5,32,33,5,0,0,13,3,3,1,13,6,0,30,28,33,14,1,1,0,0,0,19,16,5,22,0,34,11,19,33,29,0,0,0,0,0,0,0,0,0,0,0,0,0,0,0,0,0,0,0,0,0,0,0,0,0,0,0,0,0,0,0,0,0,0,0,0,0,0,0,0,0,0,0,0],"split_type":[0,0,1,1,0,0,0,0,1,0,0,0,0,0,0,0,0,0,1,1,0,0,1,0,0,0,0,0,1,1,0,0,0,0,0,0,0,0,0,0,1,0,1,0,0,0,0,0,0,0,0,0,0,0,1,0,0,1,1,0,0,0,0,0,0,0,0,0,0,0,0,0,0,0,0,0,0,0,0,0,0,0,0,0,0,0,0,0,0,0,0,0,0,0,0,0,0,0,0,0,0,0,0],"sum_hessian":[3.928E3,9.89E2,2.939E3,1.78E2,8.11E2,4.09E2,2.53E3,3E1,1.48E2,1.2E1,7.99E2,1.4E1,3.95E2,2.267E3,2.63E2,6E0,2.4E1,3E1,1.18E2,6E0,6E0,3.68E2,4.31E2,1E0,1.3E1,4E0,3.91E2,2.262E3,5E0,2.19E2,4.4E1,4E0,2E0,1.7E1,7E0,2.4E1,6E0,2.9E1,8.9E1,1E0,5E0,2.3E2,1.38E2,7.3E1,3.58E2,9E0,4E0,3E0,1E0,3.5E1,3.56E2,1.52E3,7.42E2,1E0,4E0,4.4E1,1.75E2,3.4E1,1E1,1.5E1,2E0,5E0,2E0,1.8E1,6E0,5E0,1E0,1E0,2.8E1,8.6E1,3E0,1E0,4E0,2.25E2,5E0,2.5E1,1.13E2,5E0,6.8E1,7E1,2.88E2,6E0,3E0,1E0,3E0,1E1,2.5E1,3.06E2,5E1,1.84E2,1.336E3,4.33E2,3.09E2,1E0,3E0,1.3E1,3.1E1,1.51E2,2.4E1,7E0,2.7E1,2E0,8E0],"tree_param":{"num_deleted":"0","num_feature":"35","num_nodes":"103","size_leaf_vector":"1"}},{"base_weights":[2.290564E-4,1.0271963E-2,-1.9173056E-3,3.9416146E-3,5.3676378E-2,6.282436E-3,-4.235206E-3,3.0727971E-2,-1.3984925E-4,5.930358E-2,4.6268314E-2,-5.377876E-2,1.0788868E-2,5.009195E-2,-4.6452503E-3,1.1734637E-2,1.1942978E-1,-9.132184E-4,1.0101314E-1,3.1139124E-2,1.2766543E-1,-2.2803382E-3,-1.1413429E-1,9.69606E-2,8.241648E-3,4.489025E-2,-2.0443859E-2,-1.9526489E-3,-1.0243065E-2,-1.3188394E-2,3.631253E-2,-2.9464846E-2,1.8193412E-1,5.4787878E-2,-2.1058088E-3,3.841173E-2,2.9902898E-3,3.8843025E-2,-4.7046654E-2,4.118681E-4,1.50765E-1,-2.252978E-2,5.2192487E-2,-1.8068019E-1,-6.65978E-2,-1.4516962E-2,1.2765574E-1,2.7564794E-4,2.7400523E-2,3.1410055E-3,-5.409087E-2,-7.2975587E-3,1.8518893E-2,-1.4391617E-2,-3.6934686E-3,-1.2239E-3,-2.414518E-2,1.7541071E-2,3.2146215E-3,-1.0455943E-2,-1.1867502E-3,6.298714E-2,-1.054096E-2,9.620071E-3,3.1406455E-2,1.2605616E-3,-4.5598736E-3,6.54203E-2,8.992061E-3,-2.1844948E-2,-2.8545456E-3,6.0618417E-3,-5.876501E-3,2.3739602E-2,5.4118074E-2,2.3770705E-5,-1.1734504E-2,-1.4866372E-2,-5.7262976E-2,-5.924442E-3,-3.153682E-2,4.677968E-3,-7.782845E-3,2.3827067E-2,5.142961E-2,-5.494667E-4,4.7797073E-2,3.6583238E-3,2.4208086E-2,2.3773613E-3,-4.5515574E-3,-2.0035528E-2,-4.970983E-4,-6.452485E-4,-2.8711245E-3,1.2940979E-2,2.2200532E-3,2.6661174E-2,-4.6222946E-3,5.0625843E-3,-2.0688728E-3],"categories":[0,0,0,0],"categories_nodes":[0,2,13,26],"categories_segments":[0,1,2,3],"categories_sizes":[1,1,1,1],"default_left":[1,0,1,0,0,0,0,0,0,0,0,0,0,1,0,0,0,0,0,0,0,0,0,0,0,0,1,0,0,0,0,0,0,0,0,0,0,0,0,0,0,0,0,0,0,0,0,0,0,0,0,0,0,0,0,0,0,0,0,0,0,0,0,0,0,0,0,0,0,0,0,0,0,0,0,0,0,0,0,0,0,0,0,0,0,0,0,0,0,0,0,0,0,0,0,0,0,0,0,0,0],"id":4,"left_children":[1,3,5,7,9,11,13,15,17,-1,19,21,23,25,27,29,31,33,35,37,39,41,43,45,47,-1,49,51,53,55,57,59,61,63,65,-1,-1,67,69,71,73,75,-1,77,79,81,83,85,87,89,91,93,95,97,99,-1,-1,-1,-1,-1,-1,-1,-1,-1,-1,-1,-1,-1,-1,-1,-1,-1,-1,-1,-1,-1,-1,-1,-1,-1,-1,-1,-1,-1,-1,-1,-1,-1,-1,-1,-1,-1,-1,-1,-1,-1,-1,-1,-1,-1,-1],"loss_changes":[8.471209E-2,1.8992582E-1,6.1568633E-2,6.614746E-2,8.473015E-2,1.938327E-1,5.6480933E-2,1.3337798E-1,4.1240487E-2,0E0,1.0069977E-1,1.5515043E-1,1.4516732E-1,1.3646361E-1,3.7767213E-2,4.1520134E-2,1.356525E-1,3.4857526E-2,8.5661225E-3,4.579792E-2,3.8151443E-2,1.0385363E-1,6.0724348E-2,6.6867754E-2,9.8737314E-2,0E0,9.692622E-3,1.8549015E-1,2.206432E-2,2.051286E-2,1.8657371E-2,5.4937694E-4,6.820691E-2,9.114593E-3,4.2433206E-2,0E0,0E0,9.996903E-2,6.077406E-3,1.5834731E-3,9.07132E-3,9.752467E-3,0E0,2.574265E-3,2.4997212E-2,2.1247054E-3,1.8055648E-2,1.5378883E-1,1.529883E-1,8.210312E-4,3.217373E-3,1.5701234E-2,9.5755525E-2,5.361826E-2,2.0999402E-2,0E0,0E0,0E0,0E0,0E0,0E0,0E0,0E0,0E0,0E0,0E0,0E0,0E0,0E0,0E0,0E0,0E0,0E0,0E0,0E0,0E0,0E0,0E0,0E0,0E0,0E0,0E0,0E0,0E0,0E0,0E0,0E0,0E0,0E0,0E0,0E0,0E0,0E0,0E0,0E0,0E0,0E0,0E0,0E0,0E0,0E0],"parents":[2147483647,0,0,1,1,2,2,3,3,4,4,5,5,6,6,7,7,8,8,10,10,11,11,12,12,13,13,14,14,15,15,16,16,17,17,18,18,19,19,20,20,21,21,22,22,23,23,24,24,26,26,27,27,28,28,29,29,30,30,31,31,32,32,33,33,34,34,37,37,38,38,39,39,40,40,41,41,43,43,44,44,45,45,46,46,47,47,48,48,49,49,50,50,51,51,52,52,53,53,54,54],"right_children":[2,4,6,8,10,12,14,16,18,-1,20,22,24,26,28,30,32,34,36,38,40,42,44,46,48,-1,50,52,54,56,58,60,62,64,66,-1,-1,68,70,72,74,76,-1,78,80,82,84,86,88,90,92,94,96,98,100,-1,-1,-1,-1,-1,-1,-1,-1,-1,-1,-1,-1,-1,-1,-1,-1,-1,-1,-1,-1,-1,-1,-1,-1,-1,-1,-1,-1,-1,-1,-1,-1,-1,-1,-1,-1,-1,-1,-1,-1,-1,-1,-1,-1,-1,-1],"split_conditions":[NaN,5.537681E-1,NaN,4.977789E-3,1.5613545E1,4.5252517E-3,-9.0408045E-1,1.0118719E-2,1.2007354E0,5.930358E-2,1.3029088E-1,8.110818E-1,6.6388985E-3,NaN,7.3874533E-1,5.1647174E-1,1.598657E0,3.1489363E0,1.64E2,1.0825098E0,-5.4365796E-1,6.25577E-2,3.2408077E-3,8.919401E-1,3.1730476E-1,4.489025E-2,NaN,4.6074554E-1,4.361571E-1,9.9659705E-1,1E1,9.6E1,8.294314E-1,2.0776398E0,6.655604E-1,3.841173E-2,2.9902898E-3,2.2E1,1.0069376E-1,8.2E1,1.9081609E-1,8.971019E-2,5.2192487E-2,4.7984146E-4,7.869439E0,2.54E2,1.0391198E0,7.028005E-1,8.610581E-1,4.1056972E-2,4.5E2,5E1,1.0051541E-1,-6.500531E-1,4.9770924E-1,-1.2239E-3,-2.414518E-2,1.7541071E-2,3.2146215E-3,-1.0455943E-2,-1.1867502E-3,6.298714E-2,-1.054096E-2,9.620071E-3,3.1406455E-2,1.2605616E-3,-4.5598736E-3,6.54203E-2,8.992061E-3,-2.1844948E-2,-2.8545456E-3,6.0618417E-3,-5.876501E-3,2.3739602E-2,5.4118074E-2,2.3770705E-5,-1.1734504E-2,-1.4866372E-2,-5.7262976E-2,-5.924442E-3,-3.153682E-2,4.677968E-3,-7.782845E-3,2.3827067E-2,5.142961E-2,-5.494667E-4,4.7797073E-2,3.6583238E-3,2.4208086E-2,2.3773613E-3,-4.5515574E-3,-2.0035528E-2,-4.970983E-4,-6.452485E-4,-2.8711245E-3,1.2940979E-2,2.2200532E-3,2.6661174E-2,-4.6222946E-3,5.0625843E-3,-2.0688728E-3],"split_indices":[31,20,33,5,9,3,19,11,18,0,14,25,3,34,28,24,23,22,1,10,6,14,3,10,5,0,29,28,18,21,22,0,25,9,12,0,0,1,14,0,5,28,0,3,8,1,15,6,10,3,1,1,3,6,18,0,0,0,0,0,0,0,0,0,0,0,0,0,0,0,0,0,0,0,0,0,0,0,0,0,0,0,0,0,0,0,0,0,0,0,0,0,0,0,0,0,0,0,0,0,0],"split_type":[1,0,1,0,0,0,0,0,0,0,0,0,0,1,0,0,0,0,0,0,0,0,0,0,0,0,1,0,0,0,0,0,0,0,0,0,0,0,0,0,0,0,0,0,0,0,0,0,0,0,0,0,0,0,0,0,0,0,0,0,0,0,0,0,0,0,0,0,0,0,0,0,0,0,0,0,0,0,0,0,0,0,0,0,0,0,0,0,0,0,0,0,0,0,0,0,0,0,0,0,0],"sum_hessian":[3.928E3,6.91E2,3.237E3,6.04E2,8.7E1,7.13E2,2.524E3,7.9E1,5.25E2,3E0,8.4E1,4.9E1,6.64E2,1.8E1,2.506E3,6.6E1,1.3E1,5.22E2,3E0,7.2E1,1.2E1,2.7E1,2.2E1,1.8E1,6.46E2,7E0,1.1E1,1.693E3,8.13E2,3.3E1,3.3E1,4E0,9E0,1E1,5.12E2,2E0,1E0,6.6E1,6E0,2E0,1E1,2.5E1,2E0,8E0,1.4E1,4E0,1.4E1,4.57E2,1.89E2,7E0,4E0,1.343E3,3.5E2,4.97E2,3.16E2,3E1,3E0,1.7E1,1.6E1,3E0,1E0,8E0,1E0,8E0,2E0,3.46E2,1.66E2,2E0,6.4E1,3E0,3E0,1E0,1E0,4E0,6E0,1.1E1,1.4E1,1E0,7E0,7E0,7E0,1E0,3E0,8E0,6E0,4.52E2,5E0,1.48E2,4.1E1,6E0,1E0,3E0,1E0,4.12E2,9.31E2,1.08E2,2.42E2,4E0,4.93E2,4.2E1,2.74E2],"tree_param":{"num_deleted":"0","num_feature":"35","num_nodes":"101","size_leaf_vector":"1"}},{"base_weights":[2.7217358E-4,-3.2993644E-3,4.1309544E-3,-3.7154682E-2,-2.586753E-3,3.3792116E-2,-3.9308323E-4,-1.1894564E-1,-1.739804E-2,-1.1731771E-2,-1.0352383E-3,5.597425E-2,1.1162192E-2,1.6760748E-2,-2.3233495E-3,-3.1588133E-2,-4.951276E-2,-3.263709E-2,2.738144E-3,3.9590687E-2,-1.2955452E-2,-3.285781E-3,5.2406886E-3,7.7054364E-4,6.638277E-2,-1.5482841E-2,1.973939E-2,-1.8118732E-2,3.5166703E-2,-3.873477E-3,1.7531306E-2,-1.8802179E-3,-1.1381775E-2,-4.4757906E-2,-2.6809514E-2,1.599245E-2,-1.5507302E-3,4.964831E-2,-8.975657E-3,-3.5091516E-2,-1.1849849E-2,-2.7210696E-2,-2.519531E-3,2.269495E-2,1.6523408E-3,-2.5682677E-2,7.118404E-2,1.4122391E-2,7.912802E-2,-2.1133237E-2,2.7940638E-2,-1.1186531E-2,2.5222715E-2,-2.2926085E-2,2.7366009E-2,9.441329E-2,2.241009E-2,4.065834E-3,-7.676048E-3,5.2227274E-2,3.9619403E-3,-1.4843298E-2,-3.8818365E-3,-9.626507E-3,-2.633519E-3,7.659239E-3,1.2908204E-3,2.131185E-3,-1.4572588E-3,-7.7423366E-4,-2.9215429E-3,-1.9504463E-2,-7.1221385E-3,-6.0905037E-3,-2.8989448E-3,-1.8160226E-2,-5.795259E-3,-9.718362E-4,5.1885275E-3,2.489631E-2,2.0308453E-3,7.147424E-3,-9.17511E-4,-1.44744525E-2,-2.1955688E-3,-2.127235E-3,3.3628248E-2,-1.6607182E-3,2.024E-2,5.90472E-3,2.9497823E-2,-7.0696264E-3,-3.1410584E-3,-3.7833336E-3,1.3698478E-2,-8.455324E-3,3.6797894E-3,-2.3653284E-3,8.999023E-3,2.9172313E-3,-8.683997E-3,2.5816174E-2,-4.7470586E-4,5.0577763E-3,3.237029E-2,2.4475645E-2,2.8971725E-3,2.5641439E-3,-3.6160094E-3,-9.804388E-4,-4.3886267E-3,-4.5452503E-4,1.8166082E-2,-6.127957E-3,5.643839E-3],"categories":[0,0,0,0,0,0,0,0,0,0,0,0,0,0,0,0,0],"categories_nodes":[3,11,17,18,19,22,24,28,36,38,39,48,50,52,53,54,59],"categories_segments":[0,1,2,3,4,5,6,7,8,9,10,11,12,13,14,15,16],"categories_sizes":[1,1,1,1,1,1,1,1,1,1,1,1,1,1,1,1,1],"default_left":[0,0,0,1,0,0,0,0,0,0,0,1,0,0,0,0,0,1,1,1,0,0,1,0,1,0,0,0,1,0,0,0,0,0,0,0,1,0,1,1,0,0,0,0,0,0,0,0,1,0,1,0,1,1,1,0,0,0,0,1,0,0,0,0,0,0,0,0,0,0,0,0,0,0,0,0,0,0,0,0,0,0,0,0,0,0,0,0,0,0,0,0,0,0,0,0,0,0,0,0,0,0,0,0,0,0,0,0,0,0,0,0,0,0,0],"id":5,"left_children":[1,3,5,7,9,11,13,15,17,19,21,23,25,27,29,31,-1,33,35,37,39,41,43,45,47,49,51,53,55,57,59,-1,-1,61,63,65,67,-1,69,71,73,75,77,79,81,83,85,87,89,91,93,95,97,99,101,103,105,107,109,111,113,-1,-1,-1,-1,-1,-1,-1,-1,-1,-1,-1,-1,-1,-1,-1,-1,-1,-1,-1,-1,-1,-1,-1,-1,-1,-1,-1,-1,-1,-1,-1,-1,-1,-1,-1,-1,-1,-1,-1,-1,-1,-1,-1,-1,-1,-1,-1,-1,-1,-1,-1,-1,-1,-1],"loss_changes":[5.4162253E-2,4.914441E-2,2.5349483E-1,6.579898E-2,2.836512E-2,1.2487021E-1,5.4341737E-2,2.7001873E-2,1.0829334E-2,1.8725585E-2,2.4183795E-2,7.2347045E-2,2.8873086E-2,1.07207544E-1,4.5464344E-2,4.054797E-4,0E0,2.127625E-4,9.343368E-4,4.4288192E-2,6.534707E-3,2.3030344E-2,2.8272148E-2,4.0944133E-2,6.948608E-2,8.1966305E-3,1.6391959E-2,1.3309747E-2,8.026484E-2,4.136104E-2,5.0168913E-2,0E0,0E0,1.1066161E-4,1.24125E-3,3.3614994E-4,4.065584E-4,0E0,4.1359453E-6,2.8721206E-3,4.8308186E-3,9.088688E-3,1.748786E-2,7.337285E-2,3.934523E-2,6.2772175E-3,2.0008225E-2,2.3443732E-2,9.507018E-2,4.794309E-4,3.450306E-3,6.32535E-3,1.3038915E-2,1.0699833E-2,1.0329679E-2,1.8055335E-2,6.78857E-2,3.217542E-2,2.833129E-2,1.3516039E-2,2.8635064E-2,0E0,0E0,0E0,0E0,0E0,0E0,0E0,0E0,0E0,0E0,0E0,0E0,0E0,0E0,0E0,0E0,0E0,0E0,0E0,0E0,0E0,0E0,0E0,0E0,0E0,0E0,0E0,0E0,0E0,0E0,0E0,0E0,0E0,0E0,0E0,0E0,0E0,0E0,0E0,0E0,0E0,0E0,0E0,0E0,0E0,0E0,0E0,0E0,0E0,0E0,0E0,0E0,0E0,0E0],"parents":[2147483647,0,0,1,1,2,2,3,3,4,4,5,5,6,6,7,7,8,8,9,9,10,10,11,11,12,12,13,13,14,14,15,15,17,17,18,18,19,19,20,20,21,21,22,22,23,23,24,24,25,25,26,26,27,27,28,28,29,29,30,30,33,33,34,34,35,35,36,36,38,38,39,39,40,40,41,41,42,42,43,43,44,44,45,45,46,46,47,47,48,48,49,49,50,50,51,51,52,52,53,53,54,54,55,55,56,56,57,57,58,58,59,59,60,60],"right_children":[2,4,6,8,10,12,14,16,18,20,22,24,26,28,30,32,-1,34,36,38,40,42,44,46,48,50,52,54,56,58,60,-1,-1,62,64,66,68,-1,70,72,74,76,78,80,82,84,86,88,90,92,94,96,98,100,102,104,106,108,110,112,114,-1,-1,-1,-1,-1,-1,-1,-1,-1,-1,-1,-1,-1,-1,-1,-1,-1,-1,-1,-1,-1,-1,-1,-1,-1,-1,-1,-1,-1,-1,-1,-1,-1,-1,-1,-1,-1,-1,-1,-1,-1,-1,-1,-1,-1,-1,-1,-1,-1,-1,-1,-1,-1,-1],"split_conditions":[4.5382294E-1,-8.521089E-1,6.1659086E-1,NaN,1.14466846E-1,1.0269178E-1,9.077536E-3,4E2,4.04E2,2.4890339E-2,9.505267E-3,NaN,2.2881675E-1,7.9544045E-2,4.0045592E-1,4.6E1,-4.951276E-2,NaN,NaN,NaN,-6.660996E-1,2.1904762E0,NaN,3.4141278E-1,NaN,2.8637093E-1,7.4E1,1.882E3,NaN,3.6943007E-2,5.1344826E1,-1.8802179E-3,-1.1381775E-2,-6.1297137E-1,1.345E2,5.18E2,NaN,4.964831E-2,NaN,NaN,9.3E1,6.5E1,3.0704108E-1,1.1316702E-2,2.2E1,6.998119E-9,8.12992E0,3.4141278E-1,NaN,8.34E2,NaN,1.52E2,NaN,NaN,NaN,7.18987E-1,6.566358E-1,2.2808733E0,3.4419987E-2,NaN,6.59834E-1,-1.4843298E-2,-3.8818365E-3,-9.626507E-3,-2.633519E-3,7.659239E-3,1.2908204E-3,2.131185E-3,-1.4572588E-3,-7.7423366E-4,-2.9215429E-3,-1.9504463E-2,-7.1221385E-3,-6.0905037E-3,-2.8989448E-3,-1.8160226E-2,-5.795259E-3,-9.718362E-4,5.1885275E-3,2.489631E-2,2.0308453E-3,7.147424E-3,-9.17511E-4,-1.44744525E-2,-2.1955688E-3,-2.127235E-3,3.3628248E-2,-1.6607182E-3,2.024E-2,5.90472E-3,2.9497823E-2,-7.0696264E-3,-3.1410584E-3,-3.7833336E-3,1.3698478E-2,-8.455324E-3,3.6797894E-3,-2.3653284E-3,8.999023E-3,2.9172313E-3,-8.683997E-3,2.5816174E-2,-4.7470586E-4,5.0577763E-3,3.237029E-2,2.4475645E-2,2.8971725E-3,2.5641439E-3,-3.6160094E-3,-9.804388E-4,-4.3886267E-3,-4.5452503E-4,1.8166082E-2,-6.127957E-3,5.643839E-3],"split_indices":[28,6,28,33,12,3,3,1,1,14,7,30,16,14,6,0,0,31,29,33,20,9,33,5,34,3,1,0,31,14,9,0,0,7,2,1,31,0,31,33,1,0,28,6,1,5,8,5,32,1,33,0,30,30,32,28,12,28,20,30,6,0,0,0,0,0,0,0,0,0,0,0,0,0,0,0,0,0,0,0,0,0,0,0,0,0,0,0,0,0,0,0,0,0,0,0,0,0,0,0,0,0,0,0,0,0,0,0,0,0,0,0,0,0,0],"split_type":[0,0,0,1,0,0,0,0,0,0,0,1,0,0,0,0,0,1,1,1,0,0,1,0,1,0,0,0,1,0,0,0,0,0,0,0,1,0,1,1,0,0,0,0,0,0,0,0,1,0,1,0,1,1,1,0,0,0,0,1,0,0,0,0,0,0,0,0,0,0,0,0,0,0,0,0,0,0,0,0,0,0,0,0,0,0,0,0,0,0,0,0,0,0,0,0,0,0,0,0,0,0,0,0,0,0,0,0,0,0,0,0,0,0,0],"sum_hessian":[3.928E3,2.04E3,1.888E3,4.1E1,1.999E3,2.49E2,1.639E3,7E0,3.4E1,2.89E2,1.71E3,1.25E2,1.24E2,1.65E2,1.474E3,3E0,4E0,1.9E1,1.5E1,6E0,2.83E2,1.259E3,4.51E2,2E1,1.05E2,3E1,9.4E1,5.7E1,1.08E2,1.368E3,1.06E2,1E0,2E0,4E0,1.5E1,3E0,1.2E1,1E0,5E0,1.2E1,2.71E2,3.8E1,1.221E3,7.6E1,3.75E2,1.5E1,5E0,2.1E1,8.4E1,2.7E1,3E0,1.4E1,8E1,5.2E1,5E0,1.8E1,9E1,4.43E2,9.25E2,2.9E1,7.7E1,3E0,1E0,1.1E1,4E0,1E0,2E0,3E0,9E0,1E0,4E0,2E0,1E1,5.4E1,2.17E2,6E0,3.2E1,1.179E3,4.2E1,1.5E1,6.1E1,6.5E1,3.1E2,6E0,9E0,2E0,3E0,1.6E1,5E0,2.1E1,6.3E1,2.1E1,6E0,1E0,2E0,8E0,6E0,1E1,7E1,8E0,4.4E1,1E0,4E0,3E0,1.5E1,1.5E1,7.5E1,3.47E2,9.6E1,5.67E2,3.58E2,4E0,2.5E1,2.9E1,4.8E1],"tree_param":{"num_deleted":"0","num_feature":"35","num_nodes":"115","size_leaf_vector":"1"}},{"base_weights":[2.172907E-4,6.9022714E-3,-1.2114382E-3,1.4661915E-2,-7.225626E-3,4.6659585E-2,-1.4636405E-3,3.5188954E-2,7.694102E-3,-1.4338277E-2,2.9563347E-3,8.453989E-2,-1.9532267E-2,3.0736525E-2,-1.7250546E-3,2.255797E-2,8.945051E-2,-1.21197635E-2,1.40604125E-2,7.181751E-2,-1.6045474E-2,5.2189524E-3,-3.3835206E-2,6.6952854E-2,2.8934482E-2,-1.2043134E-2,-3.2589063E-3,3.243347E-2,-3.460151E-3,2.2599599E-4,-5.5819503E-3,-3.209266E-2,3.264913E-2,5.72117E-3,1.1525835E-1,7.172215E-2,-1.5112339E-2,7.564282E-2,1.2265504E-2,2.5914317E-2,6.403564E-3,-5.194997E-2,-1.4093817E-2,2.7885975E-2,-3.8572478E-3,-9.72073E-3,5.1088233E-2,-4.434E-3,9.348488E-3,-4.4021446E-2,1.0290958E-2,-1.8709307E-3,1.1839048E-2,-2.6648948E-3,-1.6515572E-2,-1.061141E-2,2.0713806E-3,1.656478E-2,3.4362553E-3,-1.2149052E-2,1.9631438E-2,4.2606853E-2,-1.6223844E-4,-1.5588755E-3,3.3833843E-2,-1.1355242E-2,-3.5090663E-3,-3.2999085E-3,3.374993E-2,1.8405536E-3,9.050962E-3,3.3562406E-4,-3.692435E-2,-2.6018529E-3,-7.2869635E-3,3.8673326E-3,1.6526135E-2,3.034422E-3,-2.7961622E-3,2.236172E-2,8.040027E-3,5.968263E-3,-1.7614431E-3,-1.8957853E-2,-3.0528705E-3,-3.594599E-3,5.843846E-3,1.478735E-3,-1.1118887E-3,1.8451064E-3,1.5328096E-2,-8.417677E-5,-5.186685E-3,-1.0680798E-2,-3.4319903E-3],"categories":[0,0,0,0,0,0,0,0,0,0],"categories_nodes":[0,11,12,13,24,28,46,48,51,54],"categories_segments":[0,1,2,3,4,5,6,7,8,9],"categories_sizes":[1,1,1,1,1,1,1,1,1,1],"default_left":[1,0,0,0,0,0,0,0,0,0,0,1,1,1,0,0,0,0,0,0,0,0,0,0,1,0,0,0,1,0,0,0,0,0,0,0,0,0,0,0,0,0,0,0,0,0,1,0,1,0,0,1,0,0,1,0,0,0,0,0,0,0,0,0,0,0,0,0,0,0,0,0,0,0,0,0,0,0,0,0,0,0,0,0,0,0,0,0,0,0,0,0,0,0,0],"id":6,"left_children":[1,3,5,7,9,11,13,15,17,19,21,23,25,27,29,31,33,35,37,39,41,43,-1,-1,45,-1,47,-1,49,51,53,55,57,59,61,63,65,67,69,-1,-1,71,73,75,77,-1,79,-1,81,83,85,87,89,91,93,-1,-1,-1,-1,-1,-1,-1,-1,-1,-1,-1,-1,-1,-1,-1,-1,-1,-1,-1,-1,-1,-1,-1,-1,-1,-1,-1,-1,-1,-1,-1,-1,-1,-1,-1,-1,-1,-1,-1,-1],"loss_changes":[3.753434E-2,7.596813E-2,3.9161265E-2,6.366304E-2,1.785789E-2,4.42765E-2,2.7174449E-2,7.542974E-2,4.242772E-2,2.2479651E-2,2.7299983E-2,7.83407E-2,2.2171054E-3,6.9169275E-2,2.4058677E-2,5.2336197E-2,4.4718936E-2,2.1657953E-2,2.714803E-2,3.6134385E-4,9.288296E-3,2.0886336E-2,0E0,0E0,1.3884966E-2,0E0,8.6442544E-4,0E0,1.1050516E-2,5.1745202E-2,3.4210123E-2,2.1621333E-3,3.7153423E-2,1.921003E-2,4.9665675E-2,1.0060222E-2,5.7702325E-3,2.3591105E-2,2.7035285E-2,0E0,0E0,2.6561594E-2,7.361682E-3,1.111831E-2,5.6665875E-3,0E0,1.9893888E-3,0E0,5.983249E-4,2.6012352E-3,3.3032382E-3,2.248329E-2,7.226066E-2,2.9598268E-2,2.148724E-2,0E0,0E0,0E0,0E0,0E0,0E0,0E0,0E0,0E0,0E0,0E0,0E0,0E0,0E0,0E0,0E0,0E0,0E0,0E0,0E0,0E0,0E0,0E0,0E0,0E0,0E0,0E0,0E0,0E0,0E0,0E0,0E0,0E0,0E0,0E0,0E0,0E0,0E0,0E0,0E0],"parents":[2147483647,0,0,1,1,2,2,3,3,4,4,5,5,6,6,7,7,8,8,9,9,10,10,11,11,12,12,13,13,14,14,15,15,16,16,17,17,18,18,19,19,20,20,21,21,24,24,26,26,28,28,29,29,30,30,31,31,32,32,33,33,34,34,35,35,36,36,37,37,38,38,41,41,42,42,43,43,44,44,46,46,48,48,49,49,50,50,51,51,52,52,53,53,54,54],"right_children":[2,4,6,8,10,12,14,16,18,20,22,24,26,28,30,32,34,36,38,40,42,44,-1,-1,46,-1,48,-1,50,52,54,56,58,60,62,64,66,68,70,-1,-1,72,74,76,78,-1,80,-1,82,84,86,88,90,92,94,-1,-1,-1,-1,-1,-1,-1,-1,-1,-1,-1,-1,-1,-1,-1,-1,-1,-1,-1,-1,-1,-1,-1,-1,-1,-1,-1,-1,-1,-1,-1,-1,-1,-1,-1,-1,-1,-1,-1,-1],"split_conditions":[NaN,5E2,2.6842105E0,3.432635E-2,5.17593E-1,2.5346646E-2,-9.0408045E-1,9.880208E-1,-2.3769449E-1,1.9928057E0,9.489647E-1,NaN,NaN,NaN,3.5E2,1.2809071E-3,8.6687356E-2,1.4672097E-2,4.057244E-7,5.7E2,1.9E1,1.45E1,-3.3835206E-2,6.6952854E-2,NaN,-1.2043134E-2,2.1E1,3.243347E-2,NaN,6.8666664E1,8.094067E-1,7.028005E-1,3.82E2,3.507559E1,3.7304832E1,7E1,4.2560738E-2,3.4851622E-13,1.2883539E0,2.5914317E-2,6.403564E-3,4.164981E-1,4.247272E-3,1.6301256E-1,-1.6492528E-1,-9.72073E-3,NaN,-4.434E-3,NaN,6.6964793E-1,3.87E2,NaN,5.791406E-1,8.6762264E-2,NaN,-1.061141E-2,2.0713806E-3,1.656478E-2,3.4362553E-3,-1.2149052E-2,1.9631438E-2,4.2606853E-2,-1.6223844E-4,-1.5588755E-3,3.3833843E-2,-1.1355242E-2,-3.5090663E-3,-3.2999085E-3,3.374993E-2,1.8405536E-3,9.050962E-3,3.3562406E-4,-3.692435E-2,-2.6018529E-3,-7.2869635E-3,3.8673326E-3,1.6526135E-2,3.034422E-3,-2.7961622E-3,2.236172E-2,8.040027E-3,5.968263E-3,-1.7614431E-3,-1.8957853E-2,-3.0528705E-3,-3.594599E-3,5.843846E-3,1.478735E-3,-1.1118887E-3,1.8451064E-3,1.5328096E-2,-8.417677E-5,-5.186685E-3,-1.0680798E-2,-3.4319903E-3],"split_indices":[31,0,22,3,24,6,19,21,6,17,12,33,33,34,1,4,28,14,5,0,1,2,0,0,30,0,1,0,30,2,25,6,1,8,8,0,3,5,16,0,0,18,20,3,6,0,29,0,29,5,1,33,20,4,33,0,0,0,0,0,0,0,0,0,0,0,0,0,0,0,0,0,0,0,0,0,0,0,0,0,0,0,0,0,0,0,0,0,0,0,0,0,0,0,0],"split_type":[1,0,0,0,0,0,0,0,0,0,0,1,1,1,0,0,0,0,0,0,0,0,0,0,1,0,0,0,1,0,0,0,0,0,0,0,0,0,0,0,0,0,0,0,0,0,1,0,1,0,0,1,0,0,1,0,0,0,0,0,0,0,0,0,0,0,0,0,0,0,0,0,0,0,0,0,0,0,0,0,0,0,0,0,0,0,0,0,0,0,0,0,0,0,0],"sum_hessian":[3.928E3,6.91E2,3.237E3,4.46E2,2.45E2,1.6E1,3.221E3,1.12E2,3.34E2,1.44E2,1.01E2,1E1,6E0,2.5E1,3.196E3,9.2E1,2E1,8.1E1,2.53E2,2E0,1.42E2,1E2,1E0,2E0,8E0,2E0,4E0,7E0,1.8E1,2.123E3,1.073E3,1.4E1,7.8E1,5E0,1.5E1,2E0,7.9E1,6E0,2.47E2,1E0,1E0,6E0,1.36E2,2.8E1,7.2E1,2E0,6E0,2E0,2E0,4E0,1.4E1,1.799E3,3.24E2,8.48E2,2.25E2,1.3E1,1E0,3.7E1,4.1E1,3E0,2E0,1.2E1,3E0,1E0,1E0,9E0,7E1,2E0,4E0,1.85E2,6.2E1,4E0,2E0,9E1,4.6E1,1.9E1,9E0,2E1,5.2E1,2E0,4E0,1E0,1E0,2E0,2E0,4E0,1E1,3.82E2,1.417E3,2.84E2,4E1,7.3E2,1.18E2,4.6E1,1.79E2],"tree_param":{"num_deleted":"0","num_feature":"35","num_nodes":"95","size_leaf_vector":"1"}},{"base_weights":[1.9765424E-4,-6.1674668E-3,1.2465011E-3,8.045161E-3,-6.7958636E-3,1.1054298E-3,8.025028E-2,-5.130639E-3,2.1648515E-2,-4.5428863E-3,-1.0494597E-2,-3.4603665E-3,3.194317E-3,-7.580102E-3,1.0640713E-1,4.5384495E-3,-2.150887E-2,3.996943E-2,-3.333971E-3,-5.3884843E-3,1.5109559E-2,-8.42667E-3,-3.2381184E-2,-3.0407796E-3,-2.403517E-2,1.7773882E-3,1.5769534E-2,-6.018903E-3,4.2912126E-2,8.934526E-3,-3.1902774E-3,-9.772964E-3,-3.2715693E-3,1.7406894E-2,8.187002E-3,-6.2679416E-3,1.6893131E-3,1.5382151E-3,-6.6769035E-3,1.858028E-2,2.144252E-3,-6.234721E-3,-2.8416717E-2,-6.224418E-3,-3.9950617E-2,-4.2794314E-3,6.381726E-3,-6.775449E-2,-6.138227E-3,4.1327127E-3,-5.062133E-3,2.2557182E-2,-9.02844E-3,1.08987E-3,3.907556E-3,-1.319435E-3,6.498583E-5,-1.9777112E-3,5.055051E-4,-2.1511428E-3,-5.3405075E-4,9.3978905E-4,-1.7959815E-4,2.8667597E-3,-4.3684058E-4,-2.253441E-3,1.6272947E-3,6.1691967E-3,-1.0788281E-3,6.7752637E-3,-2.2883979E-3,-5.0280564E-3,-1.4680924E-2,-2.2836789E-3,-8.285303E-4,-1.5321472E-2,-3.5828338E-3,-2.4096363E-3,-4.9484835E-4,1.421994E-2,-1.27672E-3,-5.5147935E-2,-2.3324434E-3,-3.1367515E-3,8.401291E-4,1.191041E-2,9.5595204E-4,-2.3682304E-3,3.0508153E-3,1.5226346E-2,4.53439E-3,7.621844E-3,-5.4140347E-3],"categories":[0,0,0,0,0,0,0],"categories_nodes":[0,6,14,46,47,51,52],"categories_segments":[0,1,2,3,4,5,6],"categories_sizes":[1,1,1,1,1,1,1],"default_left":[1,0,0,0,0,0,1,0,0,0,0,0,0,0,1,0,0,0,0,0,0,0,0,0,0,0,0,0,0,0,0,0,0,0,0,0,0,0,0,0,0,0,0,0,0,0,1,1,0,0,0,1,1,0,0,0,0,0,0,0,0,0,0,0,0,0,0,0,0,0,0,0,0,0,0,0,0,0,0,0,0,0,0,0,0,0,0,0,0,0,0,0,0],"id":7,"left_children":[1,3,5,7,9,11,13,15,17,19,21,23,25,-1,27,29,31,33,35,37,39,41,43,45,47,49,51,-1,-1,53,55,-1,57,-1,-1,59,61,63,65,-1,67,69,71,73,75,77,79,81,83,85,87,89,91,-1,-1,-1,-1,-1,-1,-1,-1,-1,-1,-1,-1,-1,-1,-1,-1,-1,-1,-1,-1,-1,-1,-1,-1,-1,-1,-1,-1,-1,-1,-1,-1,-1,-1,-1,-1,-1,-1,-1,-1],"loss_changes":[2.623784E-2,5.0204042E-3,3.7515067E-2,4.412712E-3,4.3939E-3,3.214267E-2,1.9248597E-2,2.15633E-3,5.6256806E-3,5.615234E-3,8.824371E-3,9.060543E-3,4.1167624E-2,0E0,2.6034903E-2,3.3428828E-4,9.0264645E-4,1.8912368E-5,9.9017525E-5,2.866108E-3,8.366551E-3,7.9290075E-3,3.1171925E-3,1.214202E-2,1.6015396E-2,3.3512138E-2,3.959052E-2,0E0,0E0,8.2803715E-5,1.7412644E-5,0E0,6.0487768E-5,0E0,0E0,3.4368131E-6,1.17821955E-5,1.238305E-3,2.7675442E-3,0E0,1.3427779E-3,6.9179093E-3,3.4852065E-3,3.0047959E-6,3.4392215E-3,9.0468E-3,5.2997418E-2,4.034254E-2,6.46779E-4,5.1938202E-2,2.3071319E-2,3.7847072E-2,1.6296184E-2,0E0,0E0,0E0,0E0,0E0,0E0,0E0,0E0,0E0,0E0,0E0,0E0,0E0,0E0,0E0,0E0,0E0,0E0,0E0,0E0,0E0,0E0,0E0,0E0,0E0,0E0,0E0,0E0,0E0,0E0,0E0,0E0,0E0,0E0,0E0,0E0,0E0,0E0,0E0,0E0],"parents":[2147483647,0,0,1,1,2,2,3,3,4,4,5,5,6,6,7,7,8,8,9,9,10,10,11,11,12,12,14,14,15,15,16,16,17,17,18,18,19,19,20,20,21,21,22,22,23,23,24,24,25,25,26,26,29,29,30,30,32,32,35,35,36,36,37,37,38,38,40,40,41,41,42,42,43,43,44,44,45,45,46,46,47,47,48,48,49,49,50,50,51,51,52,52],"right_children":[2,4,6,8,10,12,14,16,18,20,22,24,26,-1,28,30,32,34,36,38,40,42,44,46,48,50,52,-1,-1,54,56,-1,58,-1,-1,60,62,64,66,-1,68,70,72,74,76,78,80,82,84,86,88,90,92,-1,-1,-1,-1,-1,-1,-1,-1,-1,-1,-1,-1,-1,-1,-1,-1,-1,-1,-1,-1,-1,-1,-1,-1,-1,-1,-1,-1,-1,-1,-1,-1,-1,-1,-1,-1,-1,-1,-1,-1],"split_conditions":[NaN,-7.0525277E-1,8.575388E-1,1.3852942E2,1.9870708E-2,2.0593297E-1,NaN,1.035345E0,2.6092517E2,7.0007034E1,1.8020807E-3,1.6315E3,3.3920264E-1,-7.580102E-3,NaN,9.275975E-2,6.783929E1,5.7E2,7.016905E2,-3.7240353E-1,1.10968414E2,6.37E2,3.8531345E-1,8.2796216E-1,3.28E3,1.3790625E2,8.094067E-1,-6.018903E-3,4.2912126E-2,8.2E1,2.5E2,-9.772964E-3,4.5E1,1.7406894E-2,8.187002E-3,3.1430323E-3,4.44E2,1.4689374E-1,3.1248987E0,1.858028E-2,9.7E1,4.8502605E-2,1.3138782E0,1.31E2,6.6964793E-1,1.4233406E0,NaN,NaN,1.818E3,2.1641052E-8,6.672474E-2,NaN,NaN,1.08987E-3,3.907556E-3,-1.319435E-3,6.498583E-5,-1.9777112E-3,5.055051E-4,-2.1511428E-3,-5.3405075E-4,9.3978905E-4,-1.7959815E-4,2.8667597E-3,-4.3684058E-4,-2.253441E-3,1.6272947E-3,6.1691967E-3,-1.0788281E-3,6.7752637E-3,-2.2883979E-3,-5.0280564E-3,-1.4680924E-2,-2.2836789E-3,-8.285303E-4,-1.5321472E-2,-3.5828338E-3,-2.4096363E-3,-4.9484835E-4,1.421994E-2,-1.27672E-3,-5.5147935E-2,-2.3324434E-3,-3.1367515E-3,8.401291E-4,1.191041E-2,9.5595204E-4,-2.3682304E-3,3.0508153E-3,1.5226346E-2,4.53439E-3,7.621844E-3,-5.4140347E-3],"split_indices":[30,7,24,13,20,28,32,18,8,8,11,2,6,0,34,14,22,0,9,19,8,0,28,5,1,13,25,0,0,0,1,0,1,0,0,3,1,18,28,0,1,20,28,0,5,23,33,33,2,5,4,33,31,0,0,0,0,0,0,0,0,0,0,0,0,0,0,0,0,0,0,0,0,0,0,0,0,0,0,0,0,0,0,0,0,0,0,0,0,0,0,0,0],"split_type":[1,0,0,0,0,0,1,0,0,0,0,0,0,0,1,0,0,0,0,0,0,0,0,0,0,0,0,0,0,0,0,0,0,0,0,0,0,0,0,0,0,0,0,0,0,0,1,1,0,0,0,1,1,0,0,0,0,0,0,0,0,0,0,0,0,0,0,0,0,0,0,0,0,0,0,0,0,0,0,0,0,0,0,0,0,0,0,0,0,0,0,0,0],"sum_hessian":[3.928E3,5.55E2,3.373E3,2.3E1,5.32E2,3.368E3,5E0,1.2E1,1.1E1,3.32E2,2E2,1.057E3,2.311E3,1E0,4E0,8E0,4E0,6E0,5E0,3.19E2,1.3E1,1.84E2,1.6E1,1.037E3,2E1,2.078E3,2.33E2,1E0,3E0,5E0,3E0,2E0,2E0,1E0,5E0,3E0,2E0,5E1,2.69E2,2E0,1.1E1,1.67E2,1.7E1,4E0,1.2E1,9.17E2,1.2E2,5E0,1.5E1,1.546E3,5.32E2,1.83E2,5E1,3E0,2E0,2E0,1E0,1E0,1E0,2E0,1E0,1E0,1E0,1.3E1,3.7E1,2.52E2,1.7E1,2E0,9E0,7E0,1.6E2,1.2E1,5E0,2E0,2E0,8E0,4E0,3.77E2,5.4E2,2.4E1,9.6E1,1E0,4E0,1E1,5E0,3.9E1,1.507E3,4.49E2,8.3E1,3.7E1,1.46E2,1E1,4E1],"tree_param":{"num_deleted":"0","num_feature":"35","num_nodes":"93","size_leaf_vector":"1"}},{"base_weights":[1.4331992E-4,6.912132E-4,-9.611963E-3,3.0423864E-3,-2.0135108E-3,-3.510371E-2,-3.7418457E-3,-1.1986315E-2,3.9276304E-3,-1.7064944E-2,-1.0704068E-3,-2.157262E-2,-3.6840174E-2,-9.0587605E-3,1.09032225E-2,-2.8652087E-2,-1.8156188E-3,-5.429402E-3,5.4856674E-3,-4.1083552E-2,-1.142901E-2,4.55594E-3,-4.5648366E-3,-4.6321455E-2,-1.31244715E-2,-5.7839225E-3,-2.1431834E-2,3.9425693E-2,2.899765E-3,-8.3177306E-2,-1.537055E-2,-5.611956E-3,3.3153124E-2,-6.705705E-3,1.5171253E-2,1.5056567E-2,3.6857666E-3,1.9973245E-2,-5.076347E-2,-1.8530138E-2,-9.579978E-4,4.8066664E-2,2.9635697E-3,-5.0253915E-3,3.100102E-2,-1.8646125E-2,1.5044397E-2,-4.234137E-3,-2.1155717E-2,-3.7766155E-2,-1.5744321E-2,1.3265264E-2,6.293307E-2,-7.843917E-3,2.3337632E-2,-8.308826E-3,-3.9520353E-2,-9.017266E-3,1.1846593E-3,5.1370016E-3,-3.3563576E-3,-9.1727385E-3,1.4661174E-2,3.950551E-3,-2.3236857E-3,-2.6408378E-3,1.417577E-2,2.8546841E-3,1.904808E-2,-1.3765064E-4,2.3845765E-3,-2.3803458E-2,-1.0100153E-2,-4.294819E-3,-1.4114204E-2,9.155931E-3,-2.5569135E-3,-3.9139367E-3,1.7520828E-2,-3.799629E-4,2.8695134E-3,-6.4064474E-3,-1.2847631E-3,4.576308E-2,-1.4895685E-3,-1.7482242E-2,-3.7611665E-3,-4.4442858E-3,-2.2413876E-4,-3.458943E-2,6.663978E-3,-3.8509604E-3,-1.4106549E-2,-8.355037E-3,-3.066188E-3,-3.0500798E-3,5.995527E-3,2.280002E-2,1.599764E-3,-4.561074E-3,-1.0458654E-3,-7.3633506E-4,9.396211E-3],"categories":[0,0,0,0,0,0,0,0,0,0,0,0,0,0],"categories_nodes":[2,8,9,14,15,26,32,40,41,44,47,48,50,54],"categories_segments":[0,1,2,3,4,5,6,7,8,9,10,11,12,13],"categories_sizes":[1,1,1,1,1,1,1,1,1,1,1,1,1,1],"default_left":[0,0,1,0,0,0,0,0,1,1,0,0,0,0,1,1,0,0,0,0,0,0,0,0,0,0,1,0,0,0,0,0,1,0,0,0,0,0,0,0,1,1,0,0,1,0,0,1,1,0,1,0,0,0,1,0,0,0,0,0,0,0,0,0,0,0,0,0,0,0,0,0,0,0,0,0,0,0,0,0,0,0,0,0,0,0,0,0,0,0,0,0,0,0,0,0,0,0,0,0,0,0,0],"id":8,"left_children":[1,3,5,7,9,11,13,15,17,19,21,23,-1,25,27,29,31,33,35,37,39,41,43,-1,45,47,49,51,53,55,57,59,61,63,65,67,69,-1,71,73,75,77,79,81,83,85,-1,87,89,91,93,95,97,99,101,-1,-1,-1,-1,-1,-1,-1,-1,-1,-1,-1,-1,-1,-1,-1,-1,-1,-1,-1,-1,-1,-1,-1,-1,-1,-1,-1,-1,-1,-1,-1,-1,-1,-1,-1,-1,-1,-1,-1,-1,-1,-1,-1,-1,-1,-1,-1,-1],"loss_changes":[2.1006575E-2,2.3668988E-2,3.1143308E-2,2.6535468E-2,2.4553396E-2,4.3629605E-2,1.3413955E-2,1.8762754E-2,2.7452135E-2,1.33379195E-2,3.206802E-2,3.7250046E-2,0E0,4.9815364E-3,1.0386481E-2,2.913703E-2,9.478775E-3,7.1744677E-3,2.7731124E-2,2.3180552E-2,6.2281536E-3,4.31608E-2,1.6634092E-2,0E0,1.2813598E-2,2.316545E-3,1.8208409E-3,5.3148074E-3,8.307443E-3,1.7903566E-2,1.0049743E-2,8.304838E-3,8.50585E-3,5.3515304E-3,1.2721857E-2,6.783458E-2,2.4014045E-2,0E0,6.124124E-3,5.3351484E-3,8.594699E-3,1.4658712E-2,1.6878804E-2,1.1966044E-2,5.758601E-2,7.0160814E-3,0E0,3.419987E-3,3.930687E-2,7.8084506E-4,1.1195983E-3,1.1479484E-3,3.358053E-3,7.4877695E-4,2.7535753E-3,0E0,0E0,0E0,0E0,0E0,0E0,0E0,0E0,0E0,0E0,0E0,0E0,0E0,0E0,0E0,0E0,0E0,0E0,0E0,0E0,0E0,0E0,0E0,0E0,0E0,0E0,0E0,0E0,0E0,0E0,0E0,0E0,0E0,0E0,0E0,0E0,0E0,0E0,0E0,0E0,0E0,0E0,0E0,0E0,0E0,0E0,0E0,0E0],"parents":[2147483647,0,0,1,1,2,2,3,3,4,4,5,5,6,6,7,7,8,8,9,9,10,10,11,11,13,13,14,14,15,15,16,16,17,17,18,18,19,19,20,20,21,21,22,22,24,24,25,25,26,26,27,27,28,28,29,29,30,30,31,31,32,32,33,33,34,34,35,35,36,36,38,38,39,39,40,40,41,41,42,42,43,43,44,44,45,45,47,47,48,48,49,49,50,50,51,51,52,52,53,53,54,54],"right_children":[2,4,6,8,10,12,14,16,18,20,22,24,-1,26,28,30,32,34,36,38,40,42,44,-1,46,48,50,52,54,56,58,60,62,64,66,68,70,-1,72,74,76,78,80,82,84,86,-1,88,90,92,94,96,98,100,102,-1,-1,-1,-1,-1,-1,-1,-1,-1,-1,-1,-1,-1,-1,-1,-1,-1,-1,-1,-1,-1,-1,-1,-1,-1,-1,-1,-1,-1,-1,-1,-1,-1,-1,-1,-1,-1,-1,-1,-1,-1,-1,-1,-1,-1,-1,-1,-1],"split_conditions":[9.4682455E-1,3.1997135E1,NaN,-8.5688573E-1,2.1E1,5.6501925E-2,6.3288614E-2,4.9379677E-1,NaN,NaN,1.4E2,-3.5619575E-1,-3.6840174E-2,7.2688563E-3,NaN,NaN,4.04E2,9.9365455E-1,4E1,3.6229335E-2,1.9E1,1.4672097E-2,7.894737E-1,-4.6321455E-2,2.9785442E-1,9.35E1,NaN,2.0776398E0,2.6099637E-1,4.04E2,4.04E2,1.73E2,NaN,-6.5545666E-1,2.7775583E-1,3.7E1,6.8666664E1,1.9973245E-2,4.8E0,3.641082E-6,NaN,NaN,2.6598608E-1,1.61E2,NaN,-1.427639E-1,1.5044397E-2,NaN,NaN,5.5036497E0,NaN,1.05E2,2.6E2,1.27E2,NaN,-8.308826E-3,-3.9520353E-2,-9.017266E-3,1.1846593E-3,5.1370016E-3,-3.3563576E-3,-9.1727385E-3,1.4661174E-2,3.950551E-3,-2.3236857E-3,-2.6408378E-3,1.417577E-2,2.8546841E-3,1.904808E-2,-1.3765064E-4,2.3845765E-3,-2.3803458E-2,-1.0100153E-2,-4.294819E-3,-1.4114204E-2,9.155931E-3,-2.5569135E-3,-3.9139367E-3,1.7520828E-2,-3.799629E-4,2.8695134E-3,-6.4064474E-3,-1.2847631E-3,4.576308E-2,-1.4895685E-3,-1.7482242E-2,-3.7611665E-3,-4.4442858E-3,-2.2413876E-4,-3.458943E-2,6.663978E-3,-3.8509604E-3,-1.4106549E-2,-8.355037E-3,-3.066188E-3,-3.0500798E-3,5.995527E-3,2.280002E-2,1.599764E-3,-4.561074E-3,-1.0458654E-3,-7.3633506E-4,9.396211E-3],"split_indices":[12,15,33,6,1,11,7,28,30,33,1,7,0,19,31,33,1,21,1,12,1,14,18,0,19,2,31,9,28,1,1,1,33,6,28,1,2,0,2,11,31,30,28,1,33,6,0,31,34,9,29,1,1,1,30,0,0,0,0,0,0,0,0,0,0,0,0,0,0,0,0,0,0,0,0,0,0,0,0,0,0,0,0,0,0,0,0,0,0,0,0,0,0,0,0,0,0,0,0,0,0,0,0],"split_type":[0,0,1,0,0,0,0,0,1,1,0,0,0,0,1,1,0,0,0,0,0,0,0,0,0,0,1,0,0,0,0,0,1,0,0,0,0,0,0,0,1,1,0,0,1,0,0,1,1,0,1,0,0,0,1,0,0,0,0,0,0,0,0,0,0,0,0,0,0,0,0,0,0,0,0,0,0,0,0,0,0,0,0,0,0,0,0,0,0,0,0,0,0,0,0,0,0,0,0,0,0,0,0],"sum_hessian":[3.928E3,3.72E3,2.08E2,1.99E3,1.73E3,3.8E1,1.7E2,1.1E2,1.88E3,1.01E2,1.629E3,3.4E1,4E0,1.25E2,4.5E1,4.1E1,6.9E1,2.68E2,1.612E3,1.8E1,8.3E1,6.24E2,1.005E3,1E0,3.3E1,1E2,2.5E1,9E0,3.6E1,7E0,3.4E1,6.3E1,6E0,2.53E2,1.5E1,2.54E2,1.358E3,1E0,1.7E1,4.9E1,3.4E1,2.1E1,6.03E2,9.93E2,1.2E1,3.1E1,2E0,9.2E1,8E0,5E0,2E1,5E0,4E0,2.4E1,1.2E1,4E0,3E0,1.9E1,1.5E1,1.2E1,5.1E1,1E0,5E0,1.2E1,2.41E2,9E0,6E0,2.29E2,2.5E1,6.89E2,6.69E2,5E0,1.2E1,4.4E1,5E0,6E0,2.8E1,3E0,1.8E1,3.68E2,2.35E2,4.2E1,9.51E2,2E0,1E1,3E0,2.8E1,2.2E1,7E1,2E0,6E0,2E0,3E0,5E0,1.5E1,1E0,4E0,3E0,1E0,8E0,1.6E1,3E0,9E0],"tree_param":{"num_deleted":"0","num_feature":"35","num_nodes":"103","size_leaf_vector":"1"}},{"base_weights":[7.357973E-5,-3.1253885E-2,2.2575264E-4,2.4788732E-2,-4.331117E-2,-6.377225E-3,8.765303E-4,2.5203045E-2,-6.8865367E-3,-2.1952312E-2,-3.0790867E-2,-2.2247294E-2,-2.962323E-3,2.669711E-3,-1.8641328E-3,-1.8150318E-2,-1.5827702E-2,-1.5169515E-2,-9.990006E-2,-8.317208E-3,8.116832E-3,1.2206209E-2,6.254387E-4,-2.1308255E-3,5.185501E-2,-6.5771393E-3,-3.0249362E-3,-4.0300515E-2,-1.0722137E-2,-3.695747E-2,-1.0101085E-3,-2.0564666E-2,-5.526986E-3,4.8082523E-2,5.3622657E-3,3.7166968E-3,4.1626085E-2,6.289179E-2,3.0775886E-4,-2.4899233E-3,2.415766E-2,1.3816858E-3,5.89623E-2,-1.8525484E-3,-2.7152797E-2,-1.0630379E-2,-4.7260467E-3,-2.1569033E-3,1.7699959E-3,-5.5252765E-3,1.9519819E-2,3.2962335E-3,-1.7094462E-3,4.067079E-3,-5.1737614E-3,3.1383655E-3,2.1128496E-2,4.056557E-2,6.8730176E-3,5.426799E-3,-2.3792646E-4,-3.2995448E-3,-4.014237E-4,2.3065051E-2,2.8399038E-3,3.5260422E-3,1.9816013E-2],"categories":[0,0,0,0,0,0,0,0,0,0,0],"categories_nodes":[1,4,5,10,13,24,31,33,37,40,42],"categories_segments":[0,1,2,3,4,5,6,7,8,9,10],"categories_sizes":[1,1,1,1,1,1,1,1,1,1,1],"default_left":[0,1,0,0,1,1,0,0,0,0,1,0,0,1,0,0,0,0,0,0,0,0,0,0,1,0,0,0,0,0,0,1,0,1,0,0,0,1,0,0,1,0,1,0,0,0,0,0,0,0,0,0,0,0,0,0,0,0,0,0,0,0,0,0,0,0,0],"id":9,"left_children":[1,3,5,7,9,11,13,-1,-1,-1,15,17,19,21,23,-1,25,27,29,31,33,35,37,39,41,-1,-1,-1,43,-1,-1,45,47,49,51,53,55,57,59,61,63,-1,65,-1,-1,-1,-1,-1,-1,-1,-1,-1,-1,-1,-1,-1,-1,-1,-1,-1,-1,-1,-1,-1,-1,-1,-1],"loss_changes":[1.8737352E-2,1.3912348E-2,1.681143E-2,1.3238297E-2,3.729241E-3,1.8956441E-2,1.7505525E-2,0E0,0E0,0E0,4.8216674E-3,3.256032E-2,1.7272513E-2,4.196553E-2,2.0296536E-2,0E0,1.2913509E-4,2.9298145E-2,1.0827206E-2,6.58427E-3,1.0200542E-2,9.4754234E-2,3.507172E-2,1.3304662E-2,2.0791478E-3,0E0,0E0,0E0,2.0120142E-2,0E0,0E0,2.0172903E-3,3.1013428E-3,7.9748025E-3,5.6621237E-3,6.1291665E-2,7.556073E-2,2.2927877E-2,3.4583423E-2,1.3559026E-2,1.3989821E-2,0E0,1.2322105E-3,0E0,0E0,0E0,0E0,0E0,0E0,0E0,0E0,0E0,0E0,0E0,0E0,0E0,0E0,0E0,0E0,0E0,0E0,0E0,0E0,0E0,0E0,0E0,0E0],"parents":[2147483647,0,0,1,1,2,2,3,3,4,4,5,5,6,6,10,10,11,11,12,12,13,13,14,14,16,16,17,17,18,18,19,19,20,20,21,21,22,22,23,23,24,24,28,28,31,31,32,32,33,33,34,34,35,35,36,36,37,37,38,38,39,39,40,40,42,42],"right_children":[2,4,6,8,10,12,14,-1,-1,-1,16,18,20,22,24,-1,26,28,30,32,34,36,38,40,42,-1,-1,-1,44,-1,-1,46,48,50,52,54,56,58,60,62,64,-1,66,-1,-1,-1,-1,-1,-1,-1,-1,-1,-1,-1,-1,-1,-1,-1,-1,-1,-1,-1,-1,-1,-1,-1,-1],"split_conditions":[3.3236048E-4,NaN,3.0472972E0,-5.8613026E-1,NaN,NaN,3.1E2,2.5203045E-2,-6.8865367E-3,-2.1952312E-2,NaN,2.9634147E0,4.3939404E-2,NaN,3.168E-1,-1.8150318E-2,3.2E1,3E0,5.182376E-1,1.2001613E0,8.6E1,3.105933E-1,7.22431E-2,6.087963E-1,NaN,-6.5771393E-3,-3.0249362E-3,-4.0300515E-2,7.626236E1,-3.695747E-2,-1.0101085E-3,NaN,6.377954E-2,NaN,5.182376E-1,4.0954155E1,4.5580035E-1,NaN,8.2E1,2.4025537E-1,NaN,1.3816858E-3,NaN,-1.8525484E-3,-2.7152797E-2,-1.0630379E-2,-4.7260467E-3,-2.1569033E-3,1.7699959E-3,-5.5252765E-3,1.9519819E-2,3.2962335E-3,-1.7094462E-3,4.067079E-3,-5.1737614E-3,3.1383655E-3,2.1128496E-2,4.056557E-2,6.8730176E-3,5.426799E-3,-2.3792646E-4,-3.2995448E-3,-4.014237E-4,2.3065051E-2,2.8399038E-3,3.5260422E-3,1.9816013E-2],"split_indices":[3,29,17,7,33,33,1,0,0,0,31,17,11,33,19,0,1,22,5,23,1,5,16,20,30,0,0,0,9,0,0,31,6,30,5,15,12,34,0,24,31,0,29,0,0,0,0,0,0,0,0,0,0,0,0,0,0,0,0,0,0,0,0,0,0,0,0],"split_type":[0,1,0,0,1,1,0,0,0,0,1,0,0,1,0,0,0,0,0,0,0,0,0,0,1,0,0,0,0,0,0,1,0,1,0,0,0,1,0,0,1,0,1,0,0,0,0,0,0,0,0,0,0,0,0,0,0,0,0,0,0,0,0,0,0,0,0],"sum_hessian":[3.928E3,1.8E1,3.91E3,3E0,1.5E1,3.5E2,3.56E3,1E0,2E0,3E0,1.2E1,6.1E1,2.89E2,2.152E3,1.408E3,3E0,9E0,5.7E1,4E0,1.95E2,9.4E1,3.79E2,1.773E3,1.402E3,6E0,3E0,6E0,1E0,5.6E1,3E0,1E0,3.5E1,1.6E2,5E0,8.9E1,2.95E2,8.4E1,8E0,1.765E3,1.384E3,1.8E1,1E0,5E0,5.4E1,2E0,7E0,2.8E1,1.4E2,2E1,1E0,4E0,5.9E1,3E1,2.01E2,9.4E1,4.1E1,4.3E1,2E0,6E0,1.02E2,1.663E3,1.64E2,1.22E3,3E0,1.5E1,1E0,4E0],"tree_param":{"num_deleted":"0","num_feature":"35","num_nodes":"67","size_leaf_vector":"1"}},{"base_weights":[4.740606E-5,4.4216365E-3,-8.874348E-4,2.9221965E-2,2.063909E-3,2.7339516E-2,-1.0360911E-3,4.1342888E-2,2.3101535E-2,-1.6811073E-3,1.1142009E-2,5.6637894E-2,-2.2606442E-2,-2.9294228E-3,1.2623656E-3,-3.0528268E-2,3.7755575E-2,4.410605E-2,-2.6117272E-3,-9.660192E-3,1.5071009E-2,4.905351E-2,1.4720199E-2,-2.4602065E-4,-9.450422E-3,-2.0995394E-3,-1.173312E-2,8.030336E-3,-6.0556177E-4,-4.424567E-2,2.6871637E-4,8.887201E-3,7.4840106E-2,3.9371736E-2,4.6244517E-4,-3.367374E-2,-1.5144392E-3,-2.451428E-2,1.822544E-2,8.988449E-2,1.2510888E-2,1.4241604E-2,-1.4191779E-3,-2.4479048E-3,2.3371954E-3,3.6669083E-2,-2.2909935E-3,-2.5170162E-2,-7.191027E-3,-2.4102484E-3,2.8063774E-2,-1.9059058E-3,1.39121665E-2,-1.5486616E-2,2.214803E-3,-1.9129526E-3,2.0473108E-3,1.9344068E-4,1.6835937E-2,3.394714E-2,4.6305503E-3,6.201114E-3,-3.5264415E-3,-2.3687067E-2,-3.0087738E-3,8.657212E-5,-5.993758E-3,-1.2581916E-2,-4.2151627E-3,7.1332714E-4,1.7908003E-2,3.329629E-2,8.207912E-4,5.076935E-3,-5.2367924E-3,-3.8819162E-3,1.7330952E-3,2.8498396E-2,4.429859E-3,8.2366794E-5,-1.4542004E-3,-2.928544E-3,-1.7322432E-2,-1.2991305E-3,-9.415072E-3,-4.2787734E-3,1.0026306E-2,4.865283E-2,6.8062376E-3,-7.437084E-4,7.130434E-3,1.1508929E-3,1.6872464E-2],"categories":[0,0,0,0,0,0,0,0],"categories_nodes":[0,11,12,14,22,26,42,45],"categories_segments":[0,1,2,3,4,5,6,7],"categories_sizes":[1,1,1,1,1,1,1,1],"default_left":[1,0,0,0,0,0,0,0,0,0,0,1,1,0,1,0,0,0,0,0,0,0,1,0,0,0,1,0,0,0,0,0,0,0,0,0,0,0,0,0,0,0,1,0,0,1,0,0,0,0,0,0,0,0,0,0,0,0,0,0,0,0,0,0,0,0,0,0,0,0,0,0,0,0,0,0,0,0,0,0,0,0,0,0,0,0,0,0,0,0,0,0,0],"id":10,"left_children":[1,3,5,7,9,11,13,-1,15,17,19,21,23,25,27,29,31,33,35,37,39,-1,41,43,-1,45,47,49,51,53,55,57,59,-1,61,63,65,67,69,71,73,-1,75,-1,-1,77,79,81,83,85,87,89,91,-1,-1,-1,-1,-1,-1,-1,-1,-1,-1,-1,-1,-1,-1,-1,-1,-1,-1,-1,-1,-1,-1,-1,-1,-1,-1,-1,-1,-1,-1,-1,-1,-1,-1,-1,-1,-1,-1,-1,-1],"loss_changes":[1.6070427E-2,4.0402595E-2,1.3615347E-2,3.6692575E-2,2.1539234E-2,2.6157089E-2,1.4025006E-2,0E0,4.6734426E-2,1.924728E-2,1.5265981E-2,4.6872016E-2,1.384516E-3,1.2885141E-2,1.8411728E-2,5.5038007E-3,4.858111E-2,3.4164518E-2,1.4980036E-2,1.2873252E-2,2.8754395E-2,0E0,4.8247157E-3,2.5436774E-4,0E0,1.2078619E-2,9.095911E-3,6.59533E-2,2.1585241E-2,3.8085803E-3,2.613346E-4,1.0475178E-2,4.3777816E-2,0E0,1.9711736E-3,1.5268581E-2,1.4221529E-2,3.0574286E-3,7.0869355E-3,8.891877E-3,2.0392945E-2,0E0,6.5507833E-4,0E0,0E0,8.817277E-3,1.05538275E-2,1.850738E-2,7.822674E-3,8.8810936E-2,7.419189E-2,1.5494275E-2,3.9875686E-2,0E0,0E0,0E0,0E0,0E0,0E0,0E0,0E0,0E0,0E0,0E0,0E0,0E0,0E0,0E0,0E0,0E0,0E0,0E0,0E0,0E0,0E0,0E0,0E0,0E0,0E0,0E0,0E0,0E0,0E0,0E0,0E0,0E0,0E0,0E0,0E0,0E0,0E0,0E0,0E0],"parents":[2147483647,0,0,1,1,2,2,3,3,4,4,5,5,6,6,8,8,9,9,10,10,11,11,12,12,13,13,14,14,15,15,16,16,17,17,18,18,19,19,20,20,22,22,23,23,25,25,26,26,27,27,28,28,29,29,30,30,31,31,32,32,34,34,35,35,36,36,37,37,38,38,39,39,40,40,42,42,45,45,46,46,47,47,48,48,49,49,50,50,51,51,52,52],"right_children":[2,4,6,8,10,12,14,-1,16,18,20,22,24,26,28,30,32,34,36,38,40,-1,42,44,-1,46,48,50,52,54,56,58,60,-1,62,64,66,68,70,72,74,-1,76,-1,-1,78,80,82,84,86,88,90,92,-1,-1,-1,-1,-1,-1,-1,-1,-1,-1,-1,-1,-1,-1,-1,-1,-1,-1,-1,-1,-1,-1,-1,-1,-1,-1,-1,-1,-1,-1,-1,-1,-1,-1,-1,-1,-1,-1,-1,-1],"split_conditions":[NaN,1.6303218E-3,2.6842105E0,2.2E1,7.136525E-1,2.5346646E-2,1.9081609E-1,4.1342888E-2,3.236246E-2,6.998119E-9,1.207556E-1,NaN,NaN,9.2789955E-2,NaN,5.1E1,5.537681E-1,4.6E1,1.9E1,-9.8660715E-2,1.6821621E-1,4.905351E-2,NaN,2.1E1,-9.450422E-3,6.689344E-2,NaN,8.649438E-1,8.3758736E-1,7.028005E-1,2.9615024E-1,1.2007354E0,3.49E2,3.9371736E-2,9.9E1,4.0833175E-1,8.9489156E-1,1.13E2,1.6037962E0,2.75E2,8.071665E-2,1.4241604E-2,NaN,-2.4479048E-3,2.3371954E-3,NaN,9.9E1,5.8464736E-1,2.32E2,1.69183E-1,1.2588842E0,1.403E2,3.534113E-1,-1.5486616E-2,2.214803E-3,-1.9129526E-3,2.0473108E-3,1.9344068E-4,1.6835937E-2,3.394714E-2,4.6305503E-3,6.201114E-3,-3.5264415E-3,-2.3687067E-2,-3.0087738E-3,8.657212E-5,-5.993758E-3,-1.2581916E-2,-4.2151627E-3,7.1332714E-4,1.7908003E-2,3.329629E-2,8.207912E-4,5.076935E-3,-5.2367924E-3,-3.8819162E-3,1.7330952E-3,2.8498396E-2,4.429859E-3,8.2366794E-5,-1.4542004E-3,-2.928544E-3,-1.7322432E-2,-1.2991305E-3,-9.415072E-3,-4.2787734E-3,1.0026306E-2,4.865283E-2,6.8062376E-3,-7.437084E-4,7.130434E-3,1.1508929E-3,1.6872464E-2],"split_indices":[31,4,22,1,25,6,5,0,14,5,12,33,29,14,33,1,20,0,1,19,10,0,29,1,0,16,33,10,18,6,5,18,1,0,0,25,5,1,23,0,4,0,30,0,0,32,1,25,2,19,16,22,28,0,0,0,0,0,0,0,0,0,0,0,0,0,0,0,0,0,0,0,0,0,0,0,0,0,0,0,0,0,0,0,0,0,0,0,0,0,0,0,0],"split_type":[1,0,0,0,0,0,0,0,0,0,0,1,1,0,1,0,0,0,0,0,0,0,1,0,0,0,1,0,0,0,0,0,0,0,0,0,0,0,0,0,0,0,1,0,0,1,0,0,0,0,0,0,0,0,0,0,0,0,0,0,0,0,0,0,0,0,0,0,0,0,0,0,0,0,0,0,0,0,0,0,0,0,0,0,0,0,0,0,0,0,0,0,0],"sum_hessian":[3.928E3,6.91E2,3.237E3,5.9E1,6.32E2,1.6E1,3.221E3,2E0,5.7E1,4.48E2,1.84E2,1E1,6E0,1.766E3,1.455E3,1.2E1,4.5E1,8E0,4.4E2,2.9E1,1.55E2,2E0,8E0,2E0,4E0,1.615E3,1.51E2,3.14E2,1.141E3,8E0,4E0,2.6E1,1.9E1,2E0,6E0,1.4E1,4.26E2,1.9E1,1E1,4E0,1.51E2,2E0,6E0,1E0,1E0,7E0,1.608E3,3.7E1,1.14E2,2.07E2,1.07E2,1.048E3,9.3E1,7E0,1E0,2E0,2E0,2.3E1,3E0,1.1E1,8E0,2E0,4E0,4E0,1E1,3.89E2,3.7E1,6E0,1.3E1,8E0,2E0,3E0,1E0,1.32E2,1.9E1,2E0,4E0,1E0,6E0,8.03E2,8.05E2,2.6E1,1.1E1,1.03E2,1.1E1,1.56E2,5.1E1,3E0,1.04E2,1.026E3,2.2E1,7.6E1,1.7E1],"tree_param":{"num_deleted":"0","num_feature":"35","num_nodes":"93","size_leaf_vector":"1"}},{"base_weights":[1.0109726E-4,2.6078003E-5,4.212959E-2,-2.3127445E-4,1.1649019E-2,-7.288163E-3,5.7249147E-2,-3.5529349E-3,5.131816E-4,4.0350635E-2,5.421227E-3,-6.8501793E-3,7.783255E-2,-2.8449558E-3,-1.8808324E-2,-3.4807192E-4,6.1473614E-3,-5.059406E-3,3.965478E-2,2.758888E-2,-5.074757E-4,-5.52316E-3,3.1948786E-2,-4.467096E-3,2.2993707E-3,-7.511032E-2,-5.0921594E-3,-3.7052562E-3,8.339498E-4,4.9042627E-2,4.7518522E-3,-3.2903295E-2,5.1893223E-2,1.6867515E-3,5.695035E-2,-1.6906973E-2,8.814062E-3,-3.3386424E-3,-9.17469E-4,8.217705E-3,3.9772733E-4,-3.1235538E-2,1.048956E-2,-1.0076178E-3,-3.0931453E-3,-2.1738696E-3,9.4416835E-5,1.7545334E-4,1.1739607E-2,3.3933528E-2,8.133243E-3,-9.0750697E-4,3.9557135E-3,-2.0388311E-3,-2.2244975E-2,2.9469174E-3,2.6715558E-2,2.4116633E-3,-4.109138E-3,1.3102122E-3,2.313302E-2,-5.0844625E-4,-6.466453E-3,7.36625E-3,8.633427E-4],"categories":[0,0,0,0,0,0,0,0,0,0],"categories_nodes":[2,4,6,10,12,14,23,29,35,36],"categories_segments":[0,1,2,3,4,5,6,7,8,9],"categories_sizes":[1,1,1,1,1,1,1,1,1,1],"default_left":[0,0,1,0,1,0,1,0,0,0,1,0,1,0,1,0,0,0,0,0,0,0,0,1,0,0,0,0,0,1,0,0,0,0,0,1,1,0,0,0,0,0,0,0,0,0,0,0,0,0,0,0,0,0,0,0,0,0,0,0,0,0,0,0,0],"id":11,"left_children":[1,3,5,7,9,-1,11,13,15,17,19,-1,21,23,25,27,29,31,-1,33,35,-1,-1,37,39,41,43,45,47,49,51,53,55,57,59,61,63,-1,-1,-1,-1,-1,-1,-1,-1,-1,-1,-1,-1,-1,-1,-1,-1,-1,-1,-1,-1,-1,-1,-1,-1,-1,-1,-1,-1],"loss_changes":[1.2386829E-2,1.1737141E-2,8.420856E-3,9.495019E-3,1.4974805E-2,0E0,1.1667514E-2,7.5392406E-3,1.5224299E-2,6.322016E-2,9.345206E-3,0E0,1.5753921E-2,5.6263353E-3,2.3557192E-2,1.0804706E-2,2.4669027E-2,1.9151065E-2,0E0,1.1311807E-2,8.862525E-3,0E0,0E0,4.771322E-3,3.921482E-3,2.2799041E-2,2.0055601E-4,1.0094645E-2,1.9191185E-2,1.5200429E-2,2.6537873E-2,8.1107365E-3,5.378318E-3,9.895925E-4,7.083636E-3,1.448255E-3,3.3865157E-3,0E0,0E0,0E0,0E0,0E0,0E0,0E0,0E0,0E0,0E0,0E0,0E0,0E0,0E0,0E0,0E0,0E0,0E0,0E0,0E0,0E0,0E0,0E0,0E0,0E0,0E0,0E0,0E0],"parents":[2147483647,0,0,1,1,2,2,3,3,4,4,6,6,7,7,8,8,9,9,10,10,12,12,13,13,14,14,15,15,16,16,17,17,19,19,20,20,23,23,24,24,25,25,26,26,27,27,28,28,29,29,30,30,31,31,32,32,33,33,34,34,35,35,36,36],"right_children":[2,4,6,8,10,-1,12,14,16,18,20,-1,22,24,26,28,30,32,-1,34,36,-1,-1,38,40,42,44,46,48,50,52,54,56,58,60,62,64,-1,-1,-1,-1,-1,-1,-1,-1,-1,-1,-1,-1,-1,-1,-1,-1,-1,-1,-1,-1,-1,-1,-1,-1,-1,-1,-1,-1],"split_conditions":[8.575388E-1,7.028005E-1,NaN,7.5236514E-2,NaN,-7.288163E-3,NaN,9.1991615E-1,7.716616E-1,3.8796303E1,NaN,-6.8501793E-3,NaN,2.7E2,NaN,2.736264E-1,6.6388985E-3,2.5418447E-3,3.965478E-2,8.09205E-1,2.77E2,-5.52316E-3,3.1948786E-2,NaN,2.74E2,3.28E3,3.28E3,-5.2609254E-2,1.6346154E-1,NaN,-1.4310633E-1,1.2392823E0,2.88E2,6.5425056E-1,7.1775347E-1,NaN,NaN,-3.3386424E-3,-9.17469E-4,8.217705E-3,3.9772733E-4,-3.1235538E-2,1.048956E-2,-1.0076178E-3,-3.0931453E-3,-2.1738696E-3,9.4416835E-5,1.7545334E-4,1.1739607E-2,3.3933528E-2,8.133243E-3,-9.0750697E-4,3.9557135E-3,-2.0388311E-3,-2.2244975E-2,2.9469174E-3,2.6715558E-2,2.4116633E-3,-4.109138E-3,1.3102122E-3,2.313302E-2,-5.0844625E-4,-6.466453E-3,7.36625E-3,8.633427E-4],"split_indices":[24,6,30,28,33,0,32,5,18,8,31,0,34,1,33,12,3,20,0,10,0,0,0,33,1,1,1,19,14,33,6,11,0,5,6,29,29,0,0,0,0,0,0,0,0,0,0,0,0,0,0,0,0,0,0,0,0,0,0,0,0,0,0,0,0],"split_type":[0,0,1,0,1,0,1,0,0,0,1,0,1,0,1,0,0,0,0,0,0,0,0,1,0,0,0,0,0,1,0,0,0,0,0,1,1,0,0,0,0,0,0,0,0,0,0,0,0,0,0,0,0,0,0,0,0,0,0,0,0,0,0,0,0],"sum_hessian":[3.928E3,3.922E3,6E0,3.838E3,8.4E1,1E0,5E0,7.02E2,3.136E3,1.4E1,7E1,1E0,4E0,6.72E2,3E1,2.721E3,4.15E2,1E1,4E0,1.4E1,5.6E1,1E0,3E0,5.11E2,1.61E2,5E0,2.5E1,7.08E2,2.013E3,1.2E1,4.03E2,7E0,3E0,8E0,6E0,2E1,3.6E1,8.8E1,4.23E2,5E0,1.56E2,4E0,1E0,2E1,5E0,3.76E2,3.32E2,2.001E3,1.2E1,2E0,1E1,2.1E2,1.93E2,5E0,2E0,2E0,1E0,6E0,2E0,2E0,4E0,5E0,1.5E1,9E0,2.7E1],"tree_param":{"num_deleted":"0","num_feature":"35","num_nodes":"65","size_leaf_vector":"1"}},{"base_weights":[1.002373E-4,-6.962451E-3,4.1757154E-4,3.566038E-2,-8.750165E-3,2.4523574E-3,-8.6880615E-4,-6.6196118E-3,4.89589E-2,3.232698E-2,-1.0525896E-2,-2.7316962E-3,5.025899E-3,-1.7481945E-2,-6.0495513E-4,-2.4257374E-3,6.1984997E-2,2.316817E-2,1.1972401E-2,-2.987746E-2,-5.332877E-3,-2.236862E-3,-2.048786E-2,1.8591576E-3,1.6399475E-2,-6.819735E-2,-5.06562E-3,-4.6450712E-4,-2.9405639E-2,4.30435E-3,2.1092199E-2,-4.2426116E-3,2.0023696E-2,-1.2078853E-2,-5.6330785E-2,-7.4210213E-3,6.7073507E-3,4.858947E-3,-3.6756096E-3,-2.9473484E-2,2.581151E-3,8.020653E-3,-1.1591555E-3,4.1233946E-2,1.0913135E-2,-4.1343883E-2,-3.3625923E-2,1.1470534E-2,-8.831671E-3,-7.0126923E-3,9.5282354E-5,-5.4122623E-2,-1.7899351E-2,-2.6418604E-3,8.829817E-3,-4.989618E-3,3.4290852E-3,-9.300651E-3,-2.2083644E-2,-5.2994685E-3,-1.2247392E-3,-2.2424755E-3,4.6809753E-3,1.0577474E-2,-3.3878216E-3,-3.5136356E-3,-2.6784025E-4,1.085481E-2,-2.6718476E-3,8.841176E-3,1.07074E-3,-1.3254936E-3,2.2667183E-3,-1.1180206E-2,1.8048666E-2,1.1290282E-2,1.5375231E-3,-1.2093335E-2,-2.9994397E-5,-2.9923406E-3,5.326329E-3,7.624269E-4,-3.335699E-3,-8.782622E-3,-5.232319E-4,1.434111E-3,-2.858804E-4,-4.713813E-3,-1.9641368E-2,4.2262487E-5,-6.9221486E-3],"categories":[0,0,0,0,0,0,0,0,0,0,0,0,0,0,0,0,0,0,0,0],"categories_nodes":[3,8,9,10,13,16,18,21,22,24,28,32,35,36,40,47,48,49,50,52],"categories_segments":[0,1,2,3,4,5,6,7,8,9,10,11,12,13,14,15,16,17,18,19],"categories_sizes":[1,1,1,1,1,1,1,1,1,1,1,1,1,1,1,1,1,1,1,1],"default_left":[0,0,0,1,0,0,0,0,1,1,1,0,0,1,0,0,1,0,1,0,0,1,1,0,1,0,0,0,1,0,0,0,1,0,0,1,1,0,0,0,1,0,0,0,0,0,0,1,1,1,1,0,1,0,0,0,0,0,0,0,0,0,0,0,0,0,0,0,0,0,0,0,0,0,0,0,0,0,0,0,0,0,0,0,0,0,0,0,0,0,0],"id":12,"left_children":[1,3,5,7,9,11,13,-1,15,17,19,21,23,25,27,-1,29,-1,31,33,35,37,39,41,43,45,47,49,51,-1,-1,-1,53,55,57,59,61,63,65,-1,67,69,71,73,75,-1,77,79,81,83,85,87,89,-1,-1,-1,-1,-1,-1,-1,-1,-1,-1,-1,-1,-1,-1,-1,-1,-1,-1,-1,-1,-1,-1,-1,-1,-1,-1,-1,-1,-1,-1,-1,-1,-1,-1,-1,-1,-1,-1],"loss_changes":[8.808712E-3,1.31894E-2,9.84656E-3,6.453966E-3,1.2229815E-2,1.9452117E-2,1.0093146E-2,0E0,4.959616E-3,5.472886E-3,1.5618075E-2,4.206769E-3,3.5050243E-2,2.2323702E-2,9.168487E-3,0E0,9.7350404E-4,0E0,1.5447063E-3,1.4857054E-2,3.1924923E-3,4.8365453E-3,2.3572711E-2,1.4199056E-2,2.8435074E-2,1.2212884E-2,1.9695845E-3,8.284937E-3,2.1596476E-3,0E0,0E0,0E0,1.6154966E-3,2.4379897E-3,3.408134E-3,3.5872571E-3,2.51375E-3,3.9678153E-2,8.778622E-3,0E0,4.568154E-3,2.3861501E-2,1.4604206E-2,5.870606E-2,2.687323E-2,0E0,1.3407334E-3,9.856399E-4,6.786067E-4,2.08271E-2,1.0234144E-2,2.7896557E-4,8.4338896E-4,0E0,0E0,0E0,0E0,0E0,0E0,0E0,0E0,0E0,0E0,0E0,0E0,0E0,0E0,0E0,0E0,0E0,0E0,0E0,0E0,0E0,0E0,0E0,0E0,0E0,0E0,0E0,0E0,0E0,0E0,0E0,0E0,0E0,0E0,0E0,0E0,0E0,0E0],"parents":[2147483647,0,0,1,1,2,2,3,3,4,4,5,5,6,6,8,8,9,9,10,10,11,11,12,12,13,13,14,14,16,16,18,18,19,19,20,20,21,21,22,22,23,23,24,24,25,25,26,26,27,27,28,28,32,32,33,33,34,34,35,35,36,36,37,37,38,38,40,40,41,41,42,42,43,43,44,44,46,46,47,47,48,48,49,49,50,50,51,51,52,52],"right_children":[2,4,6,8,10,12,14,-1,16,18,20,22,24,26,28,-1,30,-1,32,34,36,38,40,42,44,46,48,50,52,-1,-1,-1,54,56,58,60,62,64,66,-1,68,70,72,74,76,-1,78,80,82,84,86,88,90,-1,-1,-1,-1,-1,-1,-1,-1,-1,-1,-1,-1,-1,-1,-1,-1,-1,-1,-1,-1,-1,-1,-1,-1,-1,-1,-1,-1,-1,-1,-1,-1,-1,-1,-1,-1,-1,-1],"split_conditions":[-7.4164486E-1,-1.3810153E-3,1.05817504E-1,NaN,2.4194693E-2,2.1682559E-1,-6.1297137E-1,-6.6196118E-3,NaN,NaN,NaN,1.485E3,1.869862E-2,NaN,8.900984E-1,-2.4257374E-3,NaN,2.316817E-2,NaN,3.7323233E-2,1.3226032E0,NaN,NaN,-5.30543E-1,NaN,1.2546198E-1,1.2546198E-1,5.6E0,NaN,4.30435E-3,2.1092199E-2,-4.2426116E-3,NaN,8.694156E-1,1.8E2,NaN,NaN,4.0666666E0,8.461136E0,-2.9473484E-2,NaN,-1.7352294E-3,7.261896E-3,5.078597E-1,-1.6696894E-1,-4.1343883E-2,1.52E2,NaN,NaN,NaN,NaN,1.52E2,NaN,-2.6418604E-3,8.829817E-3,-4.989618E-3,3.4290852E-3,-9.300651E-3,-2.2083644E-2,-5.2994685E-3,-1.2247392E-3,-2.2424755E-3,4.6809753E-3,1.0577474E-2,-3.3878216E-3,-3.5136356E-3,-2.6784025E-4,1.085481E-2,-2.6718476E-3,8.841176E-3,1.07074E-3,-1.3254936E-3,2.2667183E-3,-1.1180206E-2,1.8048666E-2,1.1290282E-2,1.5375231E-3,-1.2093335E-2,-2.9994397E-5,-2.9923406E-3,5.326329E-3,7.624269E-4,-3.335699E-3,-8.782622E-3,-5.232319E-4,1.434111E-3,-2.858804E-4,-4.713813E-3,-1.9641368E-2,4.2262487E-5,-6.9221486E-3],"split_indices":[7,11,3,29,14,28,7,0,30,33,33,1,4,33,18,0,34,0,32,20,28,33,33,6,33,3,3,15,29,0,0,0,30,5,0,29,31,15,8,0,31,11,4,10,7,0,0,30,30,33,33,0,33,0,0,0,0,0,0,0,0,0,0,0,0,0,0,0,0,0,0,0,0,0,0,0,0,0,0,0,0,0,0,0,0,0,0,0,0,0,0],"split_type":[0,0,0,1,0,0,0,0,1,1,1,0,0,1,0,0,1,0,1,0,0,1,1,0,1,0,0,0,1,0,0,0,1,0,0,1,1,0,0,0,1,0,0,0,0,0,0,1,1,1,1,0,1,0,0,0,0,0,0,0,0,0,0,0,0,0,0,0,0,0,0,0,0,0,0,0,0,0,0,0,0,0,0,0,0,0,0,0,0,0,0],"sum_hessian":[3.928E3,1.68E2,3.76E3,6E0,1.62E2,1.456E3,2.304E3,1E0,5E0,6E0,1.56E2,4.83E2,9.73E2,3.5E1,2.269E3,1E0,4E0,1E0,5E0,3.2E1,1.24E2,4.71E2,1.2E1,7.62E2,2.11E2,6E0,2.9E1,2.259E3,1E1,1E0,3E0,1E0,4E0,2E1,1.2E1,1.06E2,1.8E1,7.9E1,3.92E2,2E0,1E1,2.5E2,5.12E2,3.7E1,1.74E2,1E0,5E0,5E0,2.4E1,1.77E2,2.082E3,2E0,8E0,1E0,3E0,1.7E1,3E0,6E0,6E0,2.5E1,8.1E1,7E0,1.1E1,2.7E1,5.2E1,1E2,2.92E2,2E0,8E0,4.2E1,2.08E2,3.73E2,1.39E2,7E0,3E1,3E1,1.44E2,4E0,1E0,1E0,4E0,4E0,2E1,3.3E1,1.44E2,3.8E2,1.702E3,1E0,1E0,2E0,6E0],"tree_param":{"num_deleted":"0","num_feature":"35","num_nodes":"91","size_leaf_vector":"1"}},{"base_weights":[5.0823182E-5,6.833017E-4,-3.3916023E-3,-8.473919E-4,3.1235067E-3,-8.4338075E-4,-1.1064247E-2,-6.69951E-5,-8.070628E-3,1.2259602E-2,7.7141606E-4,-1.4810316E-3,2.5261043E-2,-1.3608091E-2,1.7869958E-3,1.5931667E-4,-1.653076E-2,-3.3111833E-2,-2.8930884E-3,6.0287323E-3,2.4723662E-2,1.2960986E-3,-2.4225214E-2,5.197843E-3,-3.1932537E-3,-5.420702E-3,3.2681506E-2,-3.1122794E-2,-1.0430224E-2,7.932679E-3,-8.839365E-3,-2.0683018E-4,1.779933E-2,-5.3420313E-2,-6.960353E-3,-6.937931E-3,-8.0519155E-2,-4.4652442E-3,1.2124951E-2,3.1122845E-2,8.664733E-4,-4.825065E-3,3.0946663E-2,9.44123E-3,-5.666664E-4,-1.11131206E-1,2.7603842E-3,4.6541974E-2,1.5399812E-4,-1.5723346E-2,-1.8725878E-3,1.3906327E-3,-3.8299488E-3,2.2425626E-4,4.192297E-2,-8.482416E-2,-1.5752276E-2,-1.873774E-2,-4.296224E-3,-7.733933E-3,1.0537156E-2,-5.0939412E-5,-2.9351353E-3,-3.0376803E-4,1.2935975E-3,1.4377771E-2,4.26462E-4,-4.2061187E-2,9.979757E-4,1.3724426E-3,-2.9830846E-3,-4.736208E-3,2.8162422E-2,2.0191257E-3,-2.6718838E-2,-9.273948E-4,-4.7593685E-3,-5.5181757E-3,6.174805E-3,2.2698104E-2,-2.2157568E-3,1.3359704E-3,-1.0057755E-2,-8.282503E-3,4.788857E-3,1.6394552E-2,6.233891E-3,5.0257845E-3,-1.3746988E-2,-7.3607167E-4,2.9858514E-3,-1.03065865E-2,-4.525902E-2,4.3829093E-3,-6.028144E-4,1.911897E-2,1.4482852E-3,5.0125145E-3,-1.8271031E-3,-1.2384562E-2,-2.270431E-3,1.9953882E-3,-1.1601946E-3,2.0347351E-4,-1.0255818E-4,-4.3207037E-4,1.4817064E-2,-6.4781494E-4,-3.349779E-2,-1.2318214E-2,-1.5469549E-4,3.1299419E-3,-6.529298E-3,3.411337E-3,-2.4391324E-3,-3.6206597E-3,1.4038949E-4,-5.8700356E-5,3.9710007E-3],"categories":[0,0,0,0,0,0,0,0,0,0,0,0,0,0,0,0,0,0,0,0],"categories_nodes":[8,11,12,16,19,20,21,22,26,27,29,30,34,38,46,49,54,57,58,60],"categories_segments":[0,1,2,3,4,5,6,7,8,9,10,11,12,13,14,15,16,17,18,19],"categories_sizes":[1,1,1,1,1,1,1,1,1,1,1,1,1,1,1,1,1,1,1,1],"default_left":[0,0,0,0,0,0,0,0,1,0,0,1,1,0,0,0,1,0,0,1,1,1,1,0,0,0,1,1,0,1,1,0,0,0,1,0,0,0,1,0,0,0,0,0,0,0,1,0,0,1,0,0,0,0,1,0,0,1,1,0,1,0,0,0,0,0,0,0,0,0,0,0,0,0,0,0,0,0,0,0,0,0,0,0,0,0,0,0,0,0,0,0,0,0,0,0,0,0,0,0,0,0,0,0,0,0,0,0,0,0,0,0,0,0,0,0,0,0,0],"id":13,"left_children":[1,3,5,7,9,11,13,15,17,19,21,23,25,27,29,31,33,35,37,39,41,43,45,47,49,51,53,55,57,59,61,63,65,67,69,71,73,75,77,79,81,83,85,87,89,91,93,95,97,99,101,-1,-1,103,105,107,109,111,113,115,117,-1,-1,-1,-1,-1,-1,-1,-1,-1,-1,-1,-1,-1,-1,-1,-1,-1,-1,-1,-1,-1,-1,-1,-1,-1,-1,-1,-1,-1,-1,-1,-1,-1,-1,-1,-1,-1,-1,-1,-1,-1,-1,-1,-1,-1,-1,-1,-1,-1,-1,-1,-1,-1,-1,-1,-1,-1,-1],"loss_changes":[8.556772E-3,1.2403531E-2,1.1917145E-2,1.1504557E-2,2.7496364E-2,7.6777013E-3,4.993433E-3,6.869547E-3,2.5704917E-2,2.0198375E-2,1.3395883E-2,5.151235E-3,2.6815576E-3,6.744124E-3,1.7680824E-3,1.1752303E-2,8.454376E-3,4.1629743E-2,3.973517E-3,2.2772478E-2,1.6147025E-2,1.5162647E-2,4.955618E-2,1.9177906E-2,5.8947634E-3,2.8078942E-4,2.6901718E-3,1.4346765E-2,5.4739527E-3,7.751504E-4,8.02158E-5,6.4961794E-3,1.818792E-2,2.5089912E-2,7.6815067E-4,2.2001127E-2,9.544574E-3,2.3158966E-3,4.5085233E-3,5.2011266E-2,1.8282784E-2,8.018579E-3,1.621478E-2,7.592285E-2,1.6181758E-2,1.0069419E-2,9.9017E-4,6.8621654E-3,8.681571E-3,6.7743976E-3,5.5516395E-3,0E0,0E0,1.0028972E-6,2.3377566E-3,8.632163E-3,6.14867E-3,4.288329E-3,3.937061E-3,1.123118E-4,4.3719087E-4,0E0,0E0,0E0,0E0,0E0,0E0,0E0,0E0,0E0,0E0,0E0,0E0,0E0,0E0,0E0,0E0,0E0,0E0,0E0,0E0,0E0,0E0,0E0,0E0,0E0,0E0,0E0,0E0,0E0,0E0,0E0,0E0,0E0,0E0,0E0,0E0,0E0,0E0,0E0,0E0,0E0,0E0,0E0,0E0,0E0,0E0,0E0,0E0,0E0,0E0,0E0,0E0,0E0,0E0,0E0,0E0,0E0,0E0],"parents":[2147483647,0,0,1,1,2,2,3,3,4,4,5,5,6,6,7,7,8,8,9,9,10,10,11,11,12,12,13,13,14,14,15,15,16,16,17,17,18,18,19,19,20,20,21,21,22,22,23,23,24,24,25,25,26,26,27,27,28,28,29,29,30,30,31,31,32,32,33,33,34,34,35,35,36,36,37,37,38,38,39,39,40,40,41,41,42,42,43,43,44,44,45,45,46,46,47,47,48,48,49,49,50,50,53,53,54,54,55,55,56,56,57,57,58,58,59,59,60,60],"right_children":[2,4,6,8,10,12,14,16,18,20,22,24,26,28,30,32,34,36,38,40,42,44,46,48,50,52,54,56,58,60,62,64,66,68,70,72,74,76,78,80,82,84,86,88,90,92,94,96,98,100,102,-1,-1,104,106,108,110,112,114,116,118,-1,-1,-1,-1,-1,-1,-1,-1,-1,-1,-1,-1,-1,-1,-1,-1,-1,-1,-1,-1,-1,-1,-1,-1,-1,-1,-1,-1,-1,-1,-1,-1,-1,-1,-1,-1,-1,-1,-1,-1,-1,-1,-1,-1,-1,-1,-1,-1,-1,-1,-1,-1,-1,-1,-1,-1,-1,-1],"split_conditions":[2.0640664E0,4.5382294E-1,-2.3443345E-2,8.098475E-1,6.188089E-1,4.3093905E-1,3.4345095E0,1.6315E3,NaN,8.504318E-1,3.4666666E-1,NaN,NaN,-1.5437963E-2,-7.7069383E-3,1.2112858E3,NaN,5.02E2,3.7409326E-1,NaN,NaN,NaN,NaN,1.5496302E-3,-4.9168074E-1,9.9E1,NaN,NaN,1.3375212E0,NaN,NaN,7.5E-1,2.723E3,3.28E3,NaN,4.3093905E-1,1.2930412E0,1.2541811E-1,NaN,7.7340426E0,8.2239896E-1,3.3014992E-1,6.351101E-1,2.125E2,1.4033333E2,1.7023167E-4,NaN,-2.2339925E-7,1.64E2,NaN,1.2047926E-1,1.3906327E-3,-3.8299488E-3,9.9E1,NaN,9.45E2,9.45E2,NaN,NaN,8.2E1,NaN,-5.0939412E-5,-2.9351353E-3,-3.0376803E-4,1.2935975E-3,1.4377771E-2,4.26462E-4,-4.2061187E-2,9.979757E-4,1.3724426E-3,-2.9830846E-3,-4.736208E-3,2.8162422E-2,2.0191257E-3,-2.6718838E-2,-9.273948E-4,-4.7593685E-3,-5.5181757E-3,6.174805E-3,2.2698104E-2,-2.2157568E-3,1.3359704E-3,-1.0057755E-2,-8.282503E-3,4.788857E-3,1.6394552E-2,6.233891E-3,5.0257845E-3,-1.3746988E-2,-7.3607167E-4,2.9858514E-3,-1.03065865E-2,-4.525902E-2,4.3829093E-3,-6.028144E-4,1.911897E-2,1.4482852E-3,5.0125145E-3,-1.8271031E-3,-1.2384562E-2,-2.270431E-3,1.9953882E-3,-1.1601946E-3,2.0347351E-4,-1.0255818E-4,-4.3207037E-4,1.4817064E-2,-6.4781494E-4,-3.349779E-2,-1.2318214E-2,-1.5469549E-4,3.1299419E-3,-6.529298E-3,3.411337E-3,-2.4391324E-3,-3.6206597E-3,1.4038949E-4,-5.8700356E-5,3.9710007E-3],"split_indices":[28,28,7,25,28,3,28,2,33,10,19,31,29,7,7,2,33,1,28,31,34,33,33,4,20,0,31,33,16,32,30,25,1,1,32,3,16,14,30,22,10,12,25,2,2,5,34,11,1,33,18,0,0,0,30,0,0,30,33,0,31,0,0,0,0,0,0,0,0,0,0,0,0,0,0,0,0,0,0,0,0,0,0,0,0,0,0,0,0,0,0,0,0,0,0,0,0,0,0,0,0,0,0,0,0,0,0,0,0,0,0,0,0,0,0,0,0,0,0],"split_type":[0,0,0,0,0,0,0,0,1,0,0,1,1,0,0,0,1,0,0,1,1,1,1,0,0,0,1,1,0,1,1,0,0,0,1,0,0,0,1,0,0,0,0,0,0,0,1,0,0,1,0,0,0,0,1,0,0,1,1,0,1,0,0,0,0,0,0,0,0,0,0,0,0,0,0,0,0,0,0,0,0,0,0,0,0,0,0,0,0,0,0,0,0,0,0,0,0,0,0,0,0,0,0,0,0,0,0,0,0,0,0,0,0,0,0,0,0,0,0],"sum_hessian":[3.928E3,3.319E3,6.09E2,2.04E3,1.279E3,4.58E2,1.51E2,1.842E3,1.98E2,2.61E2,1.018E3,4.48E2,1E1,1.26E2,2.5E1,1.818E3,2.4E1,3.3E1,1.65E2,1.75E2,8.6E1,9.98E2,2E1,9.1E1,3.57E2,2E0,8E0,1.8E1,1.08E2,1.6E1,9E0,1.782E3,3.6E1,4E0,2E1,2.2E1,1.1E1,1.5E2,1.5E1,2.9E1,1.46E2,1.5E1,7.1E1,1.85E2,8.13E2,4E0,1.6E1,9E0,8.2E1,3.3E1,3.24E2,1E0,1E0,2E0,6E0,3E0,1.5E1,4.5E1,6.3E1,2E0,1.4E1,1E0,8E0,1.513E3,2.69E2,1.2E1,2.4E1,1E0,3E0,4E0,1.6E1,2.1E1,1E0,1E0,1E1,1.35E2,1.5E1,3E0,1.2E1,1.3E1,1.6E1,1.33E2,1.3E1,7E0,8E0,2E1,5.1E1,1.64E2,2.1E1,6.9E2,1.23E2,2E0,2E0,4E0,1.2E1,6E0,3E0,2.2E1,6E1,7E0,2.6E1,6.1E1,2.63E2,1E0,1E0,1E0,5E0,1E0,2E0,5E0,1E1,4E0,4.1E1,1.2E1,5.1E1,1E0,1E0,3E0,1.1E1],"tree_param":{"num_deleted":"0","num_feature":"35","num_nodes":"119","size_leaf_vector":"1"}},{"base_weights":[1.2627574E-5,-2.0408375E-2,1.1183147E-4,2.2160212E-2,-2.9775E-2,-8.6674336E-5,9.047948E-3,2.1382343E-2,-5.390811E-3,-1.694435E-2,-1.9267334E-2,-1.4038516E-2,4.9517916E-5,2.4763282E-2,2.4589098E-3,-9.962024E-3,-1.1764834E-2,-3.0036964E-2,-9.973108E-3,1.0414784E-2,-1.2561248E-4,-2.7649546E-2,3.6063325E-2,-8.337214E-3,4.7392715E-3,-5.1576495E-3,-2.0948434E-3,-1.392103E-2,7.252801E-3,2.3429024E-3,-1.3022667E-2,4.8338555E-2,5.437284E-4,3.583039E-4,-4.076297E-3,5.469509E-4,-1.0642055E-2,-1.5482036E-2,4.910235E-2,-6.158379E-3,1.5614707E-3,2.8195956E-3,1.8666908E-2,5.3420905E-3,-2.07833E-3,2.0507388E-3,-2.4642417E-4,-1.1468739E-3,-4.717994E-3,3.7515843E-3,3.775113E-2,8.417942E-3,-2.0555686E-3,3.9411333E-4,-4.6818488E-4,-6.610007E-4,-7.1760737E-3,-3.0143006E-4,-5.655049E-3,-2.992994E-3,2.0414382E-2,2.7457864E-3,-9.916541E-4,-2.0102602E-3,1.5949466E-3,2.2538675E-2,-2.2953826E-3],"categories":[0,0,0,0,0,0,0,0,0,0,0,0,0,0],"categories_nodes":[1,4,10,11,13,14,18,19,22,30,32,38,41,42],"categories_segments":[0,1,2,3,4,5,6,7,8,9,10,11,12,13],"categories_sizes":[1,1,1,1,1,1,1,1,1,1,1,1,1,1],"default_left":[0,1,0,0,1,0,0,0,0,0,1,1,0,1,1,0,0,0,1,1,0,0,1,0,0,0,0,0,0,0,1,0,1,0,0,0,0,0,1,0,0,1,1,0,0,0,0,0,0,0,0,0,0,0,0,0,0,0,0,0,0,0,0,0,0,0,0],"id":14,"left_children":[1,3,5,7,9,11,13,-1,-1,-1,15,17,19,21,23,-1,25,27,29,31,33,35,37,39,41,-1,-1,-1,43,45,47,49,51,53,55,-1,-1,57,59,-1,61,63,65,-1,-1,-1,-1,-1,-1,-1,-1,-1,-1,-1,-1,-1,-1,-1,-1,-1,-1,-1,-1,-1,-1,-1,-1],"loss_changes":[7.96182E-3,8.235575E-3,6.938393E-3,9.164496E-3,3.4016715E-3,7.272503E-3,8.74077E-3,0E0,0E0,0E0,9.6887397E-4,2.106926E-3,6.883009E-3,1.5803812E-2,1.5412755E-3,0E0,1.3948651E-4,4.608667E-3,1.1948212E-3,2.355762E-2,7.1305656E-3,1.2176423E-3,1.48743335E-2,1.3594464E-3,1.3109309E-3,0E0,0E0,0E0,5.7235465E-4,1.0513355E-4,5.6177704E-4,3.452771E-2,1.0570688E-2,6.094272E-3,1.5074244E-2,0E0,0E0,2.2486632E-4,1.9706756E-2,0E0,2.888762E-4,1.1291173E-3,9.490697E-3,0E0,0E0,0E0,0E0,0E0,0E0,0E0,0E0,0E0,0E0,0E0,0E0,0E0,0E0,0E0,0E0,0E0,0E0,0E0,0E0,0E0,0E0,0E0,0E0],"parents":[2147483647,0,0,1,1,2,2,3,3,4,4,5,5,6,6,10,10,11,11,12,12,13,13,14,14,16,16,17,17,18,18,19,19,20,20,21,21,22,22,23,23,24,24,28,28,29,29,30,30,31,31,32,32,33,33,34,34,37,37,38,38,40,40,41,41,42,42],"right_children":[2,4,6,8,10,12,14,-1,-1,-1,16,18,20,22,24,-1,26,28,30,32,34,36,38,40,42,-1,-1,-1,44,46,48,50,52,54,56,-1,-1,58,60,-1,62,64,66,-1,-1,-1,-1,-1,-1,-1,-1,-1,-1,-1,-1,-1,-1,-1,-1,-1,-1,-1,-1,-1,-1,-1,-1],"split_conditions":[3.3236048E-4,NaN,7.028005E-1,-5.8613026E-1,NaN,1.0022246E-2,9.3E1,2.1382343E-2,-5.390811E-3,-1.694435E-2,NaN,NaN,3.0491093E-2,NaN,NaN,-9.962024E-3,3.2E1,8.742849E-3,NaN,NaN,8.976881E-1,7.1775347E-1,NaN,3.8236668E1,2.5418447E-3,-5.1576495E-3,-2.0948434E-3,-1.392103E-2,2.74E2,2.7E2,NaN,1.7939674E1,NaN,4.165333E1,7.63995E-2,5.469509E-4,-1.0642055E-2,7.1775347E-1,NaN,-6.158379E-3,2.69E2,NaN,NaN,5.3420905E-3,-2.07833E-3,2.0507388E-3,-2.4642417E-4,-1.1468739E-3,-4.717994E-3,3.7515843E-3,3.775113E-2,8.417942E-3,-2.0555686E-3,3.9411333E-4,-4.6818488E-4,-6.610007E-4,-7.1760737E-3,-3.0143006E-4,-5.655049E-3,-2.992994E-3,2.0414382E-2,2.7457864E-3,-9.916541E-4,-2.0102602E-3,1.5949466E-3,2.2538675E-2,-2.2953826E-3],"split_indices":[3,29,6,7,33,10,1,0,0,0,31,31,10,34,29,0,1,6,30,34,12,6,32,15,20,0,0,0,1,1,32,13,32,15,4,0,0,6,30,0,1,33,33,0,0,0,0,0,0,0,0,0,0,0,0,0,0,0,0,0,0,0,0,0,0,0,0],"split_type":[0,1,0,0,1,0,0,0,0,0,1,1,0,1,1,0,0,0,1,1,0,0,1,0,0,0,0,0,0,0,1,0,1,0,0,0,0,0,1,0,0,1,1,0,0,0,0,0,0,0,0,0,0,0,0,0,0,0,0,0,0,0,0,0,0,0,0],"sum_hessian":[3.928E3,1.8E1,3.91E3,3E0,1.5E1,3.826E3,8.4E1,1E0,2E0,3E0,1.2E1,3.6E1,3.79E3,2.4E1,6E1,3E0,9E0,6E0,3E1,6.2E1,3.728E3,4E0,2E1,1E1,5E1,3E0,6E0,4E0,2E0,6E0,2.4E1,1.2E1,5E1,3.322E3,4.06E2,1E0,3E0,4E0,1.6E1,4E0,6E0,4.5E1,5E0,1E0,1E0,2E0,4E0,6E0,1.8E1,9E0,3E0,1E1,4E1,2.218E3,1.104E3,3.72E2,3.4E1,1E0,3E0,4E0,1.2E1,2E0,4E0,9E0,3.6E1,1E0,4E0],"tree_param":{"num_deleted":"0","num_feature":"35","num_nodes":"67","size_leaf_vector":"1"}},{"base_weights":[1.49128955E-5,2.7078595E-3,-5.606071E-4,2.1672808E-2,1.3866704E-3,-6.851285E-3,-7.73268E-5,1.0372104E-2,6.572316E-2,2.3481792E-3,-1.8498683E-2,-2.5910761E-2,-1.842013E-3,1.2800299E-3,-2.1899862E-3,2.8809195E-2,2.733598E-3,2.6874866E-2,-1.1857241E-2,4.1841106E-3,-8.489508E-3,-2.8592253E-2,-3.099997E-3,-7.941662E-3,-6.898274E-2,-6.751675E-4,-4.348005E-2,1.2671955E-2,4.4556233E-4,-3.255548E-2,-1.9018882E-3,-1.4125137E-2,3.2350313E-2,-5.0597414E-3,-2.760172E-4,2.6922596E-3,2.4580836E-2,-1.4294915E-2,1.55262835E-2,-8.928577E-3,-1.3061803E-3,-8.131845E-3,1.0254621E-2,-1.762901E-2,2.1462763E-2,-2.4956632E-2,-8.409752E-2,-3.8491324E-2,4.0299128E-4,-2.762787E-4,-1.6166879E-2,-1.1034976E-2,1.812582E-2,-1.01775855E-4,1.0897699E-2,-8.0229156E-2,-1.3046979E-2,3.6245224E-3,-3.4124958E-3,-1.1304406E-2,-2.1548113E-3,2.7400278E-2,-1.203906E-3,8.462478E-3,4.675548E-4,2.801339E-2,5.3362604E-3,-5.101556E-3,2.9555045E-3,5.351902E-4,1.5269854E-2,-3.2871848E-4,-3.7919905E-3,3.9351988E-3,2.4997408E-4,-1.2572088E-2,-2.3370713E-3,-8.401939E-3,-1.9135986E-3,-2.6763266E-2,-5.71159E-3,-2.0184021E-2,-4.342236E-3,-1.9730102E-4,1.1042743E-2,-7.876998E-3,1.1593959E-3,1.0493313E-2,2.006844E-3,-1.1368896E-3,3.083358E-4,9.848967E-3,1.479558E-3,-3.1125242E-2,-4.9778796E-3,-5.182469E-4,-6.5271216E-3,-2.8209742E-3,4.6321475E-3,4.6496517E-3,-1.2275017E-3],"categories":[0,0,0,0,0,0,0,0],"categories_nodes":[0,5,26,27,29,30,47,54],"categories_segments":[0,1,2,3,4,5,6,7],"categories_sizes":[1,1,1,1,1,1,1,1],"default_left":[1,0,0,0,0,1,0,0,0,0,0,0,0,0,0,0,0,0,0,0,0,0,0,0,0,0,1,1,0,1,1,0,0,0,0,0,0,0,0,0,0,0,0,0,0,0,0,1,0,0,0,0,0,0,1,0,0,0,0,0,0,0,0,0,0,0,0,0,0,0,0,0,0,0,0,0,0,0,0,0,0,0,0,0,0,0,0,0,0,0,0,0,0,0,0,0,0,0,0,0,0],"id":15,"left_children":[1,3,5,7,9,11,13,15,17,19,21,23,25,27,29,-1,31,-1,33,35,37,39,41,43,45,47,49,51,53,55,57,59,61,-1,-1,63,65,67,69,-1,-1,71,73,75,-1,77,79,81,83,-1,-1,85,87,89,91,93,95,97,99,-1,-1,-1,-1,-1,-1,-1,-1,-1,-1,-1,-1,-1,-1,-1,-1,-1,-1,-1,-1,-1,-1,-1,-1,-1,-1,-1,-1,-1,-1,-1,-1,-1,-1,-1,-1,-1,-1,-1,-1,-1,-1],"loss_changes":[6.090858E-3,1.7308893E-2,9.8435115E-3,2.1719309E-2,1.2433162E-2,2.2006791E-2,8.628642E-3,2.3946712E-2,1.7721627E-2,1.235192E-2,4.5741955E-3,3.660247E-2,8.910312E-3,1.7409697E-2,1.0234759E-2,0E0,1.7932465E-2,0E0,1.4882124E-4,1.6061123E-2,1.2769878E-2,3.8073212E-4,9.569681E-4,2.8210916E-2,7.217437E-3,7.3544392E-3,2.1654768E-3,1.636182E-2,9.772327E-3,9.183713E-3,9.754762E-3,3.4907064E-3,2.8249612E-2,0E0,0E0,1.4275697E-2,1.516398E-2,4.944927E-3,8.659177E-3,0E0,0E0,3.0334678E-4,9.695263E-5,7.3172217E-3,0E0,1.0465435E-4,1.628235E-3,2.483306E-3,6.8203765E-3,0E0,0E0,5.5446103E-3,1.9423861E-2,6.768929E-3,1.095982E-2,2.7689561E-3,8.497591E-4,3.878306E-2,1.1841483E-2,0E0,0E0,0E0,0E0,0E0,0E0,0E0,0E0,0E0,0E0,0E0,0E0,0E0,0E0,0E0,0E0,0E0,0E0,0E0,0E0,0E0,0E0,0E0,0E0,0E0,0E0,0E0,0E0,0E0,0E0,0E0,0E0,0E0,0E0,0E0,0E0,0E0,0E0,0E0,0E0,0E0,0E0],"parents":[2147483647,0,0,1,1,2,2,3,3,4,4,5,5,6,6,7,7,8,8,9,9,10,10,11,11,12,12,13,13,14,14,16,16,18,18,19,19,20,20,21,21,22,22,23,23,24,24,25,25,26,26,27,27,28,28,29,29,30,30,31,31,32,32,35,35,36,36,37,37,38,38,41,41,42,42,43,43,45,45,46,46,47,47,48,48,51,51,52,52,53,53,54,54,55,55,56,56,57,57,58,58],"right_children":[2,4,6,8,10,12,14,16,18,20,22,24,26,28,30,-1,32,-1,34,36,38,40,42,44,46,48,50,52,54,56,58,60,62,-1,-1,64,66,68,70,-1,-1,72,74,76,-1,78,80,82,84,-1,-1,86,88,90,92,94,96,98,100,-1,-1,-1,-1,-1,-1,-1,-1,-1,-1,-1,-1,-1,-1,-1,-1,-1,-1,-1,-1,-1,-1,-1,-1,-1,-1,-1,-1,-1,-1,-1,-1,-1,-1,-1,-1,-1,-1,-1,-1,-1,-1],"split_conditions":[NaN,1.5204549E-3,1.5247144E-3,7.9544045E-2,2.918916E-1,NaN,5.8953166E-2,2.2E1,8.1197333E-1,6.882404E-1,4.467452E-2,1.2825395E0,1.3711806E-1,2.3544855E-5,-1.7414795E-1,2.8809195E-2,3.507559E1,2.6874866E-2,2.84E2,3.168E-1,6.033673E-1,2.709E3,7.438569E1,8.124742E-2,-8.407609E-1,2.1E1,NaN,NaN,1.3020635E-1,NaN,NaN,1.6238992E-1,1.64E2,-5.0597414E-3,-2.760172E-4,7.1178777E-3,1.7926794E-2,6.783929E1,9.3587465E-4,-8.928577E-3,-1.3061803E-3,8.6687356E-2,1.4949324E0,8.2990515E-1,2.1462763E-2,3.46E2,3.55E2,NaN,3.501238E0,-2.762787E-4,-1.6166879E-2,4.2E1,1.1417414E-1,2.1088809E-2,NaN,2.75E2,2.75E2,1.4303763E1,4.413235E-3,-1.1304406E-2,-2.1548113E-3,2.7400278E-2,-1.203906E-3,8.462478E-3,4.675548E-4,2.801339E-2,5.3362604E-3,-5.101556E-3,2.9555045E-3,5.351902E-4,1.5269854E-2,-3.2871848E-4,-3.7919905E-3,3.9351988E-3,2.4997408E-4,-1.2572088E-2,-2.3370713E-3,-8.401939E-3,-1.9135986E-3,-2.6763266E-2,-5.71159E-3,-2.0184021E-2,-4.342236E-3,-1.9730102E-4,1.1042743E-2,-7.876998E-3,1.1593959E-3,1.0493313E-2,2.006844E-3,-1.1368896E-3,3.083358E-4,9.848967E-3,1.479558E-3,-3.1125242E-2,-4.9778796E-3,-5.182469E-4,-6.5271216E-3,-2.8209742E-3,4.6321475E-3,4.6496517E-3,-1.2275017E-3],"split_indices":[31,4,4,14,11,33,14,1,25,5,14,28,14,5,11,0,8,0,1,19,28,0,9,14,6,1,29,30,11,33,33,27,1,0,0,3,14,22,6,0,0,28,8,10,0,1,1,29,28,0,0,1,3,14,34,0,0,17,3,0,0,0,0,0,0,0,0,0,0,0,0,0,0,0,0,0,0,0,0,0,0,0,0,0,0,0,0,0,0,0,0,0,0,0,0,0,0,0,0,0,0],"split_type":[1,0,0,0,0,1,0,0,0,0,0,0,0,0,0,0,0,0,0,0,0,0,0,0,0,0,1,1,0,1,1,0,0,0,0,0,0,0,0,0,0,0,0,0,0,0,0,1,0,0,0,0,0,0,1,0,0,0,0,0,0,0,0,0,0,0,0,0,0,0,0,0,0,0,0,0,0,0,0,0,0,0,0,0,0,0,0,0,0,0,0,0,0,0,0,0,0,0,0,0,0],"sum_hessian":[3.928E3,6.91E2,3.237E3,4.4E1,6.47E2,2.3E2,3.007E3,3.6E1,8E0,6.18E2,2.9E1,4.7E1,1.83E2,1.831E3,1.176E3,2E0,3.4E1,6E0,2E0,5.29E2,8.9E1,1.7E1,1.2E1,3.4E1,1.3E1,1.79E2,4E0,1.24E2,1.707E3,1E1,1.166E3,2.2E1,1.2E1,1E0,1E0,4.94E2,3.5E1,7.2E1,1.7E1,1.6E1,1E0,9E0,3E0,3.1E1,3E0,4E0,9E0,4E0,1.75E2,1E0,3E0,2.3E1,1.01E2,1.623E3,8.4E1,2E0,8E0,2.5E2,9.16E2,4E0,1.8E1,4E0,8E0,2E1,4.74E2,2E0,3.3E1,6.5E1,7E0,1.3E1,4E0,4E0,5E0,2E0,1E0,8E0,2.3E1,3E0,1E0,8E0,1E0,1E0,3E0,1.71E2,4E0,1.1E1,1.2E1,4E1,6.1E1,3.8E2,1.243E3,1.7E1,6.7E1,1E0,1E0,4E0,4E0,1.19E2,1.31E2,3.1E1,8.85E2],"tree_param":{"num_deleted":"0","num_feature":"35","num_nodes":"101","size_leaf_vector":"1"}},{"base_weights":[1.5748374E-5,-2.7460374E-3,4.1097318E-4,-1.1216505E-2,-8.217623E-4,4.38775E-3,-1.8023478E-4,-4.7015775E-2,-7.858483E-3,5.264443E-2,-1.6277457E-3,1.4952975E-2,2.101536E-3,-5.949766E-3,1.5621498E-4,-1.9297251E-2,2.6302153E-2,-5.8305184E-3,7.094734E-2,6.1949724E-3,-3.4391268E-3,-1.5526807E-2,3.8327184E-2,2.2743328E-4,3.1480536E-2,-8.396348E-3,1.3292199E-2,3.7636608E-4,-8.282023E-3,-1.4011816E-2,-3.874332E-2,3.703246E-2,-1.7273212E-2,1.2739287E-3,8.6560965E-2,4.0776607E-2,-2.4102652E-3,1.4534143E-3,-5.1098396E-3,6.518037E-4,-2.6343586E-2,1.2129255E-1,1.711055E-2,2.903996E-2,-7.1651087E-4,-3.0421931E-2,5.147667E-2,-2.0305425E-2,-5.6695594E-3,6.765283E-2,-1.1287206E-3,-2.8550095E-4,3.5595025E-3,-4.123641E-2,-1.0038703E-3,-8.1656233E-4,-9.382881E-3,1.9941358E-2,1.2681434E-3,7.78338E-3,2.9435465E-2,2.2182021E-2,7.8972215E-3,-1.3086279E-3,1.103373E-2,9.203578E-3,-2.43993E-4,6.352186E-4,-2.033987E-3,6.9223368E-3,-2.0630194E-3,-9.901847E-3,4.7335782E-4,4.1933555E-2,-3.9892704E-3,1.1043303E-2,-3.3140967E-3,-1.1496706E-2,1.4480221E-2,8.630606E-3,-3.7464633E-4,-1.23825045E-2,-1.7431539E-3,-2.445425E-3,1.7991154E-2,-7.8265425E-3,1.0396536E-2,-2.3093494E-4,-3.050474E-3,2.8885715E-4,2.6868561E-2,3.486093E-3,-7.2941463E-3,-1.526874E-4,4.793522E-3,4.320547E-3,3.2737368E-4,-2.8458813E-2,-8.658699E-3,-2.202031E-3,2.2692853E-3],"categories":[0,0,0,0,0,0,0,0,0,0,0,0,0,0],"categories_nodes":[1,5,9,18,19,24,25,26,28,34,38,43,46,52],"categories_segments":[0,1,2,3,4,5,6,7,8,9,10,11,12,13],"categories_sizes":[1,1,1,1,1,1,1,1,1,1,1,1,1,1],"default_left":[0,1,0,0,0,1,0,0,0,1,0,0,0,0,0,0,0,0,1,1,0,0,0,0,1,1,1,0,1,0,0,0,0,0,1,0,0,0,1,0,0,0,0,1,0,0,1,0,0,0,0,0,1,0,0,0,0,0,0,0,0,0,0,0,0,0,0,0,0,0,0,0,0,0,0,0,0,0,0,0,0,0,0,0,0,0,0,0,0,0,0,0,0,0,0,0,0,0,0,0,0],"id":16,"left_children":[1,3,5,7,9,11,13,-1,15,17,19,21,23,25,27,29,31,-1,33,35,37,39,41,43,45,47,49,51,53,55,-1,57,-1,-1,59,61,63,65,67,69,71,73,75,77,79,81,83,85,87,89,91,93,95,97,99,-1,-1,-1,-1,-1,-1,-1,-1,-1,-1,-1,-1,-1,-1,-1,-1,-1,-1,-1,-1,-1,-1,-1,-1,-1,-1,-1,-1,-1,-1,-1,-1,-1,-1,-1,-1,-1,-1,-1,-1,-1,-1,-1,-1,-1,-1],"loss_changes":[4.289735E-3,8.010142E-3,8.08388E-3,4.3231145E-2,1.7409021E-2,1.0717269E-2,5.812755E-3,0E0,3.567556E-2,9.294452E-3,5.646765E-3,5.687792E-2,2.019959E-2,7.879317E-3,5.2603716E-3,3.7670568E-2,2.2833448E-2,0E0,4.8396382E-3,2.241702E-2,2.6476388E-3,6.142187E-3,7.713567E-2,9.431114E-3,2.879784E-2,4.6584876E-3,1.4971036E-2,5.8137127E-3,1.7227594E-2,1.2779238E-2,0E0,1.9999698E-2,0E0,0E0,2.5659613E-4,5.2430406E-3,4.8263776E-3,5.5233217E-3,2.9233056E-3,2.6908221E-3,3.958676E-3,2.425097E-2,2.0931156E-2,1.6096974E-2,5.3095385E-3,1.3628285E-3,9.098854E-3,9.485767E-3,2.659322E-3,5.7582147E-3,5.011935E-3,8.312471E-3,1.2696059E-2,5.888531E-3,3.3129114E-3,0E0,0E0,0E0,0E0,0E0,0E0,0E0,0E0,0E0,0E0,0E0,0E0,0E0,0E0,0E0,0E0,0E0,0E0,0E0,0E0,0E0,0E0,0E0,0E0,0E0,0E0,0E0,0E0,0E0,0E0,0E0,0E0,0E0,0E0,0E0,0E0,0E0,0E0,0E0,0E0,0E0,0E0,0E0,0E0,0E0,0E0],"parents":[2147483647,0,0,1,1,2,2,3,3,4,4,5,5,6,6,8,8,9,9,10,10,11,11,12,12,13,13,14,14,15,15,16,16,18,18,19,19,20,20,21,21,22,22,23,23,24,24,25,25,26,26,27,27,28,28,29,29,31,31,34,34,35,35,36,36,37,37,38,38,39,39,40,40,41,41,42,42,43,43,44,44,45,45,46,46,47,47,48,48,49,49,50,50,51,51,52,52,53,53,54,54],"right_children":[2,4,6,8,10,12,14,-1,16,18,20,22,24,26,28,30,32,-1,34,36,38,40,42,44,46,48,50,52,54,56,-1,58,-1,-1,60,62,64,66,68,70,72,74,76,78,80,82,84,86,88,90,92,94,96,98,100,-1,-1,-1,-1,-1,-1,-1,-1,-1,-1,-1,-1,-1,-1,-1,-1,-1,-1,-1,-1,-1,-1,-1,-1,-1,-1,-1,-1,-1,-1,-1,-1,-1,-1,-1,-1,-1,-1,-1,-1,-1,-1,-1,-1,-1,-1],"split_conditions":[-3.7727986E-2,NaN,-6.9771344E-3,3.4851622E-13,3.4851622E-13,NaN,2.1E1,-4.7015775E-2,1.7950767E-1,NaN,-4.8911476E-1,2.1760454E-2,7.7550316E-1,1.7736052E0,4.686942E-1,2.2560992E2,2.9197418E2,-5.8305184E-3,NaN,NaN,7.769431E-3,1.6561161E-1,5E1,-3.790021E-1,NaN,NaN,NaN,1.6753075E-1,NaN,4.2329542E-2,-3.874332E-2,2.2184205E-1,-1.7273212E-2,1.2739287E-3,NaN,1.768919E1,3.4020382E1,1.27E2,NaN,1.4533741E0,-1.9354949E-2,1.1506549E-1,1.4600676E-1,NaN,7.0781497E-12,2.5E2,NaN,6.8135297E2,8.788373E-2,4.646583E-2,1.6E1,6.087963E-1,NaN,-4.5622125E-1,9.191386E-1,-8.1656233E-4,-9.382881E-3,1.9941358E-2,1.2681434E-3,7.78338E-3,2.9435465E-2,2.2182021E-2,7.8972215E-3,-1.3086279E-3,1.103373E-2,9.203578E-3,-2.43993E-4,6.352186E-4,-2.033987E-3,6.9223368E-3,-2.0630194E-3,-9.901847E-3,4.7335782E-4,4.1933555E-2,-3.9892704E-3,1.1043303E-2,-3.3140967E-3,-1.1496706E-2,1.4480221E-2,8.630606E-3,-3.7464633E-4,-1.23825045E-2,-1.7431539E-3,-2.445425E-3,1.7991154E-2,-7.8265425E-3,1.0396536E-2,-2.3093494E-4,-3.050474E-3,2.8885715E-4,2.6868561E-2,3.486093E-3,-7.2941463E-3,-1.526874E-4,4.793522E-3,4.320547E-3,3.2737368E-4,-2.8458813E-2,-8.658699E-3,-2.202031E-3,2.2692853E-3],"split_indices":[11,33,11,5,5,33,1,0,19,30,19,4,27,23,19,13,13,0,31,31,18,28,1,6,31,33,31,19,33,14,0,16,0,0,34,9,15,1,30,23,20,5,3,32,5,1,30,9,28,3,1,20,33,6,20,0,0,0,0,0,0,0,0,0,0,0,0,0,0,0,0,0,0,0,0,0,0,0,0,0,0,0,0,0,0,0,0,0,0,0,0,0,0,0,0,0,0,0,0,0,0],"split_type":[0,1,0,0,0,1,0,0,0,1,0,0,0,0,0,0,0,0,1,1,0,0,0,0,1,1,1,0,1,0,0,0,0,0,1,0,0,0,1,0,0,0,0,1,0,0,1,0,0,0,0,0,1,0,0,0,0,0,0,0,0,0,0,0,0,0,0,0,0,0,0,0,0,0,0,0,0,0,0,0,0,0,0,0,0,0,0,0,0,0,0,0,0,0,0,0,0,0,0,0,0],"sum_hessian":[3.928E3,4.91E2,3.437E3,9E1,4.01E2,4.44E2,2.993E3,1E0,8.9E1,5E0,3.96E2,7.8E1,3.66E2,1.64E2,2.829E3,6.7E1,2.2E1,1E0,4E0,7.4E1,3.22E2,3.4E1,4.4E1,3.45E2,2.1E1,1.46E2,1.8E1,2.758E3,7.1E1,6.5E1,2E0,2E1,2E0,1E0,3E0,1.4E1,6E1,8.2E1,2.4E2,1.4E1,2E1,8E0,3.6E1,1E1,3.35E2,5E0,1.6E1,2.6E1,1.2E2,3E0,1.5E1,2.284E3,4.74E2,1.2E1,5.9E1,4E1,2.5E1,1E1,1E1,1E0,2E0,3E0,1.1E1,5.8E1,2E0,5E0,7.7E1,4.5E1,1.95E2,3E0,1.1E1,1.6E1,4E0,7E0,1E0,2.1E1,1.5E1,2E0,8E0,5E0,3.3E2,3E0,2E0,2E0,1.4E1,2.4E1,2E0,5.8E1,6.2E1,1E0,2E0,1E1,5E0,2.254E3,3E1,8.7E1,3.87E2,1E0,1.1E1,3.4E1,2.5E1],"tree_param":{"num_deleted":"0","num_feature":"35","num_nodes":"101","size_leaf_vector":"1"}},{"base_weights":[2.0350642E-5,4.5939843E-4,-2.3692544E-3,3.553096E-4,2.5013853E-2,-7.834889E-4,-7.1422616E-3,-9.605842E-3,5.392116E-4,2.4835315E-2,8.486733E-3,-6.3547264E-3,6.880008E-4,-8.208762E-3,1.612222E-2,-3.33802E-2,-4.1833655E-3,8.817321E-4,-4.249089E-3,4.7505043E-2,-9.797708E-3,-1.50301345E-2,4.5531962E-2,-2.8618393E-3,9.018928E-3,-1.4583549E-2,-4.632997E-3,2.6678415E-2,-1.0833425E-2,-8.212101E-3,-2.2611406E-2,2.0688403E-2,-1.0918518E-2,-2.22328E-4,3.2468247E-3,-2.3153264E-2,4.2021764E-4,2.26134E-2,-5.4170755E-3,4.985596E-3,-2.2621471E-2,-2.2924183E-2,2.2284497E-2,6.640665E-2,-5.323805E-3,-2.1464042E-3,-1.8601397E-2,3.3581503E-2,7.5151357E-3,-4.8717655E-2,-5.296438E-3,6.443627E-3,-8.059426E-3,7.5552803E-3,-2.3073817E-2,3.0959542E-3,-4.8328177E-3,1.7504474E-2,1.7509239E-3,-6.5269056E-3,-1.2737939E-3,-2.6643989E-3,6.943072E-5,-4.7458988E-4,2.3000324E-3,-7.724381E-3,1.2873444E-2,-1.8392751E-3,8.6208305E-4,-1.7785226E-3,2.75886E-3,6.0908945E-4,-8.787597E-3,-1.4271177E-2,-3.568079E-3,2.5826646E-2,1.7538697E-3,-1.2816451E-3,2.5383113E-2,-4.190127E-3,4.3874E-3,-8.624815E-4,3.0395384E-3,1.0870784E-2,-1.04441065E-2,1.6257082E-3,1.1439059E-2,1.0771614E-3,4.037413E-3,-9.691687E-3,-3.1925697E-2,-3.1687014E-4,-9.168487E-3,6.3851844E-3,6.5974257E-4,-3.7352159E-3,-1.1061492E-3,-2.1100827E-3,-7.59764E-3],"categories":[0,0,0,0,0,0,0,0,0,0,0,0,0,0,0],"categories_nodes":[4,5,7,10,14,18,25,28,31,39,40,46,47,51,54],"categories_segments":[0,1,2,3,4,5,6,7,8,9,10,11,12,13,14],"categories_sizes":[1,1,1,1,1,1,1,1,1,1,1,1,1,1,1],"default_left":[0,0,0,0,1,1,0,1,0,0,1,0,0,0,1,0,0,0,1,0,0,0,0,0,0,1,0,0,1,0,0,1,0,0,0,0,0,0,0,1,1,0,0,0,0,0,1,1,0,0,0,1,0,0,1,0,0,0,0,0,0,0,0,0,0,0,0,0,0,0,0,0,0,0,0,0,0,0,0,0,0,0,0,0,0,0,0,0,0,0,0,0,0,0,0,0,0,0,0],"id":17,"left_children":[1,3,5,7,9,11,13,15,17,-1,19,21,23,25,27,29,31,33,35,37,39,41,43,45,47,49,51,-1,53,55,-1,57,59,61,63,65,67,-1,-1,69,71,73,75,77,79,81,83,85,87,89,91,93,95,-1,97,-1,-1,-1,-1,-1,-1,-1,-1,-1,-1,-1,-1,-1,-1,-1,-1,-1,-1,-1,-1,-1,-1,-1,-1,-1,-1,-1,-1,-1,-1,-1,-1,-1,-1,-1,-1,-1,-1,-1,-1,-1,-1,-1,-1],"loss_changes":[4.123202E-3,8.476515E-3,4.6114144E-3,6.0631926E-3,1.2664356E-2,3.7672624E-3,3.9037056E-3,7.5953114E-3,5.3307614E-3,0E0,9.026576E-3,4.389762E-2,1.0790549E-2,3.2604672E-3,1.4701091E-2,1.1006254E-2,8.601643E-3,7.917895E-3,1.9164186E-2,8.670718E-3,1.8189797E-3,2.4959624E-2,1.5215913E-2,2.842795E-3,3.7737647E-3,1.6226346E-2,3.6574923E-3,0E0,3.2263212E-3,1.3370637E-3,0E0,5.8120145E-3,2.8002579E-3,8.127518E-3,2.0608135E-2,8.475782E-3,2.830306E-3,0E0,0E0,2.842915E-4,8.816717E-4,1.8192854E-2,1.5229189E-2,1.3227638E-2,1.0663656E-3,2.2296186E-3,1.1040936E-2,5.619852E-4,2.3773238E-3,6.979022E-3,4.46716E-3,1.4019525E-3,1.3556844E-3,0E0,2.4551991E-6,0E0,0E0,0E0,0E0,0E0,0E0,0E0,0E0,0E0,0E0,0E0,0E0,0E0,0E0,0E0,0E0,0E0,0E0,0E0,0E0,0E0,0E0,0E0,0E0,0E0,0E0,0E0,0E0,0E0,0E0,0E0,0E0,0E0,0E0,0E0,0E0,0E0,0E0,0E0,0E0,0E0,0E0,0E0,0E0],"parents":[2147483647,0,0,1,1,2,2,3,3,4,4,5,5,6,6,7,7,8,8,10,10,11,11,12,12,13,13,14,14,15,15,16,16,17,17,18,18,19,19,20,20,21,21,22,22,23,23,24,24,25,25,26,26,28,28,29,29,31,31,32,32,33,33,34,34,35,35,36,36,39,39,40,40,41,41,42,42,43,43,44,44,45,45,46,46,47,47,48,48,49,49,50,50,51,51,52,52,54,54],"right_children":[2,4,6,8,10,12,14,16,18,-1,20,22,24,26,28,30,32,34,36,38,40,42,44,46,48,50,52,-1,54,56,-1,58,60,62,64,66,68,-1,-1,70,72,74,76,78,80,82,84,86,88,90,92,94,96,-1,98,-1,-1,-1,-1,-1,-1,-1,-1,-1,-1,-1,-1,-1,-1,-1,-1,-1,-1,-1,-1,-1,-1,-1,-1,-1,-1,-1,-1,-1,-1,-1,-1,-1,-1,-1,-1,-1,-1,-1,-1,-1,-1,-1,-1],