{"learner":{"attributes":{"scikit_learn":"{\"_estimator_type\": \"regressor\"}"},"feature_names":["L","DS","APC","DV","IV","GBC","DN5","DN10","COf1","COfi","COh","COt","MD","SB","SBT","PD","COE","IN","FCm","DNOp","DNOn","SPa","SBb","SBm","FCr","FCd","SPc","FCs","ID","model_DTW-KNN","model_KERNEL","model_NN","model_RF","model_SHAPELET","model_TS-RF"],"feature_types":["float","float","float","float","float","float","float","float","float","float","float","float","float","float","float","float","float","float","float","float","float","float","float","float","float","float","float","float","float","c","c","c","c","c","c"],"gradient_booster":{"model":{"gbtree_model_param":{"num_parallel_tree":"1","num_trees":"100"},"iteration_indptr":[0,1,2,3,4,5,6,7,8,9,10,11,12,13,14,15,16,17,18,19,20,21,22,23,24,25,26,27,28,29,30,31,32,33,34,35,36,37,38,39,40,41,42,43,44,45,46,47,48,49,50,51,52,53,54,55,56,57,58,59,60,61,62,63,64,65,66,67,68,69,70,71,72,73,74,75,76,77,78,79,80,81,82,83,84,85,86,87,88,89,90,91,92,93,94,95,96,97,98,99,100],"tree_info":[0,0,0,0,0,0,0,0,0,0,0,0,0,0,0,0,0,0,0,0,0,0,0,0,0,0,0,0,0,0,0,0,0,0,0,0,0,0,0,0,0,0,0,0,0,0,0,0,0,0,0,0,0,0,0,0,0,0,0,0,0,0,0,0,0,0,0,0,0,0,0,0,0,0,0,0,0,0,0,0,0,0,0,0,0,0,0,0,0,0,0,0,0,0,0,0,0,0,0,0],"trees":[{"base_weights":[-9.3013497E-10,3.916508E-2,-8.141803E-3,2.1089794E-2,1.5794067E-1,3.9620358E-5,-1.5829626E-2,6.701338E-2,1.0358959E-2,2.0920524E-1,5.0146844E-2,4.3443474E-3,-3.6498934E-2,-7.57307E-2,-1.382439E-2,2.1343642E-4,9.4068885E-2,1.545539E-1,8.193942E-3,2.4494113E-1,6.031725E-3,6.428256E-2,1.0021002E-2,-1.2512144E-2,2.3934647E-2,-7.781848E-2,-2.7184442E-2,-2.629065E-1,-2.1734416E-2,-1.5043701E-3,-2.089199E-2,-2.2284163E-2,2.269848E-2,2.9087016E-1,7.6840825E-2,5.260263E-2,2.0516682E-2,1.6833278E-3,5.276359E-2,3.4405488E-1,1.5788743E-1,4.6420872E-2,-1.7909463E-2,1.0376795E-1,4.2990044E-2,-1.8041776E-2,1.0823874E-2,-9.433904E-3,-2.9467285E-2,7.145244E-2,1.1272105E-2,-1.1467053E-1,-3.7403658E-3,-1.3864019E-2,-4.011089E-2,-7.651692E-2,-1.3096297E-1,-9.310125E-3,-7.2924756E-3,2.8856289E-2,-1.0025713E-2,-1.96603E-2,-7.91356E-2,-1.34999985E-2,-3.549942E-3,2.0063948E-2,1.1878859E-3,3.7488118E-2,1.02775484E-1,1.0776123E-2,3.9732803E-2,-2.6722485E-3,3.6339918E-3,3.0396441E-2,5.9521636E-3,1.1580663E-1,1.4461519E-2,2.745721E-2,6.1826233E-2,1.5816549E-2,4.1277017E-3,-5.7449453E-3,-1.5701017E-3,3.3804696E-2,7.5422623E-3,1.4486802E-2,1.1789969E-3,-7.9347065E-4,-6.368931E-3,3.419658E-3,-4.4206143E-3,-2.0935418E-2,-5.62378E-3,1.6440071E-2,8.323662E-2,1.3464469E-2,-2.9387027E-3,-4.124867E-2,-1.1548862E-2,-6.1538015E-3,4.0965998E-3,5.032073E-3,-5.4471125E-3,-1.1133544E-2,-2.1323018E-2,-6.494778E-2,-5.131665E-3,8.005078E-4,-3.934123E-3,4.823506E-3,4.0074654E-2,1.4094303E-2,-3.4940077E-3,-6.437857E-3,4.8193424E-3,-5.3507905E-2,-8.266598E-3],"categories":[0,0,0,0,0,0,0,0,0],"categories_nodes":[0,12,13,24,29,47,48,57,62],"categories_segments":[0,1,2,3,4,5,6,7,8],"categories_sizes":[1,1,1,1,1,1,1,1,1],"default_left":[1,0,0,0,0,0,0,0,0,0,0,0,1,1,0,0,0,0,0,0,0,0,0,0,1,0,0,0,0,1,0,0,0,0,0,0,0,0,0,0,0,0,0,0,0,0,0,1,1,0,0,0,0,0,0,0,0,1,0,0,0,0,1,0,0,0,0,0,0,0,0,0,0,0,0,0,0,0,0,0,0,0,0,0,0,0,0,0,0,0,0,0,0,0,0,0,0,0,0,0,0,0,0,0,0,0,0,0,0,0,0,0,0,0,0,0,0],"id":0,"left_children":[1,3,5,7,9,11,13,15,17,19,21,23,25,27,29,31,33,35,37,39,41,43,45,47,49,51,53,55,57,59,61,63,65,67,69,-1,-1,71,73,75,77,79,81,83,85,87,-1,89,91,93,95,97,99,101,103,105,-1,107,-1,109,111,113,115,-1,-1,-1,-1,-1,-1,-1,-1,-1,-1,-1,-1,-1,-1,-1,-1,-1,-1,-1,-1,-1,-1,-1,-1,-1,-1,-1,-1,-1,-1,-1,-1,-1,-1,-1,-1,-1,-1,-1,-1,-1,-1,-1,-1,-1,-1,-1,-1,-1,-1,-1,-1,-1,-1],"loss_changes":[1.2506251E0,1.4458284E0,2.0422831E-1,2.8857845E-1,4.8132348E-1,2.4773067E-1,2.000269E-1,2.0059088E-1,1.4764568E-1,4.341576E-1,1.6372062E-2,4.655847E-1,6.177309E-2,5.4005295E-1,1.4111385E-1,1.7199183E-2,2.4549913E-1,5.4705143E-4,1.3658398E-1,3.8571715E-1,1.0501016E-2,1.4035352E-2,7.232425E-3,3.9283544E-2,3.915004E-1,8.1468984E-2,2.303335E-2,3.5496598E-1,1.1487454E-3,1.5344773E-1,7.233441E-2,3.503372E-3,1.3809619E-2,8.67039E-3,1.6361117E-1,0E0,0E0,4.5618262E-2,9.391011E-2,2.6695967E-1,7.390088E-2,9.780377E-5,9.833369E-6,2.0734444E-3,3.1220745E-3,1.8927502E-4,0E0,7.118373E-2,4.8833676E-2,4.5476067E-1,3.658072E-1,2.9480577E-2,3.4895325E-3,9.379981E-3,3.7701651E-3,5.4509796E-2,0E0,4.4504646E-4,0E0,1.7181572E-1,4.3331485E-2,6.526443E-2,1.0256334E-1,0E0,0E0,0E0,0E0,0E0,0E0,0E0,0E0,0E0,0E0,0E0,0E0,0E0,0E0,0E0,0E0,0E0,0E0,0E0,0E0,0E0,0E0,0E0,0E0,0E0,0E0,0E0,0E0,0E0,0E0,0E0,0E0,0E0,0E0,0E0,0E0,0E0,0E0,0E0,0E0,0E0,0E0,0E0,0E0,0E0,0E0,0E0,0E0,0E0,0E0,0E0,0E0,0E0,0E0],"parents":[2147483647,0,0,1,1,2,2,3,3,4,4,5,5,6,6,7,7,8,8,9,9,10,10,11,11,12,12,13,13,14,14,15,15,16,16,17,17,18,18,19,19,20,20,21,21,22,22,23,23,24,24,25,25,26,26,27,27,28,28,29,29,30,30,31,31,32,32,33,33,34,34,37,37,38,38,39,39,40,40,41,41,42,42,43,43,44,44,45,45,47,47,48,48,49,49,50,50,51,51,52,52,53,53,54,54,55,55,57,57,59,59,60,60,61,61,62,62],"right_children":[2,4,6,8,10,12,14,16,18,20,22,24,26,28,30,32,34,36,38,40,42,44,46,48,50,52,54,56,58,60,62,64,66,68,70,-1,-1,72,74,76,78,80,82,84,86,88,-1,90,92,94,96,98,100,102,104,106,-1,108,-1,110,112,114,116,-1,-1,-1,-1,-1,-1,-1,-1,-1,-1,-1,-1,-1,-1,-1,-1,-1,-1,-1,-1,-1,-1,-1,-1,-1,-1,-1,-1,-1,-1,-1,-1,-1,-1,-1,-1,-1,-1,-1,-1,-1,-1,-1,-1,-1,-1,-1,-1,-1,-1,-1,-1,-1,-1],"split_conditions":[NaN,5.523088E-1,1.3108262E-1,4.8388716E-2,9.077536E-3,2.2337027E0,7.098156E-1,9.367524E-3,4.3461537E0,8.3237004E-1,3.732766E-1,3.0704108E-1,NaN,NaN,4.5878014E-1,1.2809071E-3,2.1641052E-8,1.4E2,7.613808E-1,3.82E2,8.499677E-2,8.094067E-1,2.62E2,8.098475E-1,NaN,9.528679E-2,5.6E1,2.2627975E-1,1.9E1,NaN,6.0712147E0,3.2E1,6.655873E-3,-1.7876092E-2,7.293879E-1,5.260263E-2,2.0516682E-2,4.5382294E-1,3.5E1,1.0815809E0,4.833196E-3,2.35E2,2.35E2,5E2,4E2,8.2E1,1.0823874E-2,NaN,NaN,4.303862E-1,7.4038464E-1,5.44277E-1,1.9710436E-3,7.90137E-3,2.1320988E1,6.5E1,-1.3096297E-1,NaN,-7.2924756E-3,8.296627E-1,1.9928057E0,2.7532238E-1,NaN,-1.34999985E-2,-3.549942E-3,2.0063948E-2,1.1878859E-3,3.7488118E-2,1.02775484E-1,1.0776123E-2,3.9732803E-2,-2.6722485E-3,3.6339918E-3,3.0396441E-2,5.9521636E-3,1.1580663E-1,1.4461519E-2,2.745721E-2,6.1826233E-2,1.5816549E-2,4.1277017E-3,-5.7449453E-3,-1.5701017E-3,3.3804696E-2,7.5422623E-3,1.4486802E-2,1.1789969E-3,-7.9347065E-4,-6.368931E-3,3.419658E-3,-4.4206143E-3,-2.0935418E-2,-5.62378E-3,1.6440071E-2,8.323662E-2,1.3464469E-2,-2.9387027E-3,-4.124867E-2,-1.1548862E-2,-6.1538015E-3,4.0965998E-3,5.032073E-3,-5.4471125E-3,-1.1133544E-2,-2.1323018E-2,-6.494778E-2,-5.131665E-3,8.005078E-4,-3.934123E-3,4.823506E-3,4.0074654E-2,1.4094303E-2,-3.4940077E-3,-6.437857E-3,4.8193424E-3,-5.3507905E-2,-8.266598E-3],"split_indices":[31,20,3,3,3,28,8,3,13,20,24,28,33,33,24,4,5,1,25,1,28,25,1,25,33,14,2,21,1,33,28,1,3,11,10,0,0,28,1,10,3,0,0,0,1,0,0,33,33,6,28,24,4,3,9,0,0,32,0,18,17,19,32,0,0,0,0,0,0,0,0,0,0,0,0,0,0,0,0,0,0,0,0,0,0,0,0,0,0,0,0,0,0,0,0,0,0,0,0,0,0,0,0,0,0,0,0,0,0,0,0,0,0,0,0,0,0],"split_type":[1,0,0,0,0,0,0,0,0,0,0,0,1,1,0,0,0,0,0,0,0,0,0,0,1,0,0,0,0,1,0,0,0,0,0,0,0,0,0,0,0,0,0,0,0,0,0,1,1,0,0,0,0,0,0,0,0,1,0,0,0,0,1,0,0,0,0,0,0,0,0,0,0,0,0,0,0,0,0,0,0,0,0,0,0,0,0,0,0,0,0,0,0,0,0,0,0,0,0,0,0,0,0,0,0,0,0,0,0,0,0,0,0,0,0,0,0],"sum_hessian":[3.92E3,6.74E2,3.246E3,5.86E2,8.8E1,1.573E3,1.673E3,1.1E2,4.76E2,5.9E1,2.9E1,1.408E3,1.65E2,5.3E1,1.62E3,3.2E1,7.8E1,6E0,4.7E2,5E1,9E0,2.1E1,8E0,7.57E2,6.51E2,2.9E1,1.36E2,1.1E1,4.2E1,5.91E2,1.029E3,1.6E1,1.6E1,5E0,7.3E1,4E0,2E0,4.11E2,5.9E1,2.2E1,2.8E1,3E0,6E0,6E0,1.5E1,4E0,4E0,6.42E2,1.15E2,1.36E2,5.15E2,1.9E1,1E1,6.8E1,6.8E1,6E0,5E0,8E0,3.4E1,1.29E2,4.62E2,1.009E3,2E1,4E0,1.2E1,4E0,1.2E1,2E0,3E0,4.3E1,3E1,2.04E2,2.07E2,2.3E1,3.6E1,1.9E1,3E0,1.3E1,1.5E1,2E0,1E0,5E0,1E0,5E0,1E0,1.3E1,2E0,1E0,3E0,1.3E2,5.12E2,2.3E1,9.2E1,1.27E2,9E0,1.98E2,3.17E2,1.4E1,5E0,5E0,5E0,8E0,6E1,6.4E1,4E0,1E0,5E0,2E0,6E0,1.16E2,1.3E1,1.2E1,4.5E2,9.61E2,4.8E1,6E0,1.4E1],"tree_param":{"num_deleted":"0","num_feature":"35","num_nodes":"117","size_leaf_vector":"1"}},{"base_weights":[9.533512E-5,2.8301865E-2,-5.768386E-3,8.526207E-2,8.654915E-3,-1.6349742E-2,-1.3392565E-3,1.09105356E-1,8.295948E-3,1.1256072E-1,6.961565E-3,-1.8495154E-2,-2.4191854E-3,1.0892267E-2,-6.21462E-3,8.2144886E-2,1.8147738E-1,-2.6162762E-2,1.848659E-2,2.2143083E-2,4.5762416E-2,2.3389996E-3,3.6022138E-2,-1.2308296E-2,-2.1847932E-2,5.0166104E-2,-1.6830646E-2,3.7371553E-4,3.4544066E-2,-6.4022176E-2,-4.3917173E-3,3.969672E-2,1.1893179E-1,2.17079E-2,2.0738204E-1,-1.0259999E-2,-1.5104608E-2,-2.846647E-3,4.1331068E-2,-6.0220766E-3,1.0689197E-2,-5.45945E-3,7.304631E-2,5.1078806E-3,-1.6702604E-2,-3.802021E-2,-1.74966E-2,-4.4756178E-2,8.3938114E-2,-1.7778669E-2,-1.2801404E-2,-5.6705303E-3,3.2973327E-2,1.00338444E-1,1.7057141E-2,-2.2121242E-1,-1.9194307E-2,-1.6354294E-2,5.665253E-3,-6.0327384E-3,1.823284E-2,6.337758E-2,1.7811645E-2,-4.148367E-3,2.990803E-2,7.882884E-2,3.4424562E-2,-1.243426E-3,-4.940289E-3,3.3965032E-3,-9.921072E-3,1.5324907E-3,1.7199472E-2,-4.871266E-3,1.573098E-3,1.2826244E-2,-1.1403033E-3,2.2894843E-2,-5.81113E-3,3.0397547E-2,-6.914571E-3,-4.8524342E-4,2.990018E-2,-5.497419E-3,-3.0513504E-3,-9.994108E-3,-3.990546E-2,-5.343982E-3,-2.6546002E-3,-4.078001E-2,2.4121309E-2,-5.955599E-3,4.117535E-2,-5.3875865E-3,-2.1521114E-3,1.1994716E-3,-4.964581E-3,1.0649798E-3,-5.1732333E-3,3.0245172E-2,3.421163E-3,-9.708272E-3,5.0353162E-2,1.2970247E-2,-6.799353E-4,-1.0021026E-2,-1.1164581E-1,-5.9754443E-3,-2.3100593E-3,-2.7995158E-3,-9.835079E-3,1.4907688E-2,-1.006959E-3],"categories":[0,0,0,0,0,0,0,0],"categories_nodes":[0,12,23,24,28,29,50,52],"categories_segments":[0,1,2,3,4,5,6,7],"categories_sizes":[1,1,1,1,1,1,1,1],"default_left":[1,0,0,0,0,0,0,0,0,0,0,0,1,0,0,0,0,0,0,0,0,0,0,1,1,0,0,0,1,1,0,0,0,0,0,0,0,0,0,0,0,0,0,0,0,0,0,0,0,0,1,0,1,0,0,0,0,0,0,0,0,0,0,0,0,0,0,0,0,0,0,0,0,0,0,0,0,0,0,0,0,0,0,0,0,0,0,0,0,0,0,0,0,0,0,0,0,0,0,0,0,0,0,0,0,0,0,0,0,0,0,0,0],"id":1,"left_children":[1,3,5,7,9,11,13,15,17,19,21,23,25,27,29,31,33,35,37,-1,-1,39,41,43,45,47,49,51,53,55,57,59,61,63,65,-1,67,69,71,73,75,77,79,81,83,85,87,89,91,93,95,97,99,101,103,105,107,109,111,-1,-1,-1,-1,-1,-1,-1,-1,-1,-1,-1,-1,-1,-1,-1,-1,-1,-1,-1,-1,-1,-1,-1,-1,-1,-1,-1,-1,-1,-1,-1,-1,-1,-1,-1,-1,-1,-1,-1,-1,-1,-1,-1,-1,-1,-1,-1,-1,-1,-1,-1,-1,-1,-1],"loss_changes":[6.4867795E-1,7.5465065E-1,1.5215266E-1,3.165717E-1,8.771868E-2,2.8586775E-2,1.3662755E-1,2.4264884E-1,1.5232226E-2,1.1350214E-3,6.65456E-2,1.6947895E-2,9.86045E-2,1.6244218E-1,1.7232728E-1,1.4830935E-1,1.4035535E-1,3.721919E-4,1.6200095E-2,0E0,0E0,3.0015709E-2,1.0483465E-1,2.2585731E-2,3.712398E-2,9.351678E-2,1.6202778E-4,8.944612E-2,2.2954732E-1,3.4807912E-1,1.912609E-1,6.0473725E-2,2.7340263E-1,1.8006213E-2,1.2375164E-1,0E0,2.137688E-5,8.082329E-3,8.980455E-3,2.482839E-2,1.000575E-1,3.901838E-2,1.0016368E-1,3.831796E-2,2.3034066E-3,4.609205E-2,1.0062456E-3,1.02223925E-1,1.1892544E-1,2.3839995E-5,1.5140525E-3,4.093258E-2,1.0274855E-1,3.8166445E-1,8.103141E-2,2.9939622E-1,1.7942302E-4,8.345707E-2,3.4334964E-1,0E0,0E0,0E0,0E0,0E0,0E0,0E0,0E0,0E0,0E0,0E0,0E0,0E0,0E0,0E0,0E0,0E0,0E0,0E0,0E0,0E0,0E0,0E0,0E0,0E0,0E0,0E0,0E0,0E0,0E0,0E0,0E0,0E0,0E0,0E0,0E0,0E0,0E0,0E0,0E0,0E0,0E0,0E0,0E0,0E0,0E0,0E0,0E0,0E0,0E0,0E0,0E0,0E0,0E0],"parents":[2147483647,0,0,1,1,2,2,3,3,4,4,5,5,6,6,7,7,8,8,9,9,10,10,11,11,12,12,13,13,14,14,15,15,16,16,17,17,18,18,21,21,22,22,23,23,24,24,25,25,26,26,27,27,28,28,29,29,30,30,31,31,32,32,33,33,34,34,36,36,37,37,38,38,39,39,40,40,41,41,42,42,43,43,44,44,45,45,46,46,47,47,48,48,49,49,50,50,51,51,52,52,53,53,54,54,55,55,56,56,57,57,58,58],"right_children":[2,4,6,8,10,12,14,16,18,20,22,24,26,28,30,32,34,36,38,-1,-1,40,42,44,46,48,50,52,54,56,58,60,62,64,66,-1,68,70,72,74,76,78,80,82,84,86,88,90,92,94,96,98,100,102,104,106,108,110,112,-1,-1,-1,-1,-1,-1,-1,-1,-1,-1,-1,-1,-1,-1,-1,-1,-1,-1,-1,-1,-1,-1,-1,-1,-1,-1,-1,-1,-1,-1,-1,-1,-1,-1,-1,-1,-1,-1,-1,-1,-1,-1,-1,-1,-1,-1,-1,-1,-1,-1,-1,-1,-1,-1],"split_conditions":[NaN,4.198527E-2,1.7170374E-1,5E2,2.4E1,1.35E2,9.6E1,8.956065E-1,7.8651606E-4,2.0776398E0,7.613808E-1,1.060145E-1,NaN,9.26957E-2,7.779612E-1,3.7409326E-1,3.6996737E-2,5.77E2,4.5382294E-1,2.2143083E-2,4.5762416E-2,4.5382294E-1,-1.2945934E-1,NaN,NaN,3.1310087E-1,8.9271456E-1,2.1166666E1,NaN,NaN,6.7E1,4.2509642E-1,3.46E2,2.88E2,3.2006698E0,-1.0259999E-2,3.91E2,2.3071854E-1,1.8820198E-2,-1.2557581E-1,1.012545E0,1.3605743E-2,5.3178E-2,5.9971362E-2,8.9344844E-2,8.023649E-1,8.023649E-1,8.155429E0,-6.986765E-3,2.3632297E-1,NaN,7.084282E-1,NaN,2.3E1,4E1,-7.5675678E-3,1.5E3,6.2648535E-2,3.12E2,-6.0327384E-3,1.823284E-2,6.337758E-2,1.7811645E-2,-4.148367E-3,2.990803E-2,7.882884E-2,3.4424562E-2,-1.243426E-3,-4.940289E-3,3.3965032E-3,-9.921072E-3,1.5324907E-3,1.7199472E-2,-4.871266E-3,1.573098E-3,1.2826244E-2,-1.1403033E-3,2.2894843E-2,-5.81113E-3,3.0397547E-2,-6.914571E-3,-4.8524342E-4,2.990018E-2,-5.497419E-3,-3.0513504E-3,-9.994108E-3,-3.990546E-2,-5.343982E-3,-2.6546002E-3,-4.078001E-2,2.4121309E-2,-5.955599E-3,4.117535E-2,-5.3875865E-3,-2.1521114E-3,1.1994716E-3,-4.964581E-3,1.0649798E-3,-5.1732333E-3,3.0245172E-2,3.421163E-3,-9.708272E-3,5.0353162E-2,1.2970247E-2,-6.799353E-4,-1.0021026E-2,-1.1164581E-1,-5.9754443E-3,-2.3100593E-3,-2.7995158E-3,-9.835079E-3,1.4907688E-2,-1.006959E-3],"split_indices":[31,3,28,0,0,2,1,10,4,9,25,3,33,26,8,28,28,0,28,0,0,28,19,33,33,24,12,2,33,33,2,16,1,0,16,0,1,7,5,7,28,26,26,11,28,25,25,8,20,7,32,28,33,1,1,19,0,14,1,0,0,0,0,0,0,0,0,0,0,0,0,0,0,0,0,0,0,0,0,0,0,0,0,0,0,0,0,0,0,0,0,0,0,0,0,0,0,0,0,0,0,0,0,0,0,0,0,0,0,0,0,0,0],"split_type":[1,0,0,0,0,0,0,0,0,0,0,0,1,0,0,0,0,0,0,0,0,0,0,1,1,0,0,0,1,1,0,0,0,0,0,0,0,0,0,0,0,0,0,0,0,0,0,0,0,0,1,0,1,0,0,0,0,0,0,0,0,0,0,0,0,0,0,0,0,0,0,0,0,0,0,0,0,0,0,0,0,0,0,0,0,0,0,0,0,0,0,0,0,0,0,0,0,0,0,0,0,0,0,0,0,0,0,0,0,0,0,0,0],"sum_hessian":[3.92E3,6.74E2,3.246E3,1.72E2,5.02E2,9.57E2,2.289E3,1.31E2,4.1E1,7E0,4.95E2,8.29E2,1.28E2,6.52E2,1.637E3,9.7E1,3.4E1,9E0,3.2E1,5E0,2E0,4.28E2,6.7E1,2.93E2,5.36E2,2.7E1,1.01E2,4.52E2,2E2,4.9E1,1.588E3,4.6E1,5.1E1,5E0,2.9E1,4E0,5E0,1.7E1,1.5E1,2.14E2,2.14E2,3.2E1,3.5E1,5.9E1,2.34E2,1.12E2,4.24E2,7E0,2E1,7.9E1,2.2E1,3.82E2,7E1,4.1E1,1.59E2,1E1,3.9E1,7.25E2,8.63E2,1.2E1,3.4E1,1.9E1,3.2E1,4E0,1E0,1.7E1,1.2E1,1E0,4E0,1.2E1,5E0,5E0,1E1,1.12E2,1.02E2,6.6E1,1.48E2,4E0,2.8E1,2.7E1,8E0,5.6E1,3E0,1.86E2,4.8E1,1.08E2,4E0,4.08E2,1.6E1,4E0,3E0,7E0,1.3E1,7.7E1,2E0,4E0,1.8E1,2.13E2,1.69E2,1.6E1,5.4E1,1.4E1,2.7E1,6.7E1,9.2E1,5E0,5E0,3.6E1,3E0,5.09E2,2.16E2,1.46E2,7.17E2],"tree_param":{"num_deleted":"0","num_feature":"35","num_nodes":"113","size_leaf_vector":"1"}},{"base_weights":[1.3535403E-4,2.0322455E-2,-4.0612672E-3,6.1002325E-2,6.290766E-3,1.5206432E-2,-5.806807E-3,7.884251E-2,5.233321E-3,8.128982E-2,4.759832E-3,7.399731E-2,1.02071725E-2,-4.8483573E-3,-3.798108E-2,5.8454372E-2,1.3528943E-1,-1.5646938E-2,1.4802998E-2,9.6054375E-2,-7.7386685E-3,-5.618417E-2,6.3936748E-3,1.3871662E-1,5.0609436E-2,-8.891667E-3,2.0099858E-2,-1.5434388E-2,-2.5221163E-3,-1.7298858E-1,-2.2112846E-3,-2.6463188E-2,7.0611045E-2,1.9488808E-2,1.5458302E-1,-7.797599E-3,-8.909715E-3,-2.8743274E-3,3.2671943E-2,1.6607312E-2,3.992574E-2,-9.223883E-2,-1.21032E-2,1.4967873E-2,-1.6896831E-3,5.971107E-3,4.9033184E-2,2.6437275E-2,7.471353E-3,1.3143197E-2,-1.4511027E-2,3.335773E-2,-3.0505725E-3,2.9263757E-2,-1.7092103E-2,-1.0126871E-2,2.5619625E-3,-4.572054E-2,-2.0608512E-1,-1.0338962E-2,1.6858596E-2,9.006673E-3,-1.1838769E-2,6.516512E-2,1.8808488E-2,-6.3710585E-3,2.018803E-2,6.0075384E-2,2.4891607E-2,-3.0360238E-3,2.9753326E-4,8.367189E-3,-4.6360595E-3,4.790075E-3,1.8866586E-2,-3.3299786E-3,-3.1173598E-2,2.7214636E-3,-9.075644E-3,8.2916213E-4,1.1018349E-2,-5.1380615E-5,-3.784277E-2,5.9333197E-3,-1.898789E-3,1.721399E-2,-1.12407375E-2,-3.7316168E-3,-6.744318E-3,-4.126018E-3,1.3381352E-2,8.5736E-3,-2.9438252E-3,-1.4787784E-3,2.034111E-2,1.4452803E-3,-5.4889326E-3,-2.0526396E-2,-2.485299E-3,-4.259816E-3,1.8805612E-3,-1.647225E-2,-1.3459057E-3,-8.20129E-2,-3.6433402E-2,-3.0820828E-4,-3.343149E-3,-4.614479E-3,8.368502E-3],"categories":[0,0,0,0,0,0,0,0],"categories_nodes":[0,11,13,14,25,51,52,60],"categories_segments":[0,1,2,3,4,5,6,7],"categories_sizes":[1,1,1,1,1,1,1,1],"default_left":[1,0,0,0,0,0,0,0,0,0,0,1,0,1,1,0,0,0,0,0,0,0,0,0,0,1,0,0,0,0,0,0,0,0,0,0,0,0,0,0,0,0,0,0,0,0,0,0,0,0,0,1,1,0,0,0,0,0,0,0,1,0,0,0,0,0,0,0,0,0,0,0,0,0,0,0,0,0,0,0,0,0,0,0,0,0,0,0,0,0,0,0,0,0,0,0,0,0,0,0,0,0,0,0,0,0,0,0,0],"id":2,"left_children":[1,3,5,7,9,11,13,15,17,19,21,23,25,27,29,31,33,35,37,39,-1,41,43,45,47,49,51,53,55,57,59,61,63,65,67,-1,69,71,73,-1,-1,75,77,79,81,-1,-1,-1,83,85,87,89,91,93,95,97,99,101,103,105,107,-1,-1,-1,-1,-1,-1,-1,-1,-1,-1,-1,-1,-1,-1,-1,-1,-1,-1,-1,-1,-1,-1,-1,-1,-1,-1,-1,-1,-1,-1,-1,-1,-1,-1,-1,-1,-1,-1,-1,-1,-1,-1,-1,-1,-1,-1,-1,-1],"loss_changes":[3.322603E-1,3.8491112E-1,1.09293155E-1,1.717102E-1,5.736682E-2,7.8600615E-2,9.164968E-2,1.4285284E-1,8.823767E-3,1.8288456E-2,4.9548242E-2,2.476623E-2,4.7413424E-2,7.120311E-2,4.1492784E-1,1.0303545E-1,7.295054E-2,7.4417586E-4,9.570166E-3,6.1961785E-3,0E0,1.9544832E-2,3.3431895E-2,1.1436485E-2,2.685298E-2,1.0839399E-2,5.074446E-2,3.910459E-2,9.177366E-2,6.639606E-2,1.0868875E-2,1.0730329E-2,8.6188525E-2,1.3110353E-2,7.822484E-2,0E0,1.2988097E-4,6.622987E-3,6.5674167E-3,0E0,0E0,5.47662E-3,2.9645287E-3,6.2039167E-2,4.7032185E-2,0E0,0E0,0E0,1.6537034E-3,4.2450637E-2,8.5999165E-4,5.6247517E-2,1.332727E-2,2.5372364E-2,1.3360664E-2,1.01580024E-1,8.8496E-2,1.647749E-3,4.6537697E-2,3.5578664E-4,7.901205E-3,0E0,0E0,0E0,0E0,0E0,0E0,0E0,0E0,0E0,0E0,0E0,0E0,0E0,0E0,0E0,0E0,0E0,0E0,0E0,0E0,0E0,0E0,0E0,0E0,0E0,0E0,0E0,0E0,0E0,0E0,0E0,0E0,0E0,0E0,0E0,0E0,0E0,0E0,0E0,0E0,0E0,0E0,0E0,0E0,0E0,0E0,0E0,0E0],"parents":[2147483647,0,0,1,1,2,2,3,3,4,4,5,5,6,6,7,7,8,8,9,9,10,10,11,11,12,12,13,13,14,14,15,15,16,16,17,17,18,18,19,19,21,21,22,22,23,23,24,24,25,25,26,26,27,27,28,28,29,29,30,30,31,31,32,32,33,33,34,34,36,36,37,37,38,38,41,41,42,42,43,43,44,44,48,48,49,49,50,50,51,51,52,52,53,53,54,54,55,55,56,56,57,57,58,58,59,59,60,60],"right_children":[2,4,6,8,10,12,14,16,18,20,22,24,26,28,30,32,34,36,38,40,-1,42,44,46,48,50,52,54,56,58,60,62,64,66,68,-1,70,72,74,-1,-1,76,78,80,82,-1,-1,-1,84,86,88,90,92,94,96,98,100,102,104,106,108,-1,-1,-1,-1,-1,-1,-1,-1,-1,-1,-1,-1,-1,-1,-1,-1,-1,-1,-1,-1,-1,-1,-1,-1,-1,-1,-1,-1,-1,-1,-1,-1,-1,-1,-1,-1,-1,-1,-1,-1,-1,-1,-1,-1,-1,-1,-1,-1],"split_conditions":[NaN,4.198527E-2,1.144E0,4.7E2,2.2509249E-1,-2.7832275E-3,9.489647E-1,8.956065E-1,5.3754693E-1,1.53E2,3.4266667E0,NaN,1.9701289E-1,NaN,NaN,1.2809071E-3,3.6996737E-2,1.1313211E-3,4.5382294E-1,2.0776398E0,-7.7386685E-3,-2.177809E-1,3.2179546E1,2.54E2,3.12E2,NaN,1.4906847E0,-7.2508687E-1,3.3070865E-1,1.3334139E-1,3.8531345E-1,4.0373832E-2,2.1641052E-8,-2.0443049E-4,3.2006698E0,-7.797599E-3,4.8E2,7.4871793E0,-2.0127105E-7,1.6607312E-2,3.992574E-2,5.12E2,2.73E2,2.179147E1,8.798549E-1,5.971107E-3,4.9033184E-2,2.6437275E-2,3.47E2,2.2257994E-1,1.7170374E-1,NaN,NaN,-7.577745E-1,-5.791969E-1,3.4266667E0,8.246081E-2,1.31E2,1.7149166E-3,-2.0084713E-1,NaN,9.006673E-3,-1.1838769E-2,6.516512E-2,1.8808488E-2,-6.3710585E-3,2.018803E-2,6.0075384E-2,2.4891607E-2,-3.0360238E-3,2.9753326E-4,8.367189E-3,-4.6360595E-3,4.790075E-3,1.8866586E-2,-3.3299786E-3,-3.1173598E-2,2.7214636E-3,-9.075644E-3,8.2916213E-4,1.1018349E-2,-5.1380615E-5,-3.784277E-2,5.9333197E-3,-1.898789E-3,1.721399E-2,-1.12407375E-2,-3.7316168E-3,-6.744318E-3,-4.126018E-3,1.3381352E-2,8.5736E-3,-2.9438252E-3,-1.4787784E-3,2.034111E-2,1.4452803E-3,-5.4889326E-3,-2.0526396E-2,-2.485299E-3,-4.259816E-3,1.8805612E-3,-1.647225E-2,-1.3459057E-3,-8.20129E-2,-3.6433402E-2,-3.0820828E-4,-3.343149E-3,-4.614479E-3,8.368502E-3],"split_indices":[31,3,15,0,21,11,12,10,24,1,9,33,28,30,33,4,28,3,28,9,0,7,15,1,1,33,28,7,12,3,28,28,5,11,16,0,1,15,11,0,0,0,1,15,12,0,0,0,1,5,28,30,33,7,6,9,28,0,19,6,30,0,0,0,0,0,0,0,0,0,0,0,0,0,0,0,0,0,0,0,0,0,0,0,0,0,0,0,0,0,0,0,0,0,0,0,0,0,0,0,0,0,0,0,0,0,0,0,0],"split_type":[1,0,0,0,0,0,0,0,0,0,0,1,0,1,1,0,0,0,0,0,0,0,0,0,0,1,0,0,0,0,0,0,0,0,0,0,0,0,0,0,0,0,0,0,0,0,0,0,0,0,0,1,1,0,0,0,0,0,0,0,1,0,0,0,0,0,0,0,0,0,0,0,0,0,0,0,0,0,0,0,0,0,0,0,0,0,0,0,0,0,0,0,0,0,0,0,0,0,0,0,0,0,0,0,0,0,0,0,0],"sum_hessian":[3.92E3,6.74E2,3.246E3,1.72E2,5.02E2,2.69E2,2.977E3,1.3E2,4.2E1,9E0,4.93E2,2E1,2.49E2,2.892E3,8.5E1,9.7E1,3.3E1,1.3E1,2.9E1,8E0,1E0,1.2E1,4.81E2,4E0,1.6E1,8.5E1,1.64E2,5.2E2,2.372E3,1.7E1,6.8E1,1.2E1,8.5E1,5E0,2.8E1,4E0,9E0,1.5E1,1.4E1,5E0,3E0,6E0,6E0,2.33E2,2.48E2,1E0,3E0,8E0,8E0,1.7E1,6.8E1,1.04E2,6E1,1.8E1,5.02E2,9.5E2,1.422E3,4E0,1.3E1,4.8E1,2E1,2E0,1E1,3E0,8.2E1,3E0,2E0,1.6E1,1.2E1,8E0,1E0,4E0,1.1E1,1E1,4E0,1E0,5E0,3E0,3E0,1.5E2,8.3E1,2.46E2,2E0,4E0,4E0,9E0,8E0,5.6E1,1.2E1,2E1,8.4E1,1E1,5E1,1E1,8E0,2.6E1,4.76E2,2.8E1,9.22E2,2.57E2,1.165E3,3E0,1E0,6E0,7E0,4E0,4.4E1,5E0,1.5E1],"tree_param":{"num_deleted":"0","num_feature":"35","num_nodes":"109","size_leaf_vector":"1"}},{"base_weights":[1.2733933E-4,1.0209711E-2,-4.2010723E-3,4.205691E-2,4.0041674E-3,2.4298538E-2,-5.2211713E-3,1.0137477E-1,3.495625E-2,1.9457571E-2,-1.8422432E-3,7.703821E-2,1.2641916E-2,-1.4444274E-2,-2.1796466E-3,2.09361E-2,1.9736245E-1,2.3893943E-2,7.362776E-2,5.316871E-2,6.993396E-3,5.144492E-3,-1.9558137E-2,4.1547477E-2,6.8643756E-2,-1.4098942E-3,3.5640202E-2,-4.827495E-2,-6.948366E-3,1.1971099E-2,-4.9829897E-3,1.3100804E-1,-1.4179094E-2,-6.4872056E-3,2.2743876E-1,3.993019E-2,2.2885003E-3,9.770293E-2,5.652073E-3,-3.991644E-2,7.7930674E-2,8.334283E-2,2.5127763E-3,4.1587953E-2,2.4005147E-3,-2.1685861E-2,9.17176E-2,6.8882294E-2,-3.2805402E-3,4.563418E-2,-1.1457198E-2,1.0199217E-1,1.4802536E-2,-1.3914484E-2,-9.880992E-2,-1.1268418E-2,-4.0691053E-3,6.894382E-3,1.5856913E-1,5.9150723E-3,-7.940797E-3,4.6608448E-2,1.2345176E-2,2.2993173E-2,-9.835959E-3,7.4720666E-2,1.1404199E-2,1.53023815E-2,-1.2149788E-2,-1.0976552E-3,1.2198065E-2,2.4370376E-2,6.23583E-2,-3.630642E-3,1.1924244E-2,2.3917992E-2,-4.2549208E-2,2.642717E-3,2.873127E-2,1.8300952E-3,2.9949006E-2,-1.0450375E-3,2.0269435E-2,-5.223205E-3,1.6928812E-2,5.815857E-3,-5.855872E-4,-9.435322E-3,-2.5126704E-3,-5.556944E-3,4.039167E-2,2.346378E-2,-2.2635616E-3,2.0334594E-2,3.0118192E-4,8.707708E-3,-4.9447166E-3,-6.3101887E-3,3.7800655E-2,1.1180881E-2,1.5728943E-3,-2.26199E-2,1.0765884E-3,1.5515536E-2,-3.7731394E-2,4.990815E-3,-3.6036088E-3,1.12130714E-4,-2.8155209E-3,-2.179569E-3,1.0787121E-2,2.1846108E-3,6.4317465E-2,2.9153047E-2,1.380581E-3,-1.6828759E-2,-2.2019097E-3],"categories":[0,0,0,0,0,0,0,0,0,0,0,0,0,0],"categories_nodes":[1,5,13,14,19,25,26,30,40,41,43,44,46,52],"categories_segments":[0,1,2,3,4,5,6,7,8,9,10,11,12,13],"categories_sizes":[1,1,1,1,1,1,1,1,1,1,1,1,1,1],"default_left":[0,1,0,0,0,1,0,0,0,0,0,0,0,1,1,0,0,0,0,1,0,0,0,0,0,1,1,0,0,0,1,0,0,0,0,0,0,0,0,0,1,1,0,1,1,0,1,0,0,0,0,0,1,0,0,0,0,0,0,0,0,0,0,0,0,0,0,0,0,0,0,0,0,0,0,0,0,0,0,0,0,0,0,0,0,0,0,0,0,0,0,0,0,0,0,0,0,0,0,0,0,0,0,0,0,0,0,0,0,0,0,0,0,0,0,0,0],"id":3,"left_children":[1,3,5,7,9,11,13,15,17,19,21,23,25,27,29,31,33,35,37,39,41,43,45,47,-1,49,51,53,55,57,59,61,63,-1,65,67,69,71,73,75,77,79,81,83,85,87,89,91,-1,93,95,97,99,101,103,105,107,109,111,113,115,-1,-1,-1,-1,-1,-1,-1,-1,-1,-1,-1,-1,-1,-1,-1,-1,-1,-1,-1,-1,-1,-1,-1,-1,-1,-1,-1,-1,-1,-1,-1,-1,-1,-1,-1,-1,-1,-1,-1,-1,-1,-1,-1,-1,-1,-1,-1,-1,-1,-1,-1,-1,-1,-1,-1,-1],"loss_changes":[1.711579E-1,2.3263875E-1,7.9901576E-2,7.732594E-2,8.920828E-2,5.7428908E-2,7.43071E-2,1.5029043E-1,7.224947E-2,1.1349737E-1,8.884819E-2,8.206532E-2,2.5580488E-2,1.6627426E-1,7.916043E-2,4.8239954E-2,6.419489E-2,4.702857E-2,6.1635762E-2,1.7137358E-1,6.786704E-2,5.1400185E-2,5.0052084E-2,2.2272274E-2,0E0,2.4156144E-2,3.9968852E-2,2.052573E-1,6.658526E-3,2.4450482E-1,5.3717185E-2,1.7179549E-4,1.9412717E-2,0E0,2.3310155E-2,7.1562044E-2,1.36131635E-2,3.3909917E-2,7.139738E-3,2.0640104E-1,7.067874E-2,1.3399631E-2,7.395804E-2,3.2504916E-2,3.552408E-2,2.5732152E-2,2.1420635E-2,7.721044E-3,0E0,8.828105E-3,9.022651E-3,2.3327343E-2,4.959201E-3,7.775568E-2,2.0131052E-1,4.6611E-3,7.6794093E-3,1.3194646E-1,9.13361E-2,4.221551E-2,3.7507415E-2,0E0,0E0,0E0,0E0,0E0,0E0,0E0,0E0,0E0,0E0,0E0,0E0,0E0,0E0,0E0,0E0,0E0,0E0,0E0,0E0,0E0,0E0,0E0,0E0,0E0,0E0,0E0,0E0,0E0,0E0,0E0,0E0,0E0,0E0,0E0,0E0,0E0,0E0,0E0,0E0,0E0,0E0,0E0,0E0,0E0,0E0,0E0,0E0,0E0,0E0,0E0,0E0,0E0,0E0,0E0,0E0],"parents":[2147483647,0,0,1,1,2,2,3,3,4,4,5,5,6,6,7,7,8,8,9,9,10,10,11,11,12,12,13,13,14,14,15,15,16,16,17,17,18,18,19,19,20,20,21,21,22,22,23,23,25,25,26,26,27,27,28,28,29,29,30,30,31,31,32,32,34,34,35,35,36,36,37,37,38,38,39,39,40,40,41,41,42,42,43,43,44,44,45,45,46,46,47,47,49,49,50,50,51,51,52,52,53,53,54,54,55,55,56,56,57,57,58,58,59,59,60,60],"right_children":[2,4,6,8,10,12,14,16,18,20,22,24,26,28,30,32,34,36,38,40,42,44,46,48,-1,50,52,54,56,58,60,62,64,-1,66,68,70,72,74,76,78,80,82,84,86,88,90,92,-1,94,96,98,100,102,104,106,108,110,112,114,116,-1,-1,-1,-1,-1,-1,-1,-1,-1,-1,-1,-1,-1,-1,-1,-1,-1,-1,-1,-1,-1,-1,-1,-1,-1,-1,-1,-1,-1,-1,-1,-1,-1,-1,-1,-1,-1,-1,-1,-1,-1,-1,-1,-1,-1,-1,-1,-1,-1,-1,-1,-1,-1,-1,-1,-1],"split_conditions":[4.827643E-2,NaN,3.4778864E0,2.1289816E-1,-1.8835878E-1,NaN,2.397582E-1,2.1682559E-1,1.0069376E-1,9.740238E-1,3.46E2,5.5089283E-1,2.0011747E-1,NaN,NaN,2.3804732E-4,1.6E1,2.4978814E-1,1.4906847E0,NaN,2.244898E-1,2.1641052E-8,6.032578E-3,6.0525286E-1,6.8643756E-2,NaN,NaN,1.9423144E-1,3.01E2,4.2606026E-1,NaN,2.1E1,-9.098893E-1,-6.4872056E-3,8.1193894E-1,8.294314E-1,-2.3288588E-1,6.124097E-1,1.8070225E1,8.2E1,NaN,NaN,6.124097E-1,NaN,NaN,1.441129E1,NaN,6.93E3,-3.2805402E-3,2.4E1,-1.2965561E-3,1.05E2,NaN,-1.7414795E-1,1.9928057E0,2.357237E-2,2.69E2,3.879444E-1,6.789836E-2,-1.08784646E-1,-7.6169E-1,4.6608448E-2,1.2345176E-2,2.2993173E-2,-9.835959E-3,7.4720666E-2,1.1404199E-2,1.53023815E-2,-1.2149788E-2,-1.0976552E-3,1.2198065E-2,2.4370376E-2,6.23583E-2,-3.630642E-3,1.1924244E-2,2.3917992E-2,-4.2549208E-2,2.642717E-3,2.873127E-2,1.8300952E-3,2.9949006E-2,-1.0450375E-3,2.0269435E-2,-5.223205E-3,1.6928812E-2,5.815857E-3,-5.855872E-4,-9.435322E-3,-2.5126704E-3,-5.556944E-3,4.039167E-2,2.346378E-2,-2.2635616E-3,2.0334594E-2,3.0118192E-4,8.707708E-3,-4.9447166E-3,-6.3101887E-3,3.7800655E-2,1.1180881E-2,1.5728943E-3,-2.26199E-2,1.0765884E-3,1.5515536E-2,-3.7731394E-2,4.990815E-3,-3.6036088E-3,1.12130714E-4,-2.8155209E-3,-2.179569E-3,1.0787121E-2,2.1846108E-3,6.4317465E-2,2.9153047E-2,1.380581E-3,-1.6828759E-2,-2.2019097E-3],"split_indices":[3,31,22,24,19,32,16,28,14,21,1,20,3,33,33,5,1,5,28,32,24,5,4,18,0,31,33,18,0,6,31,1,7,0,25,25,6,20,9,0,30,29,20,30,33,17,33,1,0,0,6,1,31,11,17,4,1,27,18,11,19,0,0,0,0,0,0,0,0,0,0,0,0,0,0,0,0,0,0,0,0,0,0,0,0,0,0,0,0,0,0,0,0,0,0,0,0,0,0,0,0,0,0,0,0,0,0,0,0,0,0,0,0,0,0,0,0],"split_type":[0,1,0,0,0,1,0,0,0,0,0,0,0,1,1,0,0,0,0,1,0,0,0,0,0,1,1,0,0,0,1,0,0,0,0,0,0,0,0,0,1,1,0,1,1,0,1,0,0,0,0,0,1,0,0,0,0,0,0,0,0,0,0,0,0,0,0,0,0,0,0,0,0,0,0,0,0,0,0,0,0,0,0,0,0,0,0,0,0,0,0,0,0,0,0,0,0,0,0,0,0,0,0,0,0,0,0,0,0,0,0,0,0,0,0,0,0],"sum_hessian":[3.92E3,1.177E3,2.743E3,1.91E2,9.86E2,9.4E1,2.649E3,1.9E1,1.72E2,2.7E2,7.16E2,1.6E1,7.8E1,6.56E2,1.993E3,1.1E1,8E0,1.35E2,3.7E1,7.2E1,1.98E2,5.14E2,2.02E2,1.4E1,2E0,4.9E1,2.9E1,1.18E2,5.38E2,3.29E2,1.664E3,2E0,9E0,1E0,7E0,7.7E1,5.8E1,2.7E1,1E1,1.5E1,5.7E1,1E1,1.88E2,3.5E1,4.79E2,1.99E2,3E0,9E0,5E0,8E0,4.1E1,6E0,2.3E1,7.1E1,4.7E1,2.14E2,3.24E2,3.19E2,1E1,3.55E2,1.309E3,1E0,1E0,1E0,8E0,6E0,1E0,6.8E1,9E0,5.1E1,7E0,2.5E1,2E0,7E0,3E0,7E0,8E0,1.2E1,4.5E1,2E0,8E0,1.73E2,1.5E1,7E0,2.8E1,9.7E1,3.82E2,1.14E2,8.5E1,1E0,2E0,8E0,1E0,5E0,3E0,4E0,3.7E1,1E0,5E0,6E0,1.7E1,1.5E1,5.6E1,7E0,4E1,5E0,2.09E2,1.77E2,1.47E2,2.15E2,1.04E2,3E0,7E0,4E0,3.51E2,1.5E1,1.294E3],"tree_param":{"num_deleted":"0","num_feature":"35","num_nodes":"117","size_leaf_vector":"1"}},{"base_weights":[2.3229884E-4,7.1374294E-3,-3.0323619E-3,2.9769305E-2,2.7073498E-3,-4.4648964E-3,1.0057172E-2,7.854976E-2,2.439295E-2,-2.0068628E-3,1.8199587E-2,-6.1841602E-3,9.901973E-3,4.26931E-2,3.4842717E-3,2.0664506E-2,1.4700235E-1,1.671974E-2,5.404002E-2,-1.2716966E-2,5.589343E-3,6.4758085E-2,5.9920214E-3,-8.47863E-3,4.4274367E-3,5.5736143E-2,1.7221057E-4,-1.0166412E-1,5.573544E-2,1.8221238E-3,9.2784725E-2,1.1135684E-1,-8.609645E-3,3.922817E-2,5.8305424E-2,1.4589848E-2,5.0111033E-2,-7.092282E-4,7.105562E-2,-4.8693005E-2,-3.5753758E-3,3.383849E-2,-1.1196716E-3,2.1522041E-2,1.1250188E-1,3.6960565E-2,-4.866798E-3,-2.2751981E-2,-5.5617066E-3,2.7363861E-2,5.6789146E-4,8.3555266E-2,-3.7846178E-2,3.7404343E-2,-2.4348998E-3,-2.378858E-3,-5.9927985E-2,1.444589E-1,2.2455003E-2,-9.870589E-3,1.48594035E-2,-2.4591866E-3,3.875335E-2,3.961718E-2,1.0493399E-2,1.9544195E-2,-7.2130365E-3,-5.5141244E-3,1.9367352E-2,3.6411025E-3,3.014131E-2,-3.8845704E-3,6.2660775E-3,-5.82308E-3,2.4672164E-2,-8.474333E-3,-3.7660643E-2,-2.637668E-3,5.3554927E-3,-1.0722124E-3,1.7185543E-2,1.4738458E-2,-1.2046533E-3,3.0912675E-2,-1.618344E-3,4.4479962E-2,1.42814135E-2,5.476658E-4,3.213696E-2,9.5972215E-4,-1.4442231E-2,-1.3764556E-2,1.8213684E-3,-1.4648839E-3,-1.0201765E-2,2.9118804E-2,2.3199562E-3,-2.455425E-3,3.3413223E-3,3.3560682E-2,4.7525874E-4,-2.0656472E-2,1.0089846E-2,3.5041006E-4,1.7221754E-2,3.7755645E-3,-1.916149E-3,-1.9943675E-3,9.2388137E-4,1.9019522E-3,5.2334283E-2,-6.933914E-3,1.6994797E-2,-3.9110812E-3,3.1607994E-3,3.02415E-2,2.8337408E-3],"categories":[0,0,0,0,0,0,0,0,0,0],"categories_nodes":[1,6,10,12,19,22,23,30,49,54],"categories_segments":[0,1,2,3,4,5,6,7,8,9],"categories_sizes":[1,1,1,1,1,1,1,1,1,1],"default_left":[0,1,0,0,0,0,1,0,0,0,1,0,1,0,0,0,0,0,0,1,0,0,1,1,0,0,0,0,0,0,1,0,0,0,0,0,0,0,0,0,0,0,0,0,0,0,0,0,0,1,0,0,0,0,1,0,0,0,0,0,0,0,0,0,0,0,0,0,0,0,0,0,0,0,0,0,0,0,0,0,0,0,0,0,0,0,0,0,0,0,0,0,0,0,0,0,0,0,0,0,0,0,0,0,0,0,0,0,0,0,0,0,0,0,0,0,0],"id":4,"left_children":[1,3,5,7,9,11,13,15,17,19,21,23,25,27,29,31,33,35,37,39,41,43,45,47,49,51,53,55,57,59,61,63,65,67,-1,69,-1,71,73,75,77,79,81,83,85,87,89,91,93,95,97,99,101,103,105,107,-1,109,111,113,115,-1,-1,-1,-1,-1,-1,-1,-1,-1,-1,-1,-1,-1,-1,-1,-1,-1,-1,-1,-1,-1,-1,-1,-1,-1,-1,-1,-1,-1,-1,-1,-1,-1,-1,-1,-1,-1,-1,-1,-1,-1,-1,-1,-1,-1,-1,-1,-1,-1,-1,-1,-1,-1,-1,-1,-1],"loss_changes":[8.841239E-2,1.2614802E-1,4.9979366E-2,5.210972E-2,7.701404E-2,5.9366997E-2,5.626809E-2,7.621017E-2,4.1636765E-2,6.58882E-2,1.3942999E-1,5.2263983E-2,1.1460099E-1,8.850752E-2,3.2485656E-2,3.2818034E-2,3.8303003E-2,4.55868E-2,3.545087E-2,1.1032898E-1,8.9872226E-2,1.0285564E-1,6.609111E-2,7.3316336E-2,3.380069E-2,1.20314285E-1,2.076662E-2,3.848268E-2,1.1781916E-1,3.32264E-2,1.5759103E-2,1.2412667E-4,1.2949875E-2,7.0234244E-3,0E0,3.0167844E-2,0E0,2.9136823E-3,3.094007E-2,1.0328609E-1,3.022619E-2,8.002981E-2,5.607302E-2,6.1994586E-2,4.864642E-2,1.2552784E-1,5.111418E-2,1.9961499E-1,2.8137688E-2,7.450232E-2,3.0435786E-2,8.1054345E-2,2.6696986E-2,1.0079877E-2,1.1953074E-2,9.037995E-5,0E0,4.4456124E-2,4.9612552E-2,7.5680073E-3,4.6971165E-2,0E0,0E0,0E0,0E0,0E0,0E0,0E0,0E0,0E0,0E0,0E0,0E0,0E0,0E0,0E0,0E0,0E0,0E0,0E0,0E0,0E0,0E0,0E0,0E0,0E0,0E0,0E0,0E0,0E0,0E0,0E0,0E0,0E0,0E0,0E0,0E0,0E0,0E0,0E0,0E0,0E0,0E0,0E0,0E0,0E0,0E0,0E0,0E0,0E0,0E0,0E0,0E0,0E0,0E0,0E0,0E0],"parents":[2147483647,0,0,1,1,2,2,3,3,4,4,5,5,6,6,7,7,8,8,9,9,10,10,11,11,12,12,13,13,14,14,15,15,16,16,17,17,18,18,19,19,20,20,21,21,22,22,23,23,24,24,25,25,26,26,27,27,28,28,29,29,30,30,31,31,32,32,33,33,35,35,37,37,38,38,39,39,40,40,41,41,42,42,43,43,44,44,45,45,46,46,47,47,48,48,49,49,50,50,51,51,52,52,53,53,54,54,55,55,57,57,58,58,59,59,60,60],"right_children":[2,4,6,8,10,12,14,16,18,20,22,24,26,28,30,32,34,36,38,40,42,44,46,48,50,52,54,56,58,60,62,64,66,68,-1,70,-1,72,74,76,78,80,82,84,86,88,90,92,94,96,98,100,102,104,106,108,-1,110,112,114,116,-1,-1,-1,-1,-1,-1,-1,-1,-1,-1,-1,-1,-1,-1,-1,-1,-1,-1,-1,-1,-1,-1,-1,-1,-1,-1,-1,-1,-1,-1,-1,-1,-1,-1,-1,-1,-1,-1,-1,-1,-1,-1,-1,-1,-1,-1,-1,-1,-1,-1,-1,-1,-1,-1,-1,-1],"split_conditions":[5.277351E-2,NaN,7.8906584E-1,2.1289816E-1,1.121039E-2,3.1041875E-1,NaN,2.1682559E-1,1.0069376E-1,1.4303763E1,NaN,2.3466435E-1,NaN,-1.9859582E-4,7.712121E-1,2.3804732E-4,-7.2508687E-1,8.575388E-1,1.8070225E1,NaN,-1.8333888E-3,2.2906409E-1,NaN,NaN,3.6943007E-2,6.295389E-1,4.7406462E-1,2.021E3,-2.1328457E-8,2.7243012E-1,NaN,2.1E1,-9.098893E-1,4.6E1,5.8305424E-2,1.2007354E0,5.0111033E-2,3.83E2,3.6996737E-2,4E2,4.7114092E-1,4.1201985E-1,2.4820674E-2,1.7785592E-1,-1.7342707E-2,5.8347327E-1,6.113229E-1,2.468875E1,6.0712147E0,NaN,6.411199E-1,6.1372057E-2,3.56E2,2.0880984E-1,NaN,7E1,-5.9927985E-2,2.0852728E-2,2.7647096E-1,1.8821877E-1,1.59E2,-2.4591866E-3,3.875335E-2,3.961718E-2,1.0493399E-2,1.9544195E-2,-7.2130365E-3,-5.5141244E-3,1.9367352E-2,3.6411025E-3,3.014131E-2,-3.8845704E-3,6.2660775E-3,-5.82308E-3,2.4672164E-2,-8.474333E-3,-3.7660643E-2,-2.637668E-3,5.3554927E-3,-1.0722124E-3,1.7185543E-2,1.4738458E-2,-1.2046533E-3,3.0912675E-2,-1.618344E-3,4.4479962E-2,1.42814135E-2,5.476658E-4,3.213696E-2,9.5972215E-4,-1.4442231E-2,-1.3764556E-2,1.8213684E-3,-1.4648839E-3,-1.0201765E-2,2.9118804E-2,2.3199562E-3,-2.455425E-3,3.3413223E-3,3.3560682E-2,4.7525874E-4,-2.0656472E-2,1.0089846E-2,3.5041006E-4,1.7221754E-2,3.7755645E-3,-1.916149E-3,-1.9943675E-3,9.2388137E-4,1.9019522E-3,5.2334283E-2,-6.933914E-3,1.6994797E-2,-3.9110812E-3,3.1607994E-3,3.02415E-2,2.8337408E-3],"split_indices":[3,31,18,24,4,6,33,28,14,17,33,19,33,11,25,5,7,24,9,33,11,28,29,33,14,5,25,1,11,5,29,1,7,0,0,18,0,1,28,1,5,28,14,25,6,28,28,8,28,32,25,20,1,3,31,0,0,28,12,3,1,0,0,0,0,0,0,0,0,0,0,0,0,0,0,0,0,0,0,0,0,0,0,0,0,0,0,0,0,0,0,0,0,0,0,0,0,0,0,0,0,0,0,0,0,0,0,0,0,0,0,0,0,0,0,0,0],"split_type":[0,1,0,0,0,0,1,0,0,0,1,0,1,0,0,0,0,0,0,1,0,0,1,1,0,0,0,0,0,0,1,0,0,0,0,0,0,0,0,0,0,0,0,0,0,0,0,0,0,1,0,0,0,0,1,0,0,0,0,0,0,0,0,0,0,0,0,0,0,0,0,0,0,0,0,0,0,0,0,0,0,0,0,0,0,0,0,0,0,0,0,0,0,0,0,0,0,0,0,0,0,0,0,0,0,0,0,0,0,0,0,0,0,0,0,0,0],"sum_hessian":[3.92E3,1.258E3,2.662E3,2.05E2,1.053E3,2.4E3,2.62E2,1.9E1,1.86E2,8.08E2,2.45E2,2.144E3,2.56E2,4.3E1,2.19E2,1.1E1,8E0,1.49E2,3.7E1,3.35E2,4.73E2,5E1,1.95E2,1.763E3,3.81E2,4.4E1,2.12E2,3E0,4E1,2.16E2,3E0,2E0,9E0,3E0,5E0,1.48E2,1E0,9E0,2.8E1,6.7E1,2.68E2,9E1,3.83E2,2.7E1,2.3E1,5E1,1.45E2,2.98E2,1.465E3,5.4E1,3.27E2,3.4E1,1E1,1.3E1,1.99E2,2E0,1E0,1E1,3E1,1.14E2,1.02E2,1E0,2E0,1E0,1E0,1E0,8E0,1E0,2E0,1.45E2,3E0,6E0,3E0,3E0,2.5E1,5.4E1,1.3E1,2.16E2,5.2E1,3.5E1,5.5E1,2E1,3.63E2,6E0,2.1E1,1.4E1,9E0,3.4E1,1.6E1,1.23E2,2.2E1,1.65E2,1.33E2,1.432E3,3.3E1,1.1E1,4.3E1,1.79E2,1.48E2,2.5E1,9E0,7E0,3E0,5E0,8E0,4.1E1,1.58E2,1E0,1E0,2E0,8E0,1.3E1,1.7E1,9.9E1,1.5E1,5E0,9.7E1],"tree_param":{"num_deleted":"0","num_feature":"35","num_nodes":"117","size_leaf_vector":"1"}},{"base_weights":[2.7909645E-4,8.543062E-3,-1.4389374E-3,1.9740788E-2,6.0390384E-4,-4.585788E-3,2.0050632E-3,1.7008828E-2,7.454269E-2,4.949146E-2,-6.60901E-4,-6.089421E-3,5.38033E-3,2.0953773E-2,-1.2763123E-3,-5.734112E-3,2.3317516E-2,1.272109E-1,1.1225515E-2,1.5772345E-2,2.8838115E-2,-3.1058788E-2,1.434438E-3,-3.3244394E-2,-5.5026435E-3,4.3410175E-2,-5.022016E-3,4.284657E-2,5.667913E-3,1.0385678E-2,-4.152174E-3,-1.9900199E-2,1.3011314E-2,1.8146174E-2,8.096005E-2,4.5988128E-2,1.2400749E-2,-1.7522168E-3,2.5485374E-2,8.777466E-3,-1.196156E-2,-1.6249083E-2,-6.0498275E-2,-4.770681E-3,1.0079509E-2,-1.4324404E-1,-1.1147156E-3,-5.8444357E-3,7.7444576E-2,-1.2284763E-2,7.723663E-2,3.2653954E-2,-6.0880496E-3,8.698025E-3,5.195837E-2,3.395506E-2,-4.855011E-3,-4.958895E-3,4.0782433E-2,8.59857E-3,-6.816548E-3,-9.807529E-3,-1.5556781E-3,9.39145E-3,-2.307081E-3,1.6510572E-2,3.8587928E-3,3.031676E-2,-2.8845936E-3,-2.811742E-3,1.2068645E-2,4.3489228E-4,-5.817594E-3,-5.457499E-4,-6.9937333E-3,-2.1489255E-2,2.6144604E-3,-3.0257355E-2,-1.0125869E-3,6.441508E-3,-1.527054E-3,6.5803733E-3,-5.2328877E-2,-2.813894E-3,2.170789E-3,-1.002667E-2,-1.5821692E-3,6.822152E-2,5.9143954E-4,-5.0938785E-2,1.76969E-3,2.9138116E-2,-5.5538737E-3,2.29388E-2,7.75833E-4,-2.6849918E-3,1.3787976E-3,-7.880344E-3,1.286194E-2,1.37604E-2,2.7254388E-2,2.455515E-2,5.3760293E-3,-1.2538554E-2,2.016558E-3,-3.4515397E-3,2.8105637E-2,2.1784212E-2,3.4408385E-3,3.8210448E-4,1.9617904E-2,4.39963E-3,-2.40613E-3],"categories":[0,0,0,0,0,0,0,0],"categories_nodes":[0,12,14,23,48,51,55,56],"categories_segments":[0,1,2,3,4,5,6,7],"categories_sizes":[1,1,1,1,1,1,1,1],"default_left":[1,0,0,0,0,0,0,0,0,0,0,0,1,0,1,0,0,0,0,0,0,0,0,1,0,0,0,0,0,0,0,0,0,0,0,0,0,0,0,0,0,0,0,0,0,0,0,0,1,0,0,1,0,0,0,1,1,0,0,0,0,0,0,0,0,0,0,0,0,0,0,0,0,0,0,0,0,0,0,0,0,0,0,0,0,0,0,0,0,0,0,0,0,0,0,0,0,0,0,0,0,0,0,0,0,0,0,0,0,0,0,0,0],"id":5,"left_children":[1,3,5,7,9,11,13,15,17,19,21,23,25,27,29,31,33,35,37,39,-1,41,43,45,47,49,51,53,55,57,59,61,63,65,67,-1,-1,-1,69,-1,71,73,75,77,79,81,83,85,87,89,91,93,95,97,99,101,103,105,107,109,111,-1,-1,-1,-1,-1,-1,-1,-1,-1,-1,-1,-1,-1,-1,-1,-1,-1,-1,-1,-1,-1,-1,-1,-1,-1,-1,-1,-1,-1,-1,-1,-1,-1,-1,-1,-1,-1,-1,-1,-1,-1,-1,-1,-1,-1,-1,-1,-1,-1,-1,-1,-1],"loss_changes":[5.5681758E-2,5.999593E-2,3.5199385E-2,4.0652767E-2,2.4518663E-2,2.5462955E-2,9.646456E-2,3.858584E-2,4.192441E-2,1.4208961E-2,2.4694083E-2,2.3319613E-2,8.8436715E-2,7.639208E-2,4.4414252E-2,1.5926339E-2,6.1129637E-2,9.342551E-3,1.852388E-3,2.968085E-3,0E0,9.916712E-3,1.9520747E-2,1.09402195E-1,4.141939E-2,9.137901E-2,7.2676386E-3,2.8796583E-2,4.064709E-2,1.22405656E-1,3.6137674E-2,6.230049E-3,1.0087067E-2,3.7103586E-2,3.1914845E-2,0E0,0E0,0E0,2.432742E-3,0E0,3.27064E-4,1.7922176E-3,6.788414E-3,2.8084368E-2,2.6377307E-2,3.9884314E-2,1.7933154E-3,2.2480976E-2,6.745958E-2,5.542029E-2,5.893308E-2,6.3884268E-3,5.3003603E-3,2.622037E-2,1.3360038E-2,2.6949294E-2,4.30461E-2,1.1408399E-1,8.1278086E-2,7.646309E-2,2.2850174E-2,0E0,0E0,0E0,0E0,0E0,0E0,0E0,0E0,0E0,0E0,0E0,0E0,0E0,0E0,0E0,0E0,0E0,0E0,0E0,0E0,0E0,0E0,0E0,0E0,0E0,0E0,0E0,0E0,0E0,0E0,0E0,0E0,0E0,0E0,0E0,0E0,0E0,0E0,0E0,0E0,0E0,0E0,0E0,0E0,0E0,0E0,0E0,0E0,0E0,0E0,0E0,0E0],"parents":[2147483647,0,0,1,1,2,2,3,3,4,4,5,5,6,6,7,7,8,8,9,9,10,10,11,11,12,12,13,13,14,14,15,15,16,16,17,17,18,18,19,19,21,21,22,22,23,23,24,24,25,25,26,26,27,27,28,28,29,29,30,30,31,31,32,32,33,33,34,34,38,38,40,40,41,41,42,42,43,43,44,44,45,45,46,46,47,47,48,48,49,49,50,50,51,51,52,52,53,53,54,54,55,55,56,56,57,57,58,58,59,59,60,60],"right_children":[2,4,6,8,10,12,14,16,18,20,22,24,26,28,30,32,34,36,38,40,-1,42,44,46,48,50,52,54,56,58,60,62,64,66,68,-1,-1,-1,70,-1,72,74,76,78,80,82,84,86,88,90,92,94,96,98,100,102,104,106,108,110,112,-1,-1,-1,-1,-1,-1,-1,-1,-1,-1,-1,-1,-1,-1,-1,-1,-1,-1,-1,-1,-1,-1,-1,-1,-1,-1,-1,-1,-1,-1,-1,-1,-1,-1,-1,-1,-1,-1,-1,-1,-1,-1,-1,-1,-1,-1,-1,-1,-1,-1,-1,-1],"split_conditions":[NaN,1.0848006E-1,4.6074554E-1,5.6297E-1,2.2509249E-1,7.9482144E-1,6.2146366E-1,1.2021909E-1,1.0815809E0,2.0776398E0,5.5E0,7.098156E-1,NaN,1.0051541E-1,NaN,1.989614E-1,7.535256E-1,2.333342E-2,2.841194E-2,2.0011747E-1,2.8838115E-2,5.12E2,5.186979E-1,NaN,1.4755434E0,7.5236514E-2,3.1113413E-1,1.2470533E-3,-9.250555E-2,9.825E1,8.2570803E-1,2.2906409E-1,4.5999357E-1,2.8049935E-2,1.64E2,4.5988128E-2,1.2400749E-2,-1.7522168E-3,1.0285714E1,8.777466E-3,2.4E1,-7.5675678E-3,2.5393197E-2,1.9E1,6.530864E-1,1.3334139E-1,6.195497E-1,-8.5688573E-1,NaN,3.1310087E-1,7.140351E-1,NaN,2.3422249E-1,1.2797615E1,2.62E2,NaN,NaN,5.6297E-1,8.41E2,5.5089283E-1,1.1404871E-2,-9.807529E-3,-1.5556781E-3,9.39145E-3,-2.307081E-3,1.6510572E-2,3.8587928E-3,3.031676E-2,-2.8845936E-3,-2.811742E-3,1.2068645E-2,4.3489228E-4,-5.817594E-3,-5.457499E-4,-6.9937333E-3,-2.1489255E-2,2.6144604E-3,-3.0257355E-2,-1.0125869E-3,6.441508E-3,-1.527054E-3,6.5803733E-3,-5.2328877E-2,-2.813894E-3,2.170789E-3,-1.002667E-2,-1.5821692E-3,6.822152E-2,5.9143954E-4,-5.0938785E-2,1.76969E-3,2.9138116E-2,-5.5538737E-3,2.29388E-2,7.75833E-4,-2.6849918E-3,1.3787976E-3,-7.880344E-3,1.286194E-2,1.37604E-2,2.7254388E-2,2.455515E-2,5.3760293E-3,-1.2538554E-2,2.016558E-3,-3.4515397E-3,2.8105637E-2,2.1784212E-2,3.4408385E-3,3.8210448E-4,1.9617904E-2,4.39963E-3,-2.40613E-3],"split_indices":[31,3,28,6,21,18,28,12,10,9,15,8,33,3,33,5,24,5,28,3,0,0,24,33,26,28,24,4,20,2,28,28,5,26,1,0,0,0,2,0,0,19,6,1,24,3,25,6,33,24,24,32,28,8,1,33,33,6,1,20,14,0,0,0,0,0,0,0,0,0,0,0,0,0,0,0,0,0,0,0,0,0,0,0,0,0,0,0,0,0,0,0,0,0,0,0,0,0,0,0,0,0,0,0,0,0,0,0,0,0,0,0,0],"split_type":[1,0,0,0,0,0,0,0,0,0,0,0,1,0,1,0,0,0,0,0,0,0,0,1,0,0,0,0,0,0,0,0,0,0,0,0,0,0,0,0,0,0,0,0,0,0,0,0,1,0,0,1,0,0,0,1,1,0,0,0,0,0,0,0,0,0,0,0,0,0,0,0,0,0,0,0,0,0,0,0,0,0,0,0,0,0,0,0,0,0,0,0,0,0,0,0,0,0,0,0,0,0,0,0,0,0,0,0,0,0,0,0,0],"sum_hessian":[3.92E3,6.74E2,3.246E3,2.79E2,3.95E2,1.696E3,1.55E3,2.67E2,1.2E1,9E0,3.86E2,1.474E3,2.22E2,2.28E2,1.322E3,5.8E1,2.09E2,6E0,6E0,6E0,3E0,2.4E1,3.62E2,3E1,1.444E3,4.7E1,1.75E2,9.3E1,1.35E2,2.61E2,1.061E3,3.3E1,2.5E1,1.93E2,1.6E1,4E0,2E0,3E0,3E0,4E0,2E0,1.7E1,7E0,2.11E2,1.51E2,6E0,2.4E1,1.439E3,5E0,1.8E1,2.9E1,4E0,1.71E2,2E1,7.3E1,3.6E1,9.9E1,1.74E2,8.7E1,1.83E2,8.78E2,1.7E1,1.6E1,1.3E1,1.2E1,2.3E1,1.7E2,1.3E1,3E0,1E0,2E0,1E0,1E0,6E0,1.1E1,6E0,1E0,2E0,2.09E2,8.6E1,6.5E1,1E0,5E0,1.2E1,1.2E1,2.8E1,1.411E3,1E0,4E0,1E0,1.7E1,2.4E1,5E0,1E0,3E0,1.35E2,3.6E1,1E1,1E1,6.5E1,8E0,8E0,2.8E1,2.3E1,7.6E1,1.64E2,1E1,4.1E1,4.6E1,1.63E2,2E1,4.6E1,8.32E2],"tree_param":{"num_deleted":"0","num_feature":"35","num_nodes":"113","size_leaf_vector":"1"}},{"base_weights":[2.5499353E-4,-7.2228713E-3,1.5763879E-3,1.6467983E-2,-8.523755E-3,-4.147388E-3,4.17424E-3,2.2190888E-3,6.500433E-2,-3.6883855E-3,-1.0848287E-2,-1.8667355E-3,-1.1061668E-2,2.4289265E-3,1.9743102E-2,3.6414277E-2,-6.028294E-3,2.0886257E-2,5.595772E-3,-1.7932144E-3,-5.2092844E-3,-1.2981387E-2,-2.892991E-3,-1.1508985E-2,-4.402238E-4,-2.2775346E-2,-7.7758175E-3,-2.1217844E-2,3.4433512E-3,4.643324E-2,1.2488676E-2,1.5341486E-2,-3.3722625E-3,-2.3563735E-2,4.4225506E-3,-3.8247306E-3,-2.3221858E-4,-6.8578054E-3,-1.2655981E-3,-1.1054428E-2,-2.5445512E-2,2.0105198E-2,-4.6045864E-3,-8.18868E-3,-3.79307E-2,8.642146E-3,-2.751596E-3,-1.58421E-2,-1.0894702E-1,-1.6457932E-2,-4.518823E-3,-7.315684E-2,-5.1572723E-3,2.915284E-3,5.254051E-2,-5.3726183E-3,6.730909E-2,7.953044E-3,4.709912E-2,-2.3648683E-3,-8.24306E-3,-1.4798017E-3,2.5973723E-3,-7.3032035E-4,-1.9207569E-3,-3.103235E-4,3.6436445E-3,-1.477554E-3,-2.947457E-3,-2.8719907E-5,-1.8372241E-3,-3.5977107E-3,2.7752642E-3,-1.0615288E-2,-3.5653415E-3,-2.436093E-3,4.5768855E-4,-3.024559E-3,-9.203869E-4,-3.169562E-2,-3.3427188E-3,8.211348E-4,1.9699492E-2,2.300636E-3,-1.3592341E-3,-2.4195997E-2,-2.223197E-3,-4.7682397E-2,6.1553796E-3,8.694825E-3,-5.891062E-3,-9.900932E-4,-4.3324316E-3,-4.8342023E-2,-3.21905E-4,-6.4529893E-3,4.269335E-4,2.7833678E-2,7.913564E-4,3.3503193E-2,9.617015E-3,-2.0516636E-2,7.1278545E-3,3.6305375E-4,2.605474E-2,1.8724509E-3,2.2327935E-2,2.1172188E-2,2.3873388E-3],"categories":[0,0,0,0,0,0,0,0,0],"categories_nodes":[0,12,14,24,26,27,44,52,54],"categories_segments":[0,1,2,3,4,5,6,7,8],"categories_sizes":[1,1,1,1,1,1,1,1,1],"default_left":[1,0,0,0,0,0,0,0,0,0,0,0,1,0,1,0,0,0,0,0,0,0,0,0,1,0,1,1,0,0,0,0,0,0,0,0,0,0,0,0,0,0,0,0,1,0,0,0,0,0,0,0,1,0,1,0,0,0,0,0,0,0,0,0,0,0,0,0,0,0,0,0,0,0,0,0,0,0,0,0,0,0,0,0,0,0,0,0,0,0,0,0,0,0,0,0,0,0,0,0,0,0,0,0,0,0,0,0,0],"id":6,"left_children":[1,3,5,7,9,11,13,15,17,19,21,23,25,27,29,31,33,-1,-1,35,37,39,41,43,45,47,49,51,53,55,57,-1,-1,59,61,63,65,67,69,71,73,-1,75,77,79,81,83,85,87,89,91,93,95,97,99,101,103,105,107,-1,-1,-1,-1,-1,-1,-1,-1,-1,-1,-1,-1,-1,-1,-1,-1,-1,-1,-1,-1,-1,-1,-1,-1,-1,-1,-1,-1,-1,-1,-1,-1,-1,-1,-1,-1,-1,-1,-1,-1,-1,-1,-1,-1,-1,-1,-1,-1,-1,-1],"loss_changes":[3.8755603E-2,1.8292781E-2,4.957743E-2,2.1295015E-2,6.243132E-3,1.639495E-2,6.2258687E-2,7.2700363E-3,1.9928254E-4,5.181313E-4,6.3599236E-3,1.0778682E-2,9.753171E-3,4.9560037E-2,4.414671E-2,4.083213E-3,3.952676E-3,0E0,0E0,2.6232045E-4,6.4794696E-4,6.852016E-3,1.00009E-2,8.5499445E-3,1.4382811E-2,3.173121E-2,5.665981E-3,7.052715E-2,5.1155575E-2,5.3354695E-2,2.8352803E-2,0E0,0E0,2.742922E-4,5.9742446E-4,1.1343701E-4,4.891701E-4,3.5873894E-4,1.7561053E-4,5.0436407E-3,4.8359074E-3,0E0,1.7365598E-3,8.512661E-4,1.877833E-2,4.662455E-2,1.0157464E-2,2.8364275E-2,2.9151175E-2,8.514051E-3,1.7538725E-3,1.2667045E-1,7.132672E-3,4.8594736E-2,2.1858256E-2,2.9161815E-2,4.5100033E-2,1.8080303E-2,1.8733941E-2,0E0,0E0,0E0,0E0,0E0,0E0,0E0,0E0,0E0,0E0,0E0,0E0,0E0,0E0,0E0,0E0,0E0,0E0,0E0,0E0,0E0,0E0,0E0,0E0,0E0,0E0,0E0,0E0,0E0,0E0,0E0,0E0,0E0,0E0,0E0,0E0,0E0,0E0,0E0,0E0,0E0,0E0,0E0,0E0,0E0,0E0,0E0,0E0,0E0,0E0],"parents":[2147483647,0,0,1,1,2,2,3,3,4,4,5,5,6,6,7,7,8,8,9,9,10,10,11,11,12,12,13,13,14,14,15,15,16,16,19,19,20,20,21,21,22,22,23,23,24,24,25,25,26,26,27,27,28,28,29,29,30,30,33,33,34,34,35,35,36,36,37,37,38,38,39,39,40,40,42,42,43,43,44,44,45,45,46,46,47,47,48,48,49,49,50,50,51,51,52,52,53,53,54,54,55,55,56,56,57,57,58,58],"right_children":[2,4,6,8,10,12,14,16,18,20,22,24,26,28,30,32,34,-1,-1,36,38,40,42,44,46,48,50,52,54,56,58,-1,-1,60,62,64,66,68,70,72,74,-1,76,78,80,82,84,86,88,90,92,94,96,98,100,102,104,106,108,-1,-1,-1,-1,-1,-1,-1,-1,-1,-1,-1,-1,-1,-1,-1,-1,-1,-1,-1,-1,-1,-1,-1,-1,-1,-1,-1,-1,-1,-1,-1,-1,-1,-1,-1,-1,-1,-1,-1,-1,-1,-1,-1,-1,-1,-1,-1,-1,-1,-1],"split_conditions":[NaN,-6.809242E-1,2.0593297E-1,8.11504E-1,1.7170374E-1,7.5247325E-2,3.354091E-1,2.4820674E-2,5.05E1,-3.4503502E-4,5.89E2,1.00666605E-1,NaN,1.0384671E-1,NaN,8.914268E0,3.94E2,2.0886257E-2,5.595772E-3,9.229575E0,1.8084005E-1,1.2541811E-1,-6.5545666E-1,7.876879E-1,NaN,7.9458015E1,NaN,NaN,1.6264878E-1,7.50248E-2,2.4807836E-1,1.5341486E-2,-3.3722625E-3,7.055668E-2,9.057856E-2,8.091566E0,1.3303705E-1,4.8140023E-2,3.412569E-1,7.1614593E-1,6.5425056E-1,2.0105198E-2,6.201646E-2,1.989614E-1,NaN,8.9202935E-1,4.771143E-3,-4.5727976E-2,9.12496E-1,6E1,2.3138134E-1,2.5393197E-2,NaN,1.7648453E-2,NaN,9.005629E0,5.676032E-3,1.6334834E2,4.3598413E-2,-2.3648683E-3,-8.24306E-3,-1.4798017E-3,2.5973723E-3,-7.3032035E-4,-1.9207569E-3,-3.103235E-4,3.6436445E-3,-1.477554E-3,-2.947457E-3,-2.8719907E-5,-1.8372241E-3,-3.5977107E-3,2.7752642E-3,-1.0615288E-2,-3.5653415E-3,-2.436093E-3,4.5768855E-4,-3.024559E-3,-9.203869E-4,-3.169562E-2,-3.3427188E-3,8.211348E-4,1.9699492E-2,2.300636E-3,-1.3592341E-3,-2.4195997E-2,-2.223197E-3,-4.7682397E-2,6.1553796E-3,8.694825E-3,-5.891062E-3,-9.900932E-4,-4.3324316E-3,-4.8342023E-2,-3.21905E-4,-6.4529893E-3,4.269335E-4,2.7833678E-2,7.913564E-4,3.3503193E-2,9.617015E-3,-2.0516636E-2,7.1278545E-3,3.6305375E-4,2.605474E-2,1.8724509E-3,2.2327935E-2,2.1172188E-2,2.3873388E-3],"split_indices":[30,7,28,25,28,4,6,14,2,11,1,12,33,16,33,16,1,0,0,8,3,14,6,18,33,9,31,33,14,12,19,0,0,28,28,8,28,4,11,5,5,0,14,5,33,5,5,11,5,0,19,6,31,10,33,8,5,8,5,0,0,0,0,0,0,0,0,0,0,0,0,0,0,0,0,0,0,0,0,0,0,0,0,0,0,0,0,0,0,0,0,0,0,0,0,0,0,0,0,0,0,0,0,0,0,0,0,0,0],"split_type":[1,0,0,0,0,0,0,0,0,0,0,0,1,0,1,0,0,0,0,0,0,0,0,0,1,0,1,1,0,0,0,0,0,0,0,0,0,0,0,0,0,0,0,0,1,0,0,0,0,0,0,0,1,0,1,0,0,0,0,0,0,0,0,0,0,0,0,0,0,0,0,0,0,0,0,0,0,0,0,0,0,0,0,0,0,0,0,0,0,0,0,0,0,0,0,0,0,0,0,0,0,0,0,0,0,0,0,0,0],"sum_hessian":[3.92E3,5.88E2,3.332E3,3E1,5.58E2,1.04E3,2.292E3,2.4E1,6E0,1.82E2,3.76E2,7.83E2,2.57E2,2.062E3,2.3E2,4E0,2E1,5E0,1E0,8.2E1,1E2,2.96E2,8E1,1E2,6.83E2,5.5E1,2.02E2,8.4E1,1.978E3,4.8E1,1.82E2,3E0,1E0,7E0,1.3E1,3.5E1,4.7E1,7E1,3E1,2.58E2,3.8E1,1E0,7.9E1,9E1,1E1,1.38E2,5.45E2,5.2E1,3E0,5.4E1,1.48E2,1.9E1,6.5E1,1.958E3,2E1,1.4E1,3.4E1,1.62E2,2E1,2E0,5E0,4E0,9E0,2.4E1,1.1E1,4.5E1,2E0,4.4E1,2.6E1,2.5E1,5E0,2.47E2,1.1E1,2.1E1,1.7E1,5E1,2.9E1,6.5E1,2.5E1,2E0,8E0,1.26E2,1.2E1,7.9E1,4.66E2,5E0,4.7E1,2E0,1E0,3E0,5.1E1,1.33E2,1.5E1,8E0,1.1E1,1.8E1,4.7E1,5E0,1.953E3,4E0,1.6E1,4E0,1E1,8E0,2.6E1,1.59E2,3E0,1.2E1,8E0],"tree_param":{"num_deleted":"0","num_feature":"35","num_nodes":"109","size_leaf_vector":"1"}},{"base_weights":[1.8266129E-4,6.320631E-5,6.6966034E-2,5.9485333E-3,-1.2356947E-3,-7.7418284E-3,8.6729065E-2,1.4102464E-2,1.2399729E-4,1.9508433E-2,-1.5836679E-3,-4.3641184E-3,1.098937E-1,9.217569E-3,5.012689E-2,4.8863992E-2,-1.4524801E-3,7.161926E-2,7.2216904E-3,-1.2969637E-2,-9.310944E-4,-2.073151E-3,4.2246714E-2,-4.27379E-2,1.06076505E-2,3.127324E-2,7.962745E-2,3.605699E-2,2.496927E-2,-4.3289256E-3,1.5682455E-2,2.9457767E-2,4.8053045E-2,4.3181915E-2,-4.624902E-3,5.2051403E-2,-1.5649501E-2,9.502991E-3,-1.5840535E-3,-4.161373E-2,-1.0870221E-3,-8.498976E-3,3.7941234E-3,2.107459E-2,6.5743495E-3,4.789099E-2,1.517037E-2,-6.588607E-3,1.1351602E-2,-5.814433E-3,-3.0827103E-4,2.6367272E-3,1.9394986E-2,-6.848509E-3,1.5207361E-2,-1.5076087E-3,3.0610716E-2,-3.2738897E-3,4.216348E-3,5.381324E-2,2.802441E-4,-1.3568219E-2,-2.8604367E-3,-1.111033E-3,6.4803883E-3,-7.7201606E-4,1.6003612E-3],"categories":[0,0,0,0,0,0,0,0,0,0,0,0,0],"categories_nodes":[2,6,9,12,15,18,23,25,26,28,29,35,36],"categories_segments":[0,1,2,3,4,5,6,7,8,9,10,11,12],"categories_sizes":[1,1,1,1,1,1,1,1,1,1,1,1,1],"default_left":[0,0,1,0,0,0,1,0,0,1,0,0,1,0,0,1,0,0,1,0,0,0,0,1,0,1,1,0,1,1,0,0,0,0,0,1,1,0,0,0,0,0,0,0,0,0,0,0,0,0,0,0,0,0,0,0,0,0,0,0,0,0,0,0,0,0,0],"id":7,"left_children":[1,3,5,7,9,-1,11,13,15,17,19,-1,21,23,25,27,29,31,33,35,37,-1,-1,39,41,43,45,-1,47,49,51,53,-1,55,57,59,61,63,65,-1,-1,-1,-1,-1,-1,-1,-1,-1,-1,-1,-1,-1,-1,-1,-1,-1,-1,-1,-1,-1,-1,-1,-1,-1,-1,-1,-1],"loss_changes":[3.127596E-2,2.9935403E-2,1.5072353E-2,3.3623196E-2,2.3187516E-2,0E0,1.5674774E-2,5.1450733E-2,3.1881697E-2,3.3417214E-2,2.3437576E-2,0E0,1.9036155E-2,1.930338E-2,1.6976558E-2,1.9155031E-2,1.9881546E-2,3.2618735E-2,1.894398E-2,3.0610913E-2,2.0358762E-2,0E0,0E0,2.5775356E-2,2.0607922E-2,6.850032E-3,2.2152908E-2,0E0,7.4747684E-3,1.7124416E-2,1.900973E-2,1.003891E-2,0E0,3.1721763E-2,4.1469214E-3,4.539235E-2,2.9410727E-2,2.8200477E-2,1.9254439E-2,0E0,0E0,0E0,0E0,0E0,0E0,0E0,0E0,0E0,0E0,0E0,0E0,0E0,0E0,0E0,0E0,0E0,0E0,0E0,0E0,0E0,0E0,0E0,0E0,0E0,0E0,0E0,0E0],"parents":[2147483647,0,0,1,1,2,2,3,3,4,4,6,6,7,7,8,8,9,9,10,10,12,12,13,13,14,14,15,15,16,16,17,17,18,18,19,19,20,20,23,23,24,24,25,25,26,26,28,28,29,29,30,30,31,31,33,33,34,34,35,35,36,36,37,37,38,38],"right_children":[2,4,6,8,10,-1,12,14,16,18,20,-1,22,24,26,28,30,32,34,36,38,-1,-1,40,42,44,46,-1,48,50,52,54,-1,56,58,60,62,64,66,-1,-1,-1,-1,-1,-1,-1,-1,-1,-1,-1,-1,-1,-1,-1,-1,-1,-1,-1,-1,-1,-1,-1,-1,-1,-1,-1,-1],"split_conditions":[8.575388E-1,4.189189E0,NaN,7.036793E-1,3.4778864E0,-7.7418284E-3,NaN,1.0861889E-1,2.1641052E-8,NaN,5.5E0,-4.3641184E-3,NaN,1.768919E1,8.7368333E-1,NaN,1.9945206E1,5.5089283E-1,NaN,1.9928057E0,2.884058E-1,-2.073151E-3,4.2246714E-2,NaN,1.6142271E-1,NaN,NaN,3.605699E-2,NaN,NaN,6.24E2,1.1417414E-1,4.8053045E-2,1.2360026E0,3.6E2,NaN,NaN,1.8252832E-1,3.354091E-1,-4.161373E-2,-1.0870221E-3,-8.498976E-3,3.7941234E-3,2.107459E-2,6.5743495E-3,4.789099E-2,1.517037E-2,-6.588607E-3,1.1351602E-2,-5.814433E-3,-3.0827103E-4,2.6367272E-3,1.9394986E-2,-6.848509E-3,1.5207361E-2,-1.5076087E-3,3.0610716E-2,-3.2738897E-3,4.216348E-3,5.381324E-2,2.802441E-4,-1.3568219E-2,-2.8604367E-3,-1.111033E-3,6.4803883E-3,-7.7201606E-4,1.6003612E-3],"split_indices":[24,15,30,12,22,0,32,26,5,32,15,0,34,9,10,31,9,20,33,17,25,0,0,33,25,31,33,0,30,33,1,3,0,28,0,33,33,28,6,0,0,0,0,0,0,0,0,0,0,0,0,0,0,0,0,0,0,0,0,0,0,0,0,0,0,0,0],"split_type":[0,0,1,0,0,0,1,0,0,1,0,0,1,0,0,1,0,0,1,0,0,0,0,1,0,1,1,0,1,1,0,0,0,0,0,1,1,0,0,0,0,0,0,0,0,0,0,0,0,0,0,0,0,0,0,0,0,0,0,0,0,0,0,0,0,0,0],"sum_hessian":[3.92E3,3.914E3,6E0,7.07E2,3.207E3,1E0,5E0,2.94E2,4.13E2,5.2E1,3.155E3,1E0,4E0,2.6E2,3.4E1,1.2E1,4.01E2,9E0,4.3E1,1.7E2,2.985E3,1E0,3E0,6E0,2.54E2,2.2E1,1.2E1,2E0,1E1,3.44E2,5.7E1,7E0,2E0,1E1,3.3E1,6E0,1.64E2,1.75E2,2.81E3,1E0,5E0,1.2E1,2.42E2,3E0,1.9E1,2E0,1E1,2E0,8E0,6.1E1,2.83E2,5.1E1,6E0,2E0,5E0,6E0,4E0,2.5E1,8E0,1E0,5E0,2.7E1,1.37E2,8.4E1,9.1E1,2.459E3,3.51E2],"tree_param":{"num_deleted":"0","num_feature":"35","num_nodes":"67","size_leaf_vector":"1"}},{"base_weights":[1.9376974E-4,5.920917E-3,-9.968734E-4,3.2072794E-3,2.3752201E-2,-1.1621652E-2,-4.0244588E-4,1.0704579E-2,-3.3900514E-3,-9.353933E-3,3.91018E-2,-4.520017E-2,-2.7132712E-3,-4.972137E-3,6.055473E-4,4.541615E-2,7.5066704E-3,-2.2394508E-2,9.288881E-4,-2.7628478E-2,2.813055E-2,8.891365E-2,1.783555E-2,-1.8163843E-2,-1.1367823E-1,-4.190669E-3,2.532278E-2,-5.4867757E-3,3.0966468E-2,9.185046E-4,-2.631887E-2,7.991324E-2,1.2732748E-2,1.7308866E-3,2.2581493E-2,-2.5339752E-2,-1.982368E-2,-6.547735E-3,1.3458133E-2,1.8544244E-2,-3.3789016E-2,1.6512476E-2,1.0162642E-3,-1.7293548E-2,1.1083632E-1,-1.019161E-2,2.8664224E-2,5.382815E-4,-1.00560844E-1,3.7378464E-3,-1.4677009E-1,8.914087E-3,-5.587065E-3,-5.0782417E-3,3.5185736E-2,-4.487676E-3,-1.3122882E-2,4.8000924E-3,1.6779847E-2,3.260908E-3,-2.4899507E-3,-5.8990233E-2,-1.3242064E-2,-1.202321E-3,2.9702298E-2,-6.2903115E-3,1.3384271E-2,-1.60218E-3,3.8415454E-3,4.574974E-3,2.5916148E-2,-7.2356313E-3,-1.8568544E-3,-2.88489E-3,1.0851159E-2,3.0704932E-3,1.429004E-2,8.3557535E-3,-1.084283E-5,5.5780937E-4,-1.1508383E-2,3.679911E-3,-4.2967894E-3,1.3487836E-2,4.712352E-2,-1.3406707E-2,1.3879547E-3,1.8155593E-2,4.070462E-3,-3.7469675E-3,1.4981306E-2,-3.7079807E-2,-1.3200616E-2,-5.9461226E-3,-4.8622288E-2,7.589018E-3,4.40887E-4,-2.5384272E-3,-2.0169294E-4,3.7458346E-3,1.3024205E-2,4.868904E-4,-1.7241294E-3,-1.0848723E-2,-2.734254E-3,3.618152E-3,-9.04128E-6,-5.722714E-4,2.8136608E-3,-1.9889954E-3,7.1736705E-4,-2.8555304E-2,2.999891E-4,-7.413612E-3,-1.8725819E-3],"categories":[0,0,0,0,0,0,0,0],"categories_nodes":[0,5,6,26,30,51,54,62],"categories_segments":[0,1,2,3,4,5,6,7],"categories_sizes":[1,1,1,1,1,1,1,1],"default_left":[1,0,0,0,0,1,1,0,0,0,0,0,0,0,0,0,0,0,0,0,0,0,0,0,0,0,1,0,0,0,1,0,0,0,0,0,0,0,0,0,0,0,0,0,0,0,0,0,0,0,0,1,0,0,1,0,0,0,0,0,0,0,1,0,0,0,0,0,0,0,0,0,0,0,0,0,0,0,0,0,0,0,0,0,0,0,0,0,0,0,0,0,0,0,0,0,0,0,0,0,0,0,0,0,0,0,0,0,0,0,0,0,0,0,0],"id":8,"left_children":[1,3,5,7,9,11,13,15,17,19,21,23,25,27,29,31,33,35,37,39,41,43,45,47,49,51,53,55,57,59,61,63,65,67,69,-1,71,73,75,77,79,-1,81,-1,83,85,87,89,91,-1,93,95,97,-1,99,101,103,105,-1,107,109,111,113,-1,-1,-1,-1,-1,-1,-1,-1,-1,-1,-1,-1,-1,-1,-1,-1,-1,-1,-1,-1,-1,-1,-1,-1,-1,-1,-1,-1,-1,-1,-1,-1,-1,-1,-1,-1,-1,-1,-1,-1,-1,-1,-1,-1,-1,-1,-1,-1,-1,-1,-1,-1],"loss_changes":[2.6743155E-2,3.258548E-2,2.0502273E-2,2.907058E-2,4.559252E-2,5.1327754E-2,1.4171735E-2,3.0185282E-2,2.5711559E-2,2.0642549E-2,6.303217E-2,6.458539E-2,5.7807136E-3,1.0453349E-2,2.1266608E-2,2.4914585E-2,2.1989351E-2,7.5809117E-3,2.406929E-2,6.3155685E-3,7.2407983E-3,6.422247E-2,1.3646002E-2,4.1661102E-2,4.357001E-2,2.4470293E-3,3.5125916E-3,4.129555E-3,4.957749E-3,1.9912176E-2,1.1608722E-2,1.8023431E-2,1.4902925E-2,1.4477704E-2,3.142835E-2,0E0,3.1886343E-3,2.1452306E-2,1.0087101E-2,5.1986007E-4,3.0052122E-3,0E0,1.2110719E-3,0E0,4.167837E-2,6.852186E-3,1.4566867E-2,1.5426148E-2,1.0765269E-3,0E0,1.2330502E-2,1.5483027E-3,1.6753974E-3,0E0,5.7860045E-4,3.7572198E-3,5.489001E-3,1.7571081E-4,0E0,4.6753068E-2,2.0547412E-2,1.7465519E-2,1.6121569E-3,0E0,0E0,0E0,0E0,0E0,0E0,0E0,0E0,0E0,0E0,0E0,0E0,0E0,0E0,0E0,0E0,0E0,0E0,0E0,0E0,0E0,0E0,0E0,0E0,0E0,0E0,0E0,0E0,0E0,0E0,0E0,0E0,0E0,0E0,0E0,0E0,0E0,0E0,0E0,0E0,0E0,0E0,0E0,0E0,0E0,0E0,0E0,0E0,0E0,0E0,0E0,0E0],"parents":[2147483647,0,0,1,1,2,2,3,3,4,4,5,5,6,6,7,7,8,8,9,9,10,10,11,11,12,12,13,13,14,14,15,15,16,16,17,17,18,18,19,19,20,20,21,21,22,22,23,23,24,24,25,25,26,26,27,27,28,28,29,29,30,30,31,31,32,32,33,33,34,34,36,36,37,37,38,38,39,39,40,40,42,42,44,44,45,45,46,46,47,47,48,48,50,50,51,51,52,52,54,54,55,55,56,56,57,57,59,59,60,60,61,61,62,62],"right_children":[2,4,6,8,10,12,14,16,18,20,22,24,26,28,30,32,34,36,38,40,42,44,46,48,50,52,54,56,58,60,62,64,66,68,70,-1,72,74,76,78,80,-1,82,-1,84,86,88,90,92,-1,94,96,98,-1,100,102,104,106,-1,108,110,112,114,-1,-1,-1,-1,-1,-1,-1,-1,-1,-1,-1,-1,-1,-1,-1,-1,-1,-1,-1,-1,-1,-1,-1,-1,-1,-1,-1,-1,-1,-1,-1,-1,-1,-1,-1,-1,-1,-1,-1,-1,-1,-1,-1,-1,-1,-1,-1,-1,-1,-1,-1,-1],"split_conditions":[NaN,5.523088E-1,-1.7363419E-1,1.64E2,1.290691E0,NaN,NaN,3E0,-3.5564688E-1,3.5822603E-1,1.5204549E-3,1.2979676E-1,3.4020382E1,8.609929E-1,8.609929E-1,2.35E1,7.608414E-1,1.65E2,4.4616374E-1,1.0732697E0,4.0666666E0,1.1400767E-4,1.7170374E-1,3.0005568E-1,3.4305155E-1,7.7917604E-3,NaN,1.2687933E-1,2.6E1,3.12E2,NaN,1.8E1,1.05E2,4.5382294E-1,1.7736052E0,-2.5339752E-2,3.543883E1,1.6181901E-1,3.568495E-2,3.88E2,5.606005E-2,1.6512476E-2,5.5065127E-3,-1.7293548E-2,-7.3618203E-4,8.593781E-1,1.3061324E0,1.1030762E0,2.0744523E-1,3.7378464E-3,-2.4912524E-1,NaN,8.576484E-2,-5.0782417E-3,NaN,4.189189E0,1.6628198E-3,5.77E2,1.6779847E-2,2.6836234E-1,3.105933E-1,5.77E2,NaN,-1.202321E-3,2.9702298E-2,-6.2903115E-3,1.3384271E-2,-1.60218E-3,3.8415454E-3,4.574974E-3,2.5916148E-2,-7.2356313E-3,-1.8568544E-3,-2.88489E-3,1.0851159E-2,3.0704932E-3,1.429004E-2,8.3557535E-3,-1.084283E-5,5.5780937E-4,-1.1508383E-2,3.679911E-3,-4.2967894E-3,1.3487836E-2,4.712352E-2,-1.3406707E-2,1.3879547E-3,1.8155593E-2,4.070462E-3,-3.7469675E-3,1.4981306E-2,-3.7079807E-2,-1.3200616E-2,-5.9461226E-3,-4.8622288E-2,7.589018E-3,4.40887E-4,-2.5384272E-3,-2.0169294E-4,3.7458346E-3,1.3024205E-2,4.868904E-4,-1.7241294E-3,-1.0848723E-2,-2.734254E-3,3.618152E-3,-9.04128E-6,-5.722714E-4,2.8136608E-3,-1.9889954E-3,7.1736705E-4,-2.8555304E-2,2.999891E-4,-7.413612E-3,-1.8725819E-3],"split_indices":[31,20,11,1,16,33,30,15,7,5,4,5,15,25,25,2,25,1,18,16,15,4,28,3,10,18,30,14,1,1,33,1,1,28,23,0,15,20,7,1,28,0,4,0,11,10,16,28,4,0,6,34,5,0,29,15,4,0,0,28,5,0,29,0,0,0,0,0,0,0,0,0,0,0,0,0,0,0,0,0,0,0,0,0,0,0,0,0,0,0,0,0,0,0,0,0,0,0,0,0,0,0,0,0,0,0,0,0,0,0,0,0,0,0,0],"split_type":[1,0,0,0,0,1,1,0,0,0,0,0,0,0,0,0,0,0,0,0,0,0,0,0,0,0,1,0,0,0,1,0,0,0,0,0,0,0,0,0,0,0,0,0,0,0,0,0,0,0,0,1,0,0,1,0,0,0,0,0,0,0,1,0,0,0,0,0,0,0,0,0,0,0,0,0,0,0,0,0,0,0,0,0,0,0,0,0,0,0,0,0,0,0,0,0,0,0,0,0,0,0,0,0,0,0,0,0,0,0,0,0,0,0,0],"sum_hessian":[3.92E3,6.74E2,3.246E3,5.86E2,8.8E1,1.71E2,3.075E3,2.74E2,3.12E2,2.8E1,6E1,3.5E1,1.36E2,5.55E2,2.52E3,2.2E1,2.52E2,5.7E1,2.55E2,1.9E1,9E0,1.7E1,4.3E1,2.6E1,9E0,1.3E2,6E0,5.48E2,7E0,2.492E3,2.8E1,1E1,1.2E1,1.83E2,6.9E1,1E0,5.6E1,1.6E2,9.5E1,2E0,1.7E1,4E0,5E0,2E0,1.5E1,1.2E1,3.1E1,2.2E1,4E0,2E0,7E0,1.2E1,1.18E2,1E0,5E0,4.86E2,6.2E1,4E0,3E0,1.477E3,1.015E3,7E0,2.1E1,2E0,8E0,6E0,6E0,1.12E2,7.1E1,6.3E1,6E0,4.2E1,1.4E1,1.5E2,1E1,8.8E1,7E0,1E0,1E0,2E0,1.5E1,3E0,2E0,7E0,8E0,3E0,9E0,9E0,2.2E1,1.8E1,4E0,2E0,2E0,1E0,6E0,3E0,9E0,7.4E1,4.4E1,2E0,3E0,8.3E1,4.03E2,8E0,5.4E1,1E0,3E0,8.01E2,6.76E2,5.49E2,4.66E2,4E0,3E0,7E0,1.4E1],"tree_param":{"num_deleted":"0","num_feature":"35","num_nodes":"115","size_leaf_vector":"1"}},{"base_weights":[1.412843E-4,-3.9406284E-3,1.1937912E-3,-4.3989485E-3,4.887081E-2,1.0734074E-3,5.4542452E-2,-1.5052539E-2,-1.9902415E-3,-6.321935E-3,6.404032E-2,2.0775364E-3,-4.5473096E-3,4.7815006E-2,1.0505081E-2,-9.5447406E-2,-1.0351029E-2,-2.208466E-3,1.0174265E-2,-4.1315495E-3,8.235711E-2,8.93104E-3,6.8842096E-4,-1.000889E-2,3.9044162E-3,1.3686936E-2,-5.643151E-3,9.20302E-3,-5.3177174E-2,-1.1486094E-1,-8.0040675E-3,-3.3070452E-3,4.741102E-3,-2.1842273E-3,3.1976033E-2,2.5451507E-3,1.9648619E-2,-4.837365E-3,1.9437568E-3,-2.9261207E-2,-7.392403E-3,4.5109462E-2,-2.7740658E-3,7.752487E-4,-2.5038058E-3,-5.1856626E-2,1.6920031E-4,-2.8501285E-2,-1.6100982E-3,-4.966032E-4,-3.5458861E-3,1.5456588E-2,-1.5459093E-4,1.6288796E-3,-6.5018707E-3,4.348641E-3,2.1167193E-2,-5.708584E-3,-2.4172866E-4,3.3361516E-3,-1.3605323E-4,-1.0697235E-3,-1.5571057E-2,7.049315E-3,-2.6264084E-3,2.6906864E-3,3.3713497E-2,-1.8187335E-3,2.0994968E-3],"categories":[0,0,0,0,0,0,0,0,0,0,0,0],"categories_nodes":[3,4,6,10,11,14,20,23,24,26,37,38],"categories_segments":[0,1,2,3,4,5,6,7,8,9,10,11],"categories_sizes":[1,1,1,1,1,1,1,1,1,1,1,1],"default_left":[0,0,0,1,1,0,1,0,0,0,1,1,0,0,1,0,0,0,0,0,1,0,0,1,1,0,1,0,0,0,0,0,0,0,0,0,0,1,1,0,0,0,0,0,0,0,0,0,0,0,0,0,0,0,0,0,0,0,0,0,0,0,0,0,0,0,0,0,0],"id":9,"left_children":[1,3,5,7,9,11,13,15,17,-1,19,21,23,-1,25,27,29,31,-1,-1,33,35,37,39,41,-1,43,-1,-1,45,47,49,51,-1,-1,53,55,57,59,61,63,65,67,-1,-1,-1,-1,-1,-1,-1,-1,-1,-1,-1,-1,-1,-1,-1,-1,-1,-1,-1,-1,-1,-1,-1,-1,-1,-1],"loss_changes":[1.6850265E-2,1.9675432E-2,1.9966232E-2,2.0447824E-2,8.776633E-3,1.7573344E-2,3.0644085E-2,5.457469E-2,5.1834653E-3,0E0,9.685826E-3,2.5136987E-2,2.1826494E-2,0E0,3.660024E-3,8.798323E-2,3.3419956E-2,4.970568E-3,0E0,0E0,1.1635505E-2,3.040636E-2,1.524937E-2,1.42408665E-2,5.1309947E-2,0E0,1.3275421E-4,0E0,0E0,2.0179518E-2,3.1150896E-2,7.868223E-3,2.191157E-2,0E0,0E0,1.967727E-2,4.2525686E-2,2.3270553E-2,3.9405465E-2,1.9596286E-2,1.089437E-2,6.2201485E-2,5.2162125E-3,0E0,0E0,0E0,0E0,0E0,0E0,0E0,0E0,0E0,0E0,0E0,0E0,0E0,0E0,0E0,0E0,0E0,0E0,0E0,0E0,0E0,0E0,0E0,0E0,0E0,0E0],"parents":[2147483647,0,0,1,1,2,2,3,3,4,4,5,5,6,6,7,7,8,8,10,10,11,11,12,12,14,14,15,15,16,16,17,17,20,20,21,21,22,22,23,23,24,24,26,26,29,29,30,30,31,31,32,32,35,35,36,36,37,37,38,38,39,39,40,40,41,41,42,42],"right_children":[2,4,6,8,10,12,14,16,18,-1,20,22,24,-1,26,28,30,32,-1,-1,34,36,38,40,42,-1,44,-1,-1,46,48,50,52,-1,-1,54,56,58,60,62,64,66,68,-1,-1,-1,-1,-1,-1,-1,-1,-1,-1,-1,-1,-1,-1,-1,-1,-1,-1,-1,-1,-1,-1,-1,-1,-1,-1],"split_conditions":[1.9170226E-1,8.575388E-1,8.858909E1,NaN,NaN,2.1628487E0,NaN,1.66E2,3.9326074E2,-6.321935E-3,NaN,NaN,8.670806E-3,4.7815006E-2,NaN,1.7390874E-1,7.7411506E-19,2.4132094E-1,1.0174265E-2,-4.1315495E-3,NaN,1.290691E0,2.1055251E-1,NaN,NaN,1.3686936E-2,NaN,9.20302E-3,-5.3177174E-2,4.26E2,9.845927E0,1.6059817E-1,-3.897804E-1,-2.1842273E-3,3.1976033E-2,1.1134609E0,6.087963E-1,NaN,NaN,2.019192E1,2.1362522E-1,-1.2050744E-1,4.0999875E0,7.752487E-4,-2.5038058E-3,-5.1856626E-2,1.6920031E-4,-2.8501285E-2,-1.6100982E-3,-4.966032E-4,-3.5458861E-3,1.5456588E-2,-1.5459093E-4,1.6288796E-3,-6.5018707E-3,4.348641E-3,2.1167193E-2,-5.708584E-3,-2.4172866E-4,3.3361516E-3,-1.3605323E-4,-1.0697235E-3,-1.5571057E-2,7.049315E-3,-2.6264084E-3,2.6906864E-3,3.3713497E-2,-1.8187335E-3,2.0994968E-3],"split_indices":[12,24,8,33,30,28,33,0,22,0,32,31,19,0,31,3,5,7,0,0,34,16,16,33,33,0,30,0,0,0,9,6,20,0,0,16,20,33,33,9,24,7,28,0,0,0,0,0,0,0,0,0,0,0,0,0,0,0,0,0,0,0,0,0,0,0,0,0,0],"split_type":[0,0,0,1,1,0,1,0,0,0,1,1,0,0,1,0,0,0,0,0,1,0,0,1,1,0,1,0,0,0,0,0,0,0,0,0,0,1,1,0,0,0,0,0,0,0,0,0,0,0,0,0,0,0,0,0,0,0,0,0,0,0,0,0,0,0,0,0,0],"sum_hessian":[3.92E3,8.03E2,3.117E3,7.97E2,6E0,3.111E3,6E0,1.46E2,6.51E2,1E0,5E0,2.64E3,4.71E2,1E0,5E0,7E0,1.39E2,6.48E2,3E0,1E0,4E0,4.44E2,2.196E3,2.86E2,1.85E2,1E0,4E0,3E0,4E0,2E0,1.37E2,5.6E2,8.8E1,1E0,3E0,2.79E2,1.65E2,4.06E2,1.79E3,3.3E1,2.53E2,2.5E1,1.6E2,1E0,3E0,1E0,1E0,3E0,1.34E2,4.7E2,9E1,8E0,8E1,2.5E2,2.9E1,1.51E2,1.4E1,8.9E1,3.17E2,3.7E2,1.42E3,1.6E1,1.7E1,1E1,2.43E2,1.7E1,8E0,1.2E2,4E1],"tree_param":{"num_deleted":"0","num_feature":"35","num_nodes":"69","size_leaf_vector":"1"}},{"base_weights":[1.032685E-4,-2.4864564E-3,1.3090585E-3,1.0278345E-3,-3.915545E-3,3.893424E-3,-1.3054156E-3,1.9313907E-2,-2.902825E-3,-1.7668081E-3,-7.4107675E-3,-6.3496656E-3,6.110631E-3,1.0511307E-2,-3.5535449E-3,1.5260414E-2,4.1202605E-2,1.0882341E-4,-7.628936E-3,1.9121638E-2,-2.509503E-3,-2.5160316E-2,-3.783952E-3,-1.2113774E-3,-1.0387619E-1,1.5724147E-3,1.2280801E-2,-2.6476572E-3,3.86098E-2,1.0650146E-2,-4.241783E-3,2.8575106E-2,-7.566587E-3,6.3844523E-3,-1.5798549E-3,-9.347899E-3,5.924641E-4,7.271019E-2,4.5293947E-3,-4.1058767E-3,2.3104893E-3,-1.4596719E-3,-5.3362638E-2,-2.0865193E-3,-7.949385E-3,-1.6804544E-2,2.8040951E-2,-5.7186145E-2,-5.378138E-2,1.1872496E-2,-2.2164453E-3,-5.0951773E-3,1.5975699E-2,2.4730112E-2,-1.5894983E-2,8.201275E-2,8.027056E-3,5.0104305E-2,5.386845E-3,-1.0722545E-3,-7.136742E-3,2.6377647E-3,2.2200508E-2,-5.805527E-3,7.145723E-3,-1.9610936E-3,4.9998993E-3,-1.5512771E-3,3.0475543E-4,2.6008785E-3,-3.1299426E-3,3.6979185E-3,-8.6806284E-4,5.497117E-3,2.5419334E-2,1.1624269E-2,-1.9043066E-3,-3.2363276E-3,-7.9674524E-4,5.9636836E-3,-4.051909E-4,-8.581618E-3,1.0645563E-2,-4.0457018E-2,-9.724705E-3,-1.4137678E-3,3.4188043E-4,-6.947995E-3,-1.154679E-3,-1.5986545E-2,2.8516792E-3,4.840479E-3,1.9624904E-2,1.40346745E-2,-2.1659885E-2,1.7484614E-3,9.312779E-3,-4.23399E-3,-2.7523734E-4,-3.46431E-3,6.793947E-3,8.638336E-3,2.8364148E-3,-2.122725E-3,1.704924E-2,3.4819776E-3,-1.0908878E-2,2.9444022E-2,-2.5545808E-2,-7.397886E-3,5.809985E-3,2.542779E-4,1.793584E-2,-4.1103316E-3,3.2748156E-3,-5.3283694E-4,7.212584E-3,-1.1593747E-3,-3.4560144E-3],"categories":[0,0,0,0,0,0,0,0,0,0,0,0,0,0],"categories_nodes":[3,5,6,10,17,19,26,36,38,39,40,44,57,58],"categories_segments":[0,1,2,3,4,5,6,7,8,9,10,11,12,13],"categories_sizes":[1,1,1,1,1,1,1,1,1,1,1,1,1,1],"default_left":[0,0,0,1,0,1,1,0,0,0,1,0,0,0,0,0,0,1,0,1,0,0,0,0,0,0,1,0,0,0,0,0,0,0,0,0,1,0,1,1,1,0,0,0,1,0,0,0,0,0,0,0,0,0,0,0,0,1,1,0,0,0,0,0,0,0,0,0,0,0,0,0,0,0,0,0,0,0,0,0,0,0,0,0,0,0,0,0,0,0,0,0,0,0,0,0,0,0,0,0,0,0,0,0,0,0,0,0,0,0,0,0,0,0,0,0,0,0,0],"id":10,"left_children":[1,3,5,7,9,11,13,15,17,19,21,23,25,27,29,31,-1,33,35,37,39,41,43,45,47,49,51,53,55,57,59,61,63,65,67,69,71,73,75,77,79,81,83,85,87,89,91,-1,93,95,97,99,101,103,105,107,109,111,113,115,117,-1,-1,-1,-1,-1,-1,-1,-1,-1,-1,-1,-1,-1,-1,-1,-1,-1,-1,-1,-1,-1,-1,-1,-1,-1,-1,-1,-1,-1,-1,-1,-1,-1,-1,-1,-1,-1,-1,-1,-1,-1,-1,-1,-1,-1,-1,-1,-1,-1,-1,-1,-1,-1,-1,-1,-1,-1,-1],"loss_changes":[1.22472225E-2,6.261728E-3,1.8086165E-2,2.600342E-2,6.6410443E-3,3.0607872E-2,3.539606E-2,2.8523378E-2,4.2423783E-3,8.580543E-3,2.1598944E-2,1.2014282E-1,3.097843E-2,7.8858346E-2,1.0983984E-2,1.9364085E-2,0E0,1.9494324E-3,1.6448838E-3,1.4528235E-2,4.1029654E-3,3.8021665E-2,1.9702357E-3,1.0492646E-1,4.1893423E-2,2.4963653E-2,3.0192353E-2,5.3344697E-2,8.960362E-2,1.0528369E-2,9.79195E-3,3.5295498E-2,9.33819E-3,5.290354E-3,1.3568501E-3,1.9675726E-3,8.946627E-4,1.0625105E-3,6.2010596E-3,3.8469988E-3,8.581451E-3,3.310772E-2,4.0011898E-2,1.7082267E-3,4.9628583E-3,1.4449115E-1,3.4543887E-2,0E0,2.00475E-2,1.9748658E-2,7.219461E-3,1.5118822E-2,3.2077424E-2,4.9409643E-2,5.614921E-2,8.38747E-2,1.5674328E-2,2.8106933E-3,5.109999E-3,9.0756975E-3,7.958801E-3,0E0,0E0,0E0,0E0,0E0,0E0,0E0,0E0,0E0,0E0,0E0,0E0,0E0,0E0,0E0,0E0,0E0,0E0,0E0,0E0,0E0,0E0,0E0,0E0,0E0,0E0,0E0,0E0,0E0,0E0,0E0,0E0,0E0,0E0,0E0,0E0,0E0,0E0,0E0,0E0,0E0,0E0,0E0,0E0,0E0,0E0,0E0,0E0,0E0,0E0,0E0,0E0,0E0,0E0,0E0,0E0,0E0,0E0],"parents":[2147483647,0,0,1,1,2,2,3,3,4,4,5,5,6,6,7,7,8,8,9,9,10,10,11,11,12,12,13,13,14,14,15,15,17,17,18,18,19,19,20,20,21,21,22,22,23,23,24,24,25,25,26,26,27,27,28,28,29,29,30,30,31,31,32,32,33,33,34,34,35,35,36,36,37,37,38,38,39,39,40,40,41,41,42,42,43,43,44,44,45,45,46,46,48,48,49,49,50,50,51,51,52,52,53,53,54,54,55,55,56,56,57,57,58,58,59,59,60,60],"right_children":[2,4,6,8,10,12,14,16,18,20,22,24,26,28,30,32,-1,34,36,38,40,42,44,46,48,50,52,54,56,58,60,62,64,66,68,70,72,74,76,78,80,82,84,86,88,90,92,-1,94,96,98,100,102,104,106,108,110,112,114,116,118,-1,-1,-1,-1,-1,-1,-1,-1,-1,-1,-1,-1,-1,-1,-1,-1,-1,-1,-1,-1,-1,-1,-1,-1,-1,-1,-1,-1,-1,-1,-1,-1,-1,-1,-1,-1,-1,-1,-1,-1,-1,-1,-1,-1,-1,-1,-1,-1,-1,-1,-1,-1,-1,-1,-1,-1,-1,-1],"split_conditions":[2.0593297E-1,7.740741E0,7.4038464E-1,NaN,4.6114987E-1,NaN,NaN,3.7265804E1,5.44E-2,1.31E2,NaN,9.489647E-1,4.3868098E-1,9.825E1,1.4739812E-3,8.968425E-2,4.1202605E-2,NaN,7.2608274E-1,NaN,2.7208418E-1,4.7674417E-1,4.5666668E1,1.5996169E0,9.032861E-3,5E1,NaN,9.8E0,-1.0385997E-1,2.125E-1,5.4735184E-2,9.077334E-2,2.35E2,-1.8373362E-3,1.0500332E-1,-9.098893E-1,NaN,2.8E1,NaN,NaN,NaN,-1.9859582E-4,5.186979E-1,3.2262612E-2,NaN,4.7083332E1,3.295236E-2,-5.7186145E-2,9.6430415E-3,2.2597656E-1,6.4E1,1.0978636E0,1.0269178E-1,6.4E0,3.0188741E-2,8.122298E-1,-1.4033446E-1,NaN,NaN,5.5089283E-1,3.4790477E-1,2.6377647E-3,2.2200508E-2,-5.805527E-3,7.145723E-3,-1.9610936E-3,4.9998993E-3,-1.5512771E-3,3.0475543E-4,2.6008785E-3,-3.1299426E-3,3.6979185E-3,-8.6806284E-4,5.497117E-3,2.5419334E-2,1.1624269E-2,-1.9043066E-3,-3.2363276E-3,-7.9674524E-4,5.9636836E-3,-4.051909E-4,-8.581618E-3,1.0645563E-2,-4.0457018E-2,-9.724705E-3,-1.4137678E-3,3.4188043E-4,-6.947995E-3,-1.154679E-3,-1.5986545E-2,2.8516792E-3,4.840479E-3,1.9624904E-2,1.40346745E-2,-2.1659885E-2,1.7484614E-3,9.312779E-3,-4.23399E-3,-2.7523734E-4,-3.46431E-3,6.793947E-3,8.638336E-3,2.8364148E-3,-2.122725E-3,1.704924E-2,3.4819776E-3,-1.0908878E-2,2.9444022E-2,-2.5545808E-2,-7.397886E-3,5.809985E-3,2.542779E-4,1.793584E-2,-4.1103316E-3,3.2748156E-3,-5.3283694E-4,7.212584E-3,-1.1593747E-3,-3.4560144E-3],"split_indices":[28,15,28,33,12,33,33,8,14,0,33,12,28,2,4,28,0,31,5,31,12,24,2,23,5,1,30,22,6,24,14,14,0,19,3,7,31,1,33,31,33,11,24,14,31,9,11,0,5,19,1,10,3,22,26,25,7,31,29,20,27,0,0,0,0,0,0,0,0,0,0,0,0,0,0,0,0,0,0,0,0,0,0,0,0,0,0,0,0,0,0,0,0,0,0,0,0,0,0,0,0,0,0,0,0,0,0,0,0,0,0,0,0,0,0,0,0,0,0],"split_type":[0,0,0,1,0,1,1,0,0,0,1,0,0,0,0,0,0,1,0,1,0,0,0,0,0,0,1,0,0,0,0,0,0,0,0,0,1,0,1,1,1,0,0,0,1,0,0,0,0,0,0,0,0,0,0,0,0,1,1,0,0,0,0,0,0,0,0,0,0,0,0,0,0,0,0,0,0,0,0,0,0,0,0,0,0,0,0,0,0,0,0,0,0,0,0,0,0,0,0,0,0,0,0,0,0,0,0,0,0,0,0,0,0,0,0,0,0,0,0],"sum_hessian":[3.92E3,1.245E3,2.675E3,3.6E2,8.85E2,1.345E3,1.33E3,6.3E1,2.97E2,5.49E2,3.36E2,2.39E2,1.106E3,2.12E2,1.118E3,6.2E1,1E0,1.82E2,1.15E2,1.8E1,5.31E2,5.6E1,2.8E2,2.28E2,1.1E1,6.38E2,4.68E2,1.45E2,6.7E1,5.1E1,1.067E3,3.9E1,2.3E1,3.8E1,1.44E2,9.5E1,2E1,3E0,1.5E1,3.99E2,1.32E2,3.1E1,2.5E1,2E2,8E1,1.49E2,7.9E1,3E0,8E0,1.71E2,4.67E2,8.2E1,3.86E2,4.7E1,9.8E1,2.7E1,4E1,5E0,4.6E1,5.1E2,5.57E2,2.8E1,1.1E1,1.7E1,6E0,1.7E1,2.1E1,6E1,8.4E1,5E0,9E1,4E0,1.6E1,1E0,2E0,3E0,1.2E1,7E1,3.29E2,2.2E1,1.1E2,1.8E1,1.3E1,4E0,2.1E1,1.1E2,9E1,1.6E1,6.4E1,6.2E1,8.7E1,6.1E1,1.8E1,1E0,7E0,1.31E2,4E1,4.5E1,4.22E2,6.7E1,1.5E1,1.29E2,2.57E2,2.4E1,2.3E1,4.2E1,5.6E1,2.5E1,2E0,1E1,3E1,1E0,4E0,1E1,3.6E1,4.97E2,1.3E1,3.2E2,2.37E2],"tree_param":{"num_deleted":"0","num_feature":"35","num_nodes":"119","size_leaf_vector":"1"}},{"base_weights":[8.591912E-5,-2.5535203E-3,1.1448703E-3,-9.536941E-3,-9.7432546E-4,1.8725736E-2,6.473046E-4,-9.852687E-2,-8.188128E-3,2.5030648E-2,-1.2307286E-3,9.4867796E-2,1.7770696E-3,5.3251063E-4,4.511129E-2,-4.4600427E-2,2.6333207E-4,3.8386427E-2,-9.482724E-3,-4.4091553E-3,3.40719E-2,-1.4372537E-2,-9.037573E-4,1.5178287E-1,3.3208635E-2,-2.5654477E-3,6.7556195E-2,-9.576883E-3,9.5869956E-4,3.8085368E-2,1.0312766E-2,-5.048773E-2,-6.6569536E-3,6.121858E-4,-2.5963057E-3,6.954452E-3,1.3058398E-2,1.9807115E-3,-1.8116632E-2,4.9988394E-5,-5.522223E-3,1.0878481E-2,4.9497847E-2,-9.044376E-3,2.3175646E-2,-1.9799266E-2,5.109157E-3,-3.2227966E-3,2.9171009E-2,-4.741163E-2,-2.6325467E-3,5.383987E-3,-8.105052E-4,1.1807803E-2,-3.3684173E-3,-1.9311797E-2,-4.6191984E-3,-3.7690445E-3,5.0510843E-3,4.0497705E-3,-9.202668E-4,-4.5511625E-3,5.5415183E-3,-2.893786E-3,-5.954349E-3,6.8806265E-3,-8.890571E-5,-8.8691217E-4,-6.998271E-3,-8.744512E-3,-3.1050195E-3,3.4948841E-3,-6.89248E-4,-3.0392932E-3,-4.0457703E-2,-2.7187313E-3,6.0451576E-3,5.97985E-3,7.255806E-4,-2.5071027E-3,-1.4474598E-5,8.328676E-4,-1.6795904E-3],"categories":[0,0,0,0,0,0,0,0,0,0,0],"categories_nodes":[1,5,9,14,20,21,26,27,30,51,54],"categories_segments":[0,1,2,3,4,5,6,7,8,9,10],"categories_sizes":[1,1,1,1,1,1,1,1,1,1,1],"default_left":[0,1,0,0,0,1,0,0,0,1,0,0,0,0,1,0,0,0,0,0,1,1,0,0,0,0,1,1,0,0,1,0,0,0,0,0,0,0,0,0,0,0,0,0,0,0,0,0,0,0,0,1,0,0,1,0,0,0,0,0,0,0,0,0,0,0,0,0,0,0,0,0,0,0,0,0,0,0,0,0,0,0,0],"id":11,"left_children":[1,3,5,7,9,11,13,15,17,19,21,23,25,27,29,-1,-1,-1,31,33,35,37,39,41,43,45,47,49,51,-1,53,55,57,-1,-1,59,-1,61,63,65,67,-1,-1,-1,-1,69,71,-1,-1,73,75,77,79,-1,81,-1,-1,-1,-1,-1,-1,-1,-1,-1,-1,-1,-1,-1,-1,-1,-1,-1,-1,-1,-1,-1,-1,-1,-1,-1,-1,-1,-1],"loss_changes":[1.0962265E-2,1.2375353E-2,2.4472514E-2,2.4039626E-2,6.145139E-3,9.92004E-2,1.3874707E-2,1.5083304E-2,3.734462E-2,2.5457824E-3,3.8929784E-3,4.409021E-2,1.845472E-2,1.1715408E-2,1.8626144E-2,0E0,0E0,0E0,2.3301527E-2,9.9801924E-5,1.4922628E-3,1.3829023E-3,3.911776E-3,4.69929E-3,2.4652556E-2,8.169184E-3,1.0340378E-2,2.8776284E-2,2.0423021E-2,0E0,2.516928E-3,5.342789E-3,2.6854865E-2,0E0,0E0,2.3818521E-4,0E0,1.6944341E-3,7.250812E-5,5.8483756E-3,6.875283E-3,0E0,0E0,0E0,0E0,1.376803E-3,2.1098081E-3,0E0,0E0,5.4055378E-2,1.3952921E-2,3.209327E-2,1.0722018E-2,0E0,8.40625E-5,0E0,0E0,0E0,0E0,0E0,0E0,0E0,0E0,0E0,0E0,0E0,0E0,0E0,0E0,0E0,0E0,0E0,0E0,0E0,0E0,0E0,0E0,0E0,0E0,0E0,0E0,0E0,0E0],"parents":[2147483647,0,0,1,1,2,2,3,3,4,4,5,5,6,6,7,7,8,8,9,9,10,10,11,11,12,12,13,13,14,14,18,18,19,19,20,20,21,21,22,22,23,23,24,24,25,25,26,26,27,27,28,28,30,30,31,31,32,32,35,35,37,37,38,38,39,39,40,40,45,45,46,46,49,49,50,50,51,51,52,52,54,54],"right_children":[2,4,6,8,10,12,14,16,18,20,22,24,26,28,30,-1,-1,-1,32,34,36,38,40,42,44,46,48,50,52,-1,54,56,58,-1,-1,60,-1,62,64,66,68,-1,-1,-1,-1,70,72,-1,-1,74,76,78,80,-1,82,-1,-1,-1,-1,-1,-1,-1,-1,-1,-1,-1,-1,-1,-1,-1,-1,-1,-1,-1,-1,-1,-1,-1,-1,-1,-1,-1,-1],"split_conditions":[2.7208418E-1,NaN,2.9468E-1,7.7411506E-19,7.7327504E-3,NaN,8.858909E1,4.26E2,3.4851622E-13,NaN,-8.521089E-1,8.799432E-1,7.176975E-1,-8.521089E-1,NaN,-4.4600427E-2,2.6333207E-4,3.8386427E-2,7.809305E-4,1.25E3,NaN,NaN,5.182376E-1,9.9E1,7.5E1,-2.1209657E-1,NaN,NaN,4.8388716E-2,3.8085368E-2,NaN,-2.201911E-2,1.1022289E0,6.121858E-4,-2.5963057E-3,1.25E3,1.3058398E-2,1.5247144E-3,1.5204549E-3,2.884058E-1,6.1659086E-1,1.0878481E-2,4.9497847E-2,-9.044376E-3,2.3175646E-2,1.0785029E-1,2.864395E-1,-3.2227966E-3,2.9171009E-2,4.06E2,4.06E2,NaN,-3.73283E-1,1.1807803E-2,NaN,-1.9311797E-2,-4.6191984E-3,-3.7690445E-3,5.0510843E-3,4.0497705E-3,-9.202668E-4,-4.5511625E-3,5.5415183E-3,-2.893786E-3,-5.954349E-3,6.8806265E-3,-8.890571E-5,-8.8691217E-4,-6.998271E-3,-8.744512E-3,-3.1050195E-3,3.4948841E-3,-6.89248E-4,-3.0392932E-3,-4.0457703E-2,-2.7187313E-3,6.0451576E-3,5.97985E-3,7.255806E-4,-2.5071027E-3,-1.4474598E-5,8.328676E-4,-1.6795904E-3],"split_indices":[12,33,12,5,18,33,8,0,5,29,6,10,25,6,33,0,0,0,4,0,31,31,5,0,1,6,29,33,3,0,31,6,28,0,0,0,0,4,4,25,28,0,0,0,0,3,12,0,0,1,1,33,6,0,30,0,0,0,0,0,0,0,0,0,0,0,0,0,0,0,0,0,0,0,0,0,0,0,0,0,0,0,0],"split_type":[0,1,0,0,0,1,0,0,0,1,0,0,0,0,1,0,0,0,0,0,1,1,0,0,0,0,1,1,0,0,1,0,0,0,0,0,0,0,0,0,0,0,0,0,0,0,0,0,0,0,0,1,0,0,1,0,0,0,0,0,0,0,0,0,0,0,0,0,0,0,0,0,0,0,0,0,0,0,0,0,0,0,0],"sum_hessian":[3.92E3,1.122E3,2.798E3,2.06E2,9.16E2,7.6E1,2.722E3,2E0,2.04E2,8E0,9.08E2,1.3E1,6.3E1,2.716E3,6E0,1E0,1E0,1E0,2.03E2,2E0,6E0,2.1E1,8.87E2,6E0,7E0,6E1,3E0,1.09E2,2.607E3,1E0,5E0,1.2E1,1.91E2,1E0,1E0,2E0,4E0,4E0,1.7E1,7.36E2,1.51E2,1E0,5E0,3E0,4E0,1.8E1,4.2E1,1E0,2E0,1.6E1,9.3E1,7.44E2,1.863E3,1E0,4E0,8E0,4E0,1.53E2,3.8E1,1E0,1E0,2E0,2E0,4E0,1.3E1,1E1,7.26E2,1.33E2,1.8E1,8E0,1E1,2.2E1,2E1,1.2E1,4E0,7.3E1,2E1,1.25E2,6.19E2,1.7E2,1.693E3,1E0,3E0],"tree_param":{"num_deleted":"0","num_feature":"35","num_nodes":"83","size_leaf_vector":"1"}},{"base_weights":[8.0833066E-5,7.4162195E-4,-2.9035185E-3,1.1018214E-3,-7.348561E-3,-1.5243622E-3,-2.150509E-2,2.6888596E-2,8.901626E-4,-2.7246438E-2,-3.0950732E-3,-2.8523454E-4,-1.2919948E-2,-1.219649E-1,1.0715787E-3,-3.3350594E-2,4.766679E-2,-7.7609724E-4,2.7523793E-3,-1.4343464E-2,-8.8175446E-2,-1.2643303E-2,1.845401E-3,2.0287825E-2,-1.6367761E-3,-5.187221E-2,-4.8945886E-3,-5.6915447E-2,-6.99276E-2,-3.7044812E-2,1.1434486E-2,-3.791036E-2,3.2135944E-3,3.8820717E-2,2.425372E-2,2.8891026E-4,-8.887646E-3,1.5990501E-2,8.2598644E-4,-6.549719E-2,1.5454824E-3,-5.2284594E-3,-3.1784542E-2,1.4874175E-3,-1.578088E-2,2.0113038E-2,2.7566552E-4,9.882512E-2,1.89915E-3,-2.057963E-3,3.211149E-2,-7.843134E-2,-4.314986E-3,-8.032737E-4,-2.1186823E-2,-7.3388115E-2,6.288086E-3,-2.4574561E-2,-1.2522531E-2,4.0605724E-2,6.0106697E-3,6.6390173E-3,-1.4987128E-3,1.715367E-2,1.2268947E-3,-1.0558701E-3,4.898414E-4,-1.11106485E-2,-9.1702683E-4,1.6300097E-2,2.3439175E-3,3.7017902E-3,-1.395872E-4,-2.8257836E-2,-4.4907597E-3,-3.8297328E-3,1.5374554E-2,-1.0048481E-4,7.9434825E-4,-7.5124297E-3,-3.4951912E-3,5.203579E-4,7.0325504E-3,3.2538984E-3,-7.5327716E-4,-8.358022E-3,4.6521366E-2,2.2693188E-3,-6.8900324E-3,-3.728804E-3,-2.7594712E-4,-1.3077237E-2,1.55981E-2,-7.2806114E-3,-2.8572796E-2,-6.8843937E-3,1.824077E-3,3.5237845E-3,-1.4173092E-3,-1.863717E-3,-7.1472633E-3,-3.2809235E-2,-8.417727E-3,-4.906793E-3,1.5717209E-3,7.6321303E-4,1.484554E-2,-4.0794713E-3,3.860391E-3],"categories":[0,0,0,0,0,0,0,0,0,0,0,0,0,0,0,0,0,0,0],"categories_nodes":[4,6,12,14,15,16,21,23,32,36,37,44,45,46,50,53,54,59,60],"categories_segments":[0,1,2,3,4,5,6,7,8,9,10,11,12,13,14,15,16,17,18],"categories_sizes":[1,1,1,1,1,1,1,1,1,1,1,1,1,1,1,1,1,1,1],"default_left":[0,0,0,0,1,0,1,0,0,0,0,0,1,0,1,1,1,0,0,0,0,1,0,1,0,0,0,0,0,0,0,0,1,0,0,0,1,1,0,0,0,0,0,0,1,1,1,0,0,0,1,0,0,1,1,0,0,0,0,1,1,0,0,0,0,0,0,0,0,0,0,0,0,0,0,0,0,0,0,0,0,0,0,0,0,0,0,0,0,0,0,0,0,0,0,0,0,0,0,0,0,0,0,0,0,0,0,0,0],"id":12,"left_children":[1,3,5,7,9,11,13,15,17,19,21,23,25,27,29,31,33,35,37,39,41,43,45,47,49,51,53,55,-1,57,59,-1,61,-1,63,65,67,69,71,73,75,-1,-1,77,79,81,83,85,87,89,91,93,95,97,99,101,-1,-1,103,105,107,-1,-1,-1,-1,-1,-1,-1,-1,-1,-1,-1,-1,-1,-1,-1,-1,-1,-1,-1,-1,-1,-1,-1,-1,-1,-1,-1,-1,-1,-1,-1,-1,-1,-1,-1,-1,-1,-1,-1,-1,-1,-1,-1,-1,-1,-1,-1,-1],"loss_changes":[7.7344687E-3,9.3652075E-3,1.8207546E-2,1.6759412E-2,1.1510719E-2,9.3582645E-3,1.1126504E-1,3.288126E-2,9.469197E-3,1.760323E-2,5.4010293E-3,1.6688608E-2,2.0065492E-2,5.179228E-2,1.661845E-2,2.4213806E-2,3.3221453E-2,1.3919771E-2,3.6734924E-2,1.716958E-2,3.183078E-3,1.7525852E-3,2.1737828E-3,5.3247593E-2,8.068749E-3,1.3555434E-2,3.6490976E-3,1.0517983E-2,0E0,8.877134E-3,4.977174E-3,0E0,1.0423013E-3,0E0,1.0388647E-2,7.2991694E-3,3.0578543E-2,5.6954943E-2,1.8723141E-2,5.8396626E-3,1.2746546E-2,0E0,0E0,1.7804427E-5,9.32198E-4,3.2640947E-4,2.1186168E-3,5.419913E-2,4.5407484E-3,6.563439E-3,1.2802327E-2,4.0623955E-3,1.1080019E-3,2.2697905E-3,2.8642174E-4,6.7158826E-3,0E0,0E0,5.623067E-4,1.5639346E-3,4.0744417E-3,0E0,0E0,0E0,0E0,0E0,0E0,0E0,0E0,0E0,0E0,0E0,0E0,0E0,0E0,0E0,0E0,0E0,0E0,0E0,0E0,0E0,0E0,0E0,0E0,0E0,0E0,0E0,0E0,0E0,0E0,0E0,0E0,0E0,0E0,0E0,0E0,0E0,0E0,0E0,0E0,0E0,0E0,0E0,0E0,0E0,0E0,0E0,0E0],"parents":[2147483647,0,0,1,1,2,2,3,3,4,4,5,5,6,6,7,7,8,8,9,9,10,10,11,11,12,12,13,13,14,14,15,15,16,16,17,17,18,18,19,19,20,20,21,21,22,22,23,23,24,24,25,25,26,26,27,27,29,29,30,30,32,32,34,34,35,35,36,36,37,37,38,38,39,39,40,40,43,43,44,44,45,45,46,46,47,47,48,48,49,49,50,50,51,51,52,52,53,53,54,54,55,55,58,58,59,59,60,60],"right_children":[2,4,6,8,10,12,14,16,18,20,22,24,26,28,30,32,34,36,38,40,42,44,46,48,50,52,54,56,-1,58,60,-1,62,-1,64,66,68,70,72,74,76,-1,-1,78,80,82,84,86,88,90,92,94,96,98,100,102,-1,-1,104,106,108,-1,-1,-1,-1,-1,-1,-1,-1,-1,-1,-1,-1,-1,-1,-1,-1,-1,-1,-1,-1,-1,-1,-1,-1,-1,-1,-1,-1,-1,-1,-1,-1,-1,-1,-1,-1,-1,-1,-1,-1,-1,-1,-1,-1,-1,-1,-1,-1],"split_conditions":[9.9353504E-1,2.2310869E2,1.5109618E-1,3.4851622E-13,NaN,1.2970507E0,NaN,4.25E0,4.6074554E-1,1.7650509E0,4.9088478E-1,3.53E1,NaN,1.2711307E-1,NaN,NaN,NaN,8.098475E-1,6.1281544E-1,-6.660996E-1,1.34E2,NaN,7.7327504E-3,NaN,5.0125784E-1,4.727721E-1,1.5117577E-1,9.285714E0,-6.99276E-2,1.9E1,1.6E1,-3.791036E-2,NaN,3.8820717E-2,8E1,2.397582E-1,NaN,NaN,9.077536E-3,3.5622984E-2,8.313835E-3,-5.2284594E-3,-3.1784542E-2,1.6913734E-1,NaN,NaN,NaN,1.21E2,7.2333336E1,-1.3468553E-4,NaN,4.4137735E-2,8.9E1,NaN,NaN,1.5886208E2,6.288086E-3,-2.4574561E-2,5.77E2,NaN,NaN,6.6390173E-3,-1.4987128E-3,1.715367E-2,1.2268947E-3,-1.0558701E-3,4.898414E-4,-1.11106485E-2,-9.1702683E-4,1.6300097E-2,2.3439175E-3,3.7017902E-3,-1.395872E-4,-2.8257836E-2,-4.4907597E-3,-3.8297328E-3,1.5374554E-2,-1.0048481E-4,7.9434825E-4,-7.5124297E-3,-3.4951912E-3,5.203579E-4,7.0325504E-3,3.2538984E-3,-7.5327716E-4,-8.358022E-3,4.6521366E-2,2.2693188E-3,-6.8900324E-3,-3.728804E-3,-2.7594712E-4,-1.3077237E-2,1.55981E-2,-7.2806114E-3,-2.8572796E-2,-6.8843937E-3,1.824077E-3,3.5237845E-3,-1.4173092E-3,-1.863717E-3,-7.1472633E-3,-3.2809235E-2,-8.417727E-3,-4.906793E-3,1.5717209E-3,7.6321303E-4,1.484554E-2,-4.0794713E-3,3.860391E-3],"split_indices":[21,13,27,5,33,23,33,2,28,23,24,17,33,3,31,33,33,25,28,20,1,30,18,33,12,12,3,2,0,1,1,0,29,0,0,16,33,31,3,3,5,0,0,27,31,29,31,1,2,11,33,3,1,29,29,13,0,0,0,30,29,0,0,0,0,0,0,0,0,0,0,0,0,0,0,0,0,0,0,0,0,0,0,0,0,0,0,0,0,0,0,0,0,0,0,0,0,0,0,0,0,0,0,0,0,0,0,0,0],"split_type":[0,0,0,0,1,0,1,0,0,0,0,0,1,0,1,1,1,0,0,0,0,1,0,1,0,0,0,0,0,0,0,0,1,0,0,0,1,1,0,0,0,0,0,0,1,1,1,0,0,0,1,0,0,1,1,0,0,0,0,1,1,0,0,0,0,0,0,0,0,0,0,0,0,0,0,0,0,0,0,0,0,0,0,0,0,0,0,0,0,0,0,0,0,0,0,0,0,0,0,0,0,0,0,0,0,0,0,0,0],"sum_hessian":[3.92E3,3.21E3,7.1E2,3.074E3,1.36E2,6.62E2,4.8E1,2.4E1,3.05E3,2.3E1,1.13E2,5.98E2,6.4E1,8E0,4E1,6E0,1.8E1,1.61E3,1.44E3,2E1,3E0,3.8E1,7.5E1,3.6E1,5.62E2,1E1,5.4E1,6E0,2E0,8E0,3.2E1,1E0,5E0,3E0,1.5E1,1.424E3,1.86E2,1.82E2,1.258E3,4E0,1.6E1,1E0,2E0,7E0,3.1E1,5E0,7E1,6E0,3E1,5.56E2,6E0,6E0,4E0,4.4E1,1E1,5E0,1E0,2E0,6E0,4E0,2.8E1,1E0,4E0,5E0,1E1,3.71E2,1.053E3,3.1E1,1.55E2,3.1E1,1.51E2,1.26E2,1.132E3,2E0,2E0,1.3E1,3E0,3E0,4E0,8E0,2.3E1,1E0,4E0,1.4E1,5.6E1,2E0,4E0,2.5E1,5E0,5.4E1,5.02E2,1E0,5E0,2E0,4E0,1E0,3E0,1E1,3.4E1,2E0,8E0,2E0,3E0,5E0,1E0,1E0,3E0,7E0,2.1E1],"tree_param":{"num_deleted":"0","num_feature":"35","num_nodes":"109","size_leaf_vector":"1"}},{"base_weights":[1.6394557E-5,-1.8886408E-2,1.08410146E-4,3.2338593E-2,-3.0512257E-2,-1.2348496E-4,6.8396693E-3,2.860377E-3,1.102852E-2,-1.997056E-2,-1.7070921E-2,4.7662453E-4,-4.5020343E-3,1.1706562E-2,-1.4069541E-2,-1.2911145E-2,-4.9773394E-3,-2.3024219E-4,8.430377E-3,-2.292653E-2,-7.469205E-4,3.9348394E-2,5.6054094E-3,-3.2326464E-2,5.2696546E-3,-7.288522E-3,6.772414E-3,8.7755994E-4,-2.76041E-3,1.1236023E-2,-2.2310331E-2,-1.1806644E-1,-1.467978E-2,-1.6345505E-3,1.9493343E-2,6.8169557E-3,3.260911E-2,2.975363E-2,2.3586287E-4,-3.645672E-2,-5.0615324E-3,1.538137E-2,-7.7552893E-3,6.382055E-3,-9.848191E-4,7.489411E-5,3.5806352E-3,-2.763222E-4,-2.7277416E-3,1.0364754E-2,1.8605912E-3,-1.4455121E-2,-4.298194E-3,-3.9752484E-3,-4.091382E-2,3.1138845E-3,-1.2008249E-2,-2.7581575E-4,-5.8343993E-3,1.3263827E-2,1.2713718E-3,-2.559155E-3,1.9780358E-2,1.1665052E-3,2.166431E-2,3.940822E-3,-1.2674587E-3,-3.1952031E-3,-7.908275E-4,1.4405961E-3,-3.3238048E-3],"categories":[0,0,0,0,0,0,0,0,0,0,0,0,0,0],"categories_nodes":[1,4,10,12,13,22,23,24,26,29,30,38,40,42],"categories_segments":[0,1,2,3,4,5,6,7,8,9,10,11,12,13],"categories_sizes":[1,1,1,1,1,1,1,1,1,1,1,1,1,1],"default_left":[0,1,0,0,1,0,0,0,0,0,1,0,1,1,0,0,0,0,0,0,0,0,1,1,1,0,1,0,0,1,1,0,0,0,0,0,0,0,1,0,1,0,1,0,0,0,0,0,0,0,0,0,0,0,0,0,0,0,0,0,0,0,0,0,0,0,0,0,0,0,0],"id":13,"left_children":[1,3,5,7,9,11,13,-1,-1,-1,15,17,19,21,23,-1,25,27,29,31,33,35,37,39,41,-1,43,45,47,49,51,53,55,57,59,61,-1,63,65,-1,67,-1,69,-1,-1,-1,-1,-1,-1,-1,-1,-1,-1,-1,-1,-1,-1,-1,-1,-1,-1,-1,-1,-1,-1,-1,-1,-1,-1,-1,-1],"loss_changes":[6.8220478E-3,1.2301872E-2,6.0932166E-3,5.2953605E-5,6.617926E-3,9.918742E-3,1.3393879E-2,0E0,0E0,0E0,3.8681102E-3,1.8667787E-2,3.146254E-2,1.765602E-2,8.997204E-3,0E0,2.4343224E-3,8.551345E-3,2.3623765E-2,5.8680627E-2,6.8409257E-3,4.212322E-2,1.1403501E-2,3.0999886E-2,8.186806E-3,0E0,1.0905097E-3,1.47309005E-2,1.0811494E-2,2.9008277E-2,4.060258E-3,9.709768E-3,4.6149757E-2,4.6193153E-3,5.8463183E-3,1.3264729E-2,0E0,1.7291345E-2,4.2562312E-3,0E0,1.21041376E-4,0E0,5.123554E-4,0E0,0E0,0E0,0E0,0E0,0E0,0E0,0E0,0E0,0E0,0E0,0E0,0E0,0E0,0E0,0E0,0E0,0E0,0E0,0E0,0E0,0E0,0E0,0E0,0E0,0E0,0E0,0E0],"parents":[2147483647,0,0,1,1,2,2,3,3,4,4,5,5,6,6,10,10,11,11,12,12,13,13,14,14,16,16,17,17,18,18,19,19,20,20,21,21,22,22,23,23,24,24,26,26,27,27,28,28,29,29,30,30,31,31,32,32,33,33,34,34,35,35,37,37,38,38,40,40,42,42],"right_children":[2,4,6,8,10,12,14,-1,-1,-1,16,18,20,22,24,-1,26,28,30,32,34,36,38,40,42,-1,44,46,48,50,52,54,56,58,60,62,-1,64,66,-1,68,-1,70,-1,-1,-1,-1,-1,-1,-1,-1,-1,-1,-1,-1,-1,-1,-1,-1,-1,-1,-1,-1,-1,-1,-1,-1,-1,-1,-1,-1],"split_conditions":[3.3236048E-4,NaN,9.7E2,3.2E1,NaN,7.089862E-1,1.6315E3,2.860377E-3,1.102852E-2,-1.997056E-2,NaN,4.742584E-1,NaN,NaN,7.7055283E-3,-1.2911145E-2,3.2E1,3.49E2,7.035689E1,2.2481482E0,8.117252E-1,4.086038E0,NaN,NaN,NaN,-7.288522E-3,NaN,8.25E1,2.528653E-3,NaN,NaN,6.5E1,4.6114987E-1,7.084282E-1,4.11E2,2.816471E-1,3.260911E-2,8.9489156E-1,NaN,-3.645672E-2,NaN,1.538137E-2,NaN,6.382055E-3,-9.848191E-4,7.489411E-5,3.5806352E-3,-2.763222E-4,-2.7277416E-3,1.0364754E-2,1.8605912E-3,-1.4455121E-2,-4.298194E-3,-3.9752484E-3,-4.091382E-2,3.1138845E-3,-1.2008249E-2,-2.7581575E-4,-5.8343993E-3,1.3263827E-2,1.2713718E-3,-2.559155E-3,1.9780358E-2,1.1665052E-3,2.166431E-2,3.940822E-3,-1.2674587E-3,-3.1952031E-3,-7.908275E-4,1.4405961E-3,-3.3238048E-3],"split_indices":[3,29,2,1,31,5,2,0,0,0,33,5,33,33,7,0,1,1,8,17,25,8,32,33,33,0,32,2,11,33,33,0,12,28,1,3,0,5,31,0,31,0,32,0,0,0,0,0,0,0,0,0,0,0,0,0,0,0,0,0,0,0,0,0,0,0,0,0,0,0,0],"split_type":[0,1,0,0,1,0,0,0,0,0,1,0,1,1,0,0,0,0,0,0,0,0,1,1,1,0,1,0,0,1,1,0,0,0,0,0,0,0,1,0,1,0,1,0,0,0,0,0,0,0,0,0,0,0,0,0,0,0,0,0,0,0,0,0,0,0,0,0,0,0,0],"sum_hessian":[3.92E3,1.8E1,3.902E3,3E0,1.5E1,3.773E3,1.29E2,1E0,2E0,3E0,1.2E1,3.319E3,4.54E2,1.05E2,2.4E1,3E0,9E0,3.049E3,2.7E2,7.6E1,3.78E2,1.8E1,8.7E1,1.2E1,1.2E1,3E0,6E0,2.121E3,9.28E2,2.48E2,2.2E1,5E0,7.1E1,3.63E2,1.5E1,1.3E1,5E0,1.5E1,7.2E1,2E0,1E1,2E0,1E1,2E0,4E0,2.008E3,1.13E2,7.2E2,2.08E2,4.3E1,2.05E2,4E0,1.8E1,1E0,4E0,3.6E1,3.5E1,3.5E2,1.3E1,5E0,1E1,1.1E1,2E0,1E1,5E0,1.8E1,5.4E1,2E0,8E0,2E0,8E0],"tree_param":{"num_deleted":"0","num_feature":"35","num_nodes":"71","size_leaf_vector":"1"}},{"base_weights":[5.4245575E-6,8.1134937E-4,-1.79876E-3,5.0718863E-3,-4.3380394E-5,-8.474911E-3,-3.6539836E-4,7.4692727E-3,-4.0073574E-2,1.6605388E-2,-2.9765477E-4,-2.7280434E-3,-5.6080285E-2,-1.1657015E-3,9.499209E-3,-3.1481918E-2,1.0253678E-2,-4.4232726E-2,-1.6596125E-2,-1.2349708E-2,3.5118055E-2,1.66404E-2,-5.5228476E-4,-1.7806983E-2,6.8791467E-3,-7.748467E-2,-6.2614884E-3,5.966312E-4,-4.222872E-3,4.759203E-2,-8.1719697E-4,-4.8875414E-2,4.3339044E-2,6.7638177E-3,6.274981E-2,-4.6155762E-2,6.9566118E-3,-7.5736106E-3,-6.5376773E-3,-1.7436823E-2,4.8509605E-2,5.7700522E-2,3.3665015E-3,-1.7686279E-3,3.0778793E-3,-1.0628797E-2,-1.4256257E-1,-5.51777E-3,2.1179575E-2,8.729684E-3,-9.8051794E-2,5.010373E-3,-7.0138127E-3,-1.0371857E-3,2.3580447E-2,-7.486964E-3,9.920438E-4,1.4202995E-2,6.620515E-2,1.1314709E-2,-5.112604E-3,-2.5232777E-2,-1.9897416E-3,3.6945145E-3,2.9768856E-2,-1.6549498E-2,2.4743709E-3,1.101358E-2,4.1725334E-2,-2.5300605E-3,-2.2394052E-2,1.0493699E-2,-8.068683E-3,7.5327995E-4,-2.6482418E-3,-7.371583E-3,-1.3468292E-3,1.8057493E-2,9.431283E-3,3.5477657E-2,-6.8587245E-4,6.718496E-3,-4.3629813E-3,-1.3397883E-4,-2.091613E-3,-7.306721E-4,1.8171057E-3,-2.24231E-3,-1.3224544E-2,-5.392652E-2,-4.6477593E-3,-2.7505308E-3,2.153057E-2,2.2521721E-2,3.1227132E-3,-8.766396E-3,9.336138E-3,-3.2755774E-2,5.333639E-3,-4.894863E-4,2.6844805E-3,-3.3706753E-3,9.4642695E-3,-8.5025225E-5,-2.9294323E-3,2.197566E-3,-2.2862088E-3,7.6700696E-3,-2.1349647E-4,2.1046387E-2,4.5989845E-3,2.0670534E-5,6.7655714E-3,-7.788163E-3,-3.718721E-4],"categories":[0,0,0,0,0,0,0,0,0],"categories_nodes":[1,2,14,20,21,30,38,54,55],"categories_segments":[0,1,2,3,4,5,6,7,8],"categories_sizes":[1,1,1,1,1,1,1,1,1],"default_left":[0,1,1,0,0,0,0,0,0,0,0,0,0,0,1,0,0,0,0,0,1,1,0,0,0,0,0,0,0,0,1,0,0,0,0,0,0,0,1,0,0,0,0,0,0,0,0,0,0,0,0,0,0,0,1,1,0,0,0,0,0,0,0,0,0,0,0,0,0,0,0,0,0,0,0,0,0,0,0,0,0,0,0,0,0,0,0,0,0,0,0,0,0,0,0,0,0,0,0,0,0,0,0,0,0,0,0,0,0,0,0,0,0,0,0],"id":14,"left_children":[1,3,5,7,9,11,13,15,17,19,21,23,25,27,29,31,33,-1,35,37,39,41,43,45,47,49,51,53,55,57,59,61,63,65,67,69,71,-1,73,75,77,79,81,83,85,87,89,91,93,95,97,-1,-1,99,101,103,105,107,109,111,113,-1,-1,-1,-1,-1,-1,-1,-1,-1,-1,-1,-1,-1,-1,-1,-1,-1,-1,-1,-1,-1,-1,-1,-1,-1,-1,-1,-1,-1,-1,-1,-1,-1,-1,-1,-1,-1,-1,-1,-1,-1,-1,-1,-1,-1,-1,-1,-1,-1,-1,-1,-1,-1,-1],"loss_changes":[5.7027387E-3,9.872619E-3,1.1585372E-2,4.932802E-2,9.568092E-3,5.8393512E-2,7.889961E-3,4.7067307E-2,5.5530187E-2,1.8658925E-2,9.609787E-3,2.7936814E-2,2.4040654E-2,4.9808025E-3,2.9512469E-2,3.9858755E-2,7.340685E-2,0E0,1.4245294E-2,8.8425376E-4,1.5625468E-2,1.7791672E-2,9.693106E-3,6.564863E-2,2.1036047E-2,2.9226877E-2,3.5350518E-3,2.2067098E-2,5.760852E-3,9.003274E-3,3.1845358E-3,3.5163287E-2,9.181658E-3,3.5287976E-2,4.4583738E-2,9.043183E-3,1.232422E-2,0E0,2.5007923E-4,3.5159185E-4,1.4981218E-3,2.9331949E-2,9.186387E-3,1.1306093E-2,9.065118E-3,7.268333E-3,1.6119346E-2,1.8715385E-2,3.1143561E-2,4.3083904E-3,1.870691E-2,0E0,0E0,3.2733027E-3,1.117241E-2,3.4101605E-3,7.2013484E-3,1.2046151E-3,9.3383715E-4,2.0203877E-3,3.6013308E-3,0E0,0E0,0E0,0E0,0E0,0E0,0E0,0E0,0E0,0E0,0E0,0E0,0E0,0E0,0E0,0E0,0E0,0E0,0E0,0E0,0E0,0E0,0E0,0E0,0E0,0E0,0E0,0E0,0E0,0E0,0E0,0E0,0E0,0E0,0E0,0E0,0E0,0E0,0E0,0E0,0E0,0E0,0E0,0E0,0E0,0E0,0E0,0E0,0E0,0E0,0E0,0E0,0E0,0E0],"parents":[2147483647,0,0,1,1,2,2,3,3,4,4,5,5,6,6,7,7,8,8,9,9,10,10,11,11,12,12,13,13,14,14,15,15,16,16,18,18,19,19,20,20,21,21,22,22,23,23,24,24,25,25,26,26,27,27,28,28,29,29,30,30,31,31,32,32,33,33,34,34,35,35,36,36,38,38,39,39,40,40,41,41,42,42,43,43,44,44,45,45,46,46,47,47,48,48,49,49,50,50,53,53,54,54,55,55,56,56,57,57,58,58,59,59,60,60],"right_children":[2,4,6,8,10,12,14,16,18,20,22,24,26,28,30,32,34,-1,36,38,40,42,44,46,48,50,52,54,56,58,60,62,64,66,68,70,72,-1,74,76,78,80,82,84,86,88,90,92,94,96,98,-1,-1,100,102,104,106,108,110,112,114,-1,-1,-1,-1,-1,-1,-1,-1,-1,-1,-1,-1,-1,-1,-1,-1,-1,-1,-1,-1,-1,-1,-1,-1,-1,-1,-1,-1,-1,-1,-1,-1,-1,-1,-1,-1,-1,-1,-1,-1,-1,-1,-1,-1,-1,-1,-1,-1,-1,-1,-1,-1,-1,-1],"split_conditions":[4.0454544E1,NaN,NaN,9.489647E-1,1.7E1,5.501177E-1,6.7191744E-1,4.5338008E-3,9.032861E-3,4.909091E0,3.032258E0,1.8017843E-2,1.12818825E-5,6.1281544E-1,NaN,-6.1573135E-4,5.8569014E-1,-4.4232726E-2,-4.1964087E-3,4.6E1,NaN,NaN,3.719387E-1,1.7535012E-2,2.6608765E-1,9.77223E-1,1.943971E1,4.3617728E-1,9.94605E-1,2.0733075E-1,NaN,1.2571667E1,8.2E1,1.0022246E-2,1.25E0,1.3334139E-1,2.4117951E-1,-7.5736106E-3,NaN,4.057244E-7,4.057244E-7,2.3E1,2.4E1,1.05125E2,2.1682559E-1,7.946995E-1,1.4414275E-1,1.0884462E2,1.1250922E-1,1.9628534E-2,9.971207E-1,5.010373E-3,-7.0138127E-3,4.1858143E-1,NaN,NaN,5.4735184E-2,-3.5723654E-6,2E2,2.3997925E-2,1.9E1,-2.5232777E-2,-1.9897416E-3,3.6945145E-3,2.9768856E-2,-1.6549498E-2,2.4743709E-3,1.101358E-2,4.1725334E-2,-2.5300605E-3,-2.2394052E-2,1.0493699E-2,-8.068683E-3,7.5327995E-4,-2.6482418E-3,-7.371583E-3,-1.3468292E-3,1.8057493E-2,9.431283E-3,3.5477657E-2,-6.8587245E-4,6.718496E-3,-4.3629813E-3,-1.3397883E-4,-2.091613E-3,-7.306721E-4,1.8171057E-3,-2.24231E-3,-1.3224544E-2,-5.392652E-2,-4.6477593E-3,-2.7505308E-3,2.153057E-2,2.2521721E-2,3.1227132E-3,-8.766396E-3,9.336138E-3,-3.2755774E-2,5.333639E-3,-4.894863E-4,2.6844805E-3,-3.3706753E-3,9.4642695E-3,-8.5025225E-5,-2.9294323E-3,2.197566E-3,-2.2862088E-3,7.6700696E-3,-2.1349647E-4,2.1046387E-2,4.5989845E-3,2.0670534E-5,6.7655714E-3,-7.788163E-3,-3.718721E-4],"split_indices":[15,33,33,12,1,12,12,3,5,15,22,4,11,28,32,11,20,0,11,0,30,32,5,4,12,21,8,28,21,28,34,22,0,10,15,3,28,0,32,5,5,1,0,2,28,25,3,3,27,3,21,0,0,19,30,29,14,11,1,20,1,0,0,0,0,0,0,0,0,0,0,0,0,0,0,0,0,0,0,0,0,0,0,0,0,0,0,0,0,0,0,0,0,0,0,0,0,0,0,0,0,0,0,0,0,0,0,0,0,0,0,0,0,0,0],"split_type":[0,1,1,0,0,0,0,0,0,0,0,0,0,0,1,0,0,0,0,0,1,1,0,0,0,0,0,0,0,0,1,0,0,0,0,0,0,0,1,0,0,0,0,0,0,0,0,0,0,0,0,0,0,0,1,1,0,0,0,0,0,0,0,0,0,0,0,0,0,0,0,0,0,0,0,0,0,0,0,0,0,0,0,0,0,0,0,0,0,0,0,0,0,0,0,0,0,0,0,0,0,0,0,0,0,0,0,0,0,0,0,0,0,0,0],"sum_hessian":[3.92E3,2.71E3,1.21E3,4.52E2,2.258E3,2.13E2,9.97E2,4.3E2,2.2E1,3.3E1,2.225E3,1.91E2,2.2E1,9.23E2,7.4E1,2.8E1,4.02E2,3E0,1.9E1,1.3E1,2E1,3.2E1,2.193E3,7.4E1,1.17E2,1.5E1,7E0,5.86E2,3.37E2,1.5E1,5.9E1,2.3E1,5E0,3.78E2,2.4E1,8E0,1.1E1,3E0,1E1,4E0,1.6E1,7E0,2.5E1,1.643E3,5.5E2,7.1E1,3E0,6.3E1,5.4E1,3E0,1.2E1,3E0,4E0,5.48E2,3.8E1,2.07E2,1.3E2,6E0,9E0,1.5E1,4.4E1,1.2E1,1.1E1,4E0,1E0,8E0,3.7E2,1.9E1,5E0,4E0,4E0,6E0,5E0,2E0,8E0,2E0,2E0,8E0,8E0,3E0,4E0,1.2E1,1.3E1,1.311E3,3.32E2,1.93E2,3.57E2,6.6E1,5E0,2E0,1E0,6.1E1,2E0,8E0,4.6E1,1E0,2E0,1.1E1,1E0,5.18E2,3E1,7E0,3.1E1,5E1,1.57E2,7.5E1,5.5E1,3E0,3E0,8E0,1E0,8E0,7E0,6E0,3.8E1],"tree_param":{"num_deleted":"0","num_feature":"35","num_nodes":"115","size_leaf_vector":"1"}},{"base_weights":[4.2878937E-6,2.5877526E-3,-5.3277495E-4,-1.5658423E-2,2.9099882E-3,2.0226766E-3,-1.5409017E-3,2.0099794E-3,2.4335753E-2,4.7566723E-2,1.7214875E-3,-1.8741671E-2,-1.3385736E-3,1.7816751E-3,2.2389937E-2,-1.8666135E-3,5.724426E-2,-5.1584924E-3,1.9187417E-2,8.571217E-3,-8.793224E-5,-8.716407E-2,1.465534E-2,-1.1827272E-3,-2.3540962E-2,6.950328E-4,1.4698818E-2,-2.3247346E-2,1.3286561E-2,-8.109618E-3,7.680273E-2,2.1852474E-3,5.5121552E-2,-3.1141913E-3,1.7293533E-3,-9.790439E-2,-1.8621942E-4,3.6483813E-2,-1.1182533E-3,-2.6510055E-3,1.0722193E-3,-5.359423E-2,-1.2482958E-2,5.7345437E-4,-5.840675E-3,1.614074E-3,1.1482967E-2,-8.5502234E-4,-1.13498345E-2,8.959592E-3,-5.7143667E-3,3.0951738E-2,3.4365093E-3,3.8267898E-3,-3.9958516E-3,4.488472E-2,1.1699265E-2,-4.529921E-3,2.1669923E-4,3.6669895E-3,-3.3803596E-4,-3.1090124E-2,-8.669838E-3,1.2489576E-2,6.706172E-5,-4.905091E-3,5.2586093E-4,-4.5098976E-4,-2.437512E-3,1.6690881E-4,5.1518613E-3,-2.0671722E-2,-1.1489589E-3,-1.4125854E-3,-4.3033194E-3],"categories":[0,0,0,0,0,0,0,0,0,0],"categories_nodes":[0,9,10,11,22,24,33,34,38,42],"categories_segments":[0,1,2,3,4,5,6,7,8,9],"categories_sizes":[1,1,1,1,1,1,1,1,1,1],"default_left":[1,0,0,0,0,0,0,0,0,1,1,1,0,0,0,0,0,0,0,0,0,0,1,0,1,0,0,0,0,0,0,0,0,1,1,0,0,0,1,0,0,0,1,0,0,0,0,0,0,0,0,0,0,0,0,0,0,0,0,0,0,0,0,0,0,0,0,0,0,0,0,0,0,0,0],"id":15,"left_children":[1,3,5,-1,7,9,11,13,15,17,19,21,23,25,-1,27,29,-1,-1,31,33,35,37,39,41,43,45,47,49,-1,51,53,55,57,59,61,-1,63,65,67,69,71,73,-1,-1,-1,-1,-1,-1,-1,-1,-1,-1,-1,-1,-1,-1,-1,-1,-1,-1,-1,-1,-1,-1,-1,-1,-1,-1,-1,-1,-1,-1,-1,-1],"loss_changes":[5.441699E-3,1.2067569E-2,8.3681E-3,0E0,1.2909513E-2,1.2524382E-2,8.080296E-3,1.057782E-2,2.3388434E-2,7.4689416E-3,1.1328902E-2,6.297522E-2,7.940915E-3,9.043207E-3,0E0,5.4926523E-3,2.1855924E-2,0E0,0E0,5.6657925E-2,3.987079E-3,8.304752E-3,6.5827537E-3,7.5781564E-3,4.6482524E-3,1.4656544E-2,1.0779607E-2,1.9746951E-3,5.929518E-3,0E0,1.6050164E-2,2.7868388E-2,2.9208712E-2,1.2518229E-2,1.3591167E-2,1.6787648E-4,0E0,1.4840672E-3,5.5345695E-4,8.69545E-3,7.490428E-3,2.78397E-3,1.2058695E-4,0E0,0E0,0E0,0E0,0E0,0E0,0E0,0E0,0E0,0E0,0E0,0E0,0E0,0E0,0E0,0E0,0E0,0E0,0E0,0E0,0E0,0E0,0E0,0E0,0E0,0E0,0E0,0E0,0E0,0E0,0E0,0E0],"parents":[2147483647,0,0,1,1,2,2,4,4,5,5,6,6,7,7,8,8,9,9,10,10,11,11,12,12,13,13,15,15,16,16,19,19,20,20,21,21,22,22,23,23,24,24,25,25,26,26,27,27,28,28,30,30,31,31,32,32,33,33,34,34,35,35,37,37,38,38,39,39,40,40,41,41,42,42],"right_children":[2,4,6,-1,8,10,12,14,16,18,20,22,24,26,-1,28,30,-1,-1,32,34,36,38,40,42,44,46,48,50,-1,52,54,56,58,60,62,-1,64,66,68,70,72,74,-1,-1,-1,-1,-1,-1,-1,-1,-1,-1,-1,-1,-1,-1,-1,-1,-1,-1,-1,-1,-1,-1,-1,-1,-1,-1,-1,-1,-1,-1,-1,-1],"split_conditions":[NaN,3.3236048E-4,4.579648E-1,-1.5658423E-2,6.087963E-1,3.4851622E-13,-7.551655E-1,8.575388E-1,1.9431002E-1,NaN,NaN,NaN,7.825E2,2.6174027E-1,2.2389937E-2,2.9E1,1.2588842E0,-5.1584924E-3,1.9187417E-2,2.7532238E-1,-9.476338E-3,3.0653706E-1,NaN,2.048089E-1,NaN,8.1200916E-1,8.023649E-1,2.3804732E-4,7.857131E-2,-8.109618E-3,4.55E2,-6.826839E-3,-5.516438E-1,NaN,NaN,2.2171414E-2,-1.8621942E-4,1.28E2,NaN,1.2607174E-1,3.065E2,6.971421E-3,NaN,5.7345437E-4,-5.840675E-3,1.614074E-3,1.1482967E-2,-8.5502234E-4,-1.13498345E-2,8.959592E-3,-5.7143667E-3,3.0951738E-2,3.4365093E-3,3.8267898E-3,-3.9958516E-3,4.488472E-2,1.1699265E-2,-4.529921E-3,2.1669923E-4,3.6669895E-3,-3.3803596E-4,-3.1090124E-2,-8.669838E-3,1.2489576E-2,6.706172E-5,-4.905091E-3,5.2586093E-4,-4.5098976E-4,-2.437512E-3,1.6690881E-4,5.1518613E-3,-2.0671722E-2,-1.1489589E-3,-1.4125854E-3,-4.3033194E-3],"split_indices":[31,3,10,0,20,5,19,24,28,30,33,32,2,7,0,1,16,0,0,19,6,5,34,5,33,25,25,5,28,0,0,19,7,32,32,11,0,0,33,5,2,3,29,0,0,0,0,0,0,0,0,0,0,0,0,0,0,0,0,0,0,0,0,0,0,0,0,0,0,0,0,0,0,0,0],"split_type":[1,0,0,0,0,0,0,0,0,1,1,1,0,0,0,0,0,0,0,0,0,0,1,0,1,0,0,0,0,0,0,0,0,1,1,0,0,0,1,0,0,0,1,0,0,0,0,0,0,0,0,0,0,0,0,0,0,0,0,0,0,0,0,0,0,0,0,0,0,0,0,0,0,0,0],"sum_hessian":[3.92E3,6.74E2,3.246E3,3E0,6.71E2,9.18E2,2.328E3,6.45E2,2.6E1,5E0,9.13E2,2.6E1,2.302E3,6.44E2,1E0,1.5E1,1.1E1,1E0,4E0,1.9E2,7.23E2,8E0,1.8E1,2.287E3,1.5E1,5.95E2,4.9E1,6E0,9E0,2E0,9E0,1.68E2,2.2E1,2.71E2,4.52E2,7E0,1E0,7E0,1.1E1,1.385E3,9.02E2,3E0,1.2E1,5.62E2,3.3E1,3.6E1,1.3E1,3E0,3E0,6E0,3E0,6E0,3E0,1E2,6.8E1,2E0,2E1,6.5E1,2.06E2,9.6E1,3.56E2,6E0,1E0,6E0,1E0,1E0,1E1,1.146E3,2.39E2,8.75E2,2.7E1,2E0,1E0,3E0,9E0],"tree_param":{"num_deleted":"0","num_feature":"35","num_nodes":"75","size_leaf_vector":"1"}},{"base_weights":[1.4341784E-5,-4.7269505E-3,2.758297E-4,-2.1134766E-2,-1.2245488E-3,2.225835E-2,1.628414E-4,-3.0836543E-2,4.518356E-2,-5.383708E-3,2.997948E-3,-2.2566466E-2,3.207341E-2,-2.4364004E-3,6.175951E-4,-3.9669136E-3,-5.151476E-2,-7.5331605E-3,2.4851732E-2,-1.7528072E-2,-2.137588E-3,-7.440848E-3,5.9134583E-3,-1.0877922E-3,-8.301392E-3,6.097544E-2,1.3392899E-2,-1.0284638E-2,-1.4564027E-3,-9.304185E-3,8.06779E-4,-3.6044404E-2,1.5676273E-2,7.979574E-3,-5.7674285E-2,-5.400599E-3,2.0106768E-3,-7.294981E-3,-1.9878563E-2,7.4318536E-3,-4.282591E-3,5.9095263E-3,-1.0042942E-2,5.5032974E-4,7.872356E-3,4.6742026E-2,1.0847829E-2,-8.473574E-3,2.5784181E-2,-4.2912543E-2,-3.0455873E-3,2.051225E-2,-1.7704732E-3,-3.888008E-2,-2.4748165E-3,4.099491E-3,1.6370736E-4,-1.8263962E-3,-1.9191448E-2,-1.7197255E-2,9.047037E-3,4.38617E-3,-1.8931951E-2,-4.8941416E-3,4.742757E-3,-2.696021E-3,3.9768317E-3,3.0013744E-4,-2.4465376E-3,-9.031706E-4,-3.7548358E-3,-9.6789334E-4,6.5303557E-3,4.254012E-3,1.633013E-3,-7.346317E-3,7.7410946E-3,1.2903926E-2,4.4150734E-3,1.5642187E-2,-1.7289577E-2,-2.242669E-3,4.5045788E-4,2.0370673E-2,3.890631E-4,-8.080059E-4,8.80582E-4,8.4791295E-3,-2.4385702E-2,-5.694849E-3,5.142172E-4,4.481017E-3,5.3300336E-4,2.1992584E-5,1.0041489E-2],"categories":[0,0,0,0,0,0,0,0,0,0,0,0,0,0,0],"categories_nodes":[1,5,9,10,22,25,26,27,29,39,46,48,51,54,55],"categories_segments":[0,1,2,3,4,5,6,7,8,9,10,11,12,13,14],"categories_sizes":[1,1,1,1,1,1,1,1,1,1,1,1,1,1,1],"default_left":[0,1,0,0,0,1,0,0,0,1,1,0,0,0,0,0,0,0,0,0,0,0,1,0,0,1,1,1,0,1,0,0,0,0,0,0,0,0,0,1,0,0,0,0,0,0,1,0,1,0,0,1,0,0,1,1,0,0,0,0,0,0,0,0,0,0,0,0,0,0,0,0,0,0,0,0,0,0,0,0,0,0,0,0,0,0,0,0,0,0,0,0,0,0,0],"id":16,"left_children":[1,3,5,7,9,11,13,15,17,19,21,23,25,27,29,31,33,35,-1,37,39,41,43,-1,-1,45,47,49,51,53,55,57,59,-1,61,-1,-1,63,-1,65,67,-1,69,71,73,-1,75,-1,77,79,81,83,85,87,89,91,93,-1,-1,-1,-1,-1,-1,-1,-1,-1,-1,-1,-1,-1,-1,-1,-1,-1,-1,-1,-1,-1,-1,-1,-1,-1,-1,-1,-1,-1,-1,-1,-1,-1,-1,-1,-1,-1,-1],"loss_changes":[4.862523E-3,1.1754803E-2,9.228541E-3,2.4555912E-2,3.0016864E-3,9.082988E-3,4.373778E-3,1.7575359E-2,1.0549422E-2,3.3528293E-3,2.6309264E-3,2.8641731E-4,7.821837E-3,4.222903E-3,5.9183086E-3,1.0016603E-2,1.0194592E-2,5.677386E-4,0E0,8.493176E-3,1.4481544E-3,1.5395896E-3,6.995576E-4,0E0,0E0,2.6831834E-2,6.4037303E-3,1.4277205E-2,3.4240717E-3,1.1820875E-2,6.5443665E-3,4.630116E-3,1.2299553E-2,0E0,7.598914E-3,0E0,0E0,3.591867E-3,0E0,1.362267E-3,1.1743099E-3,0E0,2.7538068E-4,1.5927181E-3,6.73553E-4,0E0,3.274233E-3,0E0,1.0830723E-3,1.8395321E-2,1.0385483E-3,6.286254E-3,2.1141828E-3,3.361746E-2,3.4208868E-3,1.268576E-2,7.7869897E-3,0E0,0E0,0E0,0E0,0E0,0E0,0E0,0E0,0E0,0E0,0E0,0E0,0E0,0E0,0E0,0E0,0E0,0E0,0E0,0E0,0E0,0E0,0E0,0E0,0E0,0E0,0E0,0E0,0E0,0E0,0E0,0E0,0E0,0E0,0E0,0E0,0E0,0E0],"parents":[2147483647,0,0,1,1,2,2,3,3,4,4,5,5,6,6,7,7,8,8,9,9,10,10,11,11,12,12,13,13,14,14,15,15,16,16,17,17,19,19,20,20,21,21,22,22,25,25,26,26,27,27,28,28,29,29,30,30,31,31,32,32,34,34,37,37,39,39,40,40,42,42,43,43,44,44,46,46,48,48,49,49,50,50,51,51,52,52,53,53,54,54,55,55,56,56],"right_children":[2,4,6,8,10,12,14,16,18,20,22,24,26,28,30,32,34,36,-1,38,40,42,44,-1,-1,46,48,50,52,54,56,58,60,-1,62,-1,-1,64,-1,66,68,-1,70,72,74,-1,76,-1,78,80,82,84,86,88,90,92,94,-1,-1,-1,-1,-1,-1,-1,-1,-1,-1,-1,-1,-1,-1,-1,-1,-1,-1,-1,-1,-1,-1,-1,-1,-1,-1,-1,-1,-1,-1,-1,-1,-1,-1,-1,-1,-1,-1],"split_conditions":[-1.7363419E-1,NaN,1.9928057E0,3.2179546E1,2.4544973E1,NaN,6.5430686E-2,3.215952E-2,4.9379677E-1,NaN,NaN,2.4E1,8.6E1,2.0053685E-1,7.779612E-1,1.2333302E-1,1.1111111E-1,4.63E2,2.4851732E-2,8.522159E-1,1.2392149E-1,2.5E1,NaN,-1.0877922E-3,-8.301392E-3,NaN,NaN,NaN,2.081789E-1,NaN,6.642307E0,2.2911755E-2,3.4857106E-3,7.979574E-3,-3.9047852E-1,-5.400599E-3,2.0106768E-3,1.7167473E-1,-1.9878563E-2,NaN,1.7170374E-1,5.9095263E-3,2.8468356E-1,3.4020382E1,-5.280592E-1,4.6742026E-2,NaN,-8.473574E-3,NaN,-9.409078E-3,5.712968E-1,NaN,1.8559682E0,2.0677419E0,NaN,NaN,2.078136E-1,-1.8263962E-3,-1.9191448E-2,-1.7197255E-2,9.047037E-3,4.38617E-3,-1.8931951E-2,-4.8941416E-3,4.742757E-3,-2.696021E-3,3.9768317E-3,3.0013744E-4,-2.4465376E-3,-9.031706E-4,-3.7548358E-3,-9.6789334E-4,6.5303557E-3,4.254012E-3,1.633013E-3,-7.346317E-3,7.7410946E-3,1.2903926E-2,4.4150734E-3,1.5642187E-2,-1.7289577E-2,-2.242669E-3,4.5045788E-4,2.0370673E-2,3.890631E-4,-8.080059E-4,8.80582E-4,8.4791295E-3,-2.4385702E-2,-5.694849E-3,5.142172E-4,4.481017E-3,5.3300336E-4,2.1992584E-5,1.0041489E-2],"split_indices":[11,33,17,15,15,30,28,14,28,31,29,0,1,25,8,28,28,0,0,12,16,1,34,0,0,33,33,33,25,33,8,5,4,0,7,0,0,16,0,32,28,0,3,15,19,0,29,0,32,11,10,33,23,9,31,33,14,0,0,0,0,0,0,0,0,0,0,0,0,0,0,0,0,0,0,0,0,0,0,0,0,0,0,0,0,0,0,0,0,0,0,0,0,0,0],"split_type":[0,1,0,0,0,1,0,0,0,1,1,0,0,0,0,0,0,0,0,0,0,0,1,0,0,1,1,1,0,1,0,0,0,0,0,0,0,0,0,1,0,0,0,0,0,0,1,0,1,0,0,1,0,0,1,1,0,0,0,0,