{"learner":{"attributes":{"scikit_learn":"{\"_estimator_type\": \"regressor\"}"},"feature_names":["L","DS","APC","DV","IV","GBC","DN5","DN10","COf1","COfi","COh","COt","MD","SB","SBT","PD","COE","IN","FCm","DNOp","DNOn","SPa","SBb","SBm","FCr","FCd","SPc","FCs","ID","model_DTW-KNN","model_KERNEL","model_NN","model_RF","model_SHAPELET","model_TS-RF"],"feature_types":["float","float","float","float","float","float","float","float","float","float","float","float","float","float","float","float","float","float","float","float","float","float","float","float","float","float","float","float","float","c","c","c","c","c","c"],"gradient_booster":{"model":{"gbtree_model_param":{"num_parallel_tree":"1","num_trees":"100"},"iteration_indptr":[0,1,2,3,4,5,6,7,8,9,10,11,12,13,14,15,16,17,18,19,20,21,22,23,24,25,26,27,28,29,30,31,32,33,34,35,36,37,38,39,40,41,42,43,44,45,46,47,48,49,50,51,52,53,54,55,56,57,58,59,60,61,62,63,64,65,66,67,68,69,70,71,72,73,74,75,76,77,78,79,80,81,82,83,84,85,86,87,88,89,90,91,92,93,94,95,96,97,98,99,100],"tree_info":[0,0,0,0,0,0,0,0,0,0,0,0,0,0,0,0,0,0,0,0,0,0,0,0,0,0,0,0,0,0,0,0,0,0,0,0,0,0,0,0,0,0,0,0,0,0,0,0,0,0,0,0,0,0,0,0,0,0,0,0,0,0,0,0,0,0,0,0,0,0,0,0,0,0,0,0,0,0,0,0,0,0,0,0,0,0,0,0,0,0,0,0,0,0,0,0,0,0,0,0],"trees":[{"base_weights":[1.0762268E-9,5.58872E-3,-3.134789E-2,-6.8792426E-3,2.877545E-2,-9.916162E-2,-1.3754706E-2,1.7931715E-2,-1.2293593E-2,5.5292897E-2,1.4884969E-3,-1.361722E-1,-6.9850616E-2,1.0101001E-2,-2.2797214E-2,1.1053792E-1,2.9014228E-3,-2.1819778E-2,-1.8335286E-3,1.0734176E-1,2.4970295E-2,-1.0817546E-2,5.200547E-2,-2.6804555E-2,-1.3869062E-1,4.7618E-2,-1.0819554E-3,-2.6396783E-2,5.0612196E-2,7.403894E-2,2.1180831E-1,5.467393E-2,4.5374664E-4,-2.2307083E-2,3.160323E-2,6.229085E-3,-3.019926E-2,1.972751E-1,8.679042E-2,1.03664316E-1,9.862052E-3,-5.8639113E-2,-3.8699224E-3,2.0351647E-1,1.695451E-2,-4.7654353E-2,3.0637037E-2,-3.0792113E-2,-1.6549927E-1,-4.486901E-2,1.273682E-1,1.1182383E-1,-1.799979E-2,-3.6612585E-2,-1.3275912E-2,4.1728735E-2,1.54940905E-2,-5.627506E-3,2.7086025E-2,2.5185907E-2,7.090353E-2,-2.5408627E-3,1.3963441E-2,-7.152925E-3,-2.9554889E-3,2.1491757E-2,2.78046E-3,4.230024E-3,-6.867863E-3,-1.4080468E-2,-4.208673E-3,8.583967E-2,-7.0757454E-4,4.5535102E-2,2.0891413E-2,-2.4078773E-2,4.15448E-2,-5.2550863E-3,5.6262505E-3,-4.2932767E-2,-4.738951E-3,-3.8492987E-3,6.5749334E-3,7.0009835E-2,4.8837312E-3,-3.4355097E-3,1.701799E-2,-1.0109485E-2,-6.535516E-2,-1.1077437E-2,-3.0920866E-3,-2.3140851E-2,-5.246908E-2,-3.7900664E-2,-2.61313E-3,1.499685E-2,4.5040958E-2,9.131175E-2,3.9984426E-3,4.739378E-3,-6.2088063E-3,-2.303644E-2,-7.3157917E-3,2.7985242E-3,-4.88269E-3,1.1111883E-2,-2.7450742E-3],"categories":[0,0,0,0,0,0,0,0,0,0,0,0],"categories_nodes":[2,3,13,19,20,21,22,28,34,38,51,53],"categories_segments":[0,1,2,3,4,5,6,7,8,9,10,11],"categories_sizes":[1,1,1,1,1,1,1,1,1,1,1,1],"default_left":[0,0,1,1,0,0,0,0,0,0,0,0,0,1,0,0,0,0,0,1,1,1,1,0,0,0,0,0,1,0,0,0,0,0,1,0,0,0,1,0,0,0,0,0,0,0,0,0,0,0,0,1,0,1,0,0,0,0,0,0,0,0,0,0,0,0,0,0,0,0,0,0,0,0,0,0,0,0,0,0,0,0,0,0,0,0,0,0,0,0,0,0,0,0,0,0,0,0,0,0,0,0,0,0,0,0,0],"id":0,"left_children":[1,3,5,7,9,11,13,15,17,19,21,-1,23,25,27,29,31,33,35,37,39,41,43,45,47,49,51,53,55,57,59,-1,61,63,65,67,69,71,73,75,77,79,81,83,85,87,-1,89,91,93,95,97,99,101,103,-1,105,-1,-1,-1,-1,-1,-1,-1,-1,-1,-1,-1,-1,-1,-1,-1,-1,-1,-1,-1,-1,-1,-1,-1,-1,-1,-1,-1,-1,-1,-1,-1,-1,-1,-1,-1,-1,-1,-1,-1,-1,-1,-1,-1,-1,-1,-1,-1,-1,-1,-1],"loss_changes":[4.562066E-1,6.390897E-1,4.6870142E-1,1.9339448E-1,5.5924535E-1,8.105284E-1,6.79649E-2,3.5878903E-1,1.1764017E-1,6.1599636E-1,2.3803824E-1,0E0,2.2149259E-1,3.6552455E-2,6.158325E-2,1.1738348E-1,9.78095E-2,1.6793609E-2,1.29176E-1,2.4902642E-1,2.9502082E-1,1.0210492E-1,3.9484495E-1,1.338965E-1,7.878971E-2,1.5323201E-1,1.3190106E-1,2.8734699E-2,3.2025974E-2,4.3910727E-2,8.392543E-3,0E0,9.1287926E-2,1.1492729E-2,4.70126E-3,1.0117906E-1,3.316918E-2,4.6188557E-1,1.2209004E-1,2.6727623E-1,5.1454544E-2,1.3887724E-1,6.267106E-2,7.44465E-2,7.069568E-2,9.242016E-2,0E0,4.9881916E-4,5.608499E-3,2.83567E-2,1.1874378E-2,1.6663021E-1,5.7945363E-3,5.8055192E-2,6.729072E-3,0E0,5.1176976E-3,0E0,0E0,0E0,0E0,0E0,0E0,0E0,0E0,0E0,0E0,0E0,0E0,0E0,0E0,0E0,0E0,0E0,0E0,0E0,0E0,0E0,0E0,0E0,0E0,0E0,0E0,0E0,0E0,0E0,0E0,0E0,0E0,0E0,0E0,0E0,0E0,0E0,0E0,0E0,0E0,0E0,0E0,0E0,0E0,0E0,0E0,0E0,0E0,0E0,0E0],"parents":[2147483647,0,0,1,1,2,2,3,3,4,4,5,5,6,6,7,7,8,8,9,9,10,10,12,12,13,13,14,14,15,15,16,16,17,17,18,18,19,19,20,20,21,21,22,22,23,23,24,24,25,25,26,26,27,27,28,28,29,29,30,30,32,32,33,33,34,34,35,35,36,36,37,37,38,38,39,39,40,40,41,41,42,42,43,43,44,44,45,45,47,47,48,48,49,49,50,50,51,51,52,52,53,53,54,54,56,56],"right_children":[2,4,6,8,10,12,14,16,18,20,22,-1,24,26,28,30,32,34,36,38,40,42,44,46,48,50,52,54,56,58,60,-1,62,64,66,68,70,72,74,76,78,80,82,84,86,88,-1,90,92,94,96,98,100,102,104,-1,106,-1,-1,-1,-1,-1,-1,-1,-1,-1,-1,-1,-1,-1,-1,-1,-1,-1,-1,-1,-1,-1,-1,-1,-1,-1,-1,-1,-1,-1,-1,-1,-1,-1,-1,-1,-1,-1,-1,-1,-1,-1,-1,-1,-1,-1,-1,-1,-1,-1,-1],"split_conditions":[2.3242567E0,4.3895984E-1,NaN,NaN,3.1E2,2.268393E0,3.46E2,2.9649289E0,1.3148785E-1,1.00679524E-1,5.8161974E-1,-1.361722E-1,1.447537E0,NaN,1.7607509E-1,7.0686144E-1,1.2982571E-3,1.1586133E0,1.7783839E-1,NaN,NaN,NaN,NaN,8.555667E-1,4.8230743E-1,2.34E2,9.077536E-3,8.741255E0,NaN,1.2766103E-3,1.8E1,5.467393E-2,7.7905405E-1,8.2796216E-1,NaN,1.7743416E0,1.2583784E1,3.30101E1,NaN,1.7649456E1,-4.103578E-3,1.4663029E-1,8.422207E-1,8.843888E-3,3.9E2,6.6181455E0,3.0637037E-2,2.1457489E-1,3.0416666E1,9.077536E-3,2.2184205E-1,NaN,8.2E1,NaN,1.768919E1,4.1728735E-2,6.93E3,-5.627506E-3,2.7086025E-2,2.5185907E-2,7.090353E-2,-2.5408627E-3,1.3963441E-2,-7.152925E-3,-2.9554889E-3,2.1491757E-2,2.78046E-3,4.230024E-3,-6.867863E-3,-1.4080468E-2,-4.208673E-3,8.583967E-2,-7.0757454E-4,4.5535102E-2,2.0891413E-2,-2.4078773E-2,4.15448E-2,-5.2550863E-3,5.6262505E-3,-4.2932767E-2,-4.738951E-3,-3.8492987E-3,6.5749334E-3,7.0009835E-2,4.8837312E-3,-3.4355097E-3,1.701799E-2,-1.0109485E-2,-6.535516E-2,-1.1077437E-2,-3.0920866E-3,-2.3140851E-2,-5.246908E-2,-3.7900664E-2,-2.61313E-3,1.499685E-2,4.5040958E-2,9.131175E-2,3.9984426E-3,4.739378E-3,-6.2088063E-3,-2.303644E-2,-7.3157917E-3,2.7985242E-3,-4.88269E-3,1.1111883E-2,-2.7450742E-3],"split_indices":[28,28,34,31,1,8,1,15,28,3,20,0,23,33,6,24,3,18,20,31,33,34,31,12,24,0,3,15,33,4,1,0,25,5,33,23,22,22,29,13,11,18,12,3,1,16,0,3,2,3,16,31,0,33,9,0,1,0,0,0,0,0,0,0,0,0,0,0,0,0,0,0,0,0,0,0,0,0,0,0,0,0,0,0,0,0,0,0,0,0,0,0,0,0,0,0,0,0,0,0,0,0,0,0,0,0,0],"split_type":[0,0,1,1,0,0,0,0,0,0,0,0,0,1,0,0,0,0,0,1,1,1,1,0,0,0,0,0,1,0,0,0,0,0,1,0,0,0,1,0,0,0,0,0,0,0,0,0,0,0,0,1,0,1,0,0,0,0,0,0,0,0,0,0,0,0,0,0,0,0,0,0,0,0,0,0,0,0,0,0,0,0,0,0,0,0,0,0,0,0,0,0,0,0,0,0,0,0,0,0,0,0,0,0,0,0,0],"sum_hessian":[2.602E3,2.209E3,3.93E2,1.437E3,7.72E2,8E1,3.13E2,2.57E2,1.18E3,3.91E2,3.81E2,5E0,7.5E1,8.6E1,2.27E2,3.5E1,2.22E2,6.17E2,5.63E2,1.43E2,2.48E2,3.07E2,7.4E1,4.7E1,2.8E1,1.9E1,6.7E1,2.17E2,1E1,2.7E1,8E0,2E0,2.2E2,6.12E2,5E0,4.39E2,1.24E2,2.5E1,1.18E2,3.9E1,2.09E2,3.8E1,2.69E2,1.3E1,6.1E1,4.1E1,6E0,6E0,2.2E1,9E0,1E1,8E0,5.9E1,1.21E2,9.6E1,2E0,8E0,4E0,2.3E1,2E0,6E0,1.85E2,3.5E1,5.44E2,6.8E1,1E0,4E0,3.46E2,9.3E1,6E1,6.4E1,1.7E1,8E0,2.3E1,9.5E1,6E0,3.3E1,5.1E1,1.58E2,1.2E1,2.6E1,2E2,6.9E1,1.1E1,2E0,3.6E1,2.5E1,3.9E1,2E0,4E0,2E0,3E0,1.9E1,2E0,7E0,3E0,7E0,2E0,6E0,4E0,5.5E1,2.7E1,9.4E1,1.1E1,8.5E1,4E0,4E0],"tree_param":{"num_deleted":"0","num_feature":"35","num_nodes":"107","size_leaf_vector":"1"}},{"base_weights":[9.606313E-5,4.3528564E-3,-2.1485806E-2,-6.3211154E-3,1.9625487E-2,-6.8775296E-2,-9.428455E-3,1.2690001E-2,-1.0493567E-2,4.20077E-2,2.8769244E-3,-1.02129154E-1,-4.805936E-2,7.715604E-3,-1.6716462E-2,8.550261E-2,3.0381447E-3,-1.5995728E-2,-4.16151E-3,9.603677E-2,3.1070612E-2,-7.351972E-3,5.0392818E-2,-1.0806804E-1,-1.9843832E-2,7.355723E-2,3.605753E-3,-1.9344054E-2,3.9982677E-2,-1.1516633E-2,1.0871802E-1,-2.0287816E-4,1.1056588E-1,1.6353434E-2,-1.6912714E-2,-2.6170842E-2,9.918305E-4,2.1576968E-1,6.711541E-2,7.0516095E-2,9.49172E-3,2.2770666E-2,-1.2686686E-2,1.6573225E-1,2.5447767E-2,-1.3401286E-1,-1.8501708E-2,-3.259099E-2,2.2758942E-2,-2.4155457E-2,1.20475955E-1,4.3174304E-2,-7.746375E-3,-4.0974084E-2,-1.591184E-2,3.3382986E-2,1.17755085E-2,6.430126E-3,4.615221E-2,-1.799937E-3,1.4091638E-2,-6.4062746E-4,4.005997E-2,2.8049327E-2,-2.5923713E-3,-4.6959557E-3,-7.8520905E-3,-9.275925E-3,-4.1527077E-4,-6.7366553E-3,1.898268E-3,1.6768076E-2,7.264666E-2,-3.8845215E-2,2.4450319E-2,4.0339418E-2,1.5803883E-2,1.8840935E-2,1.0458712E-3,5.6021344E-2,-1.92526E-4,-2.4492403E-2,-2.189133E-3,5.7592984E-2,1.1701516E-2,2.9826954E-2,1.6881616E-3,-6.9487724E-4,-4.2246707E-2,-1.1397562E-3,-6.095679E-3,-1.3124365E-3,-1.7866107E-2,5.699467E-2,1.668115E-2,-2.2734539E-3,2.8384715E-2,3.666768E-3,-5.105858E-3,-2.6287183E-2,-6.2814937E-3,2.2425293E-3,-7.4319565E-3,8.445031E-3,-2.0862564E-3],"categories":[0,0,0,0,0,0,0,0,0,0,0,0,0,0,0],"categories_nodes":[2,3,9,21,22,25,26,28,33,36,39,50,52,53,54],"categories_segments":[0,1,2,3,4,5,6,7,8,9,10,11,12,13,14],"categories_sizes":[1,1,1,1,1,1,1,1,1,1,1,1,1,1,1],"default_left":[0,0,1,1,0,0,0,0,0,1,0,0,0,0,0,0,0,0,0,0,0,1,1,0,0,1,1,0,1,0,0,0,0,1,0,0,1,0,0,1,0,0,0,0,0,0,0,0,0,0,1,0,1,1,1,0,0,0,0,0,0,0,0,0,0,0,0,0,0,0,0,0,0,0,0,0,0,0,0,0,0,0,0,0,0,0,0,0,0,0,0,0,0,0,0,0,0,0,0,0,0,0,0,0,0],"id":1,"left_children":[1,3,5,7,9,11,13,15,17,19,21,-1,23,25,27,29,31,33,35,37,39,41,43,45,47,49,51,53,55,-1,57,59,61,63,65,67,69,71,73,75,77,79,81,83,85,87,89,91,-1,-1,93,95,97,99,101,-1,103,-1,-1,-1,-1,-1,-1,-1,-1,-1,-1,-1,-1,-1,-1,-1,-1,-1,-1,-1,-1,-1,-1,-1,-1,-1,-1,-1,-1,-1,-1,-1,-1,-1,-1,-1,-1,-1,-1,-1,-1,-1,-1,-1,-1,-1,-1,-1,-1],"loss_changes":[2.3922996E-1,3.5469177E-1,2.4396132E-1,1.01745866E-1,3.3538768E-1,4.7323954E-1,4.298546E-2,1.6208169E-1,3.655027E-2,2.2333866E-1,2.4970654E-1,0E0,1.3669601E-1,2.7606495E-2,3.667815E-2,8.1830665E-2,7.14649E-2,1.6947582E-2,5.5602532E-2,2.0714015E-1,2.7171138E-1,6.8263136E-2,2.5760293E-1,5.7938844E-2,7.201197E-2,5.3074636E-2,4.4354796E-2,1.649721E-2,2.0810666E-2,0E0,8.728814E-2,5.4975685E-2,1.5815847E-2,3.1659085E-2,5.9707314E-3,1.0904171E-2,4.9935352E-2,3.7086666E-2,1.6044827E-1,1.2180638E-1,6.6374466E-2,2.4580738E-1,1.3319331E-1,4.5725882E-2,1.10874325E-1,1.7609566E-2,1.09828776E-4,3.85395E-2,0E0,0E0,1.1981353E-2,5.815416E-2,1.4466494E-2,2.713995E-2,4.1840374E-2,0E0,2.9559815E-3,0E0,0E0,0E0,0E0,0E0,0E0,0E0,0E0,0E0,0E0,0E0,0E0,0E0,0E0,0E0,0E0,0E0,0E0,0E0,0E0,0E0,0E0,0E0,0E0,0E0,0E0,0E0,0E0,0E0,0E0,0E0,0E0,0E0,0E0,0E0,0E0,0E0,0E0,0E0,0E0,0E0,0E0,0E0,0E0,0E0,0E0,0E0,0E0],"parents":[2147483647,0,0,1,1,2,2,3,3,4,4,5,5,6,6,7,7,8,8,9,9,10,10,12,12,13,13,14,14,15,15,16,16,17,17,18,18,19,19,20,20,21,21,22,22,23,23,24,24,25,25,26,26,27,27,28,28,30,30,31,31,32,32,33,33,34,34,35,35,36,36,37,37,38,38,39,39,40,40,41,41,42,42,43,43,44,44,45,45,46,46,47,47,50,50,51,51,52,52,53,53,54,54,56,56],"right_children":[2,4,6,8,10,12,14,16,18,20,22,-1,24,26,28,30,32,34,36,38,40,42,44,46,48,50,52,54,56,-1,58,60,62,64,66,68,70,72,74,76,78,80,82,84,86,88,90,92,-1,-1,94,96,98,100,102,-1,104,-1,-1,-1,-1,-1,-1,-1,-1,-1,-1,-1,-1,-1,-1,-1,-1,-1,-1,-1,-1,-1,-1,-1,-1,-1,-1,-1,-1,-1,-1,-1,-1,-1,-1,-1,-1,-1,-1,-1,-1,-1,-1,-1,-1,-1,-1,-1,-1],"split_conditions":[2.0654447E0,2.6836234E-1,NaN,NaN,2.63E2,2.268393E0,3.46E2,2.9649289E0,1.0561438E-1,NaN,5.847464E-1,-1.02129154E-1,-1.0179997E-1,7.90137E-3,1.7607509E-1,-5.549793E-1,7.713287E-1,8.181818E-1,-5.2158034E-1,-2.7653852E-1,4.4137735E-2,NaN,NaN,1.5747696E0,8.555667E-1,NaN,NaN,-8.6254954E-1,NaN,-1.1516633E-2,4.6336306E-3,8.431376E-1,5.5E0,NaN,1.1397344E0,1.2876064E-1,NaN,3.911055E-2,1.3793674E0,NaN,3.9343066E0,-9.0408045E-1,-9.0408045E-1,5.6209165E-1,-5.800786E-1,2.4E1,2.2911755E-2,1.4188937E0,2.2758942E-2,-2.4155457E-2,NaN,2.9712932E-2,NaN,NaN,NaN,3.3382986E-2,6.93E3,6.430126E-3,4.615221E-2,-1.799937E-3,1.4091638E-2,-6.4062746E-4,4.005997E-2,2.8049327E-2,-2.5923713E-3,-4.6959557E-3,-7.8520905E-3,-9.275925E-3,-4.1527077E-4,-6.7366553E-3,1.898268E-3,1.6768076E-2,7.264666E-2,-3.8845215E-2,2.4450319E-2,4.0339418E-2,1.5803883E-2,1.8840935E-2,1.0458712E-3,5.6021344E-2,-1.92526E-4,-2.4492403E-2,-2.189133E-3,5.7592984E-2,1.1701516E-2,2.9826954E-2,1.6881616E-3,-6.9487724E-4,-4.2246707E-2,-1.1397562E-3,-6.095679E-3,-1.3124365E-3,-1.7866107E-2,5.699467E-2,1.668115E-2,-2.2734539E-3,2.8384715E-2,3.666768E-3,-5.105858E-3,-2.6287183E-2,-6.2814937E-3,2.2425293E-3,-7.4319565E-3,8.445031E-3,-2.0862564E-3],"split_indices":[28,28,34,31,1,8,1,15,28,33,20,0,20,3,6,20,20,15,6,20,3,32,31,23,12,33,33,6,33,0,3,18,2,33,10,14,30,3,8,31,15,19,19,5,6,1,5,23,0,0,31,4,31,31,31,0,1,0,0,0,0,0,0,0,0,0,0,0,0,0,0,0,0,0,0,0,0,0,0,0,0,0,0,0,0,0,0,0,0,0,0,0,0,0,0,0,0,0,0,0,0,0,0,0,0],"split_type":[0,0,1,1,0,0,0,0,0,1,0,0,0,0,0,0,0,0,0,0,0,1,1,0,0,1,1,0,1,0,0,0,0,1,0,0,1,0,0,1,0,0,0,0,0,0,0,0,0,0,1,0,1,1,1,0,0,0,0,0,0,0,0,0,0,0,0,0,0,0,0,0,0,0,0,0,0,0,0,0,0,0,0,0,0,0,0,0,0,0,0,0,0,0,0,0,0,0,0,0,0,0,0,0,0],"sum_hessian":[2.602E3,2.174E3,4.28E2,1.28E3,8.94E2,8.6E1,3.42E2,2.3E2,1.05E3,3.82E2,5.12E2,5E0,8.1E1,1.02E2,2.4E2,2.6E1,2.04E2,5.61E2,4.89E2,6.3E1,3.19E2,4.22E2,9E1,2.5E1,5.6E1,5E0,9.7E1,2.3E2,1E1,4E0,2.2E1,1.99E2,5E0,1.5E1,5.46E2,9.2E1,3.97E2,1.1E1,5.2E1,1.12E2,2.07E2,6.3E1,3.59E2,1.5E1,7.5E1,1.9E1,6E0,5E1,6E0,1E0,4E0,2.1E1,7.6E1,3E1,2E2,2E0,8E0,8E0,1.4E1,1.78E2,2.1E1,1E0,4E0,3E0,1.2E1,4.83E2,6.3E1,7.7E1,1.5E1,7.3E1,3.24E2,2E0,9E0,3E0,4.9E1,2.3E1,8.9E1,2E1,1.87E2,7E0,5.6E1,2.5E1,3.34E2,1.2E1,3E0,1.5E1,6E1,1E0,1.8E1,1E0,5E0,2.5E1,2.5E1,1E0,3E0,1.1E1,1E1,2.4E1,5.2E1,8E0,2.2E1,5.5E1,1.45E2,4E0,4E0],"tree_param":{"num_deleted":"0","num_feature":"35","num_nodes":"105","size_leaf_vector":"1"}},{"base_weights":[1.8234731E-4,5.4735253E-3,-8.74568E-3,2.4879225E-2,1.0583713E-3,-7.2449497E-3,-7.614793E-2,-1.5283956E-3,7.9310365E-2,1.1632686E-2,-7.0276232E-3,-1.2391943E-2,7.353575E-3,-7.659686E-2,-4.1980837E-3,-9.738043E-3,1.7834148E-1,7.020205E-2,6.859239E-2,-1.0105629E-2,2.0790812E-2,-2.2584747E-3,-3.3590805E-2,-1.484241E-2,7.987462E-3,6.080891E-2,-4.155636E-3,-5.8225514E-3,4.480153E-3,-2.7526556E-2,2.4412615E-2,3.6283456E-2,6.412384E-2,7.542134E-2,-1.3240712E-2,4.2512827E-2,-1.19356E-2,-1.468568E-2,2.8588625E-2,-1.1511535E-2,1.1380682E-2,-4.3834783E-2,-3.0306146E-2,5.1927745E-2,-1.5571152E-2,3.2340817E-2,-6.8924287E-3,-5.6166E-2,9.686523E-2,-6.7092036E-3,2.6427707E-2,1.158194E-3,1.5269035E-3,-3.6231767E-2,-6.126638E-3,6.574501E-2,3.6159593E-3,2.0229142E-2,-3.9015878E-3,3.4457084E-2,1.6026786E-2,4.05919E-2,-9.321418E-4,-1.7315272E-2,-3.0498886E-3,-7.409903E-3,8.998713E-3,-3.5659831E-3,1.06767705E-2,1.89208E-2,-3.7994715E-3,9.770723E-3,-1.6945567E-3,-1.8777091E-2,-6.1269775E-3,-8.684046E-3,2.1069394E-2,-9.664347E-3,-3.8397813E-3,2.6242087E-2,5.163025E-3,7.242228E-3,-4.110776E-3,3.3227392E-4,-3.1223575E-2,3.704381E-2,8.997632E-3,4.215379E-3,-3.3487102E-3,7.453285E-4,9.528591E-3,5.739718E-4,-5.278448E-5],"categories":[0,0,0,0,0,0,0,0,0,0,0,0,0],"categories_nodes":[1,6,12,14,20,35,42,43,44,45,46,50,51],"categories_segments":[0,1,2,3,4,5,6,7,8,9,10,11,12],"categories_sizes":[1,1,1,1,1,1,1,1,1,1,1,1,1],"default_left":[0,1,0,0,0,0,1,0,0,0,0,0,1,0,1,0,0,0,0,0,1,0,0,0,0,0,0,0,0,0,0,0,0,0,0,1,0,0,0,0,0,0,1,1,1,1,1,0,0,0,1,1,0,0,0,0,0,0,0,0,0,0,0,0,0,0,0,0,0,0,0,0,0,0,0,0,0,0,0,0,0,0,0,0,0,0,0,0,0,0,0,0,0],"id":2,"left_children":[1,3,5,7,9,11,13,15,17,19,21,23,25,-1,27,29,31,-1,33,35,37,39,41,43,45,47,49,-1,51,53,55,57,-1,59,-1,61,63,65,67,69,71,-1,73,75,77,79,81,83,85,87,89,91,-1,-1,-1,-1,-1,-1,-1,-1,-1,-1,-1,-1,-1,-1,-1,-1,-1,-1,-1,-1,-1,-1,-1,-1,-1,-1,-1,-1,-1,-1,-1,-1,-1,-1,-1,-1,-1,-1,-1,-1,-1],"loss_changes":[1.2301301E-1,1.4005908E-1,9.7465165E-2,4.3565243E-1,1.14058375E-1,7.1397565E-2,2.6965192E-1,3.044537E-1,1.4809418E-1,1.1527964E-1,9.569705E-2,3.517577E-2,1.5282941E-1,0E0,2.1989471E-3,1.2034741E-1,3.7510157E-2,0E0,7.569128E-2,1.7069334E-2,1.1301193E-1,8.115394E-2,3.8076535E-2,3.1317264E-2,2.7763428E-2,1.9101867E-1,1.6187118E-2,0E0,1.6378166E-5,8.365334E-2,1.6102374E-1,5.482545E-3,0E0,7.1074426E-2,0E0,2.5819834E-2,1.2940606E-2,3.385139E-2,9.5062375E-2,3.3744145E-2,9.399757E-2,0E0,3.4775563E-2,1.2395022E-2,2.8236508E-2,2.2686366E-2,1.0475153E-2,3.030065E-2,5.680877E-2,1.7722294E-2,1.9646054E-3,3.3586448E-6,0E0,0E0,0E0,0E0,0E0,0E0,0E0,0E0,0E0,0E0,0E0,0E0,0E0,0E0,0E0,0E0,0E0,0E0,0E0,0E0,0E0,0E0,0E0,0E0,0E0,0E0,0E0,0E0,0E0,0E0,0E0,0E0,0E0,0E0,0E0,0E0,0E0,0E0,0E0,0E0,0E0],"parents":[2147483647,0,0,1,1,2,2,3,3,4,4,5,5,6,6,7,7,8,8,9,9,10,10,11,11,12,12,14,14,15,15,16,16,18,18,19,19,20,20,21,21,22,22,23,23,24,24,25,25,26,26,28,28,29,29,30,30,31,31,33,33,35,35,36,36,37,37,38,38,39,39,40,40,42,42,43,43,44,44,45,45,46,46,47,47,48,48,49,49,50,50,51,51],"right_children":[2,4,6,8,10,12,14,16,18,20,22,24,26,-1,28,30,32,-1,34,36,38,40,42,44,46,48,50,-1,52,54,56,58,-1,60,-1,62,64,66,68,70,72,-1,74,76,78,80,82,84,86,88,90,92,-1,-1,-1,-1,-1,-1,-1,-1,-1,-1,-1,-1,-1,-1,-1,-1,-1,-1,-1,-1,-1,-1,-1,-1,-1,-1,-1,-1,-1,-1,-1,-1,-1,-1,-1,-1,-1,-1,-1,-1,-1],"split_conditions":[1.5694983E-1,NaN,3.801931E-1,7.5E-1,4.637615E-2,1.7813836E-1,NaN,1.2687933E-1,2.1289816E-1,1.5695709E-1,3.1990561E0,3.0123153E-1,NaN,-7.659686E-2,NaN,7.5333335E-2,-5.4586476E-1,7.020205E-2,8.294314E-1,1.8019906E-1,NaN,4.3617728E-1,2.6E1,1.9928571E0,9.256723E-1,1.0397365E1,8.8638663E-1,-5.8225514E-3,1.6794E-1,2.4222634E-3,6.533874E-1,4.6E1,6.412384E-2,6.9559E-1,-1.3240712E-2,NaN,1.8456078E-1,3.8958332E1,3.8731867E-1,-6.7378473E-1,7.3059773E-1,-4.3834783E-2,NaN,NaN,NaN,NaN,NaN,4.2026054E-2,3.257195E-1,3.4778864E0,NaN,NaN,1.5269035E-3,-3.6231767E-2,-6.126638E-3,6.574501E-2,3.6159593E-3,2.0229142E-2,-3.9015878E-3,3.4457084E-2,1.6026786E-2,4.05919E-2,-9.321418E-4,-1.7315272E-2,-3.0498886E-3,-7.409903E-3,8.998713E-3,-3.5659831E-3,1.06767705E-2,1.89208E-2,-3.7994715E-3,9.770723E-3,-1.6945567E-3,-1.8777091E-2,-6.1269775E-3,-8.684046E-3,2.1069394E-2,-9.664347E-3,-3.8397813E-3,2.6242087E-2,5.163025E-3,7.242228E-3,-4.110776E-3,3.3227392E-4,-3.1223575E-2,3.704381E-2,8.997632E-3,4.215379E-3,-3.3487102E-3,7.453285E-4,9.528591E-3,5.739718E-4,-5.278448E-5],"split_indices":[3,31,20,25,14,19,34,14,24,28,28,6,33,0,31,19,6,0,25,25,30,28,1,17,3,9,21,0,3,4,21,0,0,12,0,33,25,17,12,20,28,0,33,30,34,32,31,11,19,22,30,29,0,0,0,0,0,0,0,0,0,0,0,0,0,0,0,0,0,0,0,0,0,0,0,0,0,0,0,0,0,0,0,0,0,0,0,0,0,0,0,0,0],"split_type":[0,1,0,0,0,0,1,0,0,0,0,0,1,0,1,0,0,0,0,0,1,0,0,0,0,0,0,0,0,0,0,0,0,0,0,1,0,0,0,0,0,0,1,1,1,1,1,0,0,0,1,1,0,0,0,0,0,0,0,0,0,0,0,0,0,0,0,0,0,0,0,0,0,0,0,0,0,0,0,0,0,0,0,0,0,0,0,0,0,0,0,0,0],"sum_hessian":[2.602E3,1.634E3,9.68E2,3.02E2,1.332E3,9.48E2,2E1,2.04E2,9.8E1,5.77E2,7.55E2,7.01E2,2.47E2,5E0,1.5E1,1.96E2,8E0,5E0,9.3E1,1.71E2,4.06E2,6.41E2,1.14E2,6.26E2,7.5E1,4.3E1,2.04E2,5E0,1E1,1.29E2,6.7E1,2E0,6E0,8.8E1,5E0,5E0,1.66E2,7.3E1,3.33E2,3.82E2,2.59E2,2E0,1.12E2,6E0,6.2E2,2.8E1,4.7E1,1E1,3.3E1,1.89E2,1.5E1,2E0,8E0,8E0,1.21E2,3E0,6.4E1,1E0,1E0,3E1,5.8E1,1E0,4E0,5E0,1.61E2,6E1,1.3E1,4.9E1,2.84E2,5E0,3.77E2,1.15E2,1.44E2,2.5E1,8.7E1,1E0,5E0,8.7E1,5.33E2,5E0,2.3E1,8E0,3.9E1,5E0,5E0,2.3E1,1E1,3.3E1,1.56E2,3E0,1.2E1,1E0,1E0],"tree_param":{"num_deleted":"0","num_feature":"35","num_nodes":"93","size_leaf_vector":"1"}},{"base_weights":[1.9552231E-4,2.6261657E-3,-1.2128126E-2,-2.9719283E-3,1.3530547E-2,-4.2464487E-2,-4.398122E-3,-3.4577444E-3,5.054696E-2,3.1912245E-2,4.7170343E-3,-5.7447646E-2,-3.1042164E-2,5.4236114E-2,-5.4259542E-3,-1.27792675E-2,-1.6544588E-3,2.9399127E-2,3.301084E-2,7.37343E-2,2.1562252E-2,-1.363998E-3,2.706479E-2,-5.1040947E-2,1.800965E-3,-1.7715573E-2,8.87041E-2,-2.5287786E-2,-3.4092567E-3,-1.0996082E-2,-2.1276077E-2,2.654678E-4,-1.5147269E-2,2.459991E-2,1.3013349E-2,1.4273493E-1,5.5920452E-2,9.16459E-2,1.3829959E-2,-4.1931965E-3,7.039996E-2,6.696919E-2,1.0647887E-2,-7.5335614E-2,-1.559181E-2,-2.2279274E-2,2.7273659E-2,4.116729E-3,1.0401891E-1,-4.947105E-2,-1.4725301E-2,6.755865E-3,-7.0662205E-3,-3.5245025E-3,1.216894E-2,-1.3295059E-4,-7.2980123E-3,2.3165569E-3,-1.3385912E-3,-1.34207485E-2,-2.9830195E-3,-4.2908295E-4,5.2033276E-3,3.7508449E-3,4.7235325E-2,3.4780525E-2,1.100789E-2,-1.0407377E-2,3.5250697E-2,-2.1688507E-3,7.6346057E-3,4.828937E-3,-3.3038678E-3,5.7555985E-2,1.1087067E-2,4.9156424E-2,1.2610576E-2,-8.067769E-3,5.3976495E-3,1.2155227E-2,-2.5517367E-2,-5.5561606E-3,6.8867095E-3,-3.8124267E-3,-2.631274E-2,3.6999893E-3,1.730274E-2,5.0968705E-3,3.820965E-2,5.4949503E-3,-2.5925275E-2,-1.2111324E-2,5.076603E-3,2.5620334E-2,-8.701178E-4,7.9100736E-4,-6.399855E-3],"categories":[0,0,0,0,0,0,0,0,0,0,0,0,0,0,0,0],"categories_nodes":[2,7,8,13,18,19,26,27,28,34,36,37,40,41,42,48],"categories_segments":[0,1,2,3,4,5,6,7,8,9,10,11,12,13,14,15],"categories_sizes":[1,1,1,1,1,1,1,1,1,1,1,1,1,1,1,1],"default_left":[0,0,1,0,0,0,0,1,1,0,0,0,0,1,0,0,0,0,1,1,0,0,0,0,0,0,1,1,1,0,0,0,0,0,1,0,1,1,0,0,1,1,1,0,0,0,0,0,1,0,0,0,0,0,0,0,0,0,0,0,0,0,0,0,0,0,0,0,0,0,0,0,0,0,0,0,0,0,0,0,0,0,0,0,0,0,0,0,0,0,0,0,0,0,0,0,0],"id":3,"left_children":[1,3,5,7,9,11,13,15,17,19,21,-1,23,25,27,29,31,-1,33,35,37,39,41,43,45,-1,47,49,51,53,55,57,59,-1,61,63,65,67,69,71,73,75,77,79,81,83,85,-1,87,89,91,93,95,-1,-1,-1,-1,-1,-1,-1,-1,-1,-1,-1,-1,-1,-1,-1,-1,-1,-1,-1,-1,-1,-1,-1,-1,-1,-1,-1,-1,-1,-1,-1,-1,-1,-1,-1,-1,-1,-1,-1,-1,-1,-1,-1,-1],"loss_changes":[7.8003146E-2,1.3281038E-1,1.0041383E-1,3.7563257E-2,1.1941087E-1,1.4215073E-1,2.0965576E-2,2.3949018E-2,7.5822175E-3,1.0186316E-1,6.7985624E-2,0E0,5.3951375E-2,2.8667003E-2,1.3452481E-2,3.266018E-3,3.098665E-2,0E0,9.709107E-3,4.978901E-2,1.0332064E-1,8.029079E-2,6.938332E-2,4.2747855E-2,2.0236071E-2,0E0,4.3142624E-3,7.1900208E-3,1.1497172E-2,7.962231E-3,2.4678074E-3,3.697605E-2,2.2497453E-2,0E0,5.878153E-4,1.5280068E-2,4.074929E-2,6.614222E-2,4.3003704E-2,5.2757587E-2,5.3836264E-2,6.800023E-2,2.1713331E-2,3.723696E-2,2.9088417E-3,9.531488E-3,6.556172E-3,0E0,5.963467E-3,2.4123497E-2,1.9350419E-2,6.2520035E-2,3.1479362E-2,0E0,0E0,0E0,0E0,0E0,0E0,0E0,0E0,0E0,0E0,0E0,0E0,0E0,0E0,0E0,0E0,0E0,0E0,0E0,0E0,0E0,0E0,0E0,0E0,0E0,0E0,0E0,0E0,0E0,0E0,0E0,0E0,0E0,0E0,0E0,0E0,0E0,0E0,0E0,0E0,0E0,0E0,0E0,0E0],"parents":[2147483647,0,0,1,1,2,2,3,3,4,4,5,5,6,6,7,7,8,8,9,9,10,10,12,12,13,13,14,14,15,15,16,16,18,18,19,19,20,20,21,21,22,22,23,23,24,24,26,26,27,27,28,28,29,29,30,30,31,31,32,32,34,34,35,35,36,36,37,37,38,38,39,39,40,40,41,41,42,42,43,43,44,44,45,45,46,46,48,48,49,49,50,50,51,51,52,52],"right_children":[2,4,6,8,10,12,14,16,18,20,22,-1,24,26,28,30,32,-1,34,36,38,40,42,44,46,-1,48,50,52,54,56,58,60,-1,62,64,66,68,70,72,74,76,78,80,82,84,86,-1,88,90,92,94,96,-1,-1,-1,-1,-1,-1,-1,-1,-1,-1,-1,-1,-1,-1,-1,-1,-1,-1,-1,-1,-1,-1,-1,-1,-1,-1,-1,-1,-1,-1,-1,-1,-1,-1,-1,-1,-1,-1,-1,-1,-1,-1,-1,-1],"split_conditions":[2.0654447E0,4.3895984E-1,NaN,1.1586133E0,6.2109554E-1,2.268393E0,7.90137E-3,NaN,NaN,4.948647E-2,1.0290008E-1,-5.7447646E-2,7.036793E-1,NaN,-8.6254954E-1,7.522828E-1,9.96597E-1,2.9399127E-2,NaN,NaN,8E1,4.3642733E-1,-5.258289E-1,1.7882455E-2,1.4308342E0,-1.7715573E-2,NaN,NaN,NaN,1.0367033E0,2.4979244E-1,9.8E1,2E1,2.459991E-2,NaN,-6.190284E-1,NaN,NaN,3.3841774E-1,2.4629826E-2,NaN,NaN,NaN,1.1826263E-2,3.3368176E-1,4E2,8.939997E0,4.116729E-3,NaN,8.2E1,8.2E1,1.1834147E-2,5.6E1,-3.5245025E-3,1.216894E-2,-1.3295059E-4,-7.2980123E-3,2.3165569E-3,-1.3385912E-3,-1.34207485E-2,-2.9830195E-3,-4.2908295E-4,5.2033276E-3,3.7508449E-3,4.7235325E-2,3.4780525E-2,1.100789E-2,-1.0407377E-2,3.5250697E-2,-2.1688507E-3,7.6346057E-3,4.828937E-3,-3.3038678E-3,5.7555985E-2,1.1087067E-2,4.9156424E-2,1.2610576E-2,-8.067769E-3,5.3976495E-3,1.2155227E-2,-2.5517367E-2,-5.5561606E-3,6.8867095E-3,-3.8124267E-3,-2.631274E-2,3.6999893E-3,1.730274E-2,5.0968705E-3,3.820965E-2,5.4949503E-3,-2.5925275E-2,-1.2111324E-2,5.076603E-3,2.5620334E-2,-8.701178E-4,7.9100736E-4,-6.399855E-3],"split_indices":[28,28,34,18,28,8,3,30,33,26,14,0,12,33,6,5,21,0,31,33,0,7,6,4,23,0,32,31,31,18,12,1,1,0,30,6,29,30,12,14,33,33,30,3,3,1,8,0,29,0,0,3,2,0,0,0,0,0,0,0,0,0,0,0,0,0,0,0,0,0,0,0,0,0,0,0,0,0,0,0,0,0,0,0,0,0,0,0,0,0,0,0,0,0,0,0,0],"split_type":[0,0,1,0,0,0,0,1,1,0,0,0,0,1,0,0,0,0,1,1,0,0,0,0,0,0,1,1,1,0,0,0,0,0,1,0,1,1,0,0,1,1,1,0,0,0,0,0,1,0,0,0,0,0,0,0,0,0,0,0,0,0,0,0,0,0,0,0,0,0,0,0,0,0,0,0,0,0,0,0,0,0,0,0,0,0,0,0,0,0,0,0,0,0,0,0,0],"sum_hessian":[2.602E3,2.174E3,4.28E2,1.437E3,7.37E2,8.6E1,3.42E2,1.425E3,1.2E1,2.38E2,4.99E2,5E0,8.1E1,5E0,3.37E2,2.3E2,1.195E3,2E0,1E1,4.6E1,1.92E2,3.93E2,1.06E2,5E1,3.1E1,1E0,4E0,3E1,3.07E2,1.92E2,3.8E1,1.047E3,1.48E2,2E0,8E0,8E0,3.8E1,1.8E1,1.74E2,3.79E2,1.4E1,3E1,7.6E1,2.9E1,2.1E1,1.6E1,1.5E1,1E0,3E0,8E0,2.2E1,8.1E1,2.26E2,1.9E2,2E0,5E0,3.3E1,4.06E2,6.41E2,2.1E1,1.27E2,2E0,6E0,1E0,7E0,8E0,3E1,3E0,1.5E1,6.2E1,1.12E2,9.5E1,2.84E2,2E0,1.2E1,5E0,2.5E1,1.2E1,6.4E1,2E0,2.7E1,2E1,1E0,1.5E1,1E0,1.1E1,4E0,1E0,2E0,3E0,5E0,1.2E1,1E1,8E0,7.3E1,1.35E2,9.1E1],"tree_param":{"num_deleted":"0","num_feature":"35","num_nodes":"97","size_leaf_vector":"1"}},{"base_weights":[2.3048534E-4,-1.0657883E-2,2.2357416E-3,-6.6371607E-3,-8.386361E-2,-1.0151745E-2,4.796272E-3,-1.817457E-2,8.044815E-4,-1.3663292E-1,1.6769225E-3,8.872603E-3,-1.2627552E-2,4.4382326E-3,1.3409181E-1,-8.944464E-3,-3.971783E-2,-4.9020745E-2,2.7763871E-3,-4.8422974E-2,-1.9412331E-2,-1.18811065E-2,1.6521174E-2,3.3314534E-2,-2.4519013E-3,-1.8451193E-2,-6.6934247E-3,3.1579426E-3,2.9289287E-2,-1.0097185E-2,5.5333022E-2,1.6306773E-2,-1.0054429E-2,-5.1148508E-2,-7.646276E-3,4.0965546E-3,-7.626215E-2,2.8982382E-2,5.1693805E-4,-7.951577E-5,-1.3502679E-2,-3.0299835E-4,6.6975355E-2,4.2739615E-2,-8.820265E-3,-8.249809E-3,-2.9569594E-2,-8.703099E-3,1.9990118E-2,-6.943251E-3,7.129242E-3,-2.629268E-3,4.72546E-2,-1.8552971E-3,-8.234984E-3,-1.7973958E-2,-4.8809205E-3,-4.5071966E-3,-3.4716225E-4,3.491143E-3,-6.888068E-4,-2.7059188E-2,-9.879735E-4,1.3177424E-2,-2.4669408E-3,-1.4007587E-3,2.9167044E-3,-4.3674363E-3,-1.0755047E-3,1.7715358E-3,-1.5626679E-3,2.4123145E-2,-2.045313E-3,1.7831268E-2,-1.1031311E-3,2.6345965E-3,-5.286115E-3,-1.4376052E-3,-4.3693935E-3,-5.281714E-3,-1.154508E-2,6.820465E-3,-2.9039956E-3,-5.132076E-3,2.9538278E-2,-2.458367E-3,1.445299E-2,1.48298E-3,1.062531E-2,2.7493285E-2,-2.5317601E-3,3.0471735E-2,8.162272E-3],"categories":[0,0,0,0],"categories_nodes":[0,2,14,52],"categories_segments":[0,1,2,3],"categories_sizes":[1,1,1,1],"default_left":[1,0,1,0,0,0,0,0,0,0,0,0,0,0,1,0,0,0,0,0,0,0,0,0,0,0,0,0,0,0,0,0,0,0,0,0,0,0,0,0,0,0,0,0,0,0,0,0,0,0,0,0,1,0,0,0,0,0,0,0,0,0,0,0,0,0,0,0,0,0,0,0,0,0,0,0,0,0,0,0,0,0,0,0,0,0,0,0,0,0,0,0,0],"id":4,"left_children":[1,3,5,7,9,11,13,15,17,19,21,23,25,27,29,31,33,35,37,-1,-1,39,-1,41,43,45,47,49,51,-1,-1,-1,53,55,57,59,61,63,65,-1,67,69,71,73,75,77,79,81,83,85,87,89,91,-1,-1,-1,-1,-1,-1,-1,-1,-1,-1,-1,-1,-1,-1,-1,-1,-1,-1,-1,-1,-1,-1,-1,-1,-1,-1,-1,-1,-1,-1,-1,-1,-1,-1,-1,-1,-1,-1,-1,-1],"loss_changes":[5.685765E-2,1.18651025E-1,6.979775E-2,3.306967E-2,9.502134E-2,1.7868973E-2,8.379685E-2,2.9670581E-2,2.3225E-2,1.2722671E-2,7.169514E-3,1.22605655E-2,1.1418954E-2,5.778182E-2,4.844003E-2,8.064464E-3,1.6105883E-2,1.3335323E-2,1.3425939E-2,0E0,0E0,1.4711113E-4,0E0,1.5862606E-2,9.298651E-3,1.8811129E-2,9.129388E-3,6.948834E-2,5.115924E-2,0E0,0E0,0E0,6.966425E-3,9.113371E-3,6.049824E-4,2.1953433E-4,5.8039464E-3,1.036809E-2,1.0070897E-2,0E0,2.1081418E-5,2.744101E-4,7.4881464E-3,3.3188127E-3,4.491996E-3,1.8735547E-3,7.854164E-3,5.0110426E-3,3.6616776E-2,3.4122005E-2,7.668939E-2,1.884826E-2,5.93044E-2,0E0,0E0,0E0,0E0,0E0,0E0,0E0,0E0,0E0,0E0,0E0,0E0,0E0,0E0,0E0,0E0,0E0,0E0,0E0,0E0,0E0,0E0,0E0,0E0,0E0,0E0,0E0,0E0,0E0,0E0,0E0,0E0,0E0,0E0,0E0,0E0,0E0,0E0,0E0,0E0],"parents":[2147483647,0,0,1,1,2,2,3,3,4,4,5,5,6,6,7,7,8,8,9,9,10,10,11,11,12,12,13,13,14,14,15,15,16,16,17,17,18,18,21,21,23,23,24,24,25,25,26,26,27,27,28,28,32,32,33,33,34,34,35,35,36,36,37,37,38,38,40,40,41,41,42,42,43,43,44,44,45,45,46,46,47,47,48,48,49,49,50,50,51,51,52,52],"right_children":[2,4,6,8,10,12,14,16,18,20,22,24,26,28,30,32,34,36,38,-1,-1,40,-1,42,44,46,48,50,52,-1,-1,-1,54,56,58,60,62,64,66,-1,68,70,72,74,76,78,80,82,84,86,88,90,92,-1,-1,-1,-1,-1,-1,-1,-1,-1,-1,-1,-1,-1,-1,-1,-1,-1,-1,-1,-1,-1,-1,-1,-1,-1,-1,-1,-1,-1,-1,-1,-1,-1,-1,-1,-1,-1,-1,-1,-1],"split_conditions":[NaN,2.8389657E-1,NaN,3.0895644E-1,1.76E2,-5.6034887E-1,8.575388E-1,1.1267953E0,5.5E0,4.12E2,7.625446E1,-1.8668918E-1,3.0334324E-2,1.5250595E-1,NaN,7.263538E-2,7.133045E-1,-1.06859974E-4,1.7135599E-4,-4.8422974E-2,-1.9412331E-2,2.1908417E-1,1.6521174E-2,4.8327303E-1,2.4820674E-2,3.0231082E-1,1.1032263E0,3.301837E-1,4.72552E-1,-1.0097185E-2,5.5333022E-2,1.6306773E-2,1.4547585E-1,3.8501745E-1,1.475791E0,2.4E1,4.26E2,3E1,3.7969655E-1,-7.951577E-5,3.22E2,8.1291275E0,8.526299E0,5.2E1,3.5278746E-3,1.8252832E-1,-1.9685096E-1,3.112694E-2,2.7775583E-1,3.110675E-1,3.3920264E-1,2.25E2,NaN,-1.8552971E-3,-8.234984E-3,-1.7973958E-2,-4.8809205E-3,-4.5071966E-3,-3.4716225E-4,3.491143E-3,-6.888068E-4,-2.7059188E-2,-9.879735E-4,1.3177424E-2,-2.4669408E-3,-1.4007587E-3,2.9167044E-3,-4.3674363E-3,-1.0755047E-3,1.7715358E-3,-1.5626679E-3,2.4123145E-2,-2.045313E-3,1.7831268E-2,-1.1031311E-3,2.6345965E-3,-5.286115E-3,-1.4376052E-3,-4.3693935E-3,-5.281714E-3,-1.154508E-2,6.820465E-3,-2.9039956E-3,-5.132076E-3,2.9538278E-2,-2.458367E-3,1.445299E-2,1.48298E-3,1.062531E-2,2.7493285E-2,-2.5317601E-3,3.0471735E-2,8.162272E-3],"split_indices":[34,11,30,18,0,6,24,28,2,1,9,19,4,14,32,10,25,11,5,0,0,5,0,28,14,28,10,12,24,0,0,0,7,5,28,1,0,1,5,0,1,8,8,1,3,28,19,4,28,7,6,1,33,0,0,0,0,0,0,0,0,0,0,0,0,0,0,0,0,0,0,0,0,0,0,0,0,0,0,0,0,0,0,0,0,0,0,0,0,0,0,0,0],"split_type":[1,0,1,0,0,0,0,0,0,0,0,0,0,0,1,0,0,0,0,0,0,0,0,0,0,0,0,0,0,0,0,0,0,0,0,0,0,0,0,0,0,0,0,0,0,0,0,0,0,0,0,0,1,0,0,0,0,0,0,0,0,0,0,0,0,0,0,0,0,0,0,0,0,0,0,0,0,0,0,0,0,0,0,0,0,0,0,0,0,0,0,0,0],"sum_hessian":[2.602E3,4.04E2,2.198E3,3.84E2,2E1,3.76E2,1.822E3,1.5E2,2.34E2,1.2E1,8E0,4.3E1,3.33E2,1.818E3,4E0,1.06E2,4.4E1,8E0,2.26E2,8E0,4E0,7E0,1E0,1.3E1,3E1,1.67E2,1.66E2,1.73E3,8.8E1,1E0,3E0,1E0,1.05E2,3.2E1,1.2E1,3E0,5E0,1.7E1,2.09E2,1E0,6E0,7E0,6E0,3E0,2.7E1,8.8E1,7.9E1,1.55E2,1.1E1,4.88E2,1.242E3,3.2E1,5.6E1,8.7E1,1.8E1,2.5E1,7E0,5E0,7E0,1E0,2E0,4E0,1E0,1.2E1,5E0,1.34E2,7.5E1,5E0,1E0,3E0,4E0,5E0,1E0,2E0,1E0,9E0,1.8E1,5.8E1,3E1,3.5E1,4.4E1,4E0,1.51E2,8E0,3E0,4.78E2,1E1,1.154E3,8.8E1,1E0,3.1E1,1.4E1,4.2E1],"tree_param":{"num_deleted":"0","num_feature":"35","num_nodes":"93","size_leaf_vector":"1"}},{"base_weights":[1.9347151E-4,-1.1897785E-2,1.7559177E-3,-7.804096E-3,-3.20464E-2,1.1763626E-2,-5.903273E-4,-1.0861335E-2,3.4557126E-2,-8.904186E-2,-1.9070078E-2,7.981358E-4,5.796583E-2,7.5693275E-3,-5.2095368E-3,-8.532771E-3,-3.9945867E-2,9.538956E-2,1.4708063E-2,1.7082995E-3,-3.4564354E-2,3.0161683E-2,-2.5046097E-2,1.4750493E-2,-8.682702E-3,9.688311E-2,1.2734743E-2,4.894147E-3,4.5883417E-2,8.6741644E-4,-1.1048429E-2,-7.089247E-3,-5.0825745E-2,-7.418998E-2,-2.3702292E-2,3.801498E-2,2.1127649E-4,-2.9636312E-2,4.2636752E-2,4.550189E-3,-3.7814542E-3,-5.5287764E-3,1.6739475E-2,-6.427559E-2,-8.740005E-3,1.5492277E-1,9.63898E-3,-4.7807824E-2,-4.358169E-3,2.1118927E-1,6.6460446E-2,2.6420185E-2,-3.733958E-2,-1.6947691E-3,1.6136337E-2,1.15685776E-1,2.1950787E-2,1.775571E-2,-3.797107E-3,-1.1651209E-2,8.3034836E-2,1.1920065E-3,-3.275858E-3,-3.0015E-2,-7.784012E-3,-1.1870904E-3,-2.7227702E-2,-1.061241E-2,-5.509247E-3,-1.7451996E-2,-3.6882746E-3,-6.417164E-3,1.5994195E-2,1.6131928E-3,-4.1011423E-3,-2.1637415E-3,-2.5431814E-2,-6.597155E-3,-1.237998E-3,6.402595E-2,1.3435435E-2,1.9597106E-3,3.40892E-2,-2.1314729E-2,-2.6775375E-3,-5.2471756E-4,-2.191901E-2,7.347865E-2,1.862016E-2,-1.4130152E-3,2.7898302E-2,2.6720136E-2,5.0604567E-3,-1.5366734E-2,-7.816667E-3,-1.8162078E-3,3.8895204E-3,1.4392502E-2,2.298593E-3,4.284034E-2,1.6376141E-2,1.8339664E-2,9.2340517E-4,3.1791842E-3,3.687381E-2,5.0386824E-3,-2.2051684E-3,-5.2333856E-3,-1.5834708E-3,5.4303203E-3,2.9593723E-2],"categories":[0,0,0,0,0,0,0,0,0,0,0,0,0,0,0],"categories_nodes":[2,4,8,10,16,28,29,32,34,37,38,43,54,56,60],"categories_segments":[0,1,2,3,4,5,6,7,8,9,10,11,12,13,14],"categories_sizes":[1,1,1,1,1,1,1,1,1,1,1,1,1,1,1],"default_left":[0,0,1,0,1,0,0,0,1,0,1,0,0,0,0,0,1,0,0,0,0,0,0,0,0,0,0,0,1,1,0,0,1,0,1,0,0,1,1,0,0,0,0,1,0,0,0,0,0,0,0,0,0,0,1,0,1,0,0,0,1,0,0,0,0,0,0,0,0,0,0,0,0,0,0,0,0,0,0,0,0,0,0,0,0,0,0,0,0,0,0,0,0,0,0,0,0,0,0,0,0,0,0,0,0,0,0,0,0,0,0],"id":5,"left_children":[1,3,5,7,9,11,13,15,17,19,21,23,25,27,29,31,33,35,37,39,-1,41,43,45,47,49,51,53,55,57,59,61,63,65,67,-1,-1,69,71,-1,-1,73,-1,75,77,79,81,83,85,87,89,91,93,95,97,99,101,103,105,107,109,-1,-1,-1,-1,-1,-1,-1,-1,-1,-1,-1,-1,-1,-1,-1,-1,-1,-1,-1,-1,-1,-1,-1,-1,-1,-1,-1,-1,-1,-1,-1,-1,-1,-1,-1,-1,-1,-1,-1,-1,-1,-1,-1,-1,-1,-1,-1,-1,-1,-1],"loss_changes":[4.9196605E-2,2.4329588E-2,5.4153055E-2,3.262292E-2,3.5281535E-2,2.2185758E-1,7.04842E-2,1.5439123E-2,1.912394E-2,2.1573365E-2,1.311225E-2,4.7087487E-2,1.46629E-1,6.906347E-2,4.2375896E-2,1.2887737E-2,7.697724E-3,1.1775587E-2,1.860232E-2,7.6910324E-4,0E0,4.8833997E-3,2.3746064E-2,1.01681605E-1,3.5661593E-2,1.4245161E-1,2.8398091E-2,4.6916097E-2,7.0964985E-2,4.623006E-2,3.550476E-2,8.984059E-3,5.976597E-3,5.459329E-3,1.6038911E-4,0E0,0E0,2.2541462E-3,7.293122E-3,0E0,0E0,3.3989252E-4,0E0,1.2254506E-2,1.6208694E-3,2.2655785E-2,4.4486366E-2,1.8343225E-2,3.4290023E-2,3.0079782E-2,7.030994E-2,1.76465E-2,7.526204E-5,2.5640884E-2,6.276852E-2,1.0428712E-2,2.4953544E-2,9.429785E-2,3.3784077E-2,2.2282206E-2,2.269106E-3,0E0,0E0,0E0,0E0,0E0,0E0,0E0,0E0,0E0,0E0,0E0,0E0,0E0,0E0,0E0,0E0,0E0,0E0,0E0,0E0,0E0,0E0,0E0,0E0,0E0,0E0,0E0,0E0,0E0,0E0,0E0,0E0,0E0,0E0,0E0,0E0,0E0,0E0,0E0,0E0,0E0,0E0,0E0,0E0,0E0,0E0,0E0,0E0,0E0,0E0],"parents":[2147483647,0,0,1,1,2,2,3,3,4,4,5,5,6,6,7,7,8,8,9,9,10,10,11,11,12,12,13,13,14,14,15,15,16,16,17,17,18,18,19,19,21,21,22,22,23,23,24,24,25,25,26,26,27,27,28,28,29,29,30,30,31,31,32,32,33,33,34,34,37,37,38,38,41,41,43,43,44,44,45,45,46,46,47,47,48,48,49,49,50,50,51,51,52,52,53,53,54,54,55,55,56,56,57,57,58,58,59,59,60,60],"right_children":[2,4,6,8,10,12,14,16,18,20,22,24,26,28,30,32,34,36,38,40,-1,42,44,46,48,50,52,54,56,58,60,62,64,66,68,-1,-1,70,72,-1,-1,74,-1,76,78,80,82,84,86,88,90,92,94,96,98,100,102,104,106,108,110,-1,-1,-1,-1,-1,-1,-1,-1,-1,-1,-1,-1,-1,-1,-1,-1,-1,-1,-1,-1,-1,-1,-1,-1,-1,-1,-1,-1,-1,-1,-1,-1,-1,-1,-1,-1,-1,-1,-1,-1,-1,-1,-1,-1,-1,-1,-1,-1,-1,-1],"split_conditions":[7.831081E0,1.0991577E-1,NaN,4.400497E-2,NaN,5.523088E-1,4.467452E-2,6.850557E-1,NaN,6.5E1,NaN,1.1166667E1,-5.08798E-1,3.2268566E-1,3.3E2,4.2026054E-2,NaN,5.7E2,2.4E1,2.4E1,-3.4564354E-2,6.5E1,2.997614E-1,6.998119E-9,-6.809242E-1,1.5129226E-3,3.7909377E-1,3.337714E-1,NaN,NaN,4.7465927E2,9.335516E-1,NaN,3.576491E-2,NaN,3.801498E-2,2.1127649E-4,NaN,NaN,4.550189E-3,-3.7814542E-3,2.4E1,1.6739475E-2,NaN,1.31318245E1,4.6E1,1.2957535E0,1.2950981E2,5.042648E1,8.119581E-1,9.6308716E-2,1.5322047E-3,3.42023E-4,5.6E1,NaN,-2.7058825E-1,NaN,4.2132714E-1,2.6392E1,1.4385E1,NaN,1.1920065E-3,-3.275858E-3,-3.0015E-2,-7.784012E-3,-1.1870904E-3,-2.7227702E-2,-1.061241E-2,-5.509247E-3,-1.7451996E-2,-3.6882746E-3,-6.417164E-3,1.5994195E-2,1.6131928E-3,-4.1011423E-3,-2.1637415E-3,-2.5431814E-2,-6.597155E-3,-1.237998E-3,6.402595E-2,1.3435435E-2,1.9597106E-3,3.40892E-2,-2.1314729E-2,-2.6775375E-3,-5.2471756E-4,-2.191901E-2,7.347865E-2,1.862016E-2,-1.4130152E-3,2.7898302E-2,2.6720136E-2,5.0604567E-3,-1.5366734E-2,-7.816667E-3,-1.8162078E-3,3.8895204E-3,1.4392502E-2,2.298593E-3,4.284034E-2,1.6376141E-2,1.8339664E-2,9.2340517E-4,3.1791842E-3,3.687381E-2,5.0386824E-3,-2.2051684E-3,-5.2333856E-3,-1.5834708E-3,5.4303203E-3,2.9593723E-2],"split_indices":[9,11,31,11,34,20,14,25,31,0,32,22,6,26,1,11,33,0,0,0,0,0,11,5,7,4,18,28,32,33,15,27,33,3,29,0,0,33,30,0,0,0,0,29,13,0,16,9,16,25,14,4,3,2,33,19,29,6,13,17,29,0,0,0,0,0,0,0,0,0,0,0,0,0,0,0,0,0,0,0,0,0,0,0,0,0,0,0,0,0,0,0,0,0,0,0,0,0,0,0,0,0,0,0,0,0,0,0,0,0,0],"split_type":[0,0,1,0,1,0,0,0,1,0,1,0,0,0,0,0,1,0,0,0,0,0,0,0,0,0,0,0,1,1,0,0,1,0,1,0,0,1,1,0,0,0,0,1,0,0,0,0,0,0,0,0,0,0,1,0,1,0,0,0,1,0,0,0,0,0,0,0,0,0,0,0,0,0,0,0,0,0,0,0,0,0,0,0,0,0,0,0,0,0,0,0,0,0,0,0,0,0,0,0,0,0,0,0,0,0,0,0,0,0,0],"sum_hessian":[2.602E3,2.97E2,2.305E3,2.48E2,4.9E1,4.37E2,1.868E3,2.32E2,1.6E1,8E0,4.1E1,3.54E2,8.3E1,6.75E2,1.193E3,2.16E2,1.6E1,3E0,1.3E1,2E0,6E0,4E0,3.7E1,1.43E2,2.11E2,4.4E1,3.9E1,6.32E2,4.3E1,5.85E2,6.08E2,2.1E2,6E0,4E0,1.2E1,2E0,1E0,5E0,8E0,1E0,1E0,2E0,2E0,1E1,2.7E1,4E0,1.39E2,2E1,1.91E2,8E0,3.6E1,3.1E1,8E0,3.99E2,2.33E2,1E1,3.3E1,1.26E2,4.59E2,6.05E2,3E0,5.4E1,1.56E2,1E0,5E0,1E0,3E0,2E0,1E1,1E0,4E0,1E0,7E0,1E0,1E0,3E0,7E0,6E0,2.1E1,2E0,2E0,1.36E2,3E0,1.2E1,8E0,1.85E2,6E0,6E0,2E0,1E1,2.6E1,3E0,2.8E1,2E0,6E0,3.08E2,9.1E1,4.8E1,1.85E2,6E0,4E0,1E1,2.3E1,1.19E2,7E0,6.7E1,3.92E2,3.16E2,2.89E2,1E0,2E0],"tree_param":{"num_deleted":"0","num_feature":"35","num_nodes":"111","size_leaf_vector":"1"}},{"base_weights":[2.3142011E-4,-2.081319E-2,7.361349E-4,-2.6836518E-2,2.9486282E-2,5.7380046E-3,-1.7608125E-3,-1.677074E-2,-4.8349984E-2,-1.3559194E-2,4.946643E-2,2.9425979E-2,5.9794437E-4,-1.0465271E-2,6.9932954E-4,-3.9206613E-2,-9.716107E-3,-1.06875874E-1,-2.8174728E-2,8.9392095E-4,5.8167823E-2,5.970905E-2,5.209603E-3,3.0136075E-2,-1.9795217E-3,-2.3508238E-2,-7.2239256E-3,1.1127162E-2,-1.5611551E-3,-4.735438E-3,-1.4486018E-2,-3.681786E-3,-2.0352889E-2,-4.0643318E-3,-4.0040795E-2,-9.89249E-3,-1.6278584E-2,4.0248064E-3,1.9800533E-2,6.938575E-2,-3.3146333E-2,2.7695792E-2,-3.1062447E-2,-1.9789673E-2,4.277992E-2,-2.4074719E-3,6.68804E-2,-1.5945662E-2,-9.361494E-2,-3.6726987E-3,-1.4542562E-2,1.3622583E-2,-1.3701293E-1,-1.0624044E-2,5.022061E-4,3.796842E-3,-3.31821E-3,-1.7584734E-2,-1.6011484E-3,-4.6885462E-4,-5.672748E-3,4.49017E-2,1.6332904E-2,-1.2812229E-2,-4.5895963E-3,-3.3413135E-3,1.3436903E-2,-9.5811073E-4,-2.3869982E-2,-9.310501E-3,6.482352E-4,3.2351585E-3,2.0383622E-2,2.8510357E-3,-1.2905861E-3,2.794456E-2,8.122453E-3,-6.6198385E-3,6.5278965E-3,-8.190251E-3,-3.0035147E-2,-1.3419832E-3,7.047583E-3,-2.9486183E-3,-1.0927331E-2,5.4661825E-2,3.4122646E-3,-5.3225305E-2,-2.369797E-3,-1.3758988E-3,-6.0491E-3,9.585448E-4,-1.7522423E-3],"categories":[0,0,0,0,0,0,0,0,0,0,0,0,0],"categories_nodes":[4,5,7,8,10,13,14,20,23,31,32,36,46],"categories_segments":[0,1,2,3,4,5,6,7,8,9,10,11,12],"categories_sizes":[1,1,1,1,1,1,1,1,1,1,1,1,1],"default_left":[0,0,0,0,1,1,0,1,1,0,1,0,0,1,1,0,0,0,0,0,1,0,0,1,0,0,0,0,0,0,0,1,1,0,0,0,1,0,0,0,0,0,0,0,0,0,1,0,0,0,0,0,0,0,0,0,0,0,0,0,0,0,0,0,0,0,0,0,0,0,0,0,0,0,0,0,0,0,0,0,0,0,0,0,0,0,0,0,0,0,0,0,0],"id":6,"left_children":[1,3,5,7,9,11,13,15,17,-1,19,21,23,25,27,29,31,33,35,-1,37,39,41,43,45,47,49,51,53,-1,-1,55,57,-1,-1,-1,59,-1,-1,61,63,65,67,69,71,73,75,77,79,81,83,85,87,89,91,-1,-1,-1,-1,-1,-1,-1,-1,-1,-1,-1,-1,-1,-1,-1,-1,-1,-1,-1,-1,-1,-1,-1,-1,-1,-1,-1,-1,-1,-1,-1,-1,-1,-1,-1,-1,-1,-1],"loss_changes":[2.7663153E-2,1.9272491E-2,3.177066E-2,1.1099376E-2,1.2681076E-2,1.0311111E-1,3.6347225E-2,5.7918606E-3,1.7061975E-2,0E0,2.2536693E-3,1.10424206E-1,5.3124726E-2,1.5641686E-2,3.1226635E-2,1.1518588E-3,1.9148239E-3,8.119449E-3,2.626758E-4,0E0,8.674357E-4,6.2501624E-2,7.0188016E-2,3.6196787E-2,1.9079862E-2,3.7741102E-2,7.769622E-3,8.9109056E-2,2.0369649E-2,0E0,0E0,2.6716643E-3,6.007155E-3,0E0,0E0,0E0,2.0271318E-4,0E0,0E0,6.503317E-2,5.4113753E-4,3.5681073E-2,4.435364E-2,3.029141E-3,3.5501115E-2,1.4459935E-2,1.6604885E-3,1.6172789E-2,2.850406E-4,4.541562E-3,9.750452E-3,8.624335E-2,1.946573E-2,1.15422215E-2,1.5186924E-2,0E0,0E0,0E0,0E0,0E0,0E0,0E0,0E0,0E0,0E0,0E0,0E0,0E0,0E0,0E0,0E0,0E0,0E0,0E0,0E0,0E0,0E0,0E0,0E0,0E0,0E0,0E0,0E0,0E0,0E0,0E0,0E0,0E0,0E0,0E0,0E0,0E0,0E0],"parents":[2147483647,0,0,1,1,2,2,3,3,4,4,5,5,6,6,7,7,8,8,10,10,11,11,12,12,13,13,14,14,15,15,16,16,17,17,18,18,20,20,21,21,22,22,23,23,24,24,25,25,26,26,27,27,28,28,31,31,32,32,36,36,39,39,40,40,41,41,42,42,43,43,44,44,45,45,46,46,47,47,48,48,49,49,50,50,51,51,52,52,53,53,54,54],"right_children":[2,4,6,8,10,12,14,16,18,-1,20,22,24,26,28,30,32,34,36,-1,38,40,42,44,46,48,50,52,54,-1,-1,56,58,-1,-1,-1,60,-1,-1,62,64,66,68,70,72,74,76,78,80,82,84,86,88,90,92,-1,-1,-1,-1,-1,-1,-1,-1,-1,-1,-1,-1,-1,-1,-1,-1,-1,-1,-1,-1,-1,-1,-1,-1,-1,-1,-1,-1,-1,-1,-1,-1,-1,-1,-1,-1,-1,-1],"split_conditions":[-8.6513925E-1,4.06E2,4.735174E-2,1.2357749E-1,NaN,NaN,2.1368127E-2,NaN,NaN,-1.3559194E-2,NaN,3.7307692E0,2.5743035E-5,NaN,NaN,8.2E1,-8.670289E-1,4.6E1,3.68E2,8.9392095E-4,NaN,2.895946E1,6.85E1,NaN,4.7465927E2,3.8869348E-1,-4.5510273E-2,7.808333E-1,-2.2155644E-1,-4.735438E-3,-1.4486018E-2,NaN,NaN,-4.0643318E-3,-4.0040795E-2,-9.89249E-3,NaN,4.0248064E-3,1.9800533E-2,1.5129226E-3,3.982239E-2,2.9E1,1.3895022E-2,4.5328048E-1,5.0792685E0,-2.043714E-1,NaN,8.555667E-1,1.2018675E-2,7.864574E-1,6.489899E-1,2.744361E0,3.6E1,1.3190772E-1,6.459333E-2,3.796842E-3,-3.31821E-3,-1.7584734E-2,-1.6011484E-3,-4.6885462E-4,-5.672748E-3,4.49017E-2,1.6332904E-2,-1.2812229E-2,-4.5895963E-3,-3.3413135E-3,1.3436903E-2,-9.5811073E-4,-2.3869982E-2,-9.310501E-3,6.482352E-4,3.2351585E-3,2.0383622E-2,2.8510357E-3,-1.2905861E-3,2.794456E-2,8.122453E-3,-6.6198385E-3,6.5278965E-3,-8.190251E-3,-3.0035147E-2,-1.3419832E-3,7.047583E-3,-2.9486183E-3,-1.0927331E-2,5.4661825E-2,3.4122646E-3,-5.3225305E-2,-2.369797E-3,-1.3758988E-3,-6.0491E-3,9.585448E-4,-1.7522423E-3],"split_indices":[6,1,3,26,33,31,4,31,33,0,32,15,5,34,33,0,6,0,1,0,34,22,2,30,15,19,19,24,20,0,0,33,33,0,0,0,32,0,0,4,5,1,3,24,15,19,33,12,4,18,24,22,1,6,20,0,0,0,0,0,0,0,0,0,0,0,0,0,0,0,0,0,0,0,0,0,0,0,0,0,0,0,0,0,0,0,0,0,0,0,0,0,0],"split_type":[0,0,0,0,1,1,0,1,1,0,1,0,0,1,1,0,0,0,0,0,1,0,0,1,0,0,0,0,0,0,0,1,1,0,0,0,1,0,0,0,0,0,0,0,0,0,1,0,0,0,0,0,0,0,0,0,0,0,0,0,0,0,0,0,0,0,0,0,0,0,0,0,0,0,0,0,0,0,0,0,0,0,0,0,0,0,0,0,0,0,0,0,0],"sum_hessian":[2.602E3,6E1,2.542E3,5.4E1,6E0,8.46E2,1.696E3,3.8E1,1.6E1,1E0,5E0,1.5E2,6.96E2,3.73E2,1.323E3,8E0,3E1,3E0,1.3E1,1E0,4E0,6.6E1,8.4E1,5.5E1,6.41E2,7.3E1,3E2,2.35E2,1.088E3,3E0,5E0,2E1,1E1,1E0,2E0,8E0,5E0,1E0,3E0,6E1,6E0,5.2E1,3.2E1,1.1E1,4.4E1,6.38E2,3E0,6.7E1,6E0,2.03E2,9.7E1,2.32E2,3E0,2.01E2,8.87E2,6E0,1.4E1,2E0,8E0,1E0,4E0,8E0,5.2E1,3E0,3E0,1.6E1,3.6E1,2.1E1,1.1E1,7E0,4E0,2E1,2.4E1,8.7E1,5.51E2,1E0,2E0,5.8E1,9E0,1E0,5E0,1.98E2,5E0,8.1E1,1.6E1,2E0,2.3E2,2E0,1E0,1.24E2,7.7E1,6.23E2,2.64E2],"tree_param":{"num_deleted":"0","num_feature":"35","num_nodes":"93","size_leaf_vector":"1"}},{"base_weights":[1.3992308E-4,-8.485397E-3,1.2544962E-3,-9.340229E-3,4.347585E-2,3.911437E-3,-2.702174E-3,-8.14899E-3,-3.924676E-2,3.580358E-5,5.428514E-2,-8.77289E-4,1.2158844E-2,-7.9103885E-3,2.8840872E-3,-6.2173656E-3,-2.3712978E-2,3.2496892E-2,-5.8800563E-2,3.4991093E-4,2.1480782E-2,-1.9699964E-3,2.028573E-2,1.554081E-2,-1.3295816E-2,-8.829597E-3,2.5789632E-2,-1.29380375E-2,5.9482655E-3,-1.4371004E-2,-2.5221677E-3,-3.1954166E-2,-9.844092E-3,1.5913697E-2,-1.2900964E-3,-1.0164463E-2,-7.124452E-2,-2.5446794E-3,3.4430783E-2,6.566055E-2,9.638943E-3,4.024792E-2,1.0702618E-2,-3.2527965E-2,-6.162256E-3,-2.01788E-2,-7.4237627E-3,4.7967713E-2,-1.3128353E-2,-3.507285E-2,3.9968695E-2,1.1766139E-2,-5.970044E-3,-3.337594E-3,-1.1513736E-2,-3.730091E-3,1.740249E-4,3.6123183E-4,-1.1473979E-2,-6.8772184E-3,-1.6145731E-3,2.0411797E-3,-6.6151884E-3,-3.3094354E-2,-1.0066088E-2,-3.4319275E-4,-4.04459E-3,2.2015598E-2,6.203024E-3,1.5766886E-3,3.7425473E-2,8.112813E-3,-1.22402E-3,-2.4005853E-2,1.8182443E-2,1.1966612E-2,1.6732871E-3,-5.310109E-3,-1.6287174E-2,-1.3450674E-2,-6.2160245E-5,-3.8136146E-3,-1.2308053E-2,-4.8973793E-3,-1.6289767E-3,-1.6924324E-3,-5.5281622E-3,-2.0148234E-2,-3.350816E-3,4.894692E-3,2.6496904E-2,7.290039E-3,1.7488833E-3,7.078814E-3,-2.3821895E-3],"categories":[0,0,0,0,0,0,0,0,0,0,0,0,0],"categories_nodes":[4,8,10,14,18,22,23,26,31,32,38,44,46],"categories_segments":[0,1,2,3,4,5,6,7,8,9,10,11,12],"categories_sizes":[1,1,1,1,1,1,1,1,1,1,1,1,1],"default_left":[0,0,0,0,1,0,0,0,1,0,1,0,0,0,1,0,0,0,1,0,0,0,1,1,0,0,1,0,0,0,0,1,1,0,0,0,0,0,1,0,0,0,0,0,1,0,1,0,0,0,0,0,0,0,0,0,0,0,0,0,0,0,0,0,0,0,0,0,0,0,0,0,0,0,0,0,0,0,0,0,0,0,0,0,0,0,0,0,0,0,0,0,0,0,0],"id":7,"left_children":[1,3,5,7,9,11,13,15,17,-1,19,21,23,25,27,29,31,33,35,-1,-1,37,39,41,43,45,47,49,51,53,55,57,59,-1,-1,61,63,65,67,69,71,73,75,77,79,81,83,-1,85,87,89,91,93,-1,-1,-1,-1,-1,-1,-1,-1,-1,-1,-1,-1,-1,-1,-1,-1,-1,-1,-1,-1,-1,-1,-1,-1,-1,-1,-1,-1,-1,-1,-1,-1,-1,-1,-1,-1,-1,-1,-1,-1,-1,-1],"loss_changes":[2.5034714E-2,1.3642691E-2,2.4252716E-2,1.015418E-2,2.336787E-3,5.451318E-2,2.6993364E-2,8.390682E-3,1.7342307E-2,0E0,3.5960143E-3,2.02512E-2,4.3852635E-2,1.5096843E-2,2.1796811E-2,7.616599E-3,3.2286197E-3,2.4965254E-3,4.722867E-3,0E0,0E0,1.749215E-2,2.0140234E-2,5.3122148E-2,8.031176E-3,7.317189E-3,6.994622E-2,8.689069E-2,2.6141789E-2,5.7289302E-3,5.418836E-3,4.010329E-3,6.3537236E-4,0E0,0E0,7.550983E-4,6.6066273E-3,1.2546893E-2,5.4477975E-3,2.7899459E-2,8.705784E-3,1.836028E-1,5.601906E-2,4.202036E-3,1.035429E-2,7.417489E-3,7.3295385E-3,0E0,3.3243652E-4,3.9134517E-2,2.3720954E-2,1.868366E-2,7.4119237E-3,0E0,0E0,0E0,0E0,0E0,0E0,0E0,0E0,0E0,0E0,0E0,0E0,0E0,0E0,0E0,0E0,0E0,0E0,0E0,0E0,0E0,0E0,0E0,0E0,0E0,0E0,0E0,0E0,0E0,0E0,0E0,0E0,0E0,0E0,0E0,0E0,0E0,0E0,0E0,0E0,0E0,0E0],"parents":[2147483647,0,0,1,1,2,2,3,3,4,4,5,5,6,6,7,7,8,8,10,10,11,11,12,12,13,13,14,14,15,15,16,16,17,17,18,18,21,21,22,22,23,23,24,24,25,25,26,26,27,27,28,28,29,29,30,30,31,31,32,32,35,35,36,36,37,37,38,38,39,39,40,40,41,41,42,42,43,43,44,44,45,45,46,46,48,48,49,49,50,50,51,51,52,52],"right_children":[2,4,6,8,10,12,14,16,18,-1,20,22,24,26,28,30,32,34,36,-1,-1,38,40,42,44,46,48,50,52,54,56,58,60,-1,-1,62,64,66,68,70,72,74,76,78,80,82,84,-1,86,88,90,92,94,-1,-1,-1,-1,-1,-1,-1,-1,-1,-1,-1,-1,-1,-1,-1,-1,-1,-1,-1,-1,-1,-1,-1,-1,-1,-1,-1,-1,-1,-1,-1,-1,-1,-1,-1,-1,-1,-1,-1,-1,-1,-1],"split_conditions":[7.831081E0,3.9817128E-1,3.47E2,4.75E0,NaN,2.997767E-1,1.4033333E2,9.094152E-1,NaN,3.580358E-5,NaN,3.273462E-1,1.7340655E0,1.2977365E0,NaN,3.81E1,9.214615E-1,1.76E2,NaN,3.4991093E-4,2.1480782E-2,1.1586133E0,NaN,NaN,3.0539326E1,-8.6513925E-1,NaN,1.63305E1,8.445006E0,2.7731745E-2,7.272763E-2,NaN,NaN,1.5913697E-2,-1.2900964E-3,1.76E2,1.76E2,9.96597E-1,NaN,1.1901614E-1,7.698258E-2,2.0447876E1,2.0897894E1,1.31E2,NaN,1.2357749E-1,NaN,4.7967713E-2,4.12E2,-1.398102E-1,3.9468664E-1,1.1147179E-2,1.0651861E-1,-3.337594E-3,-1.1513736E-2,-3.730091E-3,1.740249E-4,3.6123183E-4,-1.1473979E-2,-6.8772184E-3,-1.6145731E-3,2.0411797E-3,-6.6151884E-3,-3.3094354E-2,-1.0066088E-2,-3.4319275E-4,-4.04459E-3,2.2015598E-2,6.203024E-3,1.5766886E-3,3.7425473E-2,8.112813E-3,-1.22402E-3,-2.4005853E-2,1.8182443E-2,1.1966612E-2,1.6732871E-3,-5.310109E-3,-1.6287174E-2,-1.3450674E-2,-6.2160245E-5,-3.8136146E-3,-1.2308053E-2,-4.8973793E-3,-1.6289767E-3,-1.6924324E-3,-5.5281622E-3,-2.0148234E-2,-3.350816E-3,4.894692E-3,2.6496904E-2,7.290039E-3,1.7488833E-3,7.078814E-3,-2.3821895E-3],"split_indices":[9,6,1,17,31,28,2,5,32,0,29,26,23,10,33,2,5,0,29,0,0,18,33,33,15,6,33,22,8,14,28,32,31,0,0,0,0,21,33,3,5,13,13,0,29,26,34,0,1,7,28,3,5,0,0,0,0,0,0,0,0,0,0,0,0,0,0,0,0,0,0,0,0,0,0,0,0,0,0,0,0,0,0,0,0,0,0,0,0,0,0,0,0,0,0],"split_type":[0,0,0,0,1,0,0,0,1,0,1,0,0,0,1,0,0,0,1,0,0,0,1,1,0,0,1,0,0,0,0,1,1,0,0,0,0,0,1,0,0,0,0,0,1,0,1,0,0,0,0,0,0,0,0,0,0,0,0,0,0,0,0,0,0,0,0,0,0,0,0,0,0,0,0,0,0,0,0,0,0,0,0,0,0,0,0,0,0,0,0,0,0,0,0],"sum_hessian":[2.602E3,2.97E2,2.305E3,2.93E2,4E0,1.379E3,9.26E2,2.83E2,1E1,1E0,3E0,8.73E2,5.06E2,4.79E2,4.47E2,2.53E2,3E1,2E0,8E0,1E0,2E0,8.31E2,4.2E1,4.47E2,5.9E1,4.67E2,1.2E1,7.2E1,3.75E2,7.8E1,1.75E2,1.8E1,1.2E1,1E0,1E0,2E0,6E0,8.19E2,1.2E1,7E0,3.5E1,7.2E1,3.75E2,1.5E1,4.4E1,5E1,4.17E2,2E0,1E1,5.1E1,2.1E1,2.52E2,1.23E2,7E1,8E0,4.1E1,1.34E2,3E0,1.5E1,2E0,1E1,1E0,1E0,2E0,4E0,7.27E2,9.2E1,2E0,1E1,4E0,3E0,1.5E1,2E1,1E1,6.2E1,5.5E1,3.2E2,1E1,5E0,5E0,3.9E1,3.8E1,1.2E1,7.5E1,3.42E2,5E0,5E0,2.1E1,3E1,1.5E1,6E0,8E1,1.72E2,7E0,1.16E2],"tree_param":{"num_deleted":"0","num_feature":"35","num_nodes":"95","size_leaf_vector":"1"}},{"base_weights":[1.10585E-4,-2.0554467E-5,4.874753E-2,-1.0918959E-2,4.2936785E-4,-1.2014147E-2,7.022117E-2,-4.5857377E-2,-2.4703003E-3,-4.0030642E-3,1.7799578E-3,-8.9601185E-3,9.621223E-2,6.0536796E-3,-8.096922E-2,-1.3627356E-2,7.0426445E-3,9.418E-3,-6.7011327E-3,8.399027E-3,2.0854305E-4,-8.309237E-3,4.0234204E-2,1.573081E-2,-5.5632545E-3,-5.2121863E-2,-3.769004E-2,-2.8345924E-2,-7.5745415E-3,3.2671347E-2,3.1203309E-3,3.0279577E-2,1.2693256E-3,-3.8834624E-2,-4.8742956E-3,3.617233E-2,1.6149845E-3,2.3415968E-2,-5.182774E-4,5.706174E-4,5.3155776E-3,-2.244147E-2,-5.7043387E-3,-9.643091E-3,-2.251245E-3,-1.1362071E-3,-5.680821E-3,-3.3367323E-4,1.1895155E-2,-2.3824475E-3,1.8127908E-3,-1.3908634E-3,8.772388E-3,-2.4351947E-2,-5.6891846E-3,-1.2326678E-3,-6.214693E-3,2.9652098E-2,7.3411176E-3,3.3356342E-2,3.4079378E-5,2.7921962E-2,2.0222436E-3,1.4170432E-4,-3.5460663E-3],"categories":[0,0,0,0,0,0,0,0,0,0,0],"categories_nodes":[2,3,6,9,10,12,15,29,30,33,37],"categories_segments":[0,1,2,3,4,5,6,7,8,9,10],"categories_sizes":[1,1,1,1,1,1,1,1,1,1,1],"default_left":[0,0,1,1,0,0,1,0,0,1,1,0,1,0,0,1,0,0,0,0,0,0,0,0,0,0,0,0,0,1,1,0,0,1,0,0,0,1,0,0,0,0,0,0,0,0,0,0,0,0,0,0,0,0,0,0,0,0,0,0,0,0,0,0,0],"id":8,"left_children":[1,3,5,7,9,-1,11,13,15,17,19,-1,21,23,25,27,29,31,33,35,37,-1,-1,39,-1,41,-1,43,45,47,49,-1,51,53,55,57,59,61,63,-1,-1,-1,-1,-1,-1,-1,-1,-1,-1,-1,-1,-1,-1,-1,-1,-1,-1,-1,-1,-1,-1,-1,-1,-1,-1],"loss_changes":[1.6603516E-2,1.273891E-2,1.6159374E-2,3.0290544E-2,1.494319E-2,0E0,1.848197E-2,3.694402E-2,9.011434E-3,2.1174096E-2,1.9895945E-2,0E0,2.7196605E-2,2.434045E-3,8.913092E-3,3.2597547E-3,4.5221495E-3,7.2952166E-2,2.83402E-2,6.9089994E-2,2.6106361E-2,0E0,0E0,1.5871797E-4,0E0,5.336413E-3,0E0,6.294511E-4,1.1761001E-3,1.4587897E-3,1.3733541E-3,0E0,1.5167813E-2,2.033431E-2,5.504513E-3,5.0381593E-2,4.868267E-2,5.396524E-2,1.6810762E-2,0E0,0E0,0E0,0E0,0E0,0E0,0E0,0E0,0E0,0E0,0E0,0E0,0E0,0E0,0E0,0E0,0E0,0E0,0E0,0E0,0E0,0E0,0E0,0E0,0E0,0E0],"parents":[2147483647,0,0,1,1,2,2,3,3,4,4,6,6,7,7,8,8,9,9,10,10,12,12,13,13,14,14,15,15,16,16,17,17,18,18,19,19,20,20,23,23,25,25,27,27,28,28,29,29,30,30,32,32,33,33,34,34,35,35,36,36,37,37,38,38],"right_children":[2,4,6,8,10,-1,12,14,16,18,20,-1,22,24,26,28,30,32,34,36,38,-1,-1,40,-1,42,-1,44,46,48,50,-1,52,54,56,58,60,62,64,-1,-1,-1,-1,-1,-1,-1,-1,-1,-1,-1,-1,-1,-1,-1,-1,-1,-1,-1,-1,-1,-1,-1,-1,-1,-1],"split_conditions":[8.575388E-1,-8.5589343E-1,NaN,NaN,2.2881675E-1,-1.2014147E-2,NaN,-7.013607E-1,5.5089283E-1,NaN,NaN,-8.9601185E-3,NaN,8.832467E-2,1.4695119E0,NaN,3.0494288E-3,-4.1639823E-1,-4.1639823E-1,3.7307692E0,3.6577947E0,-8.309237E-3,4.0234204E-2,9.494277E-3,-5.5632545E-3,-6.221089E-4,-3.769004E-2,1.2413835E-1,1.2413835E-1,NaN,NaN,3.0279577E-2,3.0123153E-1,NaN,9.1517234E-1,3.1585667E-1,1.6482264E-1,NaN,3.555312E-1,5.706174E-4,5.3155776E-3,-2.244147E-2,-5.7043387E-3,-9.643091E-3,-2.251245E-3,-1.1362071E-3,-5.680821E-3,-3.3367323E-4,1.1895155E-2,-2.3824475E-3,1.8127908E-3,-1.3908634E-3,8.772388E-3,-2.4351947E-2,-5.6891846E-3,-1.2326678E-3,-6.214693E-3,2.9652098E-2,7.3411176E-3,3.3356342E-2,3.4079378E-5,2.7921962E-2,2.0222436E-3,1.4170432E-4,-3.5460663E-3],"split_indices":[24,6,30,33,16,0,34,7,20,32,31,0,32,14,16,31,3,6,6,15,22,0,0,5,0,11,0,26,26,32,29,0,6,34,5,18,10,33,19,0,0,0,0,0,0,0,0,0,0,0,0,0,0,0,0,0,0,0,0,0,0,0,0,0,0],"split_type":[0,0,1,1,0,0,1,0,0,1,1,0,1,0,0,1,0,0,0,0,0,0,0,0,0,0,0,0,0,1,1,0,0,1,0,0,0,1,0,0,0,0,0,0,0,0,0,0,0,0,0,0,0,0,0,0,0,0,0,0,0,0,0,0,0],"sum_hessian":[2.602E3,2.596E3,6E0,1.02E2,2.494E3,1E0,5E0,1.9E1,8.3E1,5.82E2,1.912E3,1E0,4E0,8E0,1.1E1,3.8E1,4.5E1,9.7E1,4.85E2,3.66E2,1.546E3,1E0,3E0,6E0,2E0,8E0,3E0,1E1,2.8E1,5E0,4E1,7E0,9E1,2.5E1,4.6E2,7.1E1,2.95E2,4.6E1,1.5E3,1E0,5E0,4E0,4E0,8E0,2E0,2.2E1,6E0,1E0,4E0,8E0,3.2E1,7.5E1,1.5E1,7E0,1.8E1,4.4E2,2E1,1E1,6.1E1,3E0,2.92E2,8E0,3.8E1,1.38E3,1.2E2],"tree_param":{"num_deleted":"0","num_feature":"35","num_nodes":"65","size_leaf_vector":"1"}},{"base_weights":[9.078436E-5,2.6464495E-3,-1.9369134E-3,1.5983201E-3,2.9641269E-2,-2.5186639E-3,2.4811028E-2,2.7625945E-3,-1.4505501E-2,1.09046474E-1,1.1172298E-2,-4.4168415E-3,6.3666445E-4,1.0891837E-1,4.4473712E-3,-1.6246568E-3,9.048623E-3,-1.2197201E-2,-6.583897E-2,4.822164E-2,4.5883328E-2,2.1126341E-2,-6.556157E-4,-1.5648963E-2,-1.9455712E-3,-1.4955082E-3,1.5552371E-2,-1.5635168E-2,5.2531183E-2,7.864471E-2,-1.6963646E-2,3.8705833E-2,-2.0886052E-3,-1.5292504E-2,1.3236651E-2,-3.6588673E-2,-7.2795423E-3,-3.1347543E-3,-2.6492784E-2,1.7270833E-2,-1.2916961E-4,2.9207133E-2,-8.99096E-3,-5.4839525E-2,-2.5640756E-3,-2.6081153E-3,2.7742056E-2,8.21346E-3,-3.5739292E-3,5.1950555E-2,7.4750385E-3,-8.2644895E-3,1.2286641E-3,2.8402735E-2,-2.2660028E-4,-4.0544025E-3,-5.746235E-2,-1.6931633E-2,1.9190919E-2,-7.588663E-4,7.3202443E-3,-5.401587E-3,1.3489488E-2,5.5048913E-3,-1.723864E-3,6.0549355E-3,-1.4988404E-2,4.438527E-4,-6.9817025E-3,1.0622964E-2,2.7400535E-3,-4.3753954E-3,4.890219E-3,-2.5996722E-3,-2.161649E-2,-1.7615152E-3,1.5642613E-2,-1.6069824E-3,6.1231875E-4,2.4260486E-2,2.7784565E-3,1.682382E-2,-6.933645E-4,-7.648889E-4,-5.3093624E-3,2.2270592E-2,-3.35333E-3,-1.8474268E-3,9.147048E-3,2.5145467E-3,-4.8120413E-3,-4.8207804E-3,-1.9137992E-2],"categories":[0,0,0,0,0,0,0,0,0,0,0,0,0],"categories_nodes":[4,6,11,14,16,17,18,22,26,31,46,47,56],"categories_segments":[0,1,2,3,4,5,6,7,8,9,10,11,12],"categories_sizes":[1,1,1,1,1,1,1,1,1,1,1,1,1],"default_left":[0,0,0,0,1,0,1,0,0,0,0,1,0,0,1,0,1,1,1,0,0,0,1,0,0,0,1,0,0,0,0,1,0,0,0,0,0,0,0,0,0,0,0,0,0,0,1,1,0,0,0,0,0,0,0,0,1,0,0,0,0,0,0,0,0,0,0,0,0,0,0,0,0,0,0,0,0,0,0,0,0,0,0,0,0,0,0,0,0,0,0,0,0],"id":9,"left_children":[1,3,5,7,9,11,13,15,17,19,21,23,25,27,29,31,33,35,37,-1,39,-1,41,43,45,47,49,51,-1,53,55,57,59,61,63,65,67,-1,-1,-1,-1,69,71,73,75,77,79,81,83,85,87,-1,-1,-1,-1,89,91,-1,-1,-1,-1,-1,-1,-1,-1,-1,-1,-1,-1,-1,-1,-1,-1,-1,-1,-1,-1,-1,-1,-1,-1,-1,-1,-1,-1,-1,-1,-1,-1,-1,-1,-1,-1],"loss_changes":[1.3494176E-2,3.2547385E-2,2.2656525E-2,2.0851757E-2,6.1842594E-2,8.5197035E-3,5.2610315E-2,2.8585909E-2,8.083928E-3,1.8745154E-2,2.5274616E-2,2.461831E-2,1.7037788E-2,5.2199654E-2,4.2638753E-2,1.1513424E-2,4.3629434E-2,8.489924E-3,2.8111162E-3,0E0,2.7309349E-3,0E0,7.979006E-3,8.190805E-2,1.4411319E-2,9.493458E-3,1.9309683E-2,8.179892E-4,0E0,7.708717E-3,1.0745985E-2,2.0436434E-2,7.1284147E-3,1.1107937E-2,3.5434954E-2,1.011866E-2,8.7195E-3,0E0,0E0,0E0,0E0,5.481648E-4,3.7745873E-3,3.1171799E-2,2.2200897E-2,9.13459E-3,1.4959853E-2,4.1942813E-2,5.553665E-3,1.7711371E-2,1.7758774E-2,0E0,0E0,0E0,0E0,2.6684194E-3,2.8517656E-4,0E0,0E0,0E0,0E0,0E0,0E0,0E0,0E0,0E0,0E0,0E0,0E0,0E0,0E0,0E0,0E0,0E0,0E0,0E0,0E0,0E0,0E0,0E0,0E0,0E0,0E0,0E0,0E0,0E0,0E0,0E0,0E0,0E0,0E0,0E0,0E0],"parents":[2147483647,0,0,1,1,2,2,3,3,4,4,5,5,6,6,7,7,8,8,9,9,10,10,11,11,12,12,13,13,14,14,15,15,16,16,17,17,18,18,20,20,22,22,23,23,24,24,25,25,26,26,27,27,29,29,30,30,31,31,32,32,33,33,34,34,35,35,36,36,41,41,42,42,43,43,44,44,45,45,46,46,47,47,48,48,49,49,50,50,55,55,56,56],"right_children":[2,4,6,8,10,12,14,16,18,20,22,24,26,28,30,32,34,36,38,-1,40,-1,42,44,46,48,50,52,-1,54,56,58,60,62,64,66,68,-1,-1,-1,-1,70,72,74,76,78,80,82,84,86,88,-1,-1,-1,-1,90,92,-1,-1,-1,-1,-1,-1,-1,-1,-1,-1,-1,-1,-1,-1,-1,-1,-1,-1,-1,-1,-1,-1,-1,-1,-1,-1,-1,-1,-1,-1,-1,-1,-1,-1,-1,-1],"split_conditions":[1.89E2,8.1472445E-1,6.087963E-1,1.2511855E0,NaN,1.2583784E1,NaN,2.3422249E-1,1.0759757E-1,4.7173488E-1,4.27E2,NaN,5.847464E-1,-5.6345236E-1,NaN,-6.7378473E-1,NaN,NaN,NaN,4.822164E-2,9E2,2.1126341E-2,NaN,-3.1808567E-1,1.4715642E0,1.768919E1,NaN,3.1E2,5.2531183E-2,4.8347274E-3,8.2E1,NaN,4.186092E-1,7.089862E-1,1.7311989E0,2.1641052E-8,3.6300543E-1,-3.1347543E-3,-2.6492784E-2,1.7270833E-2,-1.2916961E-4,3.476744E1,2.806547E-1,-7.013607E-1,9.760365E-1,1.35E2,NaN,NaN,8.095313E-1,3.6440685E-1,3.6179122E-1,-8.2644895E-3,1.2286641E-3,2.8402735E-2,-2.2660028E-4,-5.6345236E-1,NaN,-1.6931633E-2,1.9190919E-2,-7.588663E-4,7.3202443E-3,-5.401587E-3,1.3489488E-2,5.5048913E-3,-1.723864E-3,6.0549355E-3,-1.4988404E-2,4.438527E-4,-6.9817025E-3,1.0622964E-2,2.7400535E-3,-4.3753954E-3,4.890219E-3,-2.5996722E-3,-2.161649E-2,-1.7615152E-3,1.5642613E-2,-1.6069824E-3,6.1231875E-4,2.4260486E-2,2.7784565E-3,1.682382E-2,-6.933645E-4,-7.648889E-4,-5.3093624E-3,2.2270592E-2,-3.35333E-3,-1.8474268E-3,9.147048E-3,2.5145467E-3,-4.8120413E-3,-4.8207804E-3,-1.9137992E-2],"split_indices":[1,5,20,10,33,22,31,28,14,24,0,33,20,6,33,20,30,33,31,0,0,0,32,7,16,9,33,1,0,3,0,29,3,5,23,5,28,0,0,0,0,17,3,7,21,2,31,32,25,5,5,0,0,0,0,6,29,0,0,0,0,0,0,0,0,0,0,0,0,0,0,0,0,0,0,0,0,0,0,0,0,0,0,0,0,0,0,0,0,0,0,0,0],"split_type":[0,0,0,0,1,0,1,0,0,0,0,1,0,0,1,0,1,1,1,0,0,0,1,0,0,0,1,0,0,0,0,1,0,0,0,0,0,0,0,0,0,0,0,0,0,0,1,1,0,0,0,0,0,0,0,0,1,0,0,0,0,0,0,0,0,0,0,0,0,0,0,0,0,0,0,0,0,0,0,0,0,0,0,0,0,0,0,0,0,0,0,0,0],"sum_hessian":[2.602E3,1.151E3,1.451E3,1.109E3,4.2E1,1.421E3,3E1,1.035E3,7.4E1,7E0,3.5E1,8.87E2,5.34E2,5E0,2.5E1,6.1E2,4.25E2,7.2E1,2E0,3E0,4E0,5E0,3E1,1.59E2,7.28E2,4.68E2,6.6E1,2E0,3E0,5E0,2E1,6E0,6.04E2,6.2E1,3.63E2,1.1E1,6.1E1,1E0,1E0,3E0,1E0,6E0,2.4E1,3.9E1,1.2E2,7.13E2,1.5E1,8.2E1,3.86E2,1.1E1,5.5E1,1E0,1E0,4E0,1E0,1.6E1,4E0,1E0,5E0,5.95E2,9E0,6E1,2E0,2.86E2,7.7E1,2E0,9E0,4E1,2.1E1,4E0,2E0,2E1,4E0,1.1E1,2.8E1,1.14E2,6E0,4.48E2,2.65E2,3E0,1.2E1,1.4E1,6.8E1,3.61E2,2.5E1,8E0,3E0,3.5E1,2E1,8E0,8E0,1E0,3E0],"tree_param":{"num_deleted":"0","num_feature":"35","num_nodes":"93","size_leaf_vector":"1"}},{"base_weights":[1.3091587E-4,4.3543812E-5,3.252724E-2,1.0543619E-3,-2.523498E-3,2.8380902E-2,6.414117E-3,-6.503965E-4,7.236254E-3,1.1789763E-2,-4.26783E-3,1.9074965E-2,-1.7736347E-2,-3.368365E-3,1.6914804E-3,2.7685631E-2,2.7796535E-3,5.7760887E-2,2.007891E-3,-1.4527197E-2,-1.8922763E-3,1.2429945E-2,-1.2866103E-2,-1.5592437E-2,-5.17366E-4,1.231549E-2,-4.7164623E-4,6.0214844E-2,9.101691E-3,-4.758765E-3,1.0530953E-2,8.466847E-2,7.772694E-3,4.406756E-2,-8.933651E-3,-9.298034E-3,-5.8058728E-2,-1.3986506E-2,1.8062309E-4,-2.7776326E-3,-2.6821133E-2,1.050094E-3,-1.6599762E-3,6.526273E-3,-5.083802E-3,1.418542E-2,-2.7372807E-4,2.8153937E-2,8.788569E-3,-6.0122766E-5,1.1868945E-2,-4.7506634E-3,1.2108459E-3,1.5581857E-3,8.427192E-3,-2.8318467E-4,3.2779206E-2,4.907576E-4,5.768531E-3,-1.4310918E-2,3.0105475E-2,4.0590917E-3,-8.206748E-3,-5.3317025E-3,2.040762E-3,-2.1016061E-2,-1.1330945E-2,-1.0178793E-2,-2.2314528E-3,9.518777E-3,-3.7909907E-4],"categories":[0,0,0,0,0,0,0,0,0,0],"categories_nodes":[2,6,8,9,10,12,13,14,18,37],"categories_segments":[0,1,2,3,4,5,6,7,8,9],"categories_sizes":[1,1,1,1,1,1,1,1,1,1],"default_left":[0,0,1,0,0,0,1,0,1,1,1,0,1,1,1,0,0,0,1,0,0,0,0,0,0,0,0,0,0,0,0,0,0,0,0,0,0,1,0,0,0,0,0,0,0,0,0,0,0,0,0,0,0,0,0,0,0,0,0,0,0,0,0,0,0,0,0,0,0,0,0],"id":10,"left_children":[1,3,5,7,9,-1,11,13,15,17,19,-1,21,23,25,27,29,31,33,35,37,-1,-1,39,41,43,45,47,49,51,53,55,57,59,61,63,65,67,69,-1,-1,-1,-1,-1,-1,-1,-1,-1,-1,-1,-1,-1,-1,-1,-1,-1,-1,-1,-1,-1,-1,-1,-1,-1,-1,-1,-1,-1,-1,-1,-1],"loss_changes":[7.3664626E-3,6.7413887E-3,1.074015E-2,1.9648718E-2,1.8376153E-2,0E0,9.411696E-3,9.311544E-3,3.665033E-2,3.5858713E-2,1.593596E-2,0E0,9.217704E-3,2.3585936E-2,1.8068936E-2,4.297745E-2,1.9449715E-2,1.817276E-2,3.1226927E-2,2.7459083E-2,1.33649E-2,0E0,0E0,5.9011735E-2,1.1103094E-2,3.710218E-2,1.3809902E-2,2.4287537E-2,1.3325637E-2,1.6527787E-2,1.5223537E-2,1.9054294E-2,3.9035702E-4,7.710014E-2,2.2717217E-2,1.526587E-2,5.177893E-4,9.933809E-3,2.0817855E-2,0E0,0E0,0E0,0E0,0E0,0E0,0E0,0E0,0E0,0E0,0E0,0E0,0E0,0E0,0E0,0E0,0E0,0E0,0E0,0E0,0E0,0E0,0E0,0E0,0E0,0E0,0E0,0E0,0E0,0E0,0E0,0E0],"parents":[2147483647,0,0,1,1,2,2,3,3,4,4,6,6,7,7,8,8,9,9,10,10,12,12,13,13,14,14,15,15,16,16,17,17,18,18,19,19,20,20,23,23,24,24,25,25,26,26,27,27,28,28,29,29,30,30,31,31,32,32,33,33,34,34,35,35,36,36,37,37,38,38],"right_children":[2,4,6,8,10,-1,12,14,16,18,20,-1,22,24,26,28,30,32,34,36,38,-1,-1,40,42,44,46,48,50,52,54,56,58,60,62,64,66,68,70,-1,-1,-1,-1,-1,-1,-1,-1,-1,-1,-1,-1,-1,-1,-1,-1,-1,-1,-1,-1,-1,-1,-1,-1,-1,-1,-1,-1,-1,-1,-1,-1],"split_conditions":[8.575388E-1,8.167531E-1,NaN,4.6074554E-1,8.843888E-3,2.8380902E-2,NaN,-1.5219091E-1,NaN,NaN,NaN,1.9074965E-2,NaN,NaN,NaN,1.65E2,4.5580035E-1,8.1201553E-1,NaN,2.8389657E-1,1.2018961E0,1.2429945E-2,-1.2866103E-2,8.103345E-1,3.6229992E-1,1.16666664E2,5.6578653E-14,4.339933E-2,6.468926E-1,5.407789E-2,6.0933334E-1,6.566358E-1,6.0808134E-1,1.4387699E-3,-5.800786E-1,7.0884216E-1,3.0557778E-1,NaN,1.2440957E0,-2.7776326E-3,-2.6821133E-2,1.050094E-3,-1.6599762E-3,6.526273E-3,-5.083802E-3,1.418542E-2,-2.7372807E-4,2.8153937E-2,8.788569E-3,-6.0122766E-5,1.1868945E-2,-4.7506634E-3,1.2108459E-3,1.5581857E-3,8.427192E-3,-2.8318467E-4,3.2779206E-2,4.907576E-4,5.768531E-3,-1.4310918E-2,3.0105475E-2,4.0590917E-3,-8.206748E-3,-5.3317025E-3,2.040762E-3,-2.1016061E-2,-1.1330945E-2,-1.0178793E-2,-2.2314528E-3,9.518777E-3,-3.7909907E-4],"split_indices":[24,28,31,28,3,0,33,7,29,31,34,0,29,33,33,1,12,25,33,11,28,0,0,25,27,2,5,14,28,14,18,12,20,4,6,12,11,33,28,0,0,0,0,0,0,0,0,0,0,0,0,0,0,0,0,0,0,0,0,0,0,0,0,0,0,0,0,0,0,0,0],"split_type":[0,0,1,0,0,0,1,0,1,1,1,0,1,1,1,0,0,0,1,0,0,0,0,0,0,0,0,0,0,0,0,0,0,0,0,0,0,1,0,0,0,0,0,0,0,0,0,0,0,0,0,0,0,0,0,0,0,0,0,0,0,0,0,0,0,0,0,0,0,0,0],"sum_hessian":[2.602E3,2.596E3,6E0,1.863E3,7.33E2,1E0,5E0,1.461E3,4.02E2,7.9E1,6.54E2,1E0,4E0,6.76E2,7.85E2,7.1E1,3.31E2,1.3E1,6.6E1,1.22E2,5.32E2,1E0,3E0,1.27E2,5.49E2,1.32E2,6.53E2,2.5E1,4.6E1,1.68E2,1.63E2,8E0,5E0,1.3E1,5.3E1,1.1E2,1.2E1,7.7E1,4.55E2,1.18E2,9E0,3.05E2,2.44E2,1E2,3.2E1,5E0,6.48E2,1.1E1,1.4E1,3.6E1,1E1,7.4E1,9.4E1,1.26E2,3.7E1,2E0,6E0,4E0,1E0,5E0,8E0,2.4E1,2.9E1,7.2E1,3.8E1,6E0,6E0,1.8E1,5.9E1,1.9E1,4.36E2],"tree_param":{"num_deleted":"0","num_feature":"35","num_nodes":"71","size_leaf_vector":"1"}},{"base_weights":[1.296188E-4,2.4172195E-4,-2.0618722E-2,1.6240582E-4,2.9486174E-2,-1.4906232E-2,-1.4232166E-2,5.4970896E-4,-5.075802E-3,2.4123767E-2,7.596351E-3,-1.9839669E-2,-7.843334E-3,6.5546314E-4,-3.1245254E-2,-4.2120125E-3,-5.405952E-2,1.6213723E-2,-1.2502673E-2,-9.85336E-4,-6.6154385E-3,-5.1337313E-3,-3.4464106E-3,3.7209268E-4,1.4243867E-2,2.8893976E-3,-1.1538201E-2,-1.2044481E-2,-1.6671759E-3,-2.6076764E-3,-2.1719107E-2,1.0565454E-2,-9.971229E-3,-2.2137393E-3,-1.1840406E-3,9.6361875E-4,-2.8085444E-4,3.125368E-2,-1.7536167E-3,-9.065505E-4,-1.2455109E-2,9.823595E-3,-1.1465295E-3,3.3695862E-4,-6.1249454E-4],"categories":[0,0,0,0,0,0,0,0,0,0,0],"categories_nodes":[4,10,11,12,14,15,16,18,22,24,34],"categories_segments":[0,1,2,3,4,5,6,7,8,9,10],"categories_sizes":[1,1,1,1,1,1,1,1,1,1,1],"default_left":[0,0,0,0,1,0,0,0,0,0,1,1,1,0,1,1,1,0,1,0,0,0,1,0,1,0,0,0,0,0,0,0,0,0,1,0,0,0,0,0,0,0,0,0,0],"id":11,"left_children":[1,3,5,7,9,11,-1,13,15,-1,17,19,21,23,25,27,29,-1,31,-1,-1,-1,33,35,37,-1,-1,39,41,-1,-1,-1,-1,-1,43,-1,-1,-1,-1,-1,-1,-1,-1,-1,-1],"loss_changes":[6.0594436E-3,6.002863E-3,1.4379127E-3,5.2451435E-3,7.192544E-3,2.973671E-4,0E0,8.113897E-3,7.3037683E-3,0E0,6.27724E-3,1.8389011E-4,2.2631232E-4,9.236025E-3,2.7299593E-3,3.4880142E-3,1.8664738E-3,0E0,6.1179637E-3,0E0,0E0,0E0,4.464642E-5,8.741767E-3,8.913867E-2,0E0,0E0,1.1309119E-2,1.0060544E-2,0E0,0E0,0E0,0E0,0E0,1.2186688E-5,0E0,0E0,0E0,0E0,0E0,0E0,0E0,0E0,0E0,0E0],"parents":[2147483647,0,0,1,1,2,2,3,3,4,4,5,5,7,7,8,8,10,10,11,11,12,12,13,13,14,14,15,15,16,16,18,18,22,22,23,23,24,24,27,27,28,28,34,34],"right_children":[2,4,6,8,10,12,-1,14,16,-1,18,20,22,24,26,28,30,-1,32,-1,-1,-1,34,36,38,-1,-1,40,42,-1,-1,-1,-1,-1,44,-1,-1,-1,-1,-1,-1,-1,-1,-1,-1],"split_conditions":[8.3522725E-1,8.575388E-1,3.19E2,1.8686957E2,NaN,2.1E1,-1.4232166E-2,7.035689E1,1.0759757E-1,2.4123767E-2,NaN,NaN,NaN,1.7474138E2,NaN,NaN,NaN,1.6213723E-2,NaN,-9.85336E-4,-6.6154385E-3,-5.1337313E-3,NaN,9.9E1,NaN,2.8893976E-3,-1.1538201E-2,6.581263E-1,-6.321433E-1,-2.6076764E-3,-2.1719107E-2,1.0565454E-2,-9.971229E-3,-2.2137393E-3,NaN,9.6361875E-4,-2.8085444E-4,3.125368E-2,-1.7536167E-3,-9.065505E-4,-1.2455109E-2,9.823595E-3,-1.1465295E-3,3.3695862E-4,-6.1249454E-4],"split_indices":[25,24,0,9,31,1,0,8,14,0,33,33,31,9,29,31,31,0,29,0,0,0,33,1,33,0,0,25,20,0,0,0,0,0,30,0,0,0,0,0,0,0,0,0,0],"split_type":[0,0,0,0,1,0,0,0,0,0,1,1,1,0,1,1,1,0,1,0,0,0,1,0,1,0,0,0,0,0,0,0,0,0,1,0,0,0,0,0,0,0,0,0,0],"sum_hessian":[2.602E3,2.589E3,1.3E1,2.583E3,6E0,1.2E1,1E0,2.406E3,1.77E2,1E0,5E0,6E0,6E0,2.399E3,7E0,1.75E2,2E0,1E0,4E0,1E0,5E0,1E0,5E0,2.351E3,4.8E1,1E0,6E0,4.2E1,1.33E2,1E0,1E0,1E0,3E0,1E0,4E0,7.41E2,1.61E3,8E0,4E1,3.3E1,9E0,7E0,1.26E2,1E0,3E0],"tree_param":{"num_deleted":"0","num_feature":"35","num_nodes":"45","size_leaf_vector":"1"}},{"base_weights":[9.226954E-5,2.4496936E-4,-1.3469604E-2,1.0477216E-5,9.022519E-3,3.1335928E-2,-2.4109753E-2,2.0491686E-3,-1.0464913E-3,2.2281954E-2,-2.3305893E-3,6.758305E-2,-8.231662E-3,-5.1431857E-2,-1.4212786E-2,1.4136973E-3,4.319718E-2,-1.2514438E-3,2.3036972E-2,1.9432016E-2,1.1619243E-2,-2.215175E-2,2.2203368E-3,2.3516884E-2,5.274505E-3,-2.4717255E-2,-1.535465E-2,-3.5413142E-2,-4.1117202E-3,2.0986402E-2,3.6383423E-4,-3.841718E-2,6.1528627E-2,-1.3510924E-2,-8.6538127E-4,1.222178E-1,-3.677982E-3,3.5858057E-2,4.1405694E-3,-2.6309982E-2,3.3896037E-3,2.2178419E-2,-2.4707718E-3,-1.0932157E-3,-5.4130494E-3,-1.1662213E-2,-2.716299E-3,5.182456E-3,-2.8642774E-2,1.925725E-2,3.2407392E-3,2.233389E-3,-3.5448535E-4,-2.7923605E-3,-1.4495371E-2,-2.842385E-3,2.350796E-2,-1.0424379E-2,-1.0249657E-3,6.386481E-3,-3.2692275E-4,4.5102887E-2,9.895121E-3,-5.017679E-3,7.979593E-3,3.42407E-2,-7.8737945E-4,-1.3651558E-2,5.54961E-3,-7.583816E-3,7.213184E-3,-6.371264E-4,8.239081E-3,2.0472754E-3,-1.5026511E-3,6.7324736E-3,-2.3657517E-3,-2.2386275E-2,3.467074E-3],"categories":[0,0,0,0,0,0,0,0,0,0,0,0,0,0,0],"categories_nodes":[2,6,9,10,14,16,18,20,29,30,32,41,42,47,48],"categories_segments":[0,1,2,3,4,5,6,7,8,9,10,11,12,13,14],"categories_sizes":[1,1,1,1,1,1,1,1,1,1,1,1,1,1,1],"default_left":[0,0,1,0,0,0,1,0,0,1,1,0,0,0,1,0,1,0,1,0,1,0,0,0,0,0,0,0,0,1,1,0,1,0,0,0,0,0,0,0,0,1,1,0,0,0,0,1,1,0,0,0,0,0,0,0,0,0,0,0,0,0,0,0,0,0,0,0,0,0,0,0,0,0,0,0,0,0,0],"id":12,"left_children":[1,3,5,7,9,11,13,15,17,19,21,23,-1,25,27,29,31,33,35,-1,37,39,41,-1,-1,-1,43,45,47,49,51,53,55,57,59,61,63,65,67,-1,69,71,73,-1,-1,-1,-1,75,77,-1,-1,-1,-1,-1,-1,-1,-1,-1,-1,-1,-1,-1,-1,-1,-1,-1,-1,-1,-1,-1,-1,-1,-1,-1,-1,-1,-1,-1,-1],"loss_changes":[5.3938404E-3,5.2999416E-3,1.45808915E-2,5.40862E-3,1.0137829E-2,1.4636904E-2,5.758753E-3,2.2348098E-2,8.187978E-3,1.329267E-2,3.386756E-3,7.8314915E-4,0E0,5.4364E-3,3.923169E-3,1.7355984E-2,2.1813175E-2,7.7503053E-3,3.7544068E-2,0E0,4.5646555E-3,1.20165935E-2,2.9571892E-3,0E0,0E0,0E0,6.0200575E-5,1.9537238E-4,3.3403828E-3,1.8226206E-2,8.79605E-3,4.14873E-4,1.3888221E-2,1.0599992E-2,7.931133E-3,2.5702976E-3,5.185331E-3,1.8373542E-2,1.5811015E-2,0E0,4.160651E-3,8.289749E-4,6.475573E-4,0E0,0E0,0E0,0E0,2.657991E-3,8.255615E-3,0E0,0E0,0E0,0E0,0E0,0E0,0E0,0E0,0E0,0E0,0E0,0E0,0E0,0E0,0E0,0E0,0E0,0E0,0E0,0E0,0E0,0E0,0E0,0E0,0E0,0E0,0E0,0E0,0E0,0E0],"parents":[2147483647,0,0,1,1,2,2,3,3,4,4,5,5,6,6,7,7,8,8,9,9,10,10,11,11,13,13,14,14,15,15,16,16,17,17,18,18,20,20,21,21,22,22,26,26,27,27,28,28,29,29,30,30,31,31,32,32,33,33,34,34,35,35,36,36,37,37,38,38,40,40,41,41,42,42,47,47,48,48],"right_children":[2,4,6,8,10,12,14,16,18,20,22,24,-1,26,28,30,32,34,36,-1,38,40,42,-1,-1,-1,44,46,48,50,52,54,56,58,60,62,64,66,68,-1,70,72,74,-1,-1,-1,-1,76,78,-1,-1,-1,-1,-1,-1,-1,-1,-1,-1,-1,-1,-1,-1,-1,-1,-1,-1,-1,-1,-1,-1,-1,-1,-1,-1,-1,-1,-1,-1],"split_conditions":[6.3283473E-1,1.6580866E-1,NaN,4.735174E-2,3.076805E1,-5.529119E-1,NaN,4.589666E-2,6.167805E-1,NaN,NaN,4.3E1,-8.231662E-3,3.3E1,NaN,2.1641052E-8,NaN,4.2576613E-7,NaN,1.9432016E-2,NaN,2.69E2,2.69E2,2.3516884E-2,5.274505E-3,-2.4717255E-2,9.6E1,1.241793E0,1.241793E0,NaN,NaN,1.52E2,NaN,4.26E2,2.744361E0,2.77E2,2.77E2,2.749254E-3,2.749254E-3,-2.6309982E-2,2.2974102E-1,NaN,NaN,-1.0932157E-3,-5.4130494E-3,-1.1662213E-2,-2.716299E-3,NaN,NaN,1.925725E-2,3.2407392E-3,2.233389E-3,-3.5448535E-4,-2.7923605E-3,-1.4495371E-2,-2.842385E-3,2.350796E-2,-1.0424379E-2,-1.0249657E-3,6.386481E-3,-3.2692275E-4,4.5102887E-2,9.895121E-3,-5.017679E-3,7.979593E-3,3.42407E-2,-7.8737945E-4,-1.3651558E-2,5.54961E-3,-7.583816E-3,7.213184E-3,-6.371264E-4,8.239081E-3,2.0472754E-3,-1.5026511E-3,6.7324736E-3,-2.3657517E-3,-2.2386275E-2,3.467074E-3],"split_indices":[19,14,29,3,3,7,33,3,6,33,33,1,0,1,31,5,29,5,33,0,31,1,1,0,0,0,0,16,16,31,31,0,30,0,22,0,0,3,3,0,7,31,34,0,0,0,0,32,32,0,0,0,0,0,0,0,0,0,0,0,0,0,0,0,0,0,0,0,0,0,0,0,0,0,0,0,0,0,0],"split_type":[0,0,1,0,0,0,1,0,0,1,1,0,0,0,1,0,1,0,1,0,1,0,0,0,0,0,0,0,0,1,1,0,1,0,0,0,0,0,0,0,0,1,1,0,0,0,0,1,1,0,0,0,0,0,0,0,0,0,0,0,0,0,0,0,0,0,0,0,0,0,0,0,0,0,0,0,0,0,0],"sum_hessian":[2.602E3,2.574E3,2.8E1,2.508E3,6.6E1,5E0,2.3E1,8.56E2,1.652E3,3E1,3.6E1,3E0,2E0,5E0,1.8E1,8.44E2,1.2E1,1.639E3,1.3E1,5E0,2.5E1,6E0,3E1,2E0,1E0,2E0,3E0,5E0,1.3E1,4.2E1,8.02E2,2E0,1E1,4.9E1,1.59E3,2E0,1.1E1,5E0,2E1,1E0,5E0,5E0,2.5E1,1E0,2E0,4E0,1E0,1E1,3E0,7E0,3.5E1,1.43E2,6.59E2,1E0,1E0,2E0,8E0,1.5E1,3.4E1,1.5E1,1.575E3,1E0,1E0,8E0,3E0,1E0,4E0,4E0,1.6E1,2E0,3E0,1E0,4E0,5E0,2E1,4E0,6E0,1E0,2E0],"tree_param":{"num_deleted":"0","num_feature":"35","num_nodes":"79","size_leaf_vector":"1"}},{"base_weights":[9.032035E-5,1.931106E-5,2.6421862E-2,-1.0590365E-3,1.7594018E-3,2.0170195E-2,8.414179E-3,-6.85309E-4,-1.39913885E-2,9.9401465E-3,5.9563514E-5,1.3834839E-2,-8.349436E-3,8.2311773E-4,-4.6133E-3,-5.1219493E-2,-5.785698E-3,4.0634427E-2,3.6459202E-3,3.1621825E-2,-5.647329E-4,9.03381E-3,-7.6479437E-3,3.7538112E-4,1.6146366E-2,-3.6570553E-2,-3.6155384E-3,-3.6675823E-3,-2.9356355E-2,1.5148349E-2,-1.1873055E-2,2.7146765E-3,8.106883E-2,-7.2985454E-3,2.688313E-2,4.8094906E-2,-3.8491224E-3,1.8310266E-3,-7.5409566E-3,-1.2582981E-4,2.7187252E-3,2.2145014E-2,8.198164E-4,8.772483E-3,-1.5358419E-2,-2.6262773E-4,-2.8433264E-3,-3.683158E-3,1.8493668E-3,1.0349477E-2,-8.289391E-5,9.6037495E-4,-4.980022E-3,-1.0152409E-2,3.1062625E-3,-4.1686028E-4,3.1105138E-2,-1.4576802E-3,-3.659113E-2,2.5686864E-3,3.037524E-2,-1.2717601E-4,1.7677192E-2,8.293066E-4,-1.7174068E-3,-5.8899174E-4,2.4779E-3,-8.425932E-3,-1.4460381E-3],"categories":[0,0,0,0,0,0,0,0,0,0,0],"categories_nodes":[2,4,6,8,12,16,24,25,30,35,36],"categories_segments":[0,1,2,3,4,5,6,7,8,9,10],"categories_sizes":[1,1,1,1,1,1,1,1,1,1,1],"default_left":[0,0,1,0,1,0,1,0,1,0,0,0,1,0,0,0,1,0,0,0,0,0,0,0,1,1,0,0,0,0,1,0,0,0,0,1,1,0,0,0,0,0,0,0,0,0,0,0,0,0,0,0,0,0,0,0,0,0,0,0,0,0,0,0,0,0,0,0,0],"id":13,"left_children":[1,3,5,7,9,-1,11,13,15,17,19,-1,21,23,25,27,29,31,33,35,37,-1,-1,39,41,43,45,47,-1,49,51,53,55,57,59,61,63,65,67,-1,-1,-1,-1,-1,-1,-1,-1,-1,-1,-1,-1,-1,-1,-1,-1,-1,-1,-1,-1,-1,-1,-1,-1,-1,-1,-1,-1,-1,-1],"loss_changes":[4.8665376E-3,4.8749326E-3,4.5788023E-3,7.7428254E-3,1.3821914E-2,0E0,4.1771694E-3,9.246932E-3,1.3450362E-2,3.2888494E-2,1.6254123E-2,0E0,4.064585E-3,7.7328985E-3,1.3674293E-2,1.7381784E-2,5.0223125E-3,4.4244543E-2,3.6563806E-2,9.534175E-3,1.353491E-2,0E0,0E0,7.57812E-3,2.4552505E-2,1.400885E-2,6.7542824E-3,4.9893785E-4,0E0,2.6957241E-3,2.1908358E-3,4.818736E-3,2.6251167E-2,2.6823334E-2,6.1807074E-2,5.8045257E-3,9.024918E-5,1.4724832E-2,1.1436076E-2,0E0,0E0,0E0,0E0,0E0,0E0,0E0,0E0,0E0,0E0,0E0,0E0,0E0,0E0,0E0,0E0,0E0,0E0,0E0,0E0,0E0,0E0,0E0,0E0,0E0,0E0,0E0,0E0,0E0,0E0],"parents":[2147483647,0,0,1,1,2,2,3,3,4,4,6,6,7,7,8,8,9,9,10,10,12,12,13,13,14,14,15,15,16,16,17,17,18,18,19,19,20,20,23,23,24,24,25,25,26,26,27,27,29,29,30,30,31,31,32,32,33,33,34,34,35,35,36,36,37,37,38,38],"right_children":[2,4,6,8,10,-1,12,14,16,18,20,-1,22,24,26,28,30,32,34,36,38,-1,-1,40,42,44,46,48,-1,50,52,54,56,58,60,62,64,66,68,-1,-1,-1,-1,-1,-1,-1,-1,-1,-1,-1,-1,-1,-1,-1,-1,-1,-1,-1,-1,-1,-1,-1,-1,-1,-1,-1,-1,-1,-1],"split_conditions":[8.575388E-1,3.105933E-1,NaN,2.9890484E-1,NaN,2.0170195E-2,NaN,9.855205E-1,NaN,3.69022E-1,3E1,1.3834839E-2,NaN,6.167805E-1,1.6E1,1.25E2,NaN,1.2052341E1,6.9139972E-3,3.5E2,1.4102372E0,9.03381E-3,-7.6479437E-3,9.8246235E-1,NaN,NaN,6.7897725E-1,3.68E2,-2.9356355E-2,9.750949E-1,NaN,8.272365E0,1.0310078E0,3.555312E-1,3.9920547E1,NaN,NaN,3.995942E-1,1.4906847E0,-1.2582981E-4,2.7187252E-3,2.2145014E-2,8.198164E-4,8.772483E-3,-1.5358419E-2,-2.6262773E-4,-2.8433264E-3,-3.683158E-3,1.8493668E-3,1.0349477E-2,-8.289391E-5,9.6037495E-4,-4.980022E-3,-1.0152409E-2,3.1062625E-3,-4.1686028E-4,3.1105138E-2,-1.4576802E-3,-3.659113E-2,2.5686864E-3,3.037524E-2,-1.2717601E-4,1.7677192E-2,8.293066E-4,-1.7174068E-3,-5.8899174E-4,2.4779E-3,-8.425932E-3,-1.4460381E-3],"split_indices":[24,5,31,5,33,0,33,21,33,5,1,0,29,6,1,2,34,22,6,0,28,0,0,21,33,34,25,1,0,21,30,8,15,19,8,31,30,28,28,0,0,0,0,0,0,0,0,0,0,0,0,0,0,0,0,0,0,0,0,0,0,0,0,0,0,0,0,0,0],"split_type":[0,0,1,0,1,0,1,0,1,0,0,0,1,0,0,0,1,0,0,0,0,0,0,0,1,1,0,0,0,0,1,0,0,0,0,1,1,0,0,0,0,0,0,0,0,0,0,0,0,0,0,0,0,0,0,0,0,0,0,0,0,0,0,0,0,0,0,0,0],"sum_hessian":[2.602E3,2.596E3,6E0,1.603E3,9.93E2,1E0,5E0,1.559E3,4.4E1,1.7E2,8.23E2,1E0,4E0,1.127E3,4.32E2,7E0,3.7E1,2.8E1,1.42E2,1.5E1,8.08E2,1E0,3E0,1.096E3,3.1E1,1.2E1,4.2E2,4E0,3E0,8E0,2.9E1,1.5E1,1.3E1,9.7E1,4.5E1,1E1,5E0,6.02E2,2.06E2,1.005E3,9.1E1,5E0,2.6E1,2E0,1E1,2.87E2,1.33E2,2E0,2E0,3E0,5E0,7E0,2.2E1,2E0,1.3E1,3E0,1E1,9.6E1,1E0,3.7E1,8E0,2E0,8E0,1E0,4E0,3.79E2,2.23E2,2.3E1,1.83E2],"tree_param":{"num_deleted":"0","num_feature":"35","num_nodes":"69","size_leaf_vector":"1"}},{"base_weights":[8.378879E-5,-3.1680872E-3,5.787275E-4,2.6139427E-2,-3.7656743E-3,1.5993554E-2,1.9414267E-4,2.4639003E-2,3.1193283E-3,-6.3021528E-3,3.1883062E-3,5.6712735E-2,6.7938715E-3,-1.0111944E-2,5.7163474E-4,-5.7036616E-3,1.1348076E-2,1.5155786E-2,-9.782179E-3,3.3872977E-2,-3.3135756E-3,9.156837E-3,4.9387272E-2,-1.8716076E-2,1.2656915E-2,-1.846098E-2,1.832527E-3,-3.6085611E-3,1.2968084E-3,-1.8401296E-3,1.7251978E-2,2.224704E-2,-2.2429249E-3,6.9613387E-3,-1.2549934E-2,-1.5553343E-2,7.404382E-2,5.2966117E-3,-1.3027579E-2,-7.2510745E-3,3.398714E-2,-4.131302E-2,7.624082E-3,4.8207395E-2,7.056641E-3,5.3887507E-3,-2.2879872E-2,2.1300238E-2,-3.2825284E-3,-6.1892704E-3,4.312174E-3,1.593611E-2,9.6636417E-4,4.6878756E-4,6.588266E-3,-4.8411316E-3,1.9117711E-3,4.507978E-3,7.2155695E-4,1.2574592E-3,-4.490282E-3,-9.90017E-4,-1.5198953E-2,2.8521135E-3,3.713155E-2,-2.2107137E-3,3.866144E-3,-9.117462E-3,2.467397E-4,1.3542779E-2,3.4507902E-3,-1.5503424E-2,-5.153085E-3,3.87271E-3,-6.0669245E-5,-1.8647433E-3,1.9010143E-2,2.8515296E-4,6.4848918E-3,4.6518394E-3,-1.704192E-4,-8.928929E-3,-2.5387397E-3,8.711575E-3,-3.7694753E-3,-2.7006208E-3,5.4708626E-3,1.5846416E-2,-1.9983407E-3,8.932415E-3,7.6003774E-4,9.579341E-3,-3.8553018E-3,-1.5630585E-3,4.883021E-4],"categories":[0,0,0,0,0,0,0,0,0,0,0,0,0],"categories_nodes":[3,5,8,9,10,12,14,16,25,26,30,34,43],"categories_segments":[0,1,2,3,4,5,6,7,8,9,10,11,12],"categories_sizes":[1,1,1,1,1,1,1,1,1,1,1,1,1],"default_left":[0,0,0,1,0,1,0,0,1,1,1,0,1,0,1,0,1,0,0,0,0,0,0,0,0,1,1,0,0,0,1,0,0,0,1,0,0,0,0,0,0,0,0,1,0,0,0,0,0,0,0,0,0,0,0,0,0,0,0,0,0,0,0,0,0,0,0,0,0,0,0,0,0,0,0,0,0,0,0,0,0,0,0,0,0,0,0,0,0,0,0,0,0,0,0],"id":14,"left_children":[1,3,5,7,9,11,13,-1,15,17,19,21,23,25,27,-1,29,31,33,35,37,39,-1,41,43,45,47,49,51,-1,53,-1,55,57,59,61,63,65,67,-1,69,71,73,75,77,79,81,83,85,87,89,91,93,-1,-1,-1,-1,-1,-1,-1,-1,-1,-1,-1,-1,-1,-1,-1,-1,-1,-1,-1,-1,-1,-1,-1,-1,-1,-1,-1,-1,-1,-1,-1,-1,-1,-1,-1,-1,-1,-1,-1,-1,-1,-1],"loss_changes":[4.1913083E-3,6.1231796E-3,1.3394873E-2,8.766169E-3,5.9819464E-3,2.0217896E-2,8.588148E-3,0E0,1.3084408E-3,1.8667456E-2,1.8267479E-2,4.981085E-2,7.1169203E-3,7.812366E-3,6.4584618E-3,0E0,6.2187493E-4,3.6095284E-2,1.0004545E-2,3.291958E-2,6.4255954E-3,7.44165E-3,0E0,5.671837E-3,7.2253286E-3,4.971208E-3,3.3560065E-3,6.46564E-3,8.7646125E-3,0E0,2.6120234E-4,0E0,3.4545816E-3,1.1029994E-3,7.5102076E-3,3.2744957E-3,2.7706873E-2,4.036669E-3,8.682693E-3,0E0,7.3486613E-4,3.6318693E-4,2.0941906E-4,4.51909E-3,3.0021633E-3,4.909473E-4,3.618423E-3,2.199289E-3,3.48725E-3,6.9789775E-3,3.4572345E-3,1.8828373E-2,7.262761E-3,0E0,0E0,0E0,0E0,0E0,0E0,0E0,0E0,0E0,0E0,0E0,0E0,0E0,0E0,0E0,0E0,0E0,0E0,0E0,0E0,0E0,0E0,0E0,0E0,0E0,0E0,0E0,0E0,0E0,0E0,0E0,0E0,0E0,0E0,0E0,0E0,0E0,0E0,0E0,0E0,0E0,0E0],"parents":[2147483647,0,0,1,1,2,2,3,3,4,4,5,5,6,6,8,8,9,9,10,10,11,11,12,12,13,13,14,14,16,16,17,17,18,18,19,19,20,20,21,21,23,23,24,24,25,25,26,26,27,27,28,28,30,30,32,32,33,33,34,34,35,35,36,36,37,37,38,38,40,40,41,41,42,42,43,43,44,44,45,45,46,46,47,47,48,48,49,49,50,50,51,51,52,52],"right_children":[2,4,6,8,10,12,14,-1,16,18,20,22,24,26,28,-1,30,32,34,36,38,40,-1,42,44,46,48,50,52,-1,54,-1,56,58,60,62,64,66,68,-1,70,72,74,76,78,80,82,84,86,88,90,92,94,-1,-1,-1,-1,-1,-1,-1,-1,-1,-1,-1,-1,-1,-1,-1,-1,-1,-1,-1,-1,-1,-1,-1,-1,-1,-1,-1,-1,-1,-1,-1,-1,-1,-1,-1,-1,-1,-1,-1,-1,-1,-1],"split_conditions":[-5.5932975E-1,2.4216086E-2,-5.4046357E-1,NaN,5.523088E-1,NaN,-5.107578E-1,2.4639003E-2,NaN,NaN,NaN,2.0704838E-2,NaN,1.4368767E0,NaN,-5.7036616E-3,NaN,3.6542447E0,7.031451E-2,4.3617728E-1,-7.8049506E-4,8.2E1,4.9387272E-2,2.51106E-1,1.4672097E-2,NaN,NaN,1.7311989E0,6.998119E-9,-1.8401296E-3,NaN,2.224704E-2,1.2849924E-1,9.257445E0,NaN,2.244309E1,-7.8049506E-4,2.3586363E-1,3.46E2,-7.2510745E-3,2.8183558E-3,9.9E1,2.35E2,NaN,6.188089E-1,7.744534E0,-1.3400378E-3,2.86E2,3.48E1,-6.538068E-1,1.7378476E0,4.4137735E-2,2.6865532E0,4.6878756E-4,6.588266E-3,-4.8411316E-3,1.9117711E-3,4.507978E-3,7.2155695E-4,1.2574592E-3,-4.490282E-3,-9.90017E-4,-1.5198953E-2,2.8521135E-3,3.713155E-2,-2.2107137E-3,3.866144E-3,-9.117462E-3,2.467397E-4,1.3542779E-2,3.4507902E-3,-1.5503424E-2,-5.153085E-3,3.87271E-3,-6.0669245E-5,-1.8647433E-3,1.9010143E-2,2.8515296E-4,6.4848918E-3,4.6518394E-3,-1.704192E-4,-8.928929E-3,-2.5387397E-3,8.711575E-3,-3.7694753E-3,-2.7006208E-3,5.4708626E-3,1.5846416E-2,-1.9983407E-3,8.932415E-3,7.6003774E-4,9.579341E-3,-3.8553018E-3,-1.5630585E-3,4.883021E-4],"split_indices":[7,14,7,29,20,33,7,0,33,32,31,4,32,23,30,0,31,8,28,28,11,1,0,5,14,30,34,23,5,0,34,0,5,8,30,8,11,28,1,0,4,1,0,34,28,8,11,0,2,6,23,3,8,0,0,0,0,0,0,0,0,0,0,0,0,0,0,0,0,0,0,0,0,0,0,0,0,0,0,0,0,0,0,0,0,0,0,0,0,0,0,0,0,0,0],"split_type":[0,0,0,1,0,1,0,0,1,1,1,0,1,0,1,0,1,0,0,0,0,0,0,0,0,1,1,0,0,0,1,0,0,0,1,0,0,0,0,0,0,0,0,1,0,0,0,0,0,0,0,0,0,0,0,0,0,0,0,0,0,0,0,0,0,0,0,0,0,0,0,0,0,0,0,0,0,0,0,0,0,0,0,0,0,0,0,0,0,0,0,0,0,0,0],"sum_hessian":[2.602E3,3.43E2,2.259E3,6E0,3.37E2,5.4E1,2.205E3,1E0,5E0,2.47E2,9E1,9E0,4.5E1,7.7E1,2.128E3,1E0,4E0,3.4E1,2.13E2,1.5E1,7.5E1,7E0,2E0,8E0,3.7E1,4.5E1,3.2E1,3.14E2,1.814E3,1E0,3E0,7E0,2.7E1,3E1,1.83E2,7E0,8E0,4E1,3.5E1,3E0,4E0,4E0,4E0,4E0,3.3E1,7E0,3.8E1,6E0,2.6E1,2.37E2,7.7E1,3.9E1,1.775E3,1E0,2E0,1E1,1.7E1,1E1,2E1,2.3E1,1.6E2,6E0,1E0,4E0,4E0,1.5E1,2.5E1,1.5E1,2E1,2E0,2E0,2E0,2E0,2E0,2E0,1E0,3E0,2.4E1,9E0,2E0,5E0,2.5E1,1.3E1,5E0,1E0,2.1E1,5E0,1E0,2.36E2,4E0,7.3E1,2.5E1,1.4E1,1.71E2,1.604E3],"tree_param":{"num_deleted":"0","num_feature":"35","num_nodes":"95","size_leaf_vector":"1"}},{"base_weights":[1.1902967E-4,5.599514E-5,2.3487836E-2,1.4301433E-4,-1.600926E-2,1.707142E-2,8.434231E-3,3.9925583E-4,-4.367128E-3,-1.1628369E-2,-1.0944126E-2,1.1686367E-2,-5.460745E-3,1.94883E-6,5.34157E-3,-5.1116437E-4,-2.282232E-2,-6.110228E-3,-8.187865E-3,7.6054935E-3,-5.850526E-3,2.4423471E-3,-5.712466E-4,1.7400105E-2,-1.7638735E-5,1.7473143E-2,-5.392648E-3,-4.317578E-2,-2.278951E-3,-1.25915045E-2,-2.4195816E-3,2.1338593E-3,-2.8746678E-3,-1.9787092E-4,1.2007061E-2,1.7772848E-2,1.7566128E-3,-2.5355406E-3,1.7828215E-3,-2.8473798E-3,6.9183554E-3,-8.683836E-3,-8.4145914E-4,2.9303145E-3,-1.466304E-2,-2.065202E-3,7.9550076E-4,-6.028646E-3,-2.1214832E-3,6.582133E-4,-1.1343347E-3],"categories":[0,0,0,0,0,0,0,0,0,0],"categories_nodes":[2,6,9,12,13,23,25,27,29,30],"categories_segments":[0,1,2,3,4,5,6,7,8,9],"categories_sizes":[1,1,1,1,1,1,1,1,1,1],"default_left":[0,0,1,0,0,0,1,0,0,1,0,0,1,1,0,0,0,0,0,0,0,0,0,1,0,1,0,1,0,1,1,0,0,0,0,0,0,0,0,0,0,0,0,0,0,0,0,0,0,0,0],"id":15,"left_children":[1,3,5,7,9,-1,11,13,15,17,-1,-1,19,21,23,25,27,-1,29,-1,-1,31,33,35,37,39,41,43,45,47,49,-1,-1,-1,-1,-1,-1,-1,-1,-1,-1,-1,-1,-1,-1,-1,-1,-1,-1,-1,-1],"loss_changes":[3.8330124E-3,3.6328575E-3,3.041366E-3,2.9880356E-3,8.313388E-4,0E0,2.757196E-3,4.802994E-3,9.879929E-3,2.2410217E-4,0E0,0E0,2.6575865E-3,3.1697343E-3,1.1761911E-2,1.0277878E-2,9.936691E-3,0E0,2.4894968E-4,0E0,0E0,2.4273535E-2,6.605711E-3,2.670463E-2,6.434617E-3,3.985836E-3,5.52633E-3,4.099397E-3,3.1342925E-4,1.0641973E-4,4.5985584E-5,0E0,0E0,0E0,0E0,0E0,0E0,0E0,0E0,0E0,0E0,0E0,0E0,0E0,0E0,0E0,0E0,0E0,0E0,0E0,0E0],"parents":[2147483647,0,0,1,1,2,2,3,3,4,4,6,6,7,7,8,8,9,9,12,12,13,13,14,14,15,15,16,16,18,18,21,21,22,22,23,23,24,24,25,25,26,26,27,27,28,28,29,29,30,30],"right_children":[2,4,6,8,10,-1,12,14,16,18,-1,-1,20,22,24,26,28,-1,30,-1,-1,32,34,36,38,40,42,44,46,48,50,-1,-1,-1,-1,-1,-1,-1,-1,-1,-1,-1,-1,-1,-1,-1,-1,-1,-1,-1,-1],"split_conditions":[8.575388E-1,8.3522725E-1,NaN,8.858857E-1,3.19E2,1.707142E-2,NaN,7.897445E-1,1.5142077E-1,NaN,-1.0944126E-2,1.1686367E-2,NaN,NaN,5.106816E-2,3.6E1,3.982239E-2,-6.110228E-3,2.1E1,7.6054935E-3,-5.850526E-3,5.12E2,3.9326074E2,NaN,1.9431002E-1,NaN,8.91857E-3,NaN,1.9E1,NaN,NaN,2.1338593E-3,-2.8746678E-3,-1.9787092E-4,1.2007061E-2,1.7772848E-2,1.7566128E-3,-2.5355406E-3,1.7828215E-3,-2.8473798E-3,6.9183554E-3,-8.683836E-3,-8.4145914E-4,2.9303145E-3,-1.466304E-2,-2.065202E-3,7.9550076E-4,-6.028646E-3,-2.1214832E-3,6.582133E-4,-1.1343347E-3],"split_indices":[24,25,31,18,0,0,33,18,20,31,0,0,29,31,4,1,5,0,1,0,0,0,22,33,28,30,5,30,1,32,30,0,0,0,0,0,0,0,0,0,0,0,0,0,0,0,0,0,0,0,0],"split_type":[0,0,1,0,0,0,1,0,0,1,0,0,1,1,0,0,0,0,0,0,0,0,0,1,0,1,0,1,0,1,1,0,0,0,0,0,0,0,0,0,0,0,0,0,0,0,0,0,0,0,0],"sum_hessian":[2.602E3,2.596E3,6E0,2.583E3,1.3E1,1E0,5E0,2.445E3,1.38E2,1.2E1,1E0,1E0,4E0,2.264E3,1.81E2,1.15E2,2.3E1,2E0,1E1,1E0,3E0,4.3E2,1.834E3,5.5E1,1.26E2,2.4E1,9.1E1,1.1E1,1.2E1,5E0,5E0,3.1E2,1.2E2,1.831E3,3E0,1.1E1,4.4E1,5.2E1,7.4E1,4E0,2E1,8E0,8.3E1,1E0,1E1,6E0,6E0,1E0,4E0,1E0,4E0],"tree_param":{"num_deleted":"0","num_feature":"35","num_nodes":"51","size_leaf_vector":"1"}},{"base_weights":[8.955255E-5,3.3693545E-5,2.080045E-2,-6.2942284E-4,1.7666032E-3,-3.5984926E-3,2.8265517E-2,-4.285258E-3,1.6655507E-4,1.0343751E-2,-5.5765897E-5,-3.011536E-3,3.7934E-2,5.0070463E-3,-1.6709767E-2,-2.1502706E-3,2.876877E-3,1.7067546E-2,-6.1502066E-2,-6.0216617E-3,2.6152332E-3,-2.4582872E-3,1.5454395E-2,1.6917933E-3,4.727408E-2,-1.2244962E-2,-9.108084E-2,-1.4837984E-3,-2.36313E-2,1.4170734E-3,1.7143786E-2,-1.6454207E-2,3.116747E-2,1.786267E-3,-3.4362018E-2,1.5661765E-2,-7.357846E-3,-8.763693E-3,4.6618152E-3,-2.155275E-3,4.01731E-3,1.84521E-4,2.8153569E-2,-9.923237E-3,3.8793878E-4,-5.198367E-4,-3.6172416E-2,-1.9921206E-3,2.9653282E-5,-3.8222305E-3,-1.1607907E-2,7.664707E-3,2.994383E-4,-9.3021896E-4,6.2442753E-3,1.0261391E-3,-1.1309754E-2,-7.7373385E-3,1.3291302E-2,-1.1509872E-2,9.436224E-3,3.5631474E-2,-6.1345105E-3,-1.2754364E-3,-5.4005184E-3,1.3110655E-3,-5.087448E-3,8.191033E-3,1.0260647E-3],"categories":[0,0,0,0,0,0],"categories_nodes":[2,3,4,6,12,35],"categories_segments":[0,1,2,3,4,5],"categories_sizes":[1,1,1,1,1,1],"default_left":[0,0,1,1,1,0,1,0,0,0,0,0,1,0,0,0,0,0,0,0,0,0,0,0,0,0,0,0,0,0,0,0,0,0,0,1,0,0,0,0,0,0,0,0,0,0,0,0,0,0,0,0,0,0,0,0,0,0,0,0,0,0,0,0,0,0,0,0,0],"id":16,"left_children":[1,3,5,7,9,-1,11,13,15,17,19,-1,21,23,25,27,29,31,33,35,37,-1,-1,39,41,43,45,47,49,51,53,55,57,59,-1,61,63,65,67,-1,-1,-1,-1,-1,-1,-1,-1,-1,-1,-1,-1,-1,-1,-1,-1,-1,-1,-1,-1,-1,-1,-1,-1,-1,-1,-1,-1,-1,-1],"loss_changes":[3.0106844E-3,2.9853785E-3,2.0527844E-3,5.468536E-3,1.123907E-2,0E0,2.6028468E-3,3.8875647E-2,9.701492E-3,6.1917335E-2,9.48108E-3,0E0,3.554386E-3,2.6964322E-2,4.670025E-2,1.1890588E-2,1.4804449E-2,5.5340715E-2,3.712815E-2,5.446279E-3,9.612185E-3,0E0,0E0,1.8787935E-2,3.0363768E-2,3.8681187E-2,2.0872839E-2,6.6029537E-3,3.607775E-3,6.5156566E-3,4.968783E-3,1.4907237E-2,6.2499784E-2,8.354198E-3,0E0,4.338508E-2,5.676613E-3,6.85451E-3,9.717649E-3,0E0,0E0,0E0,0E0,0E0,0E0,0E0,0E0,0E0,0E0,0E0,0E0,0E0,0E0,0E0,0E0,0E0,0E0,0E0,0E0,0E0,0E0,0E0,0E0,0E0,0E0,0E0,0E0,0E0,0E0],"parents":[2147483647,0,0,1,1,2,2,3,3,4,4,6,6,7,7,8,8,9,9,10,10,12,12,13,13,14,14,15,15,16,16,17,17,18,18,19,19,20,20,23,23,24,24,25,25,26,26,27,27,28,28,29,29,30,30,31,31,32,32,33,33,35,35,36,36,37,37,38,38],"right_children":[2,4,6,8,10,-1,12,14,16,18,20,-1,22,24,26,28,30,32,34,36,38,-1,-1,40,42,44,46,48,50,52,54,56,58,60,-1,62,64,66,68,-1,-1,-1,-1,-1,-1,-1,-1,-1,-1,-1,-1,-1,-1,-1,-1,-1,-1,-1,-1,-1,-1,-1,-1,-1,-1,-1,-1,-1,-1],"split_conditions":[8.575388E-1,7.9880476E-2,NaN,NaN,NaN,-3.5984926E-3,NaN,6.8332857E-1,3.5974586E-1,1.0000414E0,-2.2424954E-1,-3.011536E-3,NaN,4.0575787E-1,8.300781E-3,3.5764077E-1,5.6543183E-1,-3.7555325E-1,2.4967687E-1,6.533874E-1,5.029897E-4,-2.4582872E-3,1.5454395E-2,2.5371477E-2,3.9468664E-1,1.432E1,-2.0368566E-1,-1.0442073E-1,-3.0437752E-4,2.1289816E-1,2.0411657E-1,-4.3974128E-1,5.94662E-2,2.2113353E-1,-3.4362018E-2,NaN,2.759278E-1,-7.8049506E-4,1.36266025E-2,-2.155275E-3,4.01731E-3,1.84521E-4,2.8153569E-2,-9.923237E-3,3.8793878E-4,-5.198367E-4,-3.6172416E-2,-1.9921206E-3,2.9653282E-5,-3.8222305E-3,-1.1607907E-2,7.664707E-3,2.994383E-4,-9.3021896E-4,6.2442753E-3,1.0261391E-3,-1.1309754E-2,-7.7373385E-3,1.3291302E-2,-1.1509872E-2,9.436224E-3,3.5631474E-2,-6.1345105E-3,-1.2754364E-3,-5.4005184E-3,1.3110655E-3,-5.087448E-3,8.191033E-3,1.0260647E-3],"split_indices":[24,19,30,33,33,0,34,25,18,27,20,0,32,6,19,18,20,6,28,21,5,0,0,20,28,17,6,20,11,24,28,6,28,6,0,31,6,11,5,0,0,0,0,0,0,0,0,0,0,0,0,0,0,0,0,0,0,0,0,0,0,0,0,0,0,0,0,0,0],"split_type":[0,0,1,1,1,0,1,0,0,0,0,0,1,0,0,0,0,0,0,0,0,0,0,0,0,0,0,0,0,0,0,0,0,0,0,1,0,0,0,0,0,0,0,0,0,0,0,0,0,0,0,0,0,0,0,0,0,0,0,0,0,0,0,0,0,0,0,0,0],"sum_hessian":[2.602E3,2.596E3,6E0,1.878E3,7.18E2,1E0,5E0,3.35E2,1.543E3,1.25E2,5.93E2,1E0,4E0,1.92E2,1.43E2,8.32E2,7.11E2,1.15E2,1E1,1.83E2,4.1E2,1E0,3E0,1.79E2,1.3E1,1.36E2,7E0,8.08E2,2.4E1,6.46E2,6.5E1,3.4E1,8.1E1,5E0,5E0,1E1,1.73E2,6.2E1,3.48E2,1.02E2,7.7E1,7E0,6E0,5.3E1,8.3E1,2E0,5E0,1.89E2,6.19E2,1.5E1,9E0,1E1,6.36E2,1E1,5.5E1,1.8E1,1.6E1,1.5E1,6.6E1,2E0,3E0,2E0,8E0,1.35E2,3.8E1,2.4E1,3.8E1,1.7E1,3.31E2],"tree_param":{"num_deleted":"0","num_feature":"35","num_nodes":"69","size_leaf_vector":"1"}},{"base_weights":[5.2445044E-5,-3.103294E-3,4.0096696E-4,4.0038244E-4,-7.563236E-3,1.9379584E-3,-6.268943E-4,1.3353282E-3,-4.4610474E-2,1.2631471E-2,-1.051681E-2,1.4494789E-3,2.13504E-2,4.5651305E-3,-1.4766825E-3,-3.2513263E-4,1.2976617E-2,2.9875864E-3,-2.30623E-2,2.8327826E-2,1.9505111E-3,-6.1126812E-3,-2.0122366E-2,1.0144992E-3,1.6333612E-2,5.5174965E-2,1.3517968E-2,-2.2828833E-3,2.7899109E-2,-2.7386554E-2,-1.0841873E-3,-1.1016618E-2,1.6577826E-3,5.267615E-2,1.5249674E-3,1.0529145E-2,-8.278169E-4,1.7813732E-3,-3.2244697E-3,-2.2789498E-3,-1.059402E-2,-4.695062E-2,-1.180556E-2,7.38583E-3,-3.44135E-4,7.674377E-2,-1.7042239E-3,1.230788E-3,2.1249462E-2,3.3527844E-2,6.4200093E-3,2.850902E-3,-1.6040856E-2,-1.3451772E-2,4.7007628E-2,9.63844E-3,-4.2368352E-2,-1.1801285E-2,-4.2532253E-4,7.831999E-4,-6.7210644E-3,-2.5466346E-5,9.389199E-3,1.7265005E-3,2.901594E-2,3.1155362E-3,-4.048835E-3,-2.6593645E-4,-1.8864796E-3,-4.8496933E-3,5.478557E-4,-8.962589E-3,-1.200075E-3,-2.898598E-3,-2.803444E-2,-9.694133E-3,-6.104802E-4,3.6217317E-3,-4.6879356E-3,6.262214E-4,-9.160126E-4,1.0180545E-2,2.6899287E-2,9.388804E-3,-4.19184E-3,2.3633216E-2,7.5633416E-4,7.5493045E-3,-5.775396E-4,1.4754032E-2,2.0986631E-4,-2.3693205E-3,-9.051588E-3,-6.1459197E-3,6.4546587E-3,9.1791194E-4,1.7229823E-2,4.709136E-3,-4.9578416E-4,1.4785522E-3,-1.542475E-2,-6.7413473E-3,3.7139276E-4,-4.2006043E-3,4.6162215E-5],"categories":[0,0,0,0,0,0,0,0,0,0,0,0,0,0,0,0,0],"categories_nodes":[4,6,8,12,15,16,22,23,24,26,29,39,40,42,46,50,56],"categories_segments":[0,1,2,3,4,5,6,7,8,9,10,11,12,13,14,15,16],"categories_sizes":[1,1,1,1,1,1,1,1,1,1,1,1,1,1,1,1,1],"default_left":[0,0,0,0,1,0,1,0,1,0,0,0,1,0,0,1,1,0,0,0,0,0,1,1,1,0,1,0,0,1,0,0,0,0,0,0,0,0,0,1,1,0,1,0,0,0,1,0,0,0,1,0,0,0,0,0,1,0,0,0,0,0,0,0,0,0,0,0,0,0,0,0,0,0,0,0,0,0,0,0,0,0,0,0,0,0,0,0,0,0,0,0,0,0,0,0,0,0,0,0,0,0,0,0,0],"id":17,"left_children":[1,3,5,7,9,11,13,15,17,19,21,23,25,27,29,31,33,-1,-1,35,37,39,41,43,45,47,49,51,53,55,57,59,61,63,65,-1,-1,-1,67,69,71,73,75,77,79,81,83,-1,-1,85,87,89,91,93,95,97,99,101,103,-1,-1,-1,-1,-1,-1,-1,-1,-1,-1,-1,-1,-1,-1,-1,-1,-1,-1,-1,-1,-1,-1,-1,-1,-1,-1,-1,-1,-1,-1,-1,-1,-1,-1,-1,-1,-1,-1,-1,-1,-1,-1,-1,-1,-1,-1],"loss_changes":[2.8641387E-3,4.0502124E-3,3.7058787E-3,6.203645E-3,6.932551E-3,8.882679E-3,6.2101837E-3,2.7877253E-3,6.047391E-3,2.4595286E-3,4.107409E-3,5.926834E-3,5.347505E-3,3.1702388E-2,1.2265235E-2,2.7107026E-3,8.102923E-3,0E0,0E0,1.3594828E-3,2.2549374E-4,1.1784739E-3,6.3626077E-3,7.732624E-3,2.8462166E-2,2.907875E-3,2.625336E-3,1.0922826E-2,3.618927E-2,1.0392983E-2,8.411833E-3,3.1619463E-3,5.581069E-3,7.709692E-3,2.1364952E-3,0E0,0E0,0E0,3.0241732E-5,2.2527853E-3,3.948853E-3,1.1233901E-2,4.943697E-3,1.712103E-2,4.861453E-3,2.7588755E-4,8.939477E-3,0E0,0E0,6.816594E-3,2.551231E-3,1.1228332E-2,4.594705E-3,4.1305027E-3,1.40272975E-2,4.3639465E-4,5.8163255E-3,9.627597E-3,8.840811E-3,0E0,0E0,0E0,0E0,0E0,0E0,0E0,0E0,0E0,0E0,0E0,0E0,0E0,0E0,0E0,0E0,0E0,0E0,0E0,0E0,0E0,0E0,0E0,0E0,0E0,0E0,0E0,0E0,0E0,0E0,0E0,0E0,0E0,0E0,0E0,0E0,0E0,0E0,0E0,0E0,0E0,0E0,0E0,0E0,0E0,0E0],"parents":[2147483647,0,0,1,1,2,2,3,3,4,4,5,5,6,6,7,7,8,8,9,9,10,10,11,11,12,12,13,13,14,14,15,15,16,16,19,19,20,20,21,21,22,22,23,23,24,24,25,25,26,26,27,27,28,28,29,29,30,30,31,31,32,32,33,33,34,34,38,38,39,39,40,40,41,41,42,42,43,43,44,44,45,45,46,46,49,49,50,50,51,51,52,52,53,53,54,54,55,55,56,56,57,57,58,58],"right_children":[2,4,6,8,10,12,14,16,18,20,22,24,26,28,30,32,34,-1,-1,36,38,40,42,44,46,48,50,52,54,56,58,60,62,64,66,-1,-1,-1,68,70,72,74,76,78,80,82,84,-1,-1,86,88,90,92,94,96,98,100,102,104,-1,-1,-1,-1,-1,-1,-1,-1,-1,-1,-1,-1,-1,-1,-1,-1,-1,-1,-1,-1,-1,-1,-1,-1,-1,-1,-1,-1,-1,-1,-1,-1,-1,-1,-1,-1,-1,-1,-1,-1,-1,-1,-1,-1,-1,-1],"split_conditions":[-4.294101E-2,-1.08784646E-1,-1.1658371E-4,1.4547585E-1,NaN,4.253318E1,NaN,3.6173912E1,NaN,-9.8582394E-2,2.1130271E-1,7.7747434E-1,NaN,7.170268E-1,-9.2158496E-1,NaN,NaN,2.9875864E-3,-2.30623E-2,2.25E2,4.5923555E-1,1.766154E1,NaN,NaN,NaN,4.55E2,NaN,4.5845273E-1,1.36E2,NaN,-5.0219023E-5,-2.859987E-1,3.1730476E-1,1.0378378E1,4.3093905E-1,1.0529145E-2,-8.278169E-4,1.7813732E-3,8.389751E-2,NaN,NaN,8.389751E-2,NaN,6.8581325E-1,3.3E2,8E1,NaN,1.230788E-3,2.1249462E-2,4.55E2,NaN,-3.246822E-5,-4.5320272E-2,1.3020635E-1,8.905898E-2,8.502004E-2,NaN,3.4664062E1,2E1,7.831999E-4,-6.7210644E-3,-2.5466346E-5,9.389199E-3,1.7265005E-3,2.901594E-2,3.1155362E-3,-4.048835E-3,-2.6593645E-4,-1.8864796E-3,-4.8496933E-3,5.478557E-4,-8.962589E-3,-1.200075E-3,-2.898598E-3,-2.803444E-2,-9.694133E-3,-6.104802E-4,3.6217317E-3,-4.6879356E-3,6.262214E-4,-9.160126E-4,1.0180545E-2,2.6899287E-2,9.388804E-3,-4.19184E-3,2.3633216E-2,7.5633416E-4,7.5493045E-3,-5.775396E-4,1.4754032E-2,2.0986631E-4,-2.3693205E-3,-9.051588E-3,-6.1459197E-3,6.4546587E-3,9.1791194E-4,1.7229823E-2,4.709136E-3,-4.9578416E-4,1.4785522E-3,-1.542475E-2,-6.7413473E-3,3.7139276E-4,-4.2006043E-3,4.6162215E-5],"split_indices":[11,11,11,7,30,22,32,13,31,11,3,27,33,12,19,32,33,0,0,1,24,17,32,31,32,0,31,12,0,29,11,7,5,2,3,0,0,0,5,29,34,5,29,5,1,0,29,0,0,0,29,11,7,11,28,18,30,17,1,0,0,0,0,0,0,0,0,0,0,0,0,0,0,0,0,0,0,0,0,0,0,0,0,0,0,0,0,0,0,0,0,0,0,0,0,0,0,0,0,0,0,0,0,0,0],"split_type":[0,0,0,0,1,0,1,0,1,0,0,0,1,0,0,1,1,0,0,0,0,0,1,1,1,0,1,0,0,1,0,0,0,0,0,0,0,0,0,1,1,0,1,0,0,0,1,0,0,0,1,0,0,0,0,0,1,0,0,0,0,0,0,0,0,0,0,0,0,0,0,0,0,0,0,0,0,0,0,0,0,0,0,0,0,0,0,0,0,0,0,0,0,0,0,0,0,0,0,0,0,0,0,0,0],"sum_hessian":[2.602E3,2.58E2,2.344E3,1.45E2,1.13E2,9.39E2,1.405E3,1.43E2,2E0,1.4E1,9.9E1,9.17E2,2.2E1,1.97E2,1.208E3,1.26E2,1.7E1,1E0,1E0,5E0,9E0,6.9E1,3E1,8.92E2,2.5E1,3E0,1.9E1,1.53E2,4.4E1,1.7E1,1.191E3,1.9E1,1.07E2,3E0,1.4E1,4E0,1E0,5E0,4E0,3.8E1,3.1E1,6E0,2.4E1,1.56E2,7.36E2,5E0,2E1,1E0,2E0,4E0,1.5E1,1.12E2,4.1E1,1.4E1,3E1,5E0,1.2E1,6.8E1,1.123E3,9E0,1E1,1.02E2,5E0,2E0,1E0,9E0,5E0,3E0,1E0,8E0,3E1,7E0,2.4E1,4E0,2E0,7E0,1.7E1,1.3E2,2.6E1,3.88E2,3.48E2,2E0,3E0,5E0,1.5E1,1E0,3E0,4E0,1.1E1,4E0,1.08E2,2.7E1,1.4E1,1.2E1,2E0,6E0,2.4E1,3E0,2E0,2E0,1E1,3.7E1,3.1E1,4.5E1,1.078E3],"tree_param":{"num_deleted":"0","num_feature":"35","num_nodes":"105","size_leaf_vector":"1"}},{"base_weights":[6.1026803E-5,3.1820632E-4,-4.398389E-3,-1.3090226E-4,4.4960277E-3,-1.4717328E-2,-2.0676982E-3,-7.0116166E-3,-5.749425E-5,2.6342254E-2,-2.9526046E-4,7.612595E-3,-3.160011E-2,1.620827E-2,-3.9272117E-3,-2.417267E-4,7.472788E-3,3.5040997E-2,-3.0396387E-2,1.1378137E-2,-3.531782E-3,-2.4511928E-3,1.1586308E-2,-1.863984E-2,-1.8789208E-2,3.665507E-2,7.5917537E-3,-6.573645E-3,1.153523E-2,-2.5758443E-3,2.6428743E-4,3.313806E-2,1.469936E-3,4.758955E-2,-3.2707646E-2,5.122083E-2,-6.7495345E-4,-1.09619E-2,1.0239787E-3,-7.5300774E-3,4.133707E-3,-1.2811927E-2,-6.071644E-3,1.9359803E-2,-2.8650225E-3,-7.7850358E-3,2.1450194E-2,2.6322145E-3,-8.401179E-3,-4.8429808E-3,1.5687354E-2,-1.2105253E-3,1.0135507E-2,1.4143314E-3,-1.2855433E-4,-2.5909273E-3,2.2991948E-2,7.5559523E-3,-1.8738919E-3,-1.2947302E-3,1.9716833E-2,-1.892086E-3,-2.8666774E-2,-1.3338488E-3,2.6721958E-2,-2.8427574E-3,7.447463E-3,-8.6902E-3,-8.952871E-4,6.5754016E-4,-1.088951E-2,-9.4016193E-4,-3.2644975E-3,4.0240822E-4,2.2954638E-3,-2.3107224E-3,1.0461698E-3,-8.627652E-3,1.3944377E-3,2.0088233E-2,-2.000294E-3,3.500958E-3,-1.0532316E-4,4.187854E-4,-2.915516E-3,-2.3992339E-3,6.930618E-4,2.1723374E-3,8.32593E-3],"categories":[0,0,0,0,0,0,0,0,0,0,0,0],"categories_nodes":[2,4,13,15,16,19,28,37,45,46,47,48],"categories_segments":[0,1,2,3,4,5,6,7,8,9,10,11],"categories_sizes":[1,1,1,1,1,1,1,1,1,1,1,1],"default_left":[0,0,1,0,1,0,0,0,0,0,0,0,0,1,0,1,1,0,0,1,0,0,0,0,0,0,0,0,1,0,0,0,0,0,0,0,0,1,0,0,0,0,0,0,0,1,1,1,1,0,0,0,0,0,0,0,0,0,0,0,0,0,0,0,0,0,0,0,0,0,0,0,0,0,0,0,0,0,0,0,0,0,0,0,0,0,0,0,0],"id":18,"left_children":[1,3,5,7,9,11,13,-1,15,17,19,21,23,25,27,29,31,33,-1,35,37,39,-1,-1,41,43,45,47,49,51,53,55,57,59,61,63,65,67,69,71,73,-1,75,-1,-1,77,79,81,83,85,87,-1,-1,-1,-1,-1,-1,-1,-1,-1,-1,-1,-1,-1,-1,-1,-1,-1,-1,-1,-1,-1,-1,-1,-1,-1,-1,-1,-1,-1,-1,-1,-1,-1,-1,-1,-1,-1,-1],"loss_changes":[2.986703E-3,4.620028E-3,3.3847054E-3,3.7929935E-3,2.5024282E-2,1.0042332E-2,4.03983E-3,0E0,3.078887E-3,5.1302418E-2,7.4830824E-3,3.8394143E-3,4.699844E-3,1.6597058E-3,4.454302E-3,2.5589357E-3,8.116724E-3,3.6412604E-2,0E0,2.0684358E-2,5.25795E-3,3.6556658E-4,0E0,0E0,3.3907262E-3,4.4805584E-3,2.0848752E-3,1.5699235E-3,1.1640433E-3,2.0617183E-2,5.492972E-3,1.8834533E-2,8.209446E-3,3.3226006E-2,1.1011997E-2,2.1467308E-2,7.8655705E-3,8.388331E-3,4.3073855E-3,5.4303702E-5,3.8851642E-5,0E0,1.671545E-4,0E0,0E0,1.4375283E-3,6.8447674E-3,4.3548795E-4,1.0072407E-3,1.0873366E-4,1.123867E-3,0E0,0E0,0E0,0E0,0E0,0E0,0E0,0E0,0E0,0E0,0E0,0E0,0E0,0E0,0E0,0E0,0E0,0E0,0E0,0E0,0E0,0E0,0E0,0E0,0E0,0E0,0E0,0E0,0E0,0E0,0E0,0E0,0E0,0E0,0E0,0E0,0E0,0E0],"parents":[2147483647,0,0,1,1,2,2,3,3,4,4,5,5,6,6,8,8,9,9,10,10,11,11,12,12,13,13,14,14,15,15,16,16,17,17,19,19,20,20,21,21,24,24,25,25,26,26,27,27,28,28,29,29,30,30,31,31,32,32,33,33,34,34,35,35,36,36,37,37,38,38,39,39,40,40,42,42,45,45,46,46,47,47,48,48,49,49,50,50],"right_children":[2,4,6,8,10,12,14,-1,16,18,20,22,24,26,28,30,32,34,-1,36,38,40,-1,-1,42,44,46,48,50,52,54,56,58,60,62,64,66,68,70,72,74,-1,76,-1,-1,78,80,82,84,86,88,-1,-1,-1,-1,-1,-1,-1,-1,-1,-1,-1,-1,-1,-1,-1,-1,-1,-1,-1,-1,-1,-1,-1,-1,-1,-1,-1,-1,-1,-1,-1,-1,-1,-1,-1,-1,-1,-1],"split_conditions":[3.9853403E-1,2.7488425E-1,NaN,2.744361E0,NaN,2.0544117E1,1.4155911E-4,-7.0116166E-3,6.087963E-1,2.6682585E-1,6.533874E-1,1.36E2,1.7135599E-4,NaN,8.09375E-1,NaN,NaN,9.8293775E-1,-3.0396387E-2,NaN,3.214526E-1,9.255E0,1.1586308E-2,-1.863984E-2,-2.409126E-1,2.35E2,2.35E2,2.0852728E-2,NaN,4.3642733E-1,3.6E1,1.04E2,-5.6345236E-1,-3.8387114E-1,9.9E1,1.8327105E-1,3.1712335E-1,NaN,1.9215E2,1.2687933E-1,1.6989005E-1,-1.2811927E-2,2.88E2,1.9359803E-2,-2.8650225E-3,NaN,NaN,NaN,NaN,1.8613296E-2,8.536859E-2,-1.2105253E-3,1.0135507E-2,1.4143314E-3,-1.2855433E-4,-2.5909273E-3,2.2991948E-2,7.5559523E-3,-1.8738919E-3,-1.2947302E-3,1.9716833E-2,-1.892086E-3,-2.8666774E-2,-1.3338488E-3,2.6721958E-2,-2.8427574E-3,7.447463E-3,-8.6902E-3,-8.952871E-4,6.5754016E-4,-1.088951E-2,-9.4016193E-4,-3.2644975E-3,4.0240822E-4,2.2954638E-3,-2.3107224E-3,1.0461698E-3,-8.627652E-3,1.3944377E-3,2.0088233E-2,-2.000294E-3,3.500958E-3,-1.0532316E-4,4.187854E-4,-2.915516E-3,-2.3992339E-3,6.930618E-4,2.1723374E-3,8.32593E-3],"split_indices":[19,19,33,22,33,9,4,0,20,7,21,0,5,29,24,33,31,21,0,31,19,22,0,0,20,0,0,28,30,7,1,2,6,6,1,16,19,31,9,14,3,0,0,0,0,31,31,31,30,3,5,0,0,0,0,0,0,0,0,0,0,0,0,0,0,0,0,0,0,0,0,0,0,0,0,0,0,0,0,0,0,0,0,0,0,0,0,0,0],"split_type":[0,0,1,0,1,0,0,0,0,0,0,0,0,1,0,1,1,0,0,1,0,0,0,0,0,0,0,0,1,0,0,0,0,0,0,0,0,1,0,0,0,0,0,0,0,1,1,1,1,0,0,0,0,0,0,0,0,0,0,0,0,0,0,0,0,0,0,0,0,0,0,0,0,0,0,0,0,0,0,0,0,0,0,0,0,0,0,0,0],"sum_hessian":[2.602E3,2.461E3,1.41E2,2.223E3,2.38E2,2.5E1,1.16E2,6E0,2.217E3,4.2E1,1.96E2,1.1E1,1.4E1,1E1,1.06E2,2.165E3,5.2E1,4E1,2E0,4.2E1,1.54E2,9E0,2E0,3E0,1.1E1,2E0,8E0,9.1E1,1.5E1,3.85E2,1.78E3,9E0,4.3E1,3.4E1,6E0,9E0,3.3E1,5.8E1,9.6E1,5E0,4E0,3E0,8E0,1E0,1E0,4E0,4E0,1.5E1,7.6E1,3E0,1.2E1,3.71E2,1.4E1,2.39E2,1.541E3,5E0,4E0,1E1,3.3E1,9E0,2.5E1,5E0,1E0,4E0,5E0,2.5E1,8E0,1.7E1,4.1E1,9.4E1,2E0,3E0,2E0,3E0,1E0,7E0,1E0,1E0,3E0,1E0,3E0,3E0,1.2E1,9E0,6.7E1,2E0,1E0,8E0,4E0],"tree_param":{"num_deleted":"0","num_feature":"35","num_nodes":"89","size_leaf_vector":"1"}},{"base_weights":[4.707077E-5,-7.9618464E-4,1.4128597E-3,-4.5385384E-3,3.290063E-5,7.5120106E-3,1.454232E-4,-6.9558057E-3,3.2644074E-2,9.255159E-4,-6.929718E-3,3.268848E-2,2.3537613E-3,2.4682367E-3,-4.603596E-3,2.3390051E-2,-7.863542E-3,1.2710291E-1,5.2787773E-3,1.041233E-3,-3.3066325E-2,-3.2413742E-3,-1.990835E-2,4.676143E-3,6.2367685E-2,-7.902849E-4,3.3855017E-2,-2.5206509E-3,5.360729E-3,-6.8651927E-3,5.2869236E-3,-8.894769E-3,6.371012E-2,4.6968013E-2,5.809732E-3,-5.887284E-3,1.5571635E-2,6.30214E-4,1.1770423E-2,-2.2613624E-2,6.164064E-3,2.6175022E-4,-1.6972851E-2,1.2179649E-2,-2.7490115E-2,1.0293249E-2,-6.9287196E-3,-4.206678E-3,7.381397E-2,9.888323E-3,-1.2834032E-2,5.830675E-2,-1.6929112E-2,4.830298E-3,-4.938688E-3,4.7056142E-2,4.622194E-3,2.3191741E-3,-9.634145E-3,2.458786E-2,-2.0325757E-5,5.5948334E-5,-5.0174193E-3,2.9200116E-2,-5.5740965E-3,4.3067215E-3,-4.0187296E-3,3.9521448E-4,-1.1231794E-3,9.241181E-3,1.7478428E-3,-8.7623304E-4,3.650062E-3,-5.9275667E-4,5.258564E-3,-1.1018469E-2,-2.9523007E-3,4.8929824E-6,1.2773954E-2,-6.473079E-3,-2.0280993E-2,6.6557038E-3,9.953128E-4,-1.7741846E-3,-1.1882057E-4,6.7653675E-3,2.651876E-2,2.5824992E-2,1.9144093E-3,1.1949042E-2,-5.145831E-3,-4.4668587E-3,2.4404116E-2,3.3465505E-3,-8.021693E-3,3.653487E-3,6.771341E-4,6.5050303E-4,-2.0242562E-3,-3.0333388E-3,1.8153548E-2,1.8527602E-3,-2.6784642E-3,1.2699771E-2,-1.4537566E-3,-1.6402024E-3,-8.442358E-3,1.8067053E-2,2.993198E-3,-7.6387543E-4,5.6026764E-3],"categories":[0,0,0,0,0,0,0,0,0,0,0],"categories_nodes":[1,2,20,22,29,30,38,40,42,54,55],"categories_segments":[0,1,2,3,4,5,6,7,8,9,10],"categories_sizes":[1,1,1,1,1,1,1,1,1,1,1],"default_left":[0,1,1,0,0,0,0,0,0,0,0,0,0,0,0,0,0,0,0,0,1,0,1,0,0,0,0,0,0,1,1,0,0,0,0,0,0,0,1,0,1,0,1,0,0,0,0,0,0,0,0,0,0,0,1,1,0,0,0,0,0,0,0,0,0,0,0,0,0,0,0,0,0,0,0,0,0,0,0,0,0,0,0,0,0,0,0,0,0,0,0,0,0,0,0,0,0,0,0,0,0,0,0,0,0,0,0,0,0,0,0],"id":19,"left_children":[1,3,5,7,9,11,13,15,17,19,21,23,25,27,29,-1,31,33,35,37,39,41,43,45,47,49,51,53,55,57,59,61,63,-1,-1,65,-1,67,69,-1,71,73,75,77,79,81,-1,83,85,87,89,91,93,95,97,99,101,103,105,107,109,-1,-1,-1,-1,-1,-1,-1,-1,-1,-1,-1,-1,-1,-1,-1,-1,-1,-1,-1,-1,-1,-1,-1,-1,-1,-1,-1,-1,-1,-1,-1,-1,-1,-1,-1,-1,-1,-1,-1,-1,-1,-1,-1,-1,-1,-1,-1,-1,-1,-1],"loss_changes":[2.9990228E-3,4.9955454E-3,7.682812E-3,2.6472114E-2,8.20392E-3,2.2130229E-2,9.100977E-3,2.1812126E-2,4.5857146E-2,4.6365513E-3,7.1159177E-3,2.3818495E-2,1.4189675E-2,8.007909E-3,6.0981233E-3,0E0,2.071645E-2,9.662598E-3,8.115127E-3,5.1389365E-3,7.1043703E-3,5.6806044E-3,8.363183E-3,2.7336907E-3,1.0978915E-2,1.6974876E-2,1.7129961E-2,3.6499281E-3,1.0591027E-2,5.6426106E-3,5.2246787E-3,1.920172E-2,1.2876093E-2,0E0,0E0,2.168232E-3,0E0,3.386424E-3,4.685575E-3,0E0,1.991404E-4,3.7050804E-3,3.019974E-3,2.5876807E-3,4.9456414E-3,1.0877795E-3,0E0,1.7174894E-5,6.9766566E-3,1.815556E-2,1.4784649E-2,1.6389396E-2,1.675792E-3,9.368069E-4,1.9943663E-3,5.2271904E-3,7.339445E-3,1.5113389E-2,1.2955733E-2,5.126344E-3,1.983757E-3,0E0,0E0,0E0,0E0,0E0,0E0,0E0,0E0,0E0,0E0,0E0,0E0,0E0,0E0,0E0,0E0,0E0,0E0,0E0,0E0,0E0,0E0,0E0,0E0,0E0,0E0,0E0,0E0,0E0,0E0,0E0,0E0,0E0,0E0,0E0,0E0,0E0,0E0,0E0,0E0,0E0,0E0,0E0,0E0,0E0,0E0,0E0,0E0,0E0,0E0],"parents":[2147483647,0,0,1,1,2,2,3,3,4,4,5,5,6,6,7,7,8,8,9,9,10,10,11,11,12,12,13,13,14,14,16,16,17,17,18,18,19,19,20,20,21,21,22,22,23,23,24,24,25,25,26,26,27,27,28,28,29,29,30,30,31,31,32,32,35,35,37,37,38,38,40,40,41,41,42,42,43,43,44,44,45,45,47,47,48,48,49,49,50,50,51,51,52,52,53,53,54,54,55,55,56,56,57,57,58,58,59,59,60,60],"right_children":[2,4,6,8,10,12,14,16,18,20,22,24,26,28,30,-1,32,34,36,38,40,42,44,46,48,