{"learner":{"attributes":{"scikit_learn":"{\"_estimator_type\": \"regressor\"}"},"feature_names":["L","DS","APC","DV","IV","GBC","DN5","DN10","COf1","COfi","COh","COt","MD","SB","SBT","PD","COE","IN","FCm","DNOp","DNOn","SPa","SBb","SBm","FCr","FCd","SPc","FCs","ID","model_DTW-KNN","model_KERNEL","model_NN","model_RF","model_SHAPELET","model_TS-RF"],"feature_types":["float","float","float","float","float","float","float","float","float","float","float","float","float","float","float","float","float","float","float","float","float","float","float","float","float","float","float","float","float","c","c","c","c","c","c"],"gradient_booster":{"model":{"gbtree_model_param":{"num_parallel_tree":"1","num_trees":"100"},"iteration_indptr":[0,1,2,3,4,5,6,7,8,9,10,11,12,13,14,15,16,17,18,19,20,21,22,23,24,25,26,27,28,29,30,31,32,33,34,35,36,37,38,39,40,41,42,43,44,45,46,47,48,49,50,51,52,53,54,55,56,57,58,59,60,61,62,63,64,65,66,67,68,69,70,71,72,73,74,75,76,77,78,79,80,81,82,83,84,85,86,87,88,89,90,91,92,93,94,95,96,97,98,99,100],"tree_info":[0,0,0,0,0,0,0,0,0,0,0,0,0,0,0,0,0,0,0,0,0,0,0,0,0,0,0,0,0,0,0,0,0,0,0,0,0,0,0,0,0,0,0,0,0,0,0,0,0,0,0,0,0,0,0,0,0,0,0,0,0,0,0,0,0,0,0,0,0,0,0,0,0,0,0,0,0,0,0,0,0,0,0,0,0,0,0,0,0,0,0,0,0,0,0,0,0,0,0,0],"trees":[{"base_weights":[9.0237195E-10,1.0977176E-2,-1.0305102E-2,4.5651972E-2,4.0655215E-3,-6.252248E-2,-8.543622E-3,3.2947104E-2,5.3861153E-1,3.6038667E-2,-4.0053935E-3,-2.7186581E-1,-2.1026E-2,-6.8158708E-3,-5.7328574E-2,5.917519E-2,-1.762846E-2,3.4822192E-2,1.7471762E-1,6.290218E-2,1.4088687E-3,5.417069E-2,-6.792697E-3,-5.5565983E-3,-1.2419631E-1,-4.4549506E-2,-1.5073137E-2,1.8976538E-2,-1.1254358E-2,-2.2738743E-1,-1.68269E-2,2.6451772E-2,1.0583172E-1,4.5805655E-2,-5.5616256E-2,2.5169713E-2,1.04248695E-1,-4.2809453E-3,1.9775653E-2,9.012185E-2,-6.019038E-3,-2.095109E-2,3.0588693E-5,-5.081122E-2,2.710145E-3,6.3030114E-3,-1.7208198E-2,-2.4242269E-2,4.6596833E-2,-2.0001393E-2,-7.2543784E-3,-7.345476E-2,-2.676956E-3,-2.9296993E-4,-2.2331234E-2,5.394525E-2,5.528805E-3,2.6410278E-2,6.526709E-2,-1.5009512E-2,2.2297021E-2,-2.9635366E-2,5.3749643E-3,-4.4140276E-3,1.05220415E-2,1.1130082E-1,2.5037637E-2,-4.1011884E-3,1.3119273E-3,1.5617745E-2,-1.6277257E-3,1.7819417E-3,3.509047E-2,7.533502E-3,-4.168362E-3,5.827298E-4,-6.3561737E-3,3.5401236E-3,-3.1214568E-3,-7.968117E-3,-1.8765513E-2,-3.5145574E-3,4.120908E-3,-6.6887145E-3,-4.428787E-3,1.9113936E-2,-1.0366349E-2,9.686937E-3,5.040075E-2,-6.256134E-3,-3.7927472E-3,-4.538862E-3,1.4924154E-3,5.5731786E-3,-3.4757438E-3,-4.6660295E-3,-8.51052E-3],"categories":[0,0,0,0,0,0,0,0,0,0,0],"categories_nodes":[1,4,5,12,13,14,30,39,40,45,46],"categories_segments":[0,1,2,3,4,5,6,7,8,9,10],"categories_sizes":[1,1,1,1,1,1,1,1,1,1,1],"default_left":[0,1,0,0,1,1,0,0,0,0,0,0,1,1,1,0,0,0,0,0,0,0,0,0,0,0,0,0,0,0,1,0,0,0,0,0,0,0,0,1,1,0,0,0,0,1,1,0,0,0,0,0,0,0,0,0,0,0,0,0,0,0,0,0,0,0,0,0,0,0,0,0,0,0,0,0,0,0,0,0,0,0,0,0,0,0,0,0,0,0,0,0,0,0,0,0,0],"id":0,"left_children":[1,3,5,7,9,11,13,15,17,19,21,23,25,27,29,31,33,-1,-1,35,37,39,41,-1,-1,43,45,47,49,51,53,55,57,59,61,63,65,67,69,71,73,75,77,79,-1,81,83,85,87,89,91,-1,-1,93,95,-1,-1,-1,-1,-1,-1,-1,-1,-1,-1,-1,-1,-1,-1,-1,-1,-1,-1,-1,-1,-1,-1,-1,-1,-1,-1,-1,-1,-1,-1,-1,-1,-1,-1,-1,-1,-1,-1,-1,-1,-1,-1],"loss_changes":[4.5135248E-1,4.6283787E-1,1.8876043E-1,1.9926727E0,4.161251E-1,5.763135E-1,1.6751142E-1,4.1756427E-1,8.039069E-2,3.0225173E-1,2.0922284E-1,3.8839477E-1,7.3103346E-3,2.2058621E-1,4.6453524E-1,3.1324017E-1,2.6279756E-1,0E0,0E0,2.8287548E-1,1.502867E-2,1.28212E-1,1.18826956E-1,0E0,0E0,4.149778E-3,2.2535138E-3,3.389513E-1,5.734013E-2,4.740721E-2,5.089922E-3,1.48021E-1,1.498636E-1,1.1577422E-1,2.1762133E-1,3.8830362E-2,4.5152062E-1,8.998234E-3,2.7944503E-2,8.2924604E-2,5.9878244E-3,2.203703E-3,1.02188975E-1,1.1857674E-3,0E0,8.3060196E-4,2.0585861E-4,1.0288029E-1,2.950686E-1,2.9667467E-3,1.0880484E-1,0E0,0E0,3.4117107E-3,1.2773592E-3,0E0,0E0,0E0,0E0,0E0,0E0,0E0,0E0,0E0,0E0,0E0,0E0,0E0,0E0,0E0,0E0,0E0,0E0,0E0,0E0,0E0,0E0,0E0,0E0,0E0,0E0,0E0,0E0,0E0,0E0,0E0,0E0,0E0,0E0,0E0,0E0,0E0,0E0,0E0,0E0,0E0,0E0],"parents":[2147483647,0,0,1,1,2,2,3,3,4,4,5,5,6,6,7,7,8,8,9,9,10,10,11,11,12,12,13,13,14,14,15,15,16,16,19,19,20,20,21,21,22,22,25,25,26,26,27,27,28,28,29,29,30,30,31,31,32,32,33,33,34,34,35,35,36,36,37,37,38,38,39,39,40,40,41,41,42,42,43,43,45,45,46,46,47,47,48,48,49,49,50,50,53,53,54,54],"right_children":[2,4,6,8,10,12,14,16,18,20,22,24,26,28,30,32,34,-1,-1,36,38,40,42,-1,-1,44,46,48,50,52,54,56,58,60,62,64,66,68,70,72,74,76,78,80,-1,82,84,86,88,90,92,-1,-1,94,96,-1,-1,-1,-1,-1,-1,-1,-1,-1,-1,-1,-1,-1,-1,-1,-1,-1,-1,-1,-1,-1,-1,-1,-1,-1,-1,-1,-1,-1,-1,-1,-1,-1,-1,-1,-1,-1,-1,-1,-1,-1,-1],"split_conditions":[1.3274796E-1,NaN,7.5925297E-1,6.7716646E-1,NaN,NaN,6.0712147E0,3.1E2,1.1965454E-1,4.199609E-2,2.1641052E-8,5.753871E-1,NaN,NaN,NaN,1.85E1,7.0273876E-1,3.4822192E-2,1.7471762E-1,4.9379677E-1,7.565902E-1,1.3805357E2,1.9484456E-1,-5.5565983E-3,-1.2419631E-1,1.2804505E-2,1.6E1,-2.0637377E-1,2.0593297E-1,1.36E2,NaN,1.1404871E-2,9.0893455E-2,4.4640317E-3,8.155429E0,1.8927787E-1,2.1300378E-1,3.337714E-1,6.869444E1,NaN,NaN,1.4339147E-2,7.4038464E-1,9.094152E-1,2.710145E-3,NaN,NaN,4.9E1,1.2648276E2,1.35E2,6.591249E-2,-7.345476E-2,-2.676956E-3,2.03E2,1.3578573E-2,5.394525E-2,5.528805E-3,2.6410278E-2,6.526709E-2,-1.5009512E-2,2.2297021E-2,-2.9635366E-2,5.3749643E-3,-4.4140276E-3,1.05220415E-2,1.1130082E-1,2.5037637E-2,-4.1011884E-3,1.3119273E-3,1.5617745E-2,-1.6277257E-3,1.7819417E-3,3.509047E-2,7.533502E-3,-4.168362E-3,5.827298E-4,-6.3561737E-3,3.5401236E-3,-3.1214568E-3,-7.968117E-3,-1.8765513E-2,-3.5145574E-3,4.120908E-3,-6.6887145E-3,-4.428787E-3,1.9113936E-2,-1.0366349E-2,9.686937E-3,5.040075E-2,-6.256134E-3,-3.7927472E-3,-4.538862E-3,1.4924154E-3,5.5731786E-3,-3.4757438E-3,-4.6660295E-3,-8.51052E-3],"split_indices":[3,33,8,7,31,33,28,1,19,3,5,5,29,33,33,2,12,0,0,28,25,13,28,0,0,6,1,19,28,0,32,14,14,3,8,25,24,28,13,30,29,14,28,5,0,30,30,1,9,2,4,0,0,1,4,0,0,0,0,0,0,0,0,0,0,0,0,0,0,0,0,0,0,0,0,0,0,0,0,0,0,0,0,0,0,0,0,0,0,0,0,0,0,0,0,0,0],"split_type":[0,1,0,0,1,1,0,0,0,0,0,0,1,1,1,0,0,0,0,0,0,0,0,0,0,0,0,0,0,0,1,0,0,0,0,0,0,0,0,1,1,0,0,0,0,1,1,0,0,0,0,0,0,0,0,0,0,0,0,0,0,0,0,0,0,0,0,0,0,0,0,0,0,0,0,0,0,0,0,0,0,0,0,0,0,0,0,0,0,0,0,0,0,0,0,0,0],"sum_hessian":[3.988E3,1.931E3,2.057E3,3.2E2,1.611E3,6.6E1,1.991E3,3.13E2,7E0,3.24E2,1.287E3,1E1,5.6E1,1.924E3,6.7E1,2.06E2,1.07E2,1E0,6E0,1.82E2,1.42E2,5.8E1,1.229E3,4E0,6E0,1E1,4.6E1,2.82E2,1.642E3,1.2E1,5.5E1,1.22E2,8.4E1,4E1,6.7E1,9.6E1,8.6E1,1.09E2,3.3E1,3.6E1,2.2E1,3.99E2,8.3E2,9E0,1E0,4E0,4.2E1,1.1E2,1.72E2,5.14E2,1.128E3,1.1E1,1E0,1.4E1,4.1E1,5E0,1.17E2,7.4E1,1E1,9E0,3.1E1,4.2E1,2.5E1,1.9E1,7.7E1,5E0,8.1E1,5.2E1,5.7E1,1.4E1,1.9E1,9E0,2.7E1,4E0,1.8E1,4E0,3.95E2,3.9E2,4.4E2,4E0,5E0,1E0,3E0,1.1E1,3.1E1,1.1E1,9.9E1,1.55E2,1.7E1,4.59E2,5.5E1,6.86E2,4.42E2,5E0,9E0,2.1E1,2E1],"tree_param":{"num_deleted":"0","num_feature":"35","num_nodes":"97","size_leaf_vector":"1"}},{"base_weights":[8.435505E-5,7.916116E-3,-7.3794345E-3,-5.8673993E-3,1.9172126E-2,-4.8954133E-2,-6.0968143E-3,1.031831E-2,-9.145338E-3,5.0241236E-2,8.545828E-3,-2.2052458E-1,-1.5018392E-2,-1.0376216E-2,5.654782E-3,-1.1335495E-2,2.115035E-2,-6.060199E-3,-2.4445498E-2,8.132131E-3,7.733486E-2,1.6931664E-2,-1.4792869E-2,-4.373647E-2,-9.9328175E-2,-3.515924E-2,-9.9852085E-3,5.724388E-3,-1.4427077E-2,5.114144E-2,-3.1486053E-3,-1.8140847E-2,-3.2071618E-3,-5.944761E-3,3.6060877E-2,1.3495132E-2,-1.0896541E-2,-4.22915E-2,-1.5224383E-2,-2.6521936E-2,2.5827525E-2,1.8815301E-1,5.54104E-2,6.79159E-2,6.741854E-3,3.164601E-2,-2.2031644E-2,-3.9382344E-3,-2.4925884E-2,-4.6485756E-2,-6.548029E-3,4.756645E-4,-1.2389856E-2,5.1798493E-2,-2.6252465E-3,-1.5767962E-2,3.3415683E-2,2.136918E-2,1.5500315E-1,-2.051638E-2,1.3122855E-3,-6.489274E-3,1.0890132E-2,-3.2668351E-3,8.449028E-3,-3.4127068E-3,9.0006385E-3,6.646547E-3,2.6672954E-2,1.1702473E-3,2.5963329E-2,-3.435294E-3,1.3485706E-2,-3.3065982E-2,-6.7452006E-3,-1.3812156E-3,-8.404971E-3,-2.5322102E-2,-3.7786707E-3,1.8741542E-2,5.4586236E-3,6.502039E-3,7.360116E-2,3.9454643E-2,1.35677E-2,1.3951073E-2,1.0188982E-1,1.0252479E-2,-2.6403522E-4,6.73835E-2,2.709993E-3,-2.702951E-3,-1.37198875E-2,-6.173944E-3,-1.5819652E-2,2.3036231E-3,-4.1549606E-3,-4.151615E-3,1.9627342E-3,-2.0901635E-3,-4.049007E-3,-1.2882557E-3,3.0317552E-2,-2.1287182E-3,1.3874787E-2,-4.235954E-3,-1.414613E-2,1.6570788E-2,-6.0337586E-3,-1.0943588E-2,1.1961006E-2,1.0846344E-2,6.2122583E-2,-5.019722E-3,-1.047988E-2,-4.306724E-3,2.8122212E-3],"categories":[0,0,0,0,0,0,0,0,0,0,0,0,0,0,0,0],"categories_nodes":[3,5,12,14,17,20,21,22,27,30,37,39,40,44,51,52],"categories_segments":[0,1,2,3,4,5,6,7,8,9,10,11,12,13,14,15],"categories_sizes":[1,1,1,1,1,1,1,1,1,1,1,1,1,1,1,1],"default_left":[0,0,0,1,0,1,0,0,0,0,0,0,1,0,1,0,0,1,0,0,1,1,1,0,0,0,0,1,0,0,1,0,0,0,0,0,0,1,0,1,1,0,0,0,1,0,0,0,0,0,0,1,1,0,0,0,0,0,0,0,0,0,0,0,0,0,0,0,0,0,0,0,0,0,0,0,0,0,0,0,0,0,0,0,0,0,0,0,0,0,0,0,0,0,0,0,0,0,0,0,0,0,0,0,0,0,0,0,0,0,0,0,0,0,0,0,0],"id":1,"left_children":[1,3,5,7,9,11,13,15,17,19,21,23,25,27,29,31,33,35,37,39,41,43,45,47,-1,49,51,53,55,57,59,61,63,65,67,69,71,73,75,77,79,81,83,85,87,89,91,-1,-1,93,95,97,99,101,103,105,107,109,111,113,115,-1,-1,-1,-1,-1,-1,-1,-1,-1,-1,-1,-1,-1,-1,-1,-1,-1,-1,-1,-1,-1,-1,-1,-1,-1,-1,-1,-1,-1,-1,-1,-1,-1,-1,-1,-1,-1,-1,-1,-1,-1,-1,-1,-1,-1,-1,-1,-1,-1,-1,-1,-1,-1,-1,-1,-1],"loss_changes":[2.3323388E-1,3.0218446E-1,1.08643584E-1,4.6571217E-2,3.534911E-1,3.5185266E-1,9.9783346E-2,3.4953877E-2,3.4262937E-2,3.1083363E-1,1.5682207E-1,1.8099251E-1,4.920303E-3,9.491438E-2,2.1239248E-1,2.7076276E-3,4.02106E-2,5.764942E-2,1.9432463E-2,6.691247E-2,3.928926E-1,3.0553925E-1,7.1963266E-2,4.931584E-3,0E0,2.9362636E-3,1.0875459E-3,1.12853654E-1,7.50711E-2,2.626167E-1,3.450363E-2,5.915312E-3,6.090634E-3,7.369393E-3,4.506398E-2,8.446615E-2,1.562554E-2,5.268701E-2,1.1011306E-2,2.8763605E-2,1.8999778E-2,2.5172263E-1,1.02567494E-1,5.543785E-1,1.0290438E-1,1.2451178E-1,5.637659E-2,0E0,0E0,4.7516078E-5,5.21876E-4,8.72119E-4,1.1603441E-4,1.24774635E-1,5.473284E-2,5.7837933E-2,3.848695E-2,7.423023E-2,1.1009863E-1,4.3797083E-3,4.4975437E-2,0E0,0E0,0E0,0E0,0E0,0E0,0E0,0E0,0E0,0E0,0E0,0E0,0E0,0E0,0E0,0E0,0E0,0E0,0E0,0E0,0E0,0E0,0E0,0E0,0E0,0E0,0E0,0E0,0E0,0E0,0E0,0E0,0E0,0E0,0E0,0E0,0E0,0E0,0E0,0E0,0E0,0E0,0E0,0E0,0E0,0E0,0E0,0E0,0E0,0E0,0E0,0E0,0E0,0E0,0E0,0E0],"parents":[2147483647,0,0,1,1,2,2,3,3,4,4,5,5,6,6,7,7,8,8,9,9,10,10,11,11,12,12,13,13,14,14,15,15,16,16,17,17,18,18,19,19,20,20,21,21,22,22,23,23,25,25,26,26,27,27,28,28,29,29,30,30,31,31,32,32,33,33,34,34,35,35,36,36,37,37,38,38,39,39,40,40,41,41,42,42,43,43,44,44,45,45,46,46,49,49,50,50,51,51,52,52,53,53,54,54,55,55,56,56,57,57,58,58,59,59,60,60],"right_children":[2,4,6,8,10,12,14,16,18,20,22,24,26,28,30,32,34,36,38,40,42,44,46,48,-1,50,52,54,56,58,60,62,64,66,68,70,72,74,76,78,80,82,84,86,88,90,92,-1,-1,94,96,98,100,102,104,106,108,110,112,114,116,-1,-1,-1,-1,-1,-1,-1,-1,-1,-1,-1,-1,-1,-1,-1,-1,-1,-1,-1,-1,-1,-1,-1,-1,-1,-1,-1,-1,-1,-1,-1,-1,-1,-1,-1,-1,-1,-1,-1,-1,-1,-1,-1,-1,-1,-1,-1,-1,-1,-1,-1,-1,-1,-1,-1,-1],"split_conditions":[1.3314497E-1,2.677781E-1,7.5925297E-1,NaN,6.2146366E-1,NaN,3.810646E-1,3.2262612E-2,4.79E2,4.3617728E-1,2.2645345E0,-7.5675678E-3,NaN,9.9E1,NaN,4.892E1,-1.3015874E-1,NaN,2.8198162E-1,1.8125E0,NaN,NaN,NaN,2.73E2,-9.9328175E-2,6.1428114E-3,1.9E1,NaN,3.803292E-1,1.025E2,NaN,2.3527117E-1,6.392102E-1,8.5308444E-1,1.1965454E-1,9E1,7.1775347E-1,NaN,-3.7012572E-7,NaN,NaN,4.1723356E-1,8E1,3.5313934E-1,NaN,2.1376379E-1,1.1774608E-1,-3.9382344E-3,-2.4925884E-2,1.9E1,2.73E2,NaN,NaN,2.0221157E-1,3.63E1,3.588731E-1,2.63E2,7.857131E-2,9.952717E-4,1.0642538E0,1.0561438E-1,-6.489274E-3,1.0890132E-2,-3.2668351E-3,8.449028E-3,-3.4127068E-3,9.0006385E-3,6.646547E-3,2.6672954E-2,1.1702473E-3,2.5963329E-2,-3.435294E-3,1.3485706E-2,-3.3065982E-2,-6.7452006E-3,-1.3812156E-3,-8.404971E-3,-2.5322102E-2,-3.7786707E-3,1.8741542E-2,5.4586236E-3,6.502039E-3,7.360116E-2,3.9454643E-2,1.35677E-2,1.3951073E-2,1.0188982E-1,1.0252479E-2,-2.6403522E-4,6.73835E-2,2.709993E-3,-2.702951E-3,-1.37198875E-2,-6.173944E-3,-1.5819652E-2,2.3036231E-3,-4.1549606E-3,-4.151615E-3,1.9627342E-3,-2.0901635E-3,-4.049007E-3,-1.2882557E-3,3.0317552E-2,-2.1287182E-3,1.3874787E-2,-4.235954E-3,-1.414613E-2,1.6570788E-2,-6.0337586E-3,-1.0943588E-2,1.1961006E-2,1.0846344E-2,6.2122583E-2,-5.019722E-3,-1.047988E-2,-4.306724E-3,2.8122212E-3],"split_indices":[3,28,8,31,28,33,5,14,1,28,28,19,29,1,33,9,20,33,24,15,33,33,31,1,0,6,1,33,6,13,30,28,25,24,19,2,6,33,11,33,33,25,0,6,31,24,26,0,0,1,1,31,34,3,2,20,1,28,6,28,28,0,0,0,0,0,0,0,0,0,0,0,0,0,0,0,0,0,0,0,0,0,0,0,0,0,0,0,0,0,0,0,0,0,0,0,0,0,0,0,0,0,0,0,0,0,0,0,0,0,0,0,0,0,0,0,0],"split_type":[0,0,0,1,0,1,0,0,0,0,0,0,1,0,1,0,0,1,0,0,1,1,1,0,0,0,0,1,0,0,1,0,0,0,0,0,0,1,0,1,1,0,0,0,1,0,0,0,0,0,0,1,1,0,0,0,0,0,0,0,0,0,0,0,0,0,0,0,0,0,0,0,0,0,0,0,0,0,0,0,0,0,0,0,0,0,0,0,0,0,0,0,0,0,0,0,0,0,0,0,0,0,0,0,0,0,0,0,0,0,0,0,0,0,0,0,0],"sum_hessian":[3.988E3,1.946E3,2.042E3,8.75E2,1.071E3,6E1,1.982E3,1.47E2,7.28E2,2.72E2,7.99E2,9E0,5.1E1,1.453E3,5.29E2,4.9E1,9.8E1,6.07E2,1.21E2,1.07E2,1.65E2,5.88E2,2.11E2,4E0,5E0,9E0,4.2E1,2.92E2,1.161E3,8.5E1,4.44E2,2.6E1,2.3E1,3.5E1,6.3E1,1.2E2,4.87E2,4E1,8.1E1,3.6E1,7.1E1,2.6E1,1.39E2,9.7E1,4.91E2,2.8E1,1.83E2,3E0,1E0,6E0,3E0,8E0,3.4E1,4.4E1,2.48E2,1.13E3,3.1E1,6.7E1,1.8E1,9E1,3.54E2,2.5E1,1E0,1.9E1,4E0,3.1E1,4E0,5.1E1,1.2E1,1.07E2,1.3E1,4.83E2,4E0,8E0,3.2E1,4.5E1,3.6E1,6E0,3E1,1.1E1,6E1,7E0,1.9E1,1.5E1,1.24E2,9.1E1,6E0,1.06E2,3.85E2,2E0,2.6E1,1.19E2,6.4E1,2E0,4E0,1E0,2E0,2E0,6E0,7E0,2.7E1,2.1E1,2.3E1,2.28E2,2E1,1.075E3,5.5E1,2.2E1,9E0,1.6E1,5.1E1,6E0,1.2E1,7.3E1,1.7E1,1.2E2,2.34E2],"tree_param":{"num_deleted":"0","num_feature":"35","num_nodes":"117","size_leaf_vector":"1"}},{"base_weights":[1.2757695E-4,-1.1891113E-2,2.746996E-3,1.0099147E-1,-1.31516075E-2,9.615528E-3,-3.587362E-3,-2.4839274E-3,3.5335343E-2,8.903343E-3,-1.4522713E-2,3.562302E-2,3.45368E-3,-5.081759E-3,9.3111664E-2,-3.2644074E-3,7.0208445E-2,5.2429573E-3,-1.5269783E-2,2.773271E-2,3.2113913E-1,-6.2337844E-3,1.0426605E-2,-3.9491765E-3,-5.3917315E-2,2.451337E-1,4.5242913E-2,4.716816E-2,-1.1042484E-2,2.3127982E-2,4.3349178E-3,2.53503E-2,-2.265278E-2,1.1085263E-4,-1.62106E-2,4.1122884E-2,-2.6298037E-2,1.4315388E-2,1.06014736E-1,2.9344983E-2,-6.831832E-3,2.5367126E-2,-5.160016E-3,-1.0099328E-2,4.8412895E-3,-2.056381E-1,-1.3024295E-2,2.2366757E-2,9.3535095E-2,1.2719786E-1,1.1682123E-2,2.4326392E-2,-7.4230885E-4,2.109403E-3,-3.946395E-3,-3.4858969E-3,1.3499174E-2,-7.396759E-3,-2.7277826E-3,2.3672836E-2,-5.1389416E-3,-4.367043E-3,-8.364289E-3,2.5185402E-3,2.213385E-2,-9.7585766E-4,-2.3582736E-2,1.4110634E-2,1.735658E-3,2.6661583E-4,-2.836072E-3,3.6462264E-3,1.3544984E-2,1.21760545E-2,-2.1334286E-3,-1.01943305E-2,-1.488814E-3,1.01922145E-2,5.7037116E-4,-2.0903323E-3,-6.9907255E-2,-8.271303E-3,-2.2898135E-3,4.195918E-2,9.580124E-3,8.387138E-3,-3.971026E-3],"categories":[0,0,0,0,0,0,0,0],"categories_nodes":[0,5,14,24,26,40,43,46],"categories_segments":[0,1,2,3,4,5,6,7],"categories_sizes":[1,1,1,1,1,1,1,1],"default_left":[1,0,0,0,0,1,0,0,0,0,0,0,0,0,1,0,0,0,0,0,0,0,0,0,1,0,1,0,0,0,0,0,0,0,0,0,0,0,0,0,1,0,0,1,0,0,1,0,0,0,0,0,0,0,0,0,0,0,0,0,0,0,0,0,0,0,0,0,0,0,0,0,0,0,0,0,0,0,0,0,0,0,0,0,0,0,0],"id":2,"left_children":[1,3,5,7,9,11,13,-1,-1,15,17,19,21,23,25,27,29,31,33,35,37,39,41,43,45,47,49,51,53,-1,-1,55,57,59,61,63,65,-1,-1,67,69,71,73,75,77,79,81,-1,-1,83,85,-1,-1,-1,-1,-1,-1,-1,-1,-1,-1,-1,-1,-1,-1,-1,-1,-1,-1,-1,-1,-1,-1,-1,-1,-1,-1,-1,-1,-1,-1,-1,-1,-1,-1,-1,-1],"loss_changes":[1.256143E-1,1.02921754E-1,1.4256586E-1,1.565516E-2,2.1508738E-2,2.5179666E-1,2.468572E-1,0E0,0E0,3.1558886E-2,9.914443E-3,6.6919005E-1,8.598855E-2,9.270836E-2,1.7811418E-1,1.4642515E-2,1.5732497E-3,1.4596984E-2,9.291783E-3,2.1378493E-1,5.36654E-2,1.1541551E-2,1.7245634E-1,8.887391E-2,2.330859E-1,4.4968754E-2,5.627399E-2,8.619965E-3,1.3140927E-3,0E0,0E0,1.1418053E-2,7.4597076E-5,5.297621E-2,1.1270836E-2,2.5161204E-1,7.086986E-2,0E0,0E0,3.4788745E-3,1.0635069E-2,9.825711E-2,3.2694004E-2,1.1845465E-1,5.79217E-2,4.190275E-2,2.2208826E-3,0E0,0E0,2.7733445E-3,6.8589365E-3,0E0,0E0,0E0,0E0,0E0,0E0,0E0,0E0,0E0,0E0,0E0,0E0,0E0,0E0,0E0,0E0,0E0,0E0,0E0,0E0,0E0,0E0,0E0,0E0,0E0,0E0,0E0,0E0,0E0,0E0,0E0,0E0,0E0,0E0,0E0,0E0],"parents":[2147483647,0,0,1,1,2,2,3,3,4,4,5,5,6,6,9,9,10,10,11,11,12,12,13,13,14,14,15,15,16,16,17,17,18,18,19,19,20,20,21,21,22,22,23,23,24,24,25,25,26,26,27,27,28,28,31,31,32,32,33,33,34,34,35,35,36,36,39,39,40,40,41,41,42,42,43,43,44,44,45,45,46,46,49,49,50,50],"right_children":[2,4,6,8,10,12,14,-1,-1,16,18,20,22,24,26,28,30,32,34,36,38,40,42,44,46,48,50,52,54,-1,-1,56,58,60,62,64,66,-1,-1,68,70,72,74,76,78,80,82,-1,-1,84,86,-1,-1,-1,-1,-1,-1,-1,-1,-1,-1,-1,-1,-1,-1,-1,-1,-1,-1,-1,-1,-1,-1,-1,-1,-1,-1,-1,-1,-1,-1,-1,-1,-1,-1,-1,-1],"split_conditions":[NaN,-9.0408045E-1,1.88E2,3.68E2,-6.874394E-1,NaN,6.087963E-1,-2.4839274E-3,3.5335343E-2,8.11504E-1,4.9976297E-2,6.7716646E-1,2.1968846E-1,1.1362163E0,NaN,2.4705732E-2,5.1E1,8.187788E-2,-5.5335647E-1,1.7447917E0,1.1965454E-1,1.8E1,8.167531E-1,3.2397273E-1,NaN,-5.6345236E-1,NaN,6.237101E-1,3.1231758E-3,2.3127982E-2,4.3349178E-3,3.9468664E-1,3.752522E-2,-1.9734441E-3,8.010662E-1,2.5328872E-1,1.02E2,1.4315388E-2,1.06014736E-1,8E1,NaN,4.3868098E-1,1.1404871E-2,NaN,3.6338332E-1,4.6346763E-1,NaN,2.2366757E-2,9.3535095E-2,-5.219361E-1,3.49E2,2.4326392E-2,-7.4230885E-4,2.109403E-3,-3.946395E-3,-3.4858969E-3,1.3499174E-2,-7.396759E-3,-2.7277826E-3,2.3672836E-2,-5.1389416E-3,-4.367043E-3,-8.364289E-3,2.5185402E-3,2.213385E-2,-9.7585766E-4,-2.3582736E-2,1.4110634E-2,1.735658E-3,2.6661583E-4,-2.836072E-3,3.6462264E-3,1.3544984E-2,1.21760545E-2,-2.1334286E-3,-1.01943305E-2,-1.488814E-3,1.01922145E-2,5.7037116E-4,-2.0903323E-3,-6.9907255E-2,-8.271303E-3,-2.2898135E-3,4.195918E-2,9.580124E-3,8.387138E-3,-3.971026E-3],"split_indices":[30,19,1,1,7,33,20,0,0,25,12,7,28,27,31,14,2,20,6,23,19,1,28,5,33,6,33,5,3,0,0,28,12,11,25,28,1,0,0,0,31,28,14,33,5,5,29,0,0,6,1,0,0,0,0,0,0,0,0,0,0,0,0,0,0,0,0,0,0,0,0,0,0,0,0,0,0,0,0,0,0,0,0,0,0,0,0],"split_type":[1,0,0,0,0,1,0,0,0,0,0,0,0,0,1,0,0,0,0,0,0,0,0,0,1,0,1,0,0,0,0,0,0,0,0,0,0,0,0,0,1,0,0,1,0,0,1,0,0,0,0,0,0,0,0,0,0,0,0,0,0,0,0,0,0,0,0,0,0,0,0,0,0,0,0,0,0,0,0,0,0,0,0,0,0,0,0],"sum_hessian":[3.988E3,7.13E2,3.275E3,7E0,7.06E2,1.571E3,1.704E3,1E0,6E0,4.1E1,6.65E2,3E2,1.271E3,1.679E3,2.5E1,3.5E1,6E0,2.4E1,6.41E2,2.93E2,7E0,5.32E2,7.39E2,1.642E3,3.7E1,5E0,2E1,4E0,3.1E1,5E0,1E0,1.4E1,1E1,3.7E1,6.04E2,2.35E2,5.8E1,1E0,6E0,8E0,5.24E2,3.77E2,3.62E2,9.66E2,6.76E2,7E0,3E1,2E0,3E0,5E0,1.5E1,2E0,2E0,3E0,2.8E1,5E0,9E0,8E0,2E0,6E0,3.1E1,5.31E2,7.3E1,1.18E2,1.17E2,4.1E1,1.7E1,4E0,4E0,1.33E2,3.91E2,2.27E2,1.5E2,1.4E1,3.48E2,1.7E2,7.96E2,6.1E1,6.15E2,1E0,6E0,7E0,2.3E1,4E0,1E0,9E0,6E0],"tree_param":{"num_deleted":"0","num_feature":"35","num_nodes":"87","size_leaf_vector":"1"}},{"base_weights":[1.7380268E-4,-7.2712232E-3,2.6273038E-3,5.338098E-4,-8.90349E-3,1.1732305E-2,-8.764777E-4,-2.2348736E-3,4.560997E-2,-1.33596705E-2,-6.129404E-3,4.371384E-2,5.493076E-3,-1.6715425E-3,6.734335E-2,-5.9254025E-3,1.4323984E-2,-4.1369554E-3,2.6252449E-2,-2.370018E-2,-1.0864433E-2,5.8272365E-3,-8.625955E-3,3.519512E-2,2.5986534E-1,-1.2176307E-2,1.0099504E-2,-6.516262E-3,4.659646E-3,2.1866213E-1,2.8108237E-2,-7.133402E-3,3.5117928E-2,-1.1863815E-2,3.5047818E-2,-1.2675031E-3,-2.9281942E-2,-8.690549E-3,-1.1550949E-2,6.69075E-2,-6.632645E-3,-8.833866E-3,1.8270579E-3,8.690258E-3,8.624473E-2,9.1365464E-2,1.2168081E-2,3.1580716E-2,-1.56515E-2,2.1757089E-2,-2.1975853E-3,-3.5337773E-3,-2.674009E-2,1.5409805E-2,-1.973975E-3,1.9017197E-2,7.24897E-2,9.50603E-2,6.76303E-3,-2.9156245E-3,3.6168585E-3,1.34276515E-2,9.2927983E-4,2.2169868E-3,-8.168367E-3,2.4291084E-3,1.4703648E-2,7.625204E-3,-1.6828058E-3,-1.0247424E-2,-5.777213E-3,-2.656751E-3,-1.1867904E-3,-3.305476E-3,-4.151045E-3,-1.2044127E-2,2.9105024E-2,-3.8735995E-3,2.4781447E-2,-2.6932717E-3,1.3891894E-3,5.3326003E-3,-1.5806779E-3,1.7239342E-2,-7.8544775E-3,1.9465609E-3,3.6616307E-2,-6.2033273E-3,1.612871E-2,-5.2152085E-3,1.6377544E-3,1.7799068E-2,4.877859E-3,-1.2159627E-3,2.9199673E-2,1.00950375E-2,-1.4508903E-3,-3.0195763E-2,-2.7209718E-3,1.7264413E-2,2.1975676E-3,-5.5116643E-3,5.548472E-4,3.157606E-2,8.1431065E-3,1.058222E-2,-1.4168962E-3],"categories":[0,0,0,0,0,0,0,0,0,0,0,0],"categories_nodes":[1,5,9,10,12,14,20,30,42,52,53,58],"categories_segments":[0,1,2,3,4,5,6,7,8,9,10,11],"categories_sizes":[1,1,1,1,1,1,1,1,1,1,1,1],"default_left":[0,1,0,0,0,1,0,0,0,1,1,0,1,0,1,0,0,0,0,0,1,0,0,0,0,0,0,0,0,0,1,0,0,0,0,0,0,0,0,0,0,0,1,0,0,0,0,0,0,0,0,0,1,1,0,0,0,0,1,0,0,0,0,0,0,0,0,0,0,0,0,0,0,0,0,0,0,0,0,0,0,0,0,0,0,0,0,0,0,0,0,0,0,0,0,0,0,0,0,0,0,0,0,0,0,0,0],"id":3,"left_children":[1,3,5,7,9,11,13,15,17,19,21,23,25,27,29,31,33,-1,-1,35,37,39,41,43,45,47,49,51,53,55,57,59,61,63,65,67,69,71,73,75,77,79,81,83,85,-1,-1,87,89,91,93,95,97,99,101,-1,-1,103,105,-1,-1,-1,-1,-1,-1,-1,-1,-1,-1,-1,-1,-1,-1,-1,-1,-1,-1,-1,-1,-1,-1,-1,-1,-1,-1,-1,-1,-1,-1,-1,-1,-1,-1,-1,-1,-1,-1,-1,-1,-1,-1,-1,-1,-1,-1,-1,-1],"loss_changes":[7.2883695E-2,1.2604505E-2,9.5747985E-2,2.1567808E-2,1.0030091E-2,1.6617636E-1,1.1770312E-1,1.0045959E-2,2.6094172E-2,7.818546E-3,1.515455E-2,2.4127549E-1,5.70165E-2,6.579292E-2,1.4227898E-1,6.894273E-3,1.669715E-2,0E0,0E0,7.475715E-3,2.7868897E-4,6.741642E-2,9.267498E-4,1.778548E-1,3.6646873E-2,2.2543574E-2,7.960948E-2,7.319097E-2,6.635103E-2,2.5158525E-3,2.9368326E-2,6.6163107E-3,1.096176E-3,4.3426417E-3,6.001098E-3,1.6487758E-3,1.6885027E-3,1.5833415E-5,7.889792E-5,5.2244924E-2,4.253275E-2,8.368306E-4,1.1121754E-3,1.5117903E-1,1.2772977E-1,0E0,0E0,1.3862654E-2,5.032506E-3,5.7905108E-2,5.044547E-2,5.1501617E-2,2.0283036E-1,1.2051627E-1,3.6148086E-2,0E0,0E0,6.044805E-4,5.7337293E-3,0E0,0E0,0E0,0E0,0E0,0E0,0E0,0E0,0E0,0E0,0E0,0E0,0E0,0E0,0E0,0E0,0E0,0E0,0E0,0E0,0E0,0E0,0E0,0E0,0E0,0E0,0E0,0E0,0E0,0E0,0E0,0E0,0E0,0E0,0E0,0E0,0E0,0E0,0E0,0E0,0E0,0E0,0E0,0E0,0E0,0E0,0E0,0E0],"parents":[2147483647,0,0,1,1,2,2,3,3,4,4,5,5,6,6,7,7,8,8,9,9,10,10,11,11,12,12,13,13,14,14,15,15,16,16,19,19,20,20,21,21,22,22,23,23,24,24,25,25,26,26,27,27,28,28,29,29,30,30,31,31,32,32,33,33,34,34,35,35,36,36,37,37,38,38,39,39,40,40,41,41,42,42,43,43,44,44,47,47,48,48,49,49,50,50,51,51,52,52,53,53,54,54,57,57,58,58],"right_children":[2,4,6,8,10,12,14,16,18,20,22,24,26,28,30,32,34,-1,-1,36,38,40,42,44,46,48,50,52,54,56,58,60,62,64,66,68,70,72,74,76,78,80,82,84,86,-1,-1,88,90,92,94,96,98,100,102,-1,-1,104,106,-1,-1,-1,-1,-1,-1,-1,-1,-1,-1,-1,-1,-1,-1,-1,-1,-1,-1,-1,-1,-1,-1,-1,-1,-1,-1,-1,-1,-1,-1,-1,-1,-1,-1,-1,-1,-1,-1,-1,-1,-1,-1,-1,-1,-1,-1,-1,-1],"split_conditions":[1.0561438E-1,NaN,9E1,4.4444445E-1,1.5093571E-2,NaN,6.087963E-1,7.532467E-1,3.2336306E-2,NaN,NaN,6.7716646E-1,NaN,1.0981078E0,NaN,1.0367033E0,-1.2945934E-1,-4.1369554E-3,2.6252449E-2,-5.775E-1,NaN,4.4225E0,1.0367033E0,9.26957E-2,2.2E1,-7.2782075E-1,2.7559994E1,2.2510466E-1,3.46E2,1.04E2,NaN,1.35E2,-1.5984008E-6,-2.8758047E-3,6.6370094E-1,4.6E1,1.81E2,8.0956525E-1,1.01E2,4.7984146E-4,6.334591E-2,6.3314897E-1,NaN,1.4498419E-1,2.2E1,9.1365464E-2,1.2168081E-2,2.2420509E-1,7.7107203E-1,2.1641052E-8,8.5308444E-1,-9.0408045E-1,NaN,NaN,2.4025537E-1,1.9017197E-2,7.24897E-2,3.49E2,NaN,-2.9156245E-3,3.6168585E-3,1.34276515E-2,9.2927983E-4,2.2169868E-3,-8.168367E-3,2.4291084E-3,1.4703648E-2,7.625204E-3,-1.6828058E-3,-1.0247424E-2,-5.777213E-3,-2.656751E-3,-1.1867904E-3,-3.305476E-3,-4.151045E-3,-1.2044127E-2,2.9105024E-2,-3.8735995E-3,2.4781447E-2,-2.6932717E-3,1.3891894E-3,5.3326003E-3,-1.5806779E-3,1.7239342E-2,-7.8544775E-3,1.9465609E-3,3.6616307E-2,-6.2033273E-3,1.612871E-2,-5.2152085E-3,1.6377544E-3,1.7799068E-2,4.877859E-3,-1.2159627E-3,2.9199673E-2,1.00950375E-2,-1.4508903E-3,-3.0195763E-2,-2.7209718E-3,1.7264413E-2,2.1975676E-3,-5.5116643E-3,5.548472E-4,3.157606E-2,8.1431065E-3,1.058222E-2,-1.4168962E-3],"split_indices":[28,31,1,19,28,33,20,25,14,33,33,7,30,16,31,18,19,0,0,20,30,15,18,26,2,7,8,20,1,2,33,2,11,11,10,0,1,24,2,3,11,19,29,27,1,0,0,28,20,5,24,19,33,33,24,0,0,1,29,0,0,0,0,0,0,0,0,0,0,0,0,0,0,0,0,0,0,0,0,0,0,0,0,0,0,0,0,0,0,0,0,0,0,0,0,0,0,0,0,0,0,0,0,0,0,0,0],"split_type":[0,1,0,0,0,1,0,0,0,1,1,0,1,0,1,0,0,0,0,0,1,0,0,0,0,0,0,0,0,0,1,0,0,0,0,0,0,0,0,0,0,0,1,0,0,0,0,0,0,0,0,0,1,1,0,0,0,0,1,0,0,0,0,0,0,0,0,0,0,0,0,0,0,0,0,0,0,0,0,0,0,0,0,0,0,0,0,0,0,0,0,0,0,0,0,0,0,0,0,0,0,0,0,0,0,0,0],"sum_hessian":[3.988E3,9.88E2,3E3,1.71E2,8.17E2,8.33E2,2.167E3,1.62E2,9E0,3.12E2,5.05E2,1.35E2,6.98E2,2.143E3,2.4E1,1.33E2,2.9E1,4E0,5E0,5.9E1,2.53E2,8.7E1,4.18E2,1.31E2,4E0,1.44E2,5.54E2,1.214E3,9.29E2,4E0,2E1,1.3E2,3E0,1.3E1,1.6E1,1.2E1,4.7E1,6.4E1,1.89E2,1.4E1,7.3E1,4.1E2,8E0,8.7E1,4.4E1,3E0,1E0,1E1,1.34E2,2.84E2,2.7E2,1.059E3,1.55E2,3.54E2,5.75E2,1E0,3E0,4E0,1.6E1,1.15E2,1.5E1,2E0,1E0,6E0,7E0,6E0,1E1,1E0,1.1E1,3E1,1.7E1,6.1E1,3E0,1.58E2,3.1E1,3E0,1.1E1,6.9E1,4E0,4.06E2,4E0,2E0,6E0,3.6E1,5.1E1,1.4E1,3E1,3E0,7E0,1.24E2,1E1,3.5E1,2.49E2,2.66E2,4E0,3.5E1,1.024E3,2.9E1,1.26E2,5.6E1,2.98E2,1.08E2,4.67E2,3E0,1E0,4E0,1.2E1],"tree_param":{"num_deleted":"0","num_feature":"35","num_nodes":"107","size_leaf_vector":"1"}},{"base_weights":[2.2356799E-4,7.8305704E-5,8.284587E-2,-4.520061E-3,2.9757714E-3,-1.0612691E-2,1.0844539E-1,-6.0751857E-3,1.4985931E-2,1.840868E-3,2.366656E-2,-1.040081E-2,1.4400221E-1,-3.5642896E-2,-5.28433E-3,7.586563E-2,7.079833E-3,1.4088804E-2,-4.8523626E-4,1.1162952E-1,5.1868274E-3,-4.20195E-3,5.610181E-2,-1.5382522E-1,-7.806792E-3,-3.9993235E-4,-1.03034265E-2,-8.235986E-3,9.190556E-2,5.2099284E-2,-2.53699E-3,4.0624803E-3,6.582377E-2,4.667356E-3,-6.9076093E-3,1.8437119E-1,3.564721E-2,8.808358E-2,2.1091317E-4,-5.9789628E-2,-8.028284E-3,-5.4537347E-3,-1.5338754E-3,5.1708487E-3,-1.022025E-3,-2.3303935E-3,-5.9885974E-3,2.2314661E-3,-5.93766E-3,1.4509584E-3,3.3215053E-2,-6.6129523E-3,2.0519197E-2,-3.1699124E-3,5.1468564E-3,1.4780065E-2,-1.8364606E-5,5.7303244E-3,3.556169E-2,1.9609179E-4,5.6013055E-3,-4.350065E-3,7.284777E-5,7.9157134E-4,6.0684178E-2,-1.556747E-3,2.8156787E-2,2.5600144E-3,3.0686084E-2,4.482821E-3,-2.3483466E-3],"categories":[0,0,0,0,0,0,0,0,0,0,0],"categories_nodes":[2,6,9,10,12,13,15,25,28,29,37],"categories_segments":[0,1,2,3,4,5,6,7,8,9,10],"categories_sizes":[1,1,1,1,1,1,1,1,1,1,1],"default_left":[0,0,1,0,0,0,1,0,0,1,1,0,1,1,0,1,0,0,0,0,0,0,0,0,0,1,0,0,1,1,0,0,0,0,0,0,0,1,0,0,0,0,0,0,0,0,0,0,0,0,0,0,0,0,0,0,0,0,0,0,0,0,0,0,0,0,0,0,0,0,0],"id":4,"left_children":[1,3,5,7,9,-1,11,13,15,17,19,-1,21,23,25,27,29,31,33,35,37,-1,-1,39,41,43,45,47,49,51,53,55,57,59,61,63,65,67,69,-1,-1,-1,-1,-1,-1,-1,-1,-1,-1,-1,-1,-1,-1,-1,-1,-1,-1,-1,-1,-1,-1,-1,-1,-1,-1,-1,-1,-1,-1,-1,-1],"loss_changes":[4.786911E-2,5.3081386E-2,2.5021229E-2,4.6805788E-2,5.734656E-2,0E0,3.5524704E-2,3.3180326E-2,5.4333463E-2,6.604661E-2,2.0586358E-1,0E0,3.6594175E-2,1.2051933E-1,3.409661E-2,1.8293723E-2,4.4292476E-2,1.9165587E-1,6.4528294E-2,1.15023404E-1,4.3705057E-2,0E0,0E0,3.511302E-2,7.732457E-4,3.749685E-2,1.6644247E-2,6.9062214E-4,1.74812E-2,2.325847E-2,1.3621828E-2,5.7976272E-2,1.4551544E-1,6.0803477E-2,4.7127623E-2,3.5268217E-2,2.9011436E-2,5.9064254E-3,1.2077917E-2,0E0,0E0,0E0,0E0,0E0,0E0,0E0,0E0,0E0,0E0,0E0,0E0,0E0,0E0,0E0,0E0,0E0,0E0,0E0,0E0,0E0,0E0,0E0,0E0,0E0,0E0,0E0,0E0,0E0,0E0,0E0,0E0],"parents":[2147483647,0,0,1,1,2,2,3,3,4,4,6,6,7,7,8,8,9,9,10,10,12,12,13,13,14,14,15,15,16,16,17,17,18,18,19,19,20,20,23,23,24,24,25,25,26,26,27,27,28,28,29,29,30,30,31,31,32,32,33,33,34,34,35,35,36,36,37,37,38,38],"right_children":[2,4,6,8,10,-1,12,14,16,18,20,-1,22,24,26,28,30,32,34,36,38,-1,-1,40,42,44,46,48,50,52,54,56,58,60,62,64,66,68,70,-1,-1,-1,-1,-1,-1,-1,-1,-1,-1,-1,-1,-1,-1,-1,-1,-1,-1,-1,-1,-1,-1,-1,-1,-1,-1,-1,-1,-1,-1,-1,-1],"split_conditions":[8.575388E-1,3.398272E-1,NaN,2.4292395E-1,3.9124184E1,-1.0612691E-2,NaN,7.5925297E-1,8.155899E-5,NaN,NaN,-1.040081E-2,NaN,NaN,1.3805357E2,NaN,2.5621384E-1,8.0985785E-1,3.23E2,2.55E1,3.2555965E1,-4.20195E-3,5.610181E-2,8.742849E-3,1.93E2,NaN,1.735868E-1,1.52E2,NaN,NaN,1.1908866E0,4.6E1,1.2129103E0,3.031756E-1,1.28E2,3.4851622E-13,6.392102E-1,NaN,2.4705732E-2,-5.9789628E-2,-8.028284E-3,-5.4537347E-3,-1.5338754E-3,5.1708487E-3,-1.022025E-3,-2.3303935E-3,-5.9885974E-3,2.2314661E-3,-5.93766E-3,1.4509584E-3,3.3215053E-2,-6.6129523E-3,2.0519197E-2,-3.1699124E-3,5.1468564E-3,1.4780065E-2,-1.8364606E-5,5.7303244E-3,3.556169E-2,1.9609179E-4,5.6013055E-3,-4.350065E-3,7.284777E-5,7.9157134E-4,6.0684178E-2,-1.556747E-3,2.8156787E-2,2.5600144E-3,3.0686084E-2,4.482821E-3,-2.3483466E-3],"split_indices":[24,12,32,7,17,0,34,8,5,31,33,0,30,33,13,34,7,25,1,2,8,0,0,6,1,33,12,0,30,31,23,0,28,5,0,5,25,31,14,0,0,0,0,0,0,0,0,0,0,0,0,0,0,0,0,0,0,0,0,0,0,0,0,0,0,0,0,0,0,0,0],"split_type":[0,0,1,0,0,0,1,0,0,1,1,0,1,1,0,1,0,0,0,0,0,0,0,0,0,1,0,0,1,1,0,0,0,0,0,0,0,1,0,0,0,0,0,0,0,0,0,0,0,0,0,0,0,0,0,0,0,0,0,0,0,0,0,0,0,0,0,0,0,0,0],"sum_hessian":[3.988E3,3.982E3,6E0,1.539E3,2.443E3,1E0,5E0,1.426E3,1.13E2,2.317E3,1.26E2,1E0,4E0,3.6E1,1.39E3,1.2E1,1.01E2,3.69E2,1.948E3,2.1E1,1.05E2,1E0,3E0,6E0,3E1,7.05E2,6.85E2,2E0,1E1,1.7E1,8.4E1,3.1E2,5.9E1,1.081E3,8.67E2,1E1,1.1E1,5E0,1E2,4E0,2E0,5E0,2.5E1,1.02E2,6.03E2,5.44E2,1.41E2,1E0,1E0,2E0,8E0,3E0,1.4E1,6E1,2.4E1,2.5E1,2.85E2,3.2E1,2.7E1,8.41E2,2.4E2,4.2E2,4.47E2,1E0,9E0,7E0,4E0,1E0,4E0,3.5E1,6.5E1],"tree_param":{"num_deleted":"0","num_feature":"35","num_nodes":"71","size_leaf_vector":"1"}},{"base_weights":[2.0156753E-4,-3.4619134E-3,3.2524124E-3,-9.618494E-3,-2.283301E-3,1.3789244E-2,-3.2666698E-4,1.6612936E-2,-1.0229026E-2,-7.060105E-3,-1.4449946E-4,-2.2811184E-2,1.8299075E-2,-2.6107295E-3,1.5430515E-2,2.9732017E-2,-1.3653815E-2,-2.1433104E-2,-8.312306E-3,-6.2541757E-3,-5.958824E-2,-4.699007E-3,3.7083405E-3,-8.50591E-2,-8.937885E-3,4.454036E-2,1.3620903E-2,-6.372241E-4,-1.4116618E-2,7.8890525E-2,8.934926E-3,-1.051109E-3,-4.4949297E-3,2.8348695E-2,-3.632013E-2,-4.929968E-3,-1.3422162E-2,-7.7982186E-3,2.0095936E-3,-5.828142E-2,-4.7624786E-3,2.182543E-2,-5.772696E-3,2.8621586E-2,-5.8760424E-4,-1.5243827E-1,2.6283564E-2,-2.672862E-2,-7.8261655E-4,3.0985372E-2,1.6985448E-1,5.0881956E-2,9.001573E-3,-2.7960533E-2,3.1753985E-4,-6.953168E-2,-4.7503132E-3,5.1115174E-2,5.1086526E-2,2.3846766E-2,-3.0796414E-3,-4.3070423E-3,2.2177666E-2,-6.8304567E-3,-2.2238983E-2,1.3853299E-3,-1.8099617E-3,-4.5591756E-3,5.5121013E-4,-2.3817085E-4,-2.7719229E-3,1.4607744E-2,-1.8136282E-3,-1.4045807E-4,-1.6583091E-3,2.0990662E-2,1.2967765E-3,-5.1088277E-3,-1.1102931E-3,-2.6959158E-2,1.0700747E-2,6.659175E-4,-2.9451258E-3,-9.279033E-3,-5.0260387E-2,-4.938614E-3,1.2325644E-2,-1.0430323E-2,-5.974131E-3,6.293891E-3,-2.027703E-3,-3.4809355E-3,2.0749234E-2,-6.53337E-4,5.966685E-2,-1.5936637E-3,1.9408315E-2,9.86803E-3,8.995807E-4,-3.622111E-2,-2.581909E-3,4.9619623E-3,-2.6038307E-4,-5.090328E-3,-4.7634415E-2,1.9497577E-3,-4.784112E-3,4.2909026E-2,5.65994E-3,2.1360349E-2,4.2520235E-3,-3.7409544E-3,3.939365E-3],"categories":[0,0,0,0,0,0,0,0,0,0,0,0,0,0,0,0,0,0,0,0],"categories_nodes":[7,8,11,12,16,20,22,28,29,37,38,40,41,42,48,51,52,53,58,59],"categories_segments":[0,1,2,3,4,5,6,7,8,9,10,11,12,13,14,15,16,17,18,19],"categories_sizes":[1,1,1,1,1,1,1,1,1,1,1,1,1,1,1,1,1,1,1,1],"default_left":[0,0,0,0,0,0,0,1,1,0,0,1,1,0,0,0,1,0,0,0,1,0,1,0,0,0,0,0,1,1,0,0,0,0,0,0,0,1,1,0,1,1,1,0,0,0,0,0,1,0,0,1,1,1,0,0,0,0,1,1,0,0,0,0,0,0,0,0,0,0,0,0,0,0,0,0,0,0,0,0,0,0,0,0,0,0,0,0,0,0,0,0,0,0,0,0,0,0,0,0,0,0,0,0,0,0,0,0,0,0,0,0,0],"id":5,"left_children":[1,3,5,7,9,11,13,15,17,19,21,23,25,27,29,-1,31,33,35,37,39,41,43,45,47,49,51,53,55,57,59,-1,-1,61,63,65,67,69,71,-1,73,75,77,79,81,83,85,87,89,91,93,95,97,99,101,103,105,-1,107,109,111,-1,-1,-1,-1,-1,-1,-1,-1,-1,-1,-1,-1,-1,-1,-1,-1,-1,-1,-1,-1,-1,-1,-1,-1,-1,-1,-1,-1,-1,-1,-1,-1,-1,-1,-1,-1,-1,-1,-1,-1,-1,-1,-1,-1,-1,-1,-1,-1,-1,-1,-1,-1],"loss_changes":[4.4595167E-2,1.3133569E-2,8.2103856E-2,4.8303325E-3,1.5558917E-2,9.153151E-2,5.8560655E-2,1.8830916E-2,5.942235E-3,1.9566616E-2,1.8495247E-2,5.191837E-2,5.9791863E-2,3.2257553E-2,8.421041E-2,0E0,2.8458075E-5,3.141485E-2,4.1682273E-3,5.948892E-3,5.0763533E-2,1.3881345E-2,6.1128624E-2,8.653058E-2,7.378581E-3,1.2043573E-1,7.166073E-2,3.1678878E-2,1.0762884E-1,3.9629437E-2,3.375539E-2,0E0,0E0,2.0525163E-2,1.470888E-2,1.597339E-3,2.6553646E-3,3.950646E-3,2.8120706E-2,0E0,1.7128361E-5,1.5707849E-2,1.0781137E-2,7.3348254E-2,1.2665965E-2,7.658422E-3,3.8399356E-3,1.8421002E-4,4.8239534E-3,1.11368835E-1,3.5397857E-2,3.604786E-2,5.3541236E-2,7.258098E-2,2.259191E-2,1.3804527E-1,2.2650054E-2,0E0,4.4700358E-2,3.7469216E-2,1.614719E-2,0E0,0E0,0E0,0E0,0E0,0E0,0E0,0E0,0E0,0E0,0E0,0E0,0E0,0E0,0E0,0E0,0E0,0E0,0E0,0E0,0E0,0E0,0E0,0E0,0E0,0E0,0E0,0E0,0E0,0E0,0E0,0E0,0E0,0E0,0E0,0E0,0E0,0E0,0E0,0E0,0E0,0E0,0E0,0E0,0E0,0E0,0E0,0E0,0E0,0E0,0E0,0E0],"parents":[2147483647,0,0,1,1,2,2,3,3,4,4,5,5,6,6,7,7,8,8,9,9,10,10,11,11,12,12,13,13,14,14,16,16,17,17,18,18,19,19,20,20,21,21,22,22,23,23,24,24,25,25,26,26,27,27,28,28,29,29,30,30,33,33,34,34,35,35,36,36,37,37,38,38,40,40,41,41,42,42,43,43,44,44,45,45,46,46,47,47,48,48,49,49,50,50,51,51,52,52,53,53,54,54,55,55,56,56,58,58,59,59,60,60],"right_children":[2,4,6,8,10,12,14,16,18,20,22,24,26,28,30,-1,32,34,36,38,40,42,44,46,48,50,52,54,56,58,60,-1,-1,62,64,66,68,70,72,-1,74,76,78,80,82,84,86,88,90,92,94,96,98,100,102,104,106,-1,108,110,112,-1,-1,-1,-1,-1,-1,-1,-1,-1,-1,-1,-1,-1,-1,-1,-1,-1,-1,-1,-1,-1,-1,-1,-1,-1,-1,-1,-1,-1,-1,-1,-1,-1,-1,-1,-1,-1,-1,-1,-1,-1,-1,-1,-1,-1,-1,-1,-1,-1,-1,-1,-1],"split_conditions":[2.6836234E-1,1.2021909E-1,6.221395E-1,2.5034323E-2,5.94662E-2,3E0,1.0290008E-1,NaN,NaN,5.752964E-2,-6.639553E-4,NaN,NaN,8.484467E-2,-5.6345236E-1,2.9732017E-2,NaN,7.1154724E1,1.5695709E-1,4E2,NaN,7.425854E-2,NaN,5.4251966E0,1.53E2,4.0575787E-1,4.800308E0,1.2550546E-3,NaN,NaN,3.196295E-1,-1.051109E-3,-4.4949297E-3,6.6837865E-1,1.0656059E-1,3.392665E-2,8.5308444E-1,NaN,NaN,-5.828142E-2,NaN,NaN,NaN,1.8357362E-1,1.3619323E-1,9.391215E-3,3.405949E-2,3.405949E-2,NaN,-3.8101122E-4,3.924697E-2,NaN,NaN,NaN,-6.5389925E-1,3.4818027E0,1.432E1,5.1115174E-2,NaN,NaN,2.4886459E-1,-4.3070423E-3,2.2177666E-2,-6.8304567E-3,-2.2238983E-2,1.3853299E-3,-1.8099617E-3,-4.5591756E-3,5.5121013E-4,-2.3817085E-4,-2.7719229E-3,1.4607744E-2,-1.8136282E-3,-1.4045807E-4,-1.6583091E-3,2.0990662E-2,1.2967765E-3,-5.1088277E-3,-1.1102931E-3,-2.6959158E-2,1.0700747E-2,6.659175E-4,-2.9451258E-3,-9.279033E-3,-5.0260387E-2,-4.938614E-3,1.2325644E-2,-1.0430323E-2,-5.974131E-3,6.293891E-3,-2.027703E-3,-3.4809355E-3,2.0749234E-2,-6.53337E-4,5.966685E-2,-1.5936637E-3,1.9408315E-2,9.86803E-3,8.995807E-4,-3.622111E-2,-2.581909E-3,4.9619623E-3,-2.6038307E-4,-5.090328E-3,-4.7634415E-2,1.9497577E-3,-4.784112E-3,4.2909026E-2,5.65994E-3,2.1360349E-2,4.2520235E-3,-3.7409544E-3,3.939365E-3],"split_indices":[28,12,28,14,28,17,14,33,33,28,11,33,33,14,6,0,31,9,28,1,33,16,33,15,1,6,8,4,33,33,18,0,0,6,3,18,24,31,33,0,32,31,33,16,20,10,3,3,34,11,3,30,29,33,7,28,17,0,31,33,19,0,0,0,0,0,0,0,0,0,0,0,0,0,0,0,0,0,0,0,0,0,0,0,0,0,0,0,0,0,0,0,0,0,0,0,0,0,0,0,0,0,0,0,0,0,0,0,0,0,0,0,0],"split_type":[0,0,0,0,0,0,0,1,1,0,0,1,1,0,0,0,1,0,0,0,1,0,1,0,0,0,0,0,1,1,0,0,0,0,0,0,0,1,1,0,1,1,1,0,0,0,0,0,1,0,0,1,1,1,0,0,0,0,1,1,0,0,0,0,0,0,0,0,0,0,0,0,0,0,0,0,0,0,0,0,0,0,0,0,0,0,0,0,0,0,0,0,0,0,0,0,0,0,0,0,0,0,0,0,0,0,0,0,0,0,0,0,0],"sum_hessian":[3.988E3,1.812E3,2.176E3,2.9E2,1.522E3,5.51E2,1.625E3,6E0,2.84E2,4.7E2,1.052E3,6E1,4.91E2,1.42E3,2.05E2,1E0,5E0,4E1,2.44E2,4.64E2,6E0,4.82E2,5.7E2,1E1,5E1,7.3E1,4.18E2,1.213E3,2.07E2,1.8E1,1.87E2,1E0,4E0,9E0,3.1E1,1.48E2,9.6E1,3.91E2,7.3E1,1E0,5E0,1.8E1,4.64E2,8.3E1,4.87E2,6E0,4E0,1.5E1,3.5E1,6.7E1,6E0,4.5E1,3.73E2,4E1,1.173E3,2.9E1,1.78E2,3E0,1.5E1,8.3E1,1.04E2,5E0,4E0,2.4E1,7E0,1.5E1,1.33E2,8.6E1,1E1,6.7E1,3.24E2,1E1,6.3E1,1E0,4E0,4E0,1.4E1,7.1E1,3.93E2,4E0,7.9E1,3.74E2,1.13E2,1E0,5E0,1E0,3E0,5E0,1E1,7E0,2.8E1,3.2E1,3.5E1,1E0,5E0,9E0,3.6E1,7.4E1,2.99E2,6E0,3.4E1,7.9E1,1.094E3,1.9E1,1E1,8.9E1,8.9E1,3E0,1.2E1,1.3E1,7E1,6.6E1,3.8E1],"tree_param":{"num_deleted":"0","num_feature":"35","num_nodes":"113","size_leaf_vector":"1"}},{"base_weights":[1.4916866E-4,4.1188183E-3,-1.5319313E-3,2.2155559E-2,4.1948725E-4,5.7993177E-3,-2.8628358E-3,3.4364905E-2,-2.3789816E-2,-7.2271065E-3,5.5423835E-3,-9.4465174E-2,8.65021E-3,5.66956E-3,-3.7636233E-3,1.3215778E-2,6.20657E-2,-1.5161336E-2,-1.7184995E-2,-3.2584406E-2,-7.0442125E-4,2.2118408E-2,1.534448E-3,-1.8435989E-2,-3.5327937E-2,-3.6132745E-2,1.563916E-2,-3.6287685E-3,1.3286026E-2,9.823825E-3,-4.118877E-3,4.6812E-2,3.233328E-3,7.2034046E-2,4.741486E-2,-2.0097718E-2,1.1141213E-2,-7.931612E-2,1.1960592E-3,4.102712E-3,-1.1599936E-2,2.5381409E-2,-2.2432566E-2,2.2163726E-2,-2.1277254E-3,-7.936885E-3,8.437334E-4,-1.5548673E-2,-1.0460587E-1,5.9567355E-3,4.0116407E-2,3.1739667E-3,-5.51561E-3,-2.998789E-3,2.248372E-2,2.0461522E-2,-3.7598729E-3,1.1521636E-3,-4.926867E-3,-4.8034354E-3,1.6280312E-2,-4.238344E-4,1.9732125E-2,2.548685E-2,6.548293E-3,-8.1825E-3,-2.087301E-3,1.1799722E-2,-3.409996E-3,-3.6394566E-2,-7.34548E-3,-3.5448417E-2,2.686272E-3,-1.1691186E-3,4.3429043E-3,-2.3958408E-3,-1.0300895E-2,2.2324075E-3,1.5578037E-2,1.6595034E-2,1.3304304E-3,-9.2022E-4,2.2154294E-2,1.2371176E-3,-2.8408937E-2,-3.8977407E-2,6.929532E-3,1.1036433E-2,-1.9124103E-3,-5.778306E-3,1.7519679E-2,5.136966E-3,-3.3119346E-3,-2.2577774E-3,3.4209364E-3,-1.579903E-3,4.746063E-4,-1.5865242E-3,9.018519E-3,9.6004386E-4,7.6088253E-3,5.4051465E-4,-6.501557E-3,-2.2594341E-4,1.042074E-2,-1.3574181E-3,-6.538557E-3],"categories":[0,0,0,0,0,0,0],"categories_nodes":[1,2,9,10,27,54,55],"categories_segments":[0,1,2,3,4,5,6],"categories_sizes":[1,1,1,1,1,1,1],"default_left":[0,1,1,0,0,0,0,0,0,1,1,0,0,0,0,0,0,0,0,0,0,0,0,0,0,0,0,1,0,0,0,0,0,0,0,0,0,0,0,0,0,0,0,0,0,0,0,0,0,0,0,0,0,0,1,1,0,0,0,0,0,0,0,0,0,0,0,0,0,0,0,0,0,0,0,0,0,0,0,0,0,0,0,0,0,0,0,0,0,0,0,0,0,0,0,0,0,0,0,0,0,0,0,0,0,0,0],"id":6,"left_children":[1,3,5,7,9,11,13,15,17,19,21,23,25,27,29,31,33,-1,35,37,39,41,43,45,-1,47,49,51,53,55,57,59,61,-1,63,65,67,69,71,73,75,77,-1,79,81,-1,-1,83,85,87,89,91,93,95,97,99,101,103,105,-1,-1,-1,-1,-1,-1,-1,-1,-1,-1,-1,-1,-1,-1,-1,-1,-1,-1,-1,-1,-1,-1,-1,-1,-1,-1,-1,-1,-1,-1,-1,-1,-1,-1,-1,-1,-1,-1,-1,-1,-1,-1,-1,-1,-1,-1,-1,-1],"loss_changes":[2.6626412E-2,7.9191945E-2,2.7366012E-2,1.1413207E-1,3.8664345E-2,1.2401558E-1,1.8259924E-2,9.291537E-2,6.7281276E-3,6.547454E-2,3.9229523E-2,1.9081824E-2,1.3201916E-1,1.6124444E-2,1.0404011E-2,3.070292E-2,1.6860494E-1,0E0,3.1941421E-3,1.2796298E-1,1.6598465E-2,3.8256757E-2,3.608355E-2,7.560813E-4,0E0,7.87125E-2,8.60287E-2,1.3395816E-3,1.8790267E-2,8.024393E-3,8.919653E-3,1.0705158E-2,2.1013938E-2,0E0,6.0583144E-2,2.922453E-3,2.9851722E-3,7.532686E-2,4.550587E-2,1.83135E-2,7.6957624E-3,5.2950844E-2,0E0,4.207406E-2,2.9211722E-2,0E0,0E0,7.04567E-2,4.5034245E-2,9.984563E-2,1.12938434E-1,4.749273E-3,2.840789E-3,4.861442E-4,1.6995583E-2,2.5414964E-3,2.5295233E-3,1.7878585E-2,1.2213308E-2,0E0,0E0,0E0,0E0,0E0,0E0,0E0,0E0,0E0,0E0,0E0,0E0,0E0,0E0,0E0,0E0,0E0,0E0,0E0,0E0,0E0,0E0,0E0,0E0,0E0,0E0,0E0,0E0,0E0,0E0,0E0,0E0,0E0,0E0,0E0,0E0,0E0,0E0,0E0,0E0,0E0,0E0,0E0,0E0,0E0,0E0,0E0,0E0],"parents":[2147483647,0,0,1,1,2,2,3,3,4,4,5,5,6,6,7,7,8,8,9,9,10,10,11,11,12,12,13,13,14,14,15,15,16,16,18,18,19,19,20,20,21,21,22,22,23,23,25,25,26,26,27,27,28,28,29,29,30,30,31,31,32,32,34,34,35,35,36,36,37,37,38,38,39,39,40,40,41,41,43,43,44,44,47,47,48,48,49,49,50,50,51,51,52,52,53,53,54,54,55,55,56,56,57,57,58,58],"right_children":[2,4,6,8,10,12,14,16,18,20,22,24,26,28,30,32,34,-1,36,38,40,42,44,46,-1,48,50,52,54,56,58,60,62,-1,64,66,68,70,72,74,76,78,-1,80,82,-1,-1,84,86,88,90,92,94,96,98,100,102,104,106,-1,-1,-1,-1,-1,-1,-1,-1,-1,-1,-1,-1,-1,-1,-1,-1,-1,-1,-1,-1,-1,-1,-1,-1,-1,-1,-1,-1,-1,-1,-1,-1,-1,-1,-1,-1,-1,-1,-1,-1,-1,-1,-1,-1,-1,-1,-1,-1],"split_conditions":[4.7424026E-2,NaN,NaN,5E2,2.3822023E-3,-7.55E-1,3.9868334E-1,4.9379677E-1,8.91857E-3,NaN,NaN,2.6573607E-1,9.981642E0,-2.4289712E-2,2.8927988E-1,1.5692534E-1,6.84E0,-1.5161336E-2,4.9288705E-1,8.593781E-1,4.833196E-3,7.825E2,-1.9294687E-1,2.89E2,-3.5327937E-2,7.648977E-2,1.2266029E-1,NaN,8.905898E-2,7.2E2,6.782553E0,1.1400767E-4,1.485E3,7.2034046E-2,9.1235675E-3,4.32E2,1.7812507E-2,5.133023E-1,9.7568583E-1,3.7409326E-1,1.16333336E2,5.7891045E-2,-2.2432566E-2,8.2E1,1.6478876E2,-7.936885E-3,8.437334E-4,5.6501925E-2,6.1892086E-1,4.767831E-1,8.499677E-2,-4.5239487E-1,3.516E1,5.94662E-2,NaN,NaN,1.666536E-1,3.2719073E-1,8.409574E-1,-4.8034354E-3,1.6280312E-2,-4.238344E-4,1.9732125E-2,2.548685E-2,6.548293E-3,-8.1825E-3,-2.087301E-3,1.1799722E-2,-3.409996E-3,-3.6394566E-2,-7.34548E-3,-3.5448417E-2,2.686272E-3,-1.1691186E-3,4.3429043E-3,-2.3958408E-3,-1.0300895E-2,2.2324075E-3,1.5578037E-2,1.6595034E-2,1.3304304E-3,-9.2022E-4,2.2154294E-2,1.2371176E-3,-2.8408937E-2,-3.8977407E-2,6.929532E-3,1.1036433E-2,-1.9124103E-3,-5.778306E-3,1.7519679E-2,5.136966E-3,-3.3119346E-3,-2.2577774E-3,3.4209364E-3,-1.579903E-3,4.746063E-4,-1.5865242E-3,9.018519E-3,9.6004386E-4,7.6088253E-3,5.4051465E-4,-6.501557E-3,-2.2594341E-4,1.042074E-2,-1.3574181E-3,-6.538557E-3],"split_indices":[3,31,33,0,4,19,25,28,5,33,33,28,9,20,24,27,22,0,7,10,3,2,19,1,0,4,19,31,28,0,15,4,1,0,3,1,3,18,21,28,2,14,0,0,8,0,0,11,28,24,28,7,13,28,30,30,3,6,18,0,0,0,0,0,0,0,0,0,0,0,0,0,0,0,0,0,0,0,0,0,0,0,0,0,0,0,0,0,0,0,0,0,0,0,0,0,0,0,0,0,0,0,0,0,0,0,0],"split_type":[0,1,1,0,0,0,0,0,0,1,1,0,0,0,0,0,0,0,0,0,0,0,0,0,0,0,0,1,0,0,0,0,0,0,0,0,0,0,0,0,0,0,0,0,0,0,0,0,0,0,0,0,0,0,1,1,0,0,0,0,0,0,0,0,0,0,0,0,0,0,0,0,0,0,0,0,0,0,0,0,0,0,0,0,0,0,0,0,0,0,0,0,0,0,0,0,0,0,0,0,0,0,0,0,0,0,0],"sum_hessian":[3.988E3,1.186E3,2.802E3,2.01E2,9.85E2,4.3E2,2.372E3,1.59E2,4.2E1,3.95E2,5.9E2,1.1E1,4.19E2,2.26E2,2.146E3,9.1E1,6.8E1,7E0,3.5E1,8E1,3.15E2,1.14E2,4.76E2,3E0,8E0,5.6E1,3.63E2,1.02E2,1.24E2,5.4E1,2.092E3,2E1,7.1E1,4E0,6.4E1,3.2E1,3E0,3.3E1,4.7E1,2.19E2,9.6E1,1.11E2,3E0,7.1E1,4.05E2,2E0,1E0,4.4E1,1.2E1,2.61E2,1.02E2,2.2E1,8E1,4.5E1,7.9E1,3E1,2.4E1,2.78E2,1.814E3,2E0,1.8E1,6.7E1,4E0,2.5E1,3.9E1,2E1,1.2E1,1E0,2E0,1.8E1,1.5E1,2E0,4.5E1,1.24E2,9.5E1,8.4E1,1.2E1,6.7E1,4.4E1,2.4E1,4.7E1,4.01E2,4E0,3.6E1,8E0,1E1,2E0,7.4E1,1.87E2,2.4E1,7.8E1,1.1E1,1.1E1,7.2E1,8E0,3E1,1.5E1,1.7E1,6.2E1,7E0,2.3E1,1.9E1,5E0,2.64E2,1.4E1,1.773E3,4.1E1],"tree_param":{"num_deleted":"0","num_feature":"35","num_nodes":"107","size_leaf_vector":"1"}},{"base_weights":[1.0436071E-4,-2.2289134E-3,2.2190844E-3,-2.0671537E-2,-1.9315324E-3,1.0510354E-2,-1.686977E-4,-8.514686E-2,-7.4773785E-3,-4.185891E-4,-5.199908E-3,4.977713E-3,3.0564828E-2,-1.1243593E-3,1.6957385E-2,-1.109935E-2,-3.147408E-2,-2.166945E-2,1.3845395E-2,1.729075E-2,-1.0343521E-3,-4.0701493E-3,-1.9503107E-2,-2.1519982E-3,1.8203706E-2,9.708015E-2,2.0505683E-2,-3.796481E-3,2.4863484E-3,5.356293E-2,6.479993E-3,-2.6924055E-2,-8.424429E-3,1.1326118E-2,4.3375744E-3,4.771812E-3,3.2853E-2,-3.624112E-2,-8.331474E-4,-4.5815734E-3,3.618321E-2,-4.6196483E-2,-1.3029493E-2,-9.268526E-3,1.636185E-2,-1.3230418E-2,2.5149131E-2,4.885995E-2,3.5605367E-2,5.3084224E-2,1.0293291E-2,-5.232086E-3,1.8865613E-2,2.7436635E-2,-2.1569114E-3,9.252448E-2,4.047486E-2,3.8446292E-2,-3.6343833E-4,-3.1642576E-3,-8.817402E-3,-5.510723E-3,-8.285052E-4,2.6699393E-3,-3.2764918E-4,-8.3857815E-4,3.5915466E-3,-3.7780975E-3,1.26484055E-2,-1.8849196E-2,-6.4013284E-3,-1.8865013E-3,8.8843524E-5,7.7907945E-4,-1.8504882E-3,2.7592713E-2,3.4665521E-3,-5.555957E-3,-2.0772945E-2,-1.4588911E-2,-1.7156473E-3,-4.14274E-3,5.503756E-3,2.7911473E-4,1.0275676E-2,8.311657E-3,-6.1193164E-3,1.461571E-2,3.2106575E-3,-1.1858322E-3,1.4835064E-2,-8.074773E-3,2.2047322E-2,-4.26571E-3,6.857569E-3,2.0110293E-3,-2.1451286E-3,-8.7556755E-3,8.416986E-3,1.6813608E-2,-2.7695051E-3,3.983365E-3,-1.0151685E-3,5.709842E-4,3.6629137E-2,2.2554979E-2,8.004572E-3,3.1325974E-2,-7.0784553E-3,-8.540935E-3,3.1057182E-3],"categories":[0,0,0,0,0,0,0,0,0,0,0,0,0,0,0,0,0,0,0],"categories_nodes":[3,12,18,22,24,28,29,30,31,32,36,37,38,39,40,49,51,52,56],"categories_segments":[0,1,2,3,4,5,6,7,8,9,10,11,12,13,14,15,16,17,18],"categories_sizes":[1,1,1,1,1,1,1,1,1,1,1,1,1,1,1,1,1,1,1],"default_left":[0,0,0,1,0,0,0,0,0,0,0,0,1,0,0,0,0,0,1,0,0,0,1,0,1,0,0,0,1,1,1,1,1,0,0,0,1,1,1,1,1,0,0,0,0,0,0,0,0,1,0,1,1,0,0,0,1,0,0,0,0,0,0,0,0,0,0,0,0,0,0,0,0,0,0,0,0,0,0,0,0,0,0,0,0,0,0,0,0,0,0,0,0,0,0,0,0,0,0,0,0,0,0,0,0,0,0,0,0,0,0],"id":7,"left_children":[1,3,5,7,9,11,13,15,17,19,21,23,25,27,29,-1,-1,31,33,35,37,39,41,43,45,47,49,51,53,55,57,59,61,-1,63,65,67,69,71,73,75,77,79,81,83,85,87,-1,89,91,93,95,97,99,101,103,105,107,109,-1,-1,-1,-1,-1,-1,-1,-1,-1,-1,-1,-1,-1,-1,-1,-1,-1,-1,-1,-1,-1,-1,-1,-1,-1,-1,-1,-1,-1,-1,-1,-1,-1,-1,-1,-1,-1,-1,-1,-1,-1,-1,-1,-1,-1,-1,-1,-1,-1,-1,-1,-1],"loss_changes":[1.968759E-2,1.0364141E-2,4.1438457E-2,2.4884254E-2,9.234834E-3,5.177444E-2,2.6631387E-2,8.7716803E-4,8.167994E-3,1.3954161E-2,9.470684E-3,3.4740653E-2,6.558711E-2,1.4877394E-2,3.263655E-2,0E0,0E0,8.867383E-4,2.3367177E-3,8.220614E-3,8.725342E-3,1.1467787E-2,6.828597E-3,3.1772688E-2,2.8496452E-2,4.67757E-2,2.9064316E-2,2.8923666E-2,7.605721E-2,5.9437864E-3,1.4889597E-2,1.3445411E-4,2.8715443E-4,0E0,2.3266513E-4,1.3955391E-3,8.5686E-3,1.4332477E-3,7.579284E-3,6.2009394E-3,8.555622E-3,3.8204584E-3,9.091305E-3,2.2070508E-2,1.8465167E-2,7.606736E-3,3.557297E-2,0E0,4.576876E-3,3.626164E-2,2.1577299E-2,1.9143533E-2,2.4225703E-2,1.0856788E-1,1.0536715E-2,1.0487251E-2,5.65367E-3,5.1580712E-2,1.7462153E-2,0E0,0E0,0E0,0E0,0E0,0E0,0E0,0E0,0E0,0E0,0E0,0E0,0E0,0E0,0E0,0E0,0E0,0E0,0E0,0E0,0E0,0E0,0E0,0E0,0E0,0E0,0E0,0E0,0E0,0E0,0E0,0E0,0E0,0E0,0E0,0E0,0E0,0E0,0E0,0E0,0E0,0E0,0E0,0E0,0E0,0E0,0E0,0E0,0E0,0E0,0E0,0E0],"parents":[2147483647,0,0,1,1,2,2,3,3,4,4,5,5,6,6,7,7,8,8,9,9,10,10,11,11,12,12,13,13,14,14,17,17,18,18,19,19,20,20,21,21,22,22,23,23,24,24,25,25,26,26,27,27,28,28,29,29,30,30,31,31,32,32,34,34,35,35,36,36,37,37,38,38,39,39,40,40,41,41,42,42,43,43,44,44,45,45,46,46,48,48,49,49,50,50,51,51,52,52,53,53,54,54,55,55,56,56,57,57,58,58],"right_children":[2,4,6,8,10,12,14,16,18,20,22,24,26,28,30,-1,-1,32,34,36,38,40,42,44,46,48,50,52,54,56,58,60,62,-1,64,66,68,70,72,74,76,78,80,82,84,86,88,-1,90,92,94,96,98,100,102,104,106,108,110,-1,-1,-1,-1,-1,-1,-1,-1,-1,-1,-1,-1,-1,-1,-1,-1,-1,-1,-1,-1,-1,-1,-1,-1,-1,-1,-1,-1,-1,-1,-1,-1,-1,-1,-1,-1,-1,-1,-1,-1,-1,-1,-1,-1,-1,-1,-1,-1,-1,-1,-1,-1],"split_conditions":[3.0704108E-1,-8.521089E-1,6.221395E-1,NaN,5.12E2,3.0569696E0,6.0270363E-1,4.04E2,4.04E2,1.8E1,1.3619323E-1,1.5719094E0,NaN,1.8123468E-2,-1.6201302E-1,-1.109935E-2,-3.147408E-2,1.345E2,NaN,9.163012E0,3.3236048E-4,1.2695694E-1,NaN,8.41026E-1,NaN,1.0978636E0,7.9481483E0,1.4033333E2,NaN,NaN,NaN,NaN,NaN,1.1326118E-2,5.89E2,4.926396E0,NaN,NaN,NaN,NaN,NaN,1.4468394E-1,1.6E1,5.0556775E-2,4.1201985E-1,3.1549811E0,3.2135777E-2,4.885995E-2,4.238908E0,NaN,8.9419997E-1,NaN,NaN,3.7814043E-2,3.5801965E-1,4.833196E-3,NaN,1.7639373E-3,-8.2516894E-2,-3.1642576E-3,-8.817402E-3,-5.510723E-3,-8.285052E-4,2.6699393E-3,-3.2764918E-4,-8.3857815E-4,3.5915466E-3,-3.7780975E-3,1.26484055E-2,-1.8849196E-2,-6.4013284E-3,-1.8865013E-3,8.8843524E-5,7.7907945E-4,-1.8504882E-3,2.7592713E-2,3.4665521E-3,-5.555957E-3,-2.0772945E-2,-1.4588911E-2,-1.7156473E-3,-4.14274E-3,5.503756E-3,2.7911473E-4,1.0275676E-2,8.311657E-3,-6.1193164E-3,1.461571E-2,3.2106575E-3,-1.1858322E-3,1.4835064E-2,-8.074773E-3,2.2047322E-2,-4.26571E-3,6.857569E-3,2.0110293E-3,-2.1451286E-3,-8.7556755E-3,8.416986E-3,1.6813608E-2,-2.7695051E-3,3.983365E-3,-1.0151685E-3,5.709842E-4,3.6629137E-2,2.2554979E-2,8.004572E-3,3.1325974E-2,-7.0784553E-3,-8.540935E-3,3.1057182E-3],"split_indices":[28,6,28,33,0,16,20,1,1,1,20,23,33,4,7,0,0,2,31,8,3,20,33,10,32,10,15,2,33,31,31,34,31,0,1,15,30,33,30,32,33,6,1,7,28,8,5,0,15,31,10,31,33,4,25,3,33,4,7,0,0,0,0,0,0,0,0,0,0,0,0,0,0,0,0,0,0,0,0,0,0,0,0,0,0,0,0,0,0,0,0,0,0,0,0,0,0,0,0,0,0,0,0,0,0,0,0,0,0,0,0],"split_type":[0,0,0,1,0,0,0,0,0,0,0,0,1,0,0,0,0,0,1,0,0,0,1,0,1,0,0,0,1,1,1,1,1,0,0,0,1,1,1,1,1,0,0,0,0,0,0,0,0,1,0,1,1,0,0,0,1,0,0,0,0,0,0,0,0,0,0,0,0,0,0,0,0,0,0,0,0,0,0,0,0,0,0,0,0,0,0,0,0,0,0,0,0,0,0,0,0,0,0,0,0,0,0,0,0,0,0,0,0,0,0],"sum_hessian":[3.988E3,1.896E3,2.092E3,2.9E1,1.867E3,4.67E2,1.625E3,4E0,2.5E1,1.277E3,5.9E2,3.67E2,1E2,1.54E3,8.5E1,2E0,2E0,1.5E1,1E1,4.2E1,1.235E3,5.48E2,4.2E1,2.39E2,1.28E2,1.2E1,8.8E1,8.85E2,6.55E2,1.8E1,6.7E1,1E1,5E0,2E0,8E0,2.4E1,1.8E1,6E0,1.229E3,5.42E2,6E0,7E0,3.5E1,1.73E2,6.6E1,2.3E1,1.05E2,5E0,7E0,2E1,6.8E1,8.33E2,5.2E1,1.02E2,5.53E2,3E0,1.5E1,1.1E1,5.6E1,2E0,8E0,1E0,4E0,4E0,4E0,1.2E1,1.2E1,3E0,1.5E1,1E0,5E0,2.1E2,1.019E3,9.8E1,4.44E2,1E0,5E0,4E0,3E0,5E0,3E1,1.49E2,2.4E1,3.6E1,3E1,3E0,2E1,3.9E1,6.6E1,2E0,5E0,4E0,1.6E1,2.3E1,4.5E1,1.15E2,7.18E2,8E0,4.4E1,5.7E1,4.5E1,4E1,5.13E2,1E0,2E0,3E0,1.2E1,5E0,6E0,1.5E1,4.1E1],"tree_param":{"num_deleted":"0","num_feature":"35","num_nodes":"111","size_leaf_vector":"1"}},{"base_weights":[1.0785381E-4,9.300127E-4,-4.1798344E-3,-4.0121893E-3,2.0018022E-3,-2.661283E-3,-1.9140078E-2,5.6993652E-2,-4.8325867E-3,3.6483917E-3,-2.6854947E-3,-6.7643467E-3,2.1354817E-3,-9.2134394E-2,-5.883433E-3,2.308647E-2,-1.926714E-3,-6.319106E-3,2.6948282E-3,6.784395E-3,-8.649151E-4,-3.977745E-3,2.6996551E-2,-2.2827415E-2,-4.072087E-3,1.8745719E-2,-1.0065169E-3,-1.3110134E-1,-1.0650378E-2,-1.2190197E-2,-1.4213212E-3,-4.2586112E-3,3.3915897E-3,-5.608336E-4,-8.273517E-3,-5.691846E-3,2.87909E-2,2.077126E-2,3.5243514E-3,1.1693634E-2,-3.5612872E-3,-1.1943194E-2,-2.079513E-3,3.5716537E-2,-1.447977E-3,-3.5147984E-2,3.0360186E-2,2.1220245E-3,-5.6953067E-3,1.3241046E-2,3.74913E-2,-1.819713E-2,1.6900263E-3,-4.6325587E-3,-4.534346E-2,-3.138059E-2,7.7310386E-3,8.617782E-3,-1.759312E-2,-7.4235094E-3,3.1614437E-4,-3.3493422E-4,4.9993508E-3,-2.0522322E-3,-4.9979426E-3,-2.001893E-3,1.0036775E-2,3.098595E-2,-5.3373177E-4,1.2703235E-2,2.4128547E-3,-5.3878035E-4,2.2639509E-3,1.0483449E-2,2.595614E-4,-1.588287E-3,4.7239917E-3,-4.251358E-2,-2.9612472E-3,-1.8302762E-3,2.8482158E-4,2.0623738E-2,6.81676E-3,2.1813258E-3,-1.6698537E-3,-3.3224402E-3,-1.7211383E-2,-8.045295E-3,1.9025616E-2,1.2555508E-2,-4.9982866E-4,-1.0130114E-4,-2.698792E-3,-1.4921707E-3,1.2945362E-2,-2.8551945E-3,-1.5833044E-2,6.428994E-3,-5.8875734E-4,-1.9398831E-3,-1.2181383E-2,-2.07204E-3,1.0607418E-2,-3.3200989E-3,-9.312726E-3,-4.5473684E-4,-2.4466494E-3,2.0754163E-3,-3.81238E-4],"categories":[0,0,0,0,0,0,0,0,0,0,0,0,0],"categories_nodes":[1,6,11,12,19,20,21,24,29,30,43,44,52],"categories_segments":[0,1,2,3,4,5,6,7,8,9,10,11,12],"categories_sizes":[1,1,1,1,1,1,1,1,1,1,1,1,1],"default_left":[0,1,0,0,0,0,1,0,0,0,0,1,1,0,0,0,0,0,0,1,1,1,0,0,1,0,0,0,0,1,1,0,0,0,0,0,0,0,0,0,0,0,0,1,1,0,0,0,0,0,0,0,1,0,0,0,0,0,0,0,0,0,0,0,0,0,0,0,0,0,0,0,0,0,0,0,0,0,0,0,0,0,0,0,0,0,0,0,0,0,0,0,0,0,0,0,0,0,0,0,0,0,0,0,0,0,0,0,0],"id":8,"left_children":[1,3,5,7,9,11,13,15,17,19,21,23,25,27,29,-1,31,33,35,37,39,41,43,45,47,49,51,53,55,57,59,-1,-1,61,63,65,67,69,71,73,75,77,79,81,83,85,87,89,91,93,-1,95,97,-1,-1,99,-1,101,103,105,107,-1,-1,-1,-1,-1,-1,-1,-1,-1,-1,-1,-1,-1,-1,-1,-1,-1,-1,-1,-1,-1,-1,-1,-1,-1,-1,-1,-1,-1,-1,-1,-1,-1,-1,-1,-1,-1,-1,-1,-1,-1,-1,-1,-1,-1,-1,-1,-1],"loss_changes":[1.40657555E-2,1.7742384E-2,1.45339575E-2,3.0154709E-2,2.1249883E-2,1.1508402E-2,5.654985E-2,9.557258E-3,6.6189207E-3,2.8837051E-2,2.7570732E-2,1.352952E-2,1.410999E-2,2.7180374E-2,1.4178894E-3,0E0,6.4749987E-4,5.543595E-3,2.1612082E-2,5.4735325E-2,2.8350713E-2,1.0362791E-2,7.4927937E-3,3.055567E-2,2.7368288E-3,2.348888E-2,1.0599746E-2,1.1575386E-2,3.828701E-3,2.5125162E-3,3.2563333E-4,0E0,0E0,1.224505E-3,4.307704E-3,3.1039312E-3,5.48397E-2,6.1990947E-2,2.0898975E-2,3.7232302E-2,2.3137774E-2,3.4099814E-2,6.7781582E-3,8.309113E-3,3.277271E-4,1.9159079E-2,1.8712675E-2,8.648271E-3,3.798972E-3,2.3096737E-2,0E0,8.802208E-3,1.431809E-2,0E0,0E0,4.268696E-4,0E0,2.3198691E-3,1.148574E-3,1.7908693E-5,2.7071187E-4,0E0,0E0,0E0,0E0,0E0,0E0,0E0,0E0,0E0,0E0,0E0,0E0,0E0,0E0,0E0,0E0,0E0,0E0,0E0,0E0,0E0,0E0,0E0,0E0,0E0,0E0,0E0,0E0,0E0,0E0,0E0,0E0,0E0,0E0,0E0,0E0,0E0,0E0,0E0,0E0,0E0,0E0,0E0,0E0,0E0,0E0,0E0,0E0],"parents":[2147483647,0,0,1,1,2,2,3,3,4,4,5,5,6,6,7,7,8,8,9,9,10,10,11,11,12,12,13,13,14,14,16,16,17,17,18,18,19,19,20,20,21,21,22,22,23,23,24,24,25,25,26,26,27,27,28,28,29,29,30,30,33,33,34,34,35,35,36,36,37,37,38,38,39,39,40,40,41,41,42,42,43,43,44,44,45,45,46,46,47,47,48,48,49,49,51,51,52,52,55,55,57,57,58,58,59,59,60,60],"right_children":[2,4,6,8,10,12,14,16,18,20,22,24,26,28,30,-1,32,34,36,38,40,42,44,46,48,50,52,54,56,58,60,-1,-1,62,64,66,68,70,72,74,76,78,80,82,84,86,88,90,92,94,-1,96,98,-1,-1,100,-1,102,104,106,108,-1,-1,-1,-1,-1,-1,-1,-1,-1,-1,-1,-1,-1,-1,-1,-1,-1,-1,-1,-1,-1,-1,-1,-1,-1,-1,-1,-1,-1,-1,-1,-1,-1,-1,-1,-1,-1,-1,-1,-1,-1,-1,-1,-1,-1,-1,-1,-1],"split_conditions":[7.210145E1,NaN,4.826617E-4,-9.0408045E-1,1.7447917E0,-2.0772113E-2,NaN,3.2454768E-1,5.5025136E-1,3.1E2,3.0106083E-1,NaN,NaN,-1.6407434E-2,4.32E2,2.308647E-2,3.68E2,1.6561161E-1,4.7407767E-1,NaN,NaN,NaN,2.73E2,1.2974138E0,NaN,7.1775347E-1,3.4587414E1,1.4E2,8.41E2,NaN,NaN,-4.2586112E-3,3.3915897E-3,5.4015617E1,9.5186934E-2,3.733233E1,3.9343066E0,9.758064E0,2.2420509E-1,-6.639553E-4,8.64106E-1,3E0,6.237598E0,NaN,NaN,-1.22219466E-1,1.0549196E-1,8.2917035E-2,1.0129371E-1,1.9889244E-1,3.74913E-2,2.88E2,NaN,-4.6325587E-3,-4.534346E-2,7.98E2,7.7310386E-3,2.371E3,2.371E3,-2.6744207E-2,7.98E2,-3.3493422E-4,4.9993508E-3,-2.0522322E-3,-4.9979426E-3,-2.001893E-3,1.0036775E-2,3.098595E-2,-5.3373177E-4,1.2703235E-2,2.4128547E-3,-5.3878035E-4,2.2639509E-3,1.0483449E-2,2.595614E-4,-1.588287E-3,4.7239917E-3,-4.251358E-2,-2.9612472E-3,-1.8302762E-3,2.8482158E-4,2.0623738E-2,6.81676E-3,2.1813258E-3,-1.6698537E-3,-3.3224402E-3,-1.7211383E-2,-8.045295E-3,1.9025616E-2,1.2555508E-2,-4.9982866E-4,-1.0130114E-4,-2.698792E-3,-1.4921707E-3,1.2945362E-2,-2.8551945E-3,-1.5833044E-2,6.428994E-3,-5.8875734E-4,-1.9398831E-3,-1.2181383E-2,-2.07204E-3,1.0607418E-2,-3.3200989E-3,-9.312726E-3,-4.5473684E-4,-2.4466494E-3,2.0754163E-3,-3.81238E-4],"split_indices":[15,30,11,19,23,6,33,26,5,1,6,33,29,7,1,0,1,28,28,33,31,33,1,10,30,6,17,1,1,30,29,0,0,8,14,8,15,22,28,11,18,22,22,31,29,20,3,18,28,5,0,0,33,0,0,1,0,0,0,7,1,0,0,0,0,0,0,0,0,0,0,0,0,0,0,0,0,0,0,0,0,0,0,0,0,0,0,0,0,0,0,0,0,0,0,0,0,0,0,0,0,0,0,0,0,0,0,0,0],"split_type":[0,1,0,0,0,0,1,0,0,0,0,1,1,0,0,0,0,0,0,1,1,1,0,0,1,0,0,0,0,1,1,0,0,0,0,0,0,0,0,0,0,0,0,1,1,0,0,0,0,0,0,0,1,0,0,0,0,0,0,0,0,0,0,0,0,0,0,0,0,0,0,0,0,0,0,0,0,0,0,0,0,0,0,0,0,0,0,0,0,0,0,0,0,0,0,0,0,0,0,0,0,0,0,0,0,0,0,0,0],"sum_hessian":[3.988E3,3.347E3,6.41E2,5.96E2,2.751E3,5.83E2,5.8E1,7E0,5.89E2,2.036E3,7.15E2,3.14E2,2.69E2,8E0,5E1,5E0,2E0,4.92E2,9.7E1,1.201E3,8.35E2,6.86E2,2.9E1,4.4E1,2.7E2,4.2E1,2.27E2,5E0,3E0,2E1,3E1,1E0,1E0,1.25E2,3.67E2,7.4E1,2.3E1,2.26E2,9.75E2,1.47E2,6.88E2,1.31E2,5.55E2,2.2E1,7E0,3.6E1,8E0,5.6E1,2.14E2,4.1E1,1E0,3E1,1.97E2,1E0,4E0,2E0,1E0,4E0,1.6E1,6E0,2.4E1,1.22E2,3E0,3.15E2,5.2E1,7.3E1,1E0,6E0,1.7E1,8.3E1,1.43E2,4.2E2,5.55E2,4.6E1,1.01E2,6.32E2,5.6E1,1E0,1.3E2,2.38E2,3.17E2,5E0,1.7E1,2E0,5E0,1.8E1,1.8E1,3E0,5E0,4E0,5.2E1,8.2E1,1.32E2,2.6E1,1.5E1,2.5E1,5E0,3E1,1.67E2,1E0,1E0,3E0,1E0,1.2E1,4E0,1E0,5E0,4E0,2E1],"tree_param":{"num_deleted":"0","num_feature":"35","num_nodes":"109","size_leaf_vector":"1"}},{"base_weights":[8.655315E-5,-4.4263657E-3,6.473056E-4,-6.4008003E-3,6.1295787E-3,1.4912221E-3,-3.6310866E-3,-1.7989762E-2,-4.587027E-3,3.4174632E-2,-1.4919457E-3,-1.0087285E-3,5.343767E-3,-1.6104713E-2,-8.0518104E-4,2.737903E-3,-4.9218155E-2,1.7101264E-3,-7.983638E-3,5.669383E-2,-2.220253E-2,1.29381E-2,-7.086794E-3,-1.7179875E-2,-7.8039756E-4,1.793852E-2,3.0135547E-3,-2.5562266E-2,6.961755E-2,4.2394426E-2,-1.818836E-3,-5.1898584E-3,5.7547756E-2,-2.9892324E-2,-3.036516E-2,3.006727E-4,4.0394936E-2,-2.1185279E-2,-4.5571253E-3,6.6358596E-2,-5.9930794E-3,2.6407503E-3,-1.1893491E-2,-1.9449901E-3,1.6522273E-2,-1.2978258E-2,-4.7676684E-3,-7.141365E-2,-6.5382835E-3,-9.5780817E-4,2.3339244E-2,-2.7099608E-2,3.122691E-2,1.2627159E-2,7.921951E-4,-6.006876E-2,-1.0188975E-2,-1.3533684E-2,8.959934E-2,3.8886003E-2,8.6087445E-3,-2.8689466E-3,1.3608413E-2,-3.8115773E-3,1.8502066E-2,2.155326E-2,2.198764E-3,-1.209131E-2,3.4259676E-3,1.1519232E-3,-3.425115E-3,-3.962904E-4,1.642217E-2,-4.5594913E-3,-1.9093992E-2,-5.8821607E-3,-1.0133324E-3,1.324254E-3,2.4387881E-2,2.572109E-3,-1.3837712E-3,2.8763092E-3,-2.6955355E-3,2.693181E-3,8.039648E-3,2.0679533E-4,-4.8276265E-3,2.0266026E-4,-2.0070982E-3,-6.4949472E-3,-2.4235496E-2,-9.188742E-3,-3.3672128E-4,-3.3493605E-4,7.323464E-3,-9.354783E-4,8.529953E-3,1.955042E-3,-1.7386861E-2,1.538632E-2,-1.5540521E-3,8.338648E-3,-7.058319E-4,2.2279697E-3,-8.051566E-4,-3.0202447E-2,-1.1361638E-2,-1.2099715E-2,-5.348375E-4,-5.9582205E-3,-1.3193786E-4,3.150439E-2,1.322297E-2,7.716565E-3,-3.067843E-3,-3.8436713E-4,-3.1306667E-3,8.668904E-3,2.3097605E-3],"categories":[0,0,0,0,0,0,0,0,0,0,0,0,0,0],"categories_nodes":[3,4,6,12,18,21,22,23,26,29,36,48,50,62],"categories_segments":[0,1,2,3,4,5,6,7,8,9,10,11,12,13],"categories_sizes":[1,1,1,1,1,1,1,1,1,1,1,1,1,1],"default_left":[0,0,0,1,1,0,1,0,0,0,0,0,1,0,0,0,0,0,1,0,0,1,1,1,0,0,1,0,0,1,0,0,0,0,0,0,1,0,0,0,0,0,0,0,0,0,0,0,1,0,1,0,0,0,0,0,0,0,0,0,0,0,1,0,0,0,0,0,0,0,0,0,0,0,0,0,0,0,0,0,0,0,0,0,0,0,0,0,0,0,0,0,0,0,0,0,0,0,0,0,0,0,0,0,0,0,0,0,0,0,0,0,0,0,0,0,0,0,0],"id":9,"left_children":[1,3,5,7,9,11,13,15,17,19,21,23,25,27,29,31,33,35,37,39,41,43,45,47,49,51,53,55,57,59,61,63,65,67,-1,69,71,73,75,77,-1,79,-1,81,83,85,87,89,91,93,95,97,99,101,103,105,107,109,111,-1,113,115,117,-1,-1,-1,-1,-1,-1,-1,-1,-1,-1,-1,-1,-1,-1,-1,-1,-1,-1,-1,-1,-1,-1,-1,-1,-1,-1,-1,-1,-1,-1,-1,-1,-1,-1,-1,-1,-1,-1,-1,-1,-1,-1,-1,-1,-1,-1,-1,-1,-1,-1,-1,-1,-1,-1,-1,-1],"loss_changes":[1.009755E-2,9.230567E-3,1.2819453E-2,7.73683E-3,1.50132105E-2,2.8561812E-2,2.0607868E-2,3.2499343E-2,6.9222935E-3,2.0302271E-2,4.612789E-3,6.6291704E-3,3.4195576E-2,8.9337625E-2,2.1008486E-2,1.3768766E-2,1.7072879E-2,6.2036416E-3,9.402931E-3,9.476699E-3,2.2713295E-3,8.8563305E-4,4.983088E-4,1.3961418E-2,7.6177213E-3,1.09770365E-1,2.1046296E-2,5.1374845E-2,1.9489225E-2,3.1300865E-2,7.6207914E-3,1.4853722E-2,2.3452258E-3,7.3425835E-3,0E0,4.646992E-3,2.4660728E-3,9.96393E-3,2.915656E-3,8.892141E-3,0E0,1.6864747E-4,0E0,4.1091294E-4,7.673956E-4,4.7923613E-4,3.2894773E-4,1.1643395E-4,2.8360314E-3,7.122848E-3,1.8407083E-3,4.3943785E-2,1.0324584E-1,4.2101204E-2,1.851518E-2,2.322676E-2,1.7412076E-2,2.3980247E-4,1.6870424E-3,0E0,3.1639517E-3,5.260635E-3,2.4877107E-3,0E0,0E0,0E0,0E0,0E0,0E0,0E0,0E0,0E0,0E0,0E0,0E0,0E0,0E0,0E0,0E0,0E0,0E0,0E0,0E0,0E0,0E0,0E0,0E0,0E0,0E0,0E0,0E0,0E0,0E0,0E0,0E0,0E0,0E0,0E0,0E0,0E0,0E0,0E0,0E0,0E0,0E0,0E0,0E0,0E0,0E0,0E0,0E0,0E0,0E0,0E0,0E0,0E0,0E0,0E0,0E0],"parents":[2147483647,0,0,1,1,2,2,3,3,4,4,5,5,6,6,7,7,8,8,9,9,10,10,11,11,12,12,13,13,14,14,15,15,16,16,17,17,18,18,19,19,20,20,21,21,22,22,23,23,24,24,25,25,26,26,27,27,28,28,29,29,30,30,31,31,32,32,33,33,35,35,36,36,37,37,38,38,39,39,41,41,43,43,44,44,45,45,46,46,47,47,48,48,49,49,50,50,51,51,52,52,53,53,54,54,55,55,56,56,57,57,58,58,60,60,61,61,62,62],"right_children":[2,4,6,8,10,12,14,16,18,20,22,24,26,28,30,32,34,36,38,40,42,44,46,48,50,52,54,56,58,60,62,64,66,68,-1,70,72,74,76,78,-1,80,-1,82,84,86,88,90,92,94,96,98,100,102,104,106,108,110,112,-1,114,116,118,-1,-1,-1,-1,-1,-1,-1,-1,-1,-1,-1,-1,-1,-1,-1,-1,-1,-1,-1,-1,-1,-1,-1,-1,-1,-1,-1,-1,-1,-1,-1,-1,-1,-1,-1,-1,-1,-1,-1,-1,-1,-1,-1,-1,-1,-1,-1,-1,-1,-1,-1,-1,-1,-1,-1,-1],"split_conditions":[-4.5727976E-2,1.4303372E0,2.0724237E0,NaN,NaN,4.1201985E-1,NaN,-1.2965561E-3,-3.1816652E-1,1.7358668E0,3.1997135E1,7.5925297E-1,NaN,1.7860554E-2,2.1376379E-1,6.6370094E-1,4.9196157E-1,3.374286E1,NaN,3.85E2,5.8316666E1,NaN,NaN,NaN,1.1383513E0,2.1040024E1,NaN,8.006243E0,-1.516905E-1,NaN,2.7258512E-1,-4.0256288E-2,1.5E2,3.216883E1,-3.036516E-2,5.7138078E-2,NaN,7.114955E-2,4.278226E-1,-1.240854E-1,-5.9930794E-3,3.43E2,-1.1893491E-2,3.43E2,4.63E2,4.152663E-2,-1.0455013E-1,6.5E1,NaN,2.1299503E0,NaN,5.8953166E-2,4.03E1,7.4038464E-1,2.6636175E1,7.036793E-1,4.9995203E-2,8.479E3,8.479E3,3.8886003E-2,3.1E2,-1.7688274E-2,NaN,-3.8115773E-3,1.8502066E-2,2.155326E-2,2.198764E-3,-1.209131E-2,3.4259676E-3,1.1519232E-3,-3.425115E-3,-3.962904E-4,1.642217E-2,-4.5594913E-3,-1.9093992E-2,-5.8821607E-3,-1.0133324E-3,1.324254E-3,2.4387881E-2,2.572109E-3,-1.3837712E-3,2.8763092E-3,-2.6955355E-3,2.693181E-3,8.039648E-3,2.0679533E-4,-4.8276265E-3,2.0266026E-4,-2.0070982E-3,-6.4949472E-3,-2.4235496E-2,-9.188742E-3,-3.3672128E-4,-3.3493605E-4,7.323464E-3,-9.354783E-4,8.529953E-3,1.955042E-3,-1.7386861E-2,1.538632E-2,-1.5540521E-3,8.338648E-3,-7.058319E-4,2.2279697E-3,-8.051566E-4,-3.0202447E-2,-1.1361638E-2,-1.2099715E-2,-5.348375E-4,-5.9582205E-3,-1.3193786E-4,3.150439E-2,1.322297E-2,7.716565E-3,-3.067843E-3,-3.8436713E-4,-3.1306667E-3,8.668904E-3,2.3097605E-3],"split_indices":[11,28,28,33,33,28,33,6,19,23,15,8,33,6,24,10,12,15,31,1,13,29,29,33,27,13,29,8,7,31,11,6,1,15,0,18,30,20,25,19,0,0,0,0,0,5,11,0,29,23,30,14,15,28,13,12,5,1,1,0,1,6,32,0,0,0,0,0,0,0,0,0,0,0,0,0,0,0,0,0,0,0,0,0,0,0,0,0,0,0,0,0,0,0,0,0,0,0,0,0,0,0,0,0,0,0,0,0,0,0,0,0,0,0,0,0,0,0,0],"split_type":[0,0,0,1,1,0,1,0,0,0,0,0,1,0,0,0,0,0,1,0,0,1,1,1,0,0,1,0,0,1,0,0,0,0,0,0,1,0,0,0,0,0,0,0,0,0,0,0,1,0,1,0,0,0,0,0,0,0,0,0,0,0,1,0,0,0,0,0,0,0,0,0,0,0,0,0,0,0,0,0,0,0,0,0,0,0,0,0,0,0,0,0,0,0,0,0,0,0,0,0,0,0,0,0,0,0,0,0,0,0,0,0,0,0,0,0,0,0,0],"sum_hessian":[3.988E3,4.4E2,3.548E3,3.71E2,6.9E1,2.964E3,5.84E2,4.9E1,3.22E2,1.4E1,5.5E1,1.798E3,1.166E3,1.07E2,4.77E2,3E1,1.9E1,1.13E2,2.09E2,1E1,4E0,1.5E1,4E1,2.4E1,1.774E3,1.81E2,9.85E2,9.7E1,1E1,1E1,4.67E2,2.7E1,3E0,1.5E1,4E0,1.1E2,3E0,4.2E1,1.67E2,9E0,1E0,2E0,2E0,3E0,1.2E1,1E1,3E1,3E0,2.1E1,1.762E3,1.2E1,4.1E1,1.4E2,1.84E2,8.01E2,2.9E1,6.8E1,2E0,8E0,2E0,8E0,4.38E2,2.9E1,2.5E1,2E0,2E0,1E0,1.2E1,3E0,8.5E1,2.5E1,1E0,2E0,3.8E1,4E0,1.1E1,1.56E2,2E0,7E0,1E0,1E0,1E0,2E0,8E0,4E0,2E0,8E0,8E0,2.2E1,1E0,2E0,3E0,1.8E1,1.752E3,1E1,2E0,1E1,2E1,2.1E1,9E1,5E1,9.1E1,9.3E1,2.75E2,5.26E2,9E0,2E1,1.4E1,5.4E1,1E0,1E0,5E0,3E0,4E0,4E0,3.63E2,7.5E1,7E0,2.2E1],"tree_param":{"num_deleted":"0","num_feature":"35","num_nodes":"119","size_leaf_vector":"1"}},{"base_weights":[6.393086E-5,-2.3165567E-2,1.7506068E-4,2.4141446E-2,-3.3544473E-2,1.3833758E-3,-1.5995968E-3,2.4593929E-2,-6.7393733E-3,-6.1364893E-2,-2.2403998E-2,8.728941E-4,1.6527383E-2,-1.2087906E-2,-9.2612323E-4,-2.3412777E-2,-1.6997688E-3,-3.4894448E-2,-1.5167419E-2,1.4551367E-2,3.4473106E-4,6.701989E-2,7.0965136E-3,-3.7025776E-2,-6.7047984E-3,-2.2176232E-3,3.6219503E-3,3.6820586E-4,-1.420325E-2,-2.5254104E-2,-7.2368244E-3,3.5549777E-3,3.0158924E-2,3.9890666E-2,2.1857435E-4,-1.1323889E-2,9.174775E-2,1.0360818E-3,2.0033816E-2,-6.952214E-2,3.4137927E-2,2.0032182E-2,-8.727391E-3,-9.342008E-3,-1.0162736E-3,1.9030994E-2,6.584383E-4,-1.6010028E-3,-9.034307E-3,-7.249606E-4,-3.0743724E-3,-9.136479E-4,6.924879E-3,-7.2825393E-3,1.2677465E-2,-1.2783711E-2,1.822297E-2,1.8235725E-5,8.016716E-3,-1.459092E-4,3.4460124E-2,2.7715007E-3,-1.6885995E-3,-2.522623E-3,8.166245E-3,-8.2960045E-3,-3.678234E-2,1.365877E-3,1.8661587E-2,1.1926371E-2,2.4410374E-3,-8.93849E-4,-4.5093535E-3,-1.8785471E-2,-1.7924703E-3,1.7120348E-3,-5.5834174E-4,1.251168E-3,2.7860934E-2,-1.2589573E-4,1.5096167E-2],"categories":[0,0,0,0,0,0,0,0,0,0,0,0],"categories_nodes":[1,4,10,12,13,25,26,29,32,33,38,41],"categories_segments":[0,1,2,3,4,5,6,7,8,9,10,11],"categories_sizes":[1,1,1,1,1,1,1,1,1,1,1,1],"default_left":[0,1,0,0,1,0,0,0,0,0,1,0,1,1,0,0,0,0,0,0,0,0,0,0,0,1,1,0,0,1,0,0,1,1,0,0,0,0,1,0,0,1,0,0,0,0,0,0,0,0,0,0,0,0,0,0,0,0,0,0,0,0,0,0,0,0,0,0,0,0,0,0,0,0,0,0,0,0,0,0,0],"id":10,"left_children":[1,3,5,7,9,11,13,-1,-1,15,17,19,21,23,25,-1,-1,27,29,31,33,35,37,39,41,43,45,-1,-1,47,49,51,53,55,57,-1,59,61,63,65,67,69,71,73,75,77,79,-1,-1,-1,-1,-1,-1,-1,-1,-1,-1,-1,-1,-1,-1,-1,-1,-1,-1,-1,-1,-1,-1,-1,-1,-1,-1,-1,-1,-1,-1,-1,-1,-1,-1],"loss_changes":[1.0301619E-2,1.01387175E-2,8.51741E-3,1.2624096E-2,3.5841018E-3,1.8253313E-2,1.1354135E-2,0E0,0E0,3.273544E-3,6.4578746E-4,1.6517332E-2,3.6190882E-2,1.2773343E-2,8.895147E-3,0E0,0E0,1.8569329E-3,6.1717443E-4,1.4481058E-2,1.0982014E-2,3.4550864E-2,5.1540155E-3,4.1686893E-2,4.555149E-3,1.0081422E-2,1.5285206E-2,0E0,0E0,2.265044E-4,7.68356E-5,6.643876E-3,2.4077296E-2,1.4631212E-2,9.186229E-3,0E0,2.1379769E-2,2.5666326E-3,4.521643E-3,2.3281071E-2,4.6990216E-3,1.084158E-3,2.7089603E-3,3.0121608E-2,5.747499E-3,5.8865607E-2,1.51194725E-2,0E0,0E0,0E0,0E0,0E0,0E0,0E0,0E0,0E0,0E0,0E0,0E0,0E0,0E0,0E0,0E0,0E0,0E0,0E0,0E0,0E0,0E0,0E0,0E0,0E0,0E0,0E0,0E0,0E0,0E0,0E0,0E0,0E0,0E0],"parents":[2147483647,0,0,1,1,2,2,3,3,4,4,5,5,6,6,9,9,10,10,11,11,12,12,13,13,14,14,17,17,18,18,19,19,20,20,21,21,22,22,23,23,24,24,25,25,26,26,29,29,30,30,31,31,32,32,33,33,34,34,36,36,37,37,38,38,39,39,40,40,41,41,42,42,43,43,44,44,45,45,46,46],"right_children":[2,4,6,8,10,12,14,-1,-1,16,18,20,22,24,26,-1,-1,28,30,32,34,36,38,40,42,44,46,-1,-1,48,50,52,54,56,58,-1,60,62,64,66,68,70,72,74,76,78,80,-1,-1,-1,-1,-1,-1,-1,-1,-1,-1,-1,-1,-1,-1,-1,-1,-1,-1,-1,-1,-1,-1,-1,-1,-1,-1,-1,-1,-1,-1,-1,-1,-1,-1],"split_conditions":[3.3236048E-4,NaN,1.504156E-1,-5.8613026E-1,NaN,1.4929108E-1,1.5331432E-1,2.4593929E-2,-6.7393733E-3,2.35E2,NaN,2.1641052E-8,NaN,NaN,1.7861415E-1,-2.3412777E-2,-1.6997688E-3,3.2E1,3.2E1,1.3695326E-2,-6.7378473E-1,-6.986765E-3,-1.671905E-5,9.9455667E-1,2.5E1,NaN,NaN,3.6820586E-4,-1.420325E-2,NaN,2.35E2,2.3993125E-9,NaN,NaN,6.854289E-1,-1.1323889E-2,3.2749915E-1,1.498329E-1,NaN,1.6157024E1,3.7763638E1,NaN,3.337714E-1,5.4251966E0,4.9062887E-1,5.475E-1,8.986084E-1,-1.6010028E-3,-9.034307E-3,-7.249606E-4,-3.0743724E-3,-9.136479E-4,6.924879E-3,-7.2825393E-3,1.2677465E-2,-1.2783711E-2,1.822297E-2,1.8235725E-5,8.016716E-3,-1.459092E-4,3.4460124E-2,2.7715007E-3,-1.6885995E-3,-2.522623E-3,8.166245E-3,-8.2960045E-3,-3.678234E-2,1.365877E-3,1.8661587E-2,1.1926371E-2,2.4410374E-3,-8.93849E-4,-4.5093535E-3,-1.8785471E-2,-1.7924703E-3,1.7120348E-3,-5.5834174E-4,1.251168E-3,2.7860934E-2,-1.2589573E-4,1.5096167E-2],"split_indices":[3,29,3,7,31,3,3,0,0,0,33,5,33,33,19,0,0,1,1,7,20,20,11,21,1,33,33,0,0,32,0,5,30,29,7,0,24,3,30,22,22,29,28,15,25,24,10,0,0,0,0,0,0,0,0,0,0,0,0,0,0,0,0,0,0,0,0,0,0,0,0,0,0,0,0,0,0,0,0,0,0],"split_type":[0,1,0,0,1,0,0,0,0,0,1,0,1,1,0,0,0,0,0,0,0,0,0,0,0,1,1,0,0,1,0,0,1,1,0,0,0,0,1,0,0,1,0,0,0,0,0,0,0,0,0,0,0,0,0,0,0,0,0,0,0,0,0,0,0,0,0,0,0,0,0,0,0,0,0,0,0,0,0,0,0],"sum_hessian":[3.988E3,1.8E1,3.97E3,3E0,1.5E1,2.362E3,1.608E3,1E0,2E0,3E0,1.2E1,2.286E3,7.6E1,9.6E1,1.512E3,2E0,1E0,3E0,9E0,8.4E1,2.202E3,1.1E1,6.5E1,1.6E1,8E1,1.178E3,3.34E2,1E0,2E0,3E0,6E0,5E1,3.4E1,6E0,2.196E3,2E0,9E0,4.5E1,2E1,1.1E1,5E0,5E0,7.5E1,1.69E2,1.009E3,5.3E1,2.81E2,1E0,2E0,3E0,3E0,3.8E1,1.2E1,6E0,2.8E1,1E0,5E0,2.184E3,1.2E1,2E0,7E0,2E1,2.5E1,4E0,1.6E1,7E0,4E0,3E0,2E0,1E0,4E0,4E1,3.5E1,9E0,1.6E2,1.12E2,8.97E2,4.5E1,8E0,2.76E2,5E0],"tree_param":{"num_deleted":"0","num_feature":"35","num_nodes":"81","size_leaf_vector":"1"}},{"base_weights":[5.1680854E-5,-4.6686373E-6,3.210716E-2,-5.420293E-3,2.860948E-4,-1.1251504E-2,4.996002E-2,6.0478947E-3,-1.0274413E-2,1.7107464E-2,5.1511048E-5,-8.3213495E-3,7.104716E-2,-2.3277659E-2,1.2254428E-2,-2.578897E-2,-6.928713E-3,8.436596E-2,1.0681065E-3,2.293716E-3,-5.84068E-4,-5.3350446E-3,2.9310206E-2,2.307663E-2,-4.3545097E-2,3.307006E-2,6.3708574E-3,-1.1031529E-2,-1.6730879E-2,1.9197907E-2,-9.5017785E-3,-1.967796E-2,1.1283668E-1,-1.0244565E-2,3.490902E-2,-1.5314223E-3,8.447834E-3,-7.61882E-4,1.9944802E-2,1.8371467E-3,8.005887E-3,-6.63815E-3,-1.782937E-2,-7.1978215E-3,2.5386356E-2,-5.238988E-3,2.825851E-3,-5.1022703E-3,-1.3649822E-3,2.6646633E-2,-1.8429781E-3,-4.0561752E-4,-4.153367E-3,-1.0691995E-2,1.8369132E-3,-1.5939318E-3,3.9142273E-2,-1.610238E-2,1.0537631E-3,1.3345565E-2,5.854396E-3,9.085773E-3,-5.913491E-4,9.7275904E-4,6.1028646E-3,-2.4653112E-3,-1.1350451E-4,1.9506034E-2,2.4788508E-3],"categories":[0,0,0,0,0,0,0,0,0,0],"categories_nodes":[2,6,7,8,9,12,14,29,33,38],"categories_segments":[0,1,2,3,4,5,6,7,8,9],"categories_sizes":[1,1,1,1,1,1,1,1,1,1],"default_left":[0,0,1,0,0,0,1,1,1,1,0,0,1,0,1,0,0,0,0,0,0,0,0,0,0,0,0,0,0,1,0,0,0,1,0,0,0,0,1,0,0,0,0,0,0,0,0,0,0,0,0,0,0,0,0,0,0,0,0,0,0,0,0,0,0,0,0,0,0],"id":11,"left_children":[1,3,5,7,9,-1,11,13,15,17,19,-1,21,23,25,27,29,31,33,35,37,-1,-1,39,41,43,45,47,-1,49,51,53,55,57,59,61,63,65,67,-1,-1,-1,-1,-1,-1,-1,-1,-1,-1,-1,-1,-1,-1,-1,-1,-1,-1,-1,-1,-1,-1,-1,-1,-1,-1,-1,-1,-1,-1],"loss_changes":[7.20552E-3,6.2734433E-3,1.0573189E-2,1.1362735E-2,1.4919018E-2,0E0,1.1801244E-2,1.1387866E-2,7.2440254E-3,5.6006607E-2,5.3169564E-3,0E0,1.3575712E-2,1.1339184E-2,6.0352986E-3,1.044571E-2,8.182249E-3,3.1842448E-2,1.6819367E-2,1.941019E-2,1.06266765E-2,0E0,0E0,8.135359E-5,1.4069406E-3,3.438846E-2,3.1436328E-3,6.198322E-4,0E0,1.9953601E-2,3.839056E-3,1.4537339E-3,1.7364211E-2,1.9905098E-2,7.5349957E-4,7.181318E-3,1.9499918E-2,8.240998E-3,1.2626955E-2,0E0,0E0,0E0,0E0,0E0,0E0,0E0,0E0,0E0,0E0,0E0,0E0,0E0,0E0,0E0,0E0,0E0,0E0,0E0,0E0,0E0,0E0,0E0,0E0,0E0,0E0,0E0,0E0,0E0,0E0],"parents":[2147483647,0,0,1,1,2,2,3,3,4,4,6,6,7,7,8,8,9,9,10,10,12,12,13,13,14,14,15,15,16,16,17,17,18,18,19,19,20,20,23,23,24,24,25,25,26,26,27,27,29,29,30,30,31,31,32,32,33,33,34,34,35,35,36,36,37,37,38,38],"right_children":[2,4,6,8,10,-1,12,14,16,18,20,-1,22,24,26,28,30,32,34,36,38,-1,-1,40,42,44,46,48,-1,50,52,54,56,58,60,62,64,66,68,-1,-1,-1,-1,-1,-1,-1,-1,-1,-1,-1,-1,-1,-1,-1,-1,-1,-1,-1,-1,-1,-1,-1,-1,-1,-1,-1,-1,-1,-1],"split_conditions":[8.575388E-1,1.2809071E-3,NaN,3.7864926E-1,1.4868418E-3,-1.1251504E-2,NaN,NaN,NaN,NaN,5.5E1,-8.3213495E-3,NaN,2.88E2,NaN,3.7409326E-1,7.6408416E-1,-7.090165E-1,1.175E2,2.309731E-1,6.087963E-1,-5.3350446E-3,2.9310206E-2,2.2E1,4.7984146E-4,1.0714286E1,2.51E2,3.0750403E-1,-1.6730879E-2,NaN,-6.2905866E-1,2.5E2,1.53E2,NaN,2.5E2,6.655873E-3,-4.3548025E-6,8.91857E-3,NaN,1.8371467E-3,8.005887E-3,-6.63815E-3,-1.782937E-2,-7.1978215E-3,2.5386356E-2,-5.238988E-3,2.825851E-3,-5.1022703E-3,-1.3649822E-3,2.6646633E-2,-1.8429781E-3,-4.0561752E-4,-4.153367E-3,-1.0691995E-2,1.8369132E-3,-1.5939318E-3,3.9142273E-2,-1.610238E-2,1.0537631E-3,1.3345565E-2,5.854396E-3,9.085773E-3,-5.913491E-4,9.7275904E-4,6.1028646E-3,-2.4653112E-3,-1.1350451E-4,1.9506034E-2,2.4788508E-3],"split_indices":[24,4,34,18,4,0,32,33,31,31,1,0,30,0,31,28,10,7,2,28,20,0,0,1,3,2,0,5,0,29,7,1,1,33,1,3,11,5,31,0,0,0,0,0,0,0,0,0,0,0,0,0,0,0,0,0,0,0,0,0,0,0,0,0,0,0,0,0,0],"split_type":[0,0,1,0,0,0,1,1,1,1,0,0,1,0,1,0,0,0,0,0,0,0,0,0,0,0,0,0,0,1,0,0,0,1,0,0,0,0,1,0,0,0,0,0,0,0,0,0,0,0,0,0,0,0,0,0,0,0,0,0,0,0,0,0,0,0,0,0,0],"sum_hessian":[3.988E3,3.982E3,6E0,2.02E2,3.78E3,1E0,5E0,6E1,1.42E2,5.1E1,3.729E3,1E0,4E0,1E1,5E1,2.4E1,1.18E2,9E0,4.2E1,8.23E2,2.906E3,1E0,3E0,3E0,7E0,1E1,4E1,1.7E1,7E0,1E1,1.08E2,2E0,7E0,3.2E1,1E1,5.08E2,3.15E2,2.882E3,2.4E1,1E0,2E0,4E0,3E0,5E0,5E0,4E0,3.6E1,8E0,9E0,2E0,8E0,3.8E1,7E1,1E0,1E0,1E0,6E0,7E0,2.5E1,5E0,5E0,6E0,5.02E2,2.2E2,9.5E1,1.4E2,2.742E3,4E0,2E1],"tree_param":{"num_deleted":"0","num_feature":"35","num_nodes":"69","size_leaf_vector":"1"}},{"base_weights":[5.3830227E-5,-1.6916926E-4,6.571089E-3,8.3182234E-4,-1.867449E-3,1.6161054E-2,-1.6450075E-3,7.0305925E-4,2.6697526E-2,-1.6497204E-3,-2.9824268E-2,6.0747705E-2,6.2274416E-3,4.34862E-3,-7.432185E-3,-3.2429583E-3,1.685124E-3,3.6387555E-3,3.0945404E-2,3.3758616E-3,-2.6995873E-3,-1.6029632E-3,-1.0401243E-2,2.8836738E-2,2.6801778E-2,2.5687955E-2,8.5443933E-4,3.8446557E-2,-2.391259E-3,-5.098039E-2,2.6410278E-3,-1.6608153E-2,-5.81771E-4,1.1668421E-3,1.2957749E-2,9.52358E-3,-7.886141E-3,1.2164079E-2,4.7293913E-2,5.0521635E-2,-3.4466168E-4,-1.351616E-2,-1.8230418E-3,1.06723625E-2,-3.8752176E-3,5.978506E-2,-1.2690473E-2,-1.0907118E-2,1.257531E-2,7.381008E-2,-6.456098E-3,4.3868055E-3,-4.1934666E-3,-1.457409E-2,-2.8399227E-2,2.7824042E-2,-3.272015E-3,-1.3348797E-2,-9.368535E-4,-1.7694564E-3,1.9555663E-4,-1.0411226E-3,6.93398E-4,1.1653939E-2,2.0565656E-3,1.3519371E-2,-1.0286798E-3,4.3203346E-3,1.557505E-2,4.4137746E-2,3.7234374E-3,-1.9668273E-3,4.8378077E-3,-5.8497265E-3,5.07021E-3,-1.3878978E-3,4.5391108E-4,-4.4587455E-3,2.330612E-2,-4.8734434E-3,-1.11636E-3,1.5168687E-3,-4.863504E-3,-2.6944946E-3,5.9619634E-3,-6.878961E-4,2.998263E-2,-9.901788E-4,7.5766826E-3,-1.448862E-4,-5.681678E-3,4.028896E-4,-7.6899347E-3,-2.7188945E-3,1.1104213E-2,-3.7555618E-3,-1.4230219E-4],"categories":[0,0,0,0,0,0,0,0,0,0,0,0,0,0,0],"categories_nodes":[5,8,9,10,12,13,14,15,28,34,37,38,47,48,55],"categories_segments":[0,1,2,3,4,5,6,7,8,9,10,11,12,13,14],"categories_sizes":[1,1,1,1,1,1,1,1,1,1,1,1,1,1,1],"default_left":[0,0,0,0,0,1,0,0,1,1,1,0,1,1,1,1,0,0,0,0,0,0,0,0,0,0,0,0,1,0,0,0,0,0,1,0,0,1,1,0,0,0,0,0,0,0,0,1,1,0,0,0,0,0,0,1,0,0,0,0,0,0,0,0,0,0,0,0,0,0,0,0,0,0,0,0,0,0,0,0,0,0,0,0,0,0,0,0,0,0,0,0,0,0,0,0,0],"id":12,"left_children":[1,3,5,7,9,11,13,15,17,19,21,23,25,27,29,31,33,35,37,39,41,-1,-1,-1,43,45,47,49,51,53,55,57,59,61,63,-1,-1,65,67,69,71,73,75,-1,-1,77,79,81,83,85,-1,87,89,91,-1,93,95,-1,-1,-1,-1,-1,-1,-1,-1,-1,-1,-1,-1,-1,-1,-1,-1,-1,-1,-1,-1,-1,-1,-1,-1,-1,-1,-1,-1,-1,-1,-1,-1,-1,-1,-1,-1,-1,-1,-1,-1],"loss_changes":[5.798506E-3,6.560013E-3,1.0427141E-2,8.067797E-3,8.661297E-3,2.6638992E-2,2.5297252E-3,9.371933E-3,1.0628086E-3,7.506582E-3,1.1198809E-3,1.0632865E-2,5.310682E-3,8.365309E-3,1.6365442E-2,1.7133769E-2,1.1295766E-2,3.3578288E-3,2.495179E-3,4.316752E-2,1.1125269E-2,0E0,0E0,0E0,2.8986577E-3,1.5153226E-2,5.7892436E-3,1.4312259E-2,3.9707584E-4,9.752888E-3,4.7071963E-3,2.9947126E-2,2.6469089E-3,9.8370705E-3,1.3162565E-2,0E0,0E0,3.2326295E-3,1.2643635E-5,6.44428E-2,2.353391E-2,1.6343957E-2,1.0191302E-2,0E0,0E0,9.172669E-3,1.3082876E-4,1.8602193E-3,3.482226E-3,8.184072E-3,0E0,1.2063466E-3,1.3586838E-3,9.1456017E-4,0E0,2.369408E-3,6.666499E-4,0E0,0E0,0E0,0E0,0E0,0E0,0E0,0E0,0E0,0E0,0E0,0E0,0E0,0E0,0E0,0E0,0E0,0E0,0E0,0E0,0E0,0E0,0E0,0E0,0E0,0E0,0E0,0E0,0E0,0E0,0E0,0E0,0E0,0E0,0E0,0E0,0E0,0E0,0E0,0E0],"parents":[2147483647,0,0,1,1,2,2,3,3,4,4,5,5,6,6,7,7,8,8,9,9,10,10,11,11,12,12,13,13,14,14,15,15,16,16,17,17,18,18,19,19,20,20,24,24,25,25,26,26,27,27,28,28,29,29,30,30,31,31,32,32,33,33,34,34,37,37,38,38,39,39,40,40,41,41,42,42,45,45,46,46,47,47,48,48,49,49,51,51,52,52,53,53,55,55,56,56],"right_children":[2,4,6,8,10,12,14,16,18,20,22,24,26,28,30,32,34,36,38,40,42,-1,-1,-1,44,46,48,50,52,54,56,58,60,62,64,-1,-1,66,68,70,72,74,76,-1,-1,78,80,82,84,86,-1,88,90,92,-1,94,96,-1,-1,-1,-1,-1,-1,-1,-1,-1,-1,-1,-1,-1,-1,-1,-1,-1,-1,-1,-1,-1,-1,-1,-1,-1,-1,-1,-1,-1,-1,-1,-1,-1,-1,-1,-1,-1,-1,-1,-1],"split_conditions":[1.6264878E-1,5.8953166E-2,3.076805E1,1.3150145E0,6.154773E-1,NaN,9.7849655E0,2.0635775E-1,NaN,NaN,NaN,4.9660808E-1,NaN,NaN,NaN,NaN,6.851724E1,6.01E2,6.01E2,2.1641052E-8,5.78667E-8,-1.6029632E-3,-1.0401243E-2,2.8836738E-2,2.51E2,2.51E2,1.4956857E-1,6.5449804E-1,NaN,9.97205E1,2.69E2,1.4958511E2,3.2984543E1,7.272763E-2,NaN,9.52358E-3,-7.886141E-3,NaN,NaN,9.571428E0,1.2282628E0,8.858909E1,1.4455027E1,1.06723625E-2,-3.8752176E-3,-5.4365796E-1,5.703521E-1,NaN,NaN,6.925E1,-6.456098E-3,7.433568E1,7.433568E1,-3.3762914E-3,-2.8399227E-2,NaN,1.099627E1,-1.3348797E-2,-9.368535E-4,-1.7694564E-3,1.9555663E-4,-1.0411226E-3,6.93398E-4,1.1653939E-2,2.0565656E-3,1.3519371E-2,-1.0286798E-3,4.3203346E-3,1.557505E-2,4.4137746E-2,3.7234374E-3,-1.9668273E-3,4.8378077E-3,-5.8497265E-3,5.07021E-3,-1.3878978E-3,4.5391108E-4,-4.4587455E-3,2.330612E-2,-4.8734434E-3,-1.11636E-3,1.5168687E-3,-4.863504E-3,-2.6944946E-3,5.9619634E-3,-6.878961E-4,2.998263E-2,-9.901788E-4,7.5766826E-3,-1.448862E-4,-5.681678E-3,4.028896E-4,-7.6899347E-3,-2.7188945E-3,1.1104213E-2,-3.7555618E-3,-1.4230219E-4],"split_indices":[14,14,3,10,18,33,13,12,31,31,30,24,31,33,33,33,22,0,0,5,5,0,0,0,0,0,19,5,34,3,1,13,15,28,33,0,0,33,32,22,28,8,17,0,0,6,6,29,30,9,0,9,9,11,0,31,4,0,0,0,0,0,0,0,0,0,0,0,0,0,0,0,0,0,0,0,0,0,0,0,0,0,0,0,0,0,0,0,0,0,0,0,0,0,0,0,0],"split_type":[0,0,0,0,0,1,0,0,1,1,1,0,1,1,1,1,0,0,0,0,0,0,0,0,0,0,0,0,1,0,0,0,0,0,1,0,0,1,1,0,0,0,0,0,0,0,0,1,1,0,0,0,0,0,0,1,0,0,0,0,0,0,0,0,0,0,0,0,0,0,0,0,0,0,0,0,0,0,0,0,0,0,0,0,0,0,0,0,0,0,0,0,0,0,0,0,0],"sum_hessian":[3.988E3,3.857E3,1.31E2,2.427E3,1.43E3,6E1,7.1E1,2.416E3,1.1E1,1.42E3,1E1,1E1,5E1,3.5E1,3.6E1,4.81E2,1.935E3,2E0,9E0,2.45E2,1.175E3,2E0,8E0,4E0,6E0,1E1,4E1,5E0,3E1,6E0,3E1,7.9E1,4.02E2,1.851E3,8.4E1,1E0,1E0,5E0,4E0,1.7E1,2.28E2,8.7E1,1.088E3,5E0,1E0,5E0,5E0,2E1,2E1,3E0,2E0,6E0,2.4E1,4E0,2E0,5E0,2.5E1,2.5E1,5.4E1,7.5E1,3.27E2,3.66E2,1.485E3,1.5E1,6.9E1,1E0,4E0,1E0,3E0,4E0,1.3E1,1.66E2,6.2E1,7.3E1,1.4E1,5.91E2,4.97E2,1E0,4E0,3E0,2E0,5E0,1.5E1,5E0,1.5E1,1E0,2E0,5E0,1E0,2E1,4E0,2E0,2E0,1E0,4E0,5E0,2E1],"tree_param":{"num_deleted":"0","num_feature":"35","num_nodes":"97","size_leaf_vector":"1"}},{"base_weights":[6.509477E-5,5.860565E-4,-2.6517976E-3,3.349357E-4,1.1249448E-2,-1.5080221E-3,-1.3928291E-2,-4.838085E-3,6.518507E-4,3.8692273E-2,5.070558E-3,2.3979496E-2,-1.769537E-3,-6.626727E-2,-4.4188974E-3,-2.04837E-2,-1.5186998E-3,1.0776455E-3,-3.5993243E-3,-6.5629357E-3,5.1631235E-2,2.5647797E-2,-1.7126254E-4,1.6253851E-2,7.1035936E-3,-8.415249E-3,-8.2414167E-4,-9.560126E-2,-5.699464E-3,3.3866642E-3,-6.4052944E-3,-1.2644314E-2,-2.839884E-2,-3.0716422E-3,2.435987E-2,5.269683E-3,2.9096025E-4,-2.5973743E-2,-2.5046524E-3,-6.738344E-4,-3.6345362E-3,2.1438744E-2,9.027051E-3,-4.4349648E-2,5.1081996E-2,1.50444675E-2,-5.112093E-3,6.319962E-3,-1.6537774E-3,-4.983901E-2,-1.2835758E-4,-1.7929215E-3,6.7231655E-3,-3.293935E-3,-3.309888E-2,-2.603622E-2,8.29662E-3,-2.3694127E-3,9.142116E-3,-1.5933655E-2,-1.9130879E-3,-5.9151766E-3,1.7982662E-2,-2.2484334E-3,1.3207372E-4,-1.081933E-3,9.8596355E-3,-1.7816606E-3,4.7309957E-3,2.0872504E-3,-7.765948E-5,-2.8241457E-2,-1.5066568E-3,-3.252519E-3,-1.9344798E-4,3.3507805E-4,-6.383035E-4,-2.3983935E-2,-1.7505713E-3,1.7883895E-2,-3.854534E-3,7.924407E-3,1.3908728E-3,3.1051352E-3,-2.4435606E-3,3.0223245E-3,-2.676394E-3,1.3217926E-3,-1.6551275E-2,-3.7900533E-3,9.5758674E-4,-2.096029E-4,-4.978692E-3,1.009763E-2,3.2666908E-4,-1.5055123E-3,-1.0210787E-2,-2.9181265E-3,2.0576763E-4,-5.5772276E-4,-5.991037E-3,-1.7925361E-3,-1.0470797E-4],"categories":[0,0,0,0,0,0,0,0,0,0,0,0,0,0,0,0,0,0],"categories_nodes":[4,6,7,10,11,14,17,22,24,25,34,37,38,48,50,52,59,60],"categories_segments":[0,1,2,3,4,5,6,7,8,9,10,11,12,13,14,15,16,17],"categories_sizes":[1,1,1,1,1,1,1,1,1,1,1,1,1,1,1,1,1,1],"default_left":[0,0,0,0,1,0,1,1,0,0,1,1,0,0,1,0,0,1,0,0,0,0,1,0,1,1,0,0,0,0,0,0,0,0,1,0,0,1,1,0,0,0,0,0,0,0,0,0,1,0,1,0,1,0,0,0,0,0,0,1,1,0,0,0,0,0,0,0,0,0,0,0,0,0,0,0,0,0,0,0,0,0,0,0,0,0,0,0,0,0,0,0,0,0,0,0,0,0,0,0,0,0,0],"id":13,"left_children":[1,3,5,7,9,11,13,15,17,19,21,23,25,27,29,31,33,35,37,39,41,43,45,-1,47,49,51,53,55,57,59,61,-1,63,65,67,69,71,73,75,-1,-1,-1,77,79,81,83,-1,85,87,89,91,93,-1,-1,95,-1,97,-1,99,101,-1,-1,-1,-1,-1,-1,-1,-1,-1,-1,-1,-1,-1,-1,-1,-1,-1,-1,-1,-1,-1,-1,-1,-1,-1,-1,-1,-1,-1,-1,-1,-1,-1,-1,-1,-1,-1,-1,-1,-1,-1,-1],"loss_changes":[5.6475727E-3,8.961505E-3,8.259369E-3,5.367296E-3,1.2860406E-2,3.9350055E-3,2.9072175E-2,9.784383E-3,5.586313E-3,8.5366275E-3,6.907573E-3,2.6730448E-3,3.6308197E-3,1.5445389E-2,8.124447E-4,1.7993169E-2,6.38433E-3,9.245536E-3,6.817379E-3,1.226259E-4,2.5487281E-3,2.5409743E-2,3.9861826E-3,0E0,6.4623286E-4,2.4709348E-2,3.7263867E-3,6.266609E-3,3.433361E-3,1.7872716E-3,1.7244557E-3,1.7097292E-2,0E0,2.3177997E-3,2.2593546E-3,5.223173E-2,8.659552E-3,1.8093184E-2,4.1639917E-3,1.0186924E-5,0E0,0E0,0E0,5.017453E-3,6.2198304E-3,1.4160047E-3,1.9602897E-3,0E0,4.308172E-4,3.7138332E-3,2.573108E-3,7.293613E-3,8.765567E-3,0E0,0E0,3.336065E-4,0E0,2.3147115E-4,0E0,7.014242E-4,1.821593E-4,0E0,0E0,0E0,0E0,0E0,0E0,0E0,0E0,0E0,0E0,0E0,0E0,0E0,0E0,0E0,0E0,0E0,0E0,0E0,0E0,0E0,0E0,0E0,0E0,0E0,0E0,0E0,0E0,0E0,0E0,0E0,0E0,0E0,0E0,0E0,0E0,0E0,0E0,0E0,0E0,0E0,0E0],"parents":[2147483647,0,0,1,1,2,2,3,3,4,4,5,5,6,6,7,7,8,8,9,9,10,10,11,11,12,12,13,13,14,14,15,15,16,16,17,17,18,18,19,19,20,20,21,21,22,22,24,24,25,25,26,26,27,27,28,28,29,29,30,30,31,31,33,33,34,34,35,35,36,36,37,37,38,38,39,39,43,43,44,44,45,45,46,46,48,48,49,49,50,50,51,51,52,52,55,55,57,57,59,59,60,60],"right_children":[2,4,6,8,10,12,14,16,18,20,22,24,26,28,30,32,34,36,38,40,42,44,46,-1,48,50,52,54,56,58,60,62,-1,64,66,68,70,72,74,76,-1,-1,-1,78,80,82,84,-1,86,88,90,92,94,-1,-1,96,-1,98,-1,100,102,-1,-1,-1,-1,-1,-1,-1,-1,-1,-1,-1,-1,-1,-1,-1,-1,-1,-1,-1,-1,-1,-1,-1,-1,-1,-1,-1,-1,-1,-1,-1,-1,-1,-1,-1,-1,-1,-1,-1,-1,-1,-1],"split_conditions":[7.210145E1,6.477778E1,4.826617E-4,-1.7414795E-1,NaN,-6.501254E-1,NaN,NaN,4.54807E1,7.857131E-2,NaN,NaN,9.235612E-2,-1.6407434E-2,NaN,1.48E2,3.374286E1,NaN,1.9E1,7.36E2,1.85E2,-1.2828769E-1,NaN,1.6253851E-2,NaN,NaN,1.3074653E0,1.4E2,8.41E2,2.371E3,8.7333336E1,8.4972763E-1,-2.839884E-2,-4.0256288E-2,NaN,2.16375E1,-6.5389925E-1,NaN,NaN,2.25E2,-3.6345362E-3,2.1438744E-2,9.027051E-3,5.7E2,2.25E2,4.5870516E-1,-1.4091657E-1,6.319962E-3,NaN,4.7984146E-4,NaN,4.69417E-1,NaN,-3.293935E-3,-3.309888E-2,7.98E2,8.29662E-3,0E0,9.142116E-3,NaN,NaN,-5.9151766E-3,1.7982662E-2,-2.2484334E-3,1.3207372E-4,-1.081933E-3,9.8596355E-3,-1.7816606E-3,4.7309957E-3,2.0872504E-3,-7.765948E-5,-2.8241457E-2,-1.5066568E-3,-3.252519E-3,-1.9344798E-4,3.3507805E-4,-6.383035E-4,-2.3983935E-2,-1.7505713E-3,1.7883895E-2,-3.854534E-3,7.924407E-3,1.3908728E-3,3.1051352E-3,-2.4435606E-3,3.0223245E-3,-2.676394E-3,1.3217926E-3,-1.6551275E-2,-3.7900533E-3,9.5758674E-4,-2.096029E-4,-4.978692E-3,1.009763E-2,3.2666908E-4,-1.5055123E-3,-1.0210787E-2,-2.9181265E-3,2.0576763E-4,-5.5772276E-4,-5.991037E-3,-1.7925361E-3,-1.0470797E-4],"split_indices":[15,15,11,11,32,20,33,33,15,28,33,29,18,7,30,1,15,33,1,0,1,7,34,0,34,33,23,1,1,0,2,12,0,6,30,9,7,29,33,1,0,0,0,0,1,5,7,0,30,3,29,12,29,0,0,1,0,19,0,34,29,0,0,0,0,0,0,0,0,0,0,0,0,0,0,0,0,0,0,0,0,0,0,0,0,0,0,0,0,0,0,0,0,0,0,0,0,0,0,0,0,0,0],"split_type":[0,0,0,0,1,0,1,1,0,0,1,1,0,0,1,0,0,1,0,0,0,0,1,0,1,1,0,0,0,0,0,0,0,0,1,0,0,1,1,0,0,0,0,0,0,0,0,0,1,0,1,0,1,0,0,0,0,0,0,1,1,0,0,0,0,0,0,0,0,0,0,0,0,0,0,0,0,0,0,0,0,0,0,0,0,0,0,0,0,0,0,0,0,0,0,0,0,0,0,0,0,0,0],"sum_hessian":[3.988E3,3.347E3,6.41E2,3.271E3,7.6E1,5.83E2,5.8E1,1.88E2,3.083E3,1.3E1,6.3E1,5E0,5.78E2,8E0,5E1,3.2E1,1.56E2,2.803E3,2.8E2,3E0,1E1,1.2E1,5.1E1,1E0,4E0,7.1E1,5.07E2,5E0,3E0,1E1,4E1,3E1,2E0,1.48E2,8E0,4.42E2,2.361E3,1.2E1,2.68E2,2E0,1E0,4E0,6E0,3E0,9E0,1.2E1,3.9E1,1E0,3E0,1.1E1,6E1,4.5E2,5.7E1,1E0,4E0,2E0,1E0,9E0,1E0,1.2E1,2.8E1,2.8E1,2E0,6.5E1,8.3E1,2E0,6E0,2.14E2,2.28E2,1.79E2,2.182E3,2E0,1E1,4.8E1,2.2E2,1E0,1E0,1E0,2E0,8E0,1E0,5E0,7E0,6E0,3.3E1,1E0,2E0,1E0,1E1,1.2E1,4.8E1,4.2E2,3E1,9E0,4.8E1,1E0,1E0,2E0,7E0,3E0,9E0,7E0,2.1E1],"tree_param":{"num_deleted":"0","num_feature":"35","num_nodes":"103","size_leaf_vector":"1"}},{"base_weights":[3.4325218E-5,-6.943025E-3,2.1000508E-4,1.7370274E-2,-8.717482E-3,4.677354E-3,-1.5364583E-4,1.4537062E-2,4.11303E-3,-2.5646338E-2,-5.8575748E-3,1.2572078E-3,3.354255E-2,6.325894E-4,-2.8199465E-3,-2.6228463E-3,8.432765E-3,-4.2054832E-2,9.018218E-3,-1.4392683E-2,-7.220686E-4,5.682199E-4,4.5727123E-2,8.437549E-2,2.0521773E-2,-2.3497218E-4,3.2120617E-3,-1.3073599E-2,-2.065666E-3,-1.5491183E-3,1.3122819E-2,-1.4961202E-2,-1.822125E-2,5.2396692E-3,-2.4352E-3,-3.16162E-2,-9.6833315E-3,-5.1662847E-3,1.590838E-2,-1.5354374E-2,3.278939E-3,-1.6520914E-3,1.9392245E-2,1.23263225E-2,3.41902E-2,3.7166115E-2,7.796178E-3,1.600284E-2,-5.771246E-4,-3.5760866E-4,8.26007E-3,-2.6826477E-2,-4.6879323E-3,2.3875648E-2,-2.8659143E-3,-7.806905E-6,5.2543324E-3,-5.4368735E-3,-3.4715413E-4,3.3941903E-4,-1.435259E-3,1.0471642E-2,-2.2081023E-2,-4.4673528E-3,4.2378847E-3,-5.4397425E-3,-2.8587118E-4,1.611456E-2,4.6155238E-4,-1.4805331E-2,2.6889306E-3,-3.6142344E-4,4.188878E-3,2.935754E-3,1.2648992E-2,1.4387265E-2,-1.548262E-3,-5.839417E-3,7.031999E-3,-6.0101553E-5,-1.9653328E-3,-5.327108E-4,4.2073894E-3,6.8410933E-3,1.5843493E-3,-2.8794145E-2,-4.348651E-3,4.9321223E-3,-2.5878195E-3,3.531225E-2,1.1746488E-3,-9.6987624E-4,1.085521E-2],"categories":[0,0,0,0,0,0,0,0,0,0,0,0,0,0,0,0,0,0],"categories_nodes":[3,4,8,12,16,19,21,22,30,37,38,45,46,47,50,51,52,53],"categories_segments":[0,1,2,3,4,5,6,7,8,9,10,11,12,13,14,15,16,17],"categories_sizes":[1,1,1,1,1,1,1,1,1,1,1,1,1,1,1,1,1,1],"default_left":[0,0,0,1,1,0,0,0,1,0,0,0,1,0,0,0,1,0,0,1,0,1,1,0,0,0,0,0,0,0,1,0,0,0,0,0,0,1,1,0,0,0,0,0,0,1,1,1,0,0,1,1,1,1,0,0,0,0,0,0,0,0,0,0,0,0,0,0,0,0,0,0,0,0,0,0,0,0,0,0,0,0,0,0,0,0,0,0,0,0,0,0,0],"id":14,"left_children":[1,3,5,7,9,11,13,-1,15,17,19,21,23,25,27,-1,29,31,33,35,37,39,41,43,45,47,49,51,53,-1,55,57,-1,-1,59,61,63,65,67,69,71,-1,-1,-1,-1,73,75,77,79,81,83,85,87,89,91,-1,-1,-1,-1,-1,-1,-1,-1,-1,-1,-1,-1,-1,-1,-1,-1,-1,-1,-1,-1,-1,-1,-1,-1,-1,-1,-1,-1,-1,-1,-1,-1,-1,-1,-1,-1,-1,-1],"loss_changes":[4.8910943E-3,4.379431E-3,6.323489E-3,2.6855534E-3,4.3039513E-3,2.8883725E-2,7.5486056E-3,0E0,4.0692932E-4,7.7735707E-3,3.4961754E-3,8.032136E-3,1.8786881E-2,6.2242188E-3,6.31498E-3,0E0,3.8660408E-4,3.646925E-3,5.2628707E-4,2.127198E-3,3.8515616E-3,1.1272383E-2,4.232078E-3,3.0031241E-3,5.217285E-3,1.1576423E-2,1.2616761E-2,6.332555E-3,1.5949437E-2,0E0,2.3143471E-4,1.9725005E-4,0E0,0E0,3.0546595E-5,1.9327518E-2,3.310276E-3,2.2226125E-3,5.8934297E-3,3.185749E-2,1.0699328E-2,0E0,0E0,0E0,0E0,1.0924647E-3,8.57347E-3,1.17987E-2,4.5905528E-3,8.4074E-3,1.2443509E-2,1.6516175E-2,3.137239E-3,4.2615768E-2,1.0765344E-2,0E0,0E0,0E0,0E0,0E0,0E0,0E0,0E0,0E0,0E0,0E0,0E0,0E0,0E0,0E0,0E0,0E0,0E0,0E0,0E0,0E0,0E0,0E0,0E0,0E0,0E0,0E0,0E0,0E0,0E0,0E0,0E0,0E0,0E0,0E0,0E0,0E0,0E0],"parents":[2147483647,0,0,1,1,2,2,3,3,4,4,5,5,6,6,8,8,9,9,10,10,11,11,12,12,13,13,14,14,16,16,17,17,18,18,19,19,20,20,21,21,22,22,23,23,24,24,25,25,26,26,27,27,28,28,30,30,31,31,34,34,35,35,36,36,37,37,38,38,39,39,40,40,45,45,46,46,47,47,48,48,49,49,50,50,51,51,52,52,53,53,54,54],"right_children":[2,4,6,8,10,12,14,-1,16,18,20,22,24,26,28,-1,30,32,34,36,38,40,42,44,46,48,50,52,54,-1,56,58,-1,-1,60,62,64,66,68,70,72,-1,-1,-1,-1,74,76,78,80,82,84,86,88,90,92,-1,-1,-1,-1,-1,-1,-1,-1,-1,-1,-1,-1,-1,-1,-1,-1,-1,-1,-1,-1,-1,-1,-1,-1,-1,-1,-1,-1,-1,-1,-1,-1,-1,-1,-1,-1,-1,-1],"split_conditions":[-8.608381E-1,3.0494288E-3,-5.6345236E-1,NaN,NaN,5.888943E-1,1.4666031E-1,1.4537062E-2,NaN,7.688607E0,1.0856074E0,8.0956525E-1,NaN,4.7333334E-3,2.1E1,-2.6228463E-3,NaN,7.666065E0,8.2E1,NaN,1.4167626E-1,NaN,NaN,2.0602942E1,-6.500531E-1,1.8E1,-3.7833829E-7,8.55E1,2.5E1,-1.5491183E-3,NaN,3.105933E-1,-1.822125E-2,5.2396692E-3,1.73E2,1.2550546E-3,4.04E2,NaN,NaN,1.2568703E1,8.103345E-1,-1.6520914E-3,1.9392245E-2,1.23263225E-2,3.41902E-2,NaN,NaN,NaN,9.1335654E-1,7.062129E-2,NaN,NaN,NaN,NaN,8.858909E1,-7.806905E-6,5.2543324E-3,-5.4368735E-3,-3.4715413E-4,3.3941903E-4,-1.435259E-3,1.0471642E-2,-2.2081023E-2,-4.4673528E-3,4.2378847E-3,-5.4397425E-3,-2.8587118E-4,1.611456E-2,4.6155238E-4,-1.4805331E-2,2.6889306E-3,-3.6142344E-4,4.188878E-3,2.935754E-3,1.2648992E-2,1.4387265E-2,-1.548262E-3,-5.839417E-3,7.031999E-3,-6.0101553E-5,-1.9653328E-3,-5.327108E-4,4.2073894E-3,6.8410933E-3,1.5843493E-3,-2.8794145E-2,-4.348651E-3,4.9321223E-3,-2.5878195E-3,3.531225E-2,1.1746488E-3,-9.6987624E-4,1.085521E-2],"split_indices":[6,3,6,29,31,20,20,0,33,8,28,24,33,20,1,0,32,8,0,33,5,33,30,9,6,1,11,9,1,0,34,5,0,0,1,4,1,33,33,22,25,0,0,0,0,31,31,30,12,19,33,29,33,29,8,0,0,0,0,0,0,0,0,0,0,0,0,0,0,0,0,0,0,0,0,0,0,0,0,0,0,0,0,0,0,0,0,0,0,0,0,0,0],"split_type":[0,0,0,1,1,0,0,0,1,0,0,0,1,0,0,0,1,0,0,1,0,1,1,0,0,0,0,0,0,0,1,0,0,0,0,0,0,1,1,0,0,0,0,0,0,1,1,1,0,0,1,1,1,1,0,0,0,0,0,0,0,0,0,0,0,0,0,0,0,0,0,0,0,0,0,0,0,0,0,0,0,0,0,0,0,0,0,0,0,0,0,0,0],"sum_hessian":[3.988E3,9.7E1,3.891E3,6E0,9.1E1,2.92E2,3.599E3,1E0,5E0,1.2E1,7.9E1,2.62E2,3E1,2.78E3,8.19E2,1E0,4E0,8E0,4E0,2.9E1,5E1,2.59E2,3E0,5E0,2.5E1,2.081E3,6.99E2,5.5E1,7.64E2,1E0,3E0,4E0,4E0,2E0,2E0,5E0,2.4E1,4E1,1E1,3.7E1,2.22E2,1E0,2E0,3E0,2E0,1E1,1.5E1,4.2E1,2.039E3,4.1E2,2.89E2,2E1,3.5E1,2.2E1,7.42E2,1E0,2E0,3E0,1E0,1E0,1E0,2E0,3E0,2E1,4E0,9E0,3.1E1,2E0,8E0,1.5E1,2.2E1,1.57E2,6.5E1,2E0,8E0,3E0,1.2E1,7E0,3.5E1,1.919E3,1.2E2,3.74E2,3.6E1,4.8E1,2.41E2,2E0,1.8E1,5E0,3E1,3E0,1.9E1,7.36E2,6E0],"tree_param":{"num_deleted":"0","num_feature":"35","num_nodes":"93","size_leaf_vector":"1"}},{"base_weights":[5.0599283E-5,-1.4143499E-2,1.1850089E-4,1.7200725E-2,-2.1095587E-2,1.9572504E-4,-1.2078389E-2,1.6960965E-2,-4.4270195E-3,-3.91695E-2,-1.3911644E-2,8.455384E-5,1.4236431E-2,-5.2765418E-2,-1.8158398E-3,-1.5313218E-2,-5.318746E-4,-2.3942638E-2,-8.5080825E-3,4.823251E-4,-2.6662655E-3,-2.1890221E-2,2.2025796E-2,-3.7450634E-2,-3.539051E-3,7.235849E-3,-4.371287E-3,2.678018E-4,-9.75559E-3,-1.695607E-2,-2.4652209E-3,-4.003092E-5,4.628545E-3,-1.2099529E-2,-8.186498E-4,-1.0451266E-2,-6.7071677E-3,-1.20328795E-2,3.0707998E-2,-7.7138706E-3,9.447375E-3,5.7221125E-3,-4.920432E-4,-8.371099E-3,1.1422374E-4,-6.847255E-4,-6.325945E-3,-6.7492765E-5,-1.2267483E-3,6.78817E-5,-2.1616262E-3,5.2670008E-3,6.230492E-4,-1.2446965E-2,8.118287E-5,-8.8355993E-4,1.0138617E-3,-6.0070754E-4,-2.2823955E-3,-7.9563895E-4,-6.158876E-3,-7.9608755E-4,1.2389808E-2,-1.1840562E-3,5.925535E-4,-1.5434177E-4,-3.1627063E-3,1.8222958E-3,-7.369262E-4],"categories":[0,0,0,0,0,0,0,0,0,0,0,0,0],"categories_nodes":[1,4,6,10,12,14,20,22,29,32,38,43,44],"categories_segments":[0,1,2,3,4,5,6,7,8,9,10,11,12],"categories_sizes":[1,1,1,1,1,1,1,1,1,1,1,1,1],"default_left":[0,1,0,0,1,0,1,0,0,0,1,0,1,0,1,0,0,0,0,0,1,0,1,0,0,0,0,0,0,1,0,0,1,0,0,0,0,0,1,0,0,0,0,1,1,0,0,0,0,0,0,0,0,0,0,0,0,0,0,0,0,0,0,0,0,0,0,0,0],"id":15,"left_children":[1,3,5,7,9,11,13,-1,-1,15,17,19,21,23,25,-1,-1,27,29,31,33,35,37,-1,39,41,43,-1,-1,45,47,49,51,53,55,-1,57,59,61,-1,-1,-1,63,65,67,-1,-1,-1,-1,-1,-1,-1,-1,-1,-1,-1,-1,-1,-1,-1,-1,-1,-1,-1,-1,-1,-1,-1,-1],"loss_changes":[3.8462824E-3,4.503107E-3,3.7426269E-3,5.862586E-3,1.5325593E-3,6.159756E-3,1.0343002E-2,0E0,0E0,1.6857744E-3,5.0093397E-4,4.2872555E-3,9.205662E-3,1.7296927E-2,5.1738333E-4,0E0,0E0,8.8097854E-4,4.6869979E-4,7.413729E-3,8.617472E-3,9.458186E-4,8.057819E-3,0E0,3.916758E-3,4.6679357E-4,3.0595658E-4,0E0,0E0,1.9430474E-4,2.4546196E-5,5.804365E-3,1.2598281E-2,2.9459808E-2,3.7149312E-3,0E0,1.7187704E-6,4.237857E-4,7.529836E-3,0E0,0E0,0E0,4.189087E-5,1.4810491E-4,1.5281266E-4,0E0,0E0,0E0,0E0,0E0,0E0,0E0,0E0,0E0,0E0,0E0,0E0,0E0,0E0,0E0,0E0,0E0,0E0,0E0,0E0,0E0,0E0,0E0,0E0],"parents":[2147483647,0,0,1,1,2,2,3,3,4,4,5,5,6,6,9,9,10,10,11,11,12,12,13,13,14,14,17,17,18,18,19,19,20,20,21,21,22,22,24,24,25,25,26,26,29,29,30,30,31,31,32,32,33,33,34,34,36,36,37,37,38,38,42,42,43,43,44,44],"right_children":[2,4,6,8,10,12,14,-1,-1,16,18,20,22,24,26,-1,-1,28,30,32,34,36,38,-1,40,42,44,-1,-1,46,48,50,52,54,56,-1,58,60,62,-1,-1,-1,64,66,68,-1,-1,-1,-1,-1,-1,-1,-1,-1,-1,-1,-1,-1,-1,-1,-1,-1,-1,-1,-1,-1,-1,-1,-1],"split_conditions":[3.3236048E-4,NaN,1.6315E3,-5.8613026E-1,NaN,1.3525E3,NaN,1.6960965E-2,-4.4270195E-3,2.35E2,NaN,7.080573E-1,NaN,3.28E3,NaN,-1.5313218E-2,-5.318746E-4,3.2E1,3.2E1,1.0290008E-1,NaN,8.64106E-1,NaN,-3.7450634E-2,1.818E3,3.5778168E-1,1.52799E-1,2.678018E-4,-9.75559E-3,NaN,2.35E2,9.5186934E-2,NaN,6.375302E-3,2.833671E-1,-1.0451266E-2,7.4948035E-2,1.4989838E-1,NaN,-7.7138706E-3,9.447375E-3,5.7221125E-3,1.4989838E-1,NaN,NaN,-6.847255E-4,-6.325945E-3,-6.7492765E-5,-1.2267483E-3,6.78817E-5,-2.1616262E-3,5.2670008E-3,6.230492E-4,-1.2446965E-2,8.118287E-5,-8.8355993E-4,1.0138617E-3,-6.0070754E-4,-2.2823955E-3,-7.9563895E-4,-6.158876E-3,-7.9608755E-4,1.2389808E-2,-1.1840562E-3,5.925535E-4,-1.5434177E-4,-3.1627063E-3,1.8222958E-3,-7.369262E-4],"split_indices":[3,29,2,7,31,2,33,0,0,0,33,5,29,1,32,0,0,1,1,14,33,18,31,0,2,10,3,0,0,32,0,14,33,19,28,0,4,3,30,0,0,0,3,30,31,0,0,0,0,0,0,0,0,0,0,0,0,0,0,0,0,0,0,0,0,0,0,0,0],"split_type":[0,1,0,0,1,0,1,0,0,0,1,0,1,0,1,0,0,0,0,0,1,0,1,0,0,0,0,0,0,1,0,0,1,0,0,0,0,0,1,0,0,0,0,1,1,0,0,0,0,0,0,0,0,0,0,0,0,0,0,0,0,0,0,0,0,0,0,0,0],"sum_hessian":[3.988E3,1.8E1,3.97E3,3E0,1.5E1,3.946E3,2.4E1,1E0,2E0,3E0,1.2E1,3.916E3,3E1,4E0,2E1,2E0,1E0,3E0,9E0,3.422E3,4.94E2,5E0,2.5E1,1E0,3E0,4E0,1.6E1,1E0,2E0,3E0,6E0,3.04E3,3.82E2,8E1,4.14E2,2E0,3E0,5E0,2E1,2E0,1E0,1E0,3E0,8E0,8E0,1E0,2E0,3E0,3E0,2.932E3,1.08E2,6.2E1,3.2E2,2.3E1,5.7E1,2.75E2,1.39E2,1E0,2E0,3E0,2E0,5E0,1.5E1,1E0,2E0,2E0,6E0,2E0,6E0],"tree_param":{"num_deleted":"0","num_feature":"35","num_nodes":"69","size_leaf_vector":"1"}},{"base_weights":[1.7606515E-5,4.820151E-4,-2.255072E-3,-2.9720513E-5,6.9761053E-3,-1.07768E-2,-3.247444E-4,-2.7947382E-3,5.505095E-4,3.080976E-2,2.2454534E-3,-2.0023495E-2,3.3424705E-2,1.631013E-2,-1.1432709E-3,-1.022754E-2,-1.2004698E-3,1.4586209E-2,2.3399047E-4,-6.5180846E-3,7.6794796E-2,2.1768192E-2,-3.613236E-3,-9.530266E-3,-4.558912E-2,6.020178E-2,6.0936636E-3,2.430458E-2,3.1990963E-3,-3.6222325E-3,3.213778E-3,-1.36088915E-2,5.2682303E-2,-2.1137714E-3,2.0328809E-2,-2.699479E-2,2.4212401E-2,-2.3348974E-3,1.2089546E-3,-1.8889194E-2,8.2252376E-2,1.2513396E-1,2.5610074E-2,7.606876E-2,3.063333E-3,8.613736E-3,-1.35500375E-2,-7.2205685E-2,-5.9159333E-3,-1.9676747E-2,-6.703265E-2,6.997065E-2,-5.623047E-3,1.6120909E-2,-8.808512E-3,1.5020117E-2,1.4508082E-2,-5.6213243E-3,1.0155923E-2,7.424954E-3,-4.6864967E-3,7.5889914E-3,-3.4191904E-3,-1.1331595E-3,-8.685233E-3,-3.726261E-3,2.1618994E-2,5.7982863E-3,-8.8482886E-4,4.403836E-2,-1.3962194E-3,-3.2165002E-3,-1.3313462E-2,3.5565763E-3,1.1905179E-2,-3.7256905E-4,-3.243225E-3,8.8080694E-4,-3.376208E-4,-7.387763E-3,1.4376664E-2,3.0265307E-2,6.7482637E-3,3.9851833E-2,9.523513E-3,-3.5071387E-3,2.5345048E-2,4.18159E-3,3.1617448E-2,-4.015461E-3,7.3380424E-3,1.9533753E-3,1.62299E-2,2.821042E-3,-5.2043935E-3,-2.6400784E-2,-3.7222402E-3,-3.5319864E-3,6.471924E-3,3.1355347E-3,-8.423959E-3,-2.6415441E-2,-1.0502216E-2,1.0184675E-3,2.3097226E-2,7.627E-3,-4.217758E-3,-7.109321E-5,5.6865895E-3,-1.4143278E-3,4.523425E-3,2.734122E-3,-2.547441E-4,-7.5764203E-4,-2.4434126E-3,8.9132255E-3,1.702573E-3,-4.159972E-3,-5.4975855E-4],"categories":[0,0,0,0,0,0,0,0,0,0,0,0],"categories_nodes":[2,4,7,10,17,27,28,34,56,58,61,62],"categories_segments":[0,1,2,3,4,5,6,7,8,9,10,11],"categories_sizes":[1,1,1,1,1,1,1,1,1,1,1,1],"default_left":[0,0,1,0,1,0,0,1,0,0,1,0,0,0,0,0,0,1,0,0,0,0,0,0,0,0,0,1,1,0,0,0,0,0,1,0,0,0,0,0,0,0,0,0,0,0,0,0,0,0,0,0,0,0,0,0,1,0,1,0,0,1,1,0,0,0,0,0,0,0,0,0,0,0,0,0,0,0,0,0,0,0,0,0,0,0,0,0,0,0,0,0,0,0,0,0,0,0,0,0,0,0,0,0,0,0,0,0,0,0,0,0,0,0,0,0,0,0,0],"id":16,"left_children":[1,3,5,7,9,11,13,15,17,19,21,23,25,27,29,31,33,35,37,39,41,43,45,47,49,51,53,55,57,59,61,63,65,67,69,71,73,75,77,79,81,83,85,87,89,91,93,95,97,99,101,103,-1,105,-1,-1,107,-1,109,111,113,115,117,-1,-1,-1,-1,-1,-1,-1,-1,-1,-1,-1,-1,-1,-1,-1,-1,-1,-1,-1,-1,-1,-1,-1,-1,-1,-1,-1,-1,-1,-1,-1,-1,-1,-1,-1,-1,-1,-1,-1,-1,-1,-1,-1,-1,-1,-1,-1,-1,-1,-1,-1,-1,-1,-1,-1,-1],"loss_changes":[4.2112824E-3,1.1010159E-2,1.1132964E-2,4.93009E-3,2.721601E-2,5.1759012E-2,7.548341E-3,6.303708E-3,1.1280703E-2,6.9161445E-2,2.329732E-2,2.7465183E-2,1.5733749E-2,2.6474507E-3,5.7145464E-3,2.071266E-2,8.694569E-3,2.306854E-2,6.226688E-3,2.6812032E-2,4.133138E-2,4.7504142E-2,1.9191746E-2,1.6562572E-2,1.5350595E-2,9.794768E-3,4.7395737E-3,3.3117356E-3,1.8690177E-3,3.996948E-3,5.5979136E-3,1.3465952E-2,7.203915E-3,7.636179E-3,5.7553783E-2,2.635898E-3,8.323997E-3,6.3232267E-3,7.268239E-3,9.228917E-3,1.0709241E-3,2.259478E-3,2.2947751E-2,2.0392887E-2,1.2997201E-2,6.4377217E-3,7.747451E-3,2.6866216E-3,1.1846913E-2,4.091086E-3,7.6876804E-3,4.4123083E-3,0E0,3.1649128E-3,0E0,0E0,8.569602E-4,0E0,7.298327E-4,4.2693445E-4,2.2812001E-3,4.7422997E-3,1.2509767E-3,0E0,0E0,0E0,0E0,0E0,0E0,0E0,0E0,0E0,0E0,0E0,0E0,0E0,0E0,0E0,0E0,0E0,0E0,0E0,0E0,0E0,0E0,0E0,0E0,0E0,0E0,0E0,0E0,0E0,0E0,0E0,0E0,0E0,0E0,0E0,0E0,0E0,0E0,0E0,0E0,0E0,0E0,0E0,0E0,0E0,0E0,0E0,0E0,0E0,0E0,0E0,0E0,0E0,0E0,0E0,0E0],"parents":[2147483647,0,0,1,1,2,2,3,3,4,4,5,5,6,6,7,7,8,8,9,9,10,10,11,11,12,12,13,13,14,14,15,15,16,16,17,17,18,18,19,19,20,20,21,21,22,22,23,23,24,24,25,25,26,26,27,27,28,28,29,29,30,30,31,31,32,32,33,33,34,34,35,35,36,36,37,37,38,38,39,39,40,40,41,41,42,42,43,43,44,44,45,45,46,46,47,47,48,48,49,49,50,50,51,51,53,53,56,56,58,58,59,59,60,60,61,61,62,62],"right_children":[2,4,6,8,10,12,14,16,18,20,22,24,26,28,30,32,34,36,38,40,42,44,46,48,50,52,54,56,58,60,62,64,66,68,70,72,74,76,78,80,82,84,86,88,90,92,94,96,98,100,102,104,-1,106,-1,-1,108,-1,110,112,114,116,118,-1,-1,-1,-1,-1,-1,-1,-1,-1,-1,-1,-1,-1,-1,-1,-1,-1,-1,-1,-1,-1,-1,-1,-1,-1,-1,-1,-1,-1,-1,-1,-1,-1,-1,-1,-1,-1,-1,-1,-1,-1,-1,-1,-1,-1,-1,-1,-1,-1,-1,-1,-1,-1,-1,-1,-1],"split_conditions":[1.5547893E0,1.2360026E0,NaN,-4.788327E-1,NaN,1.7860554E-2,8.484155E-3,NaN,-4.0442172E-1,3.1611332E-1,NaN,1.2831153E-1,5.4924566E-1,8.461136E0,3.4675014E0,1.6264878E-1,1.6794E-1,NaN,2.2842768E-1,8.1718834E1,1.3127791E0,4.78877E0,5.587838E-2,1.4421024E-3,4.9699076E-2,3.85E2,3.169119E-1,NaN,NaN,6.8E1,9.759879E-1,4.3617728E-1,-5.4365796E-1,1.5968753E-2,NaN,7.1193415E-1,7.1193415E-1,2.32E2,1.504156E-1,6.37E2,6.37E2,1.27265415E1,9.4326013E-1,2.84E2,5.0678587E-1,9.9902093E-1,1.7308995E-2,8.2E1,5.086304E0,4.392139E-4,3.75E2,-1.240854E-1,-5.623047E-3,5.5025136E-1,-8.808512E-3,1.5020117E-2,NaN,-5.6213243E-3,NaN,3.9853403E-1,6.876268E-1,NaN,NaN,-1.1331595E-3,-8.685233E-3,-3.726261E-3,2.1618994E-2,5.7982863E-3,-8.8482886E-4,4.403836E-2,-1.3962194E-3,-3.2165002E-3,-1.3313462E-2,3.5565763E-3,1.1905179E-2,-3.7256905E-4,-3.243225E-3,8.8080694E-4,-3.376208E-4,-7.387763E-3,1.4376664E-2,3.0265307E-2,6.7482637E-3,3.9851833E-2,9.523513E-3,-3.5071387E-3,2.5345048E-2,4.18159E-3,3.1617448E-2,-4.015461E-3,7.3380424E-3,1.9533753E-3,1.62299E-2,2.821042E-3,-5.2043935E-3,-2.6400784E-2,-3.7222402E-3,-3.5319864E-3,6.471924E-3,3.1355347E-3,-8.423959E-3,-2.6415441E-2,-1.0502216E-2,1.0184675E-3,2.3097226E-2,7.627E-3,-4.217758E-3,-7.109321E-5,5.6865895E-3,-1.4143278E-3,4.523425E-3,2.734122E-3,-2.547441E-4,-7.5764203E-4,-2.4434126E-3,8.9132255E-3,1.702573E-3,-4.159972E-3,-5.4975855E-4],"split_indices":[28,28,33,7,33,6,3,31,7,18,31,26,27,8,28,14,3,31,16,8,16,15,14,4,14,1,10,31,31,1,21,28,6,14,33,25,25,2,3,0,0,22,10,1,24,21,18,0,28,5,1,19,0,5,0,0,32,0,32,19,25,31,31,0,0,0,0,0,0,0,0,0,0,0,0,0,0,0,0,0,0,0,0,0,0,0,0,0,0,0,0,0,0,0,0,0,0,0,0,0,0,0,0,0,0,0,0,0,0,0,0,0,0,0,0,0,0,0,0],"split_type":[0,0,1,0,1,0,0,1,0,0,1,0,0,0,0,0,0,1,0,0,0,0,0,0,0,0,0,1,1,0,0,0,0,0,1,0,0,0,0,0,0,0,0,0,0,0,0,0,0,0,0,0,0,0,0,0,1,0,1,0,0,1,1,0,0,0,0,0,0,0,0,0,0,0,0,0,0,0,0,0,0,0,0,0,0,0,0,0,0,0,0,0,0,0,0,0,0,0,0,0,0,0,0,0,0,0,0,0,0,0,0,0,0,0,0,0,0,0,0],"sum_hessian":[3.988E3,3.312E3,6.76E2,3.071E3,2.41E2,1.24E2,5.52E2,5.32E2,2.539E3,3.9E1,2.02E2,1.03E2,2.1E1,2.5E1,5.27E2,9.3E1,4.39E2,5.5E1,2.484E3,2.2E1,1.7E1,4.6E1,1.56E2,7.4E1,2.9E1,1E1,1.1E1,1.5E1,1E1,3.36E2,1.91E2,8.9E1,4E0,4.22E2,1.7E1,1E1,4.5E1,6.83E2,1.801E3,2E1,2E0,8E0,9E0,1.1E1,3.5E1,7E1,8.6E1,3E0,7.1E1,1.4E1,1.5E1,9E0,1E0,9E0,2E0,3E0,1.2E1,2E0,8E0,2.9E1,3.07E2,1.15E2,7.6E1,5.5E1,3.4E1,1E0,3E0,1.5E1,4.07E2,2E0,1.5E1,6E0,4E0,2.6E1,1.9E1,6.06E2,7.7E1,1.035E3,7.66E2,1.9E1,1E0,1E0,1E0,7E0,1E0,6E0,3E0,4E0,7E0,2E1,1.5E1,6.8E1,2E0,1.2E1,7.4E1,2E0,1E0,5.9E1,1.2E1,3E0,1.1E1,8E0,7E0,1E0,8E0,7E0,2E0,3E0,9E0,2E0,6E0,2.4E1,5E0,1.9E2,1.17E2,8E0,1.07E2,9E0,6.7E1],"tree_param":{"num_deleted":"0","num_feature":"35","num_nodes":"119","size_leaf_vector":"1"}},{"base_weights":[5.961414E-5,2.5335683E-5,1.9555539E-2,1.4967754E-4,-5.6785964E-3,2.2464892E-2,-2.1461945E-3,5.326477E-4,-1.7940396E-3,-3.057525E-2,-3.3875977E-4,1.1305574E-2,-1.7649531E-2,-1.8677237E-3,1.0543076E-3,-9.231765E-4,-1.0383701E-2,-3.7145853E-2,8.089115E-3,6.358139E-3,-7.026249E-3,9.1274865E-3,-1.11823175E-2,3.5100646E-2,-2.378818E-3,1.3523217E-3,-5.8471025E-3,-3.518765E-3,9.108049E-4,-5.120482E-2,-2.9763726E-3,-6.5924984E-4,-1.1962527E-2,4.9232324E-3,-1.2831306E-3,3.6234025E-2,-2.10273E-3,-1.4482757E-2,-3.601332E-3,-2.7919645E-4,1.7071668E-2,-1.1898318E-3,6.3133996E-4,2.0028674E-4,1.414772E-3,4.7570257E-3,-2.8210515E-3,-8.368008E-3,-7.37263E-4,1.4247232E-4,6.5298085E-3,-2.1815551E-2,-1.8399253E-3,9.118041E-4,-1.3553256E-3,2.4093848E-3,1.8728685E-2,3.717816E-3,-2.1834674E-3,1.7184523E-4,-5.3676264E-3,-3.6525936E-3,-2.9403943E-4],"categories":[0,0,0,0,0,0,0,0,0,0,0],"categories_nodes":[2,4,6,7,12,16,19,30,36,37,38],"categories_segments":[0,1,2,3,4,5,6,7,8,9,10],"categories_sizes":[1,1,1,1,1,1,1,1,1,1,1],"default_left":[0,0,1,0,1,0,1,1,0,0,0,0,1,0,0,0,1,0,0,1,0,0,0,0,0,0,0,0,0,0,1,0,0,0,0,0,1,1,1,0,0,0,0,0,0,0,0,0,0,0,0,0,0,0,0,0,0,0,0,0,0,0,0],"id":17,"left_children":[1,3,5,7,9,-1,11,13,15,17,19,-1,21,23,25,27,29,31,33,35,37,-1,-1,39,41,43,45,47,49,51,53,-1,-1,-1,-1,55,57,59,61,-1,-1,-1,-1,-1,-1,-1,-1,-1,-1,-1,-1,-1,-1,-1,-1,-1,-1,-1,-1,-1,-1,-1,-1],"loss_changes":[2.6653141E-3,2.8257428E-3,8.565621E-3,2.9033152E-3,1.1289888E-2,0E0,4.3702484E-3,4.0815636E-3,4.7928435E-3,4.1111996E-3,3.2244402E-3,0E0,5.851346E-3,1.1079995E-2,5.5137402E-3,2.7831974E-3,1.7687742E-2,1.152344E-3,3.7891284E-4,9.176124E-3,8.6720777E-4,0E0,0E0,6.338234E-3,4.100196E-3,5.9087668E-3,8.716936E-3,6.191229E-3,3.1077852E-3,8.280946E-3,